1651 9 80595b40 0 2710 7
-16979
65
1452
9589
7314
31940
-23195
-724
-19195
-21607
545
32762
-11281
-16960
9916
8534
-19866
26057
30069
7227
6451
-13099
19356
8145
24821
7694
-248
-14561
-16197
-28483
19332
-13778
-19082
26637
28987
6859
9927
-13752
18867
10222
-27071
10908
27130
18373
-12693
6385
4037
-4540
-10730
22363
32498
4185
-27800
-4635
13702
-20528
-2265
32688
27797
-8130
369
-10471
14848
-4392
3013
31475
29789
-7247
-22422
-22296
25883
-20093
12458
30306
21534
-16441
-13259
-13736
15280
-18044
25872
20107
6772
-20854
-12808
-23674
17185
-16844
3049
32624
23154
-12268
3389
-12710
15272
-3987
25904
19305
9473
-20511
-27116
-17105
14765
-29251
16003
28592
16980
-19900
-9220
-6170
7405
-17779
13972
29638
17978
-18165
-6490
-8946
9486
-14959
-14051
27498
32766
-169
-19561
18126
-2791
-22389
3819
32543
25288
-13256
-12352
-326
7535
-19999
18523
10557
5303
-12661
-30620
-634
879
-32755
21904
524
-2945
-10919
-31859
-7659
4042
-29522
29804
-13614
-19256
-12495
-31695
-1625
-5402
-30855
21030
5889
-2029
-16843
-24836
11510
-9787
-31271
20561
11740
3110
-18319
-24174
10756
-8462
-31655
20188
25809
8261
-24892
2127
1092
-1052
-12641
19589
26266
8749
-27424
3165
25798
-21590
-18025
32736
1402
-12782
-22704
-15640
-946
-5503
-23189
-3651
7197
5646
-3846
-9402
31389
-20703
-18396
23500
-16834
-20229
-11201
-23194
17595
-20764
-25347
16953
-8410
-13283
-11481
-17743
23788
-22317
-23991
14080
-26232
-25183
-31
-23521
20909
-23175
-23163
5227
-25037
-22124
3491
-16222
28469
-26968
-17339
16006
-28591
-29984
-2457
-14070
17583
-21655
-14622
18339
-27154
-26978
-4975
-18709
18851
-22406
-17856
2799
-15312
-17460
-3398
7322
31938
-29074
-256
23758
-19987
-28217
-15835
-10236
26273
-27399
-17970
22772
-22069
-30669
-11534
2220
14440
-21923
-4123
-18291
-21360
-8969
16184
-3995
32522
-24193
-1123
20853
-23102
-30702
-11448
-2171
17784
-22134
-7984
7962
-31784
-31050
229
3831
26613
-29450
1660
18743
-26876
-31426
-5518
-299
5706
-14196
-1106
-10184
-31143
-24199
15825
9315
19478
-20802
11395
-10324
-31097
-22104
14734
2856
17816
-16841
7815
-14790
-29239
-17362
15562
1007
27843
-22814
5521
-24674
-21560
-10286
17525
15626
28264
-20199
17650
-23247
-23092
-11787
21820
18644
13681
-12235
23499
-186
-32766
-25488
9272
-2145
11552
-14924
4004
-5195
-32352
-26027
12230
9578
8118
-11745
14873
-24131
-22166
-8307
21673
9447
16065
-11460
16298
-27713
-17482
-2212
22672
8561
18592
-11961
15199
398
-17587
-20649
5484
27464
-17871
7279
29340
-32111
-6522
6822
21064
15871
13287
-4493
20641
-6749
-32064
-25449
16251
16319
-15245
6367
26756
-19647
-26223
-14159
22559
19564
-5322
1555
30032
-15739
-28739
-16271
21120
11484
-1081
-2476
22106
-21993
-24289
-8406
23638
6735
-1133
1543
19691
-7916
-31796
-23291
19036
12836
-17520
8021
24951
-27131
-18373
-362
26103
-3386
2288
2572
9875
-19518
-26318
-11580
24634
12621
-9665
5263
26396
-25563
11005
16999
12104
26887
-9630
13848
29696
-31287
9736
18364
17752
22343
-6605
12941
26224
-2360
4450
4766
4818
5397
-32319
26389
12134
-32245
-5820
11159
29242
6043
-18251
20378
20909
-15823
-6448
2549
17385
14708
-25169
19940
26000
-25477
20604
28158
11867
19678
-16705
20795
24617
7981
1345
1392
789
-4446
-32463
22926
3442
-18873
26785
31738
6000
5107
-20613
26530
9760
-32046
6834
22302
23160
5619
-13984
19891
17445
-13028
-4379
9358
18660
-13137
-30017
27083
4422
-8131
17195
22643
6513
-7383
-31924
30911
2306
9747
5253
2171
-1963
-5501
-32301
23901
-219
-17052
20524
30569
11797
-13329
-15656
20413
-5206
-12764
25692
32438
4631
-15098
-13342
20240
-9551
-30158
-3619
17933
27423
-22233
2275
7114
-7311
10238
30672
24054
-11889
-17355
-27792
27418
-17306
-22627
4585
24254
22031
-32364
-4698
12623
-17093
-20227
25778
30315
7603
34
-5559
14155
704
7186
31969
27757
-11891
-14770
-12865
15129
-16857
6264
32162
28976
-9524
-24223
-17619
20991
-24040
-4097
32509
32662
-2335
-17732
-9560
15302
-18208
16424
28353
14889
-17569
-4401
-19235
16348
-11775
32038
-6534
-14136
-9549
-30970
-10699
-1968
-31517
10622
30997
20554
-14268
-11324
-14116
15426
-17868
-11845
19394
26457
6167
-31310
9661
1938
-29653
23989
22319
8372
-22514
-15232
-9471
7828
-23297
-6645
26182
26822
-6242
-20308
25714
-10727
-27684
-13079
10888
18679
6732
-23096
23242
-11321
-23689
629
32760
24697
-11808
-17946
19688
-7198
-31165
26361
5385
-3837
-19418
-26843
5115
-6080
-32197
32756
818
-14534
-23136
-8623
475
-7310
-18304
-5038
16945
14414
-6331
-8387
31675
-19064
-19163
32198
6075
-10275
-23136
-16127
-4451
-1219
-25250
27631
-4342
-13401
-15545
-26705
5094
-9213
-31445
14653
29307
12819
-26856
375
19303
-11273
-18013
12468
-26549
-22494
177
-25206
20936
-21974
-22275
31986
-7110
-20139
-20620
-11465
4310
-11549
-18699
31823
-7806
-21857
-20819
-10066
3099
-10051
-17837
7452
-23560
-22075
-1298
-11012
30860
-28886
-13487
14949
-29158
-29168
-1577
-13053
17531
-21810
-12672
147
-23435
-20031
3548
-7211
31963
-28247
-9427
24286
-18503
-26939
-17225
-16053
24158
-22663
-23665
1434
-32735
-28268
6593
-4137
28464
-28471
-3977
17674
-27591
-32233
-3327
812
5228
-14692
-305
18548
-27011
-30182
-5711
-9497
13776
-19284
-10679
6931
-32025
-30006
3571
507
15669
-20346
1918
-16896
-17012
-10490
10914
9895
31237
-23275
7709
-388
-32764
-29834
7876
10388
20769
-24314
10147
-7312
-31940
-21639
12975
-2633
21689
-20546
3009
-5396
-32319
-23254
12278
-702
17008
-17757
5138
-14316
-29474
-21708
14069
18852
20975
-19750
21039
-30652
-11580
-1820
20384
25181
19337
-12200
25808
8058
-31490
-32652
-2734
16180
8105
-13330
17185
-28731
-15754
-187
22562
5691
19356
-11252
12437
-20589
-25490
-9835
20689
25
16601
-11972
9347
-15272
-28990
-21148
14876
26002
4667
-6210
31928
-8263
-31707
-24106
15896
11891
-1220
-4008
19720
-21671
-24577
-10085
24119
3654
8237
-6631
13051
-16461
-28332
-13956
19456
6356
9662
-9545
16458
-1110
-32748
-26884
11627
15747
-11790
1713
25343
-30262
-12563
2734
21136
16992
6690
-35
25835
-28531
-16112
-1311
25765
12004
4466
-1303
20836
-20769
16757
17147
4392
32712
-1888
7192
29394
-28668
-15868
-99
25458
12698
-4139
6633
24609
-27101
-18417
-1181
26075
5022
4781
-1676
16459
-32497
-4193
11412
24354
9839
1128
5404
19058
-30374
-7121
6231
26181
18370
-14333
15030
29116
-8374
4158
5351
8286
14099
-29578
24412
19954
-28287
-16538
2880
29563
6440
-19059
17957
24780
-29502
14258
25150
17841
12756
-17122
22346
21136
4922
-16295
-11719
9550
-6244
-32166
20692
6560
-17250
-27858
-5958
30330
-17210
-20885
15759
6220
-26496
19276
27849
12353
5063
-3014
12641
8356
-5208
-2176
4427
11409
1440
-32735
24954
13795
4023
-13638
-6916
11072
-14158
-29549
19199
-564
-3892
27876
26495
-1062
1738
-32720
31214
5058
-27943
17113
27528
17250
6839
-7761
14115
11934
-4460
32461
30301
-3130
-953
-24637
26008
-513
-11810
30564
32203
-2008
-367
-4892
13113
-1559
9957
26851
20718
-10890
-15044
-29108
28030
-13919
-749
19778
23268
1828
-22752
-23579
24033
-15781
3921
32531
25357
-11228
-6369
-15949
18963
-10656
7010
32008
23734
-13156
-4880
-16403
17737
-9709
13166
30005
22828
-13370
-20304
-20113
19745
-22368
-7272
31949
29819
-2274
-2793
-11649
16626
-5300
1042
32750
28749
-8110
-16158
-12357
17671
-18654
-1430
32735
27389
-8395
-5323
-2914
8914
-11939
9627
31320
21356
-16295
-3548
-7879
9786
-11431
5970
32218
22801
-12311
-11989
-5000
9847
-20445
14578
29345
19040
-19592
-18025
7728
-2355
-28702
3825
32542
22308
-13867
2265
-1459
5728
-8364
29089
15083
1900
-23587
-20255
-7804
4355
-26735
25076
21048
7027
-21115
-23614
-4645
3652
-32562
6840
32045
20471
-17596
-4799
13223
-5500
-19233
19217
-101
-6413
-8663
-28657
2355
-4438
-32464
-11284
17700
16229
-2155
1803
32717
-20411
-9754
4503
32455
18659
-18060
8096
14623
-7260
-9159
11606
30642
17334
-24034
-6957
20224
-10308
-23027
18301
27179
10639
-26433
-3040
13998
-8984
-19819
26821
-18822
-24881
-10451
-16715
1137
-10045
-17351
15663
-7591
-12205
-11741
-12186
27625
-26179
-19705
21110
17537
-6489
-28018
7563
31877
-26872
-18749
15834
-22278
-26697
-6031
-9375
26872
-28830
-15572
9538
-14770
-15445
-6435
-15930
28633
-24261
-19676
56
-22038
-22363
2628
2003
32705
-30009
-3934
17338
-13894
-21307
-15558
-4279
32192
-29600
-14052
20912
-22250
-30942
-10780
-4337
19356
-23447
-11611
27104
-18412
-29066
-14302
-309
4719
-14232
-5894
1418
-32736
-25839
9290
-10056
16451
-18355
-4937
-9807
-31264
-20126
15455
-6766
23950
-21406
-1284
-2857
-32298
-26574
7049
2393
32679
-30732
2116
14250
-29505
-30715
-1430
-2561
12749
-19501
-2702
-3273
-32603
-23722
12449
-8269
13015
-14079
-1176
12193
-30413
-32572
-1344
7428
10099
-17525
6920
-17759
-27536
-14109
21161
-1174
14875
-12499
6911
-12451
-30309
-20594
17681
6965
11956
-13119
13134
-22776
-23556
-8403
22165
1267
16312
-11717
9511
-2499
-1253
-7449
-5840
30589
11745
-10775
22147
-13184
-29997
-18177
18163
5071
13860
-14559
12366
-1781
-32718
-30714
10503
26638
299
-10139
29522
-17892
-27450
-15981
20214
13885
4591
-5715
22317
-21195
-24988
-9543
22192
3710
12034
-9417
13425
-20006
-25950
-12690
21940
7936
-1854
2135
19419
-31599
-8670
6063
22570
13336
11737
-4152
19880
-29558
-6633
3034
22766
24712
-8274
10133
31160
-6971
-3251
-5684
5218
28182
-16716
11497
28515
-29307
-14655
845
26831
11662
629
1774
21701
-10337
-31093
-17617
19797
3990
-12846
6393
19561
-15972
-291
3492
11027
25199
-16365
14249
29506
-3385
15542
9119
-3010
23315
-23022
20026
20954
-30155
374
11663
19052
25502
-4059
8342
31687
-21580
11708
16625
10089
21404
-17043
20212
25790
-32713
1870
22254
22468
4632
-14557
21324
21514
-32502
-4151
12289
24860
10260
337
5570
20108
-32533
3905
19005
22803
7947
-5879
12731
17773
-20945
2688
11218
19930
11887
-27375
24518
21737
-32526
-3965
13343
26759
5671
-1803
7079
16714
-29805
-13613
6333
30511
-2668
-4829
7328
12459
-15536
17835
27020
10656
-6883
-30500
32363
5125
-13252
29967
28935
1863
11684
-25821
28297
12506
-8264
31707
28570
-3772
10777
-15758
18995
7799
-977
31839
24783
-6200
5918
-32228
31536
4608
3358
25882
21090
-5643
-396
-32764
29339
1309
7352
11136
9290
-2072
-14326
-29468
24838
-8825
-28354
16387
28813
15604
-4059
3592
7874
1138
-12140
30434
29564
-556
3332
-6917
13731
136
8384
31676
20685
-14766
1654
-16869
17001
-5434
6775
32058
23574
-11668
-4894
-18567
18785
-9662
-12040
-6375
7337
20212
-30780
-11236
12257
-17016
19134
26599
15223
-18428
-14885
-21916
19720
-18791
8779
31568
22671
-13876
-9554
-14311
16086
-15025
8089
31752
18856
-15031
6297
-12243
12257
-3771
29950
13289
1306
-19581
-26083
-16036
9498
-29681
-10909
30897
31456
-4553
-6542
18949
-6106
-14053
-9569
31338
28249
-4438
-1701
4298
5530
-8749
16974
28027
13764
-21742
-1494
-6097
6009
-12272
23208
11529
3730
-18838
-27950
3922
-3367
-32593
25330
20785
7996
-24399
-22515
5371
-4037
-32397
25166
20983
4099
-24476
-1809
-9382
5069
-12600
12399
-8640
-8185
-2691
-30723
11390
-10677
-30426
16658
14229
4900
-17361
-20354
16453
-11928
-30518
22557
21728
2300
-25423
-7605
20604
-17364
-27787
23873
11704
-1479
-21418
-19297
12457
-11002
-30864
28559
16062
-1990
-25741
-13719
2962
-4343
-27105
-6349
-12854
-6143
7299
-15042
29110
-22408
-15356
16478
-22903
-22291
-4072
-24933
20117
-21538
-24693
15124
-17505
-19905
-8502
-12686
28339
-27772
-17387
17999
-647
-13909
-19700
1630
32403
-29316
-14636
7701
-19871
-20477
-3439
-5278
32339
-30415
-10471
4376
13532
1668
-16287
17247
27860
-21198
201
13695
-29767
-32294
396
-6559
13714
-19695
-8393
13156
-30009
-30967
-4099
-8927
25121
-25867
-10748
2422
-4741
-12554
-7862
17570
27657
-24395
5058
-4324
-32480
-25197
10582
-1257
25600
-24761
1251
-12329
-30358
-21416
15088
3120
29255
-25967
4888
-4129
-32505
-25283
12582
-2054
19814
-20979
1462
-15869
-8431
-4893
7117
18211
27239
-20227
13415
7091
-27496
-32742
1278
23221
8249
-16950
18961
-10885
-30906
-18884
14567
-3428
25206
-21966
2429
-14968
-29148
-20532
13252
19046
25925
-23171
20772
-12931
-30107
-20998
12965
11084
27617
-24434
13219
-12920
-30112
-19838
17330
8233
11746
-12791
14898
-18261
-27206
-15991
19067
14810
17904
-16876
19569
-21490
-24735
-11203
19983
10181
18945
-14995
16503
-23385
-22952
-10750
20895
15795
13138
-10070
21902
-30101
-12944
-122
21953
18786
15107
-8583
23182
-24224
-22064
-9957
23567
15710
6248
-5070
22753
-22291
-19953
-11380
19745
28032
3382
-3993
32522
-30369
-12303
1968
22049
15554
14133
-6933
21465
-23969
-22341
-7133
23244
9697
2740
-756
20821
-19416
-26394
-14579
24048
11289
-7505
4780
22293
-29328
-14611
2163
25773
10832
-200
3372
22365
-29614
-14023
200
24617
20121
-4302
5683
30541
-23213
-23126
-8363
25227
10428
-136
-355
21509
-19993
-1941
5377
15699
21056
-17706
16244
28456
-31514
184
13843
24125
15102
-16659
19643
26225
-19182
4248
19901
13092
1117
-25359
27317
18095
-32359
-5148
11408
25603
12176
-7562
11814
24122
-31561
8807
23026
20697
8973
-14835
21068
19943
-22970
19457
27712
12685
8444
-24715
28240
16617
-27603
17656
25378
15486
15082
-16969
21893
20383
-28407
16330
25888
16988
13446
-17353
22073
20466
332
-19703
-6768
14196
-24425
-21841
15405
-6447
11742
23840
20310
-10332
1304
-32741
24343
5094
-22057
11324
24879
21323
-2504
-29418
27954
11199
2917
32636
27855
-9633
-2103
-25988
26235
-2412
-24217
21291
29246
14776
5147
-16447
20852
10443
-5552
13427
17636
7756
-14267
-29497
27860
-5644
-15466
28887
30350
1940
3606
-8590
16233
2836
10298
27669
19693
-10498
-10837
-30922
28288
-11383
-19500
26332
30055
5157
2027
-1589
11258
1307
4583
32444
26606
-9082
-12389
-21067
22475
-14327
4185
19006
19515
-3020
-28303
-16510
18823
-24364
6194
32176
23728
-13117
-3196
-12714
14610
-9217
10305
31104
18974
-14552
7338
-23452
19872
1152
23449
22886
6885
-20173
-5040
-23198
16940
-12401
22718
23612
7628
-22081
-599
-17418
12353
-9455
11920
30521
19776
-16580
-5064
-9315
9786
-13091
12047
30471
18600
-15863
-6945
-10229
10753
-15641
8449
31658
20541
-15322
-3935
-9803
12279
-12390
25664
20372
5006
-20488
-14262
-13044
8174
-22775
-20075
25896
28499
4493
-2223
24620
-10605
-10195
2725
18043
17079
-5937
-28318
13398
-4932
-32393
19414
-11284
-12281
-7738
-31398
9370
-10861
-30317
1279
6965
6036
-935
-23053
21755
-15116
-29071
32455
4510
-10546
-22515
-12560
-7996
190
-19752
-3125
29165
19851
-12096
-4512
32454
-18245
-22262
-2488
13532
10020
-7511
-8759
31574
-19689
-19704
-1015
-6517
-6105
-79
-11213
30788
-23639
-17097
31841
-7732
-20115
-18599
-17640
9705
-16424
-25974
24460
-17938
-27232
-10750
-19150
15964
-20079
-25893
27013
3343
-12172
-23650
-14497
17944
-17087
-27958
28465
5150
-12942
-30102
-1453
27489
-25383
-19365
9831
-27938
-26937
-651
-10708
29712
-30093
-12963
25183
-4740
-19038
-23741
-3728
28515
-27185
-18292
23178
-1639
-19681
-26197
7290
30927
-28104
-11397
16268
-28443
-30763
-2294
-5427
12076
-19197
-6160
-12296
-30372
-17845
16539
-7368
29400
-25287
-2320
15010
-29126
-28642
-642
-11620
9534
-15761
-9121
-3879
-32386
-30470
7872
13377
29912
-29918
9930
15680
-28771
-31892
-1457
-2797
3465
-11720
-2176
12501
-30288
-32261
253
2445
7761
-15542
2614
16853
-18656
-29781
-13665
22830
11955
-17808
14170
-4548
-32449
-25939
12366
3157
13494
-15798
7503
-18724
-26890
-15980
20080
13194
13583
-12978
18871
-12502
-30287
-20758
15189
10595
21398
-20731
14363
-16527
-28293
-17597
17963
11749
16334
-15357
17092
-15884
-28659
-18031
20218
9166
8516
-9505
16217
-25309
-20811
-6142
23022
6719
14194
-9343
14486
-21286
-24911
-10779
21765
6008
15205
-12206
13683
-9826
-29942
-26388
14533
26512
-9847
3248
32605
-22556
-23767
-9791
23054
11117
4918
-3996
20775
-16297
-28426
-16516
21655
10560
782
-3868
20237
-9452
-31373
-20821
19191
9354
-10982
3402
21740
-30045
-13073
2155
24810
11289
5931
-1004
20053
-32178
-6184
7842
22447
16287
8742
-1669
22443
-7855
6142
6016
2661
24279
-21202
17788
27518
-29714
-13811
1022
26399
13165
-5051
7351
24103
-25060
-21109
-5059
25654
11154
364
-145
22811
-19550
-26295
-9991
26544
5220
-15137
10282
21795
-14900
6581
13645
10943
10130
-27598
25984
19961
-30807
348
15069
22814
16397
-14236
16969
28030
-32656
2693
17118
22923
7938
-5306
12584
17180
-26532
-2134
11381
22475
15188
-18594
18292
27185
-19634
-26233
-4518
29847
-11227
-19571
15459
11420
-22426
17828
27970
12820
942
-25790
30568
11800
-28522
-1466
13689
27489
3615
-26915
26737
18941
-25498
20578
27869
13074
11296
-15601
21197
16523
-29873
-548
17131
27931
-61
-21285
22731
15886
473
32763
29418
-7638
-1341
-29343
29476
34
-20152
12368
27222
18237
-15199
-18859
21622
-2009
-10810
30932
31478
294
259
-17265
21737
785
-21053
25108
31667
8145
-3839
-3532
13211
-1893
-18970
21343
31445
9210
-16116
-6366
16222
-9416
-822
32756
25684
-8916
8363
-15226
16918
2761
-6453
32125
29057
-3084
-3080
-16779
21590
-4933
-22640
23472
31335
9577
-7227
-485
11700
-4557
2913
32637
26269
-10116
-3859
-14998
17117
-8065
8916
31530
20284
-13918
765
-14574
14192
-7109
13691
29769
18490
-16016
-9154
-18881
18043
-14957
5914
32228
25342
-15611
-11472
155
6860
-18564
-1076
32749
30171
-7249
-17602
-2806
10286
-21435
29316
14636
4766
-22804
-27276
-8118
5036
-30688
22512
23808
8294
-22424
-3299
-12462
8897
-12868
-4145
32503
29791
-7658
-21145
22432
-8711
-31239
8393
31673
19947
-16801
-1919
-620
4568
-13188
18076
27329
13412
-22936
-9532
1703
1161
-21258
16093
28542
15546
-21779
-11148
2440
1437
-22498
-10020
31197
27200
-3520
-12661
23039
-8880
-24678
11750
30587
17244
-21556
-1811
12974
-6824
-17124
25554
12066
-175
-25098
-15682
19205
-17314
-27819
11114
26467
15915
-17547
-21529
11340
-2772
-32649
26255
19604
3027
-26703
-10616
1100
-1360
-22664
32684
-2323
-16481
-23158
-19016
10261
-13872
-28843
5869
-9262
-6883
-3610
-18783
26848
-21991
-20825
31716
1938
-12345
-24008
-22012
7653
-9688
-31302
10335
-28748
-24475
2886
-24063
22239
-23403
-21591
17873
-27463
-28413
-2350
-17385
12108
-17871
-16514
-4186
-28606
-20690
10694
-11670
30618
-27626
-9939
-4421
-6422
-7621
-845
1439
32735
-24805
-6664
26466
3547
-15855
-28675
6752
19361
-18622
-10631
3466
-32583
-26196
6984
-11795
23879
-24852
-8631
-20701
-23206
-12699
18583
5135
32362
-25560
5924
-3040
-32625
-25012
10819
-7144
24120
-23305
-3751
-13083
-28994
-17863
13448
-2417
32677
-26203
847
8603
-31617
-29409
2497
-4644
18710
-22697
-3604
-11909
-30525
-23933
14081
13271
25653
-24401
13602
-8007
-31773
-25652
13158
11591
19553
-21172
13413
-17428
-27747
-14956
20129
-79
16579
-13499
7224
7922
-27702
-32766
-179
20176
9034
-16500
16257
-2572
-32665
-30299
10303
16843
10762
-16374
17916
-11642
-30629
-20322
16870
4652
11338
-12294
11494
5089
-28313
-32761
605
31925
3217
-12206
29452
-18409
-27106
-13395
21974
5031
8818
-8519
14356
-23962
-22348
-8447
22588
8018
13536
-9676
15478
-22996
-23341
-10093
21768
13527
3183
-1548
23084
-27392
-17981
-4672
24470
17186
5129
-2916
24827
-16966
-28032
-17204
20066
15801
243
-2688
24757
-31072
-10400
2350
24288
19608
1490
2531
26755
-22973
-20063
-7998
22037
21466
-8455
6692
32076
-18247
-27215
-14826
23400
13463
-6846
2664
24931
-29241
3471
13080
18869
20763
-12646
16584
28260
-24902
-14359
-4816
23797
23381
-11510
9398
31390
-15399
-28922
-13167
23199
1912
-8325
4098
17352
-31441
-9226
6518
27538
11952
-7945
10323
23508
-29072
-15115
2789
27358
9625
-7646
9093
23951
-32243
-5835
13303
27982
8282
-13475
15614
23609
-32366
5109
18306
20514
9898
3407
5452
15849
2154
123
1995
4662
-1585
-32728
24641
7509
-20956
12920
22518
14781
5713
-27263
28348
16433
-25514
20558
26844
11831
19372
-13079
17871
22351
-5013
335
9612
10172
-10894
-30902
26460
3591
3228
-11044
-4991
9637
-6560
-32103
20925
6512
-29813
5655
22447
23869
-1972
-12803
17921
10919
-5783
-354
9866
13312
-16602
-28249
23605
-2317
-3169
32613
29563
-4919
169
-23893
25327
-86
-18378
27127
31701
7472
1298
-15287
20824
4127
-20485
16685
28607
15977
-12723
-15214
19870
-3148
-8836
25728
30265
5994
-21521
-24708
28084
-14879
-25794
20207
28972
13456
-2680
-1490
11634
468
-22375
23937
30467
10489
-4773
-4128
13705
-2834
2908
32637
25007
-12079
-2891
-10788
14820
-8936
-10307
27783
32748
1113
-22257
428
9884
-21015
3270
32603
26007
-10362
-3440
-11907
14008
-8574
2636
32660
25276
-12607
284
-7139
11128
-6517
20555
25517
12610
-19638
-10418
-16686
13456
-16907
-1241
32743
26319
-11537
1425
1826
5139
-7081
13120
30025
17186
-18492
-2623
-9102
9881
-12176
12940
30103
19963
-18789
-14180
5824
-1057
-24753
16221
28470
15119
-21546
-6293
-1166
3238
-17428
21702
24549
9857
-24004
-11096
4701
-3382
-23659
23009
23328
9841
-23398
-15268
-1775
1918
-24897
-2959
2492
5603
2951
-22439
23877
-16590
-25707
24110
22188
7406
-25462
-16144
4497
-2498
-27703
32362
5135
-9527
-23213
-23247
572
-4186
-31618
22857
12598
1073
-18409
-25284
1093
-701
-32759
30244
-12608
-19387
-14720
-24817
6825
-13898
-27193
10979
-13349
-13884
-5362
-18555
26741
-24078
-22223
-1712
22024
9732
-11358
8932
31525
-21431
-10930
6048
-2392
-8526
-7521
-4874
32402
-26960
-16492
25425
-20669
-28637
-10826
-8290
8747
-17088
-12599
32256
-5760
-21413
-22524
-6511
6164
-12864
-16708
29514
930
-18772
-26856
8407
24976
-28442
-11057
24106
-22193
-29887
-12140
-11909
20189
-24356
-18008
26104
2282
-18689
-26913
18386
24529
-27450
-2966
30667
-7407
-23833
-22486
817
8132
-14971
-10559
26824
-3359
-21533
-24697
12605
18660
-22560
-3794
-9044
9375
5511
-5479
13181
29998
-19047
1597
17297
-27829
-31251
-5583
-3018
12977
-18887
-4328
4115
-28021
-30014
-1038
13492
29860
-30261
7574
-1756
-32719
-29982
5432
12579
24845
-25247
11776
21856
-16386
-30155
-12817
19506
1792
-12599
10557
-18601
-26975
-15069
20288
6141
19011
-16402
11506
-9545
-31345
-20970
16516
-319
13868
-14765
6534
4749
4094
-5306
-15865
28194
16695
-14026
16807
-19926
-18997
-11388
13725
19995
25958
-20335
19297
7055
-28867
-32682
2348
23785
-617
-9864
22935
-23613
-21003
-12589
19912
28468
8802
-8147
31737
-28739
-15739
-3556
22354
20355
13656
-8930
24845
-21350
-24855
-10615
20935
10100
10164
-7981
19227
-15162
-29047
-18499
19531
12023
78
-2484
21282
-11047
-30848
-19348
19359
4306
-1043
-3319
15119
-18119
-27301
-13157
20935
4228
10144
-8963
13720
-30379
-12279
449
23828
22182
-2820
5734
30610
-29258
-14751
-47
25718
12263
-570
3644
22248
-28596
12453
17405
12554
31726
-2242
8067
31758
2487
3702
-2122
-2872
22087
-24203
17159
22128
-27434
-17917
-698
24291
5235
6217
-1363
16714
-14295
-29484
-14795
24221
5420
-17887
10616
22122
-30961
-10727
4502
28756
13293
-17029
17417
26774
-31971
7175
16940
19245
23040
-4323
10141
27364
-32692
-2211
10445
24862
20109
-9348
12658
28561
-15536
20633
18588
4703
26009
-19929
20331
24351
-32192
-6106
12081
27560
5598
-6866
10967
18830
-27887
13317
23681
17746
19308
-16936
19104
26621
-11230
30782
29181
-78
10531
-27562
29747
11473
10883
4343
111
-4512
4369
-32474
22760
8480
-32648
-2783
15192
26990
1136
-37
6156
12396
-25705
-510
20892
25242
-21097
-18292
23064
-1278
-20197
22008
30379
12279
-5719
-22573
27408
2474
1223
1813
8415
6509
-20987
-25163
21157
-9268
-9515
31354
27978
-2143
7027
-16090
20367
3998
-18677
26922
31494
4438
-1753
-4544
14535
-887
-6992
28312
32692
2209
-16481
-18632
21885
-11613
14341
22448
13696
-11394
-11060
-30843
25691
-11303
10044
31189
22339
-11009
-8456
-25909
23186
-11658
-7154
31976
30218
-4938
-6462
-4614
12862
-9966
-12887
30126
32240
-677
-3057
-231
9508
-4763
8156
31735
24212
-8966
-15423
-23777
22908
-17975
-6270
32161
30488
-5292
-6460
1227
6810
-11456
196
32766
28102
-7860
-12422
-7526
13014
-16982
23568
22763
8850
-22274
-11082
-14234
11232
-18240
25006
18005
8237
-18693
-28122
-11054
8348
-31685
15022
29120
15026
-19023
-3235
-8899
8994
-13693
17908
27440
16923
-20473
-23224
-247
4188
-31271
11457
30698
18244
-17607
-3561
-8735
10565
-12926
26157
19734
3374
-22751
-13014
-9738
6408
-22799
32511
-4084
-15260
-16856
-24382
-7167
-1469
-28218
-1390
32737
25068
-8984
-11036
13629
-3975
-23287
25066
21103
3269
-23367
-6589
-9166
5661
-18154
15920
9571
1727
-13630
-23281
13228
-10082
-31177
8498
10349
4677
-9527
-22062
18667
-12140
-30434
31404
9350
-7029
-25010
-11203
-6986
1359
-19953
1748
1079
1031
-2255
-20738
25368
-18079
-25920
-3711
-823
-54
-1885
-7813
31821
-22423
-14340
23390
-2840
-13537
-17404
-15778
19649
-20063
-25905
-5828
-1505
-1214
1157
-4157
32502
-24395
-11856
31783
7969
-10518
-27430
-4813
3266
-7822
-17682
29252
-14763
-25695
-16320
-14668
6840
-12937
-20648
-6558
-24355
-16510
9652
-8258
31709
-26874
-7421
-7570
-10423
-7954
2339
3787
32547
-24851
-1471
-3204
-9819
-13308
-448
16000
28594
-25437
6392
-2772
-32649
-25763
10094
-5908
24908
-23779
-3224
12189
-28197
-32568
-3602
4667
26756
-30323
-1827
26306
-9883
-23688
-22638
7980
22954
-26781
-5092
4107
-32508
-31289
4101
7653
18928
-22582
7315
-10131
-31161
-21285
14946
-336
21884
-20214
4354
5624
-32280
-28802
5683
-312
11438
-16893
3112
-8829
-31554
-21457
16006
1478
14560
-16143
7926
-6385
-32138
-22931
14929
-814
11588
-14209
5630
-20114
-20500
-10585
14948
15471
28884
-22998
16131
-16097
-28540
-18572
15668
14125
16607
-14535
19207
-21995
-24287
-11106
22130
8528
14478
-11717
15370
-24905
-21292
-8706
20451
17965
16471
-12333
23199
-20075
-25896
-12554
22531
9560
7660
-7759
18357
-25091
-10006
-3064
18182
29197
-1920
3261
32604
-12722
-30196
-22913
20393
19773
-14215
6372
29302
-12684
-30212
-22082
20096
19757
-7955
833
28411
-20149
-9191
-2118
14062
28976
-1181
1048
32750
-30224
-744
9335
18395
28181
159
4455
32462
-32763
-480
13277
21310
15113
906
5713
22928
-32078
6681
16567
17897
20350
7072
1387
22373
-22611
-11223
-1813
20476
23980
-10725
8447
31659
-26338
-19492
-2253
24684
13340
545
506
25848
-12656
-2479
1038
10435
24577
-18466
14036
29608
-31860
-2997
14128
28284
8360
-21493
22463
23855
-12943
18635
18762
4396
15418
-26738
27087
18437
-26036
19894
26020
11922
21138
-14726
19470
24344
-21555
16237
26810
12031
7243
-24434
27417
17942
-20585
25103
28332
8397
16893
-23221
26025
19908
-29872
13466
24710
18330
6376
-7906
15474
13112
-10481
4712
20649
11573
-29279
-14709
18496
-13088
-29366
13299
24961
21227
8195
-18740
22233
17284
-21060
23492
31710
8253
213
-5801
13982
4136
-19104
23422
31632
8548
-2889
-12944
19389
3019
-14426
29420
31461
3212
-782
-18269
24113
1279
-5549
32293
28174
-5363
3377
-14789
18881
-6
-18883
25489
31597
8675
-4294
-12203
18990
-575
-3710
32556
31547
-6009
-9323
-11262
17201
-10296
-27894
17192
27544
14778
-1114
4666
6416
2080
3830
32542
24286
-9657
-392
-20982
20955
-4967
6344
11878
13295
1152
-27571
-17705
15597
-22926
21264
24929
11560
-20598
-7671
-21738
17904
-13196
11570
13017
12786
-156
-31200
-10009
5461
-29879
10961
30879
19099
-15609
-3375
-16187
16283
-10787
24083
22218
8880
-19580
-15993
-16110
11665
-22493
11699
30607
17889
-17455
-1825
-10361
11401
-11212
-13874
29684
28463
1232
-1003
2813
6283
-6766
25910
20058
5906
-20611
-15969
-18586
13460
-21936
24703
21526
8595
-20890
-23064
-8161
6743
-30496
27485
17838
4248
-23617
-17650
-2812
311
-26284
-21114
24591
31072
3467
-10045
31189
-13614
-15617
23179
23160
6518
-24560
-297
2803
-4488
-14553
10503
31038
18196
-20786
258
6979
-1619
-13220
24201
22090
5648
-26187
-8418
2732
-2191
-21423
-5808
32248
22979
-10105
5027
23684
-12193
-11592
5634
-16939
-12087
2909
-26857
18771
-16648
-24401
12574
30258
12926
-22358
2249
20218
-14113
-18096
17927
27427
5840
-29239
3894
29612
-21520
-20886
13995
-20127
-21762
-4718
-15843
25872
-26315
-19523
26260
19597
-1800
-29695
5910
8033
-8712
-12385
1567
-7838
-9718
-4500
-4338
32478
-25389
-11938
-337
-4612
-4205
-2199
-13633
29795
-21645
-18931
23108
-23230
-29712
-9826
-12512
18724
-23872
-17584
-1284
-4336
-6306
-4663
1866
32713
-24984
-6735
7247
10876
-3763
-17497
22411
23904
-19841
4366
11581
-23178
-28860
-6235
8299
30710
-32761
-606
3134
-32616
-31085
6081
-397
22709
-24748
-1409
-7712
-23274
-19698
7851
12188
30415
-28051
8789
-18946
-26734
-14304
18952
2111
29443
-23810
5663
6299
-32155
-27511
6038
-5452
11846
-17032
-1009
-3781
-32548
-28078
11490
9384
15260
-18747
11379
-1660
-32724
-27816
9364
2771
14007
-16252
6249
-8147
-31737
-27229
13509
15980
7769
-11671
19106
-13898
-22547
-16034
9826
17276
27842
-23434
16494
-19266
-26504
-14370
20263
10946
17607
-16151
16647
-17538
-27678
-13402
19793
1185
14019
-11649
10385
-5234
-32346
-23531
13051
4490
8516
-12055
11830
-15400
-28922
-18061
19167
15832
7180
-9833
23246
-30069
-13020
1116
23039
11110
11644
-4617
17902
-26056
-19867
-4571
24199
8052
8633
-5007
17383
-12802
-30162
-19968
18931
10874
-2903
-1047
20795
-28537
-16102
-3525
24618
21586
3551
-1873
28553
-29866
-7248
4411
22078
24906
-3668
6150
32184
-29542
2698
12761
15685
26585
-1982
7329
31936
13508
-25144
-22542
-2673
9739
-31285
18339
23148
-22975
2384
9295
15466
24205
-13635
14034
29609
-31713
-8241
8176
26922
16167
-12762
13997
29491
-12631
-2174
2507
12251
18084
-25192
20216
25786
-16798
-28133
-11656
25970
8958
-23740
15537
28093
-25413
2094
12260
18466
19975
-15602
16345
28398
-31587
-1643
16454
26088
10676
-18074
19721
26167
-28167
16741
26982
14930
10607
-13771
20568
17885
-26734
10192
20967
20819
11313
-24304
24807
21407
-26472
13340
26331
18885
6990
-24554
26674
19030
-30712
9292
22825
23509
2940
-19607
23980
14589
-21590
17314
29525
14209
-7664
-22957
27790
4449
-6007
30127
26791
-1700
10223
-31131
29977
10960
-6593
29081
27664
226
-809
-32140
32688
2269
-16853
21806
30443
12118
-2892
-26649
27340
6179
-21463
19670
28883
15473
-8005
-18647
23147
-312
5317
32332
26765
-8982
-5356
-27551
25872
-5971
-6132
8241
19306
11870
-24866
-21338
19580
-12272
11753
30586
20656
-17749
-724
-12523
12756
-7353
12281
20854
16934
-7514
-21088
-25079
21311
-18967
4576
410
7081
4436
-28868
-15500
12987
-18952
-9044
21048
28906
6325
-30451
-12099
18664
-23022
18813
20837
15572
-14060
-29533
-14194
12599
-29746
4192
32497
25696
-12487
-7368
-9928
14338
-12485
17226
27873
15956
-18685
-11573
-13032
12495
-18626
14512
29377
17431
-19148
-5601
-9137
10014
-14028
-442
32764
27689
-8991
-10214
-1016
7927
-16705
-8476
31651
30746
-5722
-13175
14625
-1409
-20207
25906
20062
5480
-23649
-11459
-12400
9075
-19112
24044
22260
7877
-23516
-10144
-4971
3125
-19875
19399
26407
14359
-20927
-20945
2361
441
-30957
26522
19241
3449
-26265
-10268
1277
-2190
-21886
32465
4433
-8901
-20497
-17931
-6814
-793
-24148
30444
8966
-6907
-22852
-14719
12302
-16349
-28396
15752
28731
13256
-24236
-2905
11681
-6506
-18830
7449
-7796
-6216
-3526
-21053
25108
-21344
-23459
6851
395
-1560
-6569
-19055
26518
-20538
-25530
31178
10078
-7527
-28060
-6497
7149
-10134
-19841
21273
7531
-7289
-24337
-5841
28793
-24013
-22294
32027
6924
-9674
-28623
-10099
13571
-15367
-23501
12362
-3015
-8442
-11435
-14558
27774
-23309
-23029
12977
-14305
-19715
-8184
-5222
30238
-29612
-14028
4009
-26099
-24867
2448
-2915
32611
-32031
-6904
691
-32759
-28938
6613
-7341
29515
-27528
-8044
126
-32766
-25010
9206
-10930
25593
-25435
-7375
15526
-28855
-30355
-1458
-7898
10774
-17367
-7483
-9821
-13876
-11823
5394
14261
29500
-24744
9019
-11493
-26047
-17419
11797
1063
32749
-27468
1789
-9881
-31241
-23508
14917
3352
26124
-25178
4952
-2762
-32650
-23561
13538
-9000
11872
-14319
-1724
18805
-16783
-28652
-15897
15578
23265
-26568
3593
1738
-32720
-26291
6118
-5329
20100
-20792
-1207
-5479
-32305
-24156
12764
5418
14882
-17603
10545
-17347
-27798
-20043
15889
23489
14560
-14133
26781
-22809
-16133
-8343
15379
26178
19707
-15194
26367
59
-32766
-27513
8940
9038
8001
-13907
13926
-14036
-29608
-17192
18046
3279
13313
-12703
11425
-30700
-11453
85
21376
21163
11297
-4772
25372
-9440
-15344
-15299
8417
32428
-4308
-373
32764
-17583
-10121
-6181
11592
30221
-3261
2984
32630
-22815
-23518
-10472
23107
14430
1799
-1742
23894
-7583
-31877
-21588
15601
9408
-6022
5
21016
-27569
-17708
-1823
24028
8759
10766
-5992
17695
-12668
-16515
-10060
15304
22528
-17101
10622
30997
-23072
-10210
-747
17465
21442
-12049
12609
30243
-27846
-17269
-1355
24781
11954
5497
-2425
21813
-21035
-17685
-6079
22267
21168
-12195
8015
31771
-32736
-1413
11574
23438
20237
-3447
7938
27580
-14852
8974
12734
6301
24318
-17002
16389
28373
-2017
5912
2930
3122
13630
-29797
23313
16677
-16216
8722
16347
11389
9808
-27107
26218
19653
-12146
-14670
128
21272
-5125
-32363
25084
14394
-15795
16289
22036
9193
14088
-26406
25041
21133
-25853
20131
26351
10645
16722
-4974
12361
18058
5814
11585
6598
-3548
9820
-31260
23569
11623
-5893
27674
26658
-855
8039
-31765
30120
11167
-6535
19137
19025
4197
5932
-32225
28799
10337
-19415
26395
31475
7281
5522
-16202
21682
8927
-22108
20792
29251
14765
-947
-24333
27821
7241
-10828
5031
14798
16072
-11729
-30595
26521
1471
-21268
20735
30364
12316
-5663
-11969
18406
1022
-16844
23326
32293
5552
-14303
2001
8692
-10560
-1208
32744
26741
-7751
3998
-16467
18228
-335
-9029
31498
29768
-807
-947
-16832
21348
-2221
10814
30930
24027
-13986
-14900
-21172
21687
-16580
-2173
17316
19672
3186
-28165
-16744
20373
-23486
-21147
25028
30855
7024
-2914
2720
8333
-2857
9447
31375
22833
-13776
-10627
-14934
16187
-15646
3013
32628
28323
-13043
-10977
-2917
9591
-15505
17272
16520
12832
-10786
-30881
-10955
8986
-30468
-728
28239
28594
-6206
-30356
1632
8455
-31657
19657
26215
12391
-22184
-7681
-9820
9340
-16514
13331
29932
19335
-20190
-9894
1541
2533
-19592
27119
13129
3662
-22065
-26408
3764
-4622
-32439
8006
30526
24411
-15753
-24526
10839
-1555
-32730
-3647
32563
28578
-7885
-13328
16121
-5331
-23215
19665
9100
2183
-13293
-29349
7
454
-32763
32398
4897
-8676
-22812
-19818
-3481
-2141
-26500
750
32758
23935
-14742
-7182
26963
-14798
-23169
-10260
4496
8784
5556
-18064
27337
-16623
-21869
19420
-22319
-23520
-3583
-27132
14604
-18607
-26971
13599
12852
4006
-16501
-16539
23077
-16873
-28088
31228
9923
-8829
-27618
-4446
7132
-10918
-18928
11238
12105
2905
-17579
-8318
31634
-23836
-22483
20192
25805
6037
-27783
4567
9995
-7331
-13959
3054
-2319
-3811
-6463
-7055
31998
-25088
-14749
25088
-10527
-22353
-16589
-5583
23745
-27695
-17511
16661
-2963
-12064
-18648
-10349
30745
-24572
-21676
19032
-26672
-29861
-6648
-6827
21918
-27279
-10199
7774
-25670
-24803
-1251
-9059
31489
-29985
-12152
-9648
-10979
-10155
4929
9689
31301
-25217
2816
17622
-22249
-30495
-11988
3633
26883
-28740
-5224
7762
-31834
-29990
1450
-1739
24898
-27353
-2388
-10546
-25366
-19027
10158
9437
31378
-27622
8289
8217
-31719
-32028
-550
3740
21575
-24093
2323
20392
-25648
-31260
-8148
-1926
3413
-11118
-2664
8397
-31672
-29845
3630
-763
5975
-12373
3022
-3345
-32595
-26443
13728
4595
1963
-8054
11132
-5919
-8681
-12307
567
31046
10476
-11017
25077
-12390
-30334
-18208
15990
-982
20023
-17711
5903
-20318
-25706
-12750
19588
7883
19465
-15639
13971
-11673
-14202
-13226
8696
32345
5238
-7713
30830
-28667
-15870
-3430
20457
20885
19257
-12780
24455
-31764
-8042
3544
20813
20858
16132
-8234
23471
-11309
-17949
-15028
12149
28635
-9128
3700
32557
-19504
-26329
-12854
22053
8636
1182
-1638
19489
-30890
-10929
710
23067
25885
-408
3737
32543
-15794
-11161
-5803
9438
29389
2169
-2584
32664
3040
-20755
-19056
5192
24106
-21753
8856
31547
-24800
-21415
-5892
25496
9361
-1039
1566
21244
-20772
-25341
-9575
25944
3233
-12760
10412
19118
7494
-31898
-24919
7228
1214
-15360
3735
13783
-29933
-13327
3858
24900
6825
8836
-3044
16775
-30305
-2593
12308
22235
17237
-12123
15055
29103
-18988
5042
15338
10919
12066
-21073
22893
23442
-31913
-753
12367
24525
19447
-12791
15099
29080
-32632
2964
19315
22790
13473
-9082
14039
24995
-26637
-10911
8395
29185
6075
-24815
21038
25120
-28781
-15662
8821
27986
-2994
5010
-2514
13650
3892
-1381
3313
4337
-4011
-32520
23237
7556
-26703
18989
27346
13918
13480
-12294
17926
18374
-21129
24190
31541
8877
6025
-14712
20284
11180
-6520
32111
30501
-3617
4388
-25683
27828
5639
8129
6508
7265
-162
-13917
-29664
22647
-6216
8377
31678
21805
-13579
6797
-28756
25686
3224
1134
14330
16122
3396
-12728
-30193
25381
-5685
-10552
30922
32683
2343
-10523
-24581
29488
-6679
671
32760
31171
-6133
-10294
-23229
24463
-8797
12651
30226
21101
-16150
-9174
-21275
20887
-12583
6231
29829
23551
-8125
-14583
-29342
29237
-14207
-7885
31804
29988
-781
-4341
-17075
21338
-5410
19147
26590
13468
-17906
-7906
-21854
17602
-14024
18247
27215
16078
-18792
-10142
-18125
15720
-15241
1837
32715
25021
-11632
-662
-6434
10871
-8040
-12771
22872
30545
10808
-32164
-6254
13467
-27412
7113
31985
22566
-16117
-3880
-1658
6140
-13047
17977
20790
14494
-16189
-28915
-2302
4016
-32519
12475
30299
22496
-17677
-22098
8519
-2347
-31160
19608
18941
10804
-15770
-27004
-484
648
-32760
16677
18329
10282
-13977
-27310
-2922
4676
-32431
29838
13540
-414
-22800
-21962
-5159
1378
-29787
22200
5542
-1686
-16804
-25607
10394
-9882
-31241
6941
32023
22475
-20869
-2196
22498
-12797
-16742
6529
32109
21742
-18671
-6413
15470
-6268
-20011
22285
24021
7530
-26069
-3834
11836
-10419
-19818
27097
18423
113
-26895
-5396
8869
-9967
-21236
27479
17848
-735
-29836
-7419
15738
-13623
-24436
15405
-2082
-8161
-12951
-14386
25932
-23194
-23145
3817
-7520
-5781
-1775
-21843
24424
-18467
-24035
30609
11693
-7574
-29095
60
4775
-8103
-14487
30527
-11906
-26997
-17636
-8701
6377
-13266
-18759
30080
-8650
-21770
-22919
-7951
23161
-26065
-19856
25482
-20599
-28854
-12436
-12282
13535
-19213
-17428
21956
13347
-6582
-30569
6494
32116
-25982
-15610
-12367
7239
4052
-1127
16122
28526
-18522
4780
-1278
11679
2082
-11859
24759
21462
-15550
10592
17498
-20515
-30146
-12841
8636
29976
-31976
-2781
18923
-26750
-30568
-5773
-3360
10930
-18409
-4935
15930
-28633
-30648
-3483
-1897
12516
-19386
-2436
21009
-25144
-30066
-7555
-1900
3527
-12506
-2365
25141
-21013
-30152
-12694
2507
2099
-12205
-1590
5766
-32255
-30997
1868
2821
21813
-24107
2280
-449
-26584
-24015
1380
15644
28791
-28727
13089
-24937
-15486
-8290
16102
24881
21320
-14876
24212
-11264
-30769
-21865
14543
9627
12584
-12873
15543
-24712
-21517
-9611
20978
17919
14806
-11422
23248
-7834
-31816
-22490
14354
4048
10987
-12910
10946
-21180
-25001
-11910
20997
9710
12268
-9873
17355
-18901
-26765
-13472
22049
9336
5395
-6224
18888
-28594
-16000
-752
22541
7816
10766
-3777
16416
-26876
-18743
-6717
24306
25282
1392
-1807
32442
-23361
-22976
-10638
23509
15171
-1020
578
24467
-25721
-20299
-3283
23065
5095
15170
-10070
14523
-9290
-31422
-18099
18552
5210
-10527
3797
20126
-26512
8780
14055
14427
28180
-9387
12691
30209
-22976
10717
13872
9276
30201
-7793
11636
30631
-31584
-8723
7959
24300
9149
7051
-436
18386
-31344
-9549
7348
24410
13758
1635
3102
24428
-32254
-5772
9240
24411
15116
4861
564
22681
-32269
5686
19691
19892
18065
-5537
11623
26535
-21844
-11200
2699
22117
12638
-21197
18347
27148
-18528
-18207
-1330
24230
7228
-25888
19494
26337
-819
-2557
1504
7451
-715
-32759
25080
10010
-11162
30807
29914
-3042
13595
-22872
26671
14463
-26925
18673
27196
13907
10225
-10435
17367
14932
-9852
16982
21032
6265
8349
-31685
28499
16011
-392
32764
29427
-7782
183
-27137
27950
969
-13076
30044
30714
526
8039
-13497
18357
7437
-12035
30476
30515
2168
4988
-20423
23294
5366
4880
32401
22859
-11314
9107
-27782
25414
5025
-7874
31806
29751
-3275
-160
-14249
19634
-1974
12894
30123
18467
-17428
3872
-19690
17160
-2623
-7837
28644
32633
-2955
-17910
-462
10694
-16692
13440
16822
12472
-8177
-19909
-26025
22037
-17262
12135
30436
21554
-13094
-12704
-21939
20497
-16290
6591
32097
26334
-10297
-16190
-20512
22347
-17805
17215
27880
14673
-17742
-3752
-22985
19033
-9987
-2270
32688
26520
-7971
204
-10511
15101
-5439
-2727
32653
29157
-7411
-10324
-2795
10307
-15230
-2193
32693
31484
-8994
-17284
5214
4896
-21647
19454
25240
17364
-16405
-27473
-6610
6164
-32181
9373
31397
21929
-16006
-6732
-4129
7047
-15122
19230
21882
13587
-18465
-27436
-2712
4894
-32399
29677
13889
909
-23492
-21450
-6640
3553
-28119
21406
5529
234
-12234
-30780
-358
-1772
-32719
21092
20562
10583
-22907
-24258
8350
-3793
-32546
31488
9062
-3749
-23425
-22370
-1986
-2118
-29213
1686
8261
7080
-3989
-14581
29343
-22715
-22988
32212
6003
-7790
-24437
-19208
3900
-7746
-27883
-5248
32343
25206
-11429
1622
22797
-10430
-12675
16770
28150
11222
-23938
773
5398
-2460
-14876
10988
-1619
-7202
-10353
-8518
30439
-26892
-18721
1744
274
405
-4217
-18480
27057
-18563
-23431
32539
-3856
-20302
-24428
-6736
15798
-20529
-20124
31860
7654
-9233
-28729
-7607
9339
-11625
-20401
32666
-2570
-19511
-24739
-14168
9900
-12944
-25963
30678
1006
-17311
-27820
2222
20314
-23183
-14164
32266
-5704
-21143
-24184
-8921
13850
-18222
-20471
19581
-26272
-30626
-7062
-7738
19035
-24306
-11362
1922
-23042
-19987
685
-6259
32163
-28080
-8341
8205
-27752
-31485
-3432
7964
31784
-32265
821
14161
-25801
-32107
-6542
5816
23356
-26884
-1111
861
-32755
-30285
5161
2237
28865
-28484
637
13468
-29870
-32626
-1045
2469
6400
-14093
2646
4181
-32499
-28039
4772
-1564
21323
-23791
431
-525
-32762
-30453
8582
11275
14825
-19480
11742
-11265
-25671
-18109
10094
7478
31902
-27099
7371
-19059
-26653
-13667
19165
6654
20507
-16956
12849
-300
-32765
-30428
9586
17421
8561
-16087
19165
-11498
-30683
-19281
13903
6061
26349
-24348
10600
-14566
-29351
-20160
17100
16652
15336
-16492
20903
-14513
-29377
-16804
20064
1387
10522
-10894
10015
-15294
-28978
-15974
18467
5509
13806
-13174
13787
-925
-32753
-26631
11700
6428
-2540
-4625
14462
-21047
-4926
-1020
13369
31617
-2533
3073
32622
-20249
-25760
-14460
23060
23384
-4142
-296
32647
-14445
-13373
-9309
11390
25276
-12842
9917
31229
-25029
-21147
-5976
23941
9348
9371
-6574
18416
-11399
-30720
-21001
18676
17196
-9466
2410
28063
-30214
-10972
2674
24089
23239
-3663
5418
32315
-4723
-2588
-1833
5087
19093
-26629
20245
25180
-18051
-15398
-4967
20024
16181
-20824
16245
28456
-22469
-4277
4127
17834
22455
-14211
13376
29912
-20082
5893
12081
13226
19586
-19861
19749
26146
-18467
-15501
-2188
20646
11524
-22696
18764
26862
-32409
-2632
18080
27327
4484
-14833
17772
21455
-15327
-2226
7540
15228
13879
-25184
20425
25621
-29780
-13667
14211
27644
-15483
4705
2141
4987
-12515
21315
23335
4294
11921
-28166
28189
16703
-25549
19164
29515
14230
6020
-21989
27248
15244
-10396
31073
27330
-4678
14700
-9441
15029
9879
13690
20201
11371
-12264
-699
-32759
26458
-722
-24542
15170
27824
17305
-2707
-20731
24987
8695
-16660
22101
31214
9967
-2151
-23329
25422
6819
-13727
29752
30867
1052
6312
-13665
19064
6207
-14660
29304
31028
3939
1733
-15876
20823
2488
4700
32428
26772
-8838
-7769
-26956
26375
-8436
14535
29366
20407
-14821
-8389
-30711
26633
-9514
4162
17719
21376
-182
-22402
-23912
21505
-14298
857
32755
27526
-10160
-4458
-12518
16751
-8232
15454
13490
8922
-8464
-21355
-24851
20095
-18586
17383
27775
17020
-17255
-8874
-19797
16361
-13734
17667
27595
18481
-19140
-19178
-12223
13067
-23607
15159
29049
20560
-16390
-18593
-12183
12702
-23242
8235
31715
22846
-14562
-7302
-8320
10864
-14360
18258
27208
18330
-20484
-19732
-1561
3860
-26337
-3643
3335
11136
7770
-32567
3609
724
-27025
15252
29000
16045
-19898
-7463
-9066
10489
-16483
22443
23874
11600
-18107
-24102
-11634
9632
-30849
16015
28586
16765
-18385
-13029
-9331
10077
-20956
8080
26493
21274
-14788
-24890
12895
-3823
-32543
17744
2655
-91
-12139
-30431
9104
-7390
-31922
19870
12701
3371
-17606
-23049
10792
-8628
-31610
5593
14576
12218
-9273
-24698
19789
-11222
-30785
21550
15233
2310
-22182
-17331
16444
-12931
-30107
28515
8632
-3364
-23533
-23739
7159
-7625
-31867
26137
19761
324
-26471
-5952
6547
-7164
-22136
18502
27042
4552
-26802
83
24651
-18257
-24336
-2958
14463
6062
-9749
14395
29435
-20822
-1168
31961
-7220
-21625
-19932
-7896
5089
-12848
-17393
3336
-2180
-6358
-6670
3346
32595
-28024
-7401
11204
-15430
-18804
-7541
-12821
30154
-26424
-19205
-3258
-15490
-13027
4292
-5874
32236
-27131
-10236
-1802
2362
-2052
-6822
9363
31400
-24061
-2081
3340
-32596
-26576
6873
-13627
28715
-28495
-11866
-509
-8605
-9501
-4050
-952
32753
-25209
-7926
7512
-6149
-19697
-12466
18337
27155
-23981
2389
-1337
-9178
-12809
-3211
15400
28922
-25293
6090
-10145
-31156
-22919
14531
4082
24466
-23240
6614
-10172
-31147
-22860
12606
5128
28869
-25956
6863
19128
-25669
-31595
-8682
5416
11893
-19230
1781
-19820
-20030
-11159
14538
17560
27664
-22198
17690
-9129
-31469
-20970
15142
1780
15788
-16417
8526
5927
-7651
-18006
-8149
32410
4817
-9343
23298
-25884
-20091
-9331
18125
18431
22309
-14934
21193
-8006
-31773
-20676
15708
-2392
10199
-11607
6355
-7065
-31996
-26138
13034
14040
10416
-14010
17834
-32460
4473
11044
14297
29938
12867
-2362
28243
-16444
-28341
-15213
18360
5653
14044
-12385
13900
-10258
-20483
-16398
11223
28841
-3239
-1994
32706
-17598
-27639
-13245
19537
2237
7989
-6257
12828
-26213
-19660
-4341
24657
11166
5218
-2936
21032
-17152
-6178
-1963
11170
28933
-7496
6569
32101
-26603
-19128
-2369
24818
5624
6940
-3219
16523
-28516
-16139
-49
24679
8627
4269
184
19091
-22384
-23929
-6122
25182
145
2600
-1467
13778
-21884
5193
10503
12150
28379
-9052
10212
31134
-32297
5525
17597
19840
16344
-343
7771
22030
-26277
-19575
-1739
27811
2692
-2806
3836
16607
-14986
15228
17326
5013
21706
-20648
21201
24983
-31424
9283
21676
20334
15858
-8473
13610
23457
-23511
14095
22772
12209
19674
-16828
19285
26490
-32763
-503
18511
26599
5919
-18257
21578
22392
2364
13949
16943
-1166
-2301
-32686
26929
6658
-18714
26897
29348
4314
14179
-14841
20274
15147
-16387
28374
29498
4521
14558
-23514
25918
16266
101
26788
24138
-3869
3962
-32526
29004
6538
-8198
10104
17360
11593
-8992
-31508
27446
1973
-2231
32690
29514
-6211
-869
-25088
26871
-603
-13373
29913
29777
157
6519
-9739
15930
4595
-2192
32693
30254
-6184
-1115
-25787
27629
25
-25490
-1682
18136
27289
-24792
-9837
14376
-8245
-6723
32069
32203
-2583
-9966
-12322
18316
-10225
-17916
26452
32308
5460
-7879
-875
11041
-6629
8319
28218
24364
-6865
-20505
-25558
23830
-19387
4260
32488
26577
-11428
-7834
-15811
18678
-10898
2195
32693
24069
-12040
2588
-8900
12392
-5121
12447
30310
21001
-16202
-9281
-15118
15441
-14393
21322
24879
13275
-20573
-13165
-12992
10622
-19330
12352
30349
17659
-18572
1166
-9025
9644
-8513
12219
30403
18379
-17732
-3199
-11324
12173
-11645
24539
21713
7356
-21021
-14704
-15184
11540
-22000
15159
29049
15942
-20368
-2104
-6251
7224
-12182
-9379
31395
28543
-4794
820
7111
2156
-6918
22613
23712
10906
-21881
-16606
-4887
4110
-25187
26728
18954
7156
-26082
-22085
2635
-1514
-29936
21153
25024
11227
-23660
-15849
4062
-1568
-27380
5090
32369
24347
-17077
-15802
24845
-12858
-29625
-5929
32226
27158
-7824
-7800
20699
-8633
-19959
28561
16059
-374
-26735
-8502
-1671
-960
-19543
22257
24047
7112
-26169
-13600
15723
-11190
-30225
26557
19192
2000
-28989
-9432
12377
-10374
-24626
25554
20509
-2359
-28309
2946
13778
-13543
-18085
28218
16654
-2637
-29532
-6221
15468
-13940
-23874
30576
7036
-14443
-29411
-2819
21223
-21036
-22494
15205
24557
8486
-29015
2120
32698
-22471
-18384
18880
964
-12482
-21048
-2365
31501
-27296
-18126
21424
-22693
-26282
-11291
-14412
25100
-27222
-18237
-10
9984
1049
-12000
10131
31161
-21650
-4892
21222
-24965
-29744
-8647
-4219
15663
-22562
-7501
23384
-22953
-30913
-10159
-4995
7050
-14657
-8688
9476
-31366
-32310
1017
2371
22019
-26616
-168
-8428
1897
-1053
-2789
17217
27878
-20016
7243
10833
-30924
-27625
894
-7135
16373
-21096
-4249
-4520
-30618
-31761
8053
15547
13659
-14886
13446
-17275
-27842
-16588
15823
6018
29685
-23847
9149
-2232
-32690
-26362
9417
2816
18964
-20630
6141
-15306
-28972
-17498
16583
5383
23527
-20348
10240
-15452
-24191
-16728
11865
22086
24204
-21498
22730
-7475
-31902
-22461
12942
3350
13682
-14246
10108
-16907
-23460
-16521
14110
27418
16053
-15676
28773
-20131
-25853
-11794
20921
6476
13352
-10936
14903
-19769
-13463
-9107
11466
30777
11243
-7975
30161
-27666
-17556
-3103
23318
12160
8568
-4018
20444
-15409
-3735
1410
4826
28401
-2912
5045
32376
-23091
-18314
-8669
18644
27123
3500
-2724
32653
2277
-17701
-17295
4888
21532
-24698
13214
28633
-21053
-11580
-3444
14364
28429
2048
-1002
32751
-20851
-15873
-6548
19555
24302
-8525
6019
32209
-29487
-14288
2107
23846
11263
3109
1872
22102
3457
-19297
-17777
5687
20753
-25356
12371
28822
-25936
14520
23036
10393
25109
-8480
13699
29765
-32253
5780
17488
19944
24164
-4258
9143
29945
-22678
14206
19302
9837
26682
-12171
14958
29153
-23598
-22732
-3379
27097
12440
-14466
10183
30437
-26876
17721
26156
14346
15150
-19329
24041
22263
-30721
11395
22942
19022
14429
-12253
17901
22005
-13963
23154
24700
4112
16294
-25904
26245
19617
-9635
31318
28126
-4240
14749
-15756
19611
11766
-24997
21184
29677
13836
6198
-17778
23069
12551
-20678
19962
29882
13443
-4248
-22092
25910
5051
2503
16531
13382
-1264
-1366
-32738
27888
2226
7411
27124
21415
-9241
-3696
-32557
28862
-2290
-5401
32318
27117
-6150
9036
-15253
18427
4688
-1896
32712
30964
-7490
-8087
-14508
19245
-8734
-19262
26507
31163
5677
32
-4555
13666
689
2403
32678
30553
-10352
-11947
-11923
16202
-13009
1993
32706
29643
-11063
-11786
-11813
17210
-13351
-5744
32259
30072
-3065
-7431
-16074
20908
-8738
4695
32428
26695
-12732
-10701
-11768
16276
-14316
-19475
26350
31370
4403
-1759
6677
4727
-3171
3319
32598
25405
-10170
-6776
-15318
18112
-11412
-1700
32722
32470
-4039
-21757
-6985
12775
-23019
-709
32759
27626
-8302
-6620
-5583
10846
-12342
12202
30410
18079
-19246
212
-7314
8765
-9423
23235
23103
11698
-21339
-21029
-9395
8393
-27064
7658
31859
24153
-13826
-15031
-2462
7168
-22377
24538
21715
9976
-22714
-22250
-1942
2351
-30216
19325
26461
14366
-20667
-13215
-5443
5390
-21777
20281
25735
13801
-21308
-18905
-341
2026
-28125
13778
29729
15358
-21565
-1758
1118
2433
-14601
13058
16745
10812
-17373
-22650
18960
-11253
-30774
29967
13253
-2250
-24376
-12538
-4725
-81
-21927
9899
6002
958
-11067
-18226
25017
-18648
-26942
29324
-14620
-23740
-14166
-17623
10274
-17649
-23075
22633
11536
-1593
-24083
-11385
23809
-20327
-25699
10621
-1181
-4789
-8186
-19022
24215
-20189
-25808
17345
27799
9271
-28328
-1377
26705
-18352
-22777
32663
2596
-15904
-26076
334
5518
-12079
-13166
32267
-5699
-21767
-24295
-6919
17604
-21781
-20216
21028
2046
-9434
-21344
-9833
26993
-23573
-22758
-2431
-14386
-13378
2349
-2149
32696
-27619
-7858
27042
-10866
-25352
-20185
-1492
25576
-28813
-15603
-15995
-11654
-6297
9091
8929
31526
-23137
5416
4953
-16606
-16705
-4199
-4353
32476
-28250
-9443
9539
-31347
-30202
3723
-4709
10272
-16325
-2485
10049
-12910
-24126
-10188
18578
26991
-27636
4707
3494
-32580
-31368
7031
5005
12836
-18049
5818
10168
-31149
-30699
1384
-1546
12876
-18224
-455
-1974
-32707
-25406
12618
-4191
6639
-10339
2752
-8499
-31645
-24151
12596
7257
21648
-21237
10098
6091
-14946
-22304
-7859
26904
18702
-20694
17977
17721
-18946
-30846
-11052
25969
3198
-13193
17992
-12417
-13447
-13012
5112
27987
17040
-13833
23819
-6169
-32181
-26766
14759
15065
4525
-10862
19626
-15642
-28792
-17414
16814
10969
16363
-14865
17205
-15867
-19729
-16749
12717
31516
2826
-4033
32517
-29823
-13572
1416
22905
12906
13585
-7176
19838
-31107
-10295
3035
20491
19089
3173
3899
27088
-6728
-32068
-21054
14601
1419
-1782
-2427
13252
-10980
-30872
-19553
18647
9996
-5704
100
21726
-24878
-21324
-7896
23294
17197
1898
-986
26491
-11750
-29379
-20933
16773
24274
-5705
-1090
32748
-21964
-24315
-10868
22239
20824
1989
-3604
30316
-10874
1421
2725
7083
24269
-20554
16820
28120
-12772
-6212
-1097
12609
21042
-21320
16091
28543
-32324
5369
16559
19915
22357
-1930
7780
27293
-14840
6863
14258
7279
17597
-20303
19916
26019
-12169
-8307
4775
18047
-391
-32764
26015
17006
-28441
-16270
3421
28326
12707
-13471
11947
29778
-31969
7185
20715
20525
14293
-7436
13256
23072
8276
25440
13552
-14254
19759
-26139
21432
14137
-31234
9904
22340
18744
7937
-953
9816
14169
-4054
29727
27843
-4689
5866
-31488
31566
8787
-11085
17285
21930
7395
370
-32468
31479
9093
-24691
13021
27073
18458
-2464
-22464
25752
10559
-7998
31775
29734
-2143
7754
-23230
24935
7547
2615
32662
24430
-12628
10108
-16600
17404
4423
1758
19223
19465
726
-9258
-31431
26886
-3697
-10003
31202
30892
-1640
104
-14206
19906
-416
-16621
20652
30742
11337
-17112
-13805
19432
-8968
1272
32742
30359
-6228
-8440
-26642
26912
-6727
4035
32517
23486
-13240
3666
-10240
12841
-3939
-6934
32024
27555
-7311
8409
-3353
9952
2101
-18052
27172
32583
3466
-5655
2807
8617
-5526
7092
31990
24221
-13008
-5288
-18594
19671
-9040
23510
22823
10462
-19184
-13408
-20887
15236
-18203
2784
32648
25673
-12061
-4543
-5828
10582
-11237
7980
15166
16213
-6247
-32766
-148
4025
-31409
11230
30782
21613
-16121
-13347
-10798
13361
-19225
21213
24973
11227
-20128
-11877
-14637
12009
-19454
25061
21108
7596
-22047
-13868
-7790
5183
-22148
24303
13134
4372
-18621
-28136
-1409
441
-32764
23483
20557
9569
-22037
-23216
6399
-5250
-32343
12012
30485
18313
-19668
-6447
1255
3096
-17642
26611
19118
4583
-24959
-14756
1447
-2583
-25453
-2397
7897
11196
-3104
-19477
26349
-16291
-22894
26621
19103
3773
-25739
-12639
-870
-204
-23293
20386
25653
11040
-25350
-17045
11073
-5431
-30618
28004
17012
792
-24401
-14930
-6096
3300
-24781
9202
-695
-4245
-10631
-12489
30293
-24239
-20680
28985
6581
-7950
-23734
-18573
11977
-12919
-30112
26547
19207
-2213
-27814
8095
5542
-8871
-10096
13815
29712
8799
-26208
14905
13787
-8641
-6719
30975
10684
-11171
-29351
6078
7177
-11345
-11400
30830
11096
-9956
-31015
1632
9698
-11356
-15054
15915
-9978
-18600
-14420
-2358
31940
-29688
-13865
-3106
-13851
-11903
576
-5960
32220
-24240
-10089
23198
-23141
-28466
-11457
-9826
17287
-22310
-13423
14601
-29333
-29753
-4090
-11848
24137
-26053
-13028
-15445
-28898
-17235
16616
-869
32517
-26952
2181
-7039
-32001
-26853
10362
9065
31132
-29674
7886
4714
-32426
-26040
3239
-8832
22052
-22396
-4480
-533
-32762
-25654
8277
-4212
22259
-22705
-481
-35
-32766
-27272
4476
1003
32038
-30317
1235
-2692
-32656
-23349
12632
-6659
13175
-15325
629
-14606
-29331
-18987
14899
11626
28131
-25289
14260
-12064
-22584
-21449
10244
29370
14527
-15188
26711
-21750
-13125
-7541
8358
22462
23855
-13640
21124
-27595
-17667
-4679
21688
15843
15909
-10253
21145
-22392
-23921
-15018
20662
25820
8696
-8616
29806
-16116
-28529
-16771
19303
9647
10195
-10504
17297
-21707
-24545
-9359
21185
6193
15307
-11864
14883
-18414
-6995
-561
10852
27307
-4782
4692
32429
-19720
-8262
-3401
14662
29123
-6576
5506
32301
-17317
11491
11070
4999
31657
-8455
10317
29680
-29931
-13333
374
24020
21867
-611
3169
30635
-24667
-21568
-4389
22561
9341
8289
-5167
20698
-23976
-3104
5931
15247
25224
-7031
9095
31479
-16970
10322
11401
6809
26975
-15636
16489
28315
-22504
-13095
1489
22293
12527
-19997
17635
27616
-19944
7577
12954
11328
23035
-16599
17073
27967
-20138
319
13539
14964
9854
-22241
22460
23857
-26765
18335
25237
12218
21165
-15538
20679
25417
-21921
-24354
3680
27513
-23321
-13181
14948
4209
-13272
9780
14952
9189
14059
-27227
24455
21808
-32673
-2475
16490
26361
10119
-10632
13801
24510
-32375
5050
20960
22850
11192
-8108
13299
21874
-25017
7144
19137
21230
6780
-26743
26723
18961
-9139
31466
27869
-3938
14735
-15731
18961
11380
2404
7777
10939
1774
-5569
-32290
25974
4211
4772
32417
25459
-11566
11033
-27568
24249
8864
-3491
32580
28405
-7700
11624
-17859
19271
8829
9393
26603
19894
-9774
-3191
-32611
27752
-2623
1332
31571
32230
-5905
-15612
-24293
25701
-11571
3345
32595
28900
-10240
-4116
-15757
17221
-5567
-12110
27109
32720
1750
-15245
-7896
16912
-11505
-15071
26483
32483
4300
-13387
-7727
17001
-9784
12672
30217
20676
-16740
-6641
-17919
17549
-11266
10462
31051
22352
-12575
-4352
-20412
17769
-8790
10983
30871
18626
-17828
2614
-12435
12737
-6082
15020
29121
17582
-19197
-7121
-10589
11099
-14787
-25
32766
26157
-9696
-1288
-5517
10089
-8352
24300
21981
8299
-23121
-10002
-10089
7013
-17923
16946
28044
15061
-19537
-5283
-8038
6960
-14811
10473
18848
16069
-10131
-30171
2250
2257
-32689
12132
30438
21993
-16448
-18991
-294
4487
-26649
21461
24760
9070
-22894
-3106
-14953
12451
-12116
24258
22027
6265
-23395
-7857
-9021
6178
-17828
7979
15524
12397
-12681
-23538
21156
-12272
-30381
-7589
8470
11989
3750
-21582
24654
-14633
-25498
14229
29516
14258
-23476
-1543
10901
-5350
-17286
27459
-7865
-14371
-15264
-28190
7487
-11055
-30845
26977
18598
622
-26775
-1923
-4045
1159
-14289
32295
5538
-9998
-25135
-10768
-1659
-4069
-19723
30267
12553
-6418
-30596
-1492
17465
-18300
-18751
17373
-7357
-13392
-10253
-20077
19031
-18557
-27005
25465
-6706
-16939
-18066
-17622
18627
-19478
-26348
24427
21839
-2287
-31955
13968
18154
-16730
-9510
30551
-11843
-21847
-17501
-13434
2790
-10700
-17647
25916
10474
-10564
-31017
1795
30020
-25514
-20003
2613
-9534
-11104
-4843
-307
32765
-27444
-7797
22973
-15739
-27387
-16863
-4582
27579
-28391
-16358
6555
1997
-6594
-14086
3731
32553
-24999
-9724
1970
-9097
-15466
-5845
18158
27275
-24919
7219
-6751
-32063
-24486
11853
670
25922
-24414
3031
-8076
-31199
-21754
10667
-920
32754
-28894
1507
7440
-25447
-27658
-4942
8324
31691
-31102
2181
8795
-20650
-29881
-8868
26410
19394
-21809
16888
-8338
-8029
-12734
1129
29930
13335
-11358
22244
11138
-30815
-32246
-2282
6336
11479
-16767
6547
-7
-30550
-32490
4248
29144
9395
-15637
27292
-6466
-32122
-23958
11776
5575
16470
-17324
10580
-14192
-29534
-20006
18352
12212
8931
-10634
18523
-15871
-28666
-14929
19290
1056
16755
-14959
9171
-16114
-28530
-17914
17052
11345
10287
-9006
18538
-14835
-29216
-19984
17576
18850
9044
-11348
24561
-16591
-12987
-7706
8294
30328
9107
-7100
31988
-27060
-18477
-5028
20334
22064
13636
-9474
28419
-29680
-13883
372
23054
17301
5943
-1382
25525
-77
-32766
-27468
12853
13237
-11352
98
22054
-28399
-16343
-2173
25428
19023
-5512
6172
29725
-22805
-23528
-9715
23432
17172
-2658
1345
28154
-20892
-14624
-3314
18567
19360
-13193
11799
30568
-19626
-26238
-11150
25125
9297
-10779
6811
23894
-29962
-535
12081
20362
22684
-7283
10532
31028
-18843
-5967
6078
16580
12461
-21893
20105
25873
-31344
9548
21122
18033
16631
-7445
14395
23508
-32056
-6786
14854
25542
5265
-3878
7867
21441
-27044
18500
30372
11556
14879
-14296
20819
23620
-24901
21298
29785
11668
11938
-20061
25239
18986
-4522
24844
20106
-3641
18089
-27321
25403
17347
-23934
22379
29009
10801
13250
-10859
16287
16225
-11641
9461
15560
10958
3371
-32593
29297
13662
-15610
25704
28533
5367
16574
-25413
25745
20269
8570
31626
22291
-14354
6419
-28226
25382
3255
-4202
-7348
6626
13506
-24469
-21792
18209
-7339
-15361
28943
30902
1201
2752
-7342
15547
2098
-7565
31881
28717
-3999
2692
-13604
18604
-308
805
32757
28637
-9794
559
-12076
14683
-2837
3758
32550
25292
-10856
2052
-21865
21963
-1322
12961
19889
13580
-8244
-11338
-30742
24535
-9994
1744
32720
27526
-10906
-4214
-12118
16034
-7970
1017
32751
25913
-11899
-609
-8892
13973
-6479
23518
22815
14598
-20562
-23171
-11377
9390
-26265
16105
15000
12001
-10871
-29928
-13340
12305
-27941
12535
30274
21298
-18553
-11784
-6118
9388
-18384
25052
21119
6015
-21669
-9150
-18194
12971
-16427
26268
19586
6815
-20949
-18755
-17582
13048
-23647
17730
-1952
-3685
-9043
-30037
9989
-10047
-31188
20312
25711
10500
-22424
-2403
-11490
9503
-12161
1460
32734
26590
-13959
-9836
8407
1454
-18658
30670
11532
-3438
-23055
-20081
747
-4545
-30153
19035
6989
1881
-14217
-26935
10439
-9236
-31438
31692
8323
-6174
-23905
-15641
-7575
1838
-22506
-1786
-4417
434
3572
-24296
21985
-15395
-24496
28298
16518
1429
-26219
-13730
270
-1763
-24107
15383
4427
-2751
-14284
-17037
23133
-19311
-26471
29266
14735
-2357
-26387
-9700
-2225
-670
-20922
23460
22875
4402
-28250
-2914
15862
-13252
-20957
11756
-18589
-21533
-2627
-11518
26751
-27093
-18429
9712
15067
2299
-18891
253
32766
-24107
-17780
13931
-15038
-17616
-8719
-11804
29092
-27744
-17433
29367
-14534
-24522
-17217
-14165
12290
-17953
-20575
25665
-20370
-27359
-11269
-12356
6341
-13888
-15004
23363
-19396
-26624
-13850
-15288
23039
-24528
-21726
5619
-29258
-26183
2480
-6579
31442
-31704
-8277
-10183
-18234
-13202
8062
3249
32605
-26382
333
-328
-32765
-27512
6955
-961
29820
-29355
-737
10039
-31191
-30060
488
-4317
19559
-23053
-4153
-3467
-32582
-24717
10261
-617
25248
-25520
2391
24269
-18838
-30205
-12701
6066
-3012
-7019
1242
3145
-28066
-32722
-1705
23920
19155
-21137
18462
830
-32756
-31703
7330
11870
11121
-15971
12691
9843
-31253
-30837
-14
7115
12878
-19277
7928
-15981
-28605
-15396
17085
4048
23519
-20193
10308
22658
-23644
-31541
-8878
7768
-9974
-2697
7747
-17279
-27840
-13502
16379
2749
23316
-18296
10228
9811
-31263
-30397
4617
3909
-5584
-4924
9136
-15103
-29078
-17546
18024
9196
11354
-11494
16729
-27299
-3641
3030
14739
31450
4717
544
32762
-20237
-25770
-12232
21294
12223
8684
-8479
21062
-19967
-25980
-13431
20439
15753
-2295
1145
26730
-19596
-26261
-13139
20528
15108
4786
-5363
24664
-13148
-30013
-18000
16362
15710
8099
-10852
24514
-3635
-8456
-9993
5048
25790
-20211
12842
28770
-11329
-8681
-3408
10538
21011
-19870
15170
29043
-28129
-4816
5458
20636
23993
-8139
10063
31183
-32742
1279
14768
20878
15002
7423
650
20522
1696
883
-1065
-180
17316
-27817
19990
21653
-31655
8461
20112
18100
13329
863
7869
18533
-21285
21732
25519
6914
20250
-18604
22925
23411
-32420
-4750
14424
24806
5887
-1231
6710
19221
-18673
-9580
4004
20521
10288
-25005
20465
25590
-32752
-979
17109
24996
5307
-4605
10615
17831
-4833
10900
13039
4108
7285
-31946
27150
14707
-12786
6682
16898
13893
-3519
-32577
29376
10260
-17203
27887
29783
4520
10752
-18936
23433
12239
6846
14712
10498
-5581
4084
-32511
25981
7428
-10512
24018
27186
6145
236
-32766
31649
6936
-16969
28030
31329
5712
1854
-20149
25512
5133
-22482
18060
29504
14252
-7882
-9216
15898
-188
-9935
31224
29407
-990
8087
-18936
21910
7015
2113
32698
26977
-12246
-119
-11384
15276
-4060
18054
22894
16291
-14900
-23369
-22968
20647
-22935
-11606
30642
32630
1387
-9073
-9762
16962
-8827
-9336
31408
32137
-3065
-5613
-5238
13423
-6911
7315
31939
23465
-13344
-5900
-12683
14567
-11864
-14976
23818
32370
5079
-25600
-367
12592
-20698
17610
27632
15945
-19226
-7879
-12766
11234
-15008
25346
20765
8102
-23048
-12209
-10573
7088
-19040
8905
31533
24635
-15276
-17279
850
4837
-24407
15239
29007
16743
-18614
-7521
-12776
12672
-15293
28887
15466
2393
-22745
-19749
-6814
2925
-26852
20661
25431
10080
-23658
1739
931
-2048
-11539
7120
25898
21338
-14377
-23484
17333
-7772
-31831
26443
19349
3651
-23867
-10955
-5060
2078
-21317
27129
18375
2291
-24992
-6376
-8611
4646
-16080
