1651 9 80595b40 0 13880 7
1423
27836
4477
-14263
-11637
-532
29434
14398
-12893
4198
-11665
-10855
-13961
29643
461
-8703
-11627
30634
2802
-10388
-22422
8898
29392
8832
-10248
-8974
-21054
13089
31117
10264
-24050
2975
-5674
11513
-21328
-1588
-1597
32728
6886
-16294
-25323
20793
-24343
10885
8425
24801
7343
5678
7306
14459
-3281
-26943
-27387
7223
32764
414
-32104
6557
6516
4656
-18110
-21306
10760
29626
-14065
29594
5669
12923
22443
-2780
-475
26275
-2603
31006
98
10019
32753
956
505
23182
12835
17564
-16149
-2121
32623
3066
5912
12896
-21348
-3307
-15352
-15679
-32589
3405
19849
7689
8563
8185
6324
-17297
-28679
-13103
32651
2747
-12249
-5326
-14477
-8568
-13236
29974
-6613
-14369
12014
5778
-2796
-6397
-7073
-27630
30519
11927
-6619
-4815
-7334
-13447
-31917
7413
16401
-9692
15553
28840
-12141
-5118
4594
6666
32101
-1408
-8681
23658
-6133
-1316
12008
30487
-5466
1859
19211
-5087
-22696
-23633
-13784
16434
20549
-19176
-20693
12882
-13052
-632
-3063
32623
-4973
-2420
-12367
-23558
-29582
1568
5965
32219
-25613
-20109
12261
-15508
-14606
-20220
-23451
22884
6005
-30460
11575
-15379
-14899
-18800
-32712
1885
24057
-20710
-3349
-901
-8197
20694
32754
-905
-22022
2814
10681
17709
10404
-10831
-9292
-21680
28045
16944
10336
17920
-1291
2992
6042
-24791
28063
16915
-1640
30697
7728
-8909
-28921
10003
32521
-4005
-23841
4373
-1249
-12981
-30727
11381
7507
7506
24535
21718
15545
-14764
-2238
-9112
20031
3593
31060
-10436
-13510
-22029
-13947
-5376
25355
-16437
1065
5709
-25716
-16286
-23548
12590
32083
-6655
11594
15860
-22671
-8274
15345
28951
6749
-9066
24334
2158
-9748
-26501
-20226
2911
30729
-11374
-19759
-12506
-17893
5689
-12718
30198
-14292
-21950
24254
-6314
-22331
-21194
-13257
19307
18457
-27073
30695
11464
-6258
-7609
-462
10974
19225
-24828
29608
8385
1600
-21421
-15584
-9178
32113
-6509
9418
31384
3707
-3874
17751
9344
7937
10684
3328
-11960
-22864
-8000
-16413
28359
4140
-30745
29651
13945
-15917
-20381
-4140
18240
27055
-18152
15400
11514
5216
-18628
-18006
-15002
31697
8302
-14232
-17797
-17738
3863
-31654
-8467
14713
-7928
19223
11399
5351
-16238
-5488
-23904
28049
16938
17777
27525
9974
-12671
3783
-6099
20397
13342
31830
-7779
-10647
-16193
-2928
-6187
18507
-13460
31737
-8148
983
1943
14651
-24536
1889
-5275
6126
10848
18587
-5750
-13001
-30077
20238
19037
25402
20697
-12211
-1411
17186
12168
14561
-10032
-11862
6363
-17217
14421
20173
25820
-15782
-5519
27346
-10819
-23523
-2719
885
11045
10313
-31101
25168
15411
13188
-11936
-15275
-19429
32765
340
-3768
22055
9689
22240
-11965
-26618
31954
7250
30567
-155
985
-19077
-19491
-15026
31367
-9473
12719
28563
27644
8821
12068
-30463
10874
23349
3491
-2768
-24712
-9983
-12295
30372
9947
-22979
10360
21182
-11410
-8756
24523
21731
-422
6688
17089
12329
17054
-6255
-5030
-32378
24139
16764
13190
18750
9086
7207
20803
-25315
11874
21690
19502
3956
-3150
-19579
-29613
8213
26550
-19202
28841
15550
-7391
-2901
25082
14838
-111
-10063
-659
31875
-2905
-8818
-12747
9304
31118
10263
-27866
-17237
-10771
5844
-25034
13133
-10818
-7844
-21499
-16449
-28242
1185
-2904
32638
-17612
-11287
11635
-4262
-17005
6884
30168
12788
-15062
-7859
-12484
11828
-11117
30311
32262
-5729
-6109
15936
-13343
-29927
-27782
-5194
-20082
20672
-6903
-19710
17874
27462
6943
-1915
17355
-7841
15987
14027
5096
32368
9848
2640
9757
-4940
16529
17025
-12287
6123
-15077
2372
3637
32564
-10606
-7159
370
-32764
-20697
2929
-15770
5386
-5205
-24779
-4311
19778
7661
20720
32115
-6503
-11594
18815
17510
27696
14605
-9617
8386
-12413
18163
19108
25685
-10588
-8708
-28299
-29541
10029
21924
-24351
14666
-29301
-18020
8974
5131
1456
-10844
-27246
28796
15634
10053
-3346
6531
-29832
28009
11461
13676
-18164
-15130
-15981
-25087
17088
10076
-31179
-2354
-7022
-10075
-12352
-28590
16007
11926
-15575
27840
-39
11228
-21472
-23522
-22811
30576
-1659
19978
7475
1699
10356
26248
-19613
4330
8631
29536
7976
20076
-19683
-27457
-17881
29378
-4641
24420
-21847
-23380
-5528
-71
9063
4177
-27404
-12224
30401
13077
-3531
2128
6898
3681
24633
-32422
4737
18420
12176
-6874
3409
-22683
15969
-3660
-32561
-30930
-2295
-9311
23554
-12676
-23061
25612
20437
-516
-12730
7627
9602
16400
-3428
-3172
21738
6354
24749
30887
-10937
-3975
19563
18187
-24928
1277
7627
-2565
-32666
3925
-6438
-7987
12212
6951
18396
31237
-9895
-15951
23689
-14881
-28608
-17435
-277
-26087
19826
-8953
-25262
549
32762
22621
4029
6872
-11571
11164
23279
12184
24984
23418
6510
25695
-20332
-1219
26095
-1639
9609
13169
-11455
-32338
-5284
23063
2149
21788
-2025
-8239
-1698
30675
-11519
-2834
11336
-3115
15870
-3079
-1117
13105
30032
-12198
-2011
-30175
12772
4163
27483
21044
11440
-25934
14228
-13346
-28406
-20615
6233
-15214
24201
-15297
-28976
3559
-16333
-22745
10339
26123
19779
-23906
-14759
23149
-22461
-15220
-3066
16155
18280
-20451
-25600
1292
-32741
-17844
74
-12082
-2821
-2275
-16035
3581
-18161
-6260
28361
23827
-22492
-12386
-176
-31005
10600
14364
14513
-10017
-8132
-2594
21959
32404
-4857
10835
-11232
-3053
-32263
20284
3915
-16520
-28297
13087
-1537
-28422
-16000
-12553
7868
-23150
2255
7322
14063
14101
-7954
-19107
26619
-674
-6562
11568
10245
-8384
-31676
9399
9769
-5662
-16863
-9225
10460
19807
14019
-31825
-7797
-2415
-17890
-4565
15605
28043
-16948
-23395
12961
27615
9825
-2283
-226
32615
-3147
848
7338
8055
-9750
7056
7274
11584
-30650
-1425
15131
18334
6829
17008
1342
27448
-17895
-11049
16286
-3785
1347
13107
-7163
-31950
-7267
17438
-51
-22081
-24208
864
20644
8201
-11754
-28567
9938
-3597
-28268
-6665
-8616
-31772
8012
-1599
-23101
9239
-9573
10877
6373
5676
-32271
2367
14178
-19946
-16525
-12911
926
-17121
27938
-13436
-16709
1244
3743
3914
17854
23333
-23004
-1491
17606
-911
-31998
-7054
-6433
-31811
7855
-3038
-28910
-17323
27813
10213
13260
25210
9050
-13319
25343
23358
-22979
2014
-7297
-4740
-16725
3183
-9300
11422
11051
8672
4858
32111
-6522
-11379
16753
32522
-3993
3112
-2978
9304
-23723
16170
-1124
-11132
-30817
-5342
17244
19129
-20014
-28218
11221
-24448
22
25455
14753
-1814
-26917
-11876
30539
-32761
-619
20733
12195
-23075
6239
-15715
1760
-32
-32766
-4304
-11422
-12263
-21122
-2852
9081
-12188
-25458
1110
26359
21535
-15283
-32402
4872
12964
21473
24978
-18372
-29023
-12398
32240
5850
-18707
-18568
-4307
18067
16195
3686
-32698
2120
-20891
-10720
-9399
19318
21027
15010
-32766
-125
-21292
-7826
448
18284
20788
641
-30198
12716
374
-32764
-15191
1325
-8216
7932
-13185
-23755
-18090
-27320
-7303
-5296
-16605
23848
-25672
-15568
12014
-3062
13329
-5935
-18543
-27015
20947
2994
-374
-32764
-17006
-926
-5254
10086
-15046
-20685
-3994
-32522
-219
10507
16268
-14178
-31084
4039
-15008
-29127
-8276
10559
4484
-960
-26144
-2910
6572
-17092
-4462
15960
32508
-4110
-26721
-1966
-12655
13827
30588
3187
-6587
-29050
4784
32415
2378
-32680
-26310
-7318
-4618
16897
-10182
-21494
-16278
-21256
-17181
7191
9570
24458
-30724
-11388
-371
-32764
-24003
-6129
-12614
21016
-9943
-28374
-11050
-30847
-14413
69
-1605
10286
-23108
-9835
-28843
-15547
104
-4258
-26931
16527
-13288
-3263
-2264
-29126
6867
7018
-14006
-29622
-1899
-618
-13374
-29913
-10893
2481
-8880
13779
-22629
-16643
-1276
-32742
-28754
-8857
858
25083
-17313
-19893
-5142
-32360
-6009
-3339
-11865
-8204
-10330
-4919
-22673
-23655
-344
-741
-24211
9459
-15393
-9055
-15862
-28671
-4346
-1216
-11097
1205
-18898
-2855
-18720
-11133
-18324
4184
-5736
32260
-13112
-17135
-31037
10505
6829
6225
-7994
18721
-11428
8197
-2275
-14973
11398
11341
3659
-32561
-5973
12224
-27486
-17837
-4797
11241
780
9052
-25563
2135
-5458
-18739
11334
3023
-22304
-24004
3809
-669
-32763
459
13134
-1337
-13245
-3903
-8437
26660
7777
-10562
15368
4833
673
-32760
1168
9001
-9594
-9786
16730
-24808
-30037
-13091
4116
18258
-6373
-30853
-11916
-11520
-25582
20475
-10178
-26262
-8487
-22548
-4059
-14400
-30819
11129
-2057
-15008
-17923
10849
25211
8733
9072
-17723
-12518
30281
-31598
-8672
-1472
1525
-23940
5806
-2035
5827
-15165
-29046
-2678
-207
-13344
3755
-20491
-8863
-7201
-10054
8729
12919
18268
-27202
-14614
21948
13630
-29797
-3177
-15420
-14314
-8275
-1273
-12996
26762
-18905
-4872
-19888
-6504
-17296
14701
-4722
-16940
17036
2000
8482
24124
22173
-20966
11671
-23712
-22614
-12710
3897
-4824
17585
-23575
-6764
-32069
-6727
5709
-5972
-28562
13102
-8007
4231
13370
18857
12930
-5537
10897
-23902
22811
23522
-4302
-32483
-22826
-17359
-22706
22931
-6015
-24014
-30197
-12720
-8543
7703
-8446
15367
-14428
-1527
-15396
-8384
17431
15195
8368
-31680
-13987
23905
2523
-11526
-802
-17531
-32345
5241
13540
-14968
12162
-28980
-521
-6431
-16538
-28287
10333
-6142
-17172
-20583
-13240
-7014
-21875
24395
-9910
-17722
-8325
-27875
10225
-4958
-31194
-10028
-5177
-12136
2155
-11688
-10755
-28349
-26804
18846
10199
-11886
-7827
-11352
-5186
-15338
-21248
24943
-5082
-16375
-8679
-16039
-2231
-11303
-32128
6438
5321
-12918
-26256
-19602
-22946
22248
23356
6104
-26028
5701
-32672
-2489
5028
16359
1082
4859
-20608
9908
4829
-32409
4471
1183
-126
-30072
-8320
1123
-28985
-15280
-6883
12259
3574
12562
-26978
1026
-22371
-23941
-13387
4312
-11678
17196
-18125
-13414
-27783
-17370
23730
16384
-11424
-20811
-20951
8015
3061
-30902
-14479
-19772
-32044
6844
7282
-22102
9206
16252
4348
-32477
-14963
15712
18137
4155
8816
-31558
2646
-1158
-1173
-31715
-3807
507
-8362
-24433
16327
-6600
6641
-27202
-24265
22019
-14907
-29179
-9295
-3047
-13959
440
-12664
-5129
-21100
12406
17071
-1420
6464
-6205
-11596
30646
-26922
-18677
-25580
19250
25059
5202
-24153
10503
-15577
28827
30731
-9836
-18651
22495
-1705
-116
-8862
-31545
-22004
-12735
-20276
16378
-5936
-18261
-16603
15669
26437
6353
-17342
-27801
15536
23746
-27071
-18460
-13636
15396
10009
9046
-25744
1436
24447
21817
12523
-14326
19177
-10000
10618
15511
-22459
-23859
-11264
6051
-4598
9035
-21182
-4919
-26546
1822
-2838
452
-22115
24178
354
-11571
-29746
-13741
-5468
598
-22233
12549
-8526
-3598
-23436
-22899
-1493
-9984
-26916
15424
-16333
-8944
-14000
-9388
-21639
-13169
-2410
32678
-11981
-5991
-32691
-2225
3626
28560
16729
-8289
-22710
16148
-28196
-16692
-14844
3899
-3514
17577
-19325
-1940
-25592
-20462
-23219
6963
9214
17583
-23300
-859
-6214
-22714
49
-8079
-32730
-1543
4217
-18127
-18356
-27142
-23548
-2445
-6446
23531
-18809
-14999
-30756
11301
-11295
8348
15826
23974
-16618
14496
-20767
-25345
-10162
-7488
-28520
7700
-4705
-9224
-26208
-14209
-16060
28560
31239
-1458
-28886
10306
-32217
5976
-8431
27443
18091
-7437
-2648
12472
-3090
-32620
-9813
824
-6662
-10517
-10499
-8015
-3621
-31486
-32391
-4944
5268
15676
-13491
-15146
11658
2952
-3955
-24174
-25359
20749
17393
-20329
-12882
3932
12670
16015
9305
-31417
52
25461
3376
-4053
-17100
-1752
13097
30035
-13673
-20476
-1645
-4052
4764
-8444
-29845
-13524
22105
-2516
-23429
-22907
-24603
3477
5429
26218
-27179
-8603
-1590
-297
66
-12806
-31610
8627
18407
-15838
-19278
-26495
-30055
-3998
-20626
16459
1834
-17948
-739
876
12328
-14808
-31266
-9801
18612
-2222
-30055
-13051
-15441
1842
-7775
20943
-16538
-2275
-21061
-12104
-28077
-3347
303
32765
-13866
-10782
-5481
3326
5300
-15586
-32682
-2348
21423
654
-32116
-6498
-15020
10269
-2407
25094
-17916
-3730
-2732
-16237
-24818
-15589
-14643
29313
-796
-21814
-28122
11106
-14400
-14304
-20581
25496
11071
8880
19464
17960
18874
-19021
-9718
-25880
28701
15807
-6357
-3182
10805
-3912
-25514
-20559
16025
6290
-32644
-2825
5950
5661
4571
463
-25397
15669
24473
1619
-2074
-27456
-24923
4009
28083
-16881
-32047
6828
-15563
8107
12089
29029
-19258
8715
-22740
23591
5000
7393
10468
-2947
1665
29360
-28305
-374
-7531
-2870
-31590
8701
13326
152
-5788
-4239
-7323
-20407
-30392
12246
14481
-7565
-21162
-2720
-13907
1366
-10871
30911
-9018
-15111
-32611
-3189
-12560
3645
-10534
28428
-14127
-5098
-32756
-828
-6369
2800
-290
5279
-12287
19951
-27422
17935
-9517
-334
-10475
26047
5266
4420
536
10720
-12484
-10584
-24250
22035
24956
-20622
-5045
25203
12639
4571
11355
-20536
12389
30334
-21853
-24414
-29374
-7724
-11713
22638
-11391
-9506
13495
14576
-10259
-6360
-3391
-7442
32764
-420
-32526
-3961
-15531
15089
10797
22448
-24633
1934
-14057
-12931
-19804
-6485
-21067
25096
276
-19200
-21032
-7627
-13928
1990
-8114
31746
-16055
-15381
-21426
-9163
-18759
-4746
-11986
30495
-10685
-11039
-8542
-20795
-21970
808
-23378
20762
1503
-32732
-12545
-29785
-31042
10489
3946
10048
-14692
-17068
-5716
2658
-16788
-11520
-19005
26692
11558
-17238
-12948
-8882
10623
-4776
-19511
-26324
4865
16857
-17469
-2144
-15056
-8532
-22572
23751
5709
-9629
25277
-8215
-21240
-12669
1268
22077
5741
-32260
-13514
25655
-2405
359
-4514
-7338
24678
21555
-2589
32664
10330
5958
3289
-10251
21659
16937
12745
-18240
-30952
-10752
1172
25927
-3123
-29822
-29094
15072
-27496
1584
-8924
28962
9945
-1910
-8492
31647
9880
-5689
11494
4776
2392
26075
-20052
-9227
-20185
-8642
-16436
28346
-5427
-9898
-14712
-24104
-25240
-15850
-32728
-1588
14327
-3973
-921
2755
-12508
16681
18505
-27041
11591
14679
3265
32603
9638
-14542
-9501
8451
21603
8795
-2647
555
-23539
492
13013
30072
-8386
-12613
24016
-3465
-20315
-25709
-7080
19734
15236
-19613
595
19639
13427
6623
16361
-28389
8528
30365
-23204
23135
14653
20882
17062
-11759
-7800
28561
-19111
-19833
-32432
4666
738
32572
-17991
-18648
3927
12127
-11259
3780
26282
19567
-11386
-2753
15020
737
-20459
1920
29375
14516
-6934
-8640
19085
22705
9924
-25781
-26852
7603
31511
-8984
19715
26172
-4128
-3781
10824
-9920
29802
8442
-6850
-67
-3689
-11243
-32449
-4549
24739
-259
-23792
22530
-9150
10472
10059
1615
8780
25625
-28790
15645
-6165
18979
15749
954
-5323
23884
-18136
-9078
-24674
1173
-10350
31089
-5407
-17096
958
14627
-26960
-18623
3250
26410
13740
3424
-8598
-14377
-32508
-4105
-4598
26516
-2817
-16427
-876
-14681
-12162
-6726
-31909
-7447
22135
-12690
11829
24956
-1614
-8258
-4744
-5337
32001
7039
18174
18239
-9376
10793
32496
4197
3499
-3220
-32718
-1786
-14731
27943
25638
9003
-26783
12652
-10124
-1343
1923
-12345
-28722
15769
2083
-10204
-8061
-14533
-32615
-3150
-1694
28496
-5223
-16796
19925
26012
5576
-12462
-1795
-3822
28182
5089
-542
32762
5481
-7661
-2597
7944
18643
12230
5712
32265
5101
11111
23832
-8212
11181
17414
27380
13517
2533
-22650
-15929
-4646
32314
-5427
-11109
30826
-4885
11985
25065
11141
882
18527
-8905
2884
-13723
14099
28296
16521
-22392
1214
-14407
1463
-4016
-8895
-18805
26833
-5397
-9752
-20198
-3329
-22255
2768
-3231
32607
-10268
-11069
12125
10713
-15681
12751
32548
-3780
2476
4869
-17446
-4011
-24307
3858
15695
28763
-20276
-216
-370
10074
-31241
9881
20448
23865
3556
-8275
22114
24178
-2651
-1566
10721
-5105
26683
2036
4728
-4333
-14508
-11725
-22954
23382
12697
-25625
2700
28855
3471
-8663
-7248
-3462
28579
16027
-6858
16258
-6037
21722
32746
-1168
-7917
14444
-1462
2724
-19427
-6661
7984
31779
-8949
-9596
5298
15956
-9702
-11490
-17410
27759
16722
-17778
24252
22034
6404
-4806
6515
-3853
18822
-1576
-4850
20388
-7108
20875
32610
-3198
-662
17044
-32528
3947
-20700
20071
21711
17073
-21970
15498
23574
22757
-1300
-14526
-5265
3941
30398
-4486
6053
5449
-16059
-7640
-3467
32583
3602
-21841
27568
822
-16960
-20039
-11384
9556
26898
-18711
2014
32705
12313
8851
22564
-5806
4373
21233
13676
22037
-4542
-1934
-4227
-3709
32766
-95
-4349
18047
-7938
-2669
12910
30116
-7694
-280
27553
17733
-7224
-467
29762
5103
6353
-2507
-9736
31287
-87
6802
-846
21277
10678
-228
23323
12684
-11521
4633
2502
-3963
29811
-13599
13648
-7473
-14026
-4039
-7140
24197
909
-32754
11667
30619
15385
18705
21095
-7058
4601
3930
24604
21640
7872
-6887
4752
-12186
24169
5043
22907
-9355
-25993
-5659
2816
23129
5666
-32273
-19850
26069
6405
12747
2155
-6238
10167
24733
22483
-2227
-30388
-12255
6160
17974
14994
-16101
-9142
3551
-16572
23582
32217
5975
-14566
5551
-1026
32750
9541
8231
14558
-12181
15943
25418
-16987
-18105
-29753
13725
2855
24554
-14829
-17443
-6732
32067
-16072
2572
12545
29580
11242
5505
-23009
9736
-21215
4220
1968
32707
-4447
1015
15074
25473
7099
6609
30355
-12338
5861
19075
-6494
20779
-11219
3631
5229
32347
947
-7006
-2454
14348
14507
15271
29186
-14893
-16356
24678
-7764
-9827
-13495
-7477
-10910
30897
-11979
-17372
11380
-15944
-25419
-3647
-5721
25781
356
-32765
23018
14161
-9406
-3249
31127
10234
-4297
5295
-6226
157
-14762
-545
-1835
32715
-7967
-17866
-2390
1020
-14975
10931
29014
15225
-18665
1334
-5221
8641
8817
26956
18505
-27041
-744
18317
-11487
8107
4534
6396
-31612
8621
14782
-12571
-4556
7850
-12239
30395
29270
8728
-12525
-2924
-20836
25288
9810
18645
16805
7265
-11510
17671
8586
25036
21558
7238
10192
-31141
16791
26439
13499
29857
9870
-6856
-7825
-129
27847
4195
6315
13271
6405
-22234
-29617
14018
21071
-7540
13100
-20196
-30578
-336
32087
6637
-15750
-644
-17595
24900
4011
-4521
-16947
28043
6133
2905
30343
-11186
-22670
-23658
1523
21362
4955
-19430
-11088
83
16473
4364
-32633
-2952
6233
-8095
-12870
19755
1207
9477
21936
-6804
-1957
32708
-684
-16587
-28666
9523
25640
20402
-21450
-10836
-21775
5979
-8014
25026
29732
13770
-26211
10415
-2033
-12159
-22193
7943
21208
24977
-23943
-9210
17721
-27561
-14759
471
3268
-15583
1700
-11338
-11663
30621
10224
13016
19479
13459
-8815
14778
2453
-2315
-9275
12573
17670
27593
-22250
-21262
-30777
11245
1929
15109
-7980
15277
-6931
6138
25962
-10043
2441
-12804
-27920
-14949
27929
-17134
1211
8843
20354
3915
-11266
-30769
16859
17923
8846
6322
2407
9375
23251
-23088
3485
19703
8991
19856
6275
13686
12709
-30028
24747
21475
3142
4512
13378
11079
5206
-32350
9189
17421
4122
11647
99
19858
31263
-9812
-4460
10929
-13710
-22731
-17237
12516
13559
17736
-31062
-10430
-20299
25721
12868
6216
-8962
28315
-5590
2957
3664
-32561
-15334
3782
-7165
616
-8645
-21527
32565
3630
637
-10320
7356
-24890
24664
7143
-21948
-3773
1123
23099
24352
-5994
-27215
18248
-30762
-7306
6190
16901
5300
6162
-31340
9563
-7780
619
98
-7070
-31844
7718
16904
-7351
-31805
-7880
4702
12968
-9296
6789
-20378
5718
5016
-5336
-12325
-18979
-9382
31394
-3463
-13100
-28258
-16587
-22967
14628
16026
22264
-30267
1925
27896
-7778
-1562
6726
17245
-27861
10751
3167
14296
-29483
-13468
161
-5900
3605
-5470
-27719
1077
18100
24940
3690
8634
-29844
6275
32160
-15860
-9384
-6765
22485
25451
10630
-32763
-510
-15061
-13011
-2945
32634
16331
-21343
-12148
8631
-14996
-24991
8169
11757
-15270
-28990
-5583
9042
-23644
-22684
-6521
13144
-11713
10959
-19767
-10441
-32419
4759
2526
23212
7658
14439
-23482
6339
-31740
-8137
5652
5590
-10596
2218
-16850
15697
32708
1951
18036
-22975
-9919
-20385
18318
2690
-615
-32761
-17189
999
1624
-4672
-11489
-5036
32687
-2279
-3449
-8437
11075
-142
12718
-2968
4713
-6132
-16764
3411
16588
28257
-16551
-18769
-1626
10635
7609
17476
32487
-4270
-18318
13217
-9578
-325
6014
18895
21258
-24934
-8054
26349
18991
-9921
6441
-27180
-22480
-23839
25286
11964
5230
-32346
-14686
3031
537
2672
-14712
-20132
-27467
-17866
-3471
20429
5355
-4014
-23753
7330
3119
-10023
11378
-8294
-24065
-22237
14455
4338
-12688
-30210
-15123
7708
9194
5230
-26193
-2930
-64
-7016
-12824
-3030
10365
31084
-18508
-13934
-26372
-8579
21552
12237
-21414
-24801
-3035
18006
-23393
-1911
-10724
12978
11565
30658
-26609
-5378
5866
7580
13197
10700
7290
-31945
13327
18206
-24639
11525
2312
17041
21334
24870
-30005
6238
-2849
-30059
-16450
-81
-4171
20054
-21000
-25152
1092
-11992
23716
7278
-25492
-20586
6929
-7639
-12978
-26167
1193
21673
12538
-30273
-18610
13487
-30691
-11476
2018
6041
-24246
10702
-10191
-3202
-24043
-22261
-10116
13056
-431
11061
-23986
-5219
-2720
-15990
-3812
-15770
-28724
15766
1190
-17175
3344
1543
22042
10690
8630
-31610
-2450
17171
-28771
-3329
-4411
18962
18966
16073
-31753
8086
-9696
16815
2392
11194
30995
10627
-18144
16712
-30920
-10842
2549
16406
-5310
6195
-18724
3590
-25265
-20864
972
27946
14356
-20931
-24511
14913
-24073
-22229
815
7978
-4268
-8010
-19821
10226
-20418
-4930
20148
23444
14321
-18858
-27094
18427
-12051
3344
25528
15166
-8326
-31691
4030
17806
-14074
-29590
-17100
14586
19974
77
-28929
1431
7792
-1401
25137
-11527
-19406
-26402
11149
10635
-14498
-29384
-6948
4755
-11376
345
-16271
-9544
-20873
-25258
-8048
1229
-11095
8361
-19535
-4761
-18887
9873
14900
15691
22437
84
-25846
20140
-28341
-16444
1279
9695
-17377
5756
-15241
-4150
-29811
-11458
5352
22199
12399
-8835
-28369
16396
-15321
10686
12928
19008
22891
-21996
-9826
31258
-21818
-6336
-4831
20358
25649
8425
-31678
8375
-15066
2111
8529
17782
27417
-192
-29274
14720
-7683
-31853
-28700
3542
-285
18382
-13065
-21098
-10437
14018
15166
19455
32153
-6311
-22026
20876
-12790
-1548
-6242
3064
20793
25323
-28030
1966
-9345
-22065
4798
26906
23986
-22323
-28719
6172
-26694
-19001
8820
12215
-8712
-13802
-18459
10155
-21211
-8102
5128
17198
14534
6623
-32580
3488
-12183
-16541
8501
-13446
-31762
8049
-7284
-9580
-19505
3371
7817
12732
21947
3591
-27970
17069
-24590
-14679
-15887
-2862
2395
32679
-28460
-3801
-19571
-9394
-2720
13128
-2645
30123
-23585
-22746
-21081
-10040
-3338
-6369
-7114
31985
-25786
-8539
931
-21822
2211
6866
-2597
-32663
2270
6797
-32637
2915
5971
14518
1688
1330
-15910
17109
-23881
6362
23608
22722
3288
-15266
-13808
15293
-32533
-3904
3603
10356
3108
3265
-21317
17118
-28172
-16733
-6998
17581
7195
12868
-30418
-2968
-25439
-15401
-16312
12142
11530
27997
-31691
-8326
-6186
8201
15132
-10118
-31047
-10476
21795
6618
-4644
-32436
-12731
-3550
-15750
-120
-4646
-15671
-7389
-4956
7603
-13927
-32560
3676
8671
-5841
-3128
-32617
33
-706
-11848
-27924
-1869
2763
-7394
-12297
2363
-8552
-32764
395
9089
-11061
-5390
7140
23436
-4456
11689
-20048
-11251
30774
-24236
-15010
-4134
19008
15965
5285
-32540
3844
-13103
11764
7125
-261
20859
25270
-28779
7609
-29092
-12802
-31284
-9288
-22094
24197
14364
-3582
-14134
5303
22304
16692
-9810
-31263
10355
14330
-32753
-948
232
5249
-18992
11679
-4514
3419
-22493
-23827
-1321
5352
-3311
5726
-27016
-2110
-25258
3021
-5078
13929
19008
26689
-30669
1928
-32352
-5196
8188
6074
-7736
8000
-21038
9028
-31904
-7469
3467
7153
-16797
3328
-10639
5689
-18202
-20420
-13334
-3289
-21985
24296
-10699
-20905
-15810
-19080
-5024
-11631
-28539
16098
-6456
-13336
-32718
1776
7513
12317
-8962
7634
-13306
5818
-6160
-3306
-4846
-15644
-24040
22264
4162
-13568
-22694
-12056
-7362
-8440
-24441
21823
-5688
-9839
-32444
-4587
241
19382
11419
4963
-26345
11049
-20489
-269
-5500
12195
24472
20779
-32446
4570
-14687
23794
1484
-15840
-27010
9502
30781
11231
-32182
-6159
-259
13582
-7020
11042
-17080
19
-10282
-4318
-4715
-12895
-20686
25411
-2476
-13871
-30894
10917
10460
16409
2386
-7761
-6796
22601
-12398
7162
12205
-4363
-23918
-22396
23385
18153
-15314
-3380
1106
-14781
-28105
16845
1613
-5628
-19365
-19905
-30634
11628
16701
26357
-24839
-10874
-28413
1389
-7014
18794
24581
18215
-31525
8935
-31947
-7281
-12619
23254
13086
20608
-27185
-5311
-427
22757
15748
-5156
-1808
-21097
22898
23438
-31838
3722
-10530
16273
11085
30834
-24043
-2824
-32702
2054
-9425
19460
9317
7284
-11752
10827
-27647
-17587
-16661
9290
1549
18115
-22841
-4412
-10021
-31196
-9630
2549
-13150
-5832
-9540
-10522
-12838
-2397
-7199
-6367
-14134
29561
-7486
-15717
-16100
-10315
-32472
4382
4425
26331
-3820
-13107
28504
16161
11855
-25665
-8655
-14196
29797
6669
-27435
2199
-14479
6500
-10337
31093
-5522
-10559
-26407
-7207
-21098
-10360
-5575
32289
-12703
-1647
1890
12055
13077
6238
16915
-28063
4635
25935
-20247
-22618
-21340
1039
-8465
31654
-21395
-21834
-23845
-12379
-18204
11492
10370
31082
-29510
-13461
-5132
-32362
-16258
-8891
-18198
3124
-4915
-15984
-23866
-22451
-12029
5865
-9482
9333
-17126
-6744
-19082
1246
-10460
1752
-7091
31990
-9974
-15042
-3925
-23082
-22888
-9644
-25122
21037
4093
-28371
-25912
-18788
-24592
-139
-12305
30368
-14097
-15161
-22963
-23374
-29903
788
-8012
20173
-9712
-9881
-32741
-1301
-1821
2837
-28361
14576
536
-3081
6316
32152
-3377
-9299
26029
13920
6283
16472
-32188
6131
-7788
15461
7283
11236
-11864
11744
9924
-1775
4683
-11525
-25935
-20026
29133
-2097
2104
-11353
-1603
-19769
-32408
4833
12296
-13606
10824
3322
-1941
-18720
-31308
6563
27906
-17173
-32242
5839
-1333
16239
6464
16550
-20475
7219
-25067
21101
-6884
10695
13598
9028
-488
21082
-24752
15826
4954
5079
-6099
32194
-14748
-8881
-15464
-4589
-15611
-4254
-18119
27301
837
-16126
-32678
-2411
-12883
8389
2148
13341
-13924
9751
-22104
1883
-17900
3304
-3525
32576
-8031
-10999
-10458
6781
-9227
-9971
-20018
25940
8922
-13430
-18977
26712
2994
10746
12952
14683
-4554
12227
22335
1544
-19758
-19328
-8177
21155
19745
-26149
-16969
-8712
-23951
3458
3233
32607
-15191
-14207
-4941
23428
-2729
15056
31752
-8090
2399
22606
-8194
-3824
-22040
-11478
-8205
31723
-1065
-14120
-2733
32652
15335
1367
7981
-1243
8894
17849
-17549
-3765
-19982
11076
24261
22024
-24544
318
-31977
-5463
-20962
25184
17667
16652
-21781
1367
-718
18620
-8696
-26002
-19327
26460
21316
-2149
-26933
-18662
-13583
6935
-20146
19530
-12582
-17646
1787
-43
-21353
2838
18610
26968
-10870
-14152
2566
-15905
-2527
-19373
-32679
-2396
12890
-10299
-5298
-15403
-32418
-4767
-5056
27316
-374
-20126
-32651
-2753
-12032
14892
4838
16510
-19127
4064
-1180
20079
10102
13573
24673
-21561
1859
24924
-18663
22185
-9279
-12655
-10488
31042
7663
5463
-19780
-7626
-11151
-2503
-29453
14358
7759
-11994
-21660
24586
-22033
17661
12416
29997
4797
-3529
-4646
-4416
-32730
1550
15603
21157
-2896
-5866
-14510
8875
-13668
-9384
-9554
31343
856
-5133
812
-24327
-12852
-19823
-32658
2669
10330
-15263
-6877
-3299
-18626
-6907
-7725
31843
-3970
-17901
8891
-18381
-14812
-18643
-32348
5221
18624
-23247
28051
16934
135
-10251
-1618
-422
25010
-13115
-20928
19753
-5237
24422
32284
-5603
-9762
25043
-28928
15388
-7000
12471
-4196
13967
1672
6418
-4356
15828
-14843
10063
23095
23244
-6058
-3540
-28908
2926
-18823
26821
7142
29199
-16459
-16663
6144
32185
-5972
-13953
4828
23304
16897
3904
-17267
27848
6557
14046
189
492
10320
11999
5569
32290
211
-4447
606
5064
25733
7034
-26280
18920
-11659
24839
31713
8242
-12618
20884
-5671
32272
-580
-8096
-5855
31673
10363
-3403
4379
32473
-11613
-12925
-1789
32382
21330
-5881
22350
13215
9402
-17808
-17102
-16471
32703
2041
7917
22650
-18525
-6512
7757
31835
12324
-12430
9167
11997
-17155
-3425
-2823
32645
10783
-27053
-9254
-10867
-27556
-6491
-11834
30555
-518
-19834
-24518
12160
-6854
3154
-13330
29932
-2167
-6736
-12065
-14521
-29864
-219
-9231
31439
-4831
-23012
-8765
31572
1325
4762
10673
12212
7158
13012
-18185
17594
-10150
2481
-8533
31636
3229
-8025
-13890
-2687
-20648
20132
13598
29812
-20690
-21619
-13595
25389
-4791
-3546
-9103
31477
6166
-4617
-8254
31710
8357
5911
5166
551
12658
16847
-17981
24388
-6406
-6769
-30411
12199
30812
4316
6550
13230
-11094
13697
31232
9909
-5918
-1759
20904
25232
9356
2924
21263
-20501
17113
16007
19801
7670
4412
-11949
-14894
-20891
32685
2309
-6868
9465
-11818
-6196
-14498
29384
7203
-15084
9844
20939
-14028
-2666
19028
26675
1801
-6920
19597
26260
-4645
-10048
13473
-5356
23640
13944
20047
13185
-17962
-25
32055
6793
4540
1551
13227
23930
-12004
30488
27689
-6621
17095
-8104
-7955
27514
-2047
19642
31078
10383
-7760
11274
2750
32651
6203
2356
14620
5962
9133
12238
-4134
32505
3701
8126
12778
185
12710
16978
15477
28881
14188
-2193
5089
-18507
23729
15872
-3575
32571
3517
1648
10139
17902
3698
7235
9763
21909
1623
9519
32760
-629
-4198
11262
22796
1451
2033
-6316
-15191
-28954
32745
-1183
324
-32397
-10037
28925
15838
-28685
-17257
-7478
-22135
19035
12366
21087
20381
-13227
-11621
30636
24885
-5021
-32513
4067
30497
3297
6107
-10223
14025
25244
-12716
3613
24686
21547
4835
-5790
14070
29592
11005
-7089
-955
-2793
22484
6856
8396
-27186
-28890
279
-23007
-182
15291
-28979
10372
14958
-14912
-372
28352
16425
-2062
2761
4835
27682
13123
11696
27733
-17450
2275
26109
29205
-10649
-8383
-14552
-18816
-4778
22587
-23737
30606
11701
-55
-13142
4211
-17778
27540
5603
24258
-16273
-21447
-2020
-5490
1526
15306
-28972
-6194
11592
308
32765
14861
-28261
8499
14064
-16749
12467
-21746
24510
5364
1180
13124
5492
-4965
317
-18359
15252
10035
31192
-12939
-24782
9932
-6018
-30409
-7725
-9050
30489
12715
-30199
8151
31736
8821
-3328
8691
-6566
18479
19549
19314
-3588
-4543
-27556
-31466
9138
24097
-18665
4748
32421
-3641
11088
21699
2851
14497
11954
11978
24508
11135
-8627
-3322
-17256
26949
18638
11198
23655
-2473
6833
555
-12905
32189
6122
-15251
27908
1990
19288
32682
2355
-9846
26896
18406
-4008
-18926
-8783
-10724
20376
14416
-29424
-1968
20368
-2414
14915
32402
4873
-8409
13358
-17616
2112
-6441
32127
27385
-13522
-12667
16902
20919
25219
7660
5822
12640
-19304
24605
9885
-21491
24734
-1776
32489
30896
-10318
-2933
28929
13864
-15869
-19932
-10131
-13385
22550
4227
-32493
14218
25175
11917
-2896
5571
-22014
25436
20655
23949
-1421
-28115
-12348
978
31663
11227
-30783
22469
23849
-8269
-4705
17146
4571
19561
3593
357
-17695
-32405
4851
-1673
24818
-2216
-26407
23426
22910
-3665
-6504
11563
-844
21990
5071
-19331
24619
6047
19587
28039
-2012
-12547
30269
9767
13238
-15367
14840
29670
13903
-1551
-6444
18873
26703
26011
7093
13620
-29801
14536
19287
5225
1434
-17173
388
20453
25599
-12692
-9476
-7973
30110
10507
31036
19906
-16612
8876
19547
20245
22708
14652
-594
264
-26944
29510
14240
12644
-215
-9876
15425
24239
-22048
6209
11451
17488
10845
18058
1035
2644
-32660
16832
14793
1187
-934
-8061
24330
31526
-8929
-12433
6473
-21261
12574
6822
32048
26833
-15527
-14009
25744
26080
19836
11008
-2517
13098
-20656
19900
11053
19698
26184
12714
7143
-3242
-5164
23259
-6188
4365
8984
-209
16591
30920
-10844
-6488
12495
5382
-21196
-16554
1094
-9743
19614
-7035
-32002
29740
13754
1689
-17212
-3345
6779
19864
-11231
-19353
26440
-3718
23049
29208
13741
-10672
18086
-4356
27023
26700
9096
14208
-21514
286
32765
8847
27989
19020
11731
6023
-30534
25112
21047
256
16078
6323
15573
25603
-20447
1990
24430
-5699
-21012
-19789
6234
-12837
26013
-9593
-31331
25449
20640
18756
-14822
-8250
-2183
17993
-1095
4243
-418
-14188
-926
10550
31021
-12828
-16751
12716
2288
10904
17420
2185
-32694
15925
2559
8449
31658
12210
4443
17632
-1262
8735
14352
-24307
-1038
-6863
26272
29950
397
-26698
18996
4556
-25068
-9403
16941
-8051
-31762
12867
-2092
11865
29721
30340
-12374
-23106
-14311
29620
13121
-7771
29368
24829
9727
4674
-22759
11679
30614
-17879
-24112
-16643
12665
9219
18410
-31708
-8262
5463
14501
30755
11302
-13778
10001
-6592
-16933
10309
-26802
-26866
18217
15667
12433
-13676
-29776
28842
97
4546
24260
31604
-8650
-8572
-11843
-13407
7618
2009
-8993
-31406
9344
17766
1136
-14392
12272
10365
15147
14820
-18932
-2645
32660
-11411
64
-14061
9972
19082
26636
-20542
1272
-5885
-7716
5929
22109
26241
-19622
-21835
14912
-32086
-6643
12876
23943
-1009
-6553
-24438
10946
-21567
9391
16750
28161
17373
-17818
-15801
24565
-24964
15597
7737
31840
26176
-821
-20204
17684
-22857
-5146
15117
29071
11247
-28021
-17166
22896
14104
174
-9390
15203
30660
11559
-13912
-12453
10363
23921
8761
30269
26682
-19019
12235
6859
-1342
10455
14111
18660
18546
-27013
-415
20937
-15257
3703
16045
-3940
5810
2516
-22195
24104
16294
-3606
19015
9055
14230
-29515
-4911
9162
-15194
6777
7673
28383
27976
-17058
-15591
21751
10833
-30924
-16223
5587
18751
8108
-25630
-16863
-31459
-9163
-3456
30552
5867
18547
-29894
-10126
-8250
-23628
-11310
17621
11846
10750
-28012
-16998
-30465
-12063
-16056
11944
8182
31188
-32058
-3962
-31793
7928
13895
20829
-17081
-5413
1609
11261
6247
-32165
-2339
5253
-9287
-10848
-9355
-18376
-19303
-7798
-11921
14469
13175
30001
-29865
-11305
-19884
3018
-10732
-1716
6644
32086
-18421
3565
-20163
13622
17358
27791
18689
-5176
-19163
15251
-18012
-4365
16593
16972
13834
-8376
-28981
15288
-552
-27488
8254
15521
6714
-32071
-15791
5977
-30038
7716
-794
22415
23013
19542
-30954
10747
-24042
-8384
-375
22240
8995
17728
-31715
-8233
-16364
16838
11086
-8003
-24172
22121
5325
-286
-30995
10628
11701
28597
15993
-220
-22568
16810
-30648
11590
10748
25303
8979
5796
-18523
12139
-14177
-2647
22983
5422
-13569
-29825
978
22035
-24234
-10300
-9933
25143
22831
12669
-32760
630
-21621
-1990
-5373
18355
24438
17607
-32414
4791
-9954
8718
25624
17290
8541
-31634
-4443
26411
22729
15127
19708
993
22325
-23984
5678
17387
-21303
-8116
14607
25812
16847
-26512
-21366
24842
-2332
-32683
-14402
-10075
-23750
16362
-7952
-26790
-9985
-4514
19061
3842
-16596
-28252
6902
16345
-19143
-4001
-13324
19981
29694
13852
-26781
7488
-8123
-16614
-15382
4911
-533
30403
-20447
-25604
-6974
-32016
-6993
1413
-11680
939
-15180
-14444
-8229
11535
15434
21215
31803
-7887
-21790
18467
-19233
-26528
-4154
18520
1160
-3020
-24580
-6414
-22566
-22306
-10828
10935
-4444
23406
-27663
-17561
-32766
-98
-5695
16910
869
25681
-20986
-3165
-9541
-14497
23186
23153
-10373
-4833
-18430
-18901
-21740
2151
5927
14405
21042
5712
-28499
16169
-27314
-18099
-6082
7067
-8462
12943
-21542
-2996
-23972
3574
6856
26156
25310
2950
-30304
12461
-9262
13816
30644
-309
1798
-23920
-3325
32597
-7803
12861
15184
14345
26609
-19120
-10970
29568
6599
-17090
5539
-14542
-30964
-10719
13431
-9793
-26322
2145
-4465
18657
26882
17769
-30614
11680
-17656
-27602
-6386
1229
-5988
-6302
-15971
5859
-247
4616
17113
5882
19835
-26081
-8515
27684
-1330
-17782
-5107
-17614
-18220
27234
-12173
-21397
-27617
5957
-3220
12312
10601
31004
-26760
-323
-21856
6893
29252
14763
3070
-20291
-16221
24838
-10012
-2464
24627
17577
20767
-20216
-27131
18372
-3499
-32579
-6817
10230
4548
-7759
-19546
-9717
-29140
-14982
3300
14213
-11539
-784
-16020
1003
-27156
3092
26189
15700
4900
-8647
-25846
20140
-28356
-16418
1953
9673
-13610
2363
-16156
534
-6558
867
20938
12667
482
-32763
1765
18872
-32766
95
18494
16200
-10465
-5900
-14472
12522
1404
-32736
-5836
1527
-4659
-6970
-13795
-13660
-6417
15634
31856
7671
-5058
-16825
1995
12867
656
-5285
4451
-12380
-32760
-649
18396
-10884
-32629
-2996
8081
14246
-10838
2507
-13765
6542
-28286
-16539
-7377
-1513
-19853
4847
-5002
4400
-32313
1489
1817
21792
18696
9592
-29902
13397
-21608
-2730
3831
20235
24216
1505
-30254
12584
6187
-32177
-13707
8137
21341
-9288
-21336
-6538
-18946
-24446
-7149
9057
4083
12422
-31778
-7987
-21018
-25137
-6959
15576
-2104
8534
-25275
-13123
-22025
-24260
1143
3508
-21596
1441
-14397
-7637
-18662
-26933
-9732
14861
401
1862
-21902
-8779
-26140
-19757
-457
22251
14291
-4968
-31943
6890
-32103
6558
12024
12352
-8480
-8036
-4069
20470
5325
32331
19357
-7459
-883
2042
15968
10906
-4427
13877
4300
11856
31447
9204
-20238
9804
-8572
-31625
-4461
2902
-782
-10611
-17941
-1181
-31908
7452
-5398
16232
20891
24349
-27946
10334
-4641
-32436
-3519
-4648
-19939
-3563
-8652
-15191
-27441
2597
-7622
13560
11608
30641
-26385
-3161
-26135
15583
19803
18449
16773
-9654
-17169
27908
-22541
-8029
13385
7841
-5535
-32295
-1209
28778
-20029
25932
15452
5965
9079
4006
-5995
23922
-5705
-26402
-7400
-11908
-30690
11478
-1925
-22711
-13953
-5492
15202
-13115
-32695
-2157
5082
901
-2994
32629
11056
-20739
-11032
11335
22294
16269
-22391
14056
25580
10596
-1386
-26319
-334
32765
-25481
-20599
-6299
14144
11410
9446
-27398
-6069
5351
17282
8743
-19499
-7480
-11075
27265
18172
-18908
-5589
-12898
3108
-4957
32389
-15613
-15778
-17021
-2002
-6086
16424
18443
27083
-30361
-11437
-32542
-3827
22296
19431
-2410
-30580
-13276
28721
-52
8986
24716
-3188
-18804
-26833
17794
12517
-5487
-32304
-10668
586
-18802
-12241
1456
-11888
-8491
-2413
10510
14380
19873
-26052
-12721
23036
-16987
-27111
-17438
-1046
-11146
27954
-22262
-24043
-18715
24464
25091
15406
18966
-11172
-13531
29842
-16390
-4646
-5368
-6660
-13953
29647
-11895
-13296
-26937
18656
10304
3910
11963
19602
-21574
16882
-10348
31089
1810
-12852
7416
16696
11451
17848
-32692
-2203
-3863
8544
-14870
19873
-10117
-4736
-5187
11285
14373
11290
23571
-22761
-7407
27401
-16437
-21714
199
23196
17560
-27663
-20268
13317
8749
5507
-9272
-24599
-16869
28091
14379
-18956
-29347
-2909
-11738
10590
3415
32588
-24564
-7653
-6523
13448
6608
-16544
-22720
23610
7496
-8060
-18548
27011
6168
-17213
-13091
27847
5809
10074
-29199
4949
-9236
13012
21725
24528
-28360
9264
-10585
1019
-21707
4697
5812
32247
-4840
-19906
2133
-17806
-31491
-5740
-12661
20566
12241
-30394
-513
17919
18727
-4188
4162
-27309
13249
29968
-7338
3451
-9515
7952
23278
23060
-21675
-3891
-5683
-11229
13019
-12580
-26429
-19369
7636
6398
-9224
13218
12386
18774
24403
-21867
-6878
25726
-25701
1542
-2295
-6799
-23430
22905
-2284
-3584
21838
-17188
-19437
-19991
-15091
6750
18453
-27076
-13300
26983
2016
2489
19153
26585
-12506
9840
-30134
-228
-6101
21632
23608
15208
-32098
6583
-25136
-1395
1001
-2064
-23508
22826
-7448
-9636
-20309
11983
23495
3308
-20570
-25505
12758
22691
11048
5073
-1619
2233
27374
-18007
1063
15929
9508
12918
-13326
-25394
-11930
30517
17220
-13011
928
3418
8760
-13030
-31796
-7917
23852
-2185
-19104
15899
-9407
-9463
-13085
30040
6794
-445
1058
14511
-5239
6104
23377
22959
-12344
-7016
571
-17687
-27553
-9202
-8015
31771
-4365
-29298
-13151
11184
23301
-6123
-30679
-11507
13812
8943
-9593
31331
2440
-3943
953
29092
4288
581
6880
6041
17600
1823
2903
-32638
9621
18985
-19747
-10709
-4195
2030
-27891
-17197
17094
3321
-14835
-906
-6927
-12137
-20757
25353
-887
-10208
23992
-4914
-17913
3572
31508
8994
-7966
-17510
-25836
20153
-9003
13169
25054
10393
-9304
23473
18894
23031
5375
-3704
27126
-18380
13462
22888
1474
6239
-15530
-19412
-15342
28953
13141
-13761
7157
10262
1276
-7936
9390
-28363
18751
26871
18808
26831
20494
-12712
3469
-20616
21774
19712
-11201
-30792
-28755
3791
-31435
-1829
17420
-24778
-20230
-22329
-25575
4066
-23629
22700
-2239
-28709
-30091
12968
15099
27853
10738
-5399
-18125
15449
-19623
26241
7210
6477
4771
21783
-7402
6635
-9445
31237
2158
-3532
15405
28919
-7208
9033
9734
31287
7638
-20440
-4644
3219
24290
13940
-23644
22684
-7714
14984
13912
12566
-833
13628
16267
16260
15025
-12386
-2982
-28308
25356
20754
-6907
13978
-4814
-8310
-22885
23450
16384
-13924
-21181
18293
-9826
7829
2778
32649
-5147
-4339
-908
30579
16144
-12681
-10939
-9345
24122
22176
8886
-21991
-25436
-10966
-18202
16777
8415
-31667
17873
12288
-5410
-18800
-18648
10343
29445
-14374
-32659
-2647
-17218
19088
213
22051
-13936
-6267
-27147
10670
-11144
26538
21399
24814
-21607
-1742
10573
2337
-12221
-19891
-11557
30660
4768
-22717
9556
21023
8854
-9765
-10302
-15566
30264
12559
-5398
11337
-22794
-15020
-24465
21265
31567
-8782
-31928
5904
-27413
17949
3450
23905
-2198
-3073
13724
2536
-9367
3361
31134
-10213
-3501
9818
21827
-4067
-29837
-13542
2906
27786
10291
-29216
-20079
25893
-4265
23042
10310
-12746
16490
21424
-383
25586
-7207
5026
20019
25940
-1678
-2219
-29608
-14037
-13973
-2263
-32610
-767
8083
1048
20071
25900
-1764
5308
26252
-3390
13930
4115
2613
23372
-2978
5818
31750
8100
-5118
13089
-15162
29047
5588
7613
16276
7492
-3194
20668
-13636
22650
-2233
14904
27573
17702
-14934
10174
-29907
13387
-10147
13798
2807
28058
-10897
-121
5408
-5198
-14066
-16857
-31821
7814
26924
-17048
-26792
18863
1665
12971
1618
10442
-3813
12123
947
8912
-19947
-5834
6219
32171
971
-12349
16061
-18901
-26905
-18701
-5525
18549
3619
-22337
-6442
32127
17556
21536
27596
-11978
-3019
23210
-17807
7648
-21856
14930
19235
26526
-12350
-2601
10845
21180
-15422
-18922
-15513
25434
30140
-12854
-7584
31877
4060
12224
17977
12666
481
9155
-25154
20998
3596
24672
11581
11272
-10074
6417
-7124
8963
-13326
10060
19999
25955
-13829
-6443
30323
12416
-13664
-27273
1200
24485
17194
-16297
8516
29919
14425
10830
30175
-12770
1018
20654
-28454
16248
-5858
10514
-11346
20999
3055
135
13560
17778
-211
-11889
-18616
347
32117
-6493
9787
24424
5851
4567
28809
-15610
6560
25075
17851
27476
-8014
-11574
-1337
13807
27607
-6405
-62
10408
-18132
9384
23797
-22524
12729
26065
15663
28780
-400
-16282
-10648
8263
31525
-1067
25599
20453
-8663
-2215
25984
8054
8167
-4435
9675
31305
-7347
9665
25160
17302
6296
-2986
6629
9307
-6940
11902
32721
1722
-9350
5306
1940
32709
4338
-7870
-5659
19039
15444
108
-16909
526
-20527
5851
8064
31758
-13900
-8117
-3294
32600
186
-639
11609
18674
6177
9372
-12923
14087
-9463
22592
28230
16634
-15714
1605
13731
27440
9804
-24164
-11583
-4068
28693
15823
13972
29638
13535
6016
14535
-15678
15747
13773
-12848
27853
509
20044
21323
24879
-12845
-1357
27800
17344
-9169
-13814
45
21236
20058
-21542
-15018
29122
16728
14005
2742
-7026
3829
19036
31551
8840
-22284
-2128
26509
1420
15289
-6654
-14138
15324
-18641
26947
20796
17007
-2923
-4084
-6014
31425
382
32764
23702
1977
3065
2190
10924
30892
10709
-5298
-8475
-3104
28528
4748
-8319
19254
-6598
19153
22769
23563
-13601
-4845
-656
32760
14303
16328
29710
-2320
-5324
17980
-10837
29524
-2419
18191
25616
20432
-7773
5829
3286
32601
-6190
-2899
13943
18102
12961
8304
-3738
32553
14742
1842
-2767
1466
14403
11630
15628
28799
4174
-14368
-13013
9719
27932
-3191
10652
5560
-13154
6606
32380
5018
-7370
3166
-1231
32743
5000
10380
15072
9203
6560
7315
2817
32645
12231
2962
3011
9410
10487
2331
-16521
19055
5216
32349
25946
-12568
-6260
18939
-4009
2185
-3709
26660
27651
-17579
-8551
11743
15899
12633
-8301
-3856
26532
19227
-8964
-3511
9168
31458
13470
2152
10994
-6520
14517
14024
4560
30295
-8536
5827
19251
26515
4611
-4028
27061
18476
-14017
7038
26004
11587
11450
-14831
-22948
21416
-16253
20714
17765
27533
-6645
3328
7619
24907
-11319
6061
23797
22524
2025
-3569
9388
31393
18243
-3469
-23433
-2716
31581
-3381
21047
-1974
-32429
-4691
10501
18417
12400
-19048
28990
15271
5387
-19346
-12931
-1584
27460
-7878
13531
29842
10624
4003
19936
292
6229
8105
-369
32764
20868
7730
16715
-15569
5812
28640
18273
27198
7708
-672
14531
4638
8700
1671
-24013
7788
-9181
17754
12069
30463
-22661
-4411
-8366
-17250
-4504
32455
-1731
-17663
-6245
-11038
22036
24250
10109
162
21794
-6733
7609
7923
24134
22163
5344
-13424
6278
-535
18383
3728
12285
30376
6724
10418
16346
-10181
19292
10353
7856
10993
2286
18226
27858
-17249
-589
12340
26714
18974
8279
-522
17215
-20949
17844
11740
19497
8855
-7577
4080
31645
8498
-7108
-4113
32139
6379
-12243
984
15788
6870
10232
-17952
-325
-25191
-23284
-5671
-21927
23523
-585
-32761
25473
18090
-6121
1079
32549
3768
4298
1991
-22103
-7384
23817
22503
-13715
-24841
-13092
9488
-22866
14514
-4399
16689
-8993
31508
-6939
-10799
2244
-5860
-22186
24113
27838
16784
-15010
-18602
25042
5907
15469
-9473
-16209
-28476
29104
1353
-11346
30739
10713
25150
22807
14
-3814
16095
31143
10185
-9841
-6156
8684
4030
19760
-12072
12475
30299
18137
-5300
9441
-11045
14355
20715
-17669
736
-485
32763
19837
-10605
-15430
12328
28212
16664
-3425
2625
22117
223
11821
-5008
7605
16836
-9360
14133
24150
22145
-5578
-10177
-20861
10540
9355
31402
24262
-4685
-21760
13828
13826
-6682
-8994
19297
32710
-1926
-15883
-8957
-20237
3233
-2224
32691
25879
-2595
-20304
9601
8071
30566
23065
4704
16302
-25601
12686
30211
-1384
5813
19674
25304
13604
-29809
-5599
14633
2011
20615
-9174
21823
32003
7034
-908
6874
9202
-5573
16899
-9178
-23126
-23212
13509
2521
31708
-8262
2435
-10167
-5862
-26360
22053
-3408
-13724
-9239
-22807
23526
-8908
20330
2630
-28226
-12639
-26073
-859
8669
-18486
15609
-24412
-21857
26153
19739
20744
-9123
-4785
-13931
20942
2947
13238
21861
10966
21281
32672
-2488
-7102
2731
-5735
31654
20079
20167
29712
-13814
-5086
28697
286
32765
23154
14456
20135
-4362
-3031
16477
-5007
27280
5166
25370
29861
13489
-11498
5199
18004
23377
10116
6136
29726
-13784
5440
17955
-6199
19667
7630
14151
32548
-3774
-13454
24811
28047
-16941
-1764
-1451
-836
-22966
11783
-10980
15719
-27314
-13601
-15561
-19684
20148
-4082
-32511
29594
-14066
988
9537
31015
-2732
-22142
-17357
-4864
-18772
12573
-4110
-26566
-19180
1076
3110
16564
15109
18780
7057
22259
-24045
1456
17487
-3983
32523
29394
9048
1922
-18719
12272
25585
-17710
23751
21667
24580
11673
-24456
2230
30058
12015
30484
30543
-3318
-3185
-10310
14075
11644
-6192
-32176
-4035
-3671
-24438
3581
-11114
-16959
74
9770
31373
9454
14298
-19789
-16770
21894
-16088
21234
26910
18694
-8235
-8983
2319
10591
17163
-6524
13626
-6466
-26960
-18623
20744
-12813
-10307
15763
7626
23339
32531
-3922
-17201
17815
-18790
4885
26765
18901
1867
-25476
-11927
23477
29686
-13870
-1787
3960
28747
-11867
-12270
-6522
-13687
5238
-7631
23821
31501
9018
-20517
8383
17982
-25482
4519
4893
11902
-30528
-9704
1160
-6340
28986
25931
20030
27481
-16538
-8479
29487
30722
11392
7065
-17638
-6369
6237
17575
-14501
4391
541
19812
-6324
-23535
-22798
16727
7212
-32764
-429
12405
29601
1190
-18752
-11963
19657
5277
14933
32748
1091
1679
-30333
3639
24566
-2411
-19920
-24625
4156
5305
32334
-16977
-25150
-13406
-5777
28122
16816
-10500
-26892
-9359
10281
4378
17191
6873
5762
28199
16687
-18174
3603
16378
20145
21221
2088
6607
-32093
20998
20143
15209
-29023
-11003
8015
2312
-9877
-5036
-21754
19632
19919
21669
-6851
7276
-31948
20282
25114
-12993
25442
30084
12984
15132
-11706
-12014
27443
29981
13219
7972
-30317
-12290
5028
23780
-3466
-22091
24200
21809
16659
2889
1095
-6928
16353
2337
6533
8800
16672
28637
-15923
-10669
16280
-14378
11630
8170
13756
13908
29668
-26650
-6117
3130
-15012
-7647
-16635
-21075
25090
-3208
-23248
-11516
-9172
27582
10395
6573
-14696
-29288
14692
12533
-30275
5507
4071
-13128
-17993
-3125
-18320
2557
12820
32717
-1808
-9028
-29480
9093
20792
-13488
9031
31814
7842
-6660
2310
-18378
4023
9555
31342
27517
-4683
2389
-15078
16481
21079
32510
4090
28797
5868
6981
-28861
6994
-6316
-4933
1885
15530
18426
29379
-2299
-31762
8049
-26125
8683
18365
22497
16102
-5500
-24858
21347
-18618
9967
21532
20218
14535
-25581
-10815
30930
4966
7166
12236
12525
22000
-24283
-1757
19402
7904
1196
14307
12146
13551
-29833
1768
13716
-32374
-5057
8360
12336
2530
904
-25667
17528
1325
-32740
-3918
-8892
-29231
1540
-2716
-23739
-2772
-683
23146
12238
17801
-27509
-15305
23331
-19907
-6156
9357
21804
16464
3752
-32558
3691
-18853
-26799
14257
3916
-19717
-20772
-14614
7197
4159
-31502
-10723
7304
15244
5643
-28458
-16241
-12509
14860
12735
23118
32715
1845
-24871
14738
-2316
5113
28015
2223
-3901
-32533
3115
24252
24028
-22278
-3540
-16720
-8080
-10296
6328
-11685
-23970
-17840
24621
10320
-27037
-18511
-10254
3498
11109
-30826
11677
14248
4118
-19491
-20657
-18374
-23991
11190
20873
21621
17275
-9597
-22713
23617
-13720
-2687
32594
-3355
-17915
-25627
-5859
21847
-12788
20580
32690
2234
-9364
-13840
1618
21235
12291
30374
960
-20174
15223
22745
8918
12183
22859
-23475
-1524
-8066
-4349
-17009
5658
-11933
9953
19454
32087
-6639
-9757
-28933
20460
19972
10475
-12973
22394
2326
-3416
-32588
-2648
4572
-30469
12052
15718
16168
5752
13766
-25021
9967
10188
-19483
15306
306
-20462
-25592
7646
-10798
-28352
8827
4699
25841
27523
10773
-29656
13934
-15998
-28595
-10891
15196
-4210
-1941
-15694
-11181
-15536
4718
12529
21505
25015
-21163
-15220
26765
-29261
14746
25437
10483
-5472
-430
-13393
18580
-11653
-2412
23759
22565
5478
-22178
-15066
7912
-986
-18511
-1776
368
8893
18525
-28402
-16339
-23116
-23222
5759
6426
-15960
-7581
-16569
1601
-23561
22771
25591
15711
7891
-8919
-9790
26448
8869
-26561
-14089
-13027
-31753
2378
18387
-27121
-8671
29910
26859
1494
-8535
-18439
20001
25953
-21929
15828
13744
-15734
-11120
30822
-12828
8787
5074
20901
23216
6468
24131
-22166
-2083
27262
-4549
16002
27794
17352
14508
-22108
-5403
17834
-27485
-1394
15439
-9106
-25650
20389
-14075
-967
9976
-26217
-14311
8264
32701
-2063
-25778
-6826
-32546
-3793
12355
22912
10661
-8365
-26805
18310
9455
-26544
1606
6209
25964
-3968
-31454
-9181
11966
-9630
21079
-15603
-27825
-17303
12064
-6596
-32393
-4935
6110
3693
-21850
-2273
-1812
11325
-19367
-26430
-13313
5632
-13472
16922
-17695
-19212
7579
1967
21874
-8828
-13074
-30045
13928
14965
-17467
3118
7742
-1085
-4440
32464
-22355
-11789
-4478
-26674
-20977
-806
1484
25567
-21477
-24746
-28511
16147
17674
16317
14083
10132
-26512
16252
1612
4237
-6371
-4680
9794
31268
-14295
-14119
-15574
-28829
-12563
1767
-15587
14154
-15371
-19545
-19748
2661
-2457
15837
29085
15090
-30291
8556
-18234
-13463
5472
19277
23901
-18720
-26672
19033
-10486
7929
5417
15417
32458
4488
-25893
12690
-9175
10797
-5929
-1695
440
32764
-6880
-11151
13138
19077
26855
-18774
-8731
-13668
14845
14283
-29094
5778
12550
30268
19180
-16977
-18590
23388
-32450
-4541
-7510
16550
4004
27573
-27586
-6740
31780
7980
11685
-14586
5090
3590
10024
-18642
10739
-17540
-10004
15472
32732
-1501
-22978
-12552
-3155
12926
27007
4298
-8155
-31735
13418
20232
1906
15692
21278
-856
-8705
-31589
23170
21379
5331
-18679
-7468
-16264
-29780
13668
7764
-27524
24187
1273
-8084
-24765
-12533
27000
13060
-30051
-1462
13523
30241
1860
-2147
-32696
6930
25455
-11650
-18579
-12299
-5925
-18376
27128
-9664
-26099
-21822
24443
20631
14480
18270
-5321
-13938
28622
-8710
-21725
15581
-15708
-29212
-14841
-4010
1716
-27035
-18063
-9997
10027
7349
17247
-32727
-1602
-482
5613
-2839
-105
19206
26547
-20577
-8982
-19122
26608
13349
-3255
17058
23081
-19249
17477
5112
-8313
-15028
5267
25525
20546
-22031
-14067
3124
-3952
12092
-23764
-32435
-4646
15237
-3816
-27154
18338
4821
18454
6658
14382
-8756
3797
22397
-23917
-13702
-3808
18384
6812
-15752
-25245
-24717
-14061
5479
-16610
-32766
-151
-758
5005
-17282
7999
1293
-8793
-27034
18515
8997
-5283
-5359
5620
2445
13821
32718
-1778
-21421
13000
-8757
1525
1441
-10808
-28031
16968
8192
-13215
-4930
-4351
5369
-21645
-32386
-4981
16985
2102
-32281
5619
42
7364
-6123
10677
-7517
7876
-11629
9826
-13327
-10530
-15698
28761
11684
-8981
-31581
-8732
-4894
-12950
-2423
6129
-18075
26994
-12236
19393
23963
2575
-4934
-27047
11347
30739
6361
15927
17128
-17606
-26833
-16224
31842
7729
10430
28669
18146
-12972
-5199
-15170
26475
19306
-22528
-9909
-12324
10949
-15473
28883
-10597
-27960
21028
17750
12050
-14837
-13724
-14810
32703
2045
-27345
-18053
-3402
14582
-11202
-4449
-11697
-2927
-7835
-16082
-14356
-18430
-24901
21297
853
-17246
-16540
16641
18944
10615
3673
-28876
6465
32122
-11046
3166
7848
8279
30208
-7933
-25983
19963
6945
-1693
9617
-31323
-23080
16947
-1298
-12320
29442
14381
9196
-20717
4921
-16903
21814
10195
-23372
22965
21369
112
-14948
-10138
9583
25990
8261
-21890
-25517
-16275
-6222
31836
-8782
-31568
18357
24161
16819
-2571
7111
-29760
26344
19484
8660
10455
-7114
-11654
-3650
32563
2455
-21495
13762
25951
18859
-7898
-15917
-15108
32738
1359
-11072
-1879
-20367
14330
5413
32316
-10417
-26961
-3883
32536
-4549
-5079
8006
19484
13386
7636
18438
27087
13974
-5779
13614
-15825
17975
16473
15658
9191
11010
-16220
-20790
-21564
32300
5507
8433
-20796
-28559
-16063
8074
25629
-13077
-19224
22345
23966
-6036
-8027
24191
10699
10482
267
2992
32630
2259
-12741
1365
6387
22468
15012
-31974
-7164
6857
2256
-19612
10968
-19009
-3242
13576
13178
11885
9380
18823
-26820
8211
12963
-8445
11426
2652
-11681
-29019
15216
16131
-9838
10347
12583
15084
-22073
-32525
-3970
27137
-3841
3330
6675
-15296
3006
16112
28532
-8491
-16677
8059
3683
-16334
-10695
-550
32762
864
-22986
149
31122
-9542
2307
22647
23680
4932
3989
-8276
9876
1816
-5248
-4568
32446
-14075
-16660
5220
27110
-5450
-14399
5869
32237
3712
-9154
8456
1339
-16752
-2606
9992
31206
-7897
-25305
9617
25611
-11531
244
29745
13743
5002
5790
11459
-27435
-19887
-5886
-10780
11312
-1874
-32713
-3110
32618
12527
-3546
-5218
11465
12333
3555
7143
12359
-16138
-28516
-7742
31135
12021
-6563
-25670
20364
2677
18970
22461
4850
-14683
21794
15835
-6076
-8191
-13941
-23785
8345
19376
-26423
-25508
-20566
-8451
16456
14803
-12732
-26812
15475
13518
28752
4893
15972
32681
2366
-304
-1146
17538
27678
9883
-23592
-15685
4921
29516
739
16412
2816
-6342
-21532
-26659
13958
24108
-22191
17110
27944
7093
-12708
-9278
-4060
32630
2034
18481
20491
-7720
-12229
24612
21631
-3485
-3679
8862
27266
10418
777
11074
-22850
22332
23977
11740
27873
11391
-12087
4848
-14667
22669
23659
-32744
1226
-15572
9527
-20581
21950
2196
-8180
27069
18464
429
-8196
3991
2238
21354
-10210
-32552
3741
-16110
10154
-10299
24894
-5057
-4373
12139
6976
-541
-11107
-21885
-13531
32596
-3341
605
32761
-4328
-13611
-3845
31275
15048
-1904
27471
17860
12879
-19418
-7513
-14176
28068
4671
12362
1245
-29648
-12481
-9516
25269
21408
-24805
-16916
28062
8177
8096
-7121
8180
10375
7160
-10224
15871
-6478
7169
-431
32764
-6133
-18048
19639
26228
10829
-46
21092
-15474
13768
15509
-19043
20349
2764
22555
32512
4074
-19794
19921
22813
-1143
-14853
-21229
-16470
18201
19536
-26306
-2178
-4100
-30053
12368
18719
26893
-10823
-20176
16065
28558
4303
3948
21312
-10861
17868
13302
-13136
26274
1182
16287
32744
-1209
-8336
26715
11667
2875
-5034
10460
31678
-8376
-8293
5728
9206
31447
11362
-2206
-303
-7620
25073
10678
13649
29788
6158
-1231
10370
-14371
23768
16094
6200
19160
638
-23592
-29312
4580
32746
1158
31963
-7213
-18146
-8410
5086
-7847
19521
-15538
18170
21791
-3515
-25679
-20253
18441
30872
-10980
-15847
24029
-12939
3580
-7713
31846
9486
-8024
17882
21533
18283
3846
11213
-30788
17465
17471
16316
13615
-14156
-4893
16677
28205
-988
-16841
10337
31093
9259
-4838
5471
591
17033
9447
31819
7823
-2417
-6316
5517
-15592
23468
-5632
27565
9921
600
-29144
-21826
3949
30788
-11214
-7933
24311
4440
8670
28334
16457
-17704
12565
-5182
-32354
-23650
-10566
-30491
11521
-592
-25085
5217
13392
1580
11304
31347
-9539
-6385
16144
6288
32157
22780
13944
-4047
-30255
29657
13366
-5115
32365
-5741
-3203
6819
24827
9433
5877
-2510
32670
-3508
5207
18814
17205
5625
9183
-8954
9804
4325
-8120
-25479
20602
6722
-11649
14946
3633
1636
-17853
-32230
268
28834
-15563
13830
28733
-4814
13824
31409
9334
3795
-1641
22604
23721
4335
-4403
7533
-6228
22597
2308
19692
6995
16338
-11328
-21618
-24623
27495
205
14091
29582
-15584
-3889
5102
32366
18438
-17595
18108
21365
5650
584
31349
-9533
877
17171
13668
29779
5896
-5571
14040
11884
6028
4029
18813
25730
6133
-11515
-12038
-197
32605
-3245
25510
16087
7326
-12787
-3801
-23549
30800
11180
3443
4703
-12872
2653
22714
23616
-15999
-6924
24324
12594
-8798
-17613
-11391
4228
31300
-9691
32762
557
-6785
-18890
2303
-8280
19593
-3723
-526
15515
-4160
-10861
-23320
23017
19278
-13606
19035
14022
-1898
-13291
-16729
3756
30657
-11568
10782
9619
17070
310
-21226
-24962
24795
501
14899
29183
-11347
-6659
789
15423
29686
-4364
26555
6809
8650
2140
-7272
-31949
31629
-2590
-244
32766
10926
26488
13144
-13882
14285
10113
23632
21851
8431
6595
-5494
-16662
31854
-7678
14068
21312
8856
7010
18301
-27179
18135
21483
11405
30718
10562
-27
11201
-10259
18552
17184
29014
15226
6149
-9920
2823
-11159
22005
-540
10695
27614
17592
5527
3679
-28119
25254
20878
18762
7578
1348
-22317
-28154
3570
30164
-12796
14663
29302
2810
1323
29787
-49
5247
16367
26478
14936
-7253
7253
32381
5011
345
-6522
31846
7710
8845
-2449
8060
-29584
21456
4491
7725
29381
2059
6680
32465
4431
-999
15953
28004
17012
3693
-5482
9238
-20114
26730
8204
20987
25163
4548
1528
25812
-8906
10677
13248
32306
5474
735
-8998
-7398
-13294
28065
-11246
31949
5563
2151
-16241
-9053
-21183
32766
158
26687
19012
10802
-12265
7619
-10330
16010
7915
29494
11386
-8368
-16201
-9238
7725
28769
-15683
6187
29400
19211
7498
32170
-6221
-9639
23272
5151
32359
5070
25757
24001
-12539
14323
13003
-17158
12857
19145
26591
15604
-19767
-14549
23452
32655
2696
-8197
-12939
6673
9532
9863
-18184
32137
6392
-3392
1496
2395
-20238
29033
-6355
16471
28325
15587
-16306
-12548
5879
21456
643
23316
19812
13036
-19740
-16713
-11762
32396
4912
-21074
25090
7476
11057
18444
23385
-21378
14415
8484
17598
-11499
4583
24120
22178
-2399
-5111
32528
3943
-7719
-8739
12146
7035
8600
-15397
-14923
16842
12137
21833
30254
-4712
-22216
24085
-1710
7278
16350
17173
17036
-27989
-5713
21844
32253
5777
7798
-14597
-5449
-15958
23358
-3713
15421
-7115
-6574
9059
4151
16921
-9025
-31499
25094
-3109
-13295
-8506
-10312
6170
22180
-24118
31426
-9276
-3976
-1132
9414
-28089
15878
-1907
19907
20296
4739
7776
32220
-5960
715
8518
27591
17674
-7666
-8076
4720
10484
22690
-12142
19429
-26384
-4791
8175
1316
-28285
3386
-9880
16703
7478
1929
998
31179
-10075
-6575
14297
32730
1540
-17306
-6375
30363
-5992
8529
4259
32112
-6518
-6195
-14445
4522
-11485
13407
-2336
14254
-12111
-16856
4479
31606
8644
-19661
-6956
14317
22804
31741
-8134
-16511
-11394
15499
4762
26722
18962
-2252
-5996
7813
20357
10658
-16839
16578
16230
13897
7399
18077
-27329
11381
17661
8661
-8070
-7690
10838
32524
-3981
-19375
4528
-3063
30191
25901
9788
21561
-17464
-2967
32632
-4742
8509
-10801
-11270
-227
32766
-6032
570
27475
17854
9697
-2558
25570
-13138
6285
12341
9101
9222
19981
4020
13485
-29863
1075
23551
16658
16747
28497
-8892
-23415
-22921
27093
4668
20591
-14702
-16995
11269
12231
15611
-8233
-31715
19499
-2839
17011
4402
5174
-32355
5406
5984
4810
-2958
23134
16961
8766
-31572
-8593
10054
27227
5238
18756
3027
1387
-32737
17611
1768
32605
-3253
5870
-15351
-2819
-12968
13857
-7366
32178
-6182
3505
-9560
-8683
-9521
16245
-19233
28025
-5831
6021
-286
3178
-32612
17573
1782
23357
22980
12494
-8074
-12019
13430
20563
-17228
10303
25165
16618
4559
28700
-15810
183
26739
-32694
2184
-2361
21058
2404
25892
-24828
-1111
17674
27591
22036
-17634
-6845
5354
13815
4555
18180
-540
16306
2965
1124
-32747
11299
7173
26008
-10539
5896
-14189
-14734
-29267
23647
457
20245
10183
8280
396
23588
-22743
5932
17928
-14006
18248
10678
28074
32761
579
-21776
16244
27673
17546
26224
-17611
-2915
-29628
22721
20567
8574
29295
29371
14525
13127
-20623
7938
16272
22457
15540
27311
-8004
-1342
-32739
19465
19398
-1581
22820
25073
21095
16546
-25096
1835
22685
-342
-791
-1806
-1774
-901
32754
-16549
-20214
22914
4836
23626
-20696
-20203
-25797
22626
8127
26814
9309
29810
-5960
9707
-31296
4691
16467
17871
-21044
-3513
-9710
-13022
-30068
20210
5090
7130
-5298
24325
-6302
-32114
6505
-1200
-22920
12974
4794
32484
-4292
-10202
12692
-16312
-16765
9709
-5058
27084
-18441
-16438
11935
-17327
-7201
21314
-1273
-5796
-32250
-20757
17405
17177
-14369
31996
-5228
16499
-2139
10332
-31095
7236
6453
-1824
14579
13550
14065
21757
-24501
344
28039
-20221
8273
18129
-10073
-1821
29341
-30942
10781
18977
7241
-5279
-12529
12711
30200
-6909
-14211
17814
-14996
14405
-18814
-27688
-17522
12154
-7442
20461
25103
31883
-7555
11553
-24325
9334
24745
-12894
3736
5708
23829
30807
-11161
-20705
20477
16069
28555
23422
-6524
-2504
-7144
18970
7667
-12180
6562
27368
18017
-13632
-17656
1513
5403
-18125
13397
32666
2560
-14795
-14421
-3353
21325
1002
7764
24046
12492
18125
-27297
-9908
22495
26433
-3343
6719
5889
18610
-26968
5506
2068
-13997
-18773
5439
15749
13997
-4878
-32392
4941
10639
8815
25276
-20850
-15862
-6061
6969
9739
24919
1091
5018
-1471
32708
1962
-16929
-522
5946
14165
20583
18198
27446
-17898
-11019
14160
24086
-6477
14351
-23326
-32761
-616
17491
-21435
12750
-16600
5075
-10212
-31079
-10380
16859
-17997
-8008
3626
-56
14882
32190
6118
-25901
10983
25481
15708
25307
-10438
10949
-30883
13259
22815
13779
7609
20713
-17147
3996
-26104
9869
31245
-29500
-7720
10300
21862
7955
3943
-31658
8452
-17995
-8346
13969
13885
13147
-10170
-28091
16868
25793
-20208
10188
-18438
-4662
-29147
5180
5943
-26323
19512
7909
21029
21841
9936
-19457
19249
18600
-26975
-10600
-9248
-763
4156
-7874
-21466
3621
-5783
20408
-6722
-31184
-10060
10479
-9211
-19231
8605
25525
17612
13915
-15589
-21463
24758
-5779
-4245
7526
18146
32206
-6035
-29625
11958
14276
-12978
10870
-5511
-16628
-28234
15523
-1199
13799
-21402
10694
-30972
-15163
17725
-19298
-13758
-30754
-11307
10354
23817
5907
-10354
-26912
13626
-18958
-26725
1534
21454
9290
-15751
-27648
5837
-20886
7259
18194
13363
14983
-6803
-21896
24376
-13266
-17267
-11972
9603
12232
22795
-30425
-12164
-30778
-11241
21540
10967
-7447
-8364
-27497
15500
-24710
11380
14961
18364
19137
-465
-23961
22350
-13942
12789
32164
6253
-11923
-19619
237
19052
803
-3693
9268
-20225
-32746
1169
13630
-4233
25457
-20629
-5954
-3008
10410
-12444
-1391
-12129
-23158
-6377
-2680
7111
9191
24989
-32746
-1172
6711
-12890
14730
-9613
-18423
-27096
11366
7281
7658
17639
11401
8630
31818
-7824
-7840
16961
-5216
11759
27781
2124
-1102
-32748
6179
30583
13835
-1364
24308
-12293
-11962
-30505
11219
12902
-1127
-79
22176
-3571
-2482
-32672
3606
26830
-4159
-15
10103
13829
30884
1797
-31850
7695
21591
-7217
15443
-3354
-10011
-31200
16176
-2453
-810
-32756
-446
-4498
-11675
-8687
-13131
-8841
-5703
-32266
-5862
4160
-4928
-8157
-15308
-7886
-16136
4245
27309
3
-10281
-30505
3800
32545
519
-5237
13933
-13532
-28110
-16836
15921
5236
-12176
-23379
-1879
-10272
-10950
24615
-29360
-14548
-19274
7785
26116
18109
12304
-24959
-15301
28974
-20520
3072
21127
-8638
-2163
23404
-32057
6783
15817
4689
29982
-13217
-24246
-21975
18008
43
7165
-10834
-15654
-5135
20078
25894
-20591
-13700
10
-25294
-5006
2140
15020
8044
-31236
-9896
12799
-730
3768
-26820
-32040
6863
23740
-12538
14826
5513
25232
-5411
570
-32762
9299
16825
627
-32760
-14066
-4284
13915
3538
-23641
-4497
-10324
6170
23061
11907
18141
-25640
-14432
29417
-29295
-12254
-6629
12635
-26365
19455
-3650
-20588
-3333
7685
25496
14461
12753
-30183
-5177
21088
-27193
9302
12802
11900
15380
4501
-24481
21779
11650
4106
-16256
-3337
25021
21156
-6270
-6947
4653
-17369
-4987
-17226
-18846
26804
-9266
-28064
5431
-16730
6944
-11281
-30694
-11469
11868
-11758
4972
-28447
-6266
-9356
-30560
7906
3238
-32606
-3846
-32540
-3108
-10420
-27781
-7108
-660
-12553
-17810
994
2460
-3870
-11985
30496
-15087
-11595
-18570
-16299
15645
-9736
-31550
-8846
-4640
4733
-25435
-8771
21046
13189
-15361
-28942
-3302
17434
9543
-4530
26908
483
24321
-21957
-26732
16206
-32763
-479
5189
32154
20985
-622
-28742
11611
-14441
-1879
8610
31615
21005
-12739
-17440
3337
-16503
-12561
-3159
-1213
-13040
30060
-20955
-20913
-8981
9008
27108
18406
7506
-31842
-2901
20789
-20623
-804
6673
12933
20356
4718
-30035
13096
4813
-7060
13445
-3627
3074
-32622
1849
20627
12299
-11316
6089
-24193
-26616
19111
-90
-27190
-21618
-14809
-15622
7872
17386
22950
-32739
-1350
14423
-27992
4654
6472
18335
-27156
-16963
-2512
-2451
-254
18289
-2357
-10597
-31005
10198
19136
-11656
-5844
-9276
-2629
-3321
32598
-17189
-16923
9139
-12587
-15806
-10196
13717
29757
-18431
-21249
-7205
19777
22930
-23406
-29153
6836
13699
10165
-31691
-8327
15027
-10344
-16105
-2371
-11748
17631
-28552
-12886
-637
21442
7470
11533
-32393
-4935
-21348
-17884
-3804
14231
5844
13271
-31557
-8821
-28583
16020
5481
-1573
-2320
30720
-15194
5835
-13222
-12385
-3769
5448
11992
19693
-31731
-8173
-11437
-7254
-18021
-550
8777
31569
-18954
-11574
-24965
-21222
-1327
7189
-10281
-378
-18143
-201
7433
-18915
-17272
1108
32762
568
-21531
889
-25913
13204
539
-3214
7272
31949
-21278
8397
-18545
3646
-4347
14710
29813
13595
-28138
9926
-569
3988
-3537
-281
32668
-2534
-13258
18642
8129
10951
4220
2550
31997
-7060
-9839
16979
21387
17357
27128
-18377
-11629
-17511
19352
7096
-8398
31672
17677
-3664
12767
10914
-4337
17733
-32193
-6101
886
4268
-6802
18355
-22883
845
13738
-17080
-23014
-23323
-16170
25620
7489
-27809
-6776
-12184
12201
12022
14800
-29233
-16778
17655
9581
-10453
4071
-7589
-19374
-26425
22110
-93
10119
26828
16028
-24730
-27376
4894
32745
-1190
-1015
-32751
-21177
-947
-6993
9595
-10684
-23826
8163
-31733
-1948
-13881
-28157
-15057
7441
-17072
646
-2987
-78
-16626
-32128
6435
18107
-12268
8736
-6494
-16201
-13885
-1210
32744
-6221
-24808
14331
-9287
-22635
-23250
-5620
32281
2772
-25305
14231
-3567
4752
-29004
-22756
23575
1395
-24240
11997
-28517
-5202
-19883
-32448
-4554
10654
-22416
-31079
10380
12591
13330
-5621
8286
-13286
6901
-3534
-11173
3796
-9722
-22366
-23946
16615
7682
26697
18998
-13204
-27894
1189
15689
28852
-4421
4673
24732
-2636
-265
25782
20222
-4428
3916
-23067
-18979
-20580
12586
7847
26499
-27994
-17028
-17609
-22967
-12335
-15404
-25810
20186
-9889
-12496
-19049
-15093
-13899
6202
-17489
27708
-11030
-28174
-349
-11869
-21658
5543
20990
25160
-21341
-20246
22860
-23474
-20996
-6336
-949
68
7253
-27265
7976
-4927
-19742
-6657
12313
30365
-10979
-20684
-29189
1471
7005
-9369
-30647
11592
-1104
3536
-1019
1207
20230
-25776
-27727
5618
-1294
-3573
-9919
11568
-11013
12558
24337
21940
-14343
-1723
1682
-9091
-22771
23561
27971
13309
-14417
-23503
-15704
-28279
-32765
-337
-5617
23028
-12172
-20696
-17300
27827
19861
7257
12870
-8997
-3593
31258
4721
21212
-20649
-6229
29516
14227
8321
11660
20597
-12463
-26275
-17579
-2200
28055
4948
-32391
21070
-9574
-14030
-24975
-23786
5514
25882
-20094
-16204
28479
-2566
165
16050
13206
816
21955
3716
6951
-6410
-28446
-24756
21465
17325
-10552
13801
-3348
8471
-14074
-24998
-21184
25380
-1541
16136
20892
2565
-19559
-5870
-8312
30642
11606
25896
-7195
-15533
-28851
-4084
16393
8214
-20410
14420
10982
14894
-23900
-31359
-9501
29979
-1956
-5775
-11372
-4477
-14246
-32105
6550
10557
-12094
18254
-1721
2114
-1292
4545
-32450
19177
9115
11453
6506
15539
-9340
-13605
-29808
23095
11546
-15914
28642
16631
9748
18622
-3610
-7616
28265
-17403
-15711
-17335
1449
-7421
31915
-19664
-21694
21836
-11702
-12661
-21767
-23180
-5776
28051
-16935
28285
16541
2053
-26345
-10457
4518
27593
-6930
6399
-29474
-8049
-3731
-31717
-8228
10077
-30433
11487
25649
9979
4671
4203
-25454
29680
13882
29205
-14856
-17031
-27434
-12873
5249
17004
-21677
32582
-3473
-746
-23394
-6169
-14283
21280
-5275
27960
17084
4059
-13885
4024
-16472
28496
7312
10580
-75
-7430
-20670
-28421
16306
20650
-22285
20100
13489
8483
-19642
-23442
-7649
31995
-7070
29657
-1722
-20361
-25673
-6511
24939
16202
-28384
23611
-7777
-17981
-27392
-15224
16828
17093
-23563
-15453
-19382
-25261
6817
-10644
30320
-12151
-30430
11562
-11977
-24829
-9088
-1585
30530
-2916
-32636
6024
32208
1208
-1086
19912
10471
7670
10153
9176
31455
15913
-2972
18391
-6485
6351
20245
-4226
32493
-4008
-1054
16615
22768
3292
8472
28201
-5110
-16259
-24933
-14949
6512
26113
-19793
22272
24033
6685
-11444
6337
-5239
21653
5686
15665
28779
-4767
-7220
30518
11348
4568
11959
15961
28616
7192
-5595
13425
-5705
17913
13511
-2783
14567
-16319
5278
12534
30274
-3668
-14004
-11981
30498
27387
2680
-11706
-20641
16295
25168
7943
18199
-20373
327
14875
29195
7098
-14277
17205
17901
-10998
-24500
-16428
13904
31199
-10013
8645
-31605
-27160
3539
-600
6811
-6743
-29630
-3526
-25026
13723
16326
-5959
-17666
-27321
-18088
25342
11219
-357
-32325
-18706
26902
12604
-24440
32549
3770
6200
-9287
-3290
-30280
29029
-266
29076
11957
-19955
-6789
32034
6887
7573
-3502
8981
-5946
-9969
-19468
-31582
8730
22885
-18859
21960
-12281
1530
-5905
-13995
-29627
22196
-6372
21178
25003
6858
-14012
8411
-11746
22674
15737
25221
17159
9023
-22866
-13255
-14562
32236
5870
22692
-9681
-5407
-5502
-18555
-22759
29413
-14441
29811
11410
632
-28212
-16771
-3353
32278
-5638
14987
22475
4781
-3427
5821
-23300
27384
17994
19025
18517
15381
-14382
-3146
-26947
25953
20001
9707
31296
6218
-32104
-26948
16779
31995
2389
8624
12949
-4479
5699
19509
-26326
14669
22280
19632
26234
21033
-6233
6492
-22632
17499
17048
-5405
-18329
-30222
12658
24596
21061
-25256
-14605
1163
32692
18301
-24050
-28014
16996
20347
2346
24310
-17156
-5657
-20791
-29269
-14730
26081
-16871
12692
9642
16263
-10868
-26683
-19017
25413
-1228
-1796
28494
1751
13560
29829
-13559
6941
28855
20932
25209
2706
-18464
-11199
13029
26768
-8953
30216
12673
-7597
-24765
-9641
5050
31238
-8953
-1169
32746
23236
3005
-7146
-15144
18200
17366
-20765
13965
14004
2691
-5675
-20183
976
32752
22189
24110
-13791
-8377
21757
19119
11832
-4536
31766
8035
6696
-7120
4859
-18682
20057
-2565
29010
15234
1563
-3489
24732
-19513
13605
12146
25042
5780
-16102
4432
32766
104
1068
-4225
17243
-24759
-1361
3277
-20545
-25525
11389
-21152
20361
25672
4189
-387
16543
-14320
22131
13112
28082
15189
4218
-21405
-16114
-2509
31785
-7957
18129
-7042
-27557
15027
32766
98
-5919
-11278
31770
8019
-12110
-4441
14015
3072
16363
-14687
26379
4735
2993
-18396
-13379
-23223
32469
4402
32506
4119
11854
-11708
-15565
-28426
32165
-5410
32755
-857
-1902
-17176
-10790
-11505
26884
-12096
32658
2669
-7015
-24480
-6884
-13789
31530
558
30070
13016
5492
-4317
14894
-21930
15842
8164
-1764
-32719
-25221
14951
-11769
-8427
3177
-23375
19573
26278
4622
-15607
-5308
-1070
28764
4985
28705
15800
12566
-18563
-5170
-20824
28724
9420
32456
-4503
-12587
-2328
3347
-16126
24406
-13149
16525
9987
-15982
-6792
17858
27472
-2576
-13454
-12883
23225
6405
16706
32332
5320
-20812
22015
15929
4491
-11565
-3081
-12745
-4354
30528
-11903
31531
8913
-6263
-9508
13482
-4799
15276
-3187
31221
9944
-6339
-14975
178
2998
21701
-11397
7078
22621
-8259
11106
28891
15458
-1412
-693
7414
31917
4706
3308
27975
-1962
5152
22277
23831
22488
8997
-9775
6058
-3323
16376
3583
31527
8928
6526
-20708
-3779
-15841
25323
3732
29168
14928
-1239
-13933
3155
-3418
22105
-1261
32722
-1697
-18485
-17740
11922
4746
13486
-8538
-9949
5380
-14230
14205
26753
18919
-19271
2273
32645
2821
7654
-26777
-10469
-4286
15829
-6516
23216
-5833
-1816
28716
24794
-21422
-4425
-13749
16064
28558
18203
-1787
4717
-19403
22170
16586
14811
29228
17021
-14102
5879
-14128
18735
25832
32189
6124
5795
-8121
2338
-22017
21967
183
22606
23719
29457
-11914
-10715
-26369
25667
13386
30300
12473
368
-21092
3434
-9118
23171
6709
31996
-7063
-20468
-3857
13810
-3779
14084
-14192
28905
13836
12861
-4715
4243
-32491
26332
11958
32741
1295
-11534
-4128
15453
5116
7978
-17461
27013
15400
13971
-998
13119
-30026
18831
13888
17460
15748
723
1771
31115
-10271
2210
16668
30327
12407
8795
-6693
10478
-14528
15211
1111
12710
-8648
-3667
-12105
-32725
1639
22892
-23228
-7417
-3003
-10677
-12796
-14909
29178
-4690
-10880
30458
12081
16195
-2856
16646
-26044
10029
10286
6603
8814
-1439
11089
32075
-6694
-8842
13057
20737
2042
-17748
-19362
-2305
32685
6146
-23952
12896
21844
12019
-6846
-6964
-18504
29342
14584
30856
11026
20370
-16880
-9782
-30922
27950
9502
20713
17924
19920
2987
15897
-28652
10855
17469
16923
20228
27808
-11141
-30133
12870
13316
-22319
10372
14801
17678
8365
19337
-26452
2617
20750
95
-9647
-3951
-863
-24161
22133
-1307
-30987
-4220
11
18648
12704
1539
-32730
-320
19026
26485
-5440
-14775
9961
31374
9449
-10643
-20338
3120
18397
-6868
-17805
-10626
30996
11799
-5798
26720
2716
17403
-17415
-24742
-21482
26792
-2826
2255
26273
5932
-17765
-13938
29654
10420
-2865
32055
765
16266
-21874
-25461
-20624
28457
-6469
21883
24388
22625
16967
17213
-15130
5708
2870
11916
8132
29956
-9776
-31179
-10075
13484
-5525
30930
10817
13520
-2175
16015
-28272
13745
13200
-23351
9492
-3145
7677
16230
28464
-27699
10055
10899
17218
8293
5014
31240
-9883
-5279
19974
29774
-8158
13723
-29754
-15362
-14046
9356
2407
26487
-19289
-5601
1386
1785
-6950
575
-20765
11477
-10272
12993
10815
-1629
-32726
4579
1683
-3343
-31656
5334
-3670
-20479
-25578
-5162
3835
31729
-8180
9724
-8316
-9338
-30547
21291
-5997
25683
-799
-6894
-32033
-17584
24030
13036
-19859
21225
-790
12928
-10316
-10079
-31178
21655
8285
18506
-27040
-19776
-5242
21684
-6932
-12109
2854
4632
-1130
-3978
3559
32375
5052
-23079
9093
2079
20001
23360
3181
5502
-29708
11916
30523
21795
665
-7053
-26642
-14422
29422
7438
-22695
11737
22241
8342
9541
32639
-2883
-4895
13129
11474
-1811
1857
27505
32130
-6428
-16496
-6107
10478
-31046
-17162
-8487
-17472
8799
-357
-27783
23570
15984
20580
-6564
-821
-32756
25645
17849
12072
-8452
13868
-7750
-7254
-31953
8951
14105
24294
-3691
13011
2761
12217
-30404
4094
5162
26840
-18795
-1499
-6228
24647
-2638
-22043
-6689
-632
10880
7457
11919
32555
-3713
-18680
17138
26023
-5332
14188
-3714
3535
-32575
9797
5516
16270
12476
11948
8851
29849
-13516
-6116
12316
-971
-6451
23224
6285
12804
-30161
-17847
24931
9499
-31359
-10364
-4076
-4454
-9597
-5802
-9806
3493
-32580
-220
-2722
-10595
-26903
-2385
5753
-8648
-31605
-9656
19204
14492
-15644
-23492
1257
-22354
619
2042
7973
15274
16802
-30653
11576
10065
-31182
-7908
-2554
-1353
-7758
-10769
-11684
20715
-11220
16555
-15602
-16262
-28446
12448
3982
1147
-32746
-4647
7499
-1924
-19633
-10253
-3650
-21511
-7026
-922
11970
8585
24761
-32509
-4101
-2741
-32652
1889
15017
-810
-5763
-25717
-17698
15982
28604
28725
-4782
19069
-15516
2809
25150
10589
17263
15769
7506
29434
-14397
-6817
19135
-18192
-27252
8337
-1429
-14641
-4555
-24473
3368
-26070
-19849
7274
17742
-6975
-9490
-21775
4843
-7403
-29073
-13687
-7211
-11319
26988
-23418
-22917
5095
692
11568
20110
25794
-20206
-12282
9943
6864
-8512
13700
-17379
-32136
-6398
11559
-7293
6073
-20634
19054
-4497
-12395
-30332
-4268
7314
325
-20271
13019
5172
-10142
-31157
-1861
5424
-18565
-26999
-3549
-8777
-5882
12627
-26840
6803
321
-20290
15091
-2810
-19984
-25967
1887
5194
7072
-30831
-9067
-17434
-30069
13018
-259
-28152
6205
-10912
-1512
-4265
11741
27213
-27865
-17239
-14945
-17963
-9905
-5261
-21316
24885
-10975
-18642
4419
-11316
15536
5160
-915
-32754
-778
11397
-7457
-10457
23057
7488
-11573
-30654
-3965
12409
-15984
-28603
-5396
1487
-11761
10112
-22571
-11246
-24873
-10786
15872
16520
6037
-16954
-25196
20947
-9157
-13071
7908
-9011
-32717
-1807
4328
-6077
-5272
-21138
-16589
14231
30401
11840
-32468
-4414
16514
-17164
3228
2176
12818
-30155
-1561
7489
16532
-28290
982
-12230
-11428
-4866
-6541
-17403
14392
9399
3457
-155
32720
1748
-12028
10246
28933
10447
15648
-7319
31721
-8209
-9171
10305
20060
-3365
18031
-27359
-24992
-4096
13168
-5468
-12633
-1752
23457
13912
7095
-31989
-10652
27099
-17769
-27530
21743
-24249
-29959
565
-25731
9482
9794
-30679
5323
1991
-18730
-26885
4032
-13111
-6943
-32022
-5507
-6853
-31602
1834
-101
-18443
7016
-18411
13214
-12250
-28184
-16712
7469
-6794
-1126
-17760
12723
-1318
-25942
-20016
5855
-4923
-17824
-26901
1648
-4559
-31614
8612
-12152
-15280
-4428
8438
10830
-15
28260
11894
-28824
15582
2758
1454
-8998
15921
32699
-2105
-9230
6229
-32495
4210
3246
6197
-5732
27989
-21997
1226
-9838
-25616
-13472
13483
17179
11696
-30909
-10875
-16616
-24926
-1013
15482
10779
-1689
-32749
-1071
8874
-31542
7097
-11650
-4852
-24906
-9799
6031
-12209
-30407
-14455
5618
-11237
5607
-11726
-16212
-21524
-24705
-5958
8754
2397
9652
-31040
-3699
761
-29497
1052
18623
12349
-6744
-27923
-17145
-15025
-1274
2754
14692
27819
609
-28667
15870
-6690
-28998
-24655
6750
19427
21758
-29049
-15158
-1457
-22960
-289
2908
16001
3673
-32522
-3992
7161
-7316
22379
-13185
-13631
-29796
5162
15882
-2369
-8226
21343
-17389
-32382
-5005
1595
-2338
-6391
-889
15185
12791
14361
-29452
-7688
23946
-5206
-13069
17590
-13426
-31079
-10379
2209
-259
2209
-6792
4816
-21721
-12564
30262
-15424
-16504
-8022
6960
13416
-29894
-28404
13411
8581
8874
11578
-30653
-6786
-18672
-23462
-1125
2906
-19163
-13864
-29689
-16831
-3753
-26497
18339
-6387
-24952
-19018
-26683
-1278
1168
-2583
-4319
-24436
6942
4841
-8106
18535
-16811
-25877
-20101
10330
5852
-3921
-32531
-19472
-12676
-13365
20934
-13580
-21210
-26561
127
12489
20860
16562
-12852
-22711
23618
19621
-26242
4052
-20226
-13899
-23438
6594
-1721
-16459
-25320
21060
1020
-22028
-24257
-13978
7134
-5879
11773
28001
8689
16835
-28111
-10072
30803
8523
-8877
14465
-11995
-23863
-22454
15882
515
11195
-9404
16335
-11357
-21141
-25033
13885
634
-15695
-5513
-6594
-5851
-10173
31147
-14645
-12750
-1718
-32721
-1581
-26403
-29015
6153
-8461
-11659
-21041
-11087
-4484
19743
10348
18738
-30436
-12136
-17115
-8569
19911
17425
1872
-32713
-11926
20449
-24758
-21464
11280
11131
-28364
-8585
-9576
-8594
18019
-12031
-26431
-19366
6254
14833
10062
-12242
-10453
-17534
29656
-13935
-22331
-22030
-13986
13871
-24172
-22121
7735
7370
-10024
-3399
-24138
821
14081
4523
23599
-9318
-1057
-32749
10024
18840
-507
-606
3346
5210
24897
-21302
-6988
24042
-14220
-8224
16810
-2206
-16193
-28485
2765
21156
-18039
-24238
-2055
2683
7858
3786
-32610
3203
-27996
-17025
16774
13653
-9590
-3147
-28171
-1066
2715
-32654
-1487
-6066
-21446
-20372
2858
-9062
9299
-13809
11146
-19006
-30128
-12881
12201
-6861
16193
-2519
25907
-20062
-21191
-19271
9880
258
12543
-4222
13438
-16793
-22326
-23983
20591
4872
-11286
10081
-5944
5051
24178
22115
-18686
4741
-6486
-13738
-12799
-8715
-8970
31515
-13599
-22774
21177
-19924
-16939
-28048
-13723
18916
5056
-25394
21031
-25126
-14103
-10170
6894
-26855
11115
1764
151
26651
18407
-24718
-20784
25331
10217
-3208
991
-8464
14460
-6690
-20264
-25749
10828
7160
318
-11129
8076
-23488
-30254
-12583
13395
4989
-29067
-11792
3191
10092
15
15539
-32713
-1880
2384
-8957
-12015
-24394
-14910
29178
-1857
-17015
-18183
-20695
-5016
-7342
-27304
18114
-10909
-16652
16430
-1491
-5966
-32219
-25309
13712
22015
-14519
-14338
-24675
3101
28678
24849
-20054
-32752
984
-18324
2791
2434
25206
32595
-3344
-27246
14316
-13805
29716
17871
-219
-7778
4630
10020
13146
-20944
-20359
-14887
-4736
-18570
26996
-13884
-18938
-21254
-19386
-928
-9464
-31563
8797
-5507
-9342
23445
-22890
-14074
-23433
-16842
9279
8549
-28919
372
-31491
-14353
-27843
-32364
5120
5234
-12812
-16096
-12369
-6234
-4339
-23486
22848
-7315
-19090
-31979
-7142
-18711
14060
14616
26407
-27310
-474
8050
-4522
15275
-13188
-27024
-18530
16926
-2351
-9373
24170
19972
5842
11546
-20000
3909
32532
4048
11206
-1473
-25676
-28568
16047
25018
-8671
-707
-15777
-5423
-5281
-32649
-2777
17685
-21324
32299
-5514
-10412
-6549
24496
-11652
6571
-6791
-12118
-7533
5245
-12389
-32730
-1549
9045
-1815
-15145
-29056
-18265
5489
508
17024
-25831
-16547
16079
-11448
3188
-25654
-25434
-20657
23604
903
10505
9371
-6547
-26498
-16146
28512
13201
-17348
-22786
-23547
-15261
4485
-15713
15913
-13582
-16040
8062
-22535
-8407
-13357
-25156
13742
1094
-32748
17141
12731
14719
-8902
-5927
-32226
28445
16036
24900
-11992
-16009
-28589
-15909
21194
11639
-28968
-65
-32766
2260
-2279
-7943
-21405
-13085
-3724
14176
-27046
-8576
-22556
-32500
-4169
14854
-23365
32095
-4292
-6714
-32071
-13761
-10854
30081
-5430
-7021
3012
14358
-2123
-21946
-24331
17846
12227
27405
-13342
-12127
-24239
-20182
834
23446
-22890
-7632
-20303
-13654
-14475
-26339
19490
-1779
-21307
15360
-7039
-11877
-27186
-24232
22055
14412
-25630
21446
-21993
-12257
-30388
-23254
-6934
18894
-14262
2261
-4541
-12364
-30344
7087
-13632
6557
22086
13532
-17112
-10709
-14236
28325
-16472
-14087
18865
28786
15652
19835
-25828
-795
-26847
21633
15008
18690
-26913
-9614
-18701
-25922
-5754
13368
-24837
23431
22905
9581
-9770
-4278
943
22952
-12031
28264
16577
5775
-24403
-3899
-1883
23192
-873
17654
-24391
-15548
-28176
-31451
9190
15214
-27433
25598
7407
-3604
-23444
-17241
5106
28102
-16849
-29724
7545
18066
27336
-2145
-17934
-8606
12623
-805
-9346
-9856
-17646
-28362
16408
10274
-17844
6069
-1562
183
-24046
-32443
4593
20441
-9444
-22529
-5946
-26611
841
-1302
32741
-10960
-12303
6412
-24305
-24891
-9398
-20533
15014
8162
-31734
2418
7053
-17932
4288
29021
15212
-9114
-527
-18035
4163
18677
2981
624
-29777
-5986
32215
-28754
14550
-194
-585
15967
16693
-24740
21484
25880
-2888
-2175
-31756
-29271
1317
27155
-18337
24977
-4181
-22158
-23100
-6723
28366
11414
-30714
16418
28357
193
-13963
15073
98
18326
15303
4630
-9678
82
-8652
-27518
-17787
22472
-5223
15802
8638
3700
-32557
-19409
3922
19712
1265
15400
-6210
-22319
-8355
22657
-23670
12750
17847
-10628
-11274
-13484
-15313
-22199
24100
-4380
-16868
21198
-17778
-28666
-11158
1215
21190
2243
-32690
17583
-16136
-32363
-5123
15910
16900
-2780
-22296
-12042
-11141
-15168
-12006
-22297
24010
-781
-14866
-2992
1633
-1074
-14907
-32369
5087
20177
-7903
19731
-2442
-11085
-3352
-5959
12997
11144
-30813
12888
-16779
-23202
-16803
-24360
8285
21724
-24530
6152
-1091
1130
-16739
-32050
6814
18651
-16716
-8231
-5923
-22377
-8222
-11693
30609
-723
-18905
24389
-3782
-5528
-20640
-22536
3912
23822
-22498
3034
24086
16195
-10053
-20256
-14279
30173
12777
20237
1091
-8743
-22826
-22482
2372
29763
-13705
-17092
27955
13199
-13949
-32257
4171
24265
13708
10607
29568
7449
8329
30390
-12252
7529
20776
4009
-17894
-28401
-15871
-21306
24894
8898
-28374
8433
31663
2199
-7523
10503
22853
4190
-2400
26903
9196
-3105
-16745
-12294
-4043
31004
-10600
16870
28090
-954
-5957
23328
2870
10940
12051
31509
-8990
-11968
-21338
-8664
-1351
20171
-17118
13775
22124
6435
-4873
8700
-23261
24128
22169
19005
1893
-6899
-32032
-21322
2297
26489
-2536
8928
7328
-5711
-28462
-30647
11592
27653
-6980
-3436
32586
10334
-16813
-1587
3743
13787
25586
32745
1182
-11200
-20582
1639
3080
18398
-12342
-188
32766
6023
-3671
6236
2508
15438
17481
-5771
731
-32422
4741
20110
23181
-4618
-3219
31523
8939
-1955
-10299
11141
-9619
15985
-2595
17937
27421
19526
-13858
-4799
-11524
21998
11581
31160
8681
-14144
-18547
-5867
10494
25846
-20140
4951
-4565
1688
104
-5413
-32316
16013
14150
-8441
31660
10834
8688
18215
-1592
1333
23936
22016
24268
13795
-17489
485
7198
10757
-844
26950
-18637
-13584
-11386
1681
-11924
9470
-11266
16934
28051
10280
-9698
4570
-5914
21090
11021
16269
28442
-229
-8705
15385
9686
9837
5643
22126
24168
4713
-5556
11199
-14805
24518
12241
24691
8408
6983
-19590
-21175
-13566
32506
-4124
32627
3016
-1934
-3615
10385
-13920
15277
-8372
-2936
-16512
-20310
-10126
-12293
30373
-9073
-24620
18193
-3338
-20233
-25773
-13191
22948
15070
-18903
20741
-4035
-20632
-22444
-17136
24337
17677
-27589
7087
31991
12843
-917
15900
-11770
11362
25006
21243
24947
-3079
-7628
10804
3342
21094
1609
-412
19761
-9997
-13304
-6186
32177
7989
-6786
4899
-30363
-18409
-783
-14918
11219
-7010
-32008
24316
-11840
-13619
-29802
-18529
-21014
26620
6643
28060
16919
11257
-2345
-4586
-22721
30349
-2025
29693
10126
9387
-28968
-25391
-6294
31963
-7211
32390
4955
-7368
-8934
4306
-12150
25560
-6737
10673
24028
12135
-12103
-10949
-14840
28655
15892
27583
17686
6221
-8841
6783
-13276
21859
4778
14729
-3799
-7479
-24635
-28255
16591
16927
-21212
8887
31538
8990
-5229
10286
3631
11251
13259
23049
-10113
5257
-4571
-14278
-29492
20542
-6088
29807
-9999
-18071
-19450
-13890
3272
23867
-22450
18361
-27139
-23836
-4821
3951
-481
-1344
-18653
23506
-22828
-27763
16303
15302
-12986
6287
-22554
19051
4289
-28867
-10946
-4755
21536
24838
-21370
-4735
-15273
-19450
-7105
-20845
25281
733
-25232
29898
13406
287
-14714
2663
-9527
25310
1018
32642
2858
-4333
-24090
-5164
-4520
22553
-4778
12178
14761
-1553
989
32517
-4034
-4417
17568
28715
15782
8339
-16561
-9479
-11196
29207
-893
-9662
-313
-17876
10649
22307
24001
-20990
-3335
10364
27318
22710
-7611
1087
-22987
19419
26392
25384
19886
-7283
-31673
-13682
12080
32751
-1006
11001
4650
21996
24286
7613
-28933
-3159
-1164
26704
18988
7803
-22126
-9455
-9812
30008
6781
24974
21212
7365
-4390
22221
-11796
9743
14092
3800
83
-255
22421
31290
-9724
-16545
3998
21418
3696
16939
-15477
-18247
-27215
24482
6059
24599
21645
-2382
-15614
-3851
9033
25139
-5222
4836
-20561
-512
-4913
-31860
-7655
9480
-19025
10274
26559
-14043
5934
25216
20923
7523
-1092
8947
10057
-20629
-1003
8547
31632
3667
-18014
16982
28022
21862
-19489
-8929
9836
9433
2713
31751
-8094
-2254
-1701
18354
-9809
-3455
-8765
7287
29133
21045
-4961
-22932
-11100
32173
6207
26919
-704
4227
-9687
-18335
-21016
31429
-9267
26986
18585
6175
2956
26915
-10905
7026
6582
-22785
-1709
-12353
30349
25886
5295
-22872
7485
32564
-3637
1808
-1272
8415
-29697
16955
770
22052
20491
17772
937
12737
-30189
18062
19994
32669
-2519
-3490
-11400
-3055
-25061
29442
-1200
27743
-17434
-20034
-19575
-8910
10609
12296
-25430
27049
5156
14290
-18688
-13253
-29966
28907
9999
29681
-13880
-9262
2425
21476
-11957
-2978
-9399
3056
-30627
-29843
8816
-3086
15447
-7778
-31830
18852
-5438
5549
-18511
-30732
-11366
25943
-10704
19126
-26605
-9056
11653
15646
-4611
-18192
-21326
-7298
-17013
11104
26002
7702
-5847
-30482
-12021
-21836
-24430
-9931
14965
-729
-3013
-20384
1685
19790
-17372
-11087
-24082
-31986
-7107
27929
-13163
19880
-17652
-11453
-11075
-22701
8494
12936
-30105
24779
-6378
449
-1138
9782
-31272
14363
8005
28579
-16028
-2449
-17918
-24300
-16769
26083
-15265
-1387
-32737
-15337
-10458
-27984
311
3226
-15919
28432
-16286
-13222
-9698
-2079
-13655
17074
-12072
30314
-12437
-8035
1577
23411
-15104
-1412
-5264
5346
-29431
-32469
4405
8026
18803
-12913
-25804
8089
22813
32460
-4472
6218
-25088
3970
30069
9572
6642
-5688
10584
31272
9782
-14258
-1511
24254
-5464
-2716
5353
25502
-20573
172
5561
9140
3323
-10722
1275
20513
25551
-14413
-12710
16993
-28016
-24452
-13350
-12559
4443
9106
-22248
30459
-12079
8466
-20875
-22026
-22600
22508
-6277
28797
-15632
-2878
-16015
-5075
-8998
8375
-11847
7189
12332
29706
-2809
720
-32759
6030
26515
-15979
-15166
-12259
15026
24870
8034
-32189
6122
12425
19445
11208
9666
32451
-4534
-8406
13780
4513
19569
25047
4696
11773
-30578
6431
30844
-21388
-11367
-8743
6166
-19046
26662
-11742
-17406
-23035
-23303
-13810
9771
-8125
16687
-21261
-11831
14660
-8742
-15385
-23792
-19764
26135
10607
-22231
-3920
-32531
-19315
10328
16260
4381
-27417
-8510
-21136
-22357
11886
11013
-7226
-311
-32742
-1266
15516
-16550
6875
-7491
-5775
-32253
8838
11409
28229
10669
4243
-20044
13227
-20868
19384
26418
-3857
9053
9306
16756
27976
-17058
-11509
22719
772
-32757
-20493
3991
-5063
-4488
-3859
-13460
-17665
-13997
15750
28733
-7891
-20101
-12504
622
-7733
-17993
-14039
-13340
-21552
24681
-5294
-17114
14793
15356
20535
-9207
6312
-27712
13934
29656
21757
-24500
-27978
-12894
6154
14217
-1797
-21912
-20046
-25919
-10336
20191
8734
5276
-29888
-6282
-24590
-20664
4145
11192
-32520
-4014
-3527
-9681
1682
-9411
17633
12340
15288
-28981
-16238
15896
4865
24841
31710
8252
16934
-25299
1676
31911
13968
-29640
-2231
-24402
-23600
-2419
911
-10424
18253
-1103
18959
-26725
-17668
-13422
10030
7043
27965
-12615
9484
-16233
-10876
-30909
18255
2816
-18940
-26738
14716
1762
-17094
-11756
-21080
9406
-18312
11139
9972
13347
20623
-6978
-16029
28578
18492
-11848
5698
-7216
13212
-29984
504
17729
-10951
-30882
-21880
4223
-5052
17938
-18446
-20550
-8474
-9674
-4233
15489
26973
10881
-32766
72
-16871
7835
13365
22218
26773
-1178
-27291
18134
-32459
-4481
-281
24529
14213
11324
-31697
6851
-21614
489
2289
17044
20263
14492
-31971
7177
-3845
-32540
-11882
5091
-9059
8261
-15775
-23126
18480
-27058
6474
-15158
-19567
-22510
5799
-7714
14580
-29344
-21628
-7645
-1225
15196
-7612
-27165
23942
-22369
5785
-16724
-14622
-18468
6611
-9871
-27743
-10469
9935
-3444
-32618
3118
-5612
3326
-3350
-32595
-339
-9256
-21943
-9852
-7413
-6152
-7240
-23660
1661
-13881
-32766
23
-780
-9050
-9908
-3906
21055
-9635
-32134
-6406
2737
2034
-5290
-32337
-19802
-3665
-10415
16410
-14205
-21514
-8722
-28782
-12272
10565
14723
7356
-31801
-7895
-14778
-22456
9341
-3653
-32495
-4210
-5852
-7413
-13462
-14518
3114
-22452
-31864
-7638
10410
17306
-14312
-29475
17483
9644
-12477
-6655
-28815
-7865
-27385
-9045
-5562
25592
15177
18052
-32451
-4536
-19065
-26649
-12094
6041
-125
13110
-26173
-6629
8607
-31616
-17671
-8079
-3088
10841
-11935
-21362
-24670
-1147
12779
15733
12116
-10792
-23051
23287
-2993
-32629
1278
-18509
-13385
-6981
-15443
5020
-18529
-27024
-592
61
-16248
626
-17902
-3488
-6377
-20421
-1900
23206
30668
-11536
-31092
4943
17196
-27891
-17634
-20033
-12585
11886
2684
-22666
14322
-16968
-2677
-32657
-23550
3135
10029
-5095
-3120
-32558
-6272
-20208
-29581
14093
-9787
-18853
-12729
-20873
2734
-8534
-32689
-2249
1679
-6096
6524
-1153
19774
12948
6333
-32149
807
9937
-4942
-32392
-10873
5871
5213
-3762
-20827
-6709
-7376
-31925
-3325
3399
-5766
-7299
-17595
-6052
21697
-20777
6203
-20686
-25129
-21028
17194
-8313
-17281
-27839
-2621
-4855
-12011
6433
-21456
-1983
-13875
-7862
23127
-3930
-26161
-19730
2723
12262
-14772
-11402
-400
-5865
-13798
29719
-19021
-16169
-32682
2346
26063
12457
-22227
-13159
-2593
15957
-14565
-29351
15122
12292
390
-31721
-23143
14211
-25921
17799
27189
11810
11252
14437
-29151
14962
-5138
-32361
-6937
1300
-12035
-10000
-9011
-8637
30056
-13048
-1840
-18848
15209
1147
-5128
-7051
-32760
666
23878
5350
-16899
-13713
-8753
24997
-9531
-21946
18137
-881
-20413
-25631
-6555
7144
-26801
-18850
13952
1071
-28122
-12094
-8962
7597
7832
-31817
-13529
546
6162
2150
-17660
-18029
-27608
-17648
9813
12782
-4463
-11579
-23032
12315
-16403
-28365
-12854
21988
24265
-6471
-30679
3430
-18011
-27372
-10501
-39
-6524
17457
-24821
-11383
5923
-31235
-15417
-22706
-28778
15667
248
-25705
-17968
-27401
-11271
-7184
-24120
15569
-11552
-13697
-17149
-18157
12311
-1106
-30596
-11728
-1785
-762
-29437
-14390
-5779
9091
-7970
17178
-21959
-5109
5188
-14991
-8197
-28385
-30314
12439
13445
-12414
-2842
-20436
-15099
-14742
-20790
25326
-4410
-23426
-6632
-22681
2030
-14483
-32763
498
2008
-10389
-8246
-17107
17027
-14014
-23636
-22693
-631
14533
-32036
-6879
-2721
14172
757
13229
-22505
3684
-21362
-24845
4790
7903
-10772
-3741
-22784
-2389
-18243
-2094
-3675
-7158
16605
28247
-28321
8286
-19250
-21946
21198
13446
-16841
-28107
-11933
5303
-28521
16131
19114
-3421
-12161
5506
-3911
21891
3302
-8956
24799
-2374
-18153
-27278
3004
3037
-7755
-31835
-15377
-11581
-17243
9654
-9038
-13163
25031
-21145
-18356
-8060
4321
2833
5184
-24006
-25452
-20636
-9193
6824
-10781
14763
-19294
-8954
1452
-5538
13762
-4580
6772
-32059
1226
25998
-20207
-17661
-6452
-6354
-17427
27748
-18763
-15638
-23171
13061
14255
-13211
4351
8708
-13300
29946
-5899
-15790
935
-15057
-30096
12955
-1354
-16222
-18958
19759
31291
-8220
-13964
-17317
8963
31517
18416
-27101
-19433
-11665
16171
4902
-12744
-12580
26833
-18805
-4337
-21956
-11475
-11685
13728
-11123
-22462
-23855
-1744
9376
-8970
-7706
-15948
2204
-1283
-10287
12289
-12349
-29340
-14588
11606
-533
-3182
-15334
-8272
-18769
-26537
19221
1681
-17610
-18143
-8495
10264
-6891
6661
-1060
-25706
20318
21336
-20786
-1170
-22340
-28489
-16187
23543
-14958
718
-12876
8855
-6060
-27928
-17137
13936
-6177
-14788
-12133
5063
-8135
-22242
-24061
12032
17930
15569
-19730
-1022
-32751
-24182
2812
5141
-10486
15868
-6467
-5144
-32360
-25548
18596
12642
-18152
-13986
-26912
-20568
23032
24616
7353
-30495
-11986
21947
-4293
-7453
-31908
-23734
10324
22704
-15518
7718
-11124
-14138
-29559
-20748
10912
14942
-6921
-5181
22931
-3147
17265
32759
-687
-49
16312
-10874
-30910
-7393
-22796
-30495
3054
-2979
-5681
-24731
-10537
6581
-29229
-7858
21369
-28731
15752
-16332
-28406
-11991
-3912
-13731
6680
-13202
-9145
-5583
-28194
-28723
-4645
-10651
29183
-9976
-31211
-10047
30646
18511
-27037
-8888
30959
-3669
12330
-31240
9883
4540
-9359
-25283
17436
3357
8035
-31903
7471
-9037
21337
24775
17998
-24274
11050
6169
-32180
-5985
-19843
-20823
2614
-6833
-18053
-30805
-11165
-9503
20150
1691
-12337
-5279
12946
-26632
-19089
-14727
1530
-9146
15933
-16624
-3266
-6519
-18581
-30393
-12243
-7315
28132
-2561
-17274
1315
-30808
-20422
-25623
-25251
18663
-1635
-20873
-9199
-31449
-21677
-4774
-12849
8593
-7454
-15098
-7095
-21904
-17503
-27700
-26134
11583
6304
-7245
-30268
10348
-8026
-9829
-12435
30315
-3028
6114
6418
-1789
-6537
-29187
-24913
21283
12359
-13251
6531
-24960
-12693
-30208
-29680
4360
10140
-11219
-1455
-20143
-15692
-20882
-27567
17711
4963
-19377
4053
-13140
608
-21648
-31495
-9037
17293
-2836
20068
13447
-7443
-31910
-15896
12915
30161
-5386
-10659
-7817
-13414
-6672
-299
32765
-18509
-13961
-12622
-19532
-5773
-11234
-31609
8630
1086
-15132
7328
-6627
12081
-1564
-15068
-29096
15088
1000
-16910
15435
-2416
4829
15603
-13039
5964
32219
9199
-26243
-12146
-20215
-32263
5719
10813
-25830
-28761
-13114
-22282
8189
12917
30113
-30510
-2808
-25018
-17102
-29017
3138
-12273
30381
-8006
-17732
-26948
18640
-15674
-4882
-6757
23617
11167
11511
9179
31455
-10035
-20388
1241
21363
26467
3991
-82
20085
4496
-8406
18314
-11287
6046
32204
-1365
-25413
-18611
-11630
-32246
5815
13281
-23201
-25066
16667
12703
3109
13327
19389
-28500
16168
28397
-4512
-13917
-26032
-14812
-220
29282
-14705
1981
-11901
-7995
-23213
-32766
-8
20213
-7175
7224
-9770
-2917
-17035
-32756
-809
20530
-15347
-5701
-13889
-28455
-11556
-8552
31631
-2927
-20745
-10422
-21634
-31541
-5868
-9517
31354
-8049
-25053
2274
6461
4431
-14599
-21498
-20861
29750
13731
4265
-16701
-30909
-10874
-4851
22558
3322
-21932
-22485
-10480
-31226
9929
11914
27172
-16178
-7616
-15857
28674
-1616
963
11851
20033
-1673
11250
21184
-24997
-21186
-15152
-19101
-1595
18555
-26577
16449
11893
-14689
-29289
-14686
17399
28694
-7995
20167
9332
2014
-22900
-23027
-2882
31763
-8046
-13208
-15553
-32345
5238
-3022
24528
-3474
-20162
16516
-24689
-15630
-10779
-26096
-10879
23400
-22937
972
-32752
-27869
-5654
-18322
-2923
9602
-17849
-7985
-3803
-19479
-7299
-21161
25017
10911
-19782
-22214
6002
-12078
12857
18490
27051
-22867
418
-2333
-3890
-26682
-13177
-7060
31997
3588
-17158
4029
4645
-23541
-22429
-10947
30884
13937
-13387
15642
-8983
-19367
-26430
-21048
15221
19775
-18794
-2533
-14690
-10841
-14891
-31439
9233
11759
-16828
-22156
-14448
-27451
17891
11661
20226
-18858
-10732
-7381
20579
-14277
-7541
21730
24524
-7432
11500
31081
8400
-3224
-32607
-16968
821
30936
-8573
-5749
-28326
-32686
2293
-13288
21741
-2495
-31943
-14430
-18162
-17776
-9068
-25764
20245
-532
-17267
24901
21297
-905
-17457
10217
-3059
21879
8828
-3537
-14570
-20302
-6446
-20939
25203
2161
-29604
3689
7570
-20891
2686
14088
29583
-2410
-17300
9595
-6212
-12521
-25846
-26316
19521
14183
-19752
9632
-31319
-19291
-3716
-2577
-1100
-8381
-20594
-14682
-2726
-20818
4748
6937
32024
-15454
-12682
-663
2699
14
-11295
-32610
3201
21376
-12164
20941
-506
1933
-22879
-30395
-4903
29642
-13965
12438
-10139
-19617
-17657
-25701
8421
25440
-20650
-19344
-7974
-9007
-1644
-31958
7234
9700
-10009
10149
-31155
-19203
-11108
-17680
-6474
7521
-17437
2476
2585
-23385
-9668
3521
32577
65
-14685
3110
-23321
-13876
-13174
-31675
8387
9125
-26069
18023
27365
3091
-31022
-11524
18428
22914
148
9337
30217
-17532
-10376
15526
28854
12306
-1118
-5443
-5240
-16217
-23899
-16590
28256
-2727
-8165
5878
11724
9692
-19468
-32653
-2723
27777
-1704
-3324
-16727
-15652
-10155
-32757
780
17474
-14704
-10029
12059
-15997
-9431
17742
27547
-13147
11163
11622
30636
-8945
-18723
20696
15536
11202
19120
8355
-389
-7282
-15161
-29826
13567
21024
-22151
8427
-7600
-20599
-25481
-28990
10490
25764
-12414
-14893
-1579
-17055
-13626
-12553
30266
-3524
-4981
13757
17736
-4019
4337
6872
-25225
29956
13277
32764
402
-12876
-16625
4036
-9603
24598
-4325
-1426
-3114
-21711
6829
26454
19334
-16719
-4001
29216
-9685
-32577
3519
31660
2535
4030
-15466
29238
-14790
-14641
-7084
2490
-770
7929
-23725
15461
-4965
-30021
-13129
2281
4181
20444
-4647
5954
-507
-10436
-15012
-17108
27945
4286
-23049
-12292
5595
8802
11376
8191
-31726
2182
31642
6741
4691
-8076
-17699
-23435
22901
15277
-19173
26614
19113
10499
-14766
-10367
-12717
30577
-170
1582
14855
15494
12301
7963
-31784
10976
21449
21151
-20947
-17209
-27883
-26127
1641
19844
-18149
30583
11759
-10328
-10477
11312
12155
12684
-15437
16011
28588
22744
-9817
-14272
-19829
30292
11670
11109
-5366
-27070
-18461
-19821
21749
19232
-21228
6673
32080
1980
-1653
20042
16371
2911
8304
9881
-10361
-6745
-26569
-32733
1485
16314
-8448
32278
5638
-12771
-9553
11821
10778
12641
-18586
22599
6435
-13975
-8688
-8223
-2273
30653
-11578
13400
24902
17997
-483
-1864
-28573
26581
19160
-18178
27262
16251
18392
3696
-18777
9015
27356
30964
10718
-5572
-18873
8597
631
14584
-646
5450
32310
3162
-2075
19708
13888
2658
11780
-22102
24189
8583
-6710
-17664
-256
15324
26566
31436
9241
-15568
-16507
6426
15875
17522
-16835
9284
31423
5310
-7295
1534
15562
13614
1006
-13121
8898
-29454
12793
8352
31684
78
-11339
26661
-3193
-30562
3929
32324
5367
5273
-11138
-20875
25256
-6186
11134
6115
24394
-2111
6356
-3853
32539
7221
8113
11045
10923
4943
8676
-4462
-24103
-26012
5204
3153
25804
-21095
-25072
16383
13015
-9998
-667
32520
4011
-3120
9540
-12425
12973
-18007
1273
14132
29562
-8367
4194
-27943
17111
8506
15947
-2180
14042
-13232
8079
22774
-20356
-24699
-20524
-18848
12936
16333
-28405
11441
30704
11214
-9660
6197
-2533
16265
17442
3625
10763
-7695
4962
32330
5327
-13568
15382
27402
17965
-10552
7457
21964
-11499
23556
787
-9859
-21656
-24747
-3329
-18728
26887
-4912
-25843
3035
22149
6639
-24607
-32379
5026
27248
12077
29367
10860
-4674
-32431
-12557
11245
24747
-6521
17722
-4670
10595
2305
-2148
-32696
11955
5157
11312
-30752
-21274
-9738
-10239
1954
-2193
-16443
-20104
-25874
-11219
21632
-4547
371
-19728
-10910
13264
-334
5875
10940
20349
-25682
-1040
10365
13313
-26288
-17223
-12244
-31673
-3354
21043
-25116
26460
-13389
-23024
-23314
-11553
7406
20373
-17450
-22531
21904
27197
17741
7149
-16643
-10403
31071
-13776
6110
-15033
6669
7729
31842
-12637
-7619
25283
-20842
-8258
-21392
-11024
-5695
7876
-12308
28688
-15831
-11769
-16789
-14516
2025
15291
-24917
32590
-3401
-12675
-5430
18214
-8374
9611
-3958
-11545
-30665
-10346
12928
-24401
-7574
-2059
-17333
25891
-3465
-3540
-15807
-21675
-5398
27973
-17063
27707
-3935
-30669
-11535
4458
21837
16017
-24163
24010
-12622
-26669
8432
9021
10391
8016
-31771
-6782
-32057
-20775
8773
-1337
11968
-19680
-21716
-28769
-15684
-3975
5138
-18925
7599
-14367
2669
16124
18752
4999
-14474
-9205
-11338
30014
13146
-7475
-20019
-27430
5717
-1975
32707
-15117
-27153
-29706
-13827
-7786
19998
4020
-20
-21177
10378
25537
-20530
-25188
-14008
-3716
15303
5388
-25874
7607
-23746
7459
-2179
-14971
-29146
2187
1030
-2253
-20995
4705
-4797
-29469
-14325
5354
-6173
25914
-8610
-2252
2613
3529
-32576
20312
2621
-18131
7610
25559
20503
-309
-21570
-10028
19162
-22005
2062
3413
13604
14805
5874
-25762
20247
-16193
-2311
-16710
17888
30160
12806
-23730
8972
21256
-24936
-17213
-17484
-12975
5368
6599
-21490
-142
-10002
11927
-8208
-25145
-21009
10685
7159
22169
-12343
-32009
7005
17015
12221
6464
-22304
23223
-23116
-18049
-8573
-3043
-5207
9671
-17713
-17681
429
-21610
24630
22304
17902
-14078
970
-9026
-15903
9727
13718
-5607
-32283
-2857
13249
960
-32752
2442
8682
-2589
-19437
-17373
-5512
-1364
-18501
-31138
10202
27337
4354
-12297
3559
-11335
-30743
2739
19761
6086
-15426
-29115
268
-9476
2573
-12630
10548
25076
21091
-21017
3645
4503
10968
2231
19126
29154
-14955
-1836
16783
12874
-30131
-10256
-1868
-13801
-15889
6376
-15311
26593
-19142
-10369
-11837
-9890
1719
9370
-22721
-29123
15016
2963
7217
-4018
32249
-15805
3969
-15607
-27595
-5000
32383
13389
-6426
-30672
-8131
-474
-28220
-16747
20236
27400
-17968
-18935
5911
20164
-3385
22190
-24109
-27382
-15412
14803
-124
-2332
-32683
-13117
2222
-9147
1084
-11994
-16960
-4446
-11768
11110
-1038
-27777
-17380
10174
736
9856
-26047
-11733
-22466
-30908
10878
7577
-21712
-6474
1276
15803
-4807
-30609
-11692
15592
4180
24213
4611
-11362
-9426
27705
17495
-7012
-5592
-18557
-11635
8203
22896
17392
-11314
-30189
12739
-5440
4500
25399
970
-15958
-28618
9044
18910
-3448
-26939
-25273
5927
871
24946
-17022
-27998
-10463
-31051
-14231
-1350
-24162
9695
-6505
-21136
-13903
-13475
-15850
12804
15286
26856
-29849
-13515
-12663
-7514
-10101
-6528
-4875
32402
-17375
-10255
654
-32760
-26888
-257
3887
22635
-17968
-20765
8872
-31542
-19510
-6133
-11298
9068
-3096
-25546
-8172
-24904
-5935
-23702
-32765
-361
5525
4163
-11450
-8843
-10211
-10623
-7015
32007
-16479
-9753
-30426
-2592
-7872
31533
27244
10646
-31429
9264
-21962
-11660
-6700
26775
20572
10467
-32700
-2091
6325
-3536
14355
7658
8907
-31532
23
15843
-24775
-21443
-3737
11811
-12257
447
-15439
-2878
-21338
-24866
5568
9212
-16908
-20486
-8905
8948
-4352
-1956
-7805
-9981
-15366
28940
-293
-16182
-29266
-14735
-2361
7080
-15207
9512
-15012
168
-4557
-23822
3646
-14074
-32544
-3812
1698
-6916
19412
9865
22723
-3523
-22034
-24251
31116
-3017
-202
-10306
-10984
12207
32766
30
-22129
6715
-4670
-32432
-7226
-12010
-31778
1720
-613
-16469
-17605
-25873
14514
11465
-14533
-29367
-11508
10999
-16599
-19670
-4965
17691
22298
594
-31802
7892
-20676
1896
-245
20285
29680
4146
-27207
18259
-4796
-12652
16108
-1210
-4751
-32420
-3255
22387
-20138
-25847
-840
24692
12775
-11171
-30891
2956
-15506
28865
6293
-6112
926
15835
5869
20985
-32159
6278
8183
23086
6559
5943
-20422
10812
-26184
12509
29883
13440
-3581
-20897
-5251
31555
-11295
-16556
16454
4945
-19147
-26590
-1832
8023
-18511
-27037
12500
3971
-11116
-24927
-17055
15583
-26323
-19512
735
25250
10606
-6516
-29442
5815
-28517
-15292
-3426
20365
16551
-1234
-29796
13631
-15274
-28989
-16198
9793
-8601
14626
-18622
-21013
-26074
-19843
-1141
16196
5305
5903
-32140
583
12443
-28251
2977
-1530
11407
-30717
-10181
9650
12267
-7285
10432
-14197
-28763
-15695
22284
-6137
1065
-1295
19182
2474
20256
-25755
-10270
29258
-8235
-8140
10774
-19823
-32766
153
5965
2347
31125
-10242
-3707
-8077
18028
-14191
3312
-3248
-11834
-30555
942
-6889
-32338
-2701
-5000
-12372
-16201
-4158
-11281
-5919
-15116
29071
-3854
-11452
-31139
10197
-4242
20484
15637
22082
-20885
7188
-3827
-27783
-5325
21370
25488
-5855
-32073
-6706
-15368
9327
22013
-4054
3199
-12163
-9217
31443
-18088
-3491
4683
23183
28216
-7206
-28481
16200
-32555
3717
-5345
8967
-38
23869
-16947
5652
884
-32755
-15941
-15475
-23959
9979
-1889
-20845
-19264
-8568
3287
13316
19154
-2772
-29082
15096
-29467
-14330
-17317
17804
5470
19537
-21741
-5727
-5469
-14852
-5189
-18345
-27998
17022
1486
-13873
-20054
5645
