1651 9 80689b40 0 13880 7
2535
32668
-15968
16331
-700
-4435
4438
-8364
-205
32766
-27148
15109
-2272
-7928
1190
-13241
-10621
27652
-32645
2818
-2410
-3670
4066
-19631
-16802
19672
-32731
1525
-6129
-4053
-3094
-22000
-23700
4595
-29589
-14075
-7064
-854
430
-15679
-22301
-11319
-28204
-16679
-7266
-1519
-7817
-15419
-27479
-17848
-14809
-24987
-3372
-2350
-10456
-17094
-14547
-29360
2416
-18313
-6066
5478
-4203
-2000
-6603
-32094
17125
-16904
-2802
5328
-1823
9628
-3225
-32607
25931
-16143
5372
9771
-1095
14650
12364
-27222
32757
-777
1366
11
-4897
17909
11939
-18463
32766
-203
4781
5810
735
19741
25738
-3844
29526
14208
6457
-4423
-3310
15166
27665
5066
25238
20897
6162
-3646
-2006
16626
21616
24625
11754
24084
9254
-1696
4781
8816
19993
25959
-2063
21070
3167
-6631
-1768
-1832
388
32764
-12170
15301
4396
-1627
6064
-7051
-1573
32729
-25793
15301
369
-5297
788
-17235
-7390
30187
-31465
9143
-5837
-6391
-3465
-15409
-20418
21215
-32716
-1822
-8461
-1178
3200
-22210
-24033
12814
-31297
-9703
-6545
-2174
3772
-22825
-30605
-3859
-21610
-24630
-3103
10373
7155
-11983
-26640
-19077
-11128
-23469
-5752
7308
1653
-7663
-15756
-28729
-7083
-24598
1242
2350
-5599
-8125
-11462
-30696
8375
-19761
2266
6404
-142
5234
-1749
-32720
23989
-13144
491
5030
-1050
16330
6598
-26699
31361
-9495
4521
5644
910
17570
17188
-19300
32487
4270
8182
2312
-3862
20877
15518
-11402
31766
8035
887
994
-875
20883
21815
10611
28971
15308
11410
1380
4403
16444
23741
22583
18861
21461
9318
-4152
8799
14839
14033
29609
3905
23902
4491
-4570
3723
3596
11893
30532
-12280
18278
4127
-7643
484
-4487
5288
32337
-21064
15361
-6594
-8139
492
-11697
-10878
28965
-31472
9120
-1551
-2606
1400
-19102
-21130
22542
-32713
-1864
289
-222
6361
-20204
-22118
13190
-32159
-6282
-4566
-195
-2383
-23137
-27662
-2771
-29862
-13488
-3264
584
1263
-17710
-27168
-13618
-19696
-26186
-5216
3751
13
-16783
-20636
-25451
-235
-19655
-4503
4331
-5719
-7295
-8850
-31549
10123
-18272
-481
4757
-3834
3951
-1770
-32719
19538
-16793
2224
8177
-1692
12155
9581
-31334
28418
-11309
28
4708
-849
19051
9485
-17465
32766
128
7294
4733
2048
17816
14363
-12964
32182
6161
3424
5509
148
18978
28133
4928
24461
21801
8409
-5971
-4588
13756
25589
20465
12390
21694
8181
-7245
-3149
5334
16283
28434
2725
19680
3769
1819
5900
5032
5147
32360
-8129
20762
1567
-4354
7646
-1294
5495
32302
-16195
15107
-6693
-6502
232
-6537
-11122
30821
-24795
4310
3979
-2129
5672
-17212
-12489
23643
-32671
2504
-7036
-6854
-1078
-21887
-19818
13340
-31380
-9429
-877
895
4682
-20319
-30127
-1729
-29237
-14794
-5910
1742
2245
-18073
-30508
-11953
-18509
-22134
-4048
4673
-1001
-16304
-24855
-21351
-8164
-24521
-1287
10715
6715
-6380
-11796
-30569
9005
-19307
562
5129
-955
5491
1004
-32751
23582
-10392
-1922
4335
-7127
13209
7385
-26129
32477
-4345
3747
942
-3972
13613
18573
-23363
32699
2101
7915
1431
-4136
18637
15932
-14753
32034
6890
4084
3251
-547
21606
31682
8358
22995
21760
12314
-6963
-5209
11768
23002
20467
16701
28191
10234
-5388
-2430
8092
19092
26629
941
21549
8229
-10478
-2433
-1419
6569
32101
-12140
19723
6309
-6265
3174
-9521
10270
31115
-18344
19674
-6438
-9703
-3397
-9796
-15677
28772
-24963
5118
1660
991
7623
-15945
-21534
19411
-32707
-1972
-5024
2609
6929
-19282
-18725
15797
-32710
1924
-4419
-6500
-2583
-22950
-22297
10153
-31501
-9016
-2583
-5386
-2448
-27403
-27924
-16333
-21419
-24797
-9312
-63
-4862
-17134
-16142
-28514
-2767
-18698
-8089
-2622
-7542
-6526
-6625
-32090
10527
-20243
-5983
2735
-4233
3324
-5048
-32375
22749
-17402
-3971
7485
382
10120
7807
-31823
29143
-7355
1452
2110
-3133
18413
14504
-20579
32763
-489
5054
1810
-2612
19565
21774
-8005
30904
10888
2349
-2445
-6000
13910
18770
-6219
30398
12231
-532
-1965
852
20852
25970
19232
27421
17937
8334
4099
13501
18533
21787
24474
4083
26772
4268
-6074
-4250
1455
12737
30190
-3515
16948
1404
-8805
2803
-2888
1573
32729
-23090
15025
3111
-3021
835
-12387
-9978
31210
-26033
9227
3451
-2605
4314
-16976
-11259
25670
-32282
5611
-6286
-7510
-1013
-19610
-12575
15566
-32594
3361
-7019
-8696
-6942
-23759
-27086
4289
-30537
-11880
-8763
-3302
-4414
-23101
-29677
-12475
-27625
-17620
-4806
-2388
1101
-19758
-21847
-24420
-6317
-23932
-3268
6590
-6549
-6870
-12310
-30366
352
-24795
2870
4797
-5798
-6666
2875
-32640
18898
-8817
-2643
409
-7709
8718
3802
-32545
29171
-12820
-2884
6935
301
19157
15460
-21206
32637
-2905
3022
2893
-4910
19018
22456
-14052
32600
3294
6440
3432
-4125
20974
23639
-5781
31795
7920
7163
6636
3940
23395
28431
16289
20449
24415
12506
726
1398
15090
21272
24922
16479
23764
182
1110
3956
13257
7584
31877
-9416
18328
5730
-2995
8232
-416
3126
32617
-16648
17963
-2216
-5378
2151
-8171
-3298
31392
-29918
13362
566
-5616
-734
-19021
-16874
24304
-32623
3067
-3371
-2479
4986
-20054
-20996
16174
-32406
-4848
-3694
-2326
1316
-19913
-28630
-263
-27686
-17525
-4301
8483
6881
-14963
-31321
-9625
-17714
-21442
-1576
8772
4066
-9504
-22078
-24211
-7824
-25838
-5042
4190
-520
-7744
-13654
-29786
8567
-16959
-5014
6572
457
6936
2347
-32682
20176
-8618
-3970
-643
-7281
10012
8370
-31679
29145
-6615
-2810
1104
-5218
17942
7875
-19927
32766
132
5126
4044
-2814
19758
21811
-15335
30848
11048
1253
-3580
-7875
19441
23402
-278
30871
10983
2806
-601
-1423
16018
22808
11597
20572
25503
3526
-7457
-7274
8744
17611
27631
1285
19254
8926
-4839
3827
-570
8753
31576
-5964
19508
4580
-5245
3904
-5272
3574
32571
-15872
17245
1472
-8852
4644
-8544
828
32756
-24739
14094
995
-9940
-2246
-18087
-8336
27404
-32107
6540
-1312
-5505
-1857
-23110
-19823
15909
-32696
-2151
-8881
-5768
1588
-21018
-18806
8779
-31830
-7779
-7206
-6605
-4181
-25217
-31213
-9969
-17679
-24860
-9438
6192
4243
-13972
-24548
-21703
-11603
-22256
-2035
5237
-685
-8793
-11141
-30814
-68
-17459
-2048
5189
-2009
1058
-3099
-32620
18997
-21647
1185
7751
-4280
8964
8302
-31137
31697
-8301
-3275
1109
-5667
18742
14039
-23972
32342
-5256
6879
2600
-1201
20044
22138
-16926
32120
6477
4998
780
-6107
21875
24572
-6757
29100
15061
2267
-1810
-2534
18113
22936
2575
28942
15362
-4898
-306
-406
16565
22455
23862
10494
20576
2986
-3516
5659
7699
14477
29395
-3031
23440
3354
-10561
-555
-4323
451
32763
-18684
12395
5190
-5276
8154
-9030
-2338
32683
-23765
14207
1781
-6834
-1258
-19343
-10461
31052
-31851
2848
-4029
-3677
-971
-21995
-17314
18469
-32760
-662
-2279
-2830
-1545
-20967
-20204
4074
-31978
-7147
-2561
-1422
-2068
-18660
-31713
-8243
-24106
-20803
-3978
4516
-732
-16783
-22000
-24282
-7899
-21883
-6530
9178
-2776
-5451
-14790
-29239
-208
-18247
834
4691
-5902
-4079
-3103
-32619
16882
-16972
3022
1755
-3886
7343
2469
-32673
27330
-11613
-3880
5720
-567
17997
-10123
-31163
17090
-15018
18362
22492
23161
-12570
10053
-31186
25730
-2207
13545
18217
22813
1845
25871
-4092
27921
17147
8448
-2623
-6992
19756
25399
-2999
19160
13212
6081
25887
29755
13722
25589
20465
12694
25133
2159
-8506
-2871
8501
11534
30669
-7156
15723
8460
-3161
3139
-591
9099
31478
-12895
4459
-12082
14553
13202
21171
15701
28760
-10412
18830
-25987
-7430
-13404
20313
-3782
32547
-25998
3038
-10511
-8513
-11688
9473
-21606
24633
-23085
-960
-20184
-13915
-22197
13438
-17365
27787
-27096
-6245
-6112
-30924
-27044
-8233
-32322
-5380
-10415
-23723
-5076
551
-7554
-1907
-23913
-22401
-4010
-25028
-7470
11573
5155
-986
-14189
-29535
6436
-18711
-5500
6254
-814
4135
-2208
-32692
20293
-15829
-5799
8307
-7227
10915
-1729
-32721
26686
-16945
10979
8782
1649
12582
2018
-23305
16250
-3354
30925
10829
12973
-27753
3507
-32578
30162
2651
16786
23841
23450
-2052
-582
-19612
19310
37
9955
30209
32177
6188
13493
-11001
19202
3082
230
32067
29115
15031
19071
26644
8017
24432
7311
-3721
6454
5167
19218
26539
7773
21405
-5340
-4859
1267
8181
12335
30356
-9555
18947
-9794
-7356
1633
441
17401
27764
-10744
17709
-15987
-11402
-11861
18424
3637
32564
-24336
7633
-18029
-9386
-22229
10923
-20438
25611
-30094
-9091
-18606
-12340
-17437
11204
-21736
17620
-28593
-1552
-14501
-22494
-32258
-5749
-32042
6850
-24832
-14351
-4323
-26800
-27270
-17609
-26104
-19804
-15734
-22396
-2914
8798
3648
-10456
-16373
-28382
5411
-19719
-5213
7996
1415
3709
-3702
-32557
13694
-14693
7432
1424
-7253
7539
-15339
-24252
5928
-12095
28482
8018
5416
-32316
5578
-32288
27915
-4492
24400
9166
10663
-15199
9325
-31412
29262
-4894
21137
23318
26503
-1243
22605
-19866
30015
13143
8113
19188
24825
4519
15640
-9876
19181
9516
1807
21109
29424
14417
23960
-1204
17171
9837
-9280
18571
21810
24453
16165
28501
-2173
22165
3345
-9068
-2278
-2932
6224
32170
-8813
17386
-4768
-6197
5251
-1723
6335
32148
-9810
20483
-23231
-3565
-6447
19261
4426
32466
-11367
6117
-24268
-12166
-18314
20141
-7488
31899
-24460
5986
-13615
-21962
-25295
3748
-11008
23544
-24891
3844
-2539
-27684
-32318
-5400
-22959
18664
-24659
-9916
7443
-26589
-27565
-17714
-20488
-25571
-18642
-26519
-7449
1964
-5584
-13394
-12027
-30479
-1228
-17687
-15
2453
-7561
-1577
-5830
-32244
15911
-17503
-3242
5162
-540
9509
-5945
-32223
19335
-13096
12848
1833
2943
-16385
2555
-32667
21162
-5197
18597
8075
12152
-13295
12369
-29024
25220
4986
27637
17096
28535
-16105
22633
-12336
29613
14024
9569
13920
11976
4038
22718
-4163
21285
17372
9834
22928
30019
13134
24181
3278
12582
21179
-6304
27712
24754
21467
23505
15587
6245
12644
-10966
18910
14586
29341
13942
2935
2811
14700
-23285
5130
4709
32426
17950
22516
-5753
15995
-31182
-6414
-10387
31076
11918
30522
-14690
16033
-16940
-17764
-23720
13074
-20032
25930
-27774
-6321
-7978
-7458
-8882
2919
-26166
19722
-30193
-11046
-4520
-8934
-13092
-10348
-28415
11978
-15345
-10203
-7590
-23818
-28827
-15577
-23339
2645
-14130
-14767
7238
-19515
-23841
-22478
-12768
-30176
6134
-20478
-5777
2324
-5525
445
-9867
-31245
11649
-14983
5950
4600
-3884
4402
-9874
-31243
8344
-17989
27356
2758
5662
-27980
-5720
-20440
13904
-10079
30215
12676
14915
-24432
7904
-27450
25862
839
26067
19853
25131
-10551
5972
-20810
17299
2379
15853
28482
32734
1456
23264
-13577
28754
13641
1194
27059
27547
17742
14996
-5694
16618
7434
-8418
19559
21733
24522
25019
21159
-1217
11360
-4798
13846
15894
16099
10909
30897
-10242
9878
-18591
17115
18426
24027
7207
31964
-14763
16634
-19712
1637
-4304
18811
-3559
32573
-20077
1618
-30398
-4708
-11093
25369
-23367
22970
-21041
-6959
-12180
-4377
-7024
11328
-21539
13306
-21290
-6099
-24860
-20602
-32483
4298
-26314
6864
-30635
-11625
-1693
-25993
-26584
-12804
-23275
1552
-22693
-16581
10896
-19898
-21469
-24753
-20401
-10548
-8884
-15391
12837
-11826
-18193
-27252
-23004
-23333
3047
-22630
22106
-5080
-8151
-28169
-16648
-28222
4806
-15242
22881
4359
8013
-26241
3024
-32627
23013
-1902
12689
5610
7068
-11280
11354
-30736
26754
88
20025
17560
19279
-7193
22272
-24033
26119
9823
8490
16592
15623
6867
32664
-2588
16454
26488
8457
8872
20303
4601
27282
18147
11587
21370
5833
18641
24055
11417
14396
4249
8618
7048
-14650
21093
18640
26947
16791
28137
-2725
16544
-19315
10621
11331
23952
17337
20935
-2449
20708
-32104
-6557
-7525
30318
9207
31446
-16912
18637
-21174
-18673
-17231
13002
3359
30723
-18114
15414
-16814
-28123
-27543
5164
-13365
26349
-28648
-3295
-11540
-24207
-32293
-5550
-21038
14069
-27948
-8360
-674
-27796
-28690
-15827
-31113
-10277
-14396
-26933
-1046
-15715
-15981
-15279
-23674
-13125
-10001
-24376
9533
-14853
-13341
-29928
-8600
-31618
15873
-23047
4177
8222
-8721
2819
-13845
-29698
8416
-19965
19575
3726
8134
-20160
-5574
-30322
20961
-7077
31844
7719
16182
-16646
23856
-22462
19395
15717
22997
697
6879
-13641
27396
-17975
22514
20929
12877
6158
8868
2649
22711
-3767
23896
13808
7665
23019
32453
4519
13426
-2352
17480
8102
-3518
26115
24101
22199
17008
19794
992
16994
-6318
21997
23827
22493
18691
26913
-5867
23577
-12736
4168
4354
17212
7287
31946
-13151
8294
-7183
-482
155
9950
-11156
30809
-23289
3692
-15064
1133
-2415
12723
-956
32350
-24749
5996
-21651
-24594
-23528
8043
-25923
20040
-24069
-8728
-16819
-16887
-27945
3965
-21599
13274
-27122
-7017
-423
-23874
-29412
-14441
-32580
-3490
-13695
-9995
1705
-20748
-24591
-19255
-27864
-17240
-1990
-21589
5436
-15688
-13972
-21920
-14190
-29534
11128
-23555
-1350
12277
4610
8147
-5585
-32287
12984
-6308
15126
-2653
-6078
-16857
1526
-32731
18462
-5608
8181
5378
7142
-8686
4220
-28244
24086
-4741
24564
21685
22064
-10405
29783
-13660
19272
23294
22988
7988
13511
-7118
13833
-13240
25838
2728
2027
22447
27569
17709
24476
12459
8973
14856
10277
21001
28025
16977
20042
25922
174
21990
906
18227
14449
14873
13019
30069
-9683
15339
-977
4793
7532
12451
7687
31852
-14464
10261
-10671
1722
1709
17617
-248
32766
-17827
4598
-12253
-6361
-5959
6494
4504
29872
-23295
3709
-24506
-21750
-27983
7064
-26376
19440
-27496
-7367
-13389
-14946
-21119
382
-25526
20543
-29636
-13797
787
-18791
-21986
-19632
-25575
1288
-17092
-16519
5685
-21171
-27606
-17650
-31281
-9753
-16143
-14446
13920
-5604
-10726
-27225
-12567
-30261
3234
-16998
9359
-8758
-8703
-14476
-10272
-31115
4651
-10796
18725
-1569
1807
-23005
-552
-32762
20043
-2830
9156
3362
7589
-7306
15711
-28754
26733
9965
12098
1748
8836
-5940
18645
-26945
28694
3992
13993
21916
24887
5379
22684
-16799
29107
15046
3803
18852
24905
19880
28607
15977
11290
22732
9015
21369
23287
10344
29981
12175
10204
21173
-11852
17751
14573
29347
24841
21367
1311
26094
-14894
429
-3654
19386
7004
32009
-17336
18804
-11708
290
-305
10093
-2393
32679
-22980
8906
-11012
-3616
-8703
6502
-15460
27370
-32750
-1041
-11491
-4559
-11923
1603
-21375
21117
-21221
-2502
-24614
-21628
-29927
449
-30106
9454
-25539
-15121
-11021
-15418
-31114
-10275
-31941
-7307
-7680
-17025
-2027
-11596
-19059
-10019
-20341
-25688
3220
-10380
-2404
-17891
-25374
-14670
-25637
-20405
-4572
-18956
22693
-3357
-8827
-26261
-8361
-31682
16697
-11575
7057
-651
-1866
-12064
2104
-32699
16874
-9173
8031
7019
3933
-7017
11366
-30732
25753
10179
22433
7976
12972
-8852
14075
-23774
32691
2226
14345
20822
30768
2555
10540
-11773
21518
6140
4570
23869
31732
8167
20768
-1119
16968
7122
-734
21280
25809
20187
24444
5890
12212
19661
-8304
17300
12097
30452
20974
25174
1889
18279
-10594
9248
6122
27259
10448
31056
-10107
16072
-19117
2462
-697
16410
-6160
32182
-22713
5215
-19555
2813
-5207
19367
2411
32678
-21308
5956
-15620
-18156
-20744
1319
-13270
29959
-30253
4151
-12008
-27006
-30283
-4073
-28603
15465
-14541
-12898
-13710
-21907
-31474
-9110
-32763
-479
-13852
-15731
1886
-10828
-10654
-13839
-30437
-12134
-7045
-23937
3722
-915
-1296
-15926
-24687
-14373
-12511
-12267
19653
-8837
-2513
-32670
-12728
-30193
13653
-21142
13810
3703
1149
-11956
-10101
-31171
19234
-10514
21154
12726
9513
-14333
12144
-30433
22845
3868
26187
9423
10968
-9668
5600
-31300
32725
-1653
8115
25670
28483
8875
31370
-5691
29236
14795
12396
18290
17810
8150
29720
1224
24572
14333
-1393
29339
26823
18819
24831
13342
9475
13771
-9546
16639
23967
22343
15886
28658
-9749
15884
-4578
7433
10652
9931
4547
32449
-13971
10428
-6388
5305
3678
7111
6659
32083
-16512
14169
-16688
-8995
-9716
10060
-1826
32716
-20926
8158
-14549
-19381
-16754
7037
-18528
27025
-30937
3954
-10383
-19773
-27179
-2180
-29619
14013
-17231
-9796
-8270
-16190
-19693
-5981
-24969
4781
-26463
-11117
728
-28813
-19473
-26352
-24420
-14168
-9217
-11305
8534
-22043
-24807
-21407
-20681
-21958
-2971
-10554
14714
-21533
-11918
-30522
-16980
-28023
11423
-16990
21968
-4614
-699
-28593
-4744
-32421
12605
-15607
21040
7446
12224
-17362
1852
-32714
25183
-4356
20900
15127
16125
-6184
14397
-26302
25249
11233
27206
18261
24369
1276
7904
-16791
15890
-4583
7400
31920
31716
6158
19057
-17551
25359
8942
-10775
30944
22298
23948
22146
115
17544
9441
-14439
17686
16366
28386
23680
22647
4988
23610
-14755
4087
6797
23378
11914
30524
-13502
13933
-20730
10192
3766
20567
266
32765
-19422
10144
-9315
-4363
-2607
11161
-8175
31730
-24848
2279
-17602
-7565
-14437
7232
-427
31822
-20009
12593
-13875
-29684
-31681
-7566
-28572
14918
-30117
-10875
-14112
-29572
-29566
-6911
-27098
6497
-23908
-12779
2481
-21080
-25685
-20345
-18180
-13717
-3266
-11695
299
-22708
-27367
-18018
-25320
-20797
4782
-19185
6672
-7044
-3938
-18071
-20181
-25814
-1317
-15439
21706
1187
890
-26680
-18919
-26753
8910
-20890
19870
16207
18577
-21421
1269
-32742
28897
-7774
26839
14732
17526
-6215
15849
-22721
32529
3935
23413
18277
24932
-4093
15556
-18600
21722
-1295
11831
27451
30640
11612
26414
2129
21319
8027
4945
31044
29220
14827
24846
21361
-826
17403
5825
8032
12313
7018
18643
22575
3028
18194
-11191
21389
15143
29057
11211
30789
-8443
13137
-5971
897
805
10789
7638
31864
-20511
13363
-13655
-7146
-5136
12374
4729
21846
-12854
9317
-29406
-14454
-18916
4705
-9715
31293
-30642
-2164
-8571
-17961
-23019
-2154
-32259
5746
-16552
-16135
-17668
-7802
-10906
-3417
-32617
3123
-22928
-21361
-2065
-16541
-23692
-16142
-26741
-18935
-5258
-16827
-179
-20900
-23916
-14663
-18601
-26975
3485
-19042
4725
-11436
-15458
-18254
-5152
-32359
15927
-8191
3258
-10720
-6188
-8562
-1111
-32748
21713
-8191
6738
-980
2952
-9597
1908
-32711
28366
-4439
23824
12525
14060
-8531
18740
-26878
26873
6590
15064
11447
12315
2319
24547
-21704
28195
13384
11275
24461
25777
10648
31717
8228
17167
18544
14371
19580
30294
11603
22280
2717
11538
13233
-4219
19922
20210
25791
11772
6012
12284
6974
-17166
15923
16290
28430
19793
26113
2130
23984
-19907
-398
-4939
23921
8962
31517
-15613
17901
-9290
-10293
-7296
7569
5513
32299
-21182
16577
-17879
-21674
-18748
11570
-11850
30549
-27276
4331
-13394
-20800
-19968
-2503
-19059
24815
-32764
-416
-7169
-28935
-28957
-12856
-11895
6855
-19959
-3101
-2940
-25607
-27729
-17456
-29123
-15016
-9688
-17707
-1323
-13830
-22202
-19996
-23981
-22328
-11092
-17947
12238
-12286
-16114
-28287
-18979
-26710
11465
-12350
12308
66
-5250
-17013
-9114
-31473
10651
-17760
10703
10105
6760
-8876
-8104
-22986
7572
-4559
30707
11432
20646
-22149
13193
-29993
23905
1030
10885
13688
20088
-2796
31563
-8797
24925
17046
12357
3082
6999
7061
22698
-11612
27212
14893
-628
28377
27442
17905
26778
18324
15083
21921
4333
27605
23400
22936
16914
28063
-7382
17359
-1507
14758
23182
15861
15442
28899
-5422
13836
-14005
4067
5023
17310
14290
29486
-8937
19020
-26904
-6005
-11261
23339
1686
32723
-21965
8173
-16873
-13537
-11502
7192
-14448
29409
-28843
5781
-17261
-13435
-22568
-1780
-27247
18200
-25279
2271
-16226
-28278
-32499
-267
-31196
-9650
-26553
-19198
-11343
-18536
-20482
-6200
-14328
-8078
-10700
-10178
661
-23848
-28180
-16719
-22012
-24271
1736
-17363
2194
-12509
-10511
-13889
-29059
-15140
-3410
-23711
25202
-1964
7752
-30258
-9370
-31398
11624
-11169
14579
4841
2586
-12802
7151
-31976
28959
-6078
20577
7246
6421
-7604
4968
-32388
27709
-4266
19809
19847
27522
1373
15551
-23643
32766
156
6516
24771
29161
11310
31204
-9997
22610
16054
5364
18731
25275
17309
22793
352
13951
11700
-3943
23741
22661
23667
24482
21777
9598
24728
-12467
11964
16858
26551
20020
25939
-4046
19281
-14190
3376
-672
16905
21398
24814
-2994
16693
-29534
-9052
-11329
21400
2535
32668
-20339
12479
-14068
-13193
-13127
4531
-14177
29541
-28652
6659
-12042
-16018
-19580
108
-23764
22559
-24112
-9269
-10773
-17346
-18943
-8199
-32632
2968
-16138
-18994
-9018
-15107
-24644
-7622
-31891
-6285
-20708
-16789
8726
-20524
-25230
-20906
-23944
-22367
-7843
-24614
12342
-14422
-20092
-24437
-21237
-16513
3950
-19498
26545
-11639
-6803
-32052
-10043
-31189
10911
-11408
10749
5250
2852
-15264
8789
-31566
25202
-2443
21102
-716
6792
-9555
-510
-32763
23803
-13208
17458
22288
30568
1026
17930
-23085
32036
6878
8412
19361
29911
5423
15624
-11732
27486
8777
4048
29893
26619
19106
32101
6572
19622
25571
-571
11081
19858
24039
28004
14751
12672
15364
-16843
18278
14293
29485
23860
22458
2236
26162
-19297
-1420
572
25729
11494
30684
-13829
17930
-22600
-1728
-3692
21804
-3119
32618
-25626
12113
-10637
-12986
-4237
4139
-1863
32713
-25008
11403
-17765
-23169
-27865
2797
-18960
23210
-31698
-8298
-12536
-21253
-24448
-5636
-28300
16514
-18914
-17022
-7738
-25015
-24858
-16493
-28210
1903
-26096
-10555
8128
-22539
-17004
-28009
-26952
-18634
-3846
-14204
6953
-13471
-16352
-24016
-29401
-13481
-5402
-25996
27588
1129
181
-32766
-7840
-31815
10402
-16720
17205
39
4220
-22085
1963
-32663
11010
-4809
32165
4279
15594
-28818
2716
-32654
24012
-11410
16294
19720
27391
-2365
8037
-23775
25361
-117
17510
27293
31681
8363
27789
-15794
26945
18644
7297
23663
19982
20697
29627
11123
19020
26681
1865
17982
20051
19169
23445
22890
5011
18737
-2154
11067
10580
16121
16353
28394
-2737
16182
-9262
4098
8874
17434
22240
24063
-5145
20392
-21651
-13862
-7552
21718
-2973
32631
-22931
8435
-15611
-6611
-6017
10347
-12453
30308
-22006
2729
-20309
-14673
-17930
6093
-23717
22609
-27018
-7496
-5797
-11780
-11800
-7088
-31197
10021
-26730
-15895
-4280
-15075
-22323
-11041
-19685
-2591
-12811
-9062
-999
-18492
-27652
-17578
-24201
-19612
-6065
-27825
7249
-15270
-20177
-25817
-22830
-23504
556
-19866
21937
-8234
-9719
-28856
-3560
-32572
16706
-7137
3088
-2240
-3126
-4654
-392
-32764
22138
-9303
9478
5649
7601
-4529
13022
-30067
27722
-3844
14584
12415
11905
76
16168
-26816
30568
5012
22339
23971
29842
8336
24278
-11256
24682
14509
14611
24738
29262
14743
28414
-500
27952
14575
-6565
27509
21993
24289
30117
12906
10772
26392
-9785
5276
11028
23088
25101
21061
-1943
22952
-15200
4366
2445
21946
16306
28421
-9215
20416
-17484
-4340
-6987
13475
13593
29814
-15742
16552
-22484
-14282
-16908
15125
-18304
27177
-25227
-1011
-24436
-7369
-10876
7578
-15689
28766
-31935
-1477
-12502
-26577
-22664
-5766
-31133
10215
-23469
-14054
-9886
-22159
-30886
-7260
-31427
-9273
-11475
-17542
-4709
-16013
-18137
-11274
-28035
-16961
-3386
-19102
5325
-11312
-13298
-16865
-29057
-15143
-4193
-24332
20677
-4586
-1417
-30709
-7503
-31896
15350
-20660
17358
-2900
-1456
-17035
-11211
-30789
14548
-21060
16349
15258
18048
-14337
6974
-32016
27021
-1961
21516
15621
18932
-11337
21245
-24340
32293
5553
16600
20913
22296
1083
25449
-7833
26748
9924
15273
26239
31459
9164
28256
243
26095
19816
-2460
17497
19014
20914
29221
14825
11993
30216
-7335
12565
12163
24174
17473
27718
-2074
17221
-7006
2731
7769
12067
21323
24879
-6562
22564
-13401
-6445
-10931
21810
8371
31679
-16004
18080
-21395
-11946
-12779
15567
440
32764
-27176
8069
-10875
-15514
-20926
3000
-295
28025
-26572
12310
-7674
-26461
-30761
-11287
-30204
12701
-26076
-9767
-13348
-21846
-25785
-12622
-28036
1434
-23487
-19133
117
-16602
-24613
-21629
-31455
-9179
-9677
-20839
8419
-4473
-9398
-20323
-20495
-25128
2069
-17507
14931
-10490
-19089
-26631
-11936
-30515
10996
-15267
9518
-2772
2084
-20179
-5289
-32337
16040
-7677
9193
6058
7889
-5056
7232
-31958
24897
-7139
17517
12346
16640
-7030
12664
-30007
32766
213
12228
22188
28243
2881
16332
-8440
26625
7388
13253
25459
31455
9176
8645
-7767
16310
9048
-2287
23930
27485
17838
22993
23344
8634
14865
1985
19017
18888
17739
23393
18377
9756
15408
-21299
16123
9219
31443
27295
18127
-2164
15962
-19201
-4252
-11690
23005
-761
32758
-16390
12313
-10075
-4930
-3980
8161
-5681
29785
-22338
9434
-29031
-15194
-15994
5392
-21503
24724
-28026
-2706
-17665
-16682
-20024
710
-20838
24969
-28670
-5179
-6367
-27479
-27883
-17209
-30989
-10646
-10349
-16268
-9502
-22936
-29149
-5978
-32729
-1558
-16530
-16528
14389
-16611
-13745
-27779
-31075
-10392
-7284
-19528
27122
-6542
-8466
-29149
-16535
-28289
7567
-18939
13311
87
2396
-19495
-2488
-32672
27198
-7552
14167
955
3189
-8611
11015
-30859
18966
-2748
14016
4208
11185
-3783
22831
-23503
29636
11417
20272
14005
18343
-7010
5538
-21894
24766
-2322
1874
26157
28579
16028
21754
-8407
26835
18802
-3235
19907
17773
21095
22890
14987
16971
17655
-7819
21416
23492
22842
22377
23936
398
24518
-7642
9748
5737
23445
10105
31169
-6883
9561
-20852
8836
10637
21803
-865
32755
-21066
4665
-16178
1556
-400
15883
1774
32718
-20471
6837
-19952
-16555
-17663
8775
-24734
21490
-28197
-15438
-14827
-5612
-7916
2531
-18914
22056
-26866
-3111
-8210
-19954
-27920
-17149
-32671
2500
-22243
-16612
-557
-12276
-14323
-17024
-26575
-6531
-17125
-15716
8111
-17751
-19247
-26518
-19725
-26164
-1402
-15597
4342
-7719
-8532
-15848
-13264
-29962
11218
-7648
9605
-3001
-8590
-16308
-12461
-30305
12305
-19312
18658
9160
12385
-18852
-7150
-31977
24192
-10201
16239
17674
19984
-3947
14062
-29595
31141
-1845
7629
17310
15190
7603
28239
-16619
27053
11285
15319
20524
26503
8043
14594
-5718
24701
10296
-686
23874
27745
17431
21614
24626
2888
18003
9227
20087
25013
11544
24879
21322
5998
26570
-11123
9669
5500
24172
16771
28149
-13505
28877
-14760
-509
-2600
14130
-2871
32640
-16732
4068
-8344
1598
2657
12816
-5464
32308
-23615
3701
-8294
-8677
-8070
5596
-4532
25988
-21888
10968
-20553
-25474
-32606
3236
-28740
15737
-27042
-16319
-7758
-10247
-15173
-6997
-27476
7297
-23864
-15120
-42
-23314
-28037
-16958
-29333
-14601
-11909
-22474
2506
-10759
-15425
-17455
-29313
-14642
-9718
-17798
18385
-8517
-8629
-27087
-19392
-26412
5493
-15944
18595
-3277
909
-17306
-14259
-29501
9921
-15345
20505
9613
10639
-17073
-1755
-32719
22530
-7845
29456
14200
18341
-12952
-3496
-27069
25404
-16630
13869
29686
29833
3720
22785
-18596
30950
10758
13427
26775
28493
5331
22837
-6599
25025
6942
-787
24340
28295
16524
26917
18684
5680
24558
6268
8012
14517
13177
15322
28963
-879
18005
-2735
11129
12648
10931
15845
28681
-3161
23156
-16945
1614
1790
18517
2354
32682
-17692
12701
-3560
-2591
-2556
7616
1638
32725
-22307
9188
-13117
-12733
-12623
2246
-17060
27974
-26128
-3953
-4158
-7713
-6404
-5452
-22752
19811
-27316
-3630
-18238
-24347
-31476
-9106
-28347
5933
-24872
-14708
-5209
-26201
-28496
-16175
-14681
2482
-22073
-8224
10211
-22779
-21236
-24953
-22827
-23507
610
-14079
3731
-12315
-6844
-13192
-8762
-31573
5357
-12435
5936
-9701
-5872
-19698
-5623
-32280
17354
-5661
12987
-807
710
-10564
6275
-32160
22374
-168
14619
2706
6280
-5729
18291
-27186
27781
5979
19873
12850
12801
-1812
23157
-23182
26414
12273
8397
15965
18221
8382
30077
-2362
24795
21420
3399
9636
16390
12392
30137
12861
12483
23978
2458
11854
14708
16668
12835
11402
14831
14423
-16232
17341
17613
27630
7735
31840
-13217
12342
-2680
4580
9692
5834
10800
30935
-11310
14511
-14654
-6215
-4898
12769
-3091
32620
-16050
7109
-15044
-6862
-10801
9290
-7697
31849
-27174
5091
-17283
-20605
-17389
-3515
-30403
12219
-24488
-16423
-11577
-2364
-9980
-4813
-32372
5066
-25930
-17052
-6339
-16435
-25672
-14678
-32157
-6289
-21452
-21712
4630
-20047
-17147
-22716
-24273
-22010
571
-18347
700
-4751
-12059
-16802
-18878
-26782
-497
-23720
27534
-7822
-11211
-29725
-9579
-31335
8567
-14806
13339
4752
5597
-13034
1906
-32711
22556
-4620
12620
6764
6962
-3839
7981
-30442
31729
-8181
19379
21617
21625
2282
10237
-21556
31891
1108
14645
29311
31385
8697
26968
-10266
29479
13810
3146
18746
26750
18923
15670
-592
18170
8944
-5402
18782
24125
22173
19394
26411
-7353
19814
4010
2771
10881
4942
18498
27046
-1436
10937
-7821
2238
2393
13789
3932
32530
-13737
11077
-13576
1816
1328
14298
9825
27530
-12216
18159
-28297
-16520
-20304
13278
-20135
25849
-20496
-4219
-13867
-9621
-3669
3204
-24010
22297
-29832
-5355
-16937
-17644
-28043
-6993
-23541
19622
-32174
-3846
3407
-20872
-19872
-26053
-31913
-7430
-25248
-19493
6476
-16102
-22098
-21717
-22761
1037
-19925
-13660
21362
-13631
-9560
-31341
-18965
-26720
1882
-17279
10072
1588
-2692
-11920
-2677
-32657
14181
-10414
16369
-4007
-4097
-15312
-6906
-32030
14066
-17859
24934
16802
16305
-15757
6381
-32139
25235
-5399
8951
15498
14776
5012
25025
-21151
24450
13616
15846
11601
22444
2633
32101
-6570
28451
13226
11372
16546
18459
19700
13969
-4016
15758
7550
-2081
19779
23178
23160
26262
19594
320
24489
-3316
7143
11518
17145
15243
29005
25
14531
-14202
7912
9811
16892
14748
29259
-10991
21872
-14077
-4874
-8857
17063
8470
31653
-15254
19773
-15997
-17575
-15715
7708
-13957
29645
-28279
1312
-13504
-8777
-15652
2767
-19261
24541
-29256
-3086
-19808
-26101
-30924
-1346
-31585
8718
-22583
-16314
-11191
-17422
-19913
-12699
-21381
3839
-24254
-8242
7371
-16314
-20317
-25707
-18454
-16809
-257
-11732
1852
-24793
-22716
-23614
-13657
-29784
9653
-17246
10061
-11815
-14634
-21093
-6531
-32109
13189
-14804
15738
-1877
-1569
-15241
-12778
-30172
15213
-14503
24799
14147
16914
-15716
15581
-28825
27142
728
19918
8398
14634
-8128
14679
-23513
32701
2071
10650
17569
23231
10233
11847
-11637
26081
6667
8746
30220
29994
13190
32217
867
21418
24798
-896
12031
16348
21221
30780
11234
13710
18771
-9325
5755
7911
22407
20836
25288
4554
15089
-16312
10673
6894
23775
14199
29530
-6629
22323
-15886
-4920
-7092
15359
2136
32697
-20561
7461
-9192
-5914
-6023
5437
-5935
32224
-31435
3612
-22883
-19199
-13609
3027
-17093
19298
-32634
2940
-15957
-18151
-21200
-7280
-30076
13004
-28217
-14630
-4522
-14503
-20964
-14006
-32654
2708
-20792
-11330
6442
-10996
-13145
-18566
-27638
-17601
-2622
-15920
2693
-7075
-15015
-14004
-27345
-18052
-9246
-20245
18240
1144
-3853
-24501
-6586
-32098
17223
-13517
5498
-1099
-2982
-9913
6330
-32149
24723
-6518
10047
1186
-569
-7206
13443
-29882
29272
-3948
30934
7629
19983
-6575
16924
-28057
30504
3146
10952
18112
18179
7528
32762
538
17685
15465
12269
4926
14682
1073
23077
-12201
24951
11093
-7936
20694
18070
27333
25914
20053
2346
18988
1812
8860
9969
10951
12902
30119
-6944
20420
-408
5137
8984
11704
13373
29913
-11982
20599
-12900
-1953
-3597
9507
9499
31359
-16112
15318
-5972
-13736
-11295
461
7972
28703
-19101
17672
-21600
-24639
-26296
3706
-28550
16079
-28461
-10985
-11501
-2678
-6404
-2341
-17833
16909
-25748
-582
-9283
-24615
-27496
-17821
-31964
7207
-16556
-14058
2032
-20891
-21435
-19958
-26326
-19508
-6485
-17829
-549
-6672
-11335
-13302
-14986
-29139
10126
-18229
3321
-7389
-19507
-18335
-5622
-32280
11680
-3987
10251
-6871
-8219
-10924
430
-32764
23384
-2151
5530
-358
1166
-3618
9017
-31501
27725
-2088
14116
10492
11154
-4838
17062
-19722
32129
6431
17606
11743
18522
2991
28359
-2823
27914
15945
21876
24394
25830
4773
23073
9820
17898
17351
13127
26902
29400
14466
23943
7222
22751
13591
-13190
18362
16720
28179
23145
23194
7962
19006
-12828
6436
4329
20115
27337
18064
1507
22077
-27042
-8253
-5886
30492
3081
32621
-17924
8037
-18206
-2441
-5691
13862
-284
32765
-22270
10828
-10775
-13317
-17114
-1286
-26419
19082
-29246
-14775
-11681
-66
-1586
-6264
-29931
13332
-31806
-4904
-17150
-26063
-28888
-11110
-23330
11563
-26754
-12723
5356
-13062
-20618
-25467
-29197
-12976
-17222
-25741
9171
-24131
-21568
-24667
-23116
-23223
1195
-23605
9552
-4017
-8628
-18645
-14678
-29295
3848
-21685
11245
2503
2146
-19030
-15038
-29112
7897
-27878
24461
16969
17124
-20546
2330
-32684
24991
-7435
8004
12000
12414
-10
16551
-28279
28635
-320
14095
16557
15976
5823
23520
-13765
30925
10830
11263
15118
17182
15848
18854
-10170
25017
6713
-1191
24887
23172
23166
23149
23190
158
20871
4572
9339
12243
2527
12313
30365
-8082
14497
3728
6027
11011
3119
10980
30872
-10199
10244
-5287
2532
4250
9842
12573
29964
-15704
15134
-32374
-5057
-10610
20440
-1335
32739
-17700
14402
-24100
-20140
-16458
12698
-20926
25214
-26721
-7609
-7126
-3843
-8731
-5094
-30002
13173
-22012
-12931
-12744
-8551
-12800
-10665
-32705
-2009
-21742
-19906
-3896
-14838
-17573
-12083
-32209
-6018
-15252
-15671
9213
-11709
-12763
-21702
-24517
-21738
-6656
-17815
9843
-5552
-11070
-23927
-11378
-30727
13102
-15333
8912
-3003
-4922
-12321
-8204
-31723
14625
-13138
18624
1718
8668
-14117
-4494
-32457
22014
-12995
17879
21904
13156
-5541
5239
-32345
32179
-4069
12766
19281
24127
10644
18833
-22215
27895
4201
11143
26087
31604
8652
28823
-8316
26427
8696
2985
25570
23619
22711
25678
20354
9698
26267
3343
11430
17348
13119
26852
18778
3790
26838
-5953
2285
1524
20541
20462
25592
-7120
16020
-12426
-2230
651
17437
13944
29651
-10583
17519
-20874
-7089
-12632
16766
-392
32764
-24587
13591
-16691
-11964
-15839
2083
-18355
27143
-29193
1400
-7503
-10427
-10741
-7313
-19385
26417
-31934
-4430
-4640
-23544
-24752
-13898
-32456
4499
-23043
-8635
-6476
-23167
-23764
-17567
-31936
-7328
-11158
-21975
3679
-11851
-17332
-20575
-20935
-25206
2645
-20062
2786
-48
-8775
-7465
-17138
-27927
6514
-17330
16121
-3054
-9714
-26190
-9797
-31268
12165
-16170
22140
2800
8521
-16668
5733
-32261
23020
-545
10844
3290
6578
-655
12666
-30219
28013
4509
12593
12791
14852
3643
17245
-21854
28096
2799
14544
25328
31340
9563
14060
-5085
22978
4152
7870
20491
25916
20050
29179
14906
18995
22841
1158
15630
18253
21279
23637
22692
8925
21693
-8475
8607
9448
20720
12065
30464
-12653
12481
-68
2776
2692
4800
9390
31392
-11821
18037
-12208
-4985
-8788
9967
6187
32177
-16294
10690
-13335
-14608
-13546
1600
-4603
25921
-32238
5862
-21586
-20318
-28100
4348
-18921
26751
-29997
-5891
-5380
-19530
-17984
-13969
-24172
2374
-23463
-16156
-12897
-24996
-28722
-15770
-31462
-9153
-5546
-28508
-3166
-9891
-10479
-12142
-28804
-15619
-5819
-19892
13169
-11031
-12190
-22955
-12681
-30213
14699
-10428
1511
-3033
-9801
-13297
-9891
-31238
14510
-14813
10551
3755
6123
-7384
4703
-32427
20959
-5667
5262
7749
3936
-1225
5886
-30331
25426
559
26360
19463
23777
-6495
29176
-14002
29685
13872
9212
7186
5743
6228
24877
-5116
27511
17798
3525
17990
15661
12251
31460
9158
14912
22772
2428
13275
16808
20339
21998
24284
-245
20082
1129
5511
9749
13419
7943
31789
-11367
13886
3997
2687
4474
2986
6286
32158
-15256
11426
-8137
-1794
-1047
8037
-2133
32697
-21944
10553
-10222
-8907
-7527
261
-11236
30780
-28803
6524
-22396
-16308
-19919
-1474
-25025
21151
-22033
-8731
-13798
-12842
-20511
-3887
-26313
9711
-31654
-8467
-5590
-21511
-24756
-21196
-31672
-8398
-15765
-21027
-1019
-7969
-9148
-15214
-23638
-8389
-12625
-15080
11896
-16906
-12982
-30085
-18925
-26748
-1234
-26240
16503
-2939
-2703
-19501
-12024
-30480
12833
-21153
14139
6824
6164
-8330
332
-32765
24161
-12058
19025
9148
8898
-10050
12599
-30247
26731
4759
15264
11708
8945
-1755
18649
-26942
30200
3857
4291
14180
16533
12609
31989
7096
18765
20687
11832
3476
8124
2059
24532
-9668
24515
8684
-10769
17549
17666
27596
26303
19539
4797
17885
-4422
7594
9674
16006
26008
19930
6846
18799
-24833
1915
6580
27062
13284
29953
-6269
7656
-18162
-249
-434
18387
6950
32021
-20985
10587
-16895
-9964
-14339
9479
-13066
30049
-28003
2779
-7992
-7645
-12159
-5355
-29671
13902
-24834
-17921
-13902
-3669
-6442
781
-26641
-5723
-23099
-18978
-23392
-22944
-31196
-3053
-30128
-12882
-16486
-20600
-3111
-9619
-11827
-9934
-26782
-18877
-2846
-19847
3058
-14072
-16863
-21471
-21050
-25111
-251
-18783
14853
-3883
-11275
-26904
-5602
-32284
16332
-13619
4038
886
1019
-490
274
-32765
26904
-16687
26391
6994
12165
-16164
-1886
-32712
26088
-5729
20953
16607
23484
166
14052
-23195
32405
-4856
17958
25080
29223
10650
24184
-16498
29586
14082
1214
12151
15407
19450
27079
5286
29461
13711
247
21258
20774
25339
26223
5685
18116
15580
-13410
11625
13584
29818
24837
21371
-757
20209
-15719
4265
2615
20428
9193
31450
-13897
12108
-6637
-3589
2254
8725
3843
32540
-22239
6300
-20075
-4903
-7522
10472
-4879
32401
-22693
7981
-25883
-15666
-22661
1522
-17689
27582
-22665
-44
-8912
-15560
-18486
-8347
-30239
9695
-32228
-5916
-9190
-27942
-30545
-9806
-24591
4538
-22457
-4194
5714
-23061
-23572
-22759
-20976
3900
-16402
-9439
15469
-11579
-14054
-29599
-24607
-21636
-1589
-28358
15410
-4236
-1012
-22278
-9197
-31449
9484
-13839
6968
847
544
-12776
2112
-32698
22557
-5782
2630
1186
2944
1830
7801
-31824
26809
-7479
10231
13178
14209
730
22775
-23557
31919
5142
11746
15059
13326
6689
20393
-17579
31440
7386
8473
26387
25549
20515
29402
-3850
26243
19440
-1950
13642
19503
26330
21443
8358
19027
17430
-11203
18797
16249
28454
11333
30744
-4097
18800
1390
5147
3903
5950
4476
32459
-9989
10126
-12147
4164
7155
11011
8730
31582
-9612
12527
-17929
-7399
-12889
9974
-10233
31128
-27125
5031
-10255
-5698
-12196
-4159
-21802
24175
-32488
-4265
-19297
-14966
-20765
-6328
-32361
5140
-20307
-10246
-12405
-13403
-11067
-6755
-31943
3975
-23276
-16017
2018
-18101
-23376
-22961
-21140
-12896
-10931
-11039
7676
-19146
-25192
-20952
-26979
-18595
-2355
-25655
17388
-2113
-5016
-20028
-16976
-28026
7597
-15617
19180
-472
2354
-12325
682
-32759
23421
-8031
1975
2901
3204
-2276
4503
-32456
27070
-6459
18651
12350
18347
-5054
24135
-22162
27552
1868
24971
13429
23661
2107
15925
-16958
31460
4702
8774
25805
28007
17007
26953
2725
29234
14799
-1933
11512
19034
18230
26447
19344
14141
17344
-3915
10746
15286
17843
22366
23945
-3480
25172
-9851
4787
7105
17920
16745
28164
-6874
19851
-11821
-7161
-1980
11471
13077
30044
-13290
17541
-14214
-12404
-14426
4080
-3776
32548
-22075
4346
-19690
-9036
-17675
4731
-18994
26699
-26497
2488
-17186
-17614
-20326
-5008
-25171
20977
-23188
-5757
-12469
-22823
-26022
-15100
-20171
8215
-22812
-8321
-386
-21401
-21201
-24983
-27629
-17614
-3402
-15338
-2759
-15152
-16969
-15610
-17009
-28006
5515
-22258
3968
-10819
-11402
-14216
-11793
-30571
8667
-18855
14556
-2149
-1906
-14474
-5195
-32352
22914
-13896
12130
2845
8868
-2439
13272
-29958
29076
2959
11336
22
4547
-987
5486
-32304
29775
-5081
16920
23778
30083
7097
27530
-17769
27454
9198
7653
15418
20122
12113
32728
1584
19743
15178
2207
7760
9571
13941
29590
14074
8893
21236
460
13389
18888
21575
16318
28414
-303
17846
-3687
7814
11698
13759
3190
32611
-13226
12295
2021
289
6398
1624
5105
32366
-21747
15370
-11587
-4123
-7062
4240
-2190
32693
-31609
5396
-17447
-9111
-15399
191
-5916
31446
-32482
4304
-6873
-17243
-25087
-9396
-15547
28224
-32239
-5857
-5506
-27762
-25639
-18932
-17229
10083
-19292
-8912
-4395
-19473
-23909
-22405
-25946
-20011
-10065
-27125
-4074
-7953
-19148
-17367
-25760
-20250
-2204
-20343
9249
-1585
-2032
-12756
-20903
-25232
3115
-15593
15552
93
3670
-17458
-3755
-32551
21358
-11097
18229
985
2958
-15782
2020
-23272
23726
-11339
31032
10520
15275
-9411
7193
-31967
24311
-10250
20100
23520
29530
5155
21189
-3326
18189
4980
24867
21337
21721
3227
24786
-2316
25258
20872
1087
8702
11035
15719
27111
18402
1495
15758
8014
14024
12777
11186
24167
22127
7975
29727
-13268
6658
8811
22038
12393
30332
-5562
14718
-7116
1369
2671
13353
7641
31863
-19734
12096
-12725
-567
-7094
8424
1139
31178
-25458
13062
-28697
-15814
-18525
13365
-14681
29293
-29097
1875
-8955
-13366
-10743
-9358
-10854
30849
-32373
-5062
-5478
-27311
-27439
-17291
-31719
-8220
-12691
-21353
-13454
-7675
-15889
-3645
-29555
-14147
-5414
-21131
594
-3591
-14750
-8145
-27563
-17718
-2912
-17187
6159
-4575
-5394
-20142
-14211
-29524
10790
-16791
8114
-2219
-4970
-13073
-1915
-32710
12225
-14021
17135
2369
-55
-16548
16353
-28394
28539
1786
8186
-4006
-537
-4035
16084
-24526
32673
2478
8645
9134
8354
6612
20195
-15919
32636
2925
11923
25840
25613
7276
32349
-5214
23414
17053
10278
20744
23284
19775
27456
3691
24843
21365
-7254
13258
14715
27044
16191
28486
-2478
18189
2379
5273
6233
4224
12629
30235
-7622
13368
-6690
444
4615
6943
12087
30456
-14477
18981
-15446
-6896
-8486
11472
8554
31630
-20966
14149
-11048
-17232
-14909
1220
-24598
21646
-24270
-3624
-10534
-1574
-5793
-166
-16645
28224
-31297
-358
-8700
-27851
-23922
-14987
-25199
5034
-22556
-18385
-11369
-26354
-29163
-14939
-32722
-1710
-20790
-19949
10574
-13464
-13563
-22709
-25190
-20955
-6931
-22631
6223
-6541
-6093
-18723
-22368
-23943
2038
-22505
15120
3546
1480
-15984
-11131
-30818
15605
-15334
10047
5099
6999
-10205
8162
-31734
23418
-7603
6457
3910
6129
130
18015
-27369
29070
-1029
2706
6588
6466
8942
22666
-15281
31044
10484
9792
7064
12227
12844
25041
-3158
24259
22026
7691
6728
16385
16070
24966
10770
21365
13121
-1586
21897
24639
21600
17372
27782
-2213
16786
-453
13420
22361
15867
11559
30660
-455
18929
-16532
6942
10843
19988
6581
32099
-17415
10010
-2747
-3505
-1740
-1364
3694
29405
-27030
18521
-13081
-13231
-15593
3380
-17261
27851
-22390
1783
-16119
-10052
-12618
-1492
-15169
25939
-32720
1737
-6585
-21487
-27513
-14274
-32708
-1952
-21266
-18182
-9156
-12303
-11235
-6989
-31451
-9190
-13555
-24617
1395
-10102
-11752
-13732
-29594
-14064
-5621
-18846
9236
-7042
-5990
-18405
-16262
-28446
14416
-18188
1795
1476
-5818
-9419
1502
-32732
18567
-12079
6977
-3216
-2053
-4604
-1624
-32726
25592
-17612
19198
10137
17910
-5418
13333
-29931
28941
3648
6851
9363
3470
9689
6252
-21943
31143
-10185
6586
23879
27712
14869
18212
-16407
25203
6766
1707
27180
26878
18741
27803
17338
14716
23633
6837
13133
19654
13950
17723
27560
-5295
17035
5590
7554
8848
4881
23595
22736
-127
24757
-16594
-1861
2514
23842
8622
31612
-15419
18038
-15975
-2706
-2426
9735
9603
31328
-19097
18565
-18984
-17243
-18160
3817
-10394
31074
-30982
-3753
-8035
-6165
-11522
-8384
-12909
22784
-32748
1099
-10086
-21275
-23301
-12764
-23654
16859
-30698
-5687
-3354
-21528
-19312
-26471
-31254
-9841
-20375
-19106
-1239
-15973
-16277
-18347
-18964
-17912
-8420
-19118
4130
-15301
-20259
-25753
-17356
-27792
7604
-22376
11323
-3231
-9686
-17379
-7313
-31940
12141
-12157
10172
552
1956
-9294
-8861
-31546
15024
-19552
24651
14807
18740
-11857
8375
-31678
29634
-6467
14794
14271
15111
5895
24623
-21618
30058
10530
12941
12406
14044
8926
32372
-5068
28637
14372
7074
16873
16521
12173
27099
18420
11569
21666
9656
11521
13023
8358
26076
18222
11745
18769
-5402
10254
17024
27996
15107
29076
-5232
14749
-3662
2192
6699
12053
11519
30675
-15376
14865
-10960
-2825
-2465
6971
-4577
32445
-22934
2482
-4071
-3571
270
806
-6585
26102
-16620
8764
-25714
-20308
-16831
3128
-17341
27440
-32762
562
-9368
-20649
-24930
-11048
-26002
15287
-31591
-8696
430
-17455
-21786
-19311
-26983
-18589
-13461
-23799
-9620
-6644
-15278
-7861
-28965
-15318
-10316
-26128
5304
-4248
-10397
-23332
-24151
-22144
910
-22151
12221
-212
-2619
-20251
-8972
-31514
14498
-19744
13243
2508
470
-11995
8118
-31745
23754
-6160
5828
990
-435
2214
-1119
-30036
29720
-13798
18537
22257
22216
3680
25754
-20258
31451
1780
13624
13473
18552
6893
30990
-7015
28222
16647
2474
7255
10376
11927
31333
9584
17192
23514
3682
3753
10925
15170
25951
20004
1727
21081
2804
2859
2552
9815
14141
29558
5833
13630
-12698
10381
15893
25298
10034
31192
-12467
16316
-9279
-3023
-492
10013
-6413
32133
-23138
9849
-9507
-1971
-3201
1618
-12676
30215
-24714
2703
-22425
-8861
-15901
2776
-24967
21220
-25361
-7851
-18049
-10030
-16298
-4441
-31277
9766
-23138
-11984
-11454
-14585
-15067
-13760
-18324
3632
-17993
-6891
-3601
-23796
-19731
-26159
-26346
-13522
-15575
-22291
11986
-13419
-20317
-25707
-20279
-25737
-420
-18286
7586
-811
-3464
-12613
-10757
-30950
16482
-14307
6366
4322
-1064
-4182
-7344
-31933
21730
-12946
16709
13282
5900
-5670
11434
-30707
27182
-8435
10873
11861
9519
3486
20831
-22481
32059
6773
8582
9081
12156
9570
17542
-16126
29849
5419
9276
29011
28415
16317
26152
-9452
28250
14885
-5308
19702
17628
27621
28503
16162
18126
22240
-6787
11925
14248
26227
16715
28182
-3651
19585
-441
560
2978
6967
19206
26547
-4127
22518
-12951
-6786
-12376
10488
13286
29952
-14418
18448
-21169
-11351
-16548
9693
3727
32554
-24727
7060
-22267
-20365
-17221
-540
-12316
30364
-32271
881
-17193
-22416
-24445
-10542
-21831
6412
-31932
-4662
-16322
-22501
-29168
-14929
-26595
-10966
-21243
-23368
-8770
-21227
-29601
-14051
-27699
-4999
-11675
-18017
5456
-15319
-15218
-29018
-20266
-25747
5634
-16735
5314
-3561
-7930
-10631
-5563
-32291
19563
-11240
-1761
-990
-3157
1630
-7499
-31897
15870
-19620
18296
9811
12087
-6222
-5163
-32357
24129
-20786
16433
21729
24709
4684
17165
-24601
32684
2319
8852
13923
11919
10109
6574
-22192
31273
-1933
1276
27070
25318
20800
32077
6687
22141
17608
6013
17702
23162
15746
28159
3366
22444
20220
-12737
14587
12649
30226
24550
21700
6068
22856
-11441
2081
8223
25411
10591
31007
-11344
15415
-5934
-209
1364
7673
404
32764
-21894
13428
-10414
-5041
-1604
2094
-8562
31628
-21462
5536
-10524
-6969
-10014
-1531
-9274
19867
-17367
1224
-26011
-19926
-22132
376
-27637
10198
-29627
-13996
-9001
-12404
-13148
-10270
-19882
1204
-19120
-19057
-5727
-23891
-29150
-14964
-26639
-19079
-13221
-25524
-99
-13099
-13299
-17427
-26546
-19208
-3314
-22115
12515
-3510
-1959
-17093
-17146
-27922
12519
-18330
12126
-210
520
-12911
-1975
-32707
19568
-12638
17901
1769
5535
-7034
11175
-30802
28313
-5791
22707
8066
9281
-6963
8636
-25570
28774
-5383
20645
25444
23464
2257
30525
-11911
26473
6672
9417
12556
14326
10213
25307
-2329
29116
15029
4645
18514
20159
24181
24238
22049
4831
16889
4485
7588
13859
7391
19026
24212
6041
23712
-13729
17500
17234
27868
19068
26646
-9246
20639
-9391
-1445
-4154
15095
9850
31251
-15943
12822
-12280
-6794
-7588
8111
-7527
31890
-26227
9198
-9600
-6524
-12341
559
-18827
26817
-27891
-5245
-11252
-9703
-12625
-4989
-29667
13910
-24583
-10611
-4282
-10226
-5854
-9225
-31964
7207
-23092
-13258
-2369
-17153
-15354
-20394
-31028
-10532
-17084
-16152
6102
-10052
-18668
-22399
-19592
-26264
-475
-15270
1420
-4891
-5828
-10136
-11971
-30501
12528
-14915
5546
-1041
-3384
-6795
-15958
-28618
8121
-19628
27782
10999
10930
-15324
5586
-32287
27637
-5377
20496
13679
5419
-4326
15921
-28638
27649
2273
19863
19560
14785
754
22715
-14243
31926
7373
11614
17858
19535
13007
27630
-4525
29246
14775
486
18026
24658
19495
25786
20217
9789
17835
2988
15616
23763
14457
16982
28022
1451
15672
-1705
10409
17599
20043
8212
31721
-8571
13026
-1191
-709
3782
2051
11311
30752
-13806
17123
-12972
-10903
-6623
4084
-13590
29815
-32065
4849
-25424
-1563
-10001
12750
-21212
24973
-30636
1546
-8641
-9038
-13518
-1129
-30559
11822
-27458
-13311
-18892
-10788
-19760
-8767
-29863
10250
-26568
-5842
-4085
-21214
-19371
-26427
-27776
-17382
-5220
-19915
-1622
-6201
-8031
-4392
-31736
-8154
-17976
-22190
20904
-4020
-2915
-30156
-19856
-26065
8639
-20333
8974
3891
622
-11412
5968
-32218
16632
-13378
19425
-3933
-5054
-19609
2535
-32668
29473
-6932
9429
11660
4849
3506
22044
-24242
25046
13110
10323
2137
-465
2980
16981
-17326
32665
2572
19027
24303
27345
14954
23678
-8716
30023
5450
1835
20328
23085
23254
26328
-1903
29028
15198
-13280
10267
10883
27250
16748
28163
148
19084
4084
4377
8924
9324
21166
25012
757
18717
-14425
-2167
-917
19464
6407
32134
-16752
15972
-6365
-5441
-4964
3002
-6588
32097
-29144
5470
-14479
-5692
-4949
1707
-14783
29242
-30811
-1666
-11378
-11457
-11309
-4169
-10789
21944
-32653
2726
-5873
-21289
-24550
-16863
-18096
11245
-28717
-2485
640
-22778
-25007
-21172
-23365
-644
-15237
-15366
3991
-19130
-21813
-24451
-31148
-10170
-15335
-26027
17321
-1994
-1203
-25451
-19513
-21590
-5424
-12306
27106
-16725
-4046
-32516
3844
-32540
18944
-12052
6186
-3235
-2790
-3704
-5531
-32296
26820
-15145
9782
16181
12732
1513
17679
-27588
24656
-2911
12665
10895
14125
-1163
17152
-12925
32611
-3192
14199
26370
21607
6975
24687
-6361
29147
14969
5939
15808
23849
16573
29778
13672
9386
22143
1839
-903
7845
7055
16586
28258
-4798
14625
6986
3592
5963
1864
17691
27580
-7133
14601
-4094
-1294
2641
10336
16141
28515
-6018
21461
-21989
-10790
-9180
13856
3844
32540
-22677
9501
-6985
-9634
-10765
-3508
-17586
27647
-32309
601
-11595
-5158
-12355
-7780
-20289
25729
-31291
2475
-4707
-14544
-22515
-16360
-30525
4388
-27585
-15630
-12527
-18565
-27482
-17843
-32017
-6966
-20882
-16490
3266
-16564
-16005
-21922
-30853
-11034
-11295
-23875
13337
-2965
-1910
-19983
-19842
-26076
3700
-29757
10651
2414
-2289
-24301
-11321
-30748
15295
-20434
16972
4439
7101
-7827
5689
-32269
23529
-11321
8094
7391
5012
3312
11387
-27479
32766
-88
17407
11481
14368
3521
20663
-19612
31984
7116
14718
18573
19527
7693
16394
-11169
30931
10813
2797
21368
23437
19415
31537
8892
24990
18478
-4279
10040
14780
19296
29282
14703
19799
20767
-10897
4172
5220
26761
19637
26230
1904
17438
-10711
2162
2154
18821
3978
32524
-19753
12984
-8483
1660
1708
4446
12020
28433
-23912
22402
-21971
-17418
-22030
7427
-6390
31246
-32494
4214
-13516
-12665
-14941
-12094
-20452
23933
-32117
-6489
-18501
-22103
-24659
-6993
-27992
6771
-28306
-16505
-8645
-21105
-22643
-12664
-32068
-6729
-11431
-23377
-1882
-8204
-11914
-13850
-24755
-21467
-1505
-21514
744
101
-2951
-6425
-15109
-29075
7714
-18032
1670
60
-1125
-3927
-12596
-30249
8411
-14790
16486
3861
3169
-16389
-6566
-32102
19000
-17242
19081
12224
15560
-4715
8964
-31516
27711
-8446
11686
12681
17514
3527
21910
-22514
32311
5444
9766
10097
16426
13609
32161
5649
27631
17612
14785
12069
16755
7126
27886
17205
6801
22805
7125
-1862
3343
557
22488
23831
4519
16143
1681
10583
12175
13998
14156
29550
-2727
17210
-3902
367
3856
7048
10963
30878
-11170
14000
-13693
-3172
-1119
3437
-2517
32670
-21800
5791
-9694
-2874
-5205
4664
-14143
29557
-28718
-317
-9311
-6857
-7231
-4778
-26015
19921
-31327
-6734
-7331
-6687
-10672
-8953
-17519
17318
-26618
-7081
-5915
-26025
-27928
-17137
-32473
-3814
-25710
-20313
2632
-14890
-21361
-23340
-24918
-21277
-5942
-16468
4442
-9541
-16746
-15949
-13964
-29642
7949
-18846
2735
-5692
-7655
-13103
-4241
-32491
14564
-12592
8234
-959
-3592
-6771
-1671
-32724
21192
-10363
13342
4401
7944
-390
8948
-31521
28754
-6711
18132
15100
12099
4040
26348
-18255
31276
9769
13474
11567
12330
3248
25503
-6030
28717
15779
5929
8064
8724
15000
23839
-1298
24652
10822
-2340
15911
21746
24510
23720
22605
5483
16540
-298
12652
12594
13386
20616
25468
-995
22390
-5074
-803
-671
11627
9080
31483
-17595
15354
-7229
527
-1466
5226
683
32759
-23000
4981
-11356
-2846
-4404
-615
-6717
32071
-28661
5279
-14112
-14921
-9852
-4385
-15253
23636
-32642
-2855
-7430
-13200
-11481
-14092
-22561
14386
-31874
-7122
-12292
-25512
-26010
-19928
-32705
-2013
-28598
-14896
2332
-19120
-19395
-24122
-24504
-21752
-8330
-20690
2833
-10579
-14900
-14753
-13826
-29706
6515
-17538
1332
-5632
-9562
-10847
-15640
-28793
4573
-20484
20800
800
2387
-23595
-658
-32760
17889
-13823
6587
6459
6673
3532
18239
-27221
26547
2701
12078
1188
2065
964
4882
-28689
32390
-4951
14690
27881
27017
11772
27116
-8063
30512
11944
13472
17867
18688
14142
24345
-8530
29544
14170
-5781
13419
13237
27000
23709
22616
3966
18259
6267
5655
10581
12410
21666
24581
2859
22061
-6643
1597
-816
15552
11863
30543
-10047
21182
-14577
-1587
-2119
9699
4536
32451
-20078
11581
-14053
-7568
-4361
3471
-5596
32285
-31043
161
-16228
-10104
-10909
-3188
-17541
24812
-32759
-700
-5661
-12305
-10448
-12537
-23154
22614
-32143
-6359
-3792
-17316
-18359
-25181
-32662
-2617
-25698
-17159
-3730
-20525
-18174
-21531
-31011
-7567
-17833
-27489
7712
-2909
-9386
-27886
-11841
-30552
8426
-14040
-4431
-2853
-8181
-1906
-5729
-32262
19007
-19685
206
3310
-2371
-15
-4545
-32450
16584
-14989
17037
8386
7001
-5402
1350
-31660
27686
-16340
27056
18482
21697
-787
17174
-27905
31018
-1055
11344
13043
16538
13433
18235
-23835
29292
4458
6410
22200
25474
20608
32739
1350
24199
16012
5831
16665
18378
21861
18897
19450
18355
26164
-898
19918
21188
24994
19714
26172
1339
20838
-3043
-1184
1219
10424
8151
31736
-5689
11873
-7780
1854
1200
5186
371
32764
-22998
9329
-7715
-2565
-2412
790
11041
29094
-26779
14695
-20889
-25244
-23954
5766
-11522
30674
-31496
6197
-17169
-23777
-23086
-10686
-28582
5359
-22959
-23378
-21087
-7690
-18866
-6383
-19767
-3754
-22722
-14345
-5814
-24438
-29536
-14187
-32745
-1198
-17687
-22837
10211
-14970
-9612
-30150
-21608
-24632
-182
-19247
9690
-9127
-14497
-22768
-12892
-30124
12534
-19108
6596
3541
513
-4164
-14112
-29572
10767
-12693
18743
10546
10681
-11154
7868
-31808
27649
-5970
5363
9908
4594
5595
21956
-24322
32059
3440
18698
15007
12117
5086
29827
-13563
31564
6834
7126
11010
12032
15501
21327
3603
28472
9635
5698
20646
26847
18784
27230
13796
20508
12548
-3095
24437
18206
27243
17276
27842
-7752
22483
4270
587
3913
5783
17910
27438
-1226
16630
-20379
1842
-855
15399
8295
31699
-17476
12639
-13903
-6333
-6441
9175
5275
32339
-24870
16529
-15056
-20308
-17937
542
-7743
25426
-32170
6223
-16225
-17409
-24004
-8499
-22943
23393
-31720
-6460
-412
-12100
-16540
-18601
-32765
-259
-19985
-17366
-8676
-13128
-16463
-15542
-29576
-14103
-14809
-16524
2561
-14409
-16238
-20183
-30526
-11909
-11726
-23365
20010
-5098
-7388
-30552
-16864
-28094
8912
-21145
10704
935
1694
-11566
-4231
-32492
19660
-11396
5711
5635
1940
-722
8510
-31642
25996
-2922
10954
1704
8234
2877
15556
-28838
26092
3028
8966
9452
9162
10714
18347
-17710
31803
7886
2594
15682
10172
14753
29334
-1873
30545
11858
1866
14179
23029
21033
27586
17682
11915
19020
3969
13494
15617
18734
26618
16860
21366
21576
-19573
5939
10222
31131
18346
27149
3850
21117
-25623
6652
2250
27097
10009
31200
-10036
19509
-12451
-9529
-10113
3968
-6157
32183
-26294
7244
-9357
-7530
-7102
-3764
-19214
25023
-32385
-4984
-8046
-6080
-7423
-6813
-28053
14351
-31950
-7270
-9362
-12275
-11648
-14383
-26821
11131
-25585
-20471
-1620
-9203
-13810
-22049
-31595
-8682
-21163
-21204
6708
-12221
-15098
-23211
-19392
-26412
-118
-19807
900
-5021
-10186
-12647
-5231
-32346
13342
-12509
2430
-5215
-12229
-11555
633
-32760
21655
-15544
9973
756
-1640
-4247
11178
-30801
28593
-1625
9243
-815
3555
2969
15249
-29002
29566
-2459
11724
12184
11957
8531
20561
-11339
31583
7600
24173
22120
25049
10810
13193
-14476
29205
3088
-745
26027
20638
25450
30904
10890
13920
16482
-1237
5895
11678
14717
17085
27960
-2488
15649
3383
604
9095
4079
12793
30166
-11608
17112
-1265
367
3447
8567
4855
32405
-15587
12624
-9906
-676
-3454
7750
-7103
31987
-28297
11983
-14839
-8075
-6056
187
-18373
27131
-26473
613
-15406
-7523
-12216
-4559
-9461
31371
-28007
5415
2241
-24242
-24229
-16255
-22462
6820
-30531
-11894
-852
-13060
-10840
-20152
-32436
-4640
-20419
-24995
7295
-11415
-19115
-22510
-21725
-24528
-2464
-18983
4876
-11042
-13180
-15658
-12693
-30208
12294
-20618
-918
72
1123
-2774
-14100
-29577
9226
-16248
13391
9814
6223
-5398
65
-32766
29348
-11140
12572
9008
10466
2702
17206
-21191
32688
-2267
17893
11635
9968
2174
24761
-21460
27769
5464
13875
15890
17779
12727
19317
-8005
32390
4955
3685
20303
24190
21632
28538
16101
19331
19574
6775
15074
16002
20029
25562
20499
5670
15446
-4955
2913
8079
12827
26372
19446
826
22341
-19536
-3360
-3494
17102
10977
30873
-13571
19027
-19371
-5827
-1321
14579
1202
32744
-21291
4251
-8907
-5956
-6945
-252
-19298
26480
-30195
-2562
-11022
-4997
-6413
-5156
-18021
13414
-32505
-4127
-9575
-13259
-12883
-10776
-26452
6048
-27074
-13233
-11615
-17734
-26278
-19572
-18137
116
-27135
-11824
5142
-16192
-18881
-26780
-22480
-23839
-5936
-21329
973
-9572
-10899
-17880
-19467
-26356
-769
-26242
10862
4240
-2216
-18279
-17019
-27999
9401
-17282
12118
7924
10450
-7044
12731
-30192
21588
-3301
6509
-1654
-1023
1852
10047
-31188
27913
-5476
11375
11372
14111
8731
23072
-19807
32764
-398
11512
14739
12270
16115
25038
-3934
30636
10547
12034
22221
27885
17207
27009
16840
26242
15728
4851
16446
24631
21609
23587
22744
6349
17430
-1525
9056
10067
16330
15699
28760
-513
19184
-6202
2465
3478
13502
9295
31420
-11657
14671
-14007
159
-3152
9424
3964
32526
-19307
18038
-19470
-13420
-11836
6431
-11800
30568
-30028
6966
-12460
-12098
-12045
-7699
-21060
18966
-30501
-11972
-13116
-11372
-12740
-9067
-32728
1580
-20755
-15816
-7403
-7241
-10789
-7660
-31568
-8780
-17759
-26370
-2067
-7395
-14505
-15136
-20949
-25195
-7566
-21224
-1489
-4626
-10306
-12480
-19020
-26681
8601
-21535
5666
-1238
-2472
-11022
-7425
-31914
17981
-21583
10983
4010
67
-6664
8200
-31724
23232
-5393
6006
-1251
1415
4004
12346
-30351
27216
-2791
5020
6288
6554
11813
15792
-22867
32721
1727
1670
11213
11972
15045
29858
-4294
28625
15944
12214
10365
18841
16217
31634
5261
27526
17775
-1276
6836
11638
23699
20053
25913
3840
20516
1887
7348
11292
8088
22296
24011
5458
17462
-15073
-277
7030
19857
14066
29593
-10020
17706
-8189
-7167
-5779
4432
6070
32199
-21265
17350
-20220
-10304
-14667
6324
-1411
31616
-30734
11359
-13953
-19019
-17356
-8386
-20294
23717
-32438
-4628
-14527
-14914
-11987
-16816
-22609
10706
-28524
-16124
-12527
-14976
-25598
-18302
-23420
-549
-26634
-19085
645
-15363
-20481
-24466
-23532
-22801
-10029
-26907
3210
-8701
-13735
-17476
-17868
-27466
-718
-23188
7950
3030
-5615
-12061
-9762
-31278
14866
-19639
5424
5016
4572
-254
1153
-32746
24019
-7758
20359
3451
4528
-6212
797
-28114
29999
-13179
14154
18106
19071
3925
22764
-20783
31258
9826
9859
8102
8847
9442
28301
-5308
30531
11895
7828
10175
11251
14974
28627
9388
26527
19234
1431
12410
23662
18855
31892
7518
25195
16589
-14669
6032
6183
29192
18714
26896
-910
21432
-12051
2179
10763
15998
15425
28908
-12145
19982
-9516
-8886
-5182
4287
-2328
32684
-20330
9430
-5461
-4866
-1787
-4819
-4815
32411
-23577
7610
-12788
-15038
-12590
-6217
-12876
20319
-32732
1509
-11496
-16210
-17613
-12609
-31511
8983
-21552
-16118
-9652
-10904
-11806
-8950
-28553
-12635
-23058
-23280
-12599
-24694
-23965
-19074
-21313
-24887
-464
-24831
-7591
-1635
-10892
-8237
-17299
-27828
-97
-17213
3906
-3137
-5783
-14648
-8517
-31640
15756
-13441
2982
752
786
-865
-2824
-32645
23950
-15774
8886
8313
6375
2580
14309
-24405
32321
-5382
26573
5621
11872
1961
23012
-23325
27997
9954
12470
8006
9978
7991
24332
-9045
30654
11573
4723
10406
6275
16521
26785
6468
28845
15543
1771
14713
14969
19961
29776
13675
18294
20337
-6799
10447
7075
22576
25054
21116
5445
24450
-12189
-1185
-2895
15157
14163
29547
-5240
18071
-17499
-583
-3096
13784
3582
32570
-17400
15767
-23551
-9320
-4895
9060
-4682
32430
-28894
4485
-12762
-10327
-11322
-7907
-13984
29633
-32575
-35
-5411
-14975
-14842
-13709
-31453
9184
-26728
-13576
-12868
-11923
-18825
-11578
-32540
3849
-25509
-17822
5382
-9681
-12817
-20309
-25183
-20963
-3099
-29017
-5129
-3793
-12211
-13944
-19649
-26221
1970
-27515
1868
1234
795
-10513
-12515
-30282
5388
-17560
17195
247
-1019
-13523
-9038
-31495
20966
-19489
26496
11317
9519
-11297
7705
-31848
26858
-8268
16873
11021
12639
2406
15051
-29105
28259
-617
10713
14688
16597
12537
32762
530
27523
16800
20745
10453
11397
7401
26754
931
26650
19063
290
12885
17653
17443
26194
19685
6907
22393
2664
8737
10439
13543
17156
27916
-3151
20040
2263
-2129
2129
5966
12018
30483
-4964
19078
-10833
-4124
-1014
6270
-86
32766
-16268
10709
-11261
-3741
-2403
5253
-2135
32697
-26366
13539
-11440
-14561
-12219
-9922
-7555
21201
-32563
3648
-10582
-15319
-15242
-14526
-29504
11140
-32032
-6900
-12344
-13136
-16382
-17601
-32246
-5814
-15680
-16085
-4588
-4124
-7313
-9861
-31453
-9185
-21584
-20433
8926
-11599
-11780
-25134
-17813
-27502
5519
-15310
4763
-8341
-14585
-14116
-13608
-29807
7189
-24467
9036
3302
4086
-9118
3476
-32582
20751
-10779
11191
1600
-732
-1028
11063
-30842
27076
-570
8972
3315
3259
3815
17704
-22445
32732
1495
10152
9776
11284
7193
30192
-12731
29297
13007
6263
9774
7818
11635
30147
12837
18280
15773
10122
5630
11599
7995
22731
23599
24146
17848
-921
14333
24134
22094
19458
26363
5453
17279
-7696
4888
10230
14121
13637
29794
-11684
14707
-6065
-2967
2914
5564
9798
31267
-18337
18380
-13431
-8125
-10183
3245
5343
32328
-29050
13525
-16483
-16813
-16882
-4825
-24251
22035
-30126
-981
-9211
-6102
-6606
-7214
-27432
11450
-30150
-12830
-6816
-6837
-5811
-13209
-32363
-5127
-20331
-23887
-7876
-1031
-4738
-12742
-23563
-22769
-5202
-19585
-5940
-8410
-13944
-6681
-24261
-22024
2973
-28366
5311
-998
-4704
-14310
-13932
-29657
8874
-19288
8832
-369
-918
-11459
-781
-32757
18789
-13199
6476
3556
972
-2378
-3059
-32623
22908
-12019
10736
13640
13926
6192
1823
-20293
26061
-12318
21820
24444
22662
7053
17642
-16667
32392
-4938
7715
20869
25056
16254
21608
-7180
31350
9530
1823
20756
15544
24577
27912
17163
14387
21735
1349
10801
13299
15963
23439
22896
2002
19963
-1915
-92
753
9698
8449
31658
-6224
12945
-5546
2054
6768
8041
4282
32485
-19002
11669
-11786
-4241
-284
4932
-2948
32634
-28736
5730
-11272
-10756
-4706
-2761
-11183
29855
-32752
984
-8384
-10276
-15043
-13324
-23750
13927
-29734
-13767
-16035
-12049
-12808
-13198
-21746
13168
-28599
-11455
1918
-17253
-23988
-22321
-27964
-17078
-16155
-26034
478
-13670
-14455
-15410
-21590
-24647
-29
-19995
3551
-5377
-12549
-15056
-6546
-32106
15313
-17974
-2741
-395
-3716
-1862
-3648
-32563
15298
-14324
13023
6292
-2161
-12120
3647
-32563
27408
-12064
8362
11243
6704
3766
19174
-26570
26638
440
10356
6721
6649
8682
27635
-17605
31002
7856
9502
12039
9432
15437
21317
-8698
30905
8907
3940
20935
22431
23885
24132
13636
21263
24930
-2185
12370
17980
17702
16670
28209
-4518
14375
5257
2306
8882
3861
16296
28426
-4
18554
-11912
-1787
65
9816
14683
29292
-12914
16627
-12770
-8610
-9592
3391
-1909
32711
-26607
4463
-10941
-9211
-3976
-4199
-11032
29093
-32705
2004
-11454
-12886
-12716
-9825
-24057
16557
-31740
-8137
-9663
-8627
-10366
-17568
-23934
6104
-29265
-14738
-2784
-10174
-16398
-21405
-23636
-22693
-7145
-20278
-9566
-4498
-16145
-7279
-20015
-25943
167
-22064
-4726
-3395
-8239
-14999
-15812
-28698
4518
-23865
13162
-752
-4503
-17400
3110
-32619
22417
-8366
3389
-2810
-4610
-316
4163
-32501
27439
-8519
2556
7581
3128
8694
19167
-26575
30772
1508
10280
4290
6988
8374
23595
-14084
30792
11203
6304
5595
5552
12373
30296
-4561
30896
10912
5925
14615
22485
19057
28456
16245
14323
16881
7207
9251
20250
17635
24941
21251
6882
15924
-3814
3831
7357
17258
12390
30334
-6443
11668
-2559
2547
3095
6817
4288
32485
-14857
10139
-3751
-3639
-247
-2660
4388
32471
-21520
13333
-10672
-11723
-13155
-1541
-7133
31981
-29817
9660
-13182
-18176
-17408
-10539
-15970
16659
-32749
1069
-14848
-22363
-23002
-12622
-26517
7801
-29114
-15034
-3175
-9627
-12491
-19859
-30114
-12915
-22894
-18718
639
-7714
-14110
-18306
-24652
-21585
-3283
-14602
-453
-3644
-4269
-12803
-11475
-30691
6421
-18868
7714
-1585
-11366
-15411
-10376
-31080
14926
-15009
12283
8328
517
-6252
-3846
-32540
22264
-21559
11652
16770
14251
803
8440
-31661
29072
-6795
14113
14312
13835
13327
26675
-19029
27359
8859
4310
4552
7424
11887
23985
-10817
31794
7923
3817
16170
19635
23521
32102
6564
22603
19307
-1981
7219
9607
22434
17704
27572
770
20537
5032
5519
7937
7456
13860
29691
-8408
17508
-2657
-2653
3957
2310
8749
31577
-14821
16075
-11957
-5121
-513
3782
6721
32070
-20283
10622
-7032
-12371
-10008
-2884
-12837
29274
-32648
2787
-13890
-9822
-12509
-5543
-29971
13244
-22955
-18756
-19528
-1445
-6961
-6252
-30627
6339
-26678
-19023
-1936
-443
-3863
-16544
-22402
1972
-26663
-13724
6662
-18439
-20356
-25676
-28323
-16475
-12723
-17584
10144
-6807
-10507
-21992
-12949
-30099
7325
-19210
613
-1405
-1255
-5282
-19806
-26103
11773
-24632
19951
8562
10255
-20376
2261
-32688
21953
-15454
21917
8972
6093
71
14300
-29481
28903
-2767
6603
5871
6298
11968
27428
-17925
28562
11582
6785
570
3880
12604
24964
-9037
28406
16332
7413
14428
18647
15960
23350
-800
29888
13429
-8833
15146
19881
24049
22084
24206
169
18927
-449
6919
12641
7435
8917
31530
-8159
13409
2403
758
9270
3142
11458
30698
-12772
19330
-9889
-6399
-2759
7306
3879
32536
-20452
13742
-8755
-10559
-9284
-3561
-6183
30263
-30381
12274
-25392
-16801
-20490
-7983
-18395
25485
-32518
-4031
-7481
-12163
-12644
-16181
-27883
7247
-29567
-14121
-9831
-11807
-16479
-16780
-32564
-3637
-21978
-21044
2758
-1727
-7777
-17565
-23585
-19531
-13868
-29687
6637
-10550
-15485
-21561
-12762
-30179
10164
-16683
-984
-953
-4788
-1219
-8287
-31701
16871
-15959
-162
2968
3851
-204
-3736
-32553
21955
-13558
13586
7499
9087
-1195
13774
-29731
27951
515
8109
2823
5252
9359
26476
-19304
30086
6936
14237
10268
9597
9477
27740
-5228
29418
14429
7698
7232
9611
15625
27871
17228
17055
17006
6478
3896
10522
8578
24257
22028
4903
20397
3267
497
13750
14353
22835
23499
930
22321
-13533
2809
1408
16725
9335
31409
-15594
13882
-6487
-1268
-1828
415
4130
32505
-20314
12228
-12444
-9290
-6215
-536
-19844
26074
-27546
-6049
-14281
-2150
857
-2264
-17079
20516
-32659
-2650
-7054
-9889
-11054
-13274
-13521
15366
-31968
-7191
-8306
-20723
-19199
-23542
-29831
-13556
-11559
-22970
-8608
1213
-3966
-7008
-24001
-22306
-5877
-17637
-3778
-7717
-8384
-12714
-13884
-29679
9039
-19839
1145
-681
-8865
-5344
-7976
-31781
13430
-20693
5036
2831
2554
-2048
2911
-32637
19160
-11338
8426
2770
4013
3664
8868
-31543
26293
-4647
9407
10006
7601
6981
19389
-26178
32461
4464
10595
14123
12399
11795
26930
-6022
27343
18056
4925
-355
3897
13154
17902
889
24956
7193
-333
23301
26043
19884
25113
21047
5110
19149
3173
2153
5277
9571
20485
25573
-2787
17592
-3132
2526
-1447
8117
15154
29051
-10500
20250
-12289
-3844
-3360
10670
1221
32744
-18811
12506
-15134
-5476
-5721
3883
-9910
31232
-29315
5637
-9299
-8472
-7303
-8679
-13362
24926
-32607
3230
-12677
-16756
-18772
-15161
-17963
11096
-32457
-4495
-10869
-19704
-20589
-19936
-30900
-10900
-20154
-22031
-7163
-6600
-12115
-12419
-27097
-18422
-12000
-26042
-367
3361
1560
-11537
-20941
-25202
-12710
-26077
21310
-11279
-5805
-23799
-6587
-32098
12383
-16960
3712
1972
-1579
-3570
-6823
-32048
22686
-20040
16605
10143
10724
-3957
5565
-27916
31028
-10531
15067
14797
8987
6072
24807
-18626
30598
11720
8819
1897
686
10187
21546
-13760
32117
6491
5767
15515
20548
16687
29369
-2112
26583
19156
2516
10635
12091
24377
26290
19556
18810
22239
-726
3162
13056
21510
21136
25038
465
18706
-7798
208
10308
16104
11098
30830
-12406
16483
-7395
-2401
-1875
-3192
-3289
32601
-23652
7583
-9202
-433
662
6085
1562
32729
-26729
8217
-16251
-12777
-19362
-1433
-10707
29410
-32299
5517
-17767
-22375
-19791
-16264
-17604
21044
-32635
-2933
1482
-16933
-16787
-20958
-32760
630
-19347
-14716
-808
-5930
-11508
-17159
-31850
-7696
-18837
-17514
9784
-7736
-7431
-21831
-16698
-28192
6362
-20896
1647
-1203
-10008
-8927
-15890
-28656
9238
-22125
10498
4603
3500
-8292
-4923
-32394
21522
-15796
13630
7644
6115
-4357
14418
-29424
28933
-3343
13809
4085
1258
6852
15119
-25134
32029
-6913
7462
14642
14647
12296
25232
-10350
29887
13431
12468
9845
11592
14927
25906
-6651
30147
12838
-3885
11214
13785
23664
27562
17719
11860
21412
819
6527
13224
17548
14833
29217
-3010
17760
-967
4342
10345
8505
12823
30153
-4745
20372
-10076
-187
-2796
11596
-4881
32401
-18386
10070
-5542
247
-661
4330
-6554
32104
-27422
8109
-6610
-7709
-10633
-6310
-15434
26930
-32731
-1526
-8317
-9587
-10301
-16776
-19139
13429
-30118
-12904
-7241
-12281
-9538
-15114
-29827
-13563
-12345
-24617
-15800
-6250
-9013
-5231
-27916
-17157
-12043
-21395
-1003
-11565
-12577
-16184
-25398
-20702
-9296
-27072
14871
-560
-1536
-15249
-9958
-31217
8732
-19391
13057
1512
-5784
-6616
1937
-32709
22357
-11319
6631
3318
-1895
-2366
3888
-31468
30783
-11226
26086
12852
12849
-138
18998
-26697
30912
229
9445
6446
13715
12107
18815
-23097
32651
2747
4759
20928
18962
19806
31078
10382
27144
17942
7233
8969
11873
12402
26430
19367
21171
24196
354
12600
16347
22316
13919
29663
-4482
16552
5833
1989
6895
4859
20654
25437
-3117
22636
-18428
-5641
-2348
13203
11869
30541
-20218
14766
-10159
-9439
-8505
-1501
-1836
32715
-22626
14047
-17194
-13570
-13190
-5509
-16486
28317
-29463
-557
-21388
-16582
-15097
-8473
-14600
17014
-30213
-12682
-12060
-16644
-18579
-14967
-29345
4095
-26973
-18603
-358
-13093
-7598
-17632
-29786
-13654
-17303
-21564
2865
-7135
-10277
-17521
-22343
-23967
884
-20853
2702
1422
-911
-5767
-17017
-28001
5719
-20845
7824
6022
3467
-6852
-15023
-29119
12377
-21492
16491
12668
12506
-6632
15957
-28618
22810
2467
5845
-554
-4657
4361
20512
-25551
26709
653
11822
8928
5887
10744
25596
-20457
31333
5766
3645
11661
12014
18065
32751
-1021
25116
18448
3188
6941
8741
16544
30030
13109
17742
14452
-1765
14084
16852
23181
8129
21141
10967
7501
-7601
17440
21504
24723
13207
29987
-7818
19195
-9989
-47
2492
10140
14505
29381
-15450
22630
-19605
-11048
-11721
8389
-1452
32734
-26693
11352
-9209
-11185
-9973
-9295
-19655
26217
-31536
-3258
-5752
-6862
-3965
-10991
-10675
15649
-32548
1509
-12878
-21099
-26945
-18644
-27885
2565
-22934
-23402
-2428
-4607
-4138
-14348
-32720
-1754
-22977
-22629
10313
-8803
-11017
-27699
-19358
-26437
1967
-26192
2233
-5783
-10200
-12943
-22885
-23450
-2393
-28164
23105
5563
-364
-24531
-8574
-31625
15849
-22244
15523
10085
6349
-5715
10293
-31108
27837
-4980
707
2629
1497
8996
10766
-26362
32318
-5404
10951
11991
14909
13058
11212
-21933
32689
-1355
12914
25676
25734
20283
22764
-5813
26858
1333
7164
21397
21424
24792
30629
11641
18803
17280
-236
11572
10167
20907
21848
24419
4585
21168
-4234
952
5828
11415
10870
30911
-12679
17454
-1614
-1134
2791
2976
-1107
32748
-18726
8019
-3968
-3030
5739
-1922
13102
30033
-14281
20024
-22149
-20626
-23611
4704
-17481
20004
-32476
-4351
-9561
-4809
-3861
-7905
-21573
24662
-27158
-2164
-11767
-17209
-13777
-23016
-30026
4527
-27140
-18359
-5070
-9224
-12115
-19893
-23608
-22485
-20456
-25596
-10902
-14461
-22107
-23204
-19795
-26111
-645
-22149
2462
-4555
-8105
-8087
-19421
-26391
3625
-19430
12874
2243
-541
-11213
-5820
-32245
22573
-12781
3826
4264
2624
1833
10095
-31173
28335
-6482
5211
5205
-353
8197
20881
-25040
32703
2031
11262
4430
5728
8849
28458
-9836
31103
10307
10441
5744
8523
9045
30608
-2490
24057
14948
19074
21133
22989
23348
31034
10513
18258
20459
-802
4387
7689
18179
22527
23794
8139
22009
-3734
787
4040
12577
14906
29179
-5907
17347
-6778
-1500
1790
6317
4605
32441
-17346
13235
-7345
-2495
-1810
2138
-5496
32302
-26479
10332
-13951
-6826
-7022
-4331
-16294
27676
-32722
1706
-8830
-7679
-7587
-13495
-19195
19164
-32657
-2671
-12470
-11726
-18647
-21087
-32280
-5627
-22679
-17315
-9899
-3202
-9621
-11148
-26880
-18737
-21834
-23908
718
-10272
-11803
-12109
-27050
-18491
-14457
-29104
11093
-2426
-12760
-30003
-19902
-26030
2388
-28126
12728
2377
1668
-17318
-875
-32755
20836
-12712
7900
960
-1871
3315
7519
-31892
23532
-6385
4074
3738
2479
5562
12365
-27587
32743
1243
7263
8560
3813
15149
21665
-18958
31975
7157
5852
5726
12810
17038
24034
-837
30352
12345
9627
19322
20897
18123
31142
10188
18154
25244
1766
-201
2112
17539
15039
29111
-1206
21037
4831
-214
7916
1625
21642
24602
1472
21076
-18075
-4693
5905
19255
7428
31913
-10612
15346
-13397
-4370
-1385
9336
3058
32623
-22885
8982
-11796
-11447
-8274
-3116
-17052
27980
-30436
2521
-17365
-7992
-12023
-9749
-21585
24652
-31168
-9138
-16616
-15033
-24234
-15948
-29620
-760
-25745
-20269
-7653
-1825
-5475
-13320
-32763
471
-25609
-17514
7267
-15605
-14694
-27833
-26799
-18853
-10809
-29832
10463
-5909
-12190
-24183
-13139
-30017
2541
-25644
10572
-1915
-1837
-11201
-14014
-29618
12023
-19630
10448
11527
6687
-2298
-6603
-31397
29645
-13958
7444
13801
10409
4980
11005
-28135
32558
-3686
13457
14085
12014
7175
16477
-21831
32559
3679
6577
12790
9460
20862
18365
-10819
31321
2826
1276
16171
21850
24417
30451
12099
21266
23185
2515
4851
8706
16824
30743
11337
15439
27051
-14675
-786
1377
21379
14303
29480
-2929
14781
-5627
1187
2127
5608
7439
31911
-14643
10983
-6512
-2956
-1224
1281
3553
32573
-24594
15927
-25043
-13816
-11837
544
229
29218
-30259
12572
-11679
-22581
-18121
-8205
-19726
15724
-31866
-7627
-7057
-5613
-8227
-14208
-32377
5039
-26003
-16717
-7499
-8856
-8288
-16632
-29987
-13207
-17693
-20413
-4184
-4389
-7714
-15555
-21212
-24974
-2902
-26012
540
1615
-4532
-4710
-19303
-26477
-781
-22320
10864
835
384
-13445
-12569
-30260
14941
-22491
9152
10660
4116
-1433
-4357
-32475
19386
-19750
19548
11088
14932
2076
18603
-26973
29120
-336
10916
5983
3456
8908
26528
-18497
31123
10248
5576
3770
5312
12254
29649
-2341
29774
13680
13891
11114
17963
19853
31501
9019
18261
15631
3424
7218
10679
19583
24484
21775
1992
24738
-2302
6115
12806
13864
19970
25977
3442
15937
-14139
2189
7356
21439
2783
32648
-15594
11780
-8928
-1263
5081
1858
-392
32764
-24468
7790
-9201
-6687
-4208
-4258
-10867
30912
-32233
2535
-13137
-8290
-7858
-14062
-14637
18629
-32635
-2937
-19054
-18840
-17810
-14921
-26377
14982
-29433
-14398
-2266
-13929
-10153
-20085
-29556
-14144
-15543
-24052
-5406
2769
-3767
-9887
-27510
-12741
-12078
-15450
8827
-17731
-14067
-29593
-17354
-27793
1706
-18800
7141
-2465
-562
-10048
-3201
-32610
16165
-18988
3639
2924
-418
-2216
-3921
-32531
24558
-21323
15985
10446
14014
4757
10293
-29235
32542
-3825
12442
10427
9643
9237
24901
-20771
32106
6547
6826
7544
5242
15365
17438
-10971
31792
7933
5728
15258
15481
22488
28598
15994
9436
17007
11540
5306
10262
8833
25865
20115
7505
20008
-1215
-469
5116
11882
15906
28647
-2293
18670
-6209
3278
4051
11680
2545
32667
-12651
17460
-11814
1178
3190
7317
2058
32702
-17070
11626
-8153
-8648
-6354
-5257
299
29611
-30521
11921
-12405
-13939
-20492
-10854
-27459
15915
-28616
-15961
-3783
4623
3126
-10352
-22576
7783
-30649
-11588
-4753
-9618
-13071
-17432
-26964
-14366
-17886
-27454
-9224
-11389
-6344
-11659
-24713
-21515
-10296
-24728
3678
-2910
-7781
-11893
-12636
-30232
9559
-14239
1165
-2362
-12452
-6997
-10555
-31020
16932
-20317
12552
5686
-1220
-7702
5958
-32220
29443
-8127
5533
2316
594
4101
10166
-31150
28050
-647
5318
7785
3277
12470
16532
-23463
32579
-3499
7184
11937
18481
15490
27423
-9955
31086
10357
2759
8430
7318
18854
30334
-411
28808
15611
-2820
9825
10300
25728
21673
24574
5460
18592
3468
10590
7432
9134
20886
25247
-3482
18247
-2705
-4492
113
7329
154
32766
-21056
15469
1944
515
5264
-965
7871
31807
-20680
13945
-15087
-12335
-7848
35
-8331
31689
-31964
5604
-8562
-10314
-7561
-10180
-16180
19134
-32506
-4122
-6324
-11391
-7603
-11953
-25457
2536
-29911
-13377
-14370
-11623
-13483
-14230
-28181
-16717
-19466
-19542
-8858
-7636
-15087
-9611
-27288
-18138
-18189
-23037
5484
-9946
-11620
-22036
-18981
-26708
1458
-20831
3903
2091
-4767
-12157
-9790
-31270
15633
-18083
7520
4545
-434
318
420
-32764
21873
-16762
6362
7666
6361
3263
736
-32274
28539
-16098
12232
17990
16540
9207
20028
-16303
32594
3362
13130
9087
8251
11469
29410
-8407
29867
13475
6668
4623
6377
16914
32765
-326
25578
10958
1129
12666
11078
26056
28740
15737
10701
15366
-4110
5808
8459
15720
18036
27356
-1740
17308
-1909
-2665
1096
3261
12903
30119
-11311
18016
-17046
369
2532
15938
2006
32705
-23345
11219
-11420
-6019
-4290
-2845
-8548
31632
-26431
9316
-7764
-7214
-12769
-8077
-21748
24160
-31526
-8929
-7614
-6276
-4840
-13608
-25154
11428
-30944
-10774
-8724
-10734
-8219
-21318
-32405
-4854
-23616
-11934
-1729
-8607
-12469
-18102
-26299
-19544
-4291
-19500
-4428
-1591
-1818
-9590
-22672
-23656
-4709
-26786
14776
320
-2880
-13563
-6642
-32086
12194
-13475
9074
-891
-4485
-3021
5266
-32340
24764
-10113
4559
-331
1050
5621
-792
-32757
27401
-9240
10513
11458
15239
15260
19019
-20204
32165
6250
8568
5312
5011
15196
21394
-11669
32349
5214
3563
13442
8537
18255
28006
164
30369
12302
2057
16809
18869
25847
23732
22592
3740
18106
4593
1355
3353
3707
16994
28015
-589
17909
-7129
3727
9622
9732
4255
32489
-14315
13963
4385
-1928
1300
-3038
-3121
32618
-24930
10778
-5308
-2284
-1806
-8379
-2112
29766
-31689
8334
-6024
-12020
-8999
-12062
876
29412
-30186
11890
-6839
-20647
-26670
-19036
-22459
8114
-31763
-8046
-6854
-9929
-8138
-17570
-16940
5726
-27801
-4076
1560
-25622
-22216
-24085
-27179
-18301
-18212
-22793
3622
-4945
-8133
-17149
-22313
-23995
-4967
-24386
14118
-4919
-8019
-18942
-11441
-30704
10638
-20218
5983
5529
1134
-3960
-7335
-31935
19688
-16224
4106
11051
7203
5837
14953
-29155
32499
-1126
14741
5636
1512
3689
23644
-22024
31636
8532
3515
692
-122
14686
22539
-12190
32110
6525
9380
13116
16041
18556
30357
8266
29942
13308
4867
8766
12001
18774
28629
15937
11782
16593
-3037
5799
7377
12951
20667
25426
-2710
19747
-2403
-2050
1945
6427
7050
31999
-15345
10301
-2249
34
4465
-982
4018
32519
-16962
11853
-7941
-9892
-1304
-3522
-10851
30917
-29064
2477
-5532
-5907
-1548
-9285
-22028
17988
-31636
-8531
-7735
-195
-7327
-8306
-20289
16598
-32406
-4845
-11434
-20656
-16557
-21546
-18929
-8740
-29328
-14611
-6105
-10327
-14497
-16803
-30186
-5011
-25608
-17837
12827
-10337
-14423
-29421
-23862
-22455
-192
-20460
5473
884
1926
-8496
-11838
-30553
12961
-20025
11153
-1149
846
-5818
3480
-32581
21913
-9626
-32
517
1650
6766
3964
-32526
28521
-10601
13015
10676
11811
9451
14107
-17013
32745
-1178
7524
10254
6810
12172
24584
-9777
30810
11153
5164
2030
5672
16432
30259
4139
28423
16302
7810
14716
13102
21289
29840
13536
17534
19611
-677
10011
12833
24284
15621
28803
-6604
16861
6027
-1592
684
-2103
14288
29487
-7650
17803
-10963
-2769
159
7624
-1324
32740
-23535
12830
-7970
-1816
-976
-5015
-8734
31581
-28669
2108
-20275
-8977
-3423
261
-22839
23494
-32002
2472
-14320
-15139
-8039
-7406
-23206
6316
-31702
-8285
-10513
-8467
-12885
-12601
-27511
3830
-25831
-20159
-3476
-10378
-9397
-20490
-25325
-20791
-10445
-29572
-5266
143
-5598
-10519
-15808
-28701
-2902
-18775
4926
-6927
-14497
-15184
-5720
-32263
8951
-16951
-179
3384
-4260
-842
-2782
-32648
22416
-13947
1478
8959
78
7065
15956
-28619
24331
-189
5719
-2186
-1988
10399
18574
-26993
32325
4556
5836
4447
3868
16326
23284
-16102
32713
1878
11148
12312
21385
19843
30611
-7486
29771
13686
2694
13060
10712
26400
24869
21334
19092
25999
4430
7500
7276
16263
18750
25083
7278
21949
-11661
8732
22485
23834
4310
32482
-10935
13755
-6433
2820
12766
8735
2531
32669
-19258
13026
-5562
-3980
-2495
-1558
-3556
32573
-28758
8114
-5004
-9936
-4987
-11036
-8012
23528
-32633
2953
-9972
-12038
-14165
-14348
-24667
13793
-29202
-14863
-9659
-3461
-5967
-16724
-25318
-2962
-24466
-21796
-14750
-14092
-18132
-18007
-27754
-17416
-12432
-24840
-2226
-3804
-5865
-11488
-24450
-21814
-8352
-20822
11694
-3564
-5036
-13529
-16467
-28328
11583
-22144
4197
6810
3222
-1440
2542
-32668
18105
-8772
2533
371
-1805
7507
7594
-31874
24367
-5338
8524
6297
1686
6467
13101
-30033
31933
-3300
11620
14197
11846
14650
32130
-6428
24393
18860
10037
-1214
-4801
7230
26298
-4292
30944
10776
4912
14212
14174
24074
30085
12981
18346
24599
2194
2343
6957
18731
19557
26290
1982
14185
-1451
5632
7265
8616
10918
30894
-8353
15828
-4753
1173
3041
5803
5816
32246
-20165
16224
-8624
-5205
-3606
3911
395
32764
-24651
10725
-7511
-10705
-9156
-8074
-22520
21033
-31988
-7098
-6587
237
2311
-12892
-23747
10911
-31649
-8484
-11918
-5599
-12596
-14726
-23245
2512
-28945
-15356
-6705
-14480
-23149
-19178
-30979
-10673
-18531
-21989
-807
-11387
-20177
-23627
-21342
-24862
-694
-19036
-1473
-1178
-5030
-9095
-6492
-32117
8914
-17170
7094
-907
-10435
-3114
-15942
-28627
11664
-23158
15109
14327
9847
-3496
4974
-32387
23064
-8110
-1282
6593
3264
10132
13863
-25494
32708
-1961
8304
7661
7108
13884
31408
-9335
27085
18259
13280
-2729
-875
13316
24011
-8058
31135
7077
3890
15674
21912
24362
27364
18023
13284
18751
5090
4538
6346
9936
24631
21609
9091
23203
-7425
-186
3000
11108
22777
23555
-4552
24118
-11578
-6090
-4830
10811
6979
32014
-16696
10693
-5686
-3483
-2555
-4293
2565
32666
-27927
12354
-16013
-11456
-10651
-7110
-18081
27326
-28833
-1125
-3155
-5168
935
-14384
-16546
18988
-32713
-1879
-5591
-14855
-11348
-18754
-21940
1907
-30527
-11904
-4802
-9736
-9392
-20265
-25380
-20724
-18589
-21821
-4542
-6610
-12165
-12067
-21344
-24861
9
-18527
-2817
498
-244
-4295
-15085
-29087
6675
-23651
5013
3277
554
-6502
236
-32766
22181
-14324
-1366
2931
-975
5848
6012
-32210
27896
-8926
14458
5218
5023
3719
16568
-28269
31652
583
5738
6241
5018
10860
22395
-23918
31078
7835
14103
12024
13096
21509
31251
217
30407
12208
11102
14012
17658
18927
28144
16780
11869
21500
8966
5
5612
11550
24117
22181
2947
17454
984
-3407
1208
8712
5086
32369
-15180
12852
1895
3923
9158
-659
2641
32660
-20079
10434
-3646
-2577
2468
-5174
-4263
32488
-26018
5509
-11064
-6672
-511
-9037
-8759
31574
-30291
789
-12119
-11289
-8942
-17695
-21959
13681
-30455
-12088
-5859
-5372
-350
-13188
-25309
104
-28137
-16792
-11247
-9989
-10053
-17694
-26864
-166
-28801
-14351
6641
-17670
-16762
-28155
-22040
-24246
-5594
-24358
2631
-2070
-5570
-10057
-5217
-32348
8623
-15755
-422
-5021
-7979
-6056
-3797
-32546
19005
-15178
3835
4595
-186
1798
7980
-31780
28473
-4132
758
2588
-2299
10222
13235
-27682
32485
-4289
9627
9826
9378
10591
22439
-14968
32735
-1427
13674
15745
17746
11131
26006
-4581
28322
16476
7888
10677
8661
17539
26138
11580
20613
25470
7473
11256
12840
21866
26557
19193
2688
22316
-1750
-3826
2775
10149
22054
24233
-947
27131
-12130
-4052
-300
17243
4633
32437
-14158
16350
-5408
-2262
-2549
318
588
32761
-24038
9042
-5693
-7844
-5557
-6139
-2727
31219
-31701
8287
-8499
-18350
-13087
-12474
-28525
16123
-31034
-9603
-7651
-4133
-1145
-14093
-26504
9787
-31450
-9194
-4284
-13969
-9116
-22261
-29878
-11667
-16686
-28200
-9837
-11609
-17274
-20422
-20567
-25508
69
-26980
-4448
1332
-3116
-3886
-16327
-28409
6446
-21310
9246
75
-10184
-15361
-13594
-29813
11917
-19152
8693
8596
6918
-4306
688
-32759
26356
-18991
14707
9795
9953
4631
8296
-29932
32287
-5587
12674
13552
10859
10790
16399
-19348
32751
-991
8147
12066
13096
17461
25173
-11481
31048
10471
4271
9531
10439
23403
31852
7134
22072
24217
-762
1942
609
15245
23627
22702
9912
20688
-3315
4684
6433
11648
10917
30894
-6889
13305
-4639
3450
11417
4884
12572
30259
-7593
12673
-9380
-7522
-2532
3447
14953
29156
-19288
19071
-20813
-19065
-15886
337
-10629
30994
-30756
8873
-11053
-15564
-9082
-10353
-18509
18648
-32345
-5239
-10798
-11307
-10687
-15644
-32763
457
-25921
-19753
-13504
-2575
-8323
-14397
-26007
3279
-25925
-20038
4245
-8936
-13921
-26913
-20319
-25706
-10404
-24880
1741
-8346
-10917
-12203
-18251
-27213
4826
-21450
7954
3523
-2907
-5710
-2645
-32659
18151
-13718
8383
-2653
-3124
-1701
5578
-32288
26675
-10401
6618
6595
-1492
9666
14675
-29296
26541
-9595
14417
11414
7793
9251
27432
-16901
31443
9217
13025
4492
6927
11420
27518
-9615
30959
10733
6519
10958
11279
21437
28104
1778
28212
16665
-4686
4651
7743
20722
24569
21679
6766
23913
-646
5843
5212
11886
17893
27449
-48
18046
-8274
3512
5158
12151
6689
32076
-16715
10352
-732
-2442
2690
-289
-188
32766
-20624
8755
-13275
-4689
-6258
-2324
-16037
27017
-32754
-915
-4989
-1871
227
-13919
-12618
21481
-32692
-2211
-7832
-13011
-13048
-15700
-22898
6546
-31230
-9915
-8705
-12109
-11706
-19248
-29320
-3809
-24036
-21372
-6025
-15826
-19345
-26446
-26698
-18996
-13960
-22061
2531
-5931
-15783
-24506
-15282
-28984
779
-17703
4494
-1831
-2977
-6287
-6875
-32037
15949
-17918
4768
4219
-1025
-1619
523
-32762
23579
-15823
9512
8780
4661
3855
15013
-25678
32702
-2053
10054
5841
2792
9875
23239
-22157
31792
7931
9367
5662
5767
17041
26942
1249
29838
13541
9537
4011
4953
13314
30388
12257
19827
20763
9189
10253
15149
16188
26225
19643
11765
18073
1445
1451
1172
14436
19136
26598
-5042
19419
-4479
-1815
1909
3465
2025
32704
-16537
9486
3506
922
2338
-3438
-4392
32471
-21685
8414
-8409
-3011
-513
-1054
-8260
27341
-31833
7764
-6954
-9206
-4736
-16099
-20411
15273
-32052
-6806
-7358
-3379
-2941
-15124
-32565
-3624
-24211
-16642
-11751
1304
-3895
-9145
-25904
-7900
-22929
-23407
-2560
-4881
-4867
-14117
-26967
-18613
-8207
-25530
2235
-5089
-6501
-12685
-17063
-27973
-758
-20578
3876
649
-2179
-8110
-6322
-32151
15351
-13165
3161
2397
-3608
-163
-6723
-32069
20082
-18175
22338
10883
9565
-1060
5214
-32349
25684
-14770
14056
17802
11032
9519
25498
-20579
28681
7576
2344
-447
-1053
16279
26951
-9657
30215
12677
-545
1850
3637
15686
32097
6592
22833
16415
5151
4567
10402
19412
23576
22756
10391
13715
3263
5567
12116
14576
11605
30642
-1900
13243
2662
-869
6871
3663
10863
30913
-17445
18144
-3158
-5862
-7
104
5128
32363
-24045
16082
-7050
-10928
-4983
-8410
-1292
32741
-28588
9747
-11048
-17713
-8382
-11906
-14678
22660
-32766
192
-7941
-10651
-9721
-18493
-22370
7973
-30299
-12474
-11918
-11256
-8963
-18296
-28955
-5688
-27838
-17282
-4652
-11687
-17251
-20654
-26772
-18891
-8661
-20599
-1703
3640
-2198
-8653
-16328
-28408
6319
-18379
-4501
4554
-1713
-587
-9425
-31382
16484
-17363
1996
5858
-6
3828
-9405
-31388
15363
-17392
13139
10980
11363
743
6174
-30131
31581
-8733
8280
8281
8665
14513
12303
-30369
32085
-4742
12310
18654
15740
20570
27727
-10797
32234
5881
10387
12777
15850
20045
31395
6486
24112
22186
6573
6258
15525
19081
26993
18575
14961
16226
-69
4140
9050
18009
17994
27383
-2917
16918
-2610
639
4811
6088
18630
26955
-7723
18778
-10343
-6595
-5268
5991
65
32766
-24572
14774
-2219
-7073
-1822
-4984
-2715
27021
-31532
8909
-7218
-11083
-8315
-10604
-21486
15690
-32340
-5269
-6220
-1071
-1378
-13168
-30808
10679
-31694
-8314
-7541
-13498
-6858
-15101
-22457
2033
-29539
-14181
372
-7693
-13863
-23303
-29539
-12965
-20611
-25472
4667
-5091
-4221
-20964
-20527
-25540
-1002
-24507
6035
1933
-6437
-11474
-7296
-31944
9608
-15971
2921
1495
-878
-1988
-1582
-32728
22401
-16652
7159
6256
4395
3250
11228
-30783
32126
-4067
-1134
4268
1124
11732
18940
-25052
32555
3717
17079
9647
10720
13459
17432
-14503
32758
755
4240
15173
12832
21628
31779
7983
23787
19962
5718
2287
2412
13841
25384
20719
6345
20280
6233
-213
11008
10978
16356
28392
-6915
16592
3889
-2125
4643
1154
7333
31935
-11298
16768
-8192
-775
5297
2861
-9150
31463
-25033
6576
-2860
2203
6842
-4907
-13861
29690
-21444
-3707
-8851
1038
2364
-11977
-17621
17946
-32571
-3577
-9365
-4113
-3502
-14698
-20624
5620
-31282
-9752
-15514
-11669
-11587
-14813
-25967
-9087
-28052
-16932
-9501
-7498
-15286
-18213
-28386
-13036
-22470
-23848
3195
-4170
-8457
-23368
-21994
-24288
-9753
-21095
9714
-4399
-4607
-17470
-9179
-31455
14301
-15898
2436
3079
-3635
1071
497
-32763
22089
-9092
15765
-2463
1340
-2155
11632
-30632
26791
-3470
3643
2936
2298
10459
10807
-28386
32579
-3498
8132
12004
13704
19034
19277
-6807
32599
3304
11683
13106
14645
16417
31970
7180
21541
19196
9278
4064
2857
13328
27878
17217
23040
19009
-759
6411
8703
21446
17795
27513
3462
19533
-6334
7505
10877
13858
12714
30199
-9183
21003
-9701
-1321
-549
7109
7819
31820
-22933
15276
-9764
-6456
-6382
-1477
-930
29320
-30852
11037
-8882
-11016
-8853
-11401
-18703
21320
-32756
-838
-16331
-8797
-9586
-10279
-26292
12962
-30933
-10805
-2359
-6303
1098
-16904
-31508
-8404
-17129
-27933
-10037
5761
-2889
-10307
-27280
-18150
-15845
-23090
-1261
660
-2148
-11642
-17851
-27477
3058
-20059
-3778
1923
-2296
-3924
-16183
-28491
7890
-22056
4088
9400
5559
2463
-854
-32755
21987
-10922
6615
2801
-566
3492
7613
-31870
29984
-9380
11616
11063
3126
10819
22010
-24219
32302
5500
4427
547
-647
17966
22581
-19565
32307
5469
3255
11529
4604
21282
32342
3880
25393
20709
4829
3167
4929
13898
25740
20275
4715
21812
9123
6768
11186
11068
17371
27782
-3174
16346
5935
-2464
1456
1809
16707
28187
-7789
19157
-5538
-6383
-2919
3722
-4604
32441
-20551
6726
833
534
4111
-6050
-5165
32357
-29687
3022
-6148
-3937
-4069
-12291
-15615
24838
-32420
-4752
-9427
-4711
-6462
-14634
-26294
12667
-30413
-12194
-4424
760
-2309
-17486
-20799
-4420
-32359
-5152
-4777
-17065
-16840
-18498
-28461
-16236
-14284
-21043
-1007
-4921
-6179
-12166
-17014
-28003
3601
-22686
-5312
5360
-275
1938
-11132
-30817
6852
-21749
3609
5592
-1431
-3119
-7908
-31798
18941
-15893
7344
7712
4924
3117
6143
-32185
26375
-8712
15547
8401
5940
5706
15399
-28923
30111
-7211
15583
14248
10265
17016
27951
-10760
30231
12637
6565
-1896
-139
17271
27964
-2007
29603
14047
5827
16726
14571
20027
28961
15326
18165
17079
2619
6372
10762
19251
24129
22169
7917
19037
-3884
-471
1314
12379
12477
30298
-12895
16777
1804
-5891
142
-3430
3456
32584
-19967
9932
-5693
-4399
2263
-3488
-16276
28438
-29146
1613
-11641
-2238
7276
-5247
-19200
24265
-32452
-4525
-9212
-2837
-2992
-13844
-18648
7020
-30663
-11550
-8595
-4264
-4346
-13357
-31773
3304
-26954
-18631
-8114
-6124
-7639
-21221
-28114
-16830
-13597
-21476
-4529
-1268
-5066
-11791
-21305
-24895
-2085
-19883
1554
1338
-1161
-3802
-10549
-31022
8782
-20598
6279
2027
-5595
-4272
-2694
-32656
19874
-10991
1895
3968
-723
7727
12296
-30372
23403
-337
13563
-273
-1894
4403
18063
-27338
30350
1557
5966
5490
-195
16641
24595
-19036
32459
4480
7010
11160
5229
20783
27848
-2937
30297
12479
5708
11564
11073
20106
29618
14014
15137
21763
4317
2827
4543
15175
23147
23191
11968
17892
-5262
7137
12538
22657
12420
30321
-11498
16732
1080
-3723
1374
-1505
3792
32546
-21159
13236
-4538
-4493
529
-4295
-9249
31434
-26973
11071
-10909
-6393
-1756
-7539
-20499
25562
-32277
-2635
-10013
-347
-2678
-17343
-13615
14700
-32113
-6513
-4638
-12259
-6339
-14608
-19584
6179
-28155
-16760
203
-3816
-8774
-17177
-28022
-16983
-19189
-21453
-5948
-4135
-9244
-17558
-24273
-22011
-2182
-22533
-492
5605
-1498
-8376
-11424
-30710
9465
-22106
609
1914
-518
-3015
-1637
-32726
15457
-13042
2168
5946
-3175
4180
9966
-31214
26769
-8557
3872
2805
864
8584
6891
-24016
31340
-9561
15463
14098
13500
14014
14865
-21545
32761
587
4707
14589
12237
20895
28600
-5717
31444
9214
6528
17247
10061
23457
26964
18616
16555
17823
10599
4085
10950
16141
22871
23464
5514
21400
151
-3175
1947
8605
18065
27336
-4564
18066
-6343
-5376
-2378
2261
11316
30750
-17246
16407
-10577
-5627
-4810
-2177
-4496
32457
-24154
2836
-12902
-3106
-1947
-9061
-16857
24968
-32429
-4692
-11585
-3483
-3757
-12688
-27672
8481
-30126
-12887
-16201
-1964
428
-14222
-26183
10377
-31066
-10419
1129
-6062
-9065
-22706
-21198
-2415
-27069
-18164
3453
-10357
-17682
-27586
-14273
-29494
-5177
-23148
-4521
-2902
-10620
-9203
-9045
-31493
9624
-14711
-1645
3739
-5082
3228
-4126
-32506
16889
-19491
5341
7669
533
5444
3124
-32617
25040
-6981
8132
6959
1497
8775
12287
-23939
32569
-3588
9027
8411
7651
10628
23166
-21606
32418
4769
10719
11067
10821
19683
31386
-6193
29290
14689
6855
7882
9431
20957
26374
12122
27235
18218
4100
13332
11721
23284
25149
21003
5940
11384
-5160
5529
10470
11834
6854
32042
-15789
13999
3499
2938
7580
-3986
9448
31375
-9204
15140
-10888
-4619
-2547
4270
-4246
32490
-27568
10176
-8012
-7416
-1431
-10359
-12145
30432
-31070
4349
-9241
-10010
-6612
-14925
-15808
22398
-32570
-3579
-3887
-7584
-11076
-20899
-31661
-1052
-25614
-20434
-9918
1171
-469
-15551
-28416
-16315
-14758
-25366
-7325
-2277
-11945
-11076
-18589
-26983
1262
-25782
-7880
5832
-2847
-3057
-22436
-23880
-1788
-18836
15354
-942
-2467
-17338
-4457
-32462
16617
-14679
296
3578
656
4728
4270
-32487
24341
-8759
9642
5635
1068
8476
16337
-28403
31529
-5305
9358
7160
3117
16902
17369
-15210
32370
5081
11737
9347
8549
16234
16947
-1160
30624
11653
10353
14120
18244
15426
29703
13833
14298
20797
4983
5080
6662
9927
27895
17190
18603
21808
-11673
8021
5917
21731
19335
26454
-6609
21749
-10226
2309
5585
12770
7804
31823
-13890
13897
-7316
-6077
2226
1330
1395
32737
-27518
13354
-7632
-7257
-7244
-9328
-6707
31029
-32292
5554
-4873
-9835
-8815
-15960
-12681
23522
-32738
-1375
-4669
-13970
-10553
-19306
-21576
11762
-30866
-10998
-6105
-11994
-9618
-25331
-30753
-2043
-23979
-22330
1512
-10647
-11744
-22022
-21705
-24546
-9011
-19830
-1169
-1442
-7290
-10156
-11280
-30763
8704
-16984
-5960
3259
166
4535
-8392
-31673
17744
-17681
6099
4633
1122
160
8843
-31551
25210
-6571
1187
554
-2180
10718
12948
-29897
31412
-9323
13702
15142
7615
7498
26660
-19049
28868
5333
10252
3882
5032
15741
31964
-7205
28909
13234
11743
6378
9245
20902
30425
12163
13041
21614
11419
2817
4965
13548
21562
24672
1033
21995
6452
-2362
3359
4731
18286
27189
-9185
20196
1228
-5529
1381
2521
7827
31818
-14040
10936
-1568
-4359
2634
1495
-336
32765
-21582
11062
-9614
-5728
-3982
-6321
-20614
25424
-32765
283
-11042
-3531
1726
-8748
-14550
16398
-32654
-2710
-9286
-7137
-8209
-17405
-26446
5929
-32216
-5982
-8851
-10460
-13005
-20345
-28996
-13476
-24757
-21465
-8595
-13847
-18343
-18040
-26174
-19712
-7436
-22180
-527
6869
1280
-6672
-16113
-28531
4397
-13287
4073
-5758
-8237
-12225
-5581
-32288
13748
-17045
2625
4526
-569
3930
-3296
-32600
20752
-19483
10814
11998
7424
6831
8047
-30298
28218
-16654
17850
16852
12022
10325
13714
-27213
32743
-1229
8826
15804
11654
21156
28918
940
23906
22408
18295
1991
5517
12555
28215
16659
18210
24659
9436
-676
5693
8384
26326
19508
16996
19243
-3292
8473
11501
21154
16017
28585
-4580
15810
1023
1426
199
3064
7299
31943
-15129
16075
-1139
-6670
1331
-4405
9424
31382
-19723
13044
-8408
-10792
-8862
-6992
-11571
30655
-31713
3392
-9017
-5761
-6677
-11439
-23654
14639
-31717
-8227
-7457
-2173
1391
-12480
-19489
6325
-31131
-10221
-7688
-7228
-9260
-18607
-28730
-7165
-25360
-20749
-4069
-3960
-5653
-18529
-24294
-21987
-17360
-27454
1073
-5521
-10306
-17170
-17025
-27996
2640
-21464
4940
-2471
-3155
-6866
-9227
-31440
10770
-23866
3949
6771
4658
-152
584
-32761
23673
-14542
6115
11384
-1308
8761
10276
-31113
29547
-4094
3866
7198
1412
14400
23278
-19117
32756
818
11370
7576
5088
16014
27874
-7511
29921
13355
3226
1683
1019
15741
27038
14499
26101
19808
16386
12024
18295
21743
30674
11520
15425
18151
-5528
3498
14578
24270
17708
27569
-4935
21772
2832
-4182
-1681
1808
8781
31568
-18053
19338
-8781
-2519
4058
2931
2461
32674
-25176
13642
-6004
-6651
-4842
-7884
-5823
24842
-32395
4918
-16521
-10605
-6152
-6841
-18018
21330
-32727
-1616
-8596
-4618
-6064
-18718
-25477
8011
-29424
-14417
-4638
-3405
-3054
-14841
-29460
-14344
-20409
-22675
-7333
2312
-308
-8779
-26418
-19383
-12106
-24793
-788
1743
-4756
-12007
-12059
-30467
5950
-18827
-8073
-1012
-3243
-5297
-10946
-30884
12626
-16047
2240
5815
985
2266
2689
-32656
23740
-9152
-2095
4002
-1465
8416
13823
-29708
31120
-4570
4487
7277
-3202
14005
16622
-21811
32692
2207
3875
4753
5005
18336
14311
-15151
32615
3146
8015
17500
12484
25018
31453
9123
27927
17138
4557
9659
15601
16043
27318
18093
18934
25190
-1881
8529
13325
22923
21187
24995
2802
18266
-6702
2059
8600
16636
8677
31596
-7825
23598
-8410
-3023
-1495
3691
4231
32492
-19645
14528
-3688
-8111
-5380
-6446
-8289
29000
-32285
5594
-6486
-5712
-5295
-13739
-19723
18910
-32029
-6910
-6640
152
-2569
-16935
-19329
9077
-32214
-5994
-12456
-12256
-17365
-19057
-27734
-3689
-26647
-19068
-1250
-5247
-6059
-15490
-24023
-22283
-13783
-26443
-3066
-2780
-10503
-14850
-20762
-25349
-4601
-21891
8366
1269
-7862
-13426
-12640
-30230
10752
-17223
2084
5445
1579
-1954
4993
-32384
23447
-9335
1494
4121
-4539
9031
13453
-29877
25934
-3662
3177
4855
-1683
10138
15794
-22945
32643
2840
11998
9050
6001
18346
18864
-8102
32328
5339
7748
10966
9660
17567
26869
-1475
28627
15941
2959
13615
12278
22675
29805
13613
17829
22758
-2267
2138
5155
18651
13659
29784
-1133
16527
2531
-102
4733
2441
12059
30467
-9074
18134
290
-3267
-6097
-837
-2076
32701
-25174
10144
2653
-1746
-518
-10751
-10240
31125
-31538
8347
-7046
-5341
-4219
-16155
-13527
23266
-32636
2926
-2284
-9012
-6824
-17066
-24927
2411
-29476
-14311
-12181
-1733
-3351
-13615
-31294
-9713
-23809
-12135
-12131
-7345
-10999
-17441
-24619
-11793
-22103
-24189
4595
322
-802
-17298
-13100
-30034
6916
-16312
-5649
30
-6390
167
-6943
-32022
11198
-18206
2021
4020
-1780
4493
-2628
-32661
16292
-20168
16516
10091
1864
-1905
8750
-31576
29512
-7250
2883
7859
613
15447
8391
-19714
32746
-1153
18912
13945
14801
13087
23667
-12794
32005
7022
7974
7353
10358
20897
20849
-2616
31557
8819
-581
11552
9211
21538
26504
19265
9711
20336
6134
4018
9049
13803
19554
26292
-1326
17214
8
2350
3732
8179
4881
32401
-13233
13497
-2318
1555
8036
2937
9572
31337
-19622
22849
-15334
-11495
-8027
-4356
-12809
30159
-27520
4091
-8361
-4550
-100
-8177
-17323
25082
-32766
-100
-617
-4868
-1912
-18782
-20273
15972
-31688
-8337
-2677
-7934
-2114
-20513
-25910
-6859
-24918
-21278
-12004
-6377
-7935
-16552
-27066
-18468
-9055
-23440
-4659
2233
-5670
-10264
-13304
-29944
3825
-14807
-6558
1312
-2894
3151
-13980
-29634
9670
-26228
6265
7257
996
-6235
700
-32759
16133
-12076
7369
3533
-542
4471
9120
-31471
26148
-4885
3340
5168
291
13320
14171
-29544
28225
-1783
2027
6951
6983
18478
24295
-14952
31312
9655
2523
6167
136
18833
32713
-1874
27053
17905
3214
3171
6520
20425
25718
20303
8470
26497
7994
-82
5581
9652
18274
27197
1988
22832
200
-108
6306
10123
11747
30588
-10261
15836
-5758
-3009
2932
-370
-1681
32723
-22015
8356
-2879
-2915
4816
-6791
-13700
28865
-32722
1699
-789
357
3547
-12268
-16124
21970
-32762
-528
-7525
-6233
-1938
-15876
-20175
17321
-32367
-5101
2504
-6048
-6819
-17103
-32401
-4880
-21151
-24007
-7811
1609
-1402
-12798
-26134
-19765
-19921
-22483
-3141
-5402
-6116
-14275
-19023
-26679
243
-24583
-3192
3321
630
-3762
-6054
-32202
9911
-20033
-1070
3319
-1454
4598
1365
-32738
19279
-9863
1440
3468
-3682
6582
9379
-30555
31271
-9785
7032
6474
775
14261
19126
-26605
30370
-1757
5089
4561
2364
19220
18276
-16239
31828
7786
7288
9106
11720
18075
17195
-5910
31926
7374
5118
18226
13050
26306
28924
15396
17896
22455
2204
2271
6091
16901
24826
21385
6135
22769
-4938
-3884
642
9656
11418
30712
-10821
22830
1903
-8659
-907
-2601
-1460
32734
-21926
9014
1915
-2704
3513
-9424
-4375
32473
-27650
8054
826
-8795
-2051
-11684
-14088
24175
-32703
2033
-5068
-5539
-4539
-17869
-18184
15474
-31540
-8879
-5061
-10766
-3762
-16858
-32340
-490
-26748
-18926
-4880
101
-3313
-16979
-26306
-19535
-9380
-17465
-6943
2897
-4418
-6310
-19589
-26266
-4768
-19929
3267
-1719
-9211
-9061
-12080
-30458
8786
-16216
1103
2850
-630
1055
-1458
-32734
18174
-18381
2724
5073
2613
9277
11185
-30798
24465
-2990
113
2121
-3800
14146
14757
-24305
32756
-835
8667
6428
3753
17415
23285
-19297
32450
4543
10103
8376
10403
22596
27534
-6424
29136
14990
2436
7221
8698
22293
29318
14632
24290
18012
358
10434
11525
21486
21507
24720
40
22412
467
-4228
-458
2017
12410
30325
-7996
15812
-395
-2597
-240
-430
2087
32700
-16561
15556
-5179
-6795
1708
-7414
-2856
32642
-26484
9176
-5152
-7257
-4099
-13639
-6702
24577
-32516
4047
-8543
-11103
-10847
-15022
-21778
14255
-31683
-8357
-2676
-2005
-1086
-18976
-32766
214
-20006
-19866
-7520
4913
3933
-15423
-29386
-14494
-15273
-24826
-6843
1000
-4878
-16167
-15307
-28971
4271
-19763
-7847
2426
-3921
1521
-13971
-29638
3103
-26917
8979
6528
-1317
-4414
-12588
-30252
12424
-21372
9250
10229
9286
559
-3455
-32584
21227
-18755
15317
14844
12572
8040
7292
-24254
31184
-10059
6424
12553
8514
18599
17755
-20574
32765
-285
2740
10493
10809
20923
29137
-7427
28391
16357
1314
4766
7013
19327
27704
17496
21102
16986
4264
3061
9183
15730
21731
24523
11274
20988
-15
3786
4927
17434
13943
29652
-5961
22983
-5606
-1103
1549
5706
9519
31353
-18477
15961
-3401
-5978
-4429
-1293
-11127
30819
-27980
5062
1587
-29
2274
-12840
-8492
30065
-32290
5566
-6397
-11762
-7924
-18691
-25281
14931
-31104
-10305
-5630
-2433
1031
-15738
-31720
-5330
-28695
-15818
-21265
-11980
-14491
-19097
-31259
-9825
-19388
-17405
-292
-2650
-1949
-15953
-22008
-24275
-6744
-21165
2643
-873
-11954
-11186
-13553
-29832
7707
-19231
4804
2948
-6695
-6852
-7390
-31922
18193
-15910
5337
6132
1441
3882
4208
-32495
25811
-8363
3665
7173
332
13493
6531
-28903
32437
-4635
11289
12768
8189
17376
25177
-19971
32521
4002
4334
4442
2428
21657
26254
-387
27550
17737
5338
382
158
14650
28946
15354
13076
23027
8196
-2555
-1299
9892
23992
22316
13192
17661
-6864
1863
5236
11254
10113
31167
-12484
18342
3171
-1337
3481
-3588
9708
31295
-15620
18602
-2891
-10743
-3085
-5280
976
32752
-22339
12019
-10971
-9925
-4854
-6000
-12268
25646
-31816
7835
-18262
-14230
-8189
-11419
-24576
14597
-30371
-12297
-8676
178
1712
-17439
-32168
-6235
-24262
-18344
-9105
6441
3047
-10535
-30419
-12177
-21664
-19340
-287
5282
81
-12096
-25949
-20008
-12770
-24866
6186
-610
-5017
-15002
-16742
-28166
8454
-19957
-73
6721
-688
-1903
-7845
-31813
14210
-16269
3851
6159
931
-161
7027
-32004
25858
-10576
10974
1635
2052
12961
13245
-29970
29640
-3236
5044
8550
2699
13352
23716
-21267
32212
6002
2554
2908
121
21361
23995
786
21796
24465
14749
2655
3923
12271
28112
16833
17447
23143
9237
-3539
8560
12531
27783
17371
8412
23512
-1188
-1187
3044
16403
10605
31003
-5915
17469
-1700
3901
7042
6982
2420
32677
-20447
14940
-5824
-2813
6011
-3931
-6362
32143
-25689
7685
-844
-4298
1981
-13466
-15871
28178
-32765
-292
-5288
-2737
-895
-15665
-17066
17212
-32766
-126
-7292
-7083
-8071
-18874
-24013
436
-30571
-11792
-8999
-7820
-3336
-16600
-29774
-13681
-19926
-25160
-6275
6654
-324
-13154
-27693
-17513
-5731
-25073
1748
2703
-5058
-12826
-16425
-28352
873
-24422
5956
4161
-3368
-7601
-4985
-32385
19270
-13753
1233
5637
-4017
8151
-529
-32762
22173
-14926
8387
11366
3346
8185
7452
-29405
31844
-7722
4427
10842
7029
15282
30657
-11566
30738
5933
9414
32
-3041
13996
23217
-4810
31881
7564
7331
9399
11996
18258
28056
16926
18788
24738
12493
1401
4539
14309
24496
21762
20851
23103
-5761
6860
11677
21997
10546
31023
-4958
18429
1534
2230
4995
4868
14363
29450
-13145
17512
-4826
-7803
-4981
-1575
-4885
32400
-25025
12675
-3322
-5617
-881
-11119
-13263
27281
-32760
-672
-3000
-2717
451
-15460
-18635
21169
-32737
-1388
-5672
-9027
-2085
-20752
-18636
6497
-32361
-5138
-4458
-10111
-13703
-17767
-30163
-12085
-22918
-23418
-10646
-3984
-9878
-19387
-25989
-19954
-13625
-21897
-427
802
-5352
-17521
-10928
-30890
6081
-16539
-1574
1471
-7937
-1398
-88
-32766
16930
-12482
-2383
1565
-5138
6252
117
-32766
18789
-17521
5789
7860
7344
8153
8358
-31683
31068
-7531
7020
10757
6850
14051
15909
-21127
32706
1985
5956
8536
6779
17549
15024
-11634
32713
1871
2858
11734
11515
23474
29427
10366
24398
21872
9086
6766
9958
19439
19115
26613
7688
21718
8305
2344
3972
7306
16690
28197
-7907
18696
1701
-5488
870
-3471
8094
31751
-13851
14218
141
-6558
-676
-8562
-3204
32609
-27203
7102
-496
-2177
1624
-12157
-14732
28663
-32715
1844
-6096
-6208
2961
-14897
-18918
23963
-32143
-6360
-4211
-3726
-2458
-21307
-19856
13357
-32408
-4834
-10114
-14512
