1651 9 80689b40 0 13880 7
4108
-2851
-4708
1988
3649
27680
32766
119
4582
-294
-4065
-360
-8711
25226
29567
14122
3998
2376
-2993
-2730
-20452
20257
20510
25554
4029
3680
-2669
-4191
-27533
10106
6129
32188
1841
4635
196
-4761
-26818
-3093
-7319
31939
-236
5047
2064
-4201
-23729
-14388
-21461
24760
-2286
3823
3186
-2247
-15104
-23497
-30011
13152
-3995
1778
3823
-820
-2775
-28573
-32765
-325
-4905
1416
4455
1061
9389
-27244
-28899
-15442
-4316
-1911
3252
2691
19608
-20186
-19584
-26270
-4300
-2425
3478
3975
26788
-8921
-6922
-32027
-1394
-3619
-292
4350
27136
2609
8069
-31757
539
-4913
-2361
4967
23493
14516
20602
-25479
2961
-3968
-3503
3405
14768
23896
29499
-14262
4230
-1935
-4565
1229
3329
27898
32752
978
4971
-95
-4209
-1425
-8668
27653
28678
15850
4422
1489
-2870
-2743
-20677
19832
19436
26380
3693
3031
-2810
-3759
-26135
9543
5822
32245
1279
5760
187
-3958
-28323
-3475
-8924
31528
-948
4485
2293
-3999
-24190
-14851
-20944
25199
-2217
4575
2793
-2607
-13936
-24401
-29979
13225
-3627
3411
4169
-1034
-2125
-29223
-32719
-1768
-4485
515
4926
1558
9007
-26054
-29169
-14926
-5513
-1665
4578
3430
20633
-21184
-19756
-26141
-3297
-3777
958
4621
27379
-8570
-7422
-31915
-2629
-4376
204
5438
27788
3089
8312
-31694
566
-5789
-1921
4520
23885
15197
22038
-24248
2749
-4708
-2284
2548
14566
24373
30416
-12187
4545
-2323
-4048
877
3477
28390
32755
866
5225
42
-5185
-312
-9585
27701
29566
14125
4572
1699
-3333
-2306
-20044
20676
20112
25868
4764
3271
-2842
-4551
-27248
9857
5018
32380
2147
5630
-55
-5163
-28368
-3019
-8961
31517
-396
5765
2186
-5064
-23036
-14546
-21012
25142
-2787
3820
2875
-3602
-15260
-24110
-29894
13416
-4704
2664
4289
-752
-2041
-27665
-32764
-421
-5171
301
4717
868
8667
-26745
-28877
-15483
-5060
-1884
4541
4250
19996
-19632
-20257
-25754
-4097
-3786
2469
2982
27465
-8586
-6365
-32142
-1155
-4478
1324
3881
28985
3623
8575
-31624
665
-5190
-1420
4233
23183
15384
20898
-25237
2661
-5673
-3930
3091
15244
24749
30193
-12728
5081
-2139
-4935
2349
3562
28619
32765
-320
5475
68
-5318
140
-9194
27716
29074
15110
4909
2491
-4496
-3102
-18839
18954
19941
26000
3642
3936
-1695
-4801
-26254
9190
6443
32127
986
5455
-278
-4497
-27630
-3099
-8313
31694
-284
5763
2213
-5043
-24690
-15874
-20969
25178
-3176
5061
3724
-2997
-14854
-25713
-30084
12984
-5270
3668
5601
-708
-3089
-28358
-32739
-1344
-5177
909
4886
107
9237
-27447
-28737
-15743
-4513
-1818
3420
2233
19578
-20467
-18974
-26713
-3107
-4266
1950
2239
26757
-7962
-6589
-32097
-2181
-5146
1639
4779
28636
3939
8192
-31726
1735
-4601
-1086
3736
24642
15729
20865
-25264
3587
-4157
-3136
2807
15747
24673
30102
-12941
6000
-1151
-3949
81
2872
28171
32742
1255
5169
300
-3922
264
-10210
27683
29306
14655
5579
2345
-3478
-2580
-20111
19476
19543
26300
3161
3703
-3028
-3055
-27302
9804
5837
32242
1815
5268
-408
-5360
-27327
-2960
-8566
31627
-1023
5881
1950
-4293
-23252
-15894
-20464
25590
-2660
4499
2986
-2949
-14686
-24182
-30285
12507
-5095
3493
5296
-867
-2289
-28008
-32762
-550
-5181
175
5161
958
8972
-26820
-29528
-14203
-5167
-1717
4718
3137
20377
-19832
-19931
-26007
-3554
-3862
3777
4495
27716
-10322
-6734
-32067
-1162
-5068
1463
4125
27369
3361
8194
-31725
450
-5678
-382
4860
23915
16060
21315
-24885
3251
-3672
-3067
2593
14212
22973
29890
-13425
5469
-2005
-3884
901
2844
27781
32721
1730
6173
-169
-4942
-783
-8624
26391
28526
16122
5742
2988
-4024
-1311
-20671
20215
19248
26517
3158
3846
-3425
-2975
-27424
9901
5620
32281
932
5345
-635
-4260
-27101
-3183
-8571
31625
-1332
5152
809
-3553
-23479
-14560
-21967
24312
-3378
4895
3461
-2937
-14364
-24643
-29807
13608
-4760
3245
5395
-1689
-2923
-27980
-32754
-887
-5220
270
4872
-190
9127
-25772
-29410
-14446
-5614
-1919
3753
2331
20279
-19952
-19095
-26627
-3350
-4722
2321
3541
26915
-9765
-5829
-32244
-978
-4933
2136
3407
28066
2828
8416
-31667
1451
-6393
-980
4418
25480
16202
21237
-24952
3615
-4742
-3125
3046
15168
25356
29765
-13700
5050
-2172
-3294
1549
2874
28047
32724
1662
6929
10
-5463
-430
-9262
28288
28809
15611
4990
2022
-3373
-1698
-20204
21181
18366
27135
3586
5988
-1915
-4074
-27435
9603
6881
32036
1895
5389
-4
-3836
-26983
-3638
-9091
31480
-880
4564
394
-3947
-23743
-15629
-20510
25553
-3877
4275
3399
-3263
-15128
-23967
-29797
13630
-4478
4177
4923
-2026
-2496
-27326
-32719
-1758
-5192
457
4577
664
9466
-27291
-29033
-15190
-4912
-2059
3252
1604
19705
-20117
-18743
-26876
-3267
-5031
2050
3111
28180
-10506
-5731
-32261
-1628
-4797
1112
4379
27612
3030
8831
-31554
1666
-5308
46
3953
24266
14728
21244
-24946
4293
-4890
-3453
3712
15778
25416
29885
-13435
5419
-2994
-3702
2154
2822
29106
32734
1449
6791
354
-3884
-578
-9659
26778
28806
15615
4965
2772
-3854
-1467
-20216
20286
19183
26564
2787
5702
-2003
-3526
-27748
9241
6786
32056
2304
6476
13
-3898
-27225
-4533
-9557
31342
-2352
5925
2208
-3959
-24883
-14633
-21890
24382
-3703
5081
2975
-3762
-15267
-23778
-30388
12256
-5476
2114
4151
-1210
-3710
-28360
-32728
-1588
-5548
-294
5015
-493
9375
-26901
-29081
-15098
-5262
-2882
2485
1925
20364
-19706
-18560
-27003
-4186
-4354
3434
2995
26665
-8812
-5148
-32360
-1562
-5709
1419
4325
29496
3423
9375
-31397
1622
-4556
-536
4800
24360
14490
20854
-25273
3609
-4191
-2216
3187
15632
25224
30419
-12180
5416
-3029
-5543
1647
3386
28118
32741
1299
7227
-48
-4997
753
-9051
27829
28461
16235
5736
3647
-3505
-1861
-20840
20604
19331
26456
4671
5802
-2976
-4176
-25871
8777
6124
32189
495
5445
-838
-3853
-27345
-2685
-9147
31464
-730
6083
895
-3868
-22929
-15972
-21481
24743
-3260
5201
2708
-2855
-14160
-24916
-30166
12792
-5386
2444
4453
-2677
-3497
-29439
-32764
-393
-5694
265
5344
-408
8824
-26915
-29082
-15096
-6146
-2789
3855
1779
20056
-19195
-19653
-26218
-3557
-4502
4316
3834
26760
-9606
-6265
-32162
-1673
-6649
1023
4811
28493
3275
9145
-31464
1059
-5778
-749
5006
24136
15268
20494
-25566
5917
-4788
-2448
3108
15347
24585
30130
-12876
6822
-1402
-3708
1436
2920
28527
32766
20
5486
-309
-3796
1122
-10254
27322
28778
15667
5157
2851
-3523
-1507
-20283
19928
18928
26746
3531
5571
-2621
-3610
-26237
9947
5362
32325
1114
5238
-2046
-3800
-29906
-3882
-8039
31765
-1642
5762
845
-3456
-23127
-15312
-21298
24900
-4212
4418
2881
-3283
-17003
-24226
-30222
12660
-5973
2495
3591
-1275
-2933
-29036
-32711
-1907
-6375
-447
4738
-932
8327
-25624
-29233
-14802
-5092
-3022
2850
1806
20560
-19541
-19566
-26283
-4152
-4858
3028
2962
26524
-9592
-5427
-32314
-647
-6462
1732
4602
28337
3978
7918
-31795
823
-5458
1007
4178
23571
15538
21535
-24695
4349
-4832
-2503
3582
14963
24229
29895
-13413
6267
-2610
-4345
1822
3212
29485
32741
1286
7182
68
-4076
356
-9592
27076
28547
16085
6272
3560
-3394
-1797
-21367
20134
19150
26588
3781
5310
-2646
-3385
-28170
10025
5499
32302
1340
5550
-1920
-4132
-28869
-3747
-8556
31630
-1489
7496
630
-4798
-25184
-16045
-21786
24475
-4293
4764
1601
-3985
-15141
-24486
-29940
13313
-6387
2458
3605
-2557
-2713
-30028
-32741
-1292
-7190
-509
4942
-471
10086
-27016
-29260
-14746
-5832
-2133
4602
1478
20802
-20318
-19479
-26348
-4092
-5602
2272
2982
27305
-8629
-5801
-32249
-425
-7151
1653
4032
29476
4362
7356
-31930
1690
-4931
402
4441
25828
16014
21218
-24969
5057
-4794
-1510
3076
14123
23875
30256
-12577
6740
-2074
-3474
1848
3075
28355
32747
1143
6812
976
-4365
817
-8940
26683
29092
15076
6050
3746
-3039
-479
-20678
20094
18800
26836
4237
5268
-2408
-3009
-27726
9433
4544
32450
1495
6934
-1202
-3876
-28915
-3171
-9025
31499
-1639
7292
1143
-3694
-24189
-16628
-22039
24247
-4595
5325
2830
-3979
-14706
-24993
-30107
12931
-5623
1866
3725
-2958
-3940
-30078
-32753
-937
-6572
193
5312
-884
10357
-27321
-28890
-15459
-6211
-3032
4659
595
22073
-20106
-19759
-26138
-3763
-5028
3779
2134
26336
-8199
-6135
-32187
-1370
-7415
2664
4972
29255
4487
8657
-31602
2739
-5932
-172
3924
24311
15711
21437
-24781
4902
-4434
-1115
3713
14405
25148
29989
-13202
7510
-2354
-2625
2633
2137
29611
32753
929
6415
636
-3307
-82
-9988
27455
28369
16397
4966
5892
-2635
-2961
-24496
14887
12797
30164
2318
6731
-1838
-2813
-27939
2479
-1691
32723
-410
7583
-990
-5515
-26639
-9440
-15581
28824
-3562
6464
1337
-4239
-20344
-20683
-26722
18963
-6271
4018
3331
-3483
-8584
-26160
-32107
6540
-6713
870
3752
-2867
2985
-30381
-31554
-8832
-6701
-1651
5622
-644
15571
-24837
-24306
-21974
-4894
-5203
4128
2324
23735
-14293
-12747
-30185
-1889
-6454
2771
4064
27467
-2918
307
-32765
423
-6232
1987
3764
27107
9593
15987
-28602
4228
-5571
-1215
4525
20654
20456
26312
-19528
6257
-3144
-1940
2868
8900
27570
32305
-5479
6768
-887
-4093
2922
-3360
29392
31697
8302
7315
2134
-3882
-281
-16733
24588
24307
21973
5919
6277
-4468
-1913
-24272
15190
12114
30445
2757
6683
-2042
-3324
-29704
1812
-1751
32720
-170
7070
-338
-3991
-27020
-10629
-15975
28608
-2486
5859
135
-4535
-19747
-20741
-27119
18390
-5255
4430
2140
-2876
-8211
-29038
-32304
5485
-7019
1287
4056
-1993
4080
-29007
-31456
-9174
-5279
-1793
4937
-209
16265
-23805
-25723
-20297
-4946
-5165
4351
1978
25710
-15192
-12647
-30227
-2856
-6899
2862
3898
27527
-2026
1736
-32720
-5
-6482
1733
4296
26894
9957
16402
-28366
4098
-5840
36
5317
21805
21342
26116
-19789
6719
-3959
-3020
3007
9053
27619
32336
-5292
7051
-975
-4489
2258
-3406
29351
31681
8363
7415
2906
-3731
608
-16716
22834
24324
21954
5476
5093
-3666
-1091
-26089
15395
12279
30378
2387
7400
-2864
-3330
-28048
2254
-1426
32735
-532
7658
-470
-4821
-26348
-10850
-15190
29033
-4765
6026
1456
-3800
-19707
-20761
-26327
19507
-6949
3531
3156
-3339
-9625
-29009
-32381
5009
-7738
651
3834
-2125
4375
-29005
-31738
-8144
-7514
-2132
4413
104
16573
-24368
-24532
-21721
-4346
-4506
4255
1269
24736
-15039
-12707
-30202
-2073
-6962
2691
2182
30419
-2747
2279
-32687
1816
-7191
1006
2741
25990
9813
16391
-28372
4996
-6125
-1743
3887
21214
20881
26702
-18990
6839
-4043
-2360
2437
8384
27084
32351
-5204
7821
-1042
-3301
687
-4624
27767
31136
10206
8044
2039
-5349
-466
-16953
26116
24074
22228
5739
5230
-3585
-1695
-24192
15544
11780
30576
2331
7698
-2840
-3257
-29237
2100
-2681
32657
-603
7462
-1858
-3670
-27149
-9773
-16484
28318
-3493
6567
1021
-4625
-19935
-21633
-27069
18464
-7189
4169
3225
-3125
-9027
-26804
-32461
4466
-7092
1119
4219
-3063
4452
-29789
-31303
-9682
-6815
-2446
5524
-551
15422
-23589
-24608
-21635
-5342
-5109
4679
1340
25283
-14853
-12012
-30485
-1788
-7310
2875
3024
30098
-2452
1995
-32706
2122
-7717
2891
4076
28058
9976
16803
-28130
5164
-6329
-426
4167
20686
21089
27307
-18110
6899
-4593
-2769
4284
8943
28181
32510
-4088
7077
196
-2619
2552
-3761
28734
31003
10605
7408
2765
-3125
349
-17493
25123
23887
22428
4756
6180
-2656
-1317
-24692
14660
11072
30839
2507
6705
-3362
-3354
-28864
2310
-2636
32660
-1103
7199
-1519
-4551
-26187
-10106
-15985
28603
-4077
6497
587
-5065
-20275
-21021
-26911
18693
-6579
4082
2600
-3286
-8256
-27306
-32442
4600
-7804
381
4218
-1566
4502
-28528
-31521
-8947
-6808
-2506
4439
-552
17891
-24755
-24050
-22254
-4594
-5179
5195
166
25953
-14671
-12066
-30464
-1777
-7398
3034
3548
30289
-2763
1619
-32726
830
-7785
1663
4261
26336
10828
16769
-28150
4563
-5662
34
3398
18436
21518
26660
-19049
7390
-4048
-3053
3011
8354
27781
32351
-5201
8394
-70
-3315
1492
-4268
28877
31419
9299
7563
3476
-3510
914
-16896
24803
23264
23075
4594
6257
-3837
-1198
-24253
14326
12260
30386
2607
7578
-3955
-4703
-27718
1677
-1396
32737
-864
8098
-813
-3843
-27051
-11737
-16788
28139
-4070
6084
-4
-3821
-19670
-20961
-27363
18025
-7479
3637
2166
-3561
-8956
-27041
-32401
4883
-7565
686
4434
-2590
3792
-28570
-31423
-9286
-6806
-3085
4560
-1757
16160
-24053
-24280
-22003
-5406
-5936
4061
1466
26329
-14707
-12082
-30457
-1824
-7603
3226
3434
28502
-2032
1831
-32715
1589
-7701
2424
5117
27814
10326
15702
-28759
4819
-6434
-955
5285
20741
21683
26817
-18827
8088
-3662
-1546
4062
9300
28623
32498
-4184
8647
-578
-3202
2439
-4262
28531
31066
10419
7145
4298
-3937
722
-16299
25312
23335
23002
5078
6172
-3416
-1091
-24873
13578
12105
30448
2202
8879
-3078
-3716
-29446
2952
-2170
32695
-1634
7726
-1521
-4429
-26310
-10387
-16274
28439
-4633
6488
27
-5467
-18238
-19492
-27001
18563
-7427
4549
2982
-3972
-8055
-27927
-32308
5463
-7272
1160
3451
-3696
4570
-28501
-31038
-10500
-6207
-3477
5425
-1917
15562
-23977
-24567
-21682
-4712
-5502
4490
733
25897
-14450
-11622
-30636
-2280
-8008
4667
3615
30128
-2885
3802
-32545
1437
-8530
1585
3929
26839
11316
17174
-27905
5362
-6865
-5
4880
19218
21879
26819
-18824
7431
-3644
-1533
4669
8808
28573
32439
-4618
8232
-628
-3373
2661
-5676
28895
31035
10511
7250
3118
-3983
567
-16974
23406
23494
22840
5487
6475
-3458
-1569
-25830
14417
10385
31077
1909
8140
-3498
-3402
-29195
2098
-2774
32649
-2039
8172
-1613
-4243
-26593
-11458
-16541
28285
-4739
7192
1087
-4412
-19163
-21925
-27314
18098
-6947
3331
1992
-4731
-7852
-28761
-32432
4670
-8462
768
4595
-2962
4669
-28677
-31082
-10369
-8484
-3433
4893
-1479
16631
-23694
-22806
-23527
-4704
-6296
5211
72
25941
-14406
-11484
-30688
-1236
-8888
3821
1878
29939
-1456
3606
-32567
2812
-7653
3103
3261
27643
11348
17474
-27718
5451
-6543
849
4731
20400
22761
27580
-17691
7735
-3643
-1266
4608
8507
28730
32528
-3942
8953
-477
-3201
2801
-5261
29482
30764
11279
7980
3340
-4950
1792
-17840
24088
22977
23360
4977
6881
-3987
-1523
-25561
14754
11111
30825
3025
8910
-3347
-4151
-28569
1137
-3209
32609
-1555
8541
-3142
-5166
-27104
-11058
-16777
28145
-5407
6863
479
-4242
-18711
-22732
-27413
17948
-7957
3644
2780
-4608
-8426
-27995
-32461
4463
-8672
493
3906
-3006
5801
-29208
-30857
-11021
-7851
-3965
3939
-1990
18002
-23180
-22814
-23519
-3856
-6560
4485
380
24923
-13963
-11609
-30641
-1358
-8284
4614
2224
29184
-1224
3915
-32532
1951
-8937
2516
4522
28990
12522
17958
-27407
5579
-7033
604
4322
19229
21964
28564
-16054
7943
-3441
-1254
4427
7738
28798
32545
-3800
7686
956
-3774
3351
-4613
28942
30949
10759
8016
3303
-3575
1909
-18928
24001
22897
23438
4551
7176
-4225
-842
-26119
13758
10578
31012
2181
9159
-4203
-2609
-29867
1477
-4632
32437
-2171
8809
-2042
-4692
-26931
-11414
-17919
27433
-4850
7047
373
-4571
-20247
-22333
-28331
16462
-7458
3991
2434
-5651
-8262
-28797
-32612
3179
-8949
57
4909
-3213
5854
-30771
-31069
-10409
-7080
-3398
4608
-1542
17141
-23928
-23723
-22602
-4437
-7407
4464
1234
26175
-13669
-10829
-30925
-1590
-8122
4011
1903
29533
-1879
4755
-32420
2295
-8385
2788
3845
27183
11754
18467
-27067
5755
-6811
822
4738
19381
22760
27786
-17365
8402
-2772
-927
3388
7174
28260
32603
-3267
9209
-147
-3976
3010
-6585
28759
30883
10948
8025
4129
-4627
707
-16993
23041
22600
23724
6085
7016
-4859
-770
-26369
14152
9571
31337
2389
9081
-3242
-3279
-28660
983
-4427
32466
-1443
9137
-2744
-4282
-26557
-11395
-18482
27056
-5917
5558
135
-5132
-19748
-21826
-27740
17439
-8239
4052
2009
-4736
-7149
-28647
-32502
4153
-9211
-878
3582
-3124
6081
-28840
-30944
-10776
-7537
-4059
4713
-1901
16754
-22832
-22784
-23548
-5284
-7577
5214
813
26785
-13380
-10781
-30942
-1538
-8979
4511
3191
29221
-1090
4535
-32451
2166
-8687
2909
3252
27793
12144
18894
-26770
5581
-6428
1635
4215
18691
23796
28375
-16385
7943
-3501
-800
4029
7416
28932
32645
-2822
9872
1008
-3264
2288
-6404
30226
30856
11025
7552
4742
-4038
982
-18895
24437
22524
23797
4909
7226
-4017
-460
-26037
13071
10105
31169
2043
10105
-3130
-2978
-30506
1318
-5836
32243
-2091
8795
-2524
-4273
-26026
-11805
-18866
26790
-6046
6662
-649
-4948
-19326
-23056
-28222
16648
-9281
2924
455
-3725
-7126
-29692
-32643
2839
-8508
293
3280
-5161
5879
-28112
-30560
-11821
-7573
-4531
4659
-1254
17452
-23920
-22414
-23900
-4730
-7644
5718
104
26403
-13292
-10451
-31055
-832
-9195
4866
1943
30421
-1651
5185
-32354
2350
-8809
3852
4288
27112
13429
18499
-27044
6261
-7255
1355
4729
18731
23199
28654
-15892
8787
-3138
-610
4345
6541
28831
32626
-3030
9689
630
-3016
3894
-6453
28612
30460
12075
8738
4543
-3958
2061
-18134
23922
21359
24848
4616
7242
-5005
255
-24860
12423
9241
31436
1474
9403
-4090
-2069
-28776
442
-4668
32432
-2538
9515
-2512
-3991
-28083
-13362
-19169
26574
-7412
6984
77
-4741
-19725
-23138
-28526
16121
-8577
3841
1881
-4492
-6283
-28902
-32720
1752
-8768
-928
3215
-3647
6011
-28735
-30574
-11785
-8232
-4901
5788
-2359
18250
-23270
-22368
-23944
-4802
-7479
5644
-111
25836
-12183
-9632
-31319
-907
-9296
4513
2422
29442
446
5166
-32357
3074
-8951
4162
3694
26402
13102
19272
-26499
6132
-6152
1895
5278
18253
23693
28600
-15990
9223
-2298
-1266
4862
7522
30031
32729
-1562
10199
982
-3260
3975
-6677
29442
30040
13085
7798
3805
-4906
2161
-19459
23080
21575
24661
5373
9323
-4355
-1185
-24903
11810
8559
31629
1932
9380
-5125
-2735
-30100
-619
-6516
32112
-3490
8464
-2291
-3502
-26248
-12628
-19526
26313
-6217
6178
-1882
-5452
-17298
-22783
-28814
15602
-8712
3066
1194
-5593
-5477
-28706
-32716
1813
-9206
-1354
3483
-3298
7054
-28130
-30027
-13116
-8574
-4758
5510
-1997
17889
-21561
-21192
-24990
-4860
-8474
5338
-344
25636
-11167
-8737
-31580
-1229
-9940
3912
3399
28953
27
7212
-31963
3571
-8377
2946
5354
27060
13081
18849
-26802
6954
-6235
-384
3947
17431
23736
29232
-14802
9432
-2099
-894
5119
6668
29387
32764
-388
9976
1643
-3723
4117
-7554
28158
29844
13527
8670
5051
-5230
1795
-18972
23182
20594
25486
4755
8966
-4912
-483
-26711
12207
7231
31959
1955
9441
-3787
-3427
-28998
-1297
-6832
32046
-3206
8163
-2405
-5174
-26147
-13415
-19960
25985
-7322
5526
-1029
-4681
-17183
-22627
-28582
16023
-9031
2784
2213
-5939
-6436
-28521
-32758
751
-9726
-1474
4034
-5019
7295
-27576
-29833
-13551
-7103
-5190
5327
-2717
17981
-22320
-20787
-25328
-4030
-7715
5300
129
26655
-12781
-8097
-31750
-1141
-9692
5281
1924
29649
842
7430
-31913
3792
-8970
4128
3810
27000
12923
19907
-26026
7614
-6653
624
5257
18494
23144
29541
-14176
9237
-3453
-2087
5577
6542
29697
32766
191
9548
2031
-3311
3138
-7323
28809
29138
14987
8168
5605
-4199
1743
-18728
21886
20466
25588
4667
9258
-4789
-670
-27206
12168
7678
31854
1314
10002
-4823
-3480
-29506
-1036
-6788
32055
-3154
9729
-2679
-4546
-26225
-13693
-20689
25409
-8195
7131
35
-5338
-17577
-23282
-29207
14853
-10043
2448
1906
-4635
-5016
-28592
-32759
715
-9601
-1501
4589
-4439
7024
-29748
-29852
-13509
-8442
-5497
6134
-1951
18888
-22387
-20115
-25866
-3848
-8705
6188
404
27519
-12638
-7407
-31918
-318
-10468
4488
2854
29799
1305
7053
-31998
4131
-8456
3171
3707
26087
14068
19992
-25961
8428
-6860
730
6176
18093
22946
29356
-14554
10828
-2461
-1768
4421
5697
29283
32764
435
10648
2084
-4033
5061
-8356
29088
29668
13908
7957
6216
-4413
2341
-20260
22848
20218
25785
5682
9314
-4989
-1241
-27386
11839
6947
32021
360
10169
-4167
-2323
-29889
-879
-8088
31753
-3846
9518
-2751
-5172
-26054
-14127
-20496
25564
-8253
6202
-492
-5267
-18338
-24906
-29508
14245
-9273
2236
2003
-5198
-6419
-28486
-32763
-498
-9537
-2348
3767
-4015
7502
-28365
-29513
-14235
-8008
-6371
4807
-2674
20338
-22575
-19893
-26036
-4320
-9888
5850
-387
28442
-12190
-6297
-32156
-34
-9740
6280
3140
30267
1027
6859
-32040
4636
-8937
2810
3876
25488
13849
20515
-25549
7472
-6467
1537
5004
18047
24690
30062
-13036
10678
-2306
-1487
5623
5942
29428
32762
541
10197
2728
-2679
4188
-8763
28788
28980
15290
8142
6591
-4853
2162
-19098
22611
19405
26402
4462
9833
-5660
-666
-27165
12616
6680
32078
588
10198
-4650
-3147
-28754
-1523
-7344
31933
-3607
8926
-2906
-4902
-26290
-14151
-20574
25501
-7627
6152
-898
-4845
-16598
-23589
-29709
13821
-10178
2788
2239
-5335
-5685
-29178
-32743
-1234
-9470
-1723
3330
-5258
7910
-28774
-29528
-14202
-8434
-6048
6317
-1865
19519
-22939
-19709
-26176
-4703
-9973
5768
129
28259
-11973
-6404
-32135
216
-10515
5084
2676
30774
1379
7922
-31794
4970
-9030
3226
5206
26002
14035
20858
-25270
8325
-6821
2367
5170
17854
24984
30004
-13168
10593
-2508
-2252
5362
5257
29568
32766
193
11239
2371
-4051
4931
-7609
28274
28965
15319
7946
6924
-5171
1971
-19355
22080
20578
25499
4717
9960
-5860
-519
-28327
11391
5992
32214
-20
10669
-5184
-3600
-30137
-1515
-7375
31926
-4197
10012
-2262
-4388
-26352
-14180
-21141
25033
-7782
6334
-1795
-5236
-17263
-24971
-29866
13479
-9422
2611
2147
-6465
-5113
-29691
-32733
-1478
-10199
-2851
4524
-4435
8256
-29131
-29161
-14943
-7903
-7604
5493
-2148
20196
-22947
-20240
-25768
-3538
-9512
5592
-510
26892
-11471
-7160
-31974
889
-10646
5175
2636
30746
1950
7789
-31827
5060
-9628
3074
4403
26371
15624
21187
-24995
9109
-6480
817
5693
17031
24853
29680
-13883
11285
-2196
-1138
5720
5067
29538
32741
1284
10374
2058
-3927
5372
-9074
27784
28735
15745
8071
7152
-5068
1913
-20413
22486
19859
26062
5155
10284
-5026
-444
-27333
10154
6029
32207
-648
10309
-5266
-2273
-30459
-2232
-8121
31744
-4376
8790
-3471
-5375
-24843
-14332
-21236
24953
-8619
5654
-1870
-5816
-16415
-23488
-30090
12970
-9627
2193
1795
-5774
-4137
-28730
-32748
-1091
-10596
-2855
3856
-5342
8718
-27914
-29080
-15100
-9179
-7340
6268
-2945
20802
-22328
-19174
-26571
-4114
-9618
6585
-75
26499
-11062
-6208
-32173
727
-11717
6332
2163
29399
2923
8825
-31556
5438
-10363
3517
4682
26706
16322
20716
-25387
8985
-6510
1458
5370
16639
25229
30133
-12871
11220
-2347
-999
5806
3406
29689
32724
1663
11657
2700
-3802
4951
-9340
29862
28822
15585
8400
6956
-5346
2555
-20328
22370
19247
26518
4626
10137
-5846
-1162
-28916
11965
5400
32318
-675
11035
-5868
-2742
-30292
-2757
-8484
31649
-5158
9760
-2670
-4980
-27475
-15800
-21181
25000
-8147
6661
-961
-5346
-16818
-24903
-30059
13041
-10918
2240
2087
-6336
-4920
-30974
-32702
-2047
-10146
-3124
3866
-5365
9626
-29285
-28855
-15525
-7898
-7222
5553
-2676
20097
-21374
-19088
-26632
-4068
-10509
5510
345
28056
-10289
-5263
-32341
655
-10864
5870
2401
30644
2477
9032
-31497
5149
-10354
3635
4734
27326
15135
22520
-23801
9615
-6571
2368
6141
16165
25590
30107
-12930
12043
-1840
-2031
6159
5449
29963
32707
1971
10478
3083
-3242
4561
-8745
27533
28604
15983
9275
7801
-4977
2966
-20599
22544
17909
27439
4006
10450
-5656
-10
-28183
10813
5028
32378
-102
12056
-5838
-2587
-30764
-3351
-9372
31397
-4967
10345
-4374
-5494
-24740
-14650
-21710
24542
-8929
6446
-698
-5915
-16998
-25105
-30363
12318
-11551
2073
2065
-5988
-4319
-29394
-32712
-1895
-11093
-2556
4286
-4121
8871
-28037
-28776
-15672
-8261
-7151
5709
-2866
21257
-21537
-18704
-26903
-4287
-10547
7000
-492
28452
-10887
-5470
-32307
789
-11603
5795
2446
30216
2633
9661
-31310
5144
-9659
4768
4823
25989
16024
22167
-24130
9938
-6717
1865
4946
16454
25325
30530
-11897
12557
-1413
-974
6290
3247
30198
32703
2031
11887
3029
-3572
4653
-10104
28942
28442
16269
8946
7627
-5309
3180
-20518
21120
18464
27068
4847
11217
-6221
-313
-28165
10776
4687
32430
-178
11571
-7368
-2937
-30375
-2782
-9445
31376
-5546
9615
-4478
-4769
-26202
-15442
-21747
24509
-9788
6125
-1285
-6677
-15693
-25088
-30229
12643
-11632
1293
1738
-6943
-4840
-28506
-32685
-2308
-11587
-3057
3805
-5754
10299
-29456
-28555
-16069
-8565
-7784
5597
-3052
21292
-21961
-18535
-27020
-3981
-10489
7180
-779
27850
-10654
-4736
-32422
1473
-11237
5996
2867
30030
2943
8798
-31563
6308
-10099
4865
4736
25830
15523
21959
-24319
10080
-6782
1223
6208
16269
24974
30155
-12817
11171
-2014
-234
5983
3448
30140
32653
2722
11267
2738
-3132
4345
-9634
28400
28049
16938
9336
7505
-6089
2886
-21883
20734
18691
26912
5174
11070
-6914
728
-29220
9987
4091
32510
-894
12408
-5701
-2632
-30112
-3206
-9355
31403
-5879
9190
-4650
-5293
-25704
-14586
-21382
24829
-10401
6335
-1962
-6078
-16479
-25658
-30035
13097
-12167
1190
342
-6552
-3451
-30035
-32685
-2312
-10985
-3256
4763
-7056
8925
-28960
-28956
-15336
-8211
-8660
5749
-3632
21325
-23022
-18504
-27042
-4747
-11388
7078
-665
27364
-10725
-5310
-32333
1570
-11626
6868
2297
31442
3346
8855
-31547
6147
-10165
5325
5023
25867
15759
22166
-24131
9858
-6740
2534
5405
16015
24985
30709
-11427
11092
-1738
-627
6865
3782
29045
32679
2389
12140
3531
-2297
4498
-10138
28146
28418
16311
8859
7459
-5989
2830
-20701
21351
18767
26860
4611
11737
-7079
456
-28608
10540
4842
32407
-1199
11940
-6347
-2465
-30084
-2491
-9982
31209
-6095
10030
-4464
-4145
-25452
-15205
-22252
24052
-9791
6984
-2017
-4865
-15977
-24482
-30549
11850
-12192
1783
2240
-6574
-3773
-29618
-32743
-1251
-10421
-4099
3210
-6214
9730
-28014
-28640
-15918
-8996
-7308
6714
-4614
20928
-21135
-18489
-27052
-4332
-11698
8039
-945
29239
-10966
-5488
-32304
1205
-12560
6523
1786
30085
2445
9556
-31342
6318
-10408
5181
3622
25863
16256
22192
-24107
11045
-6384
2138
6199
16907
25786
30212
-12683
12518
-2083
-312
6438
3775
30382
32577
3521
11792
3593
-2589
5424
-9921
28927
27934
17126
7880
8785
-4715
3085
-21214
22476
19454
26366
3891
12034
-6707
266
-27985
11373
4977
32386
-402
12871
-5466
-2155
-30460
-2898
-10243
31124
-6339
10530
-4232
-4199
-25334
-15596
-22594
23731
-10133
6802
-1315
-6973
-16686
-24699
-30163
12799
-11703
1110
210
-7478
-4227
-31114
-32700
-2094
-12188
-4033
4375
-6275
9258
-29330
-28922
-15401
-8677
-8221
5946
-3695
20998
-21436
-18768
-26859
-3344
-11420
6685
-1117
28349
-10528
-5103
-32367
1947
-12250
6230
2106
29770
2208
8954
-31519
6869
-10173
5558
5188
25756
15197
21935
-24341
9963
-6865
1762
7054
16262
24293
30498
-11978
11929
-1684
-276
6953
4486
30106
32646
2805
12568
4081
-4216
5753
-9465
28205
28310
16497
8737
8445
-5158
3160
-20771
22309
17776
27525
4561
11424
-7878
-253
-28195
11625
5199
32351
-1036
12670
-6268
-2327
-30602
-2503
-9413
31385
-7086
10626
-4876
-5058
-26692
-16215
-21969
24311
-11175
7037
-2077
-6516
-16238
-25246
-30328
12404
-11485
1833
439
-6965
-4161
-29592
-32649
-2768
-11573
-3831
3945
-7472
9652
-28906
-28398
-16347
-8725
-8647
4750
-4556
21194
-21567
-18329
-27160
-4852
-11652
8109
-1237
28668
-9195
-5456
-32309
1662
-12241
7201
1252
31224
3363
9980
-31209
6736
-11318
5519
4533
26990
15911
22860
-23474
11013
-7552
3108
6742
17430
27170
30399
-12229
13137
-1435
-920
7000
3971
31396
32667
2548
12091
4228
-2870
6226
-9781
28331
28099
16855
8812
9052
-5560
4052
-21563
22912
18195
27250
3949
11422
-6167
378
-27037
10934
4489
32458
-947
13018
-6826
-1892
-30315
-3401
-10190
31142
-6434
11057
-5328
-4502
-25511
-15636
-22364
23947
-10584
6952
-1112
-6170
-15396
-24877
-30158
12811
-12476
1437
1225
-6954
-3984
-30018
-32656
-2684
-12573
-4161
4325
-6896
9652
-29249
-28242
-16614
-9091
-10264
5849
-4692
21376
-22383
-18213
-27238
-3827
-12499
6842
-1152
28514
-10391
-4712
-32426
1800
-12744
6534
1819
30357
3711
9869
-31245
7185
-10611
5509
4133
26785
16149
22842
-23492
10776
-6049
2930
6431
16408
24828
30577
-11775
13454
-761
321
7420
4178
29779
32687
2284
12569
3907
-3152
5844
-10131
29697
28010
17003
8951
8858
-5285
3805
-20914
21868
16732
28172
3326
11839
-6294
1358
-28059
9622
4224
32493
-1813
12907
-6588
-1386
-29431
-3018
-10443
31058
-6950
10611
-4773
-4543
-25199
-16157
-22007
24276
-11165
6863
-2717
-6474
-16225
-25339
-31063
10428
-12862
1112
872
-7898
-3892
-30229
-32698
-2119
-11992
-4498
3829
-7077
9954
-28359
-28238
-16620
-8847
-8842
5855
-4683
20862
-20749
-17310
-27820
-4591
-12868
7067
-1999
29665
-10127
-4312
-32482
1621
-13068
6894
1830
31440
3574
10655
-30985
8023
-11597
6268
5059
25873
16348
22930
-23406
11604
-7268
2169
6745
17208
27018
30795
-11193
13638
-1441
703
6488
2520
30759
32478
4340
12399
3982
-4072
6732
-9672
29174
27653
17576
8065
9589
-5516
4684
-21161
20970
17917
27434
1234
14035
-7691
-294
-31367
3834
-3400
32590
-4654
12312
-6617
-4290
-28525
-9402
-16656
28217
-10202
8840
-4382
-6195
-21717
-21503
-27712
17484
-12141
3893
-1652
-7602
-10751
-27960
-32551
3749
-13037
-1718
1858
-7191
4235
-30177
-30820
-11125
-11192
-8224
5148
-5131
16249
-26588
-23283
-23055
-6797
-11522
6689
-2857
25488
-15610
-11698
-30607
-1270
-13614
7437
-477
30672
-4055
3972
-32525
5014
-12137
6597
3013
28225
10110
16890
-28078
10971
-9763
4702
6189
21721
21719
27703
-17497
13348
-4227
1172
7541
10104
29224
32461
-4461
13514
2064
-2252
7470
-4040
29703
30877
10966
11582
7767
-4929
5567
-15712
25314
23874
22443
7005
11454
-7241
2900
-25462
16267
11429
30708
1091
13594
-7651
-780
-30366
3373
-3467
32583
-4139
12818
-6589
-4120
-28169
-9895
-17229
27871
-9383
8349
-4448
-6680
-20146
-20851
-27538
17757
-13242
4363
-1929
-7879
-9917
-28770
-32560
3671
-12959
-1623
2928
-8145
3629
-29502
-30919
-10845
-10789
-8024
5426
-5882
16416
-25774
-23474
-22861
-6675
-11647
7781
-2465
25732
-16239
-10769
-30946
-930
-14140
8196
270
30435
-3140
3700
-32557
5449
-13222
6346
4364
28374
9898
17083
-27961
10236
-9599
5016
5874
20964
21837
27726
-17461
14143
-3988
1988
7686
10525
29914
32638
-2893
14315
1851
-2003
7668
-4243
30432
30932
10808
11373
7650
-4711
5666
-16581
25113
22840
23494
6473
11451
-6807
3432
-25969
15582
11042
30850
623
13950
-8575
-161
-31306
3004
-4245
32490
-5261
12334
-7002
-4094
-27601
-9273
-17496
27704
-10252
9194
-5077
-6938
-20785
-22277
-27759
17408
-13803
4850
-1496
-9018
-9289
-29466
-32570
3580
-14347
-2358
2055
-8142
4369
-30476
-30826
-11108
-11865
-7926
6391
-6852
17066
-25451
-22907
-23429
-6457
-11961
8321
-3874
26273
-14920
-10660
-30984
-752
-14022
9053
452
30786
-2052
3335
-32596
5176
-12222
7146
3322
27362
10741
17390
-27771
10606
-10108
4876
5889
20564
21981
28244
-16610
13272
-4160
1471
7887
9406
29199
32692
-2209
14982
2603
-1839
7873
-5004
30036
30392
12245
11608
7422
-5273
5959
-17002
24940
22430
23886
6297
12451
-6968
3112
-25623
15021
11117
30823
900
13348
-7784
-684
-30186
2843
-3951
32527
-5514
12381
-6680
-4455
-27335
-10349
-17185
27898
-10427
9127
-5522
-6259
-20118
-21916
-28212
16665
-12944
4007
-1385
-8293
-10104
-29602
-32635
2928
-13197
-2057
2771
-8606
4329
-29999
-30776
-11245
-11982
-8822
5176
-6995
17633
-25806
-22934
-23402
-6390
-12431
8076
-3343
24339
-15845
-10315
-31100
100
-13909
8850
-172
30478
-2471
3825
-32542
6239
-12591
7527
3422
28481
11130
18201
-27246
11019
-9629
5251
6708
19927
21694
28138
-16789
14387
-3672
1493
8131
9375
28339
32592
-3380
13534
2619
-2102
7409
-4350
29930
30592
11738
11914
9009
-5353
6158
-18119
25376
22456
23862
6992
13039
-7125
2560
-26369
15106
9605
31327
320
14512
-7821
-517
-28989
2111
-4139
32504
-5853
12870
-7154
-3618
-27801
-10464
-18399
27113
-10978
8738
-5267
-7071
-21170
-22676
-28197
16689
-13743
2837
-2257
-7894
-9101
-28808
-32696
2149
-14341
-3087
2327
-8212
4555
-29561
-30663
-11550
-11373
-8179
6238
-6820
18041
-25198
-23003
-23334
-5880
-12603
8212
-3869
26146
-15323
-9637
-31317
136
-14802
9026
-398
30614
-1939
4537
-32451
6706
-13639
8138
3859
28713
11022
18830
-26815
11903
-9497
5367
6595
21277
23205
28138
-16790
14501
-3306
1712
8228
8510
28791
32713
-1878
14507
2830
-1339
8472
-5218
30167
30295
12484
11748
9208
-5653
6897
-16705
24285
21816
24448
6648
13663
-7861
3284
-25593
14367
10035
31192
-198
15892
-8601
78
-31405
2073
-5318
32332
-5950
12960
-7509
-4244
-27656
-11295
-18396
27115
-11765
9440
-5638
-6672
-19677
-22363
-28342
16444
-13692
3151
-1683
-9265
-8946
-29067
-32688
2263
-14368
-3022
2435
-8324
4756
-29305
-30516
-11933
-11793
-9916
5484
-7676
17178
-25006
-22351
-23960
-6212
-12674
8343
-4017
26778
-14334
-10626
-30996
-694
-15775
8946
-816
32046
-1227
5141
-32361
6655
-13681
7729
3471
29385
12031
18602
-26974
11321
-9263
5721
7811
20892
23253
28704
-15802
14725
-3299
1599
8386
8715
29551
32688
-2271
14601
3433
-2417
8654
-4943
31608
30366
12311
11893
9696
-5371
6122
-17425
26208
22520
23801
6688
13726
-8877
3651
-26509
15082
9751
31282
524
15288
-9086
-908
-30669
1884
-5516
32299
-6689
14136
-7696
-4457
-27787
-12006
-18858
26796
-11414
9364
-4465
-7107
-20851
-22104
-28798
15631
-13874
3273
-1709
-8803
-8793
-29603
-32641
2870
-14351
-3160
2456
-9126
4924
-30230
-30589
-11746
-11571
-9203
5652
-7957
18745
-25113
-21741
-24514
-6285
-14034
8794
-3850
28101
-14826
-9438
-31378
41
-15450
8708
34
31344
-1484
4890
-32400
6422
-13561
8130
4138
28483
12295
18503
-27042
11427
-9008
6109
7526
20232
23262
28768
-15685
15405
-3132
2461
9150
8378
30360
32716
-1820
14430
3538
-1778
8696
-6082
31202
30131
12875
11714
9698
-5169
6922
-17486
24837
22159
24137
7216
13703
-7599
3758
-27405
13843
8365
31681
688
14853
-9384
-747
-30841
1266
-5724
32263
-6918
12626
-8707
-4247
-27773
-11622
-19281
26493
-12548
9503
-5907
-7507
-20852
-22956
-28848
15537
-15024
3174
-1931
-9843
-8056
-29057
-32719
1772
-15502
-3345
2116
-9605
5910
-31101
-30137
-12860
-11469
-10203
5572
-7376
18873
-26104
-21645
-24600
-6339
-14537
9006
-4643
27598
-14102
-9258
-31431
-88
-16294
10045
-32
31750
-966
6327
-32150
7133
-14246
9158
3791
28409
12238
19014
-26685
12087
-9512
6626
7076
20695
23547
28961
-15326
15959
-3645
2296
9780
8302
30030
32735
-1433
15003
3826
-1599
8959
-5444
31352
30309
12449
11315
10370
-5876
6900
-18782
25538
21440
24778
6640
13892
-8666
3134
-26782
14222
9516
31354
186
15573
-8961
-622
-31188
1414
-5658
32274
-6705
13929
-8699
-4827
-27657
-12647
-19212
26543
-11950
9227
-6998
-7600
-19170
-23416
-28420
16307
-15077
2341
-2331
-8465
-7880
-29876
-32743
1232
-14925
-4394
1887
-9099
6447
-30598
-30277
-12528
-11537
-10102
5605
-7708
18942
-24894
-21704
-24547
-6495
-14643
8774
-4327
27422
-12948
-8654
-31603
701
-15573
9027
-199
32627
-426
6185
-32177
7651
-13978
8624
4064
27631
12973
19235
-26526
12724
-8974
5729
7179
19569
23014
28864
-15508
15640
-2665
1922
8859
8256
31037
32761
-601
15926
3832
-3269
8989
-5692
31118
29819
13582
11933
10507
-6387
8094
-18253
25013
21105
25064
5593
14465
-8462
4309
-26588
14315
7400
31920
-684
14978
-9731
-339
-30397
1345
-6570
32101
-7128
14174
-8453
-4591
-27779
-11835
-19801
26107
-12670
10643
-5891
-8232
-20088
-24096
-29015
15223
-16078
2832
-1759
-10282
-7840
-30083
-32744
1206
-14772
-3954
2654
-9585
5542
-29974
-29746
-13740
-11701
-10226
6472
-7054
18194
-25144
-21487
-24737
-5829
-15064
8788
-4453
27106
-14178
-7885
-31804
1089
-15872
9507
-192
31363
-459
5359
-32325
8035
-14968
8378
4284
28852
13759
20407
-25636
12919
-9227
6377
7719
20116
24219
29262
-14744
16769
-2000
2237
9665
8283
30544
32761
-600
15399
3698
-2352
9025
-6310
30709
29898
13406
11890
10991
-5856
7623
-18984
25056
21106
25063
5781
14899
-9055
3606
-27922
14082
7385
31923
-960
16117
-9527
-1000
-30272
540
-7359
31929
-7812
13719
-9201
-4909
-28228
-13514
-20215
25787
-13682
8708
-6178
-8268
-19793
-23645
-29069
15121
-16064
2844
-1259
-10341
-6621
-29085
-32760
660
-15832
-4632
2246
-10159
7175
-30220
-29389
-14488
-11780
-11808
7312
-8269
18914
-24705
-20837
-25287
-6121
-15914
9393
-3775
28715
-13359
-7242
-31956
1321
-16048
9845
332
31283
-456
7753
-31836
8566
-14716
9232
4961
28428
14114
20167
-25825
14248
-9343
5141
8073
20560
24810
29452
-14361
16377
-2962
2063
10489
6416
30570
32736
1418
15940
5217
-2127
9206
-7383
30873
29092
15077
11651
11758
-6157
7444
-19267
24389
20145
25842
6405
15705
-9146
3505
-29503
13741
6360
32143
-1416
16515
-10083
-532
-31568
173
-7205
31964
-7665
14526
-8824
-5241
-29066
-14477
-21080
25085
-14650
5500
-3390
-9495
-12239
-26811
-31963
7211
-16475
-1362
385
-10294
890
-31161
-31940
-7311
-14434
-8516
4880
-9036
13697
-27461
-25210
-20931
-8980
-14052
8330
-6600
25055
-18262
-13567
-29826
-1817
-16753
10540
-1851
30458
-5638
893
-32754
5363
-16368
10250
2614
30523
8153
15034
-29114
12032
-12061
7600
6430
24152
20262
26376
-19441
16917
-5708
4054
9812
12983
28789
32144
-6354
16468
1325
-65
10793
-1795
31314
31547
8857
13798
8464
-4303
8761
-14031
26850
25054
21117
9279
14674
-8811
5901
-24690
18427
13998
29626
2669
15748
-10900
2380
-29706
5415
-791
32757
-4864
15168
-9927
-3313
-30345
-8652
-15609
28810
-12086
11569
-8261
-7716
-23393
-19866
-26702
18990
-15988
5817
-4210
-9720
-12186
-28446
-32134
6405
-16226
-2299
381
-11353
2006
-30660
-31749
-8101
-13976
-8424
5209
-10091
14719
-27484
-24520
-21735
-8382
-14694
8533
-7627
25945
-19044
-12526
-30278
-1898
-17469
10848
-2230
31450
-5717
2024
-32704
6088
-17065
10579
2144
30918
9522
16342
-28400
12476
-12442
8515
6260
23705
21526
26562
-19186
15958
-5962
4449
9916
11722
28640
32282
-5611
16906
1844
-545
10631
-1995
30726
31368
9469
14504
9020
-5229
8861
-15321
27512
24163
22131
8629
14481
-8424
5691
-25680
18047
12421
30321
1581
17393
-11009
1221
-30977
5779
-2241
32690
-6116
15546
-10671
-2983
-29546
-7897
-15909
28645
-12287
12011
-7421
-6568
-23305
-21633
-26921
18679
-16273
5338
-3997
-10364
-11630
-28604
-32421
4743
-16820
-2406
986
-11330
1543
-32470
-31523
-8939
-14812
-10004
6046
-10158
15577
-27951
-23860
-22457
-9292
-15053
8959
-6316
25678
-17912
-12417
-30323
-1496
-16919
12318
-1533
31503
-5070
1833
-32715
6180
-15447
10153
2352
29989
9364
16682
-28202
13808
-12624
8464
7545
23781
21831
26971
-18607
15856
-5349
4280
10303
11757
29555
32383
-5000
17902
2120
-1077
11069
-2701
31124
31087
10354
14863
10325
-5576
9373
-15732
27744
23920
22393
9076
15037
-9209
5995
-27030
18383
11178
30801
1328
17449
-10860
2332
-30977
4864
-3291
32601
-6686
16113
-10468
-3625
-29816
-8352
-16172
28498
-12590
11833
-8370
-7711
-23372
-21415
-27334
18069
-16831
4772
-4851
-10354
-12112
-29415
-32444
4587
-16932
-3413
925
-11557
1781
-31913
-31336
-9576
-14765
-10261
5921
-9631
16143
-27401
-23900
-22415
-9078
-16047
9209
-7036
27218
-18243
-11858
-30131
-1416
-17750
11616
-2195
30888
-3610
2986
-32630
7039
-16406
11059
3393
30785
9441
16436
-28346
12572
-11961
8624
7674
22906
21678
27056
-18482
17291
-4569
4538
9685
11330
29107
32467
-4423
18270
2747
-649
10213
-3099
31971
31020
10555
14399
10162
-5486
9879
-16105
27701
23427
22909
8431
15572
-9350
6049
-25835
17389
11538
30668
1156
17568
-11031
1190
-30723
4536
-3976
32524
-6481
16064
-10335
-3334
-28936
-9625
-16717
28181
-12605
11343
-8590
-8101
-22249
-21752
-27241
18209
-16552
4692
-4006
-10872
-11461
-28761
-32481
4317
-17374
-2479
801
-11153
2958
-30216
-31064
-10425
-14177
-10523
5954
-9933
16380
-26081
-23779
-22543
-8257
-16012
9198
-7440
26788
-16900
-11424
-30711
-551
-18050
11686
-2601
32170
-5105
2699
-32655
6879
-16314
11300
2881
29822
10410
17401
-27764
12790
-11539
7963
7776
22196
21494
27537
-17758
18050
-5032
4202
10432
10618
29584
32474
-4371
18307
2588
-985
11647
-3338
31940
31025
10541
14787
10065
-5716
9214
-16006
26485
23612
22717
8578
15752
-9479
6637
-25544
17338
11724
30597
919
17839
-11826
2109
-31840
4211
-4179
32499
-7163
16586
-11448
-3659
-29509
-9837
-17639
27613
-13741
11873
-9010
-8628
-22555
-21875
-27387
17989
-17619
4811
-4396
-10798
-10625
-29221
-32519
4018
-17772
-3203
1233
-11194
3010
-32477
-30866
-10997
-15108
-10476
5862
-10633
16628
-26855
-23330
-23007
-8567
-16160
9860
-6807
26762
-16705
-10153
-31154
-1047
-18324
11174
-1796
30972
-4303
4522
-32453
7501
-17146
11328
3553
31098
9699
16706
-28187
13905
-12031
8460
7313
22580
22264
27735
-17448
18034
-4862
4516
10821
11172
30482
32633
-2949
17815
3831
-914
11807
-3398
32373
30619
11667
14623
10598
-6064
10672
-16542
27380
22911
23424
8119
15726
-9713
6774
-25505
17106
10626
30995
1379
18882
-12082
1560
-31151
4544
-3460
32583
-7117
16915
-11589
-3803
-30898
-10721
-17832
27489
-14326
11178
-8280
-7912
-22601
-21325
-27436
17913
-18212
4320
-5156
-11326
-11021
-30203
-32567
3607
-18107
-3167
1606
-12225
3214
-32104
-31020
-10554
-15168
-12019
5729
-10674
16958
-26494
-22872
-23462
-8609
-16762
10149
-7360
27852
-17259
-10679
-30719
64
-18421
12195
-2572
31323
-4009
3599
-32568
8087
-17184
11608
3430
30232
10570
18508
-27038
14356
-11700
8948
7886
23265
21889
28148
-16773
18862
-4639
4730
10412
10562
31017
32467
-3342
18648
3418
-1207
11775
-3346
31908
30576
11779
14904
11606
-6170
10514
-16427
26827
22914
23422
8488
16562
-10248
6910
-26829
16440
10162
31151
-171
18568
-11411
1745
-31089
4720
-3998
32522
-8296
17342
-12049
-3608
-30106
-11074
-18062
27339
-14489
11394
-8823
-8320
-22086
-22286
-28171
16734
-18270
4031
-4223
-11318
-10626
-30995
-32421
2708
-18336
-3679
1047
-12505
3980
-31459
-30623
-11656
-14442
-11453
5676
-10321
16470
-26780
-22684
-23644
-8127
-18196
9343
-7927
27635
-16989
-9407
-31387
454
-18878
11421
-2203
31391
-4134
4661
-32433
8643
-17188
11172
2507
29503
10748
18003
-27378
14389
-12156
8391
8207
22049
22509
28199
-16686
19014
-4343
4850
10872
10083
30259
32639
-2883
18423
4107
-983
12033
-3509
31320
30705
11438
15337
11585
-6523
10563
-17087
27500
22680
23648
7674
17565
-9910
6665
-26758
16664
10294
31108
85
18923
-11221
1333
-29896
3222
-5128
32363
-8762
18015
-11565
-4131
-30787
-10078
-17885
27455
-15106
11850
-9177
-8663
-21562
-22130
-28087
16874
-18733
4263
-4762
-11450
-9423
-30427
-32669
2528
-18883
-4507
1353
-11868
3415
-30846
-30607
-11697
-14732
-12611
5579
-11169
17516
-26137
-22899
-23437
-8035
-17729
10739
-7315
26429
-16629
-10240
-31125
267
-19902
12092
-1899
31623
-2962
4706
-32427
9255
-17956
12056
2760
30660
11216
17893
-27449
14802
-11985
9261
8412
21845
23356
28434
-16283
18935
-4089
4634
10781
10636
30992
32271
-1794
19247
4230
-741
11475
-3899
32534
29875
12223
15011
12182
-6267
10772
-17723
26975
21924
24351
7926
17815
-10113
6903
-27258
17078
9791
31269
-187
19893
-12145
1942
-32539
3851
-5266
31743
-9108
17314
-12337
-4277
-29587
-10686
-18858
26796
-15715
12427
-9617
-8773
-22443
-22879
-28316
16488
-18685
3899
-4458
-11089
-9425
-29667
-32682
2355
-18742
-4519
1041
-12814
3576
-31622
-30510
-11949
-15445
-12993
6887
-11056
16999
-26370
-21805
-24457
-7963
-18357
10484
-7878
27122
-16667
-9013
-31503
635
-19979
12608
-2229
31267
-2935
5677
-32271
9536
-17317
11585
4367
29678
10841
19094
-26628
16075
-11846
9243
7891
21953
23154
28852
-15531
19655
-3605
4836
10695
9343
29967
32725
-1653
19350
4955
-1129
12355
-4678
32431
29771
13124
15172
12475
-6258
10986
-17364
26663
21118
25053
7867
18259
-10155
6543
-26588
17000
8687
31594
-1090
19591
-12798
1869
-31289
2624
-5374
32323
-9170
17742
-11932
-5129
-29921
-11627
-18950
26730
-15690
11326
-9716
-9225
-22096
-23172
-28967
15315
-19594
3543
-4380
-12083
-9374
-30493
-32736
1404
-18569
-5270
1019
-13147
4572
-31146
-30098
-12952
-14660
-13011
6511
-11705
18431
-25472
-21274
-24921
-7367
-18349
10772
-7311
28044
-15709
-8307
-31696
582
-19903
13195
-2488
31712
-1671
6478
-32120
9234
-17792
12082
4199
29886
12320
19272
-26499
16910
-11605
9616
8739
21877
23918
29403
-14461
19958
-3232
4791
11908
9596
30677
32764
-430
19663
5247
-1148
13512
-4569
31435
29800
13623
15266
12641
-7127
10762
-17915
25292
21000
25152
7357
17985
-10646
6958
-27302
15627
9148
31463
-1568
19567
-12918
813
-31425
2571
-5926
32226
-9972
17987
-12517
-4195
-30177
-11893
-19407
26401
-17301
12016
-9579
-8846
-21776
-24483
-29506
14219
-19685
2811
-5564
-12305
-9236
-31438
-32660
821
-19126
-5937
765
-13742
4835
-31942
-29810
-13602
-14847
-14115
6464
-12100
18816
-25848
-21335
-24868
-7422
-18979
11448
-7754
28182
-15063
-7314
-31940
1570
-19739
13197
-1775
31937
-2114
6611
-32093
9895
-17219
12423
3932
29668
12379
19909
-26024
16702
-11278
9866
9369
21849
24342
29523
-14213
20342
-2782
4918
12364
8820
31279
32757
-785
19377
6382
-1366
12514
-5036
31010
29389
14489
15302
14169
-6714
11396
-19023
26679
20018
25621
7002
17994
-11435
6574
-27438
14730
7514
31893
-1733
20271
-12680
1676
-31952
1926
-7123
31983
-10843
17378
-13225
-4221
-29389
-12664
-20343
25686
-17264
11459
-8858
-10289
-21800
-23712
-29415
14436
-20357
2561
-4854
-13315
-9089
-31108
-32756
-824
-19338
-6415
1798
-13805
6026
-30793
-29303
-14661
-14827
-14410
7217
-11723
17891
-25740
-21070
-25093
-7132
-19898
11693
-7649
28993
-15046
-7394
-31921
2197
-20587
13511
-2141
31661
-779
7315
-31939
10867
-17302
13464
5018
29498
12863
20431
-25617
17701
-11402
9578
9722
20699
24530
29695
-13850
20838
-2535
5357
13727
8322
31692
32518
217
19643
6632
-1023
13018
-5780
30763
29502
14257
15040
14199
-7071
11478
-19371
25379
19661
26212
6678
19054
-11198
7306
-27736
14623
6724
32069
-1660
20393
-13443
661
-31947
1607
-7790
31827
-10953
17638
-13087
-4041
-28865
-12412
-20822
25299
-16751
11309
-10539
-9745
-20547
-24262
-29842
13530
-20724
2147
-4686
-13741
-8296
-31186
-32766
163
-19321
-6690
1676
-13517
5746
-30619
-29615
-14020
-15160
-14950
6716
-12829
19594
-25883
-19924
-26013
-7349
-20006
11431
-8264
28641
-15218
-7051
-31999
2229
-20888
14322
-1463
32620
-1543
8281
-31703
11748
-17994
13666
4281
29565
13894
20699
-25400
17654
-11586
10194
9395
20921
25069
29709
-13821
20762
-2154
4369
12809
8634
30917
32753
944
20031
6775
-621
14239
-5847
32240
29458
14038
15329
14713
-7633
11822
-20173
25816
19775
26126
7008
20292
-12202
7009
-28373
15125
7289
31945
-2364
21150
-13734
1568
-32478
928
-8108
31747
-11361
17298
-13832
-4652
-29536
-12779
-20497
25564
-18372
11253
-9961
-9864
-21105
-24564
-29582
14091
-20921
1928
-4720
-13240
-7401
-30919
-32760
-659
-19314
-6883
1646
-14481
6031
-31234
-29078
-15103
-14590
-15217
7584
-12217
19160
-25262
-19456
-26365
-6437
-20616
11369
-7500
28325
-14336
-6027
-32207
2786
-21058
13872
-2068
32623
-536
7805
-31823
11515
-17568
13156
4886
29678
13081
21161
-25017
18139
-10927
10194
9264
20219
25383
30058
-13045
21094
-1362
5051
12685
8101
31749
32131
1903
19905
7213
-855
14162
-7156
30903
28573
16039
14427
14958
-7301
11740
-18338
25178
19652
26219
6270
19822
-11924
7548
-27782
14506
6141
32186
-3140
20913
-14073
929
-30542
922
-8376
31678
-11741
17950
-13975
-4883
-29115
-13501
-21081
25084
-18406
10864
-9884
-10410
-20037
-24756
-29903
13395
-20818
1557
-4877
-14090
-7460
-30795
-32742
-1277
-19860
-7822
1612
-13610
5607
-30880
-29223
-14820
-14723
-15440
8122
-12239
19655
-25948
-18937
-26740
-6140
-20655
12499
-8008
29067
-15125
-6220
-32139
3256
-21911
14850
-1305
32766
-161
8590
-31543
12048
-17912
14098
4907
29917
13364
21057
-25010
18753
-11148
10025
10240
20324
24745
29931
-13334
21964
-1529
5483
14242
7356
31455
32741
1285
20379
7595
-2194
15167
-7256
31067
28696
15817
14834
15398
-7468
11957
-18894
25361
19211
26544
6479
20719
-11688
7874
-28684
14485
5741
32260
-3536
21033
-14612
1627
-31738
770
-8406
31670
-12255
18479
-14200
-4615
-29125
-13764
-21441
24777
-18712
10804
-10119
-10242
-20587
-24789
-30159
12808
-21550
1336
-5023
-14107
-7680
-31854
-32721
-1410
-20163
-8296
1586
-15027
7018
-31372
-28926
-15392
-15162
-15917
8196
-12584
20421
-25625
-19014
-26556
-6765
-21294
12266
-8133
29774
-13681
-6453
-31808
3450
-21777
14634
-2265
32765
-328
8759
-31307
12576
-18546
13453
4675
29896
13223
21999
-24283
19560
-10690
9827
9958
20420
25451
30182
-12754
21939
-1859
4934
14242
7414
31357
32713
1865
20076
7753
-2055
14545
-7121
31360
28643
15913
14327
15996
-8560
12176
-20083
25890
18543
26951
5657
21629
-12606
8067
-28783
14376
5147
32360
-3395
21893
-14893
1437
-32214
-278
-8740
31579
-12308
17857
-13974
-5205
-29524
-14211
-22145
23762
-19454
10884
-10367
-11503
-20237
-25578
-30341
12371
-22555
1135
-5311
-14738
-6885
-31848
-32719
-1766
-20805
-8486
1223
-15155
7050
-31347
-28303
-16510
-15239
-16809
7782
-13703
20314
-25709
-18789
-26798
-6171
-22111
12840
-8326
28964
-14071
-5219
-32348
4061
-22463
14951
-1919
32766
187
9939
-31126
13107
-18165
14253
4946
28881
13519
21900
-24372
19743
-11386
10783
11098
20277
25421
30247
-12599
22019
-1557
4802
14358
7213
31009
32701
2069
20509
8169
-1825
15387
-7211
31549
28605
15981
15167
16590
-8751
12590
-19896
24133
18883
26778
6014
20980
-12669
8002
-28981
13574
4901
32398
-3792
22060
-14753
1482
-31314
371
-9403
31388
-12458
18936
-14067
-5140
-29198
-14461
-21780
24480
-19745
11708
-11099
-11525
-20657
-25434
-30149
12279
-22239
1563
-4201
-15013
-7179
-31515
-32699
-2097
-21342
-8721
1803
-15500
7532
-31217
-28703
-15803
-15526
-16503
8364
-13337
20382
-25050
-18641
-26947
-6614
-21624
13570
-9068
29616
-14019
-5407
-32192
3795
-22491
15774
-1513
32762
568
9312
-31262
13239
-18581
14775
5205
29340
14124
21549
-24684
20324
-11336
10675
10832
20560
25513
30359
-11667
22523
-1162
4940
14503
6990
31134
32710
1918
20994
8418
-2037
14663
-6865
31200
28840
15552
15113
17312
-8573
12748
-20171
25206
19274
26498
5965
21869
-13683
8059
-29187
13966
5401
32318
-4135
22561
-15632
1694
-32067
-550
-9057
31490
-13758
18699
-15503
-5225
-28995
-14223
-21849
24418
-19398
11261
-12114
-11390
-19890
-25505
-30470
12049
-23618
1424
-5287
-15300
-6529
-31597
-32742
-1275
-21437
-8633
1597
-16122
7842
-31814
-27164
-16034
-14954
-17426
8654
-13481
20227
-25093
-18772
-26856
-6382
-22362
14071
-8920
29206
-14445
-5315
-32332
3791
-23077
16308
-1491
32080
418
9586
-31333
14294
-18782
14950
4588
29453
14358
22189
-24008
20524
-10548
11176
11128
19664
26210
30019
-11164
23467
-845
5344
15718
7240
31318
32679
2396
21903
8878
-2157
15961
-8000
31775
28047
16900
15190
17128
-8512
13403
-20656
25435
18002
26373
5920
22447
-13728
8687
-29411
13662
4852
32405
-4349
22987
-16963
1659
-32266
-1053
-9853
31250
-13988
18830
-15119
-5378
-29223
-14821
-22420
23069
-20525
10570
-11127
-11213
-19755
-25244
-30471
12049
-23569
1003
-5326
-15939
-6948
-31957
-32694
-2172
-21550
-9191
1525
-16384
7891
-31802
-28236
-16439
-15171
-17517
9089
-14582
21073
-25091
-17816
-27257
-6304
-22985
14727
-8640
29908
-13135
-4556
-32448
4386
-23451
16641
-1648
32760
638
9312
-31171
13884
-18788
16154
5350
29440
14352
22394
-23919
20646
-10602
11605
11565
19813
26097
30251
-12068
23901
-1390
5232
15407
6656
31471
32670
2508
21299
9254
-2037
17052
-8086
31197
28041
16951
15562
17899
-8577
13875
-21245
24945
18182
27091
6404
22695
-14423
9097
-29298
13495
4449
32463
-4556
22795
-16581
1854
-32762
-560
-9920
31185
-13779
19105
-15585
-5639
-29340
-14588
-21965
24165
-20861
10843
-11431
-11943
-19536
-26305
-30517
10519
-23444
973
-5510
-15610
-6419
-32132
-31963
-3029
-21626
-9739
1251
-16995
8585
-31622
-28097
-16455
-15461
-17910
8553
-14374
20835
-25289
-17699
-26748
-5757
-23138
13386
-8920
29674
-13896
-3826
-31758
4601
-24140
16651
-1590
32748
1106
10234
-30961
14139
-19082
16112
4691
29048
15161
22312
-22921
20664
-10836
12213
11170
19461
26361
30129
-10456
23876
-953
5577
15603
6489
31993
32595
3347
22271
9905
-2581
16270
-7806
31823
27308
16782
15008
18586
-9459
14241
-20912
25226
17352
27261
5945
23285
-13899
8562
-29653
13731
3639
32564
-4513
23464
-16657
1949
-32616
-1019
-10635
30992
-14337
19101
-15567
-6220
-28645
-14266
-22655
23673
-21953
11123
-11880
-12168
-19632
-26082
-30783
11227
-24314
207
-5514
-16378
-5897
-31912
-32551
-3753
-21940
-9881
1466
-16224
8143
-31738
-27304
-16064
-15201
-19032
9278
-14078
21052
-25108
-17523
-27126
-5905
-23381
13989
-8977
29511
-14239
-4196
-31484
4881
-24367
16704
-1712
32744
1225
11124
-30698
14875
-19288
16525
5354
29010
15233
22261
-23343
22125
-11428
12306
12930
18781
26747
31047
-10475
24925
-758
5369
15814
6634
32088
32082
3142
21996
10131
-1850
16088
-8487
31648
26844
16703
15672
18217
-9455
14190
-21022
24829
17346
27798
6093
23580
-14173
8818
-29569
12677
3242
32606
-5534
24077
-16964
1551
-32421
-1042
-11470
30693
-14482
19150
-16264
-6065
-29006
-15240
-22859
23207
-22263
11053
-12761
-12514
-18870
-26787
-30714
10686
-24409
390
-5475
-16104
-6122
-32189
-32168
-3439
-22370
-10324
1973
-17016
8894
-31536
-27513
-17513
-15589
-19303
9659
-14844
21875
-24134
-17619
-27626
-5492
-24509
14738
-8819
29949
-13293
-3900
-31602
6049
-23730
17440
-2245
32694
2181
11155
-30188
15452
-19541
16121
6048
28895
15450
22728
-23031
22171
-10938
11411
11981
19467
26357
29751
-9934
25291
-126
5222
16604
5710
32265
31997
4485
22674
10531
-2396
16974
-8975
31513
26919
17635
15342
19026
-9750
15077
-21844
24407
17064
27972
5844
23869
-14988
9150
-29715
12230
3235
32606
-5541
24180
-17358
1265
-32743
-1252
-11306
30286
-15599
19081
-16172
-5847
-29005
-15242
-22740
23204
-22708
10645
-12790
-12444
-18882
-26672
-31070
10405
-24846
-378
-5207
-16924
-5742
-32259
-31295
-4334
-22292
-11048
1819
-17547
9086
-31481
-27243
-17227
-15540
-19867
10339
-14902
21661
-23846
-16702
-28190
-5186
-25126
15490
-9958
30233
-12633
-2565
-32524
5945
-24604
17756
-2068
32719
1760
11287
-29281
15832
-19117
16244
5609
28449
16256
22361
-21317
22623
-10625
12231
13084
18409
27106
30970
-10089
25589
455
5294
17399
4887
32400
32306
4630
22597
10681
-2664
17601
-8974
31514
26859
17412
15327
19343
-9666
14731
-21584
24653
16518
26921
5126
24282
-15391
9295
-30136
12863
2339
32328
-6036
25181
-18404
1326
-32736
-1420
-11505
30482
-16108
19418
-17247
-6299
-28626
-15943
-22966
22439
-23232
10097
-11697
-13474
-18515
-26236
-31145
10180
-25458
-346
-6435
-17652
-5446
-32311
-31855
-4338
-22536
-11226
2038
-17827
8783
-31567
-27151
-17926
-15683
-20841
9589
-14730
21810
-24453
-16729
-28070
-4683
-24911
15439
-9858
30661
-11556
-2378
-31662
6080
-24762
17707
-2128
32680
2377
11012
-29572
16113
-19361
16289
5817
28778
15667
23003
-21125
22692
-10547
12156
12741
19102
26622
30093
-9474
25376
741
5336
16985
5392
32320
31461
4963
22608
11701
-2343
18111
-9312
31415
26695
18308
14841
20349
-9841
14207
-21347
24299
16530
28291
4811
25073
-15008
9266
-30256
12577
2772
32137
-5697
25379
-17884
2562
-32670
-2506
-11587
30106
-16587
19935
-17082
-6591
-28282
-16545
-23977
22073
-23304
10204
-12462
-13406
-18247
-26525
-31226
9927
-25389
-333
-5319
-17339
-4884
-32400
-31220
-4292
-23451
-11999
2539
-18759
9918
-31229
-27307
-17799
-15585
-20674
10250
-15717
22171
-24126
-16272
-27939
-5269
-26000
16336
-10153
30538
-11877
-2813
-32351
6477
-25003
18597
-2247
32669
2522
11319
-30028
17081
-19847
17154
6410
28122
16816
23144
-21450
23126
-10546
12728
12464
18557
27005
29714
-9095
24784
1117
5615
16637
4996
32383
30875
4714
22845
11807
-2389
17566
-9446
31375
25632
17565
14936
20416
-9817
14089
-22589
23735
15163
27297
4745
24748
-15637
9158
-30240
12618
2304
31731
-7040
25073
-18006
1558
-32707
-1978
-11563
30222
-16997
19749
-17304
-6713
-28236
-16624
-23190
21725
-24146
9728
-13142
-13431
-18280
-27193
-30887
8819
-26017
-1472
-5687
-17757
-4566
-32447
-30842
-5094
-23098
-12248
1673
-18546
9603
-31328
-26116
-17659
-15557
-21106
10332
-15653
22669
-23659
-15735
-27547
-5194
-25698
15955
-10206
30533
-11889
-2729
-31603
7066
-25268
18309
-1225
32726
1620
11814
-29297
16642
-19461
16920
6804
28273
16561
23343
-21018
24298
-10450
12621
13500
18522
27029
30373
-9072
25789
1212
5821
17258
5029
32378
31407
4495
22997
12283
-2421
18345
-10268
31116
26083
18698
15363
21519
-9514
14956
-22220
24081
15575
27288
4051
25377
-15521
9411
-30688
11483
1220
31103
-6658
25528
-18441
1776
-32634
-2943
-11787
29198
-17478
19663
-17842
-5994
-28382
-16374
-23235
20969
-24652
10306
-13729
-13859
-18079
-27328
-30556
9466
-26608
-1200
-6208
-18223
-4901
-32398
-31214
-4921
-22760
-13489
2473
-19288
10014
-31199
-25748
-18859
-15129
-21645
10444
-16103
22954
-23383
-15815
-27717
-4320
-26033
16427
-10455
30769
-11265
-1503
-31472
7580
-25234
19131
-2041
32642
2851
11958
-29452
17535
-19900
17094
6286
28311
16496
23920
-20550
23932
-10086
13507
13396
17821
27496
29955
-8124
26019
1250
5379
17787
4152
32502
30926
5667
22819
12710
-2930
18305
-9656
31311
25794
18910
14766
21646
-10716
15661
-22340
23970
14872
27478
4284
26147
-16253
9917
-30550
11845
1570
31085
-7574
25383
-18934
1714
-32627
-3025
-12653
28627
-18207
19931
-18336
-6836
-27911
-17163
-24405
20685
-25112
10128
-13815
-13985
-18438
-27086
-31157
9147
-26150
-1520
-5960
-18348
-5033
-32378
-30695
-5524
-23999
-13493
2836
-19628
10054
-31186
-25927
-19304
-15554
-22371
10803
-16203
22312
-23996
-16127
-28513
-3936
-26765
16978
-9665
30779
-11237
-1874
-32027
7915
-25665
19161
-1539
32625
3040
12307
-29476
18192
-19853
18374
6659
28057
16924
24031
-20393
24595
-9557
12959
13857
17910
27438
30358
-8403
26904
1586
5601
18165
4399
32470
30954
6049
23241
13046
-2460
18712
-9979
31210
25819
18426
14847
22256
-10596
15645
-21911
24363
15312
27730
3672
26652
-16400
9808
-30831
11094
990
31956
-7818
26208
-19926
1465
-32624
-3047
-12529
29285
-18603
20194
-19049
-7782
-27701
-17500
-23734
21317
-25384
10105
-13269
-14421
-17673
-27591
-30443
8186
-27603
-1636
-6360
-18793
-4179
-32499
-31067
-5551
-24002
-13587
2557
-19689
10527
-31029
-25315
-19261
-15566
-22784
10823
-16958
23143
-23196
-15001
-27750
-4161
-27035
16691
-9793
30759
-11293
-799
-30922
7892
-26549
19770
-1766
32565
3628
12922
-29190
18543
-19962
17968
6809
27872
17227
23858
-20393
25084
-10171
13496
13592
18153
27278
29838
-7685
27081
2285
5784
18854
3758
32550
30569
6643
23881
13579
-2630
19575
-10452
31055
25137
18968
15681
22857
-11292
16816
-22815
23518
15100
28102
3378
27632
-16481
9592
-30657
11568
434
32431
-8326
26116
-19468
1386
-32597
-3326
-13144
28792
-18697
20042
-18516
-7083
-27968
-17071
-24729
19942
-26586
9944
-14132
-15368
-17531
-27682
-31440
8137
-27242
-2042
-5996
-19483
-3349
-32595
-30771
-5701
-24404
-14376
2760
-20113
11349
-30738
-25836
-19176
-14780
-23406
11807
-17091
23173
-23166
-14756
-28290
-3736
-27623
17730
-10719
31007
-10592
-981
-31369
7971
-26046
19939
-1584
32549
3772
12140
-27719
18927
-19423
18673
7246
27514
17794
23690
-19829
25708
-9564
14197
14786
17344
27800
29892
-7188
27263
2138
6215
19500
3721
32554
30605
6322
22866
14251
-2996
19789
-11078
30837
24977
19240
14236
23172
-12020
16827
-23261
23077
14199
28312
3485
27645
-17748
9736
-31075
10390
686
31755
-8898
25969
-20075
1262
-32519
-4017
-12976
28091
-19636
18947
-18795
-8001
-27597
-17665
-23736
19210
-25412
9319
-13973
-15119
-17412
-27757
-30083
7279
-27640
-2293
-6029
-19945
-3529
-32576
-30977
-6197
-24252
-14353
3028
-20899
11288
-30761
-25649
-19403
-15258
-22862
11218
-17056
23626
-22704
-13644
-27350
-3313
-27255
17584
-10205
31178
-10077
53
-30886
9395
-26832
21261
-1805
32510
4090
13466
-28520
19488
-19595
19273
7654
27242
18207
24170
-18925
25920
-9150
13733
14533
16938
28049
29653
-6633
27338
2876
6919
19123
3602
32568
29751
6703
23087
14027
-2803
19963
-11429
30708
24415
19488
15201
23879
-11747
16533
-23532
22800
13403
27632
3148
27956
-17803
9757
-30987
10650
-279
31143
-8664
26228
-20737
1303
-32447
-4561
-12968
27514
-19854
20136
-19005
-7537
-27647
-17585
-24542
20119
-25979
9486
-14678
-14836
-16725
-28176
-30134
6433
-28088
-3253
-6345
-20277
-2545
-32668
-30794
-7043
-23511
-14395
2685
-20626
10822
-30928
-24538
-19037
-14780
-24242
11934
-17309
23908
-22406
-13601
-28162
-3460
-27334
17654
-10729
31201
-10007
-7
-30491
9004
-25705
20313
-1456
32485
4287
13454
-26729
20164
-19442
19145
7384
27375
18007
23767
-19093
26341
-9006
14252
16005
16287
28432
30863
-6314
27894
3330
6295
19848
3133
32616
30466
6993
23665
15122
-3303
20381
-11358
30735
24151
19266
14189
23142
-11463
16525
-23664
22664
12374
27558
3094
28247
-18133
10599
-31069
10411
-307
31396
-9550
25791
-20708
2103
-32500
-4173
-13683
27435
-20132
20151
-19390
-7755
-27570
-17707
-24793
18880
-26481
9223
-14146
-14936
-17456
-27729
-29845
5984
-28825
-3903
-6312
-20846
-2814
-32645
-30572
-7720
-23997
-15459
3198
-21143
11623
-30635
-23944
-19750
-14461
-23942
12262
-18180
23898
-22417
-12610
-27987
-3112
-28337
18217
-10448
31237
-9893
321
-30749
9110
-26566
20567
-1574
32448
4554
12919
-27101
20180
-19384
19371
8708
27591
17674
24218
-18939
26770
-8747
13805
15418
17187
27897
30056
-5826
28356
3720
6074
20243
3235
32606
29718
6763
23902
15349
-3034
20571
-11698
30607
23491
19336
14783
24894
-12067
17678
-23403
22933
13746
28151
2313
28330
-17928
10193
-31128
10231
-816
30435
-10405
27593
-22321
1203
-32465
-4434
-14142
28164
-21093
19835
-19478
-7864
-27365
-18022
-24181
18818
-27272
8524
-13879
-15177
-17088
-27957
-29892
6076
-28004
-3729
-6553
-20852
-2567
-32666
-30055
-7387
-24530
-16172
3266
-21851
11916
-30523
-24318
-20361
-15219
-23921
11522
-17858
24252
-22033
-12823
-27249
-2436
-28671
19087
-10890
31330
-9594
605
-30927
10175
-26823
21057
-1492
32422
4736
12725
-26891
20723
-19814
19849
7772
27257
18185
24364
-18598
26898
-8866
14404
15828
16417
28357
29659
-5734
28789
3838
6144
21099
2846
32643
30661
7774
23477
15801
-3341
21011
-12169
30423
23018
19426
15107
24703
-12352
18150
-24087
22214
12775
27796
3069
28386
-18316
10980
-31333
9586
146
29527
-10675
27106
-21573
1532
-32496
-4200
-14319
27251
-21305
20223
-20427
-8716
-26884
-18732
-24328
18468
-28349
8674
-14189
-16443
-16012
-28588
-30506
6226
-28718
-3554
-6584
-20780
-2046
-32703
-29396
-7067
-23889
-16672
3426
-21823
12300
-30370
-23404
-19140
-14545
-25381
12533
-18163
24475
-21785
-12264
-27855
-2071
-29301
19028
-10671
31365
-9481
589
-30318
10773
-27518
21675
-742
32298
5522
14135
-26737
21295
-19449
20380
7826
27159
18331
24272
-18122
27715
-8673
15056
16693
16142
28515
30331
-5563
29579
4429
6068
21016
2016
32704
29818
8224
23612
16368
-3561
21334
-11830
30556
22979
20280
14425
25455
-12264
17379
-24040
22265
11683
28062
1546
29391
-19161
10487
-31216
9960
-1134
30797
-10975
26897
-21860
1538
-32421
-4745
-14422
26838
-21892
20178
-21149
-9030
-26540
-19216
-24714
18448
-28416
8353
-15250
-17067
-15793
-28709
-30019
5305
-29813
-4590
-5922
-22124
-2072
-32701
-29920
-8080
-24500
-17353
3923
-22640
12624
-30237
-23138
-20070
-14753
-26434
12736
-18467
24101
-22199
-12263
-28376
-1903
-29474
19458
-10671
31518
-8958
1655
-30174
11528
-27678
22666
-354
32284
5603
15186
-27189
22206
-19367
20381
8872
26598
19136
24758
-17310
28766
-8252
14767
17092
15690
28766
30410
-4915
29443
5034
5631
21308
2173
32694
29209
8642
23900
17407
-4045
21849
-12335
30356
22659
20628
13874
26604
-13679
18337
-24588
21658
11739
29028
790
29815
-19742
10227
-31582
8729
-2055
29985
-11229
27117
-22122
990
-32242
-5839
-15070
26037
-22879
19843
-21129
-9324
-26585
-19153
-24934
17900
-28722
7847
-15350
-17213
-15731
-28743
-30129
4665
-30221
-5538
-6084
-21809
-1857
-32714
-29778
-9054
-24722
-18372
4551
-22870
12952
-30098
-23027
-20552
-14596
-26948
13807
-18805
25079
-21088
-11921
-28978
-1150
-29897
19132
-10928
31670
-8406
2634
-30055
12431
-28393
22759
-899
32172
6211
15270
-26671
23311
-19922
21186
8888
26264
19592
25819
-17268
29192
-7527
14688
17171
15640
28793
30039
-4644
29211
5584
5452
21438
1267
32742
28804
9390
24168
18953
-4210
22849
-12876
30131
22699
21296
14283
27298
-13560
18873
-24675
21559
11347
28842
948
31122
-19906
10913
-31562
8803
-2985
30509
-12936
28222
-23719
519
-32127
-6443
-15650
26625
-23767
20020
-20823
-9293
-26311
-19529
-25789
17237
-29803
7470
-14971
-17877
-15289
-28981
-30166
4365
-30275
-5816
-6144
-22751
-547
-32762
-29231
-9708
-24498
-19231
4700
-22459
13119
-30025
-22327
-21436
-13328
-26978
14404
-18116
25387
-20715
-10802
-28217
-561
-31081
20824
-10738
31668
-8414
2107
-30960
13076
-27812
23153
-769
32244
5827
15446
-26441
23488
-19430
20825
9578
26205
19670
24999
-16936
29889
-7207
14605
18218
14546
29360
30058
-4232
30113
6579
5349
22766
871
32755
28895
9568
24223
18788
-4672
22132
-12910
30116
22033
21078
13081
28036
-14543
18755
-25214
20926
10707
28226
299
30935
-21278
10527
-31652
8471
-2232
30566
-13790
28376
-24330
-118
-32127
-6442
-15920
27107
-23730
19106
-20722
-10155
-25403
-20695
-25269
15666
-30029
7406
-15227
-18527
-14267
-29497
-30156
4347
-30645
-6947
-6166
-23159
-954
-32753
-29121
-10220
-24867
-19830
4922
-22480
13843
-29699
-22080
-21750
-14008
-28560
14524
-19179
25227
-20909
-11012
-29306
652
-31766
21266
-10085
31818
-7825
3242
-30492
13559
-27580
23200
4
32114
6507
15945
-25639
24079
-19375
20990
9835
25962
19990
25829
-16260
30326
-7060
14657
17978
14863
29201
30089
-3379
30614
7053
5472
22354
526
32762
28987
10235
24707
19652
-4824
22586
-14381
29442
21569
21369
13833
28100
-14418
18622
-25386
20717
9928
29389
97
31571
-21707
10722
-31792
7931
-3084
30289
-14096
28718
-24016
-50
-31869
-7615
-16459
26063
-24270
19555
-21389
-10353
-25538
-20528
-25360
15996
-30902
6630
-15279
-18833
-14465
-29401
-30140
3246
-30558
-7237
-5167
-23496
318
-32765
-28368
-10366
-24240
-19331
4802
-22765
14321
-29471
-20874
-21372
-14095
-27775
14204
-18362
25426
-20667
-9861
-28005
302
-31123
21243
-10255
31942
-7303
3635
-29588
14144
-28274
23823
-55
31885
7549
16414
-25892
24665
-19244
20950
10826
25401
20698
25525
-15108
30537
-6421
14292
17332
14252
29505
30032
-2568
30336
7587
5478
22526
282
32765
28307
10538
24304
20048
-5093
23509
-13903
29670
20619
21798
12801
28881
-15126
18918
-25742
20273
9319
28578
-752
31775
-21689
11047
-32015
6976
-3826
30304
-14322
28858
-25188
-63
-31725
-8197
-16540
25931
-24733
19450
-21607
-10769
-25502
-20574
-25644
15677
-31557
6930
-15347
-19441
-13980
-29634
-30371
2959
-30758
-7555
-4904
-23341
445
-32763
-27746
-10176
-24141
-20144
5476
-23427
15240
-29006
-20088
-21800
-12857
-28931
15016
-18753
25789
-20212
-8954
-28312
717
-31705
21804
-10174
32011
-6997
4190
-29944
14992
-28372
24553
122
31782
7972
16961
-24815
25494
-18775
21611
11659
25436
20656
25679
-15253
30909
-5826
14649
18919
14071
29591
29529
-2408
30689
8166
4950
23187
42
32766
27708
11094
23469
20207
-5285
22897
-14271
29495
19479
21472
12708
29597
-15403
18299
-26166
19723
8510
28841
-1373
32232
-22253
9433
-32054
6797
-5311
29448
-14778
28897
-24319
-521
-31860
-7655
-16550
24922
-26269
19191
-22194
-11197
-25296
-20826
-26327
14873
-32003
6097
-14826
-19650
-13017
-30070
-29464
1896
-31419
-8590
-5481
-24621
1602
-32727
-28278
-11385
-24543
-21204
6282
-24236
15562
-28835
-19379
-21929
-12950
-29475
15740
-19633
26839
-18796
-8131
-28075
1154
-32103
23119
-10179
32286
-5591
4616
-29010
14481
-27525
24864
584
31568
8782
16546
-23717
24966
-19275
21638
12048
24726
21501
25930
-13945
31778
-5733
14896
20689
12933
30106
29458
-1297
30704
8593
4863
24027
-711
32759
27196
10788
24749
21460
-6623
24813
-15095
29082
20377
22640
12740
30188
-16192
19561
-26288
19444
8281
28657
-1081
32524
-23772
10464
-32189
6122
-5147
29266
-15568
28832
-24665
-1411
-31322
-8017
-17518
24328
-26211
19663
-22955
-11910
-24323
-21878
-25991
14188
-32291
5559
-15696
-20627
-12490
-29921
-29637
1069
-31563
-8799
-4805
-24774
1379
-32295
-26856
-11679
-24166
-22057
7086
-24792
15378
-28934
-19347
-22929
-12728
-30193
16586
-19452
26723
-18536
-7822
-28639
1592
-32728
22881
-10037
31768
-5481
5340
-29051
15806
-28702
25845
1250
31244
9091
17124
-23943
26494
-18676
21869
12309
25037
21137
25775
-13945
32168
-5584
14172
19959
13935
29655
29964
-737
30778
8967
4503
24066
-1520
32731
26425
11271
24600
21644
-6524
24282
-15279
28885
19350
21692
12779
30172
-16572
18935
-25587
18937
8185
28422
-2105
32699
-22890
9629
-31246
5849
-5268
28131
-15253
29000
-24825
-1103
-30736
-8185
-17142
23353
-26709
18981
-21357
-11788
-24062
-20993
-25292
13496
-32223
5941
-15184
-20158
-11873
-29521
-28890
1280
-31573
-8764
-5079
-25140
1651
-32073
-27099
-11488
-24359
-21915
7005
-24442
15755
-28167
-19256
-21035
-12534
-30274
16546
-19065
26367
-18106
-8089
-27350
1583
-32312
22858
-9824
32292
-5557
5549
-28604
15665
-28779
25509
1224
31253
9048
17030
-23272
26649
-19065
22656
12361
24144
21313
25671
-13831
32266
-5707
15090
20456
12227
29682
29523
-879
31200
9017
5147
24265
-1731
32721
26147
11826
24481
21778
-6300
25040
-16004
28369
18692
22556
12225
30205
-15999
19673
-26429
19369
7545
28812
-2192
32693
-23938
10219
-31664
5838
-5737
28971
-16274
28439
-25089
-858
-31067
-8474
-17279
22977
-26664
19044
-22736
-11497
-23818
-21249
-25199
12947
-32346
5235
-15235
-20537
-11742
-29137
-28314
540
-31424
-9282
-4783
-25097
1127
-31591
-26480
-11189
-24131
-22165
6314
-24821
15361
-27595
-18458
-22011
-11931
-30517
16632
-20004
26155
-19001
-7566
-27112
2430
-32676
23212
-10008
31133
-5276
5140
-28370
16721
-28179
25272
1400
30705
9157
17609
-22535
26644
-19071
22276
11759
24008
21189
24895
-12942
32377
-5036
15454
20187
12016
29529
28097
-588
31374
9450
5042
24333
-1245
32023
26476
11474
24195
22096
-6512
24644
-15542
27824
18114
21682
12428
30318
-16893
18970
-25826
18438
7082
27419
-2169
32695
-22878
9911
-31259
6013
-5959
27738
-16141
28515
-25096
-1594
-30180
-8589
-17228
22282
-26965
18614
-22061
-11402
-23789
-20749
-24757
12391
-32437
4637
-14531
-19963
-11703
-28376
-28508
347
-31305
-9677
-4399
-24901
2289
-31622
-25769
-11417
-23898
-22417
7083
-24186
15543
-27587
-18033
-21768
-11730
-30595
16475
-18869
26183
-19015
-6813
-27366
2213
-32692
23712
-10010
31432
-5363
6093
-27471
16434
-28347
25127
1572
30173
9102
17022
-22167
27264
-18175
22449
12293
24008
21980
24792
-12485
32330
-5328
14943
20095
11985
28731
27529
-40
31337
9571
4431
25083
-1520
31298
25006
11660
23884
22431
-7014
24451
-15451
28068
16985
21896
11636
30631
-17057
19542
-25885
18288
5966
27340
-2442
32675
-23808
10199
-30487
5085
-6158
28000
-16517
28299
-25795
-1079
-30020
-8691
-16746
21958
-27164
18323
-22687
-12430
-23180
-20540
-24715
12360
-32367
5103
-15569
-21214
-12358
-28881
-27737
886
-31281
-9754
-4707
-26215
2289
-30665
-25693
-11873
-24036
-22269
7300
-25182
15457
-26539
-17360
-21438
-11843
-30551
17497
-20053
26098
-17803
-6614
-26969
2443
-32675
24157
-10816
31392
-5745
5939
-27007
16681
-28202
26341
1469
30112
8430
17152
-21650
27008
-18553
22939
11821
23050
20980
24769
-11517
32484
-4293
15483
21019
11550
28066
27632
-71
31051
10464
4378
25253
-2012
31484
25028
12182
23914
22400
-6471
24609
-14690
27682
17288
21777
11693
30609
-17113
19748
-25148
17877
5854
26504
-3470
32582
-24112
9846
-29788
4341
-6156
26528
-16759
28156
-25360
-1244
-29548
-7992
-17461
21089
-27561
17721
-22547
-12704
-22679
-20500
-24523
11800
-32459
4475
-15346
-20685
-11185
-28787
-26598
172
-31133
-10217
-4479
-26450
2633
-30307
-24655
-11676
-23526
-22807
6978
-25385
14853
-26452
-17060
-19941
-10851
-30917
17286
-19508
25407
-16683
-5884
-26488
3100
-32619
23519
-10366
30065
-4630
5450
-26207
16499
-28309
25940
1783
29321
8328
16326
-21430
27535
-17762
22871
12928
22907
21003
24133
-11503
32569
-3593
15394
21511
11196
28380
27143
19
30974
10688
4684
25616
-2525
29968
24380
12048
23443
22893
-7080
25047
-15334
27224
16689
21443
11346
30739
-16801
19333
-25130
17377
5983
25809
-3399
32590
-24323
9931
-30853
4406
-5676
25995
-17304
27824
-25901
-1901
-28279
-8740
-16309
21417
-27611
17642
-22830
-12510
-21608
-20764
-23746
11919
-32487
4268
-15498
-21099
-11118
-28080
-27005
-106
-31135
-10211
-4856
-25395
2290
-29553
-23798
-11591
-23680
-22647
7344
-25718
15149
-25838
-16917
-20691
-11235
-30780
17623
-19960
25007
-16894
-6246
-25555
3427
-32587
24218
-10413
29989
-4804
6287
-26083
17023
-27998
26788
968
28495
8708
16146
-20851
27303
-18116
23451
13016
22480
20461
23449
-11839
32482
-4305
15427
21325
11203
27318
26475
-81
31075
10392
4497
25511
-1666
29269
23437
11540
23486
22848
-7407
24524
-14627
26239
15869
20452
11041
30850
-17363
19082
-24303
16639
5938
26081
-2876
32640
-24209
10030
-28906
4511
-5797
25263
-17172
27906
-25654
-1369
-28609
-8691
-17395
20373
-27312
18102
-22947
-12559
-21898
-19794
-23039
11595
-32517
4035
-15452
-20736
-11161
-27275
-26055
-348
-31096
-10327
-4481
-26136
2261
-29909
-23777
-11410
-23246
-23093
6686
-24802
14742
-25338
-16407
-20386
-10558
-31019
17626
-19661
24854
-16957
-6033
-25265
3713
-32555
24238
-10208
29597
-4132
6100
-24920
17981
-27392
26289
1494
27846
8741
16432
-19884
27425
-17931
22979
12150
21865
19679
23660
-11122
32612
-3183
15426
21398
11169
27725
25817
753
31128
10233
4636
25595
-1985
29572
22623
11872
23118
23220
-7152
25016
-14903
26012
15164
20557
10787
30940
-17070
19645
-24233
16424
5250
24887
-3498
32579
-23801
9732
-28803
4586
-6332
24744
-16924
28057
-26205
-1400
-28563
-8632
-16104
19366
-27680
17535
-22514
-12606
-21243
-19774
-22845
10162
-32532
3917
-15197
-20742
-10859
-27055
-25896
-372
-30748
-11322
-3413
-26064
2437
-27831
-22718
-11496
-23284
-23054
7305
-24664
15055
-25442
-14737
-20320
-11237
-30779
17089
-19699
24265
-17110
-4746
-24836
3157
-32614
24298
-9996
28917
-4758
6283
-24273
17589
-27645
25804
1711
28208
8532
16855
-19113
27811
-17326
22936
13254
20883
19803
23007
-10239
32574
-3545
14932
21701
10543
26929
25231
1152
31050
10467
4899
26585
-1506
30006
22752
12293
23081
23258
-7095
24823
-14593
25257
14880
20067
10718
30964
-18031
19765
-23849
16238
4362
24719
-3938
32529
-24276
9650
-28081
3377
-6343
24299
-17551
27669
-26005
-1528
-26731
-8188
-16763
19603
-27432
17920
-23224
-12571
-21295
-19777
-23383
10655
-32598
3314
-14653
-20647
-9662
-26651
-24257
-929
-31010
-10584
-4410
-26176
2079
-28571
-22563
-10883
-22968
-23369
7343
-25140
14587
-24592
-15202
-19583
-10532
-31027
17917
-19767
24146
-16169
-5121
-24389
4106
-32508
23974
-9384
28224
-3888
6595
-24043
17211
-27882
26530
1786
27654
8544
16732
-18542
27793
-17354
22725
13341
20883
19972
22599
-9479
32533
-3907
15303
21825
10509
27071
25017
1142
30889
10932
3670
25918
-2323
29139
21859
12090
23134
23205
-7091
25170
-14248
25624
14359
20891
10310
31102
-17488
19706
-23861
15935
4308
24718
-4190
32497
-24416
10298
-28135
4000
-6498
23824
-17874
27462
-26150
-1367
-27622
-8465
-16667
18980
-27866
17237
-22358
-12674
-20965
-19497
-22945
9378
-32630
2982
-15115
-21565
-10520
-26810
-24723
-1017
-30815
-11139
-3831
-25980
2420
-28359
-21445
-11639
-22562
-23761
8177
-25536
15061
-25548
-13890
-19782
-10304
-31104
18213
-19362
23562
-15844
-4406
-23765
4385
-32472
24729
-9872
29262
-3435
6965
-24090
17731
-27554
25949
1722
27590
8999
15896
-18262
28290
-16532
23182
12594
20596
19872
22199
-8728
32705
-2004
14753
21875
9621
26949
24117
1443
30691
11477
4413
26412
-2696
28615
21314
12209
22243
24060
-7270
24385
-14639
24518
13745
20646
9720
31291
-18204
19515
-23799
15501
3941
24102
-4815
32411
-24156
9463
-28445
4245
-6730
22852
-18776
26853
-26632
-2769
-26736
-9005
-16309
17971
-28457
16244
-22605
-12836
-20331
-19695
-22333
8822
-32663
2607
-14515
-21871
-9862
-26773
-24105
-1827
-30484
-12016
-3599
-26104
3340
-28145
-20688
-11655
-22450
-23867
8484
-25205
15075
-24158
-13936
-19737
-9347
-31405
18703
-19045
24460
-14955
-3917
-23621
4817
-32410
25047
-9413
27967
-3184
6642
-22456
18870
-26787
26028
2685
26937
9570
15681
-17180
28237
-16623
22791
14104
20800
19999
22375
-9214
32699
-2100
15241
21999
9380
26943
24794
2244
30062
13036
3295
25580
-3130
27882
20694
12771
21579
24657
-8201
24743
-15264
24364
13364
20462
9088
31481
-17720
18875
-23227
14812
2734
24260
-5171
32356
-24853
8808
-28086
3502
-7802
23276
-18398
27114
-25375
-2629
-26472
-8970
-16406
17431
-28523
16127
-22092
-13506
-19227
-20311
-22712
8046
-32715
1828
-14005
-22660
-9632
-27279
-23891
-2361
-30396
-12236
-3009
-26053
3432
-28439
-20573
-12157
-22178
-24120
8555
-25208
15980
-23808
-13531
-19715
-8740
-31579
19225
-18299
23695
-14798
-3244
-23533
5645
-32276
24989
-8622
28115
-2705
7319
-22293
19560
-26288
25833
3083
26612
9675
16939
-16594
28812
-15605
22004
13488
19779
19994
22587
-8157
32722
-1698
14549
22675
9284
26795
24369
3002
30209
12689
3210
26378
-4069
27559
20182
12810
21327
24876
-8066
23863
-14776
23415
12979
20371
8645
31605
-18856
18455
-23606
13931
2749
23456
-5811
32247
-23867
8574
-27538
2636
-7697
22845
-19316
26467
-25658
-2654
-25869
-10107
-16752
16374
-29116
15029
-21840
-14280
-19372
-19206
-22600
7710
-32743
1253
-13692
-22273
-8916
-26020
-23663
-2788
-30078
-12998
-2277
-25887
3203
-27100
-20594
-12941
-21231
-24958
9266
-24960
15707
-23374
-12444
-20098
-8486
-31649
19247
-18727
24286
-14444
-2463
-23442
6029
-32207
25227
-8892
27844
-3290
8212
-22087
20180
-25815
26287
3062
25960
9489
17385
-16513
29506
-14249
22359
14233
18901
19707
22646
-7592
32750
-1026
13781
22666
8437
26341
24025
3340
29898
13407
3006
25635
-3880
26638
19994
13108
20893
25241
-8489
24580
-15181
22794
12270
19988
7960
31785
-18816
18078
-23780
14861
2379
24222
-6588
32097
-23870
7988
-26475
2419
-8510
22000
-19670
26205
-25247
-2848
-25508
-9292
-17503
16464
-29270
14728
-22265
-14000
-18850
-19095
-22617
7495
-32765
330
-13427
-22568
-8135
-25565
-23777
-3329
-29665
-13915
-2497
-25616
3815
-27478
-19320
-12916
-20890
-25243
9434
-24908
15612
-22700
-11731
-20098
-7983
-31779
18656
-17974
23125
-13407
-1443
-22305
6873
-32038
25324
-7944
27411
-2001
8414
-21972
19805
-26103
25748
3318
25503
9926
15882
-15578
29199
-14867
22377
14687
18436
20810
21435
-7053
32765
-304
13445
22320
8141
25820
22717
2636
29671
13901
2392
25469
-4063
26812
18762
12630
20221
25782
-9252
24153
-15097
22344
11298
19643
7620
31868
-18102
18495
-23252
14137
1997
23003
-8010
31772
-24883
8114
-26447
2074
-8408
20921
-20350
25681
-25551
-3635
-24512
-9621
-16629
15434
-29546
14166
-21825
-14249
-17699
-19509
-21737
6732
-32766
-141
-13366
-22153
-7977
-25482
-22912
-3499
-29762
-13707
-2031
-26286
4229
-26402
-19230
-12870
-19876
-26049
9631
-24266
15787
-21634
-11057
-20000
-7134
-31980
18454
-17284
23841
-13668
-849
-21659
6918
-32028
24769
-7761
26833
-1133
8741
-20652
20701
-25399
26070
3514
25377
9908
16534
-15763
29712
-13814
21056
14249
18591
20832
22008
-5852
32763
464
13625
22260
7470
26034
22504
3797
29460
14344
1816
26158
-4104
26403
18099
13056
20293
25726
-9416
25049
-15363
22192
10535
20336
7026
32004
-19388
16981
-22828
13217
944
22685
-8379
31677
-24369
7433
-26868
2429
-9188
20844
-21072
25092
-25438
-3553
-24816
-10214
-16987
14014
-30271
12543
-20945
-15025
-18049
-19882
-20764
5522
-32760
-654
-12667
-21923
-8097
-25370
-22243
-3910
-29206
-14853
-1436
-25529
4282
-26259
-17589
-12833
-19522
-26316
10981
-25049
16064
-22169
-10719
-19818
-6056
-32202
19314
-17890
23851
-13122
-1380
-23015
9420
-31383
24552
-7718
27471
-1870
8518
-20961
21049
-25111
26670
3928
25309
10368
17169
-15239
29960
-13267
21388
15076
18000
19827
21442
-5403
32748
1103
12929
22871
7561
25180
22343
3798
28954
15339
1628
26857
-4478
25877
17700
13264
19573
26278
-10633
24832
-15401
20980
10086
18825
6295
32156
-19108
17775
-22934
12408
677
22599
-8583
31622
-24921
7549
-25767
1703
-8389
20237
-21208
24977
-25704
-4611
-24026
-9935
-16632
14112
-29922
13352
-20777
-15516
-16880
-19056
-21243
6051
-32728
-1582
-12596
-23715
-6615
-25319
-21213
-4609
-28887
-15466
-1597
-26249
4375
-25186
-17342
-12972
-19310
-26472
10123
-24313
15013
-20467
-10246
-18656
-6459
-32124
19748
-17828
22684
-12263
-860
-21596
9012
-31503
25809
-6826
25784
-854
8606
-20087
21502
-24724
26358
4477
24191
10486
16760
-14385
30281
-12518
20655
15236
17020
19323
21027
-5691
32756
811
12584
23280
6507
25158
21607
4523
28690
15827
1504
26068
-4269
26262
16947
12817
18411
27104
-10551
24301
-15894
20498
9438
19258
5937
32224
-18962
16986
-22323
12146
755
21119
-9052
31491
-24804
6794
-25627
762
-8676
20145
-22015
24269
-25725
-4341
-23967
-10950
-16588
13977
-30141
12852
-20384
-15974
-16292
-19775
-20696
5084
-32715
-1839
-11442
-23513
-6719
-25524
-21271
-4142
-28625
-15946
-845
-27238
5250
-25392
-17092
-13087
-18846
-26804
10497
-23831
15578
-20072
-9578
-18946
-5825
-32244
19842
-17166
22516
-11148
-641
-21244
9485
-31364
25348
-7327
25610
-603
8892
-19423
22310
-23998
26187
4527
23894
11041
16759
-13262
30295
-12484
20983
15554
15554
19438
20213
-4507
32607
3229
12474
23099
6363
24604
21240
4232
28184
16711
1527
26783
-5138
25000
17234
12867
18516
27033
-9767
24497
-15985
20257
9312
18878
4650
32435
-20649
16432
-22758
10726
196
20502
-8717
31586
-24909
6665
-25200
335
-9122
19259
-22081
24209
-26194
-4996
-23233
-10882
-16858
12967
-30363
12318
-20212
-15309
-16032
-18773
-20575
4435
-32680
-2382
-11861
-23734
-5929
-24548
-20421
-4745
-28021
-16984
-621
-26583
5449
-24582
-16494
-13570
-18678
-26921
10862
-24467
15679
-19756
-9657
-19099
-3874
-32537
20133
-16387
22858
-10975
43
-21118
9771
-31275
26397
-6063
25459
471
8732
-18919
22257
-24047
25566
5229
22821
11183
16011
-12435
30594
-11732
21236
16504
15529
19772
20018
-4090
32589
3401
12048
23314
5039
24193
19982
4687
28013
16998
536
26443
-5344
23857
16046
12854
18396
27115
-10525
23623
-15245
19178
9038
18838
5014
32381
-20525
16387
-22338
10457
226
20562
-10565
31016
-26319
6720
-25266
-296
-9996
18819
-22625
23701
-26539
-5633
-21997
-11159
-16220
12607
-30577
11777
-20448
-15977
-15640
-19828
-20993
4199
-32582
-3467
-11738
-23958
-5656
-25077
-19639
-5002
-28067
-16907
11
-26443
5347
-24552
-16444
-13321
-17291
-27832
11736
-23817
15651
-19531
-8854
-18886
-3693
-32558
21383
-16992
22321
-10193
363
-20745
10217
-31133
26352
-5895
24690
409
9534
-18716
22732
-23598
25192
5544
22623
11140
15687
-11614
31166
-10115
21124
17000
15152
19459
20011
-4167
32579
3503
11266
23305
5053
23829
19580
4979
27596
17666
-442
26489
-6359
24968
15610
13381
17353
27794
-11188
23659
-16295
19083
8216
18743
3526
32576
-19607
16657
-22628
10439
-1191
20107
-10514
31034
-25211
5627
-24100
-767
-9328
17627
-23509
22825
-25435
-6803
-21692
-11700
-16913
12391
-31108
10291
-20745
-16756
-14966
-20115
-20197
3876
-32535
-3891
-11241
-24896
-5242
-24849
-20068
-4793
-27798
-17347
-80
-26265
6322
-23889
-15337
-13825
-16890
-28078
12215
-23584
16187
-18520
-8003
-19113
-2770
-32649
21722
-16529
23074
-10107
1211
-21151
10989
-30869
26879
-5523
25318
695
9607
-18655
23978
-22331
24935
6201
21626
11785
15913
-11335
31030
-10525
20272
16690
14717
20138
19826
-3401
32476
4350
10346
23873
4395
23450
19403
5348
27398
17972
-694
26543
-6434
23132
14829
13489
16699
28192
-11955
23340
-15453
18425
6938
18704
3681
32559
-21213
15404
-22808
9423
-1186
19993
-10342
31091
-25476
4849
-24441
-1081
-9463
17738
-23604
22726
-25155
-6611
-20701
-11283
-15678
10997
-31258
9828
-19313
-17564
-13561
-18683
-19858
3221
-32527
-3957
-10607
-24648
-4211
-24189
-18406
-5464
-27395
-17977
944
-26206
5619
-22842
-14745
-13419
-16650
-28220
12849
-24331
16112
-18743
-7875
-19027
-2762
-32650
21630
-15929
23006
-9484
1621
-19426
11593
-30647
27498
-5001
24148
1571
10041
-16678
23900
-22414
25682
7370
21300
12019
16382
-11147
31357
-9507
20082
17383
13750
19897
18300
-2907
32447
4566
10897
24249
4072
23315
18555
5096
27307
18109
-1136
26790
-7124
23244
13636
12177
16274
28439
-12822
23377
-16222
18344
6784
17837
2348
32682
-21372
16387
-23021
10062
-1934
20294
-11735
30593
-27353
4541
-23956
-1401
-10167
16626
-23990
22319
-25777
-6825
-21001
-11563
-16470
10958
-31259
9823
-19266
-17491
-13620
-19284
-18567
2765
-32441
-4609
-10273
-25214
-3981
-23626
-18229
-5584
-26912
-18692
1515
-26246
7146
-22362
-13727
-13458
-15803
-28703
13940
-24029
16557
-17637
-8109
-18237
-2060
-32702
21640
-16572
21861
-8529
1753
-19665
11861
-30544
26755
-4710
23369
1445
9659
-16163
24515
-21741
26478
7499
21141
11654
16246
-10601
31403
-9353
19357
16902
13380
18840
18077
-1871
32425
4715
10586
25262
4574
24438
18647
6596
27333
18070
-1123
27134
-6717
22824
13694
13584
15858
28673
-12645
23712
-16077
17899
6416
18594
1996
32706
-20487
15339
-22532
10109
-1791
19643
-11570
30656
-25695
4708
-23420
-1603
-10244
15640
-24293
21988
-26091
-6981
-20590
-12076
-15979
10232
-31210
9978
-20854
-17108
-13346
-18747
-19224
2281
-32258
-5748
-9452
-24663
-3173
-23190
-17321
-6018
-26840
-18795
1249
-27271
7251
-23960
-13672
-12747
-16045
-28569
12810
-23816
15736
-18062
-6583
-17620
-1786
-32718
22471
-16023
22172
-8919
1482
-18929
12300
-30370
26624
-4327
23397
674
9517
-15896
24378
-21894
25829
8391
20760
11748
15749
-9747
31411
-9328
21128
18924
13535
19401
19031
-2067
32286
5590
10485
24888
3938
23375
18315
6389
26650
19063
-2087
25864
-6854
22237
13480
13014
15809
28700
-12771
22904
-16034
18148
5870
17748
2315
32685
-21673
15304
-21743
8895
-1767
18355
-12887
30126
-25578
4391
-22835
-832
-9870
16072
-24798
21418
-25259
-7392
-20334
-11112
-16315
10325
-31359
9498
-19701
-17821
-13622
-19546
-18543
2041
-32371
-5076
-10537
-24816
-3685
-23343
-17247
-6702
-26428
-19370
1300
-27365
6448
-22194
-13491
-12962
-16061
-28560
13572
-23705
15604
-17445
-5966
-17555
-1510
-32732
21784
-15648
21733
-8833
1818
-18502
12971
-30090
26880
-4097
23488
1615
9919
-16206
24649
-21588
25591
7771
19900
11285
15537
-10088
31470
-9127
19980
18316
12800
19179
17909
-2315
32193
6104
9914
24980
3835
22425
16540
6069
26593
19143
-1350
27522
-6907
21409
13354
13441
15787
28713
-13371
23366
-15468
16945
5465
17337
2151
32696
-21558
15243
-20938
9436
-2385
18321
-12502
30288
-26594
4857
-22478
-1278
-9825
15293
-24893
21306
-25032
-7643
-20322
-11746
-15486
9392
-31599
8668
-19810
-17103
-13233
-18552
-18747
1951
-32273
-5668
-10249
-25587
-3926
-22944
-17996
-5873
-26466
-19318
1580
-27311
6724
-22790
-12951
-12842
-15770
-28721
13680
-23748
15515
-16690
-6124
-17821
-965
-32752
22850
-15991
22207
-8691
1925
-18174
13172
-30002
26832
-4930
23058
1436
9901
-16128
24647
-21591
26169
8032
19936
11447
15699
-9547
31590
-8700
19988
18037
12609
17946
17706
-2013
32270
5684
9898
24667
3186
22840
17157
6624
26367
19453
-1288
26377
-6288
21357
12701
13521
15771
28721
-13232
23594
-15372
16335
5874
17501
840
32756
-20725
15115
-20908
8451
-3118
17848
-12637
30232
-25499
4261
-22486
-1204
-9669
14714
-24473
21788
-26604
-7290
-20019
-11480
-15543
10037
-31519
8954
-19476
-17941
-13325
-18581
-18465
929
-32192
-6107
-9925
-24661
-3287
-22448
-17734
-6144
-26260
-19597
1830
-26630
6510
-21470
-12644
-13165
-15530
-28852
13383
-23240
15670
-16345
-6028
-17430
-1476
-32733
22741
-16053
21274
-7889
1722
-17688
12609
-30243
26781
-4238
22733
1736
9969
-15315
24985
-21199
26799
7666
19636
11514
15359
-9872
31586
-8717
20201
17650
12825
19588
17762
-1562
32214
5992
10485
25338
3247
22997
17248
6551
26374
19443
-1939
25718
-6318
21152
11893
12355
15841
28683
-14394
23463
-15440
15898
5391
16658
2087
-1869
3126
-7401
-27559
5550
2721
32653
-12903
30119
-25936
5163
-22304
-1982
-10059
14606
-24525
21729
-25209
-7498
-18244
-10594
-15066
9093
-31631
8549
-19940
-18492
-12876
-18341
-17897
1345
-32281
-5618
-10926
-25695
-2874
-21099
-17325
-6096
-26184
-19699
2758
-26804
6194
-20660
-12281
-12748
-2610
2737
-233
7971
23176
-14898
-16271
-28441
-360
-32765
23204
-15619
21298
-8291
2414
-17854
13839
-29700
27360
-4387
21403
1263
9576
-14677
24733
-21492
25843
8161
18737
10670
14921
-8630
31846
-7711
19600
18993
12148
17975
17013
-1201
32034
6888
10820
25556
3159
22495
16657
5928
25918
20048
-1151
26910
-6882
21555
11926
13058
14957
29154
-12819
22664
-14201
16021
4935
17169
2837
-1269
1690
-7570
-26382
4267
2056
32702
-14065
29594
-27279
4307
-22355
-1819
-10455
14537
-24844
21363
-25796
-7790
-19313
-11317
-15386
8817
-31684
8352
-20117
-17962
-12624
-18197
-17671
1445
-32143
-6364
-9401
-26960
-2699
-22282
-16898
-6320
-26035
-19895
2139
-26851
6486
-20062
-11866
-12044
-3056
2728
487
6713
23065
-14896
-14774
-29247
-220
-32766
22789
-14814
20227
-7907
2462
-17200
13752
-29741
26906
-4770
22722
2003
9808
-14306
25357
-20752
25019
7883
18508
10817
15404
-7991
31831
-7775
20541
19346
12142
18295
17853
-591
32048
6825
9267
25439
3606
20988
15788
6503
25930
20032
-2074
26688
-6564
20640
11097
13528
1472
-3700
-2122
-5859
-21657
14666
16175
28496
57
32766
-21725
14958
-19984
7517
-2897
17005
-14126
29565
-27627
3790
-21797
-2520
-10051
14193
2135
1548
6397
-2528
-19553
-18136
-23957
22354
-31929
7361
-19958
-18383
-11519
-18121
-17838
1092
-32096
-6596
-9650
-25828
-2925
-20068
-16925
-6385
-25839
-20149
2453
-27853
7297
-20774
-12328
-12713
-3015
2598
1410
6853
22541
-14974
-15280
-28985
298
-32765
22640
-14893
20239
-7036
2831
-16549
13851
-29695
26394
-3315
20812
1811
9773
-13593
25685
-20344
25490
7719
18473
11176
14554
-8173
31911
-7437
20181
18767
11979
18631
16400
-841
414
-3224
-7459
-5154
-2449
28223
32279
5632
25415
20682
-2363
26886
-6416
20073
10764
12797
2779
-1639
-46
-7804
-22022
15801
14507
29380
-272
32765
-21928
15150
-19293
6700
-3188
16144
3340
-393
4475
-5339
-23485
-8082
-12942
30102
1732
2512
8218
-2550
-21618
-20873
-23623
22706
-32123
6461
-19531
-18339
-11365
-18114
-16907
773
-32024
-6935
-9943
-25915
-2357
-20988
-16129
-6899
243
2613
2802
6109
13796
-24686
-26283
-19566
-2631
1675
216
7587
23459
-14936
-15290
-28980
449
-32763
23060
-14626
19118
-6686
2571
-16292
14837
-29214
27166
-3869
21080
2808
9798
-13785
-3303
-1506
-7316
1870
20252
20816
24616
-21626
32023
-6940
19804
18284
11946
18231
17081
-352
-1029
-3769
-5849
-4430
-2166
27635
31897
7496
25283
20842
-2874
26574
-6558
19688
10574
12251
13488
29862
-14391
23307
-15435
14901
3968
15725
3447
-1942
2342
-5969
-27629
3375
229
32766
-14116
29570
-26860
3947
-20215
-3036
-9843
13349
2683
2344
5918
-3002
-19159
-18868
-24733
21492
1180
2720
6672
1009
-8843
-26576
-31705
8271
-17
2437
5502
3410
2241
-26865
-32169
-6227
-1103
2582
2956
6103
13889
-23395
-25713
-20310
-3009
1988
551
7407
22924
-14169
-14734
-29267
-3846
763
-1660
8232
28125
-3375
-1277
-32742
-3947
6
-5923
6184
26121
8917
13070
-30047
26262
-19594
25491
9253
17651
11222
14267
-6773
32138
-6387
19240
19569
10866
18055
15393
-522
-693
-3599
-6726
-3575
-2833
27941
32046
6834
1322
-4565
-4530
-6320
-14950
24117
25103
21058
1908
-2350
-1533
-7222
-23347
14912
14853
29206
3236
-1454
2545
-7946
-28807
4162
-232
32766
1880
341
4954
-3713
-25320
-8827
-14187
29536
2177
2013
6714
-1918
-19726
-20356
-25070
21098
963
2911
6136
1298
-8269
-25668
-31916
7418
-142
2403
5262
3516
3746
-25938
-32110
-6527
-1920
2810
2857
6281
14558
-22247
-25386
-20717
-3294
2347
947
7438
23574
-13956
-14101
-29577
-4280
258
-3062
8360
26166
-2378
-159
-32766
-2418
-342
-5704
4926
25060
9251
13027
-30065
-3202
-2595
-8191
3351
20256
20317
25829
-20161
32284
-5604
18900
19633
10423
17522
15329
-186
-389
-2057
-5460
-4402
-3798
27402
32157
6289
1288
-2989
-4894
-6217
-14133
21634
26250
19610
12779
30172
-15022
22696
-15522
14362
3773
14374
3850
-290
2225
-8109
-26451
4117
-1557
32729
2694
1599
5072
-5452
-26249
-9035
-14835
29216
1853
1711
6295
-3970
-18755
-18087
-25105
21056
1069
3226
7262
1008
-9744
-26820
-32060
6766
-501
3393
6196
3156
3278
-27402
-31871
-7607
-1606
2579
3304
5816
15553
-22924
-25306
-20814
-3339
2367
-135
7036
24108
-13140
-13546
-29835
-3161
734
-2486
5189
26674
-2035
1363
-32738
-3519
-1354
-4992
4839
24763
10841
13948
-29650
-2983
-1472
-7009
2727
18563
17976
26217
-19655
-718
-3054
-8169
-1641
7504
25773
31911
-7438
-151
-3886
-6314
-4490
-4239
27183
31898
7495
1835
-1648
-4444
-6367
-14779
23047
25876
20102
1704
-2487
-1144
-7585
-24745
14509
14790
29239
2165
-402
2878
-5992
-27087
2703
-1395
32737
2442
458
4569
-5302
-25806
-9478
-14099
29578
1920
2812
6845
-2266
-18097
-18496
-26377
19439
977
2483
7453
385
-9160
-26728
-31943
7301
-907
3464
6267
3243
3264
-27840
-31646
-8497
-2602
3542
4646
4686
15523
-22447
-24730
-21495
-2680
1439
-375
5989
23909
-12671
-13587
-29817
-2901
265
-3305
6394
27810
-2470
869
-32755
-2599
-1817
-5811
5381
24913
9742
14558
-29355
-2411
-3591
-6790
2165
18302
20186
25912
-20055
-1350
-3504
-8499
-814
7907
25571
31940
-7314
1086
-1894
-7327
-3613
-2809
28404
31936
7332
1560
-2440
-3507
-6164
-15933
22476
26012
19926
1859
-2984
-3046
-5928
-23844
13975
14225
29517
3022
-723
1665
-6374
-25995
2072
-727
32758
2916
726
4083
-3273
-25020
-10542
-15446
28897
2481
2506
5987
-2604
-18079
-20649
-26215
19657
926
2449
6315
420
-7162
-25091
-31861
7649
-1169
3700
7426
3329
3250
-27045
-31701
-8288
-1311
3159
2186
5773
15067
-21965
-24005
-22302
-3250
1413
1365
6310
24514
-15573
-11987
-30495
-3354
-405
-2878
7829
27818
-2130
534
-32762
-1859
-851
-5586
4844
25037
10126
14352
-29456
-2774
-2091
-6194
1826
17125
20179
25695
-20332
-62
-4131
-7277
-1341
6993
27023
32102
-6564
1095
-2690
-6894
-5292
-4261
27283
31861
7650
2146
-3019
-4379
-6122
-15846
23290
24854
21352
2285
-874
-915
-8290
-24054
15057
13932
29657
2103
-964
2092
-5810
-26954
2409
-188
32766
3442
2020
4993
-5043
-24497
-10880
-14979
29142
2645
1273
5939
-1622
-18389
-19905
-25920
20044
-118
3478
6834
1562
-6538
-25145
-32154
6306
-2883
2670
6346
4763
4524
-27097
-31490
-9057
-2304
2147
3059
7352
15454
-23954
-24516
-21740
-3527
1433
464
6154
23986
-12832
-12567
-30261
-4486
22
-2197
6408
28233
-2216
2420
-32677
17504
-27699
27817
-1908
19845
2659
9760
-10886
-2067
-2365
-6481
1800
17505
20011
26584
-19155
-1465
-4522
-7547
-931
8075
27497
32331
-5325
339
-3071
-6509
-3487
-4087
27600
31701
8287
1634
-2047
-3348
-5761
-16077
22415
24987
21196
2217
-892
-427
-5744
-24067
12975
12812
30158
3451
-144
1361
-5526
-28697
1150
-1844
32715
3450
2249
5275
-5539
-25358
-10010
-15577
28827
1516
1936
6063
-1513
-17262
-21252
-25588
20466
968
1624
4832
702
-7529
-26084
-32182
6163
-1572
1669
5247
2908
5193
-28306
-32002
-7037
-1290
1820
2794
6077
16309
-23773
-25165
-20984
-3371
381
303
6972
21472
-12286
-12047
-30471
-4087
-752
-3427
7765
27251
-2346
1917
-32710
-3185
-2164
-6167
5885
25456
10654
15230
-29012
27609
-17646
25097
10714
15323
10570
12774
-5099
-1554
-3267
-7846
781
8840
27379
32230
-5906
752
-4377
-7597
-2929
-4603
28741
31585
8720
2123
-2411
-3851
-6086
-15447
24089
24048
22256
3369
-1660
-1879
-6721
-25024
14524
12080
30458
3152
-821
1403
-6887
-26917
2390
-1163
32746
2445
1519
4974
-4397
-26738
-10927
-15923
28637
1605
2288
6233
-2742
-18392
-20465
-25995
19947
75
3469
5106
1807
-6236
-27016
-32345
5238
-999
3854
4760
3783
5191
-27201
-31161
-10132
-2515
2635
4078
5572
17413
-23871
-24808
-21406
-3817
755
511
6738
23378
-13076
-12378
-30339
-3324
-230
-2020
5719
27400
-718
1879
-32713
16932
-28052
28079
-1500
19444
2911
10403
-10064
-1942
-1620
-6564
86
17701
20399
26717
-18969
32502
-4153
18295
20280
9337
16902
14021
1540
949
-3446
-5926
-2828
-4990
26658
31521
8949
3046
-2465
-4085
-5614
-15687
22838
23739
22585
2827
-917
-940
-6380
-24349
12942
12746
30186
2248
1735
3525
-5861
-28177
1033
-1922
32710
2404
1242
4226
-4503
-25424
-11275
-15708
28756
649
2165
5982
-2373
-18602
-20816
-26214
19659
-1149
2755
6725
869
-7802
-27333
-32202
6055
-1133
3791
5306
3020
5349
-26377
-31127
-10234
-2727
2362
3278
5918
16793
-21675
-24621
-21620
-3771
1713
971
7108
25466
-13733
-12217
-30404
-3365
-1041
-2292
6063
26890
-771
2221
-32691
-3100
-1312
-4531
3222
25380
11132
16907
-28068
-2724
-2646
-6527
2727
17061
21163
26968
-18611
-302
-2271
-8270
554
7859
26942
31889
-7532
727
-2396
-5794
-3106
-3897
27696
31255
9836
413
-2232
-4426
-5275
-15160
21529
24888
21312
3141
420
-218
-7546
-24713
12710
11759
30583
2054
1176
2499
-6034
-26480
822
-1956
32708
1951
2747
4869
-4167
-24623
-11119
-17531
27682
1099
2897
6407
-323
-16140
-20815
-27275
18158
209
3168
6472
917
-6529
-27865
-32482
4305
-1097
2276
6195
4331
3795
-26884
-31334
-9583
-2801
2032
4726
5956
16026
-21399
-24660
-21576
-3575
518
595
7423
25163
-13499
-12159
-30427
-3111
71
-2181
5588
27276
-75
2787
-32648
-2861
-1331
-4264
5614
24588
11473
16502
-28308
-1754
-2142
-6225
1517
17153
21191
27114
-18397
-1181
-2554
-6539
-1246
6483
27395
32409
-4830
1242
-1865
-5130
-3924
-5748
27264
31209
9980
2098
-2403
-3667
-4632
-17060
22061
23458
22877
3691
134
-2042
-6986
-25541
13292
11333
30744
2941
44
1141
-5691
-27186
368
-3723
32554
2236
2409
4782
-4664
-24792
-11996
-16685
28200
1770
3401
5791
-2319
-17107
-22870
-27527
17773
-1026
3531
6705
-7
-7281
-28596
-32535
3891
-1181
2348
4426
3952
6555
-28082
-31107
-10295
-3012
492
2647
6100
16988
-22075
-23772
-22551
-3504
672
687
6087
23888
-11048
-11584
-30650
-3955
-1019
-2203
6269
26863
1047
3542
-32574
-1594
-1860
-3819
3405
25213
11592
18047
-27349
-2049
-3094
-6388
2000
16595
21727
27739
-17440
-44
-3295
-6864
-528
5987
27291
32439
-4621
2519
-3815
-5726
-2895
-7140
27254
30734
11361
1893
-2841
-3685
-5169
-18472
23438
22581
23743
3960
113
-1189
-5944
-24418
12420
9503
31358
3734
1953
2378
-4806
-28287
-817
-5715
32264
3046
1545
3805
-5382
-25908
-12543
-17645
27610
227
2377
6473
-2054
-17127
-22089
-27368
18018
-945
2699
5661
-307
-6174
-26394
-32507
4115
-2302
1329
3965
2952
7822
-26725
-31163
-10124
-2201
946
2329
6448
18190
-21395
-23285
-23053
-3370
18
-635
7268
26740
-10691
-11260
-30771
-3795
-1141
-1835
7104
28858
899
4099
-32509
-1718
-1814
-4461
3751
23741
12336
17293
-27832
-1111
-3212
-6701
2206
16314
21403
27752
-17420
855
-1807
-6187
-1205
5837
26860
32556
-3708
1604
-2563
-5877
-4513
-6150
27460
30767
11272
2884
-1711
-3451
-5834
-17583
21799
22968
23369
3478
-387
-904
-6231
-26154
12359
9498
31360
2733
770
820
-5342
-28563
-955
-4523
32453
919
2539
3598
-2789
-23789
-13441
-17707
27570
-141
3800
4970
-1745
-15783
-23714
-27803
17338
-887
3808
5856
1069
-4101
-27653
-32695
2159
-2423
2795
5913
3339
6560
-27473
-30585
-11755
-4878
1616
2801
6791
19627
-20919
-22102
-24190
-4957
-467
102
7239
26653
-12072
-9446
-31375
-3949
-1658
-1895
5856
26983
1050
5029
-32378
-2352
-1642
-4329
4321
25265
13923
18100
-27313
-1236
-3195
-5865
2018
15721
22314
28436
-16280
-637
-3584
-5939
1038
5503
29385
32659
-2656
2048
-2355
-6594
-3054
-6855
25808
30936
10797
1878
-1842
-5101
-5668
-17584
22707
23305
23033
3974
714
-1155
-6226
-26956
10701
10155
31153
1773
1857
2951
-5271
-28518
-1196
-4512
32454
2657
2418
3122
-4551
-23821
-13052
-18476
27060
62
3099
5416
-1174
-15792
-23610
-27811
17325
-1463
2517
5066
1047
-3409
-26555
-32626
3027
-2355
2962
5190
4071
7998
-27579
-30429
-12153
-3568
1363
1879
4836
20241
-20882
-21719
-24534
-3153
617
669
5080
26954
-9188
-10480
-31045
-3019
-1378
-2089
6771
28931
1765
4003
-32521
-2563
-3151
-4577
3545
24304
13473
19472
-26353
-651
-3277
-6338
1636
16713
23041
28261
-16581
1476
-3582
-6972
-1927
3920
28447
32657
-2672
1730
-2501
-5518
-4220
-7859
29043
30351
12347
2872
-462
-3969
-4998
-18243
20853
22500
23820
2381
-84
-1558
-5114
-25627
10412
9932
31225
3117
2289
977
-6228
-27025
-563
-5646
32276
3111
2431
3812
-4722
-24955
-13500
-18943
26735
-1349
3438
6431
-781
-16031
-23466
-28208
16671
-1736
2607
6527
1706
-4990
-27517
-32646
2804
-1972
1164
3857
3577
7086
-27170
-30490
-12000
-3331
574
2864
5461
17600
-21908
-20814
-25306
-3372
-1292
844
6454
27173
-11126
-9384
-31394
-3256
-2188
-2272
5949
26329
1895
6357
-32144
-2316
-2331
-3837
4297
24830
13544
19744
-26149
714
-2586
-5984
928
17372
22533
28871
-15494
1636
-2230
-6748
-350
3962
26156
32563
-3649
2490
-2615
-6832
-2796
-7463
27792
30547
11854
2516
-717
-3922
-3974
-18508
20895
21861
24408
4442
263
-1888
-6492
-25709
10017
9512
31355
2858
1540
2377
-6057
-27649
-1618
-5270
32340
1769
2215
3361
-5245
-25296
-12420
-19039
26667
377
3017
4521
-1995
-15662
-23416
-28891
15458
-1600
2697
6024
176
-5309
-27506
-32720
1753
-3263
2147
5098
3219
8687
-26450
-30441
-12123
-3156
2513
3920
4746
19245
-20470
-21795
-24466
-4521
-473
462
6925
26759
-10460
-8613
-31614
-2913
-2207
-2864
6933
27403
1483
5308
-32334
-1746
-2647
-4088
4073
24504
14702
18970
-26716
-993
-3030
-5516
2308
16588
22726
29243
-14781
2101
-3060
-7119
-832
5389
28379
32691
-2224
2801
-2868
-5054
-3352
-8044
25889
30076
13003
3228
-589
-4119
-5569
-18395
22068
21668
24579
2946
1101
-471
-5099
-25378
11679
7194
31967
3185
1845
937
-4883
-26874
-1997
-6315
32152
2062
3017
3883
-4755
-23365
-13394
-18351
27146
-97
3102
6089
-1874
-16312
-22400
-28897
15447
-2665
1717
5246
960
-3992
-27309
-32693
2188
-3251
2029
4323
3928
10183
-27654
-30475
-12037
-3531
1161
2177
5324
19283
-19605
-21203
-24981
-4322
-214
712
6759
26377
-10105
-8051
-31762
-4133
-2083
-1739
6363
27049
1445
6452
-32125
-853
-3418
-4984
3560
25589
15033
18940
-26738
33
-2824
-4847
1507
15944
22816
28940
-15366
676
-3206
-4712
-701
3440
28391
32752
-990
2567
-2101
-4380
-3921
-7195
26197
30006
13163
3967
-329
-3826
-5144
-19994
21345
21669
24578
2563
67
-1243
-6365
-26063
10983
9340
31407
2590
1831
1626
-4372
-27066
-2228
-6552
32105
1181
2706
3319
-3598
-24807
-14394
-19116
26613
-257
3315
5162
-1296
-15999
-22894
-29102
15057
-2381
2606
4529
2054
-4557
-28362
-32765
313
-3211
1720
5107
3245
7602
-25999
-30146
-12840
-3940
777
3326
4115
19111
-18657
-21953
-24325
-1995
215
774
4023
26774
-11337
-7738
-31840
-2788
-3362
-3458
5189
27646
1397
7138
-31980
-2586
-3222
-4463
4506
23635
13996
19482
-26346
-827
-1786
-5251
2560
16118
22178
28479
-16204
1747
-3160
-6186
-714
3229
27899
32675
-2453
3075
-769
-5455
-3612
-7369
27100
30399
12229
3582
-445
-3374
-5587
-19769
22017
21933
24343
3628
796
-1577
-5311
-26479
10138
8885
31539
2919
2160
2309
-5890
-29781
-1801
-6096
32194
125
3376
4853
-4946
-23781
-13135
-19309
26472
-56
3111
4388
-1434
-15037
-21545
-29282
14703
-1397
3899
6125
-80
-4475
-28746
-32742
1256
-3536
2509
4453
1998
8785
-27088
-29551
-14155
-3868
1029
2777
4466
20649
-20004
-21941
-24335
-4027
-1642
786
6198
27636
-10342
-8390
-31674
-3040
-2590
-1265
5005
26377
2669
6979
-32015
-1267
-2853
-3650
4272
24443
13725
18971
-26716
-224
-3852
-5738
1981
13736
22695
28637
-15923
1454
-2881
-5364
-467
3704
29038
32753
-931
3221
-1786
-4472
-3560
-7942
26799
29744
13746
3785
-820
-2858
-3208
-18821
19418
20768
25344
3875
1065
-1374
-5836
-27098
9936
8399
31672
2008
2039
949
-4382
-28051
-2375
-6420
32131
533
2983
3589
-4525
-23077
-14227
-18915
26755
-178
2018
4075
-1892
-15382
-24368
-28764
15693
-2565
4045
4743
589
-2872
-27732
-32766
-140
-3403
1163
3103
3625
8257
-26650
-29478
-14306
-4343
671
2404
5215
19721
-21098
-20361
-25672
-3431
-2371
428
5748
26064
-10170
-8147
-31737
-1796
-2020
-3000
4584
28643
2621
6347
-32146
-1688
-3154
-3218
4972
22839
14938
19261
-26508
509
-3782
-5634
2366
16611
24681
29322
-14624
909
-3421
-5751
457
3658
27502
32741
-1280
3906
-1520
-5694
-2527
-8514
26511
29903
13396
3220
349
-3487
-4397
-18763
20727
20624
25461
3765
812
-1747
-4617
