1651 9 80689b40 0 13880 7
4541
8815
-2914
13893
-20912
25226
2465
17699
-1972
11010
-8652
6656
-31923
7387
-9091
15382
-10872
3701
-12168
-10050
-20636
-25451
-17653
-1705
-7351
-7823
-995
-13677
7610
-31870
-10511
-12532
6512
-10347
11109
-4765
32722
-1715
11149
-14586
5947
7750
-549
16556
-16228
28465
7641
15898
-7925
8367
-14073
2621
-32094
-6604
-13963
10151
-9533
4396
-13318
-2458
-25027
-21149
-17398
1676
10493
-4981
15268
3962
26759
18910
19221
-2903
10308
-61
11875
8864
14211
29524
15812
4055
7768
9350
1560
13692
-14035
29608
7527
17461
-8053
6794
-12784
1385
-28798
-15630
-15080
7171
-10620
-5842
-7085
-14168
-1401
-32737
-13553
-11059
4190
-8877
12594
-5020
32731
-1527
11622
-11530
-8713
8706
-14833
-835
-29336
-14595
-15319
5424
-5334
-12019
4002
-14412
17346
-27799
-4534
-18818
-22
-12905
5484
-13181
28601
-15989
5099
-16186
10947
1762
8652
9913
9881
31241
14982
8144
1050
10171
-8766
11006
-29052
15153
-5821
17817
-9885
5613
-15098
-1117
-27186
-18291
-19825
4409
-11415
2
-12415
-9106
-15597
-28816
-17941
-4300
-10009
-5235
-8250
-13980
-2642
-32660
-14489
-11570
-6108
-11129
3542
-18177
17432
-27745
-4326
-19080
1784
-11783
11005
-7704
31533
-8906
6969
-15955
9293
-6279
14757
3326
27230
18225
18738
-2347
11435
4919
8143
11447
3000
32629
13457
10896
8851
11379
1195
13414
-11232
30781
7855
15709
-742
-12493
7085
-10822
27223
-18236
4544
-18786
3348
-13846
11952
-7225
32637
-2906
11607
-12605
8602
-8459
14037
-2116
30705
11438
14010
-5386
-9997
6006
-14786
-3832
-26121
-19783
-17054
6121
5142
-9942
15127
-5069
32642
2858
15660
-13923
9462
4233
1540
13528
-2755
32650
10112
12595
-6108
11420
-13962
4486
-32595
-3350
-13803
11089
-12006
-1772
-9612
-10267
-11207
-30790
-14073
-6854
-9697
-7018
221
-14447
8414
-31668
-6892
-15378
-3117
-12476
6393
-12313
27941
-17115
5446
-15033
14180
-4878
14532
3205
23216
23122
14287
699
-9547
8639
-16388
2018
-31942
-7306
-15607
6638
-13692
-3453
-10689
-11743
-15128
-29065
-17458
-6790
-3237
-9996
5711
-16569
21598
-24641
-306
-18338
11141
-234
12889
6188
18936
26740
15826
2770
12637
4439
5011
14850
-2133
32697
11658
13051
7364
9886
-178
14773
-15935
28630
5311
17316
-3320
11144
-11060
13562
-30458
12082
-4576
16587
-9824
-7529
-4920
-12648
237
-32766
-10352
-12220
4057
-12174
13379
-9856
32114
-6506
10525
-14213
7647
8473
355
13245
-15947
28624
4397
16411
-4944
11867
-14908
5507
-32762
-569
-14441
11284
-10774
2728
-13403
-7976
-20281
-25735
-21402
-3791
-10024
-6039
-5959
-13141
897
-32754
-13560
-13336
12253
-6037
13879
2151
25465
20620
18618
-1325
13439
-1143
11299
10764
14069
29592
16705
7889
2059
10658
-8073
11954
-24704
21526
-3151
17669
-13549
1729
-14385
-6049
-20307
-25715
-16457
-3842
-8546
-8134
-2199
-15555
7745
-31838
-9619
-15915
-4386
-13477
3555
-16466
19631
-26235
-1021
-18082
1092
-12584
8649
-12142
28926
-15393
7078
-16048
5351
-10743
13521
-7351
32763
-451
11956
-11395
8325
9691
-1116
15189
-13690
29769
4887
16666
2970
11537
-7440
13425
-26186
19696
-2659
15417
-12149
3333
-16824
-3760
-25989
-19956
-18607
2318
-9097
-7906
-2245
-13109
7446
-31909
-11471
-14045
10288
5846
4650
12895
1415
32736
12410
11284
457
13119
-9852
10927
-30222
12659
-4556
13565
-5654
11430
-14366
6135
-32705
-2006
-12305
14461
-11478
6494
-13400
-4828
-26428
-19370
-16878
889
-12972
-2418
-10608
-13818
-7852
-31812
-15838
-10992
4772
-11958
14230
-7664
32764
393
12815
-11971
12034
-1179
10373
11322
15490
28873
16529
5306
-7277
12665
-15363
3292
-32039
-6867
-15635
9180
-9703
3888
-15669
-2245
-25423
-20671
-17006
2001
-13555
87
-10714
-9445
-15451
-28894
-13717
-5002
-10439
-5443
-6431
-13641
-1355
-32738
-14760
-11212
-8268
-8774
793
-14377
14654
-29307
-7092
-15491
9789
-6401
11384
1623
25180
20966
17566
-2741
-11439
2630
-14288
-6345
-20518
-25547
-16114
-494
-5729
-10544
5715
-12558
26074
-19843
1297
-17637
9360
-8377
14868
-190
30502
11969
16697
-5744
11608
5779
6860
10739
3656
32562
14872
12080
-3057
10863
-10821
9883
-31191
10037
-8625
14179
-8803
7977
-14583
1519
-30028
-13113
-17232
7408
-4107
-9358
524
-14540
17808
-27505
-3145
-17457
11358
-5248
14234
7246
22697
23632
17283
1270
4707
9322
-3524
14715
-15370
28938
2034
17438
-3223
9758
-13516
7630
-32633
2953
-11338
12713
-11701
-1974
-11393
-12579
-10226
-31130
-17045
-7657
-6253
-7770
-2010
-14066
10730
-30960
-8913
-15917
13054
-4640
10241
9864
17115
27941
16888
4490
9796
9980
1954
16716
-11375
30728
7843
16190
-497
10086
-11806
10759
-30976
10684
-7672
15366
-8617
10945
-13962
-850
-31598
-8672
-16191
7606
-12756
4703
-15400
-7816
-23595
-22735
-15786
-861
-12427
-3405
-7799
-13019
-4519
-32453
-15149
-12356
-7544
-9768
3413
-16105
16744
-28165
-3395
-17076
-8893
9807
-16475
576
-31209
-9982
-15910
7282
-13366
-1681
-11210
-12167
-10348
-31089
-15882
-6343
-109
-14884
7990
-14915
27496
-17821
2245
-17259
6145
-12055
12419
-4116
32495
4211
12976
-10842
16502
714
13427
13203
12539
30272
16958
9255
11782
6081
4682
14995
-1676
32724
10834
13459
-3058
10456
-13748
7096
-32450
4543
-9881
14472
839
-13333
9894
-11782
30736
-11355
7832
-15706
10411
6359
5127
13552
-2797
32647
9757
11974
3798
11456
-5263
15321
-21543
24688
8
15981
469
12970
-9794
10459
-30882
10951
-8728
16420
-10617
8205
-14828
3159
-31717
-8228
-14799
9604
-11157
-5742
-4786
-15546
2679
-32657
-10362
-12309
-4728
-12720
3275
-15466
22282
-24024
-1534
-17440
13752
-3684
12973
7110
19927
26011
17171
4692
7285
11372
-1824
16868
-14297
29483
4109
17249
2169
13376
-8513
17644
-26227
19641
-5124
15719
-3284
11886
-12834
8627
-32318
5405
-11140
17150
-12506
-8695
-7564
-14037
-23
-32766
-12084
-13711
-2474
-13940
5756
-14903
26133
-19766
3482
-20050
8118
-12778
15359
-9394
32760
645
14845
-11749
10046
-9721
14088
780
28502
16163
16654
-5218
8644
9763
-1516
17734
-16557
28275
6190
18113
-9768
9544
-16100
2542
-31974
-7164
-14919
8609
-2996
-13695
211
-15484
21246
-24944
-1009
-19436
6258
-11898
14204
-6101
32758
731
12067
-10538
4433
11921
235
15759
-14403
29431
6716
15001
-4377
8796
-17882
3993
-32766
65
-12841
11785
-10960
7984
-14323
-1913
-29745
-13743
-16354
2772
-7978
-11809
-1873
-16933
15582
-28824
-6702
-18534
5220
8498
29
14578
-14553
29357
5886
17382
-10517
-7385
-5676
-13021
1132
-32747
-9647
-9010
-8633
-11257
-420
-18434
14428
-29419
-5193
-18401
-1109
-12685
6542
-15697
25102
-21059
1126
-17943
-3548
12599
-11802
10855
-31800
7898
-10336
15257
1395
778
-5452
-7481
-23962
-22348
-21616
6889
-11964
-6644
-7887
-17088
-1466
-32734
-11569
-13511
-3037
-14136
5620
-17636
25812
-20184
3288
-19232
10224
4212
7627
15451
50
32766
12140
13152
7172
9109
1257
18424
-12104
30449
5558
18599
-14323
-209
-15216
-10361
-15128
-29065
-14085
-7832
-9800
-3810
-6110
-17509
-1390
-32737
-12348
-13641
-9525
-10982
-190
-16958
13038
-30061
-7788
-18464
-2873
-12664
6461
-14413
25253
-20879
804
-15757
5790
-11808
15925
-7933
32685
-2304
10272
-11094
9698
9851
5443
15562
-5783
32252
9870
15628
-2321
12025
-14066
11273
-31881
7567
-10444
16452
-12875
-3160
-6653
-15697
-1273
-32742
-10584
-14193
-6278
-14312
6287
-16425
25609
-20440
1645
-18700
8310
6962
2651
16069
-4718
32425
11188
14197
-8479
9010
-14986
-1815
-30645
-11598
-16039
6697
-13761
1725
-17460
-5549
-23202
-23137
-18936
-1621
-3679
10923
-14782
12934
-30811
11151
-7928
16723
13147
6787
9398
15118
4486
32458
12980
11734
10169
11770
2707
16230
-10965
30877
5823
15216
1367
15220
-11419
13913
-28027
16974
-4204
15743
-4987
-14707
3997
-16868
21562
-24672
2493
-19015
7699
-10939
13908
-5658
32620
3091
13687
-10602
10904
-7161
15004
3032
28519
16134
15851
-2746
7228
9124
2996
14514
-8353
31684
5777
15511
3748
11370
-7654
17346
-23137
23202
-914
17141
1277
-15829
12731
-15289
30931
-10813
8772
-17534
14360
-2292
14411
9600
18901
26765
20704
4975
9889
9265
3755
15526
-10862
30914
7751
15737
-250
13376
-12830
11456
-30922
10838
-8521
13706
-1804
-1230
40
-7719
-11017
-30859
-20629
-3455
-12331
-10132
-2488
-16408
8587
-31621
-7014
-17736
-3843
-1781
9733
-3608
21539
-24692
-1699
-21908
11479
-10029
15137
-4177
31555
8827
14116
-5137
13023
-4357
14603
6127
25512
20561
16812
-1930
9530
7745
637
15453
-8995
31508
7204
15434
610
13675
-8888
15428
-26464
19320
-4703
14598
-9846
9166
-16395
2737
-31837
-7749
-15998
6700
-14906
4326
-17117
-2812
-23678
-22649
-16659
-887
-13720
-1596
-14411
-11643
-11975
-30500
-15036
-7823
-7760
-10585
1587
-16566
15538
-28848
-2914
-16097
1433
-14211
12347
-14109
29493
-14276
8904
-16294
5265
13976
-7523
16330
-20250
25760
-936
17181
-2788
12109
-9705
12619
-29887
13431
-7170
15699
-14377
7593
-19462
-1445
-28608
-15975
-15665
2935
9601
-9693
15559
-2177
31326
9608
14108
-8553
7527
1759
10208
4647
7185
31969
23319
6251
9865
9496
2300
19130
-9171
31457
8567
14516
-7900
13608
-16647
9161
-32698
-2114
-12838
9400
-14654
-618
-13283
-12083
-13176
-30000
-14829
-6331
7874
-10030
15442
-2513
31932
7350
14172
-6855
-13549
8679
-15859
376
-29560
-14136
-14466
4602
-6432
-4889
7501
230
17151
-27919
-7423
-9459
8555
-10028
16472
-2954
32103
6562
14847
-6459
12419
2798
11398
14851
7664
31858
14284
9920
9766
9454
3609
15582
-6617
32091
7845
13100
6238
36
-4482
-2087
-30980
10671
-3844
22828
-12507
8896
-16792
642
-29759
-13713
-15909
5203
-15437
-3228
-11330
-12923
-11093
-30831
-14306
-12074
6527
-12316
16707
-9275
32721
-1719
11778
-10223
8131
9970
-2235
17565
-12416
30323
3599
14868
-2126
14448
-12049
9640
-31683
8355
-8802
13650
12227
4142
11564
15353
9389
31392
14230
8140
1553
3210
-7823
-7251
-29845
-13525
-23391
13494
-16339
-505
-10004
-14036
-9843
-31253
-14200
-10573
13011
-1507
15035
12577
17551
27669
14980
6435
1192
14920
-10212
14652
-28545
16088
-6119
15259
-14887
841
-13201
-12183
-18434
-27089
-12038
-6331
6856
-12724
14419
-1744
32587
3424
13115
-7783
13082
-6536
16209
3933
27613
17639
14398
-1995
13573
3285
14189
14096
9958
31216
14576
7957
-2836
13642
-14388
11398
-31386
9412
-7320
10396
-9954
9338
-18177
-786
-30526
-11908
-16337
7709
-4769
3539
-2336
-3770
-17747
-27544
-19508
5212
-14481
-515
-11572
-14430
-11078
-30837
-13594
-9518
-8019
-12029
904
-16205
17302
-27826
-921
-16042
12772
6791
7648
16171
3956
32527
11465
8960
-6478
13639
-15328
7838
-32383
4999
-11080
11741
-13079
-8118
-4048
-16018
2149
-32696
-8599
-12248
-5215
-13735
7169
-15830
22247
-24056
1989
-16327
9422
9565
-322
20121
-9512
31355
6381
16789
-1480
14170
-15196
12190
-30471
12049
-8627
16137
-7413
14600
-16523
5922
-32592
-3372
-15873
7591
-16637
-3092
-13920
-14610
-12288
-30375
-13786
-8473
12228
-7553
16021
8226
24629
21611
17404
3620
6671
-4332
3526
3143
-3447
32585
16667
12382
8250
9080
1904
17910
-11028
30855
5939
14965
3761
12477
-4297
16426
-23140
23198
636
17967
-9568
9199
-17461
2006
-31319
-9632
-14589
6040
-16085
5707
-19263
-4568
-23338
-23000
-16690
-1547
-15022
-3023
-9154
-15447
-3549
-32574
-11035
-11878
-9718
-7893
-1001
-17736
11078
-30837
-4271
-11736
-4619
-13765
3340
-17055
22472
-23846
2164
-16505
5318
-591
-3314
1137
-13898
29673
10960
15965
4208
15332
-6261
17461
-20515
25549
-1580
16252
-697
15249
-12322
13591
-30335
12386
-8533
14550
-8811
12602
-17416
8017
-32738
-1358
-14516
10367
-6681
1631
-7399
67
-18766
-26860
-20786
5092
-6446
-1903
1565
-12778
13967
-29640
-7933
-15997
3029
13474
-11929
18414
-26274
19578
-5916
16259
-4886
-2887
-6457
-10781
-2341
-32683
-24747
-10245
-9974
-9937
-906
-16434
6837
-32045
-8205
-14128
5822
-834
8869
2477
21572
24663
21373
-6392
-2805
16272
-11680
15353
-29541
14177
-7948
13417
-1613
4847
-4200
-9159
-26016
-19919
-22258
4053
14211
2867
9575
15857
9086
31481
10901
10671
3000
2706
264
3843
-18940
26738
10264
18656
-11889
9990
-15897
-762
-30179
-12761
-13756
1787
5714
-14107
15470
-6871
32615
-3143
15254
-12372
416
-2371
-417
5361
-4423
32467
19258
12147
2798
17100
-9110
17240
-23922
22392
-3941
14505
-11621
8886
-16205
-675
-29942
-13307
-14273
3753
-10563
-12347
-1242
-21091
12795
-30165
-2922
-16337
1513
-4765
3432
-7883
31069
-10410
2412
-19262
407
15270
-12741
16520
-29335
14597
-7546
13971
-2529
1332
-3230
-9859
-3106
-32619
-18571
-8012
-5529
-13638
6598
-16497
24560
-21690
2995
-19447
-13147
5785
-17827
-3419
-26633
-19087
-15175
1515
11135
-8435
17063
-1344
30112
12920
14760
-7150
13057
674
16087
12117
15495
28871
13066
5682
12952
8483
2780
17980
-3411
32588
6388
13723
6056
12261
-6823
21114
-17498
27703
1390
16171
-6573
6353
-6480
1898
-31404
-9350
-10437
13263
-17066
4346
-20162
-7602
-23948
-22364
-16748
-5129
-10746
-7692
-1424
-15125
2662
-32658
-7616
-12735
-1255
1505
-5031
-3328
-32765
-336
-5724
20465
590
433
-5272
-6781
-25510
-20564
-20671
11098
-5170
-1887
-3747
-4279
8402
-31671
-15972
-16698
-742
-14930
8142
-13935
26830
-18808
5560
-14172
-564
-1671
11202
1398
29052
15152
21445
-15520
636
13137
-12880
18066
-26184
19698
-5597
18242
-5647
-13878
5410
-15821
22748
-23583
1881
-14857
6387
-3259
6588
20
25530
20539
18147
-9855
3962
871
4733
4742
8359
31682
21721
5739
11863
8966
4820
18549
-1428
32735
8332
12648
-995
4323
-1867
763
-31732
8167
-3855
19384
-14658
-8007
-13353
-14230
-6262
-32162
-10461
-10668
-2884
-12244
4684
-6151
29154
-14955
3017
-16016
9660
11839
1008
18278
-6007
32211
4101
13478
-2687
740
-7514
2636
-31285
9742
-1736
19388
-110
1463
-5950
1627
-31903
-7471
-12040
18615
-5633
-3015
-5375
-1923
-4282
-32485
-20944
-755
9611
-8397
19640
-2070
31616
8605
14110
-8916
3270
1443
2673
2348
-23359
22978
11115
19110
1971
4478
-9283
3143
-31388
9404
-4880
19521
-4036
6725
-6637
1461
-32422
-4741
-13290
17824
-4603
4304
-5892
-348
-26226
-19643
-19356
10135
-7361
-3006
-6228
-7504
-826
-32756
-20624
-9040
2724
-4430
5329
-6075
32749
-1085
8977
-19340
4128
552
1154
3286
-4681
32430
20630
14494
4423
-13508
15644
-12373
31279
-9761
10565
-12196
15749
-4817
17258
4010
25303
20818
13169
530
4825
436
-3425
3831
-24104
22196
4860
24743
-1954
3589
-11225
-1310
-32627
-3022
-9638
15533
-3878
2495
-12751
-5811
-28353
-16423
-20268
10872
6325
-13181
21266
-8875
32755
-864
14585
-9768
6894
-5373
5276
-1653
20152
25836
18632
-4681
556
1496
-5422
6544
-8356
31683
14701
11266
6908
13066
-4950
16418
-19856
26065
309
14793
-5050
3002
-11605
-1287
-31174
-10089
-12896
13805
-12352
6350
-18438
-1658
-26302
-19541
-19479
-2049
-5946
-2868
-2260
-7024
20750
-25359
-12216
-20337
444
-7572
2900
-12903
27523
-17780
-115
-23377
9810
11658
7031
23572
-5034
32377
8626
16175
-5224
2781
-9587
-4614
-28094
-16863
-16709
12055
-10140
1266
-11746
-2840
-17341
-27802
-18490
-1551
-3786
-240
-2232
-7167
-4856
-32405
-19600
-6522
2402
-15466
15328
-6418
30902
-10896
8409
-8343
6242
-701
690
7489
-492
32763
16745
13954
83
3673
-10107
-2787
-31408
-9336
-15625
15532
-7151
-5505
1854
-7825
17254
-27856
-11373
-17960
4151
-11545
3559
869
32725
-1657
9913
-13411
6461
-3555
7254
740
23260
23079
16257
-4902
5297
2618
-1054
6654
-16816
28122
9104
17611
2538
14989
-7418
17204
-24460
21803
-2767
14873
-2380
18745
-16170
14275
-29915
13370
-14282
12377
-5266
-6965
-606
-7181
29146
-14970
-1517
-23222
2302
-4885
7240
-2158
28136
16793
20841
-11046
5068
123
-858
4242
-8789
31566
16114
15701
5318
4829
-4383
5419
-22359
23952
6173
18580
331
7769
-7014
-1902
-32044
-6844
-20439
15989
-4176
-10384
160
-7140
27548
-17742
-722
-20391
4085
-4340
3844
1871
29254
14760
12425
-9582
17376
-3752
21030
10265
25499
20578
13044
4695
5120
1045
1565
3594
-9182
31454
16519
15376
3463
3447
-3881
5142
-26310
19530
3879
22357
-4733
8466
-8817
-4254
-25384
-20719
-21021
3397
12982
-10263
19891
-1483
31661
8439
14054
-3822
5085
42
-3711
3901
-15620
28803
11337
14618
3520
2334
-5257
5346
-25998
19943
3877
22850
-1920
6449
-5680
1178
-32761
-620
-7272
17255
-6127
1456
-9535
-5313
-19963
-25983
-18504
3630
2478
5372
-5009
2583
-24648
21590
4294
15192
-8136
19440
-21278
13224
-31812
7849
-13353
10906
-4182
4014
-4650
-8866
-16868
-28091
-20114
-2945
-3980
-2882
-73
-6936
12277
-30379
-11158
-16975
-4775
-9923
4102
-7825
29578
-14099
1366
-22928
4917
-17114
21404
-9531
31129
-10229
11512
-8685
3384
3067
-7631
11364
-24526
21728
3822
22918
847
15847
-16683
14524
-29802
13619
-9185
11316
663
5151
-8385
1126
-31786
-7954
-14226
16908
-4266
-605
-7486
-9572
-8417
-31667
-20453
-4385
-10451
-5553
-5429
-6760
6975
-32015
-11785
-11373
951
-8971
8890
-2691
29116
15030
18731
-9805
3378
-2743
3837
5019
-84
32766
21457
11257
-469
4847
-3713
4437
-23799
22522
6978
16454
-1704
8381
-7606
-3182
-30951
-10754
-16030
9907
-4349
-3742
-8046
-8993
-2248
-32689
-16190
-7095
3696
-5567
6382
1971
20144
25842
22459
-5765
4646
5604
4340
5735
-11306
30754
13690
16274
3086
2232
2678
5833
-14351
29456
13819
12589
286
1712
-8582
5008
-27362
18026
3549
18360
-4304
4630
-10133
-3037
-28107
-16842
-15813
6667
1936
-7176
7402
-6277
32630
-2988
6516
-16203
13366
2086
16327
11185
15554
28839
10688
6007
2803
3133
-6251
7398
-21050
25111
5321
19686
-915
4684
-6947
2364
-32589
-3410
-10212
17045
5374
340
-3269
6509
-15578
28827
9540
21046
3
3911
-6594
1816
-26508
19260
5204
15830
-3844
7029
-9337
-5205
-32049
-6820
-9874
10621
-8040
-1402
-10396
-2344
-15491
-28873
-18677
5920
-6631
-549
-10586
-12339
-3687
-32558
-18813
-10367
-3697
-6130
-1763
-11220
8995
-31508
-16342
-13361
-4124
-5519
4228
-3903
21860
-24408
-5852
-15452
5802
-7179
7197
-1709
21468
24754
21704
-5962
1673
2792
-595
7927
-1411
32736
20231
7729
1413
3460
-4748
2622
-26915
18688
5479
19748
79
4255
-9520
4358
-32563
3643
-6808
23054
-5674
4610
-4782
227
-32009
-7005
-10939
13771
-6727
3787
-4911
-5655
-19862
-26060
-15880
514
-7676
-3759
-8447
-8407
11773
-30578
-17443
-18567
4831
-111
5217
5175
20755
25354
17812
-5464
3728
2698
2271
6726
-18025
27363
12791
18127
2891
3677
-4602
5225
-30901
10899
-757
21120
-512
8608
-9297
-25
-32740
-1319
-9761
17210
-5484
-929
-9408
-7818
-9873
-31243
-19260
1520
223
-7155
4404
-4607
32438
-4630
4800
-17393
2916
-7452
8500
-1266
31633
8544
12315
-12355
2793
-2145
4386
7632
15674
28774
21028
2996
7205
16029
-2841
21204
-15416
28913
132
11297
-8155
398
-7122
-6999
-14626
-29321
-16447
-769
-2421
-6080
750
-13413
13124
-30023
-13935
-14434
8236
-6417
6438
-70
25178
20969
16182
-7711
-6388
4765
-12071
-1860
-25279
-20847
-21280
9557
-7397
2469
-4570
-3383
-13391
-29905
-20216
1380
3838
-4260
6445
-4959
31540
8879
10337
-16904
7342
-4305
4292
-2232
26116
19789
16684
-8184
-7321
16946
-14862
5946
-32741
-1294
-11510
7050
2162
-8199
4759
-3730
32202
6053
15238
-15595
2235
-7401
4701
2595
27490
17830
20129
-7508
3317
16805
-7564
17414
-24402
21867
-6206
13579
-2206
7258
-10907
2575
-32407
4841
-9235
14710
-5458
3694
-7739
-247
-30514
-11939
-12384
14375
3761
-3549
7502
3083
21450
24770
20448
-8356
4244
-363
196
7594
-5053
32374
19147
11365
3908
2517
-3397
8445
-19121
26608
12503
16150
-2222
5247
-7686
1291
-32622
-3070
-10073
15336
-8244
-2426
-7045
-5225
-1961
-32708
-19569
-7328
-5224
-8085
3177
-2828
27738
-17442
-426
-15540
1610
-8205
5487
-5277
32378
5033
12386
-13348
5995
1825
1198
7847
-3090
32620
17901
11966
-1164
6275
-6920
2264
-32353
5188
-5391
17321
-5905
6366
-7471
-1538
-28627
-15942
-18584
10431
-6501
-4755
-5059
-10007
1661
-32724
-14497
-9331
-3877
-5767
-2270
-8589
18006
-27375
-12589
-17630
4697
-7282
8545
-5730
32618
3115
10036
-14491
2465
1286
1592
8190
-1401
32736
21764
11411
1815
6584
-9126
5127
-29085
15090
-3416
17285
-5082
5688
-9774
3614
-31239
-9886
-13335
11816
-5539
2818
-8502
-993
-23799
-22521
-17981
6348
-3962
-2450
1428
-8620
15082
-29089
-11034
-18237
-960
-8444
3359
-8139
30474
-12041
3627
-20341
8380
-1868
2829
5698
13891
29676
19583
-224
7141
3218
1808
7075
-301
32765
16065
7998
977
4218
-3451
7654
-19881
26045
6712
16629
-93
6676
-5233
4185
-29124
15014
-1448
18958
-4986
3462
-8323
-4197
-19700
-26183
-18394
1364
-6353
-5765
-1918
-8560
16007
-28590
-9797
-15114
984
-6784
5773
-9004
32329
-5335
8306
-19327
6405
222
4302
4055
14418
29424
18825
-202
8732
2200
3385
8859
862
32755
14369
9818
-6877
1718
-14033
-6275
-22002
-24280
-20131
1837
-1076
-8819
3567
-8239
30595
-11730
564
-16902
5857
-13663
17498
-9774
32215
-5988
8708
-8393
3112
-2463
4247
4159
13016
30070
20069
1015
4428
2328
-5136
6954
-10792
30938
11363
14900
-7071
1921
-7875
-2216
-27339
-18061
-15439
8650
-8986
-4320
-7231
-6218
-17098
-27952
-14612
1834
-3706
-4234
5460
-9069
24428
-21839
-3556
-21906
8810
4203
1552
7703
-5334
32329
13686
11789
-5557
3913
-10148
-697
-27136
-18365
-18589
6597
-4704
-8028
2150
-6626
24118
-22180
-2126
-16667
4822
-1645
11344
1060
27503
17811
19493
-9786
6843
-3939
4142
5923
16007
28591
17051
-38
5994
3290
-106
7427
-12467
30302
12558
16155
3891
6213
-3319
8922
-23583
22748
4106
18203
916
6638
-5936
902
-30864
11002
-2226
15395
4222
-8859
9395
3185
31319
9632
13796
-10497
6363
-5649
9638
4959
22145
24150
19398
-3878
-696
5464
-10844
2174
-32227
5919
-8354
16215
-5067
6644
-11305
3745
-31352
-9521
-19616
13290
-9003
-664
-12894
-5592
-16252
-28452
-15925
206
157
-8292
2261
-4531
32576
-3524
9037
-20735
4376
-7363
6585
1060
31359
9501
11219
-9636
4968
1443
1150
7176
5709
32265
17249
5364
-7077
3538
-8396
608
-28445
-16263
-16679
9426
-5691
-5758
-1849
-9818
7661
-31858
-12416
-15004
-1617
-7117
3482
-8154
30895
-10914
3454
-23985
17215
-1659
17753
7843
24505
21751
11248
3201
1915
3479
-5935
8664
-21566
24669
7403
18315
-2759
7766
-4627
5561
-30285
12509
420
21432
-4513
7954
-10462
2824
-31526
-8930
-16011
13353
-8522
-2518
-3590
-4058
2268
-32688
-18166
-11846
1290
-9411
5763
-2720
32766
140
12545
-16320
5647
1158
1752
7212
-870
32755
16858
10867
320
8384
-7348
7398
-29134
14996
-3766
19987
-497
5766
-10725
1446
-32766
123
-10269
16834
-5551
4336
-11262
2207
-29184
-14898
-19421
11863
-9052
110
-8882
-8390
-4115
-32507
-18821
-7779
5893
-4403
3973
3086
20308
25714
16039
-1465
6135
3420
4822
7181
88
32766
15128
9638
-1233
8104
-7543
141
-32757
792
-7642
14184
-5376
5492
-6017
-3124
-27086
-18439
-16061
4387
-9137
-616
-5410
-6010
-9517
-31354
-16147
-5434
-6867
-5262
617
-15333
10736
-30958
-7124
-20282
-1018
-10119
3423
-9317
29909
-13381
637
-22575
4134
-7590
6389
-3454
32190
6119
14087
-12964
5517
-741
7943
6158
7742
31839
22045
7228
4933
5630
-6324
9489
-25887
20087
2899
17457
-3234
7784
-5885
4562
-32698
2122
-8054
16098
-7086
-3970
-3384
-13125
-5815
-32246
-18511
-10565
333
-7830
5305
-2837
32717
-1807
9572
-16717
3978
6019
-849
9397
-19194
26556
8654
18696
4429
3724
-1299
9175
-9754
31281
14326
14533
1461
5795
-3882
9457
-21404
24809
3886
21044
-6407
8925
-12079
7012
-32731
-1521
-15322
16052
-5622
4361
-9556
-2740
-28100
-16853
-16800
10319
-2978
-7800
1358
-7006
28152
-16766
322
-20143
19384
796
15023
13883
19047
26662
8406
8685
4612
2431
3357
8693
-2739
32652
19029
12470
-607
7260
-5397
8756
-26524
19238
2393
20635
-3684
2169
-9629
141
-31702
-8284
-14360
12580
-6765
-303
-8205
-6152
-9613
-31324
-20454
-2173
-6370
-4244
-5006
-9760
2812
-32646
-18235
-12138
-2025
-6827
3610
-7285
26642
-19074
-1818
-24881
6273
2191
2493
6239
5756
32257
20297
6324
4644
4995
-5362
6158
-22041
24245
6789
18287
-6899
5673
-7640
-258
-29048
-15160
-14930
8560
-6336
-5038
-1793
-4353
9151
-31463
-14939
-14049
4413
-4234
7434
7070
19423
26389
21301
-1703
584
6021
-7906
12076
-26599
19135
2034
20936
-2822
3487
-11078
3941
-32756
821
-10251
18041
-10117
967
-11187
-9058
-14346
-29459
-20445
-4116
-4655
-3238
-1138
-9673
16185
-28490
-9817
-17583
-2054
-9452
2902
-10188
26031
-19900
-1376
-20849
4157
-8127
8920
3023
28844
15546
18601
-10132
6028
-3355
7127
7855
12183
30417
20746
3205
5841
1396
456
9917
750
32758
12818
9105
2039
4092
-1270
8685
-14271
29495
14064
16940
-2881
9634
-8795
5468
-32766
-142
-11893
13558
-7644
436
-9442
-8403
-13014
-30071
-19812
-1481
3878
-3812
6728
4022
24763
21457
19616
-9894
2112
6314
-6114
11018
-19031
26673
7307
19001
-7034
-3855
-8172
-10221
220
-32766
-19790
-12157
-2437
-6390
9937
-5686
31695
-8310
8375
-19611
4579
4971
-1369
11740
-13857
29692
10408
14951
2743
8996
-4646
11566
-25434
20658
1081
17023
-9557
-1260
-9155
-8351
-7576
-31878
-17899
-7391
-6394
-5804
-2391
-8075
6189
-32177
-15087
-13079
-1493
-5468
3943
-6137
28944
-15359
239
-21971
5928
-6750
4882
4839
21607
24633
19685
-1279
5819
6810
-3380
8166
-18402
27111
6262
18800
-8743
381
-9662
-5735
-16965
-28032
-18706
-2230
-664
-7607
4416
-8549
28767
-15688
2362
-21954
2356
-5227
15911
3064
29837
13541
17280
-9691
6377
1107
6481
9355
8706
31589
18096
5737
-3576
8463
-9815
5480
-32739
1341
-8947
15212
-6396
5698
-11635
-2177
-30573
-11786
-15451
10857
-8773
602
-9782
-5943
-17711
-27567
-19888
-3530
-8229
-2610
-4208
-9463
-3735
-32553
-16210
-9974
-3073
-8723
4085
-5153
28396
-16349
1933
-18804
4449
-3788
8815
102
30798
11186
16430
-11911
7954
-41
5226
6506
17636
27615
18596
-407
7682
2864
5361
7274
2558
32666
19066
9932
5276
6745
-303
11011
-12395
30331
10934
13958
-3542
9224
-7819
8475
-30665
11544
-6171
17241
-5242
-9133
2286
-5346
18551
-27009
-8566
-13325
4551
-8647
7283
-4506
32116
6496
13628
-16443
-4085
7597
-7892
5683
-32671
2494
-8053
18275
-8188
7000
-10968
1580
-30946
-10770
-15684
13062
-5432
-6730
823
-10849
18753
-26869
-6523
-18860
-2093
-7534
3966
-6323
28087
-16875
2026
-18333
7054
-8631
10483
-1930
30422
12170
15196
-10523
3655
5458
-3630
7395
-16123
28525
7396
16248
-2625
7739
-6989
7894
-26287
19561
2110
18090
-2540
8060
-7851
2303
-32595
-3352
-13107
13495
6310
2141
5785
9162
2884
32639
19988
8215
-2314
9982
-8481
4582
-32517
4034
-8145
16969
-8670
-4188
-5003
-9072
1928
-32710
-13000
-12022
-4522
-8556
-804
-8329
16089
-28544
-8376
-15658
1333
-7832
6254
-6345
30656
-11568
2900
-18706
5197
-8332
7869
-260
31095
10332
13768
-10056
7614
-2799
7527
5265
18780
26850
21206
335
6219
5345
4619
12271
-1739
32720
17708
12963
-1051
8540
-8027
4191
-32523
3986
-8394
16746
-7167
2672
-11243
-448
-28429
-16291
-14464
6900
-6734
-4047
-1439
-9633
9517
-31354
-13412
-16077
5953
-5606
7309
-1553
27126
18380
18402
-9715
7182
-1599
5419
6795
11217
30787
17663
4287
6302
4154
-1130
10837
-8261
31708
12676
15991
-8644
-5405
-4764
-8454
2930
-32635
-11788
-9449
-4081
-9722
-1503
-11027
23161
-23178
-3660
-17160
9170
-2803
6774
-1930
31747
8111
11518
-14796
7732
-2792
8078
5177
19541
26302
21360
810
8189
7553
-683
9932
-16495
28312
8274
16712
-3612
7734
-7971
4696
-31889
7532
-8629
18320
-9037
3630
-9715
-7880
-20650
-25440
-20554
-1269
-5422
-7785
46
-7743
15587
-28821
-8868
-16708
5318
-5735
9309
-3779
31148
10171
15098
-12771
9121
-3370
6562
5137
18133
27291
16346
-778
-2928
-10156
4229
-5864
24984
-21200
-1020
-17927
7087
-654
3392
4049
13693
29768
18180
3103
-828
8131
-9025
7379
-29435
14394
-2725
15559
-8221
5346
-11240
-2052
-29552
-14152
-15220
9822
2827
6254
-3161
12011
-19158
26582
4895
20178
-2874
8096
-11274
6037
-30948
10765
-7223
17180
-1622
-11192
2362
-9083
24919
-21276
387
-17259
785
-9048
7744
-8213
31983
-7123
10240
-16250
5175
-7635
7415
-741
32048
6824
12628
-12441
9187
-4293
12084
3493
26336
19495
18230
-4471
9807
-534
8082
8292
15838
28684
20372
4338
6260
3658
352
12777
-5746
32259
11650
15122
5694
7991
-2967
10759
-18678
26922
3575
19313
-11601
2623
-7904
-445
-20953
-25191
-17614
1016
-291
-10009
3569
-9485
29831
-13555
4650
-18018
8343
1419
8293
5733
15407
28918
17551
2397
6575
5277
2263
9398
3816
32544
14911
7945
1549
8218
-9788
9560
-28936
15373
-2835
19644
-4413
10499
-10685
3687
-32685
2310
-9639
14087
7940
-2610
5974
6132
22273
24032
17961
-2314
-4388
9130
-6562
3083
-32529
3935
-10682
14905
-8639
-1527
-6078
-7712
-10188
-31142
-20341
-8548
-3473
-8282
6599
-7576
24078
-22223
-3010
-17897
10234
714
11065
7005
16976
28026
20921
3881
-7011
10844
-14250
-683
-32542
-3829
-12995
9184
-9843
-259
-8545
-6444
-16778
-28145
-17493
-1963
4595
-4439
12460
2421
30499
11976
17146
-11888
9410
735
7983
4270
14509
29379
19166
202
-991
8456
-8884
7568
-31294
9712
-6900
16064
-2269
-7976
5353
-6938
28631
-15934
3055
-19392
5597
-3713
10519
2487
26480
19298
19135
-7366
8730
-1431
2421
9411
10165
31150
17922
6073
6167
7607
-320
13625
-11784
30574
9230
16677
-7688
-3975
-4719
-10128
-3697
-32557
-13950
-9172
-1221
-9541
4412
-7012
28365
-16404
2277
-19589
10471
-3385
9618
2489
22966
23371
20037
-2604
8365
3161
2183
10948
-3691
32558
12535
14570
-7822
4312
-10623
-2335
-27648
-17585
-17223
7493
-4773
-4367
-3819
-13375
14229
-29515
-11648
-18439
-4776
-8397
5179
-7035
22407
-23907
-1758
-16537
7019
-878
4428
7861
9770
31276
18540
5055
5585
7249
-714
14079
-7637
31864
9051
15268
-5794
8248
-11501
6101
-32650
-2764
-14329
13827
-12592
783
-9418
-7696
-10038
-31191
-16968
-8137
6417
-3312
11179
1907
28007
17006
17634
-8011
10215
205
6070
10386
2289
32686
17054
12050
6186
4965
-638
11875
-9554
31342
11596
15403
-223
9264
-9157
5180
-29794
13636
-5956
17506
-10186
4078
-12358
-3759
-23880
-22436
-18309
1787
-3238
-7794
2469
-11383
22248
-24055
-3005
-19132
9337
1152
3508
9490
6407
32134
14464
9498
-6022
4897
-12395
-1875
-32030
-6908
-14457
11220
-8126
3623
-11146
-3201
-24739
-21485
-19404
3642
-9872
-5134
-3781
-11522
2347
-32682
-13634
-12043
-2979
-7200
3035
-8197
21446
-24773
-2982
-17423
7772
-4779
9241
-337
29526
14208
17752
-7541
7554
1839
3250
12550
7361
31929
14367
8546
-3465
9187
-11669
5847
-31673
8393
-8774
13056
-8038
4901
-11432
-461
-29478
-14307
-21592
10081
-4193
-9216
2000
-8331
21675
-24573
-4182
-16280
2449
-8106
12046
-5471
32351
-5200
9820
-18257
2475
7883
-5877
13069
-21817
24447
3522
17671
-5931
-8139
4798
-10841
22200
-24100
-3432
-17822
698
-8152
7645
-5095
32339
-5275
9116
-16297
8809
3072
2684
9238
-601
32761
15109
12853
408
8667
-7027
8504
-25106
21055
560
18083
-10306
-1622
-7661
-8341
-15360
-28943
-17452
-4394
-8414
-1852
-1611
-10172
-266
-32765
-14546
-12818
201
-8253
9680
-6444
32279
-5630
9330
-17616
6961
-6940
11079
525
28265
16574
16376
-6666
9286
-80
7700
9106
15545
28844
18484
4448
10252
2382
3147
9879
-889
32754
13082
12281
-9051
4993
-8128
-8577
-21065
-25098
-17992
-777
-4811
-5742
2893
-10236
12538
-30273
-10775
-17169
766
-8608
9768
-6455
31812
-7849
8652
-19549
9425
24
9311
5790
14913
29176
17079
6333
7737
5436
6522
10461
-1040
32750
13595
10647
1293
11759
-8284
10209
-29200
14867
-5613
18294
-5087
8497
-10887
5769
-32739
1330
-12099
16199
-10742
3055
-9377
-4457
-21006
-25147
-21639
901
-6845
-9546
2759
-10100
20551
-25521
-2393
-17940
824
-7978
9546
-5066
31600
-8664
6937
-14914
5958
-4507
13188
2822
30765
11275
17382
-7165
11332
472
7096
6877
15386
28929
15539
2730
6287
9738
1447
10561
-14188
29535
6716
13664
1678
12083
-7439
10576
-28697
15815
-6670
16524
-5072
12225
-10849
7113
-32677
2416
-13634
12147
-11139
1641
-6524
-8382
-17104
-27948
-17150
-5010
-374
-8825
10607
-5346
31537
-8891
8168
-15410
-5631
9762
-11017
2420
-32328
-5340
-15057
11679
-2601
-10726
1932
-11350
25060
-21110
-570
-19148
2631
-9327
10314
-4770
32764
-365
10858
-14440
9846
590
9094
10053
8975
31513
18378
8534
7236
7965
-2104
11483
-10357
31086
7198
15628
-8635
-4314
426
-9948
11290
-30760
-10311
-19935
6997
-7950
9438
2770
30707
11433
15900
-10545
8515
-4610
11225
6268
21676
24572
21709
-927
8472
5634
973
12075
-4168
32500
12726
12754
-3987
10347
-12289
5906
-32646
2809
-12031
14045
-9113
6331
-12617
-2715
-27532
-17766
-18299
4824
-7528
-8167
1453
-13904
11274
-30766
-8411
-14981
2471
-7649
7568
-6268
30929
-10818
4716
-16226
8277
6153
827
11122
-12075
30460
9779
19314
-9071
2768
-11559
-5549
-23726
-22598
-19172
1224
-8943
-5486
-3521
-10270
3037
-32625
-14121
-15317
-5349
-9934
4565
-8560
23807
-22514
-108
-16370
7697
-4414
10900
4179
22690
23639
22175
-3189
9775
927
7551
7148
10947
30884
16172
7323
-6913
9874
-10986
6357
-32669
-2520
-13893
13874
-7011
-6329
1279
-11537
9641
-31316
-10822
-16755
3590
-8825
9365
-7245
32661
-2621
9683
-17057
8785
1707
10367
8922
12482
30296
16572
7042
5274
9621
-2849
11662
-14167
29545
4807
16499
-7539
-4733
308
-12828
9795
-31268
-8167
-16244
-7184
6137
-10233
-1342
-28398
-16346
-19285
9013
4241
-9170
12122
-2576
32758
735
15522
-14818
-8939
9035
-11811
2999
-31675
-8387
-16335
10821
-5517
-9905
1117
-10852
22107
-24185
-2460
-21695
8708
-3799
10297
2780
24853
21353
18771
-2755
8128
65
9664
9410
13152
30011
18448
5637
-970
-9127
7603
-8495
29733
-13769
4655
-19761
6740
-7410
11589
-946
32035
6884
15666
-10776
79
10580
-8709
10228
-29381
14505
-6156
18900
-10379
4355
-10122
-6365
-20331
-25696
-16169
-2321
-8694
-845
-5431
-11527
-8446
-31659
-16860
-9076
-9431
-6827
-875
-12213
7478
-31902
-9252
-12723
-2257
-9195
6098
-9911
25346
-20766
1157
-15984
454
-8501
10890
-6298
32059
-6770
9206
-17682
2861
-6423
11702
4030
28804
15620
15461
-7071
7685
733
10924
10198
12219
30403
18722
3478
-7153
8343
-12625
3404
-32150
-6327
-16424
11547
-8258
6368
-14587
-2286
-26003
-19937
-20422
2308
-9566
2114
-8475
-7054
-12678
-30214
-18042
-4214
1990
-10904
10476
-7933
31980
-7136
7758
-15680
7526
-7598
12426
-2158
31956
7241
13582
-13052
7870
4471
4796
11832
2959
32633
12774
11426
-9527
1324
-12119
-6413
-22231
-24071
-18367
-179
9277
4750
2519
11167
-5529
32297
9956
14954
2330
14090
-7053
9809
-28326
16470
-4174
16155
-2798
10261
-11343
5296
-32687
2275
-11573
13275
-7505
-5473
-1808
-14602
3791
-32546
-12004
-12951
36
-9768
6997
-10878
28276
-16556
3210
-19072
9126
-3463
12526
7470
22969
23367
17548
-1758
9164
4503
5341
11712
3244
32605
16022
8940
-2947
-10167
4837
-10351
22122
-24171
-2771
-19189
2656
-10199
10769
-5508
32523
-3990
11873
-16999
6723
-5922
12944
-1636
31266
9801
18165
-11116
10723
974
10130
5511
17566
27660
19239
602
8337
2013
2920
9052
5233
32346
16317
10892
5720
9237
-1507
13773
-16871
28089
5551
18492
-8836
7401
-14121
-3049
-28162
-16749
-17803
5297
-10325
5316
-14445
300
-28723
-15767
-17008
5920
-10329
-5419
-5388
-11189
2317
-32684
-11987
-12919
1414
-10167
8378
-8246
30362
-12321
5709
-15736
9863
2189
8471
12063
5445
32311
13780
11755
-11085
3463
-11940
-3830
-25149
-21003
-17179
2253
-10112
-305
-10828
-9231
-13347
-29925
-18256
-6960
-10178
-4347
-4385
-12829
918
-32754
-12151
-13556
7888
-8002
12315
-2090
31826
7793
14481
-9974
10124
-6294
10775
5788
25788
20214
16322
-1163
10504
4142
7814
9477
6672
32080
14331
8054
4080
9285
-3444
11240
-19600
26258
621
16135
372
14255
-9455
11354
-29700
13840
-7196
18145
-6153
10725
-14023
6367
-32758
-731
-13313
14089
-5837
-9851
2648
-13212
19912
-26022
187
-19197
-22
-10965
7014
-9336
30642
-11606
4025
-19156
7569
-7389
12924
-2796
31712
8245
13911
-10151
11707
2190
5856
11017
7362
31929
17626
8683
-9377
11839
-15861
1172
-32212
-6004
-15307
9225
-2634
-11866
8111
-9613
30331
-12397
6049
-17092
12472
-5139
12896
3337
26736
18942
16484
-2078
1967
11625
-7848
10112
-29737
13761
-4437
20279
-9729
-2418
-10302
-9314
-7410
-31918
-16721
-9140
-7562
-8749
-355
-12794
12831
-30150
-6914
-17786
-2006
-11529
7437
-11962
25301
-20821
-878
-19128
2368
-9927
10813
-7200
31914
-7426
6455
-17180
7712
-6203
12882
221
30116
12910
16987
-8386
-3736
11177
-11943
9225
-31266
9803
-8048
15759
-8885
9544
-14186
736
-29925
-13346
-17070
5821
-6952
-10006
-644
-12123
12631
-30234
-9358
-16776
8158
-4326
16068
4429
28237
16622
18682
-2540
-1203
-12440
8039
-10191
27874
-17224
4640
-16690
7886
-4278
13810
3060
27562
17719
18938
-5529
10788
1247
10413
9275
8485
31649
18411
8517
-22
12666
-9921
8726
-30930
10816
-9258
17319
-7816
10141
-12492
3192
-32559
-3678
-13617
11457
-12547
3699
-15112
-7413
-22670
-23658
-18256
693
-10721
-1855
-9295
-9641
-9818
-31261
-14581
-7862
-6547
-8827
1927
-10991
16391
-28372
-4626
-17476
-378
-12485
10544
-7724
31103
-10306
5903
-16782
10435
7003
4976
13728
-3203
32610
12245
15376
-1760
10198
-10423
10556
-31096
10328
-6653
16903
5247
-10128
14505
-4163
32554
3726
13586
-13806
9275
-4670
14575
4324
28874
15489
17359
-5108
-4863
11983
-13599
7526
-32158
6285
-10622
13132
-1121
-11154
6845
-11478
27358
-18033
2707
-16758
11463
-2405
12123
7606
19144
26592
18048
4098
11166
3148
7120
11501
5957
32220
15344
11290
3324
10920
-5422
13301
-22445
23871
1133
16637
-9776
4972
-13755
-4471
-24669
-21565
-18385
-687
-2428
-11119
6592
-11022
27098
-18421
2472
-18122
9191
-6831
14367
917
29505
14251
19381
-5738
10305
5054
615
14355
-7824
31819
8571
18564
-4187
10249
-12413
3893
-32763
472
-13820
12924
-9276
2780
-11168
-7860
-18437
-27087
-17714
-730
-1973
-10568
8713
-13717
26298
-19546
3356
-18516
8037
-5953
14133
459
29046
15164
19474
-6902
10900
4518
6360
11055
-991
32751
12871
13888
-2292
10732
-9286
8331
-32191
6115
-9295
15635
-5080
-8654
7452
-15788
20978
-25170
-2063
-18361
10320
-8745
13765
-1990
31813
7847
12573
-10507
10036
-3304
11571
8426
19133
26600
16367
841
6578
8741
307
14289
-13569
29825
7551
17122
-4302
11634
-12306
5825
-32760
642
-12407
13781
-10541
-2000
-7975
-11862
-8005
-31774
-16882
-9105
-9555
-6856
-1877
-11896
6890
-32034
-11226
-14088
10828
843
10562
7224
14745
29261
15496
4279
11838
4716
6712
13769
1632
32726
13339
13980
-3596
12395
-11266
11081
-31241
9881
-7904
17541
-6091
9843
-14596
2407
-32347
-5228
-14023
10241
-11813
-1924
-5537
-11866
-1373
-32738
-13859
-11707
-7240
-7432
1827
-12482
11750
-30587
-6284
-15347
11506
-4541
14408
6706
23422
22914
17648
2088
12855
736
8073
12741
9579
31335
17468
8875
9843
8970
509
14609
-11912
30524
8672
17454
-3290
14632
-12535
10224
-30703
11445
-7216
16365
-8798
6988
-15818
-1041
-30343
-12367
-14932
10441
-9782
4745
-14003
-6478
-22802
-23530
-22200
-696
1760
-11283
9650
-7010
30696
-11462
8314
-16633
5478
-10446
15655
-2443
32323
5375
15634
-11602
1404
12674
-7304
8690
-27783
17370
-3247
15941
-8987
7235
-11768
1564
-30915
-10858
-13482
8105
-12526
1512
-10728
-7509
-18490
-27051
-16975
-4816
4457
-9607
10589
-5252
32447
-4568
9930
-12745
12455
-2802
13103
6126
24216
22073
16636
33
6157
9080
-2543
13799
-17805
27506
4043
16985
-9659
-862
-9388
-11778
-11340
-30741
-14547
-6622
-9665
-5589
-2611
-12406
2879
-32640
-9682
-13683
-6700
-7661
3050
-13277
16879
-28084
-3964
-17008
2286
-11550
12652
-10624
30256
-12578
7229
-17798
12284
3824
7378
12066
5987
32215
12306
10194
-1656
-11356
6519
-11696
26755
-18916
3217
-17443
4119
-11229
13303
-6293
32279
-5633
9277
-14362
10894
-1955
12307
9254
18283
27191
17791
2982
7958
7706
1387
13974
-9337
31408
8233
15990
-3960
11899
-13381
8269
-32346
5234
-11045
14747
4637
-11142
11101
-8740
32425
-4719
8848
-14810
-11356
5532
-13768
-3179
-24908
-21289
-18563
-174
-8553
-9511
-1298
-13686
8290
-31700
-7113
-13011
-4552
-12409
2465
-13634
22424
-23891
-179
-16403
7342
-7426
16071
-1241
31592
8694
15490
-10612
12305
-1120
15760
7295
17999
27380
19192
3543
11150
4956
4924
13690
-1278
32742
11251
14459
-3447
10190
-12090
8312
-32339
5276
-9239
14063
12062
-7152
14747
-604
29710
13818
19431
-5517
11014
3320
6871
11604
5994
32214
14106
8495
-843
11465
-9081
9864
-29665
13914
-7429
16083
-6038
7751
-15610
2141
-31884
-7552
-17273
8257
-3053
-10407
8045
-11480
27029
-18522
1193
-15295
12943
1773
10778
13113
8280
31703
16061
12859
-5207
11663
-13425
4050
-32747
1130
-13880
11298
-9904
-5084
-5359
-13521
520
-32762
-12082
-13147
-3062
-10276
3717
-15499
20224
-25781
-1216
-18794
3935
-8929
11272
-7562
31929
-7361
9354
-13976
9797
-6339
15026
1107
29449
14366
16637
-5757
2415
11898
-5252
10838
-24774
21445
-2227
16770
-9713
4777
-13967
-4074
-25709
-20314
-17803
1437
-12588
-905
-11415
-9648
-15754
-28730
-16254
-6588
-2798
-12838
6413
-12990
25783
-20221
2761
-17153
-5991
11387
-14614
4329
-32603
3267
-11889
10874
10475
5435
6459
14050
2622
32661
11903
12267
4498
10857
-3026
13305
-19004
26692
1391
15855
-12070
-5933
-6110
-13267
-2859
-32641
-12741
-11403
-7770
-10562
585
-16254
12523
-30279
-6598
-15135
5140
-12391
11031
-10919
31634
-8540
8334
-16031
7529
-8917
13786
-3049
32442
4601
14046
-11384
3689
13233
-7791
11932
-23144
23194
-1426
15885
-12870
7416
-12122
-1630
-26781
-18879
-17238
2972
-9838
-12359
-1242
-14404
9773
-31275
-6463
-18461
4465
-12605
12955
-5159
32626
-3030
12803
-12969
9708
-5664
12115
1697
27641
17595
16517
-2027
13033
1501
7635
11436
11312
30752
13102
8646
4135
12155
-6979
12306
-23175
23164
-2181
17078
-5927
-11012
3650
-17358
18325
-27163
-4003
-17769
10717
-6064
14386
-961
31194
10028
15076
-7022
5188
14015
-648
12905
-15921
28638
3834
17630
-4496
11336
-12958
5281
-32265
5709
-11878
14595
-11918
-4247
-5582
-12784
-4324
-32480
-11472
-10660
-6775
-10648
2947
-17086
15843
-28681
-670
-20319
9900
-9564
15594
-4867
32750
1051
14000
-10205
12423
2816
10089
12838
10964
30878
17989
6551
10921
8355
4606
14802
-878
32755
8930
14891
4160
11455
-7391
14602
-21368
24840
-377
17641
-10890
-4711
-3162
-14561
1625
-32726
-11056
-15834
-2881
-11813
9567
-11603
26635
-19084
6449
-17756
7250
-8086
15801
95
31052
10459
14618
-8550
11362
-1376
11662
10407
19759
26138
16636
3948
12162
5028
9570
14009
5371
32323
13714
11694
-8286
12472
-15217
6046
-32763
-497
-15029
12682
-3687
-12238
5498
-15729
20800
-25318
-1794
-19491
10806
8516
1127
16080
-8266
31707
8788
17295
5728
-12359
15514
-5235
32765
295
14649
-12005
-1225
11823
-12717
11964
-29191
14884
-6693
15872
-12447
9492
-16171
-134
-29862
-13486
-17543
4245
-11835
-7861
-6782
-14454
-1086
-32748
-12462
-14604
3363
-1329
-1967
-3150
29467
-14329
-5886
-23809
13479
-5398
15216
3056
27005
18557
20744
-2372
7985
10936
1239
14652
-13594
29813
5852
17603
-11251
5063
-13134
-4152
-26234
-19632
-15239
2662
623
-14137
9005
-12097
29367
-14532
4622
-16614
5658
-13383
15798
-6529
32636
-2919
14509
-13096
13428
-3206
13549
7148
23511
22822
17302
2101
12202
5300
7734
15015
44
32766
11145
11618
-10143
7574
-17233
-1346
-31192
-10035
-18142
7774
-6812
-14212
3722
-17064
18328
-27161
-2564
-17419
3776
-16538
13070
-10849
31065
-10421
9499
-15790
11893
7448
4152
14727
-4190
32497
9277
14763
2287
12182
-4593
12714
-24351
21924
-437
16654
-8448
12075
-16151
3996
-32457
-4495
-14483
8764
-13539
-1547
-13404
-8796
-17580
-27651
-16611
-4040
-13497
-6347
-8219
-14405
-3259
-32604
-13762
-11125
-8223
-10729
-1585
-16655
11924
-30520
-7652
-15895
-2578
-12580
7763
-13968
22830
-23504
-974
-18245
9630
-9303
15587
-4231
32538
3862
11371
-10589
12271
-299
12282
9048
16985
28020
14355
3731
1608
14171
-8385
12000
-27262
18177
-3675
13504
-8661
8230
-15751
-467
-31202
-10004
-17292
7794
-827
-15423
8611
-11496
27291
-18134
4005
-16009
10748
-8135
16756
-2185
31339
9565
15746
-7934
11510
8299
5455
15257
-1849
32714
10002
12925
-4325
13619
-12614
6197
-32116
6495
-10373
12236
-11776
-7894
-4947
-16065
76
-32766
-11508
-15501
-366
-14304
11818
-10645
30261
-12566
8916
-16277
7275
-11735
13418
-7706
32651
2754
15158
-11859
5304
14427
-3835
15401
-21515
24713
-787
17165
-13454
3600
-13900
-8369
-19126
-26605
-18600
-5347
-11539
-7456
-3632
-15233
1050
-32750
-9781
-12403
12476
-4490
15058
3326
24687
21545
16354
660
12122
6567
6396
13736
-999
32751
11117
13313
3594
12978
-4002
14357
-20702
25398
636
15667
-12410
-4652
-8577
-11861
-8107
-31748
-15009
-9662
-7268
-13469
2110
-13604
13522
-29846
-5954
-15279
228
-13870
13153
-13815
29780
-13666
7972
-15177
7353
-11230
16350
-7686
32766
-223
12931
-9636
11836
-364
14217
9465
21817
24447
17925
2977
-15365
6475
-18243
-5382
-26211
-19663
-17974
-165
-12807
-2416
-10658
-10291
-14871
-29197
-16896
-4174
-10719
-9555
-4530
-16280
9019
-31501
-7240
-14644
-3421
-12735
5678
-16141
21546
-24686
-3377
-15837
16308
279
13325
10303
14185
29537
13127
7717
12134
5893
6492
12223
778
32757
9946
12872
8361
11661
-680
15656
-13742
29745
4897
15866
-8290
7860
-15121
-732
-29077
-15105
-15188
4438
-13319
2337
-14206
-7665
-22197
-24103
-17447
-3105
1030
-17276
10946
-17231
29681
-13881
7086
-16575
16761
55
17370
10166
13269
29960
18500
6491
9413
12177
-780
17477
-14149
29554
4861
15017
2734
12761
-6248
14931
-25205
20936
-2386
17730
-8207
11759
-15862
3635
-31979
-7142
-15644
8768
-13860
1166
-15147
-12304
-15268
-28992
-17954
-6945
-12987
-10877
-4608
-15922
4846
-32406
-8401
-15734
-1175
-14793
11173
-12923
28822
-15585
6713
-15961
10668
-9146
16292
-267
29638
13972
15360
-3326
14443
379
10123
9324
16981
28023
13181
3640
-8818
9347
-13911
3936
-32338
-5282
-12003
9025
-15495
-4156
-12268
-14114
-10123
-31164
-13997
-9297
-11072
-8301
-1820
-17287
3797
-32546
-9251
-16127
-5713
-13602
3513
-19137
19510
-26325
-1713
-16282
14893
-6
14799
7603
15731
28743
16041
7265
6068
11244
-2739
17229
-17498
27703
300
18617
-3152
-15183
5381
-15822
24200
-22091
3225
-15267
1622
-11545
11138
-7724
31355
-9513
6177
-12577
11864
8499
3535
14861
-2563
32666
10853
16073
5658
10536
-2766
14183
-17061
27974
2264
16108
-8301
-9946
13
-16447
8775
-31569
-6536
-15778
4245
-14104
16101
-8941
32556
-3707
12175
-12062
10089
12789
2940
17409
-8348
31685
4031
14932
-7946
11839
-14384
5361
-32650
-2757
-14914
10483
1310
-15863
10957
-8978
30120
-12901
8481
-15438
12864
-10928
14030
-2149
31942
7304
15415
-7411
-14112
3617
-15997
-5020
-24997
-21185
-17064
205
-14545
-8809
-4657
-18303
887
-32754
-7844
-13004
6172
-14133
14403
-10935
32386
-4979
10554
-13203
14822
5730
9496
11442
8345
31686
14782
12156
-5976
12765
-15845
12213
-31870
7613
-12320
14773
-4423
-15367
10324
-19020
25007
-21173
7338
-17520
10363
-12510
15979
-1729
32170
6221
13329
-5447
14739
-7405
18010
4778
26629
19093
19085
512
14647
-885
11976
10896
14425
29420
15678
9321
4732
12159
-6106
15125
-17363
27787
-1859
15685
16839
-1184
15488
3773
21863
24406
17560
1875
14124
6585
7086
13840
5355
32326
10601
13073
-11901
-8055
-2484
-19612
3511
-32578
-8445
-16434
6944
-12802
12630
-9226
32645
-2819
12564
-11200
5856
12906
-3280
16507
-17690
27581
1936
15916
-8957
11353
-19411
3169
-32635
-2929
-16470
9886
-15165
3897
-16470
-8575
-22831
-23503
-16106
-2088
-15688
-4022
-14295
-13587
-9007
-31504
-15300
-8682
1728
-4920
5065
-2367
32417
-4776
5163
-16975
7304
-12779
15361
-3684
32485
4284
14901
-6584
15823
1242
12532
14671
11499
30683
16195
11559
2788
14611
-7264
14970
-22925
23411
-1586
16769
-16729
-62
-14303
-10027
-16934
-28051
-18016
-4378
-14210
-6720
-9038
-15096
-603
-32761
-12020
-12078
11968
4847
9227
14740
5405
32317
12622
13021
-7246
-11987
-1340
-15262
8644
-31606
-7417
-17534
2438
-17480
15994
-14978
31199
-10011
10516
-13795
10632
-9738
18040
-2442
30845
11057
17549
-6472
11867
7993
4292
12688
-5066
32373
8808
12552
5691
12363
-3407
16231
-15472
28883
4208
18005
820
13705
-9955
14728
-27305
18112
-7119
17461
-2613
3485
386
-5697
-12914
-30114
-21202
-578
-9465
-11855
-1304
-20038
11112
-30825
-6730
-16691
2310
-16732
12882
-11729
30069
-13019
10190
-12304
15972
4375
12452
13183
12461
30304
11910
6956
11099
10330
884
16888
-7846
31813
5724
18082
-13623
-5260
-7824
-13144
-3484
-32581
-11239
-10431
564
-1320
1092
-7438
21693
-24557
-10903
-21409
5039
-14839
13499
-9870
32490
-4250
11414
-11776
15786
-5913
14596
3846
24734
21491
17120
2678
14185
5670
11221
15415
6425
32130
13809
12125
1566
9655
172
5445
-30190
12735
-1356
21721
-13907
7222
-17774
-1377
-30852
-11037
-18615
720
8086
-14433
16335
-8477
32761
-616
15650
-8532
12817
-6756
13988
5802
25992
19951
16945
1352
6425
10049
-3284
16224
-13225
29979
3970
16323
1707
14441
-8091
17144
-25551
20512
-5009
17264
-16651
573
-16553
-9161
-21394
-24818
-16725
-4629
-13430
-6543
-12584
-14970
-6206
-32173
-11486
-10628
1302
-3899
7673
-3266
30493
-11992
5358
-23342
3333
-3816
6789
556
29842
13531
14094
-12850
15642
-3178
15685
8668
22070
24219
14048
4462
3126
15752
-8149
15015
-24512
21744
-5495
15185
-5822
13218
-12934
9648
-31620
8591
-9255
13518
-4846
4845
-3311
-4551
-22844
-23490
-17044
4145
-4622
4791
-2819
-4578
-1007
-32751
-21228
-14020
-1390
769
3128
-6207
10359
-31086
-13908
-15806
15732
12
11496
11549
16537
28287
14445
7646
-2260
15163
-13445
9954
-31228
9921
-14018
12497
205
-3405
3001
-4353
18535
-27020
-12861
-12088
10018
-7041
16384
-216
30807
11159
16388
-3835
9957
14248
-661
18039
-10304
31104
5435
16333
4193
7461
-2098
3128
-30632
11632
-5861
19713
-275
8178
-5614
254
-30996
-10624
-20280
13011
-1854
-16613
7293
-18946
24389
-21881
2336
-15875
4333
-873
7441
2945
10233
31127
20485
4014
11426
10042
4823
18412
-3087
32621
5525
13819
6847
-495
-7660
8900
-20695
25403
5051
25792
-5946
2146
-1760
-1409
-12158
-30427
-19929
-1493
-12412
-9135
-5440
-17943
1659
-32724
-7810
-14982
4076
5276
-1170
9327
-14184
29537
11070
15997
-15495
-2923
-14231
-14494
-13596
-29813
-13615
-9064
-2647
-8295
-836
-4452
21521
-24708
-8162
-17573
6512
-15985
19993
-9752
32438
-4629
12236
-10529
13070
-7948
17620
1496
29009
15235
17468
-1963
-2166
6688
-4840
1196
-31933
-7343
-13572
12428
14467
-3108
17771
4658
25414
20683
13950
522
13139
11284
1508
19143
-7779
31830
4651
15801
-8208
14527
-14749
9227
-31565
8793
-9594
12742
-4015
-520
-365
-8879
-2789
-32648
-23749
-10312
-9853
-13235
-3211
-17769
7530
-31889
-6896
-13674
7559
-11016
17676
-5343
32765
298
11144
-8229
13762
4284
8140
14657
6240
32167
9059
7493
4259
5511
3505
7045
-14807
29230
15282
17076
2948
13393
-4321
19154
-20306
25715
-54
18157
-12110
5406
-17733
-6843
-25626
-20419
-15964
-1854
-16263
-2674
-8430
-15360
-7221
-31961
-10179
-12758
-2061
-16959
8458
-20148
25765
-20244
5614
-19747
-15502
-4696
-12833
-12809
-6881
-32036
-9970
-10212
-3130
-742
1722
-6012
12791
-30167
-14002
-12995
14311
-9161
16910
5617
26157
19734
15050
1591
15603
1555
15374
11879
16836
28110
12915
7567
8784
3937
4440
6080
-6180
32178
12061
10990
-11801
-12168
-5405
-20173
4484
-32458
-6605
-14861
-1365
-19825
10525
-14620
28718
-15777
9258
-13316
10395
-6181
17723
1610
30942
10781
13251
-3605
7392
11241
-5103
15620
-18892
26772
-632
14313
2110
3340
-3930
214
-31036
10506
482
21105
-2275
8047
-4795
-112
-32765
-284
-10394
13830
-1555
2792
-7480
-2427
-27727
-17459
-20173
15142
-3547
5965
-2372
-7910
-18871
-26787
-19407
-451
-15764
-4715
-12424
-15036
-11507
-30680
-13095
-10282
1061
-3723
6392
-5875
27088
-18436
-5344
-19647
2371
7599
-6352
435
-32722
-1700
-16141
21057
-17642
-1264
-17249
-10959
-18179
-27261
-15768
-6423
-9471
-12274
-8209
-16712
6124
-32189
-9862
-11312
1968
-4165
6979
-6638
24306
-21974
-4068
-15770
508
-8043
5390
-5553
32375
-5051
8341
-21582
-3841
-5055
3426
-7202
21488
-24737
-8091
-18646
516
-2776
4950
-10412
29441
-14383
4991
-24303
101
-5019
8022
-1719
32754
-890
10791
-17364
6520
2756
7173
8485
6238
32167
20371
5970
5650
6388
4014
6011
-6751
32063
15324
9406
-3455
3556
-10571
-276
-29643
-13961
-20147
12377
-2017
-312
3030
-9365
11913
-30524
-13582
-19501
2527
-2142
6558
-2025
32764
-430
7875
-19968
8474
-1329
6940
521
19522
26316
17889
-3965
13687
67
12344
12936
13561
29828
12539
7271
5821
404
3035
7382
-7255
31953
17501
17121
3253
3118
-3589
423
-32750
1036
-11785
23182
-14665
11952
-17856
4403
-32372
-5066
-13892
3973
-17251
3660
-20709
-4797
-26508
-19260
-14844
-3934
-549
-1077
3810
-5935
5022
-32379
-19697
-9384
-82
-5196
4615
-5714
23327
-23010
-5392
-17142
13477
-11084
18330
992
29958
13272
16986
-1202
13951
11191
9668
18454
-1260
32742
7696
10818
-2019
1953
-1951
-1098
-26452
-19337
-17364
12534
-15341
2701
-19409
-12614
-23025
-23313
-17611
-6166
-14788
-7466
-13416
-16870
-8893
-31537
-11332
-8904
-14493
-11401
-6126
-18891
8215
-31720
-5199
-16334
5514
1029
9257
6483
24948
21242
18336
-7448
8169
11584
-1768
18987
-12842
30145
3390
14603
-3777
7981
-5824
428
-25491
-20587
-22713
11136
-4519
-2476
2900
-6254
17577
-27653
-9084
-18980
1298
-6449
1740
-7222
28150
-16770
-2648
-20886
3251
-5220
5139
2562
28265
16575
17221
-8490
5473
6926
852
3092
-8573
31625
10887
12039
124
5053
-4917
4310
-32675
2447
-9584
21477
-6319
2996
348
-2519
-17596
-27641
-17602
2644
-3108
-14863
7439
-17373
23894
-22421
3931
-13610
6014
-4865
12498
-1914
30985
10656
15469
-15824
5042
-1525
11062
4897
24303
21977
19564
-4715
-96
-5320
8000
-9036
25806
-20192
-1882
-20457
-1351
6085
-4743
-138
-31070
-10405
-13441
13146
-1302
-1971
6860
-6434
25172
-20976
-3583
-20734
4200
-15687
17363
-10482
31877
-7583
14394
-8522
14203
-12614
18226
-656
32020
6954
13937
-2227
4545
131
2098
7248
-10836
30923
15436
15821
2007
5857
-7227
8758
-25053
21118
1816
18935
-4885
5580
-3114
-7062
-21714
-24539
-22039
2396
-3974
-2335
-5535
-6851
-6813
-32050
-25281
-4319
13862
-5292
20786
2969
28508
16154
15321
-5922
-165
4913
-9492
733
-32292
-5554
-16426
13372
-17092
4249
-19905
-6129
-26153
-19739
-16394
-4326
-13598
-15650
-3456
-18995
5652
-32275
-4597
-14816
9258
-414
5370
5151
16906
28068
18144
1460
1346
8551
-171
9786
-25124
21034
3614
20997
-999
2940
-8346
-1565
-29833
-13550
-14769
11265
-2078
761
-2482
-8388
-396
-32764
-20635
-8373
1072
-7386
10229
-2418
30176
-12769
3651
-15749
5454
-1575
7650
5851
16786
28140
23525
1605
8661
6590
5509
3827
-7949
31788
16115
11971
3198
18317
-10367
17578
-24289
21993
-6412
14693
-4227
84
1556
-6168
12939
-30103
-11703
-13750
-3661
-3146
933
-5989
24425
-21841
-3197
-23142
-324
-4420
4336
-2592
31495
-9039
2388
-18984
3049
-3314
9151
-887
30003
13171
12422
-10918
-2676
-240
-5985
-3584
-21819
-24445
-19320
9504
-487
-20635
9320
-17665
27807
-17332
9948
-15115
7582
-30
9731
3216
19051
26659
19928
-70
6837
5566
1210
5744
-16916
28062
9007
19504
5380
8555
-1850
7086
-26511
19255
-3155
23097
-2188
-1025
-4111
-8127
-3461
-32583
-21323
-7120
-2765
-2951
377
-8246
9422
-31382
-16927
-15140
-952
-7016
3847
-12779
22243
-24060
-5909
-19662
-2516
-2055
161
-9436
17127
-27934
-9747
-17867
-296
-3657
7611
-4933
24680
-21553
-632
-15269
4008
-3219
9066
-8042
32396
-4911
7882
-20019
6358
183
8418
3823
10253
31121
20529
5359
-5445
915
-4011
-4006
-10049
-31187
-19610
-831
-8992
-2970
-2274
-8166
1982
-32706
-16394
-13015
6221
16
5405
9041
4299
32483
16400
6878
-2894
1468
-9457
2810
-30806
-11165
-15565
18566
-16285
1316
-16477
-11827
-16450
-28338
-15089
-8636
-1071
-1953
2067
-11730
16050
-28566
-15044
-21375
-2762
-15221
10037
-14516
28276
-16556
6899
-16372
542
5332
-7398
4713
-32667
-2555
-14487
19508
-3972
2562
-9754
-4562
-18276
-27196
-23422
2503
-4965
-1448
-4128
-10320
3518
-32577
-19354
-9764
1933
-4269
5782
-6160
30404
-12216
-1359
-20466
15452
5323
8674
18178
6734
32067
9515
12230
4118
4634
-3970
9213
-26616
19110
1984
24914
-5376
-4451
1449
-9061
8421
-31666
-15325
-8496
-3333
-9932
3921
-6281
24445
-21819
-1742
-19141
-600
5094
-5358
4613
-31877
7583
-3574
21403
-2589
4245
-7831
-6055
-21453
-24767
-21768
264
420
-5872
5507
-11137
24248
-22038
-4155
-20516
5360
-4447
11675
1120
31248
9858
16806
-11813
5358
3367
46
8148
-12970
30090
10793
16208
-7027
-36
-7841
-3250
-22515
-23805
-19156
4565
-6823
-2403
-2094
-8097
-1602
-32727
-16336
-9335
-611
-6183
6335
-7824
29354
-14559
-1587
-21246
681
7349
-1489
9466
-24792
21424
6487
22900
8025
-7013
11902
-7895
32533
3902
14723
-17756
7749
-1596
10018
4417
16539
28286
18774
2373
5423
763
7562
11369
4401
32470
19941
11372
4750
5395
4040
6939
-11377
30728
13308
18695
-1029
4510
-7692
4464
-30883
10949
-872
19622
-6667
-3349
-3216
-3543
-4870
-32402
-19442
-7555
-4069
-3936
-1445
-8714
12325
-30360
-11647
-14383
6
4628
-4805
6205
-32577
3522
-8821
20595
-4041
5666
-8511
572
-31427
-9272
-14837
11059
-3809
-9163
3917
-9784
21001
-25151
-3758
-17219
5406
-6067
9817
-5989
32764
436
10917
-13413
7486
-5812
11295
937
28532
16111
21286
-12310
3947
8077
-351
4622
-27135
18367
1586
19240
-1870
7297
-6898
4611
-32078
6683
-9358
22438
-1290
7608
-4474
1511
-30983
-10662
-16002
13187
-3975
2908
-5352
-3482
-24274
-22009
-18978
7623
-1779
-4305
3670
-12324
21953
-24325
-5143
-18766
2879
-7672
9845
-8414
31820
-7819
9453
-20425
10323
3952
8530
8130
-1010
32751
13582
13642
697
5316
-2567
8835
-26122
19780
729
22367
38
6656
-6607
4017
-31909
7447
-7335
21251
6333
-1894
11939
3925
12946
30101
24984
6211
5650
3938
-495
3988
-14250
29505
11253
14931
1541
5145
-6641
5540
-32198
6074
-9074
18251
-3082
-6171
4239
-7475
26264
-19592
-3372
-18685
9286
3442
5381
5298
1796
32717
15717
11148
-6401
-1630
-475
-9830
5294
-32336
-15282
-14311
-58
-7457
-674
-7717
19842
-26075
-11976
-17541
-863
-2719
9544
-5354
31610
-8626
5166
-24022
5198
-6911
11481
307
29903
13395
15550
-11075
-5971
-1161
-5148
-12861
-4682
-32430
-19717
-12579
-8447
-4812
1677
-7321
19843
-26075
-8364
-21926
3041
-8525
10458
-4119
32284
5601
15171
-16596
8200
-2390
5576
4438
8260
31708
21222
4391
6271
5461
598
5475
-19295
26482
10269
19887
-3581
5457
-9191
869
-32736
-1408
-12244
16345
-3288
-8304
3824
-12041
13081
-30042
-6529
-16567
4243
-4739
9703
-6497
32313
-5433
7259
-19207
8751
2131
7494
5763
2937
32635
17907
8435
196
8190
-2627
7912
-28019
16987
565
22783
-7786
2424
-6406
-5746
-18065
-27337
-22544
418
-4120
-6259
-4792
-10292
-5840
-32242
-20314
-3595
914
-4961
4987
-9560
27556
-17729
-1569
-21046
6144
-1419
10394
2968
25732
20285
21148
-5181
3278
4731
3599
10730
-10516
31033
16533
15785
-6891
-2129
-10412
-6393
-26768
-18898
-18263
8461
-9167
472
-3416
-3315
-12854
-30140
-21609
-2261
-4213
-8901
3212
-8861
20461
-25592
-3699
-17988
3980
-7667
9875
-6189
31790
-7939
8110
-19142
7732
-4816
13622
-710
22842
23492
26413
-6870
5222
4859
5126
10152
-10823
30927
15840
16707
-2271
3981
-10777
2349
-32725
-1640
-11375
19252
-3437
-6751
3196
-11965
13289
-29951
-8796
-13817
4808
-7285
8427
-7405
32559
-3685
2024
-17135
4521
-3261
6111
1486
29817
13586
16723
-10984
6849
-2362
12956
5206
18949
26732
23586
2054
3513
6418
-1356
9282
-13574
29823
11640
15599
3619
8047
-5506
5607
-25448
20641
1626
19842
-5106
5528
-7761
-1134
-32557
-3696
-12016
10989
-5105
6288
-7707
-2326
-25049
-21123
-18718
3115
-6339
-845
-6461
-6372
-14688
-29290
-20570
-1815
-3224
-8573
3214
-10984
19938
-26002
-6470
-18893
4960
-9897
11066
-6857
32752
-991
12747
-15013
9202
-3103
11290
1973
20407
25636
22909
-1195
8453
2077
4747
4860
6319
32151
17270
5189
7427
5712
-1016
9703
-14424
29421
10764
16274
6460
-7018
11762
2029
26754
18918
17943
-907
-1500
7083
-11271
-338
-32526
-3962
-16967
12709
-6206
-4961
-4347
-11432
-4036
-32517
-16761
-9997
-2518
-7276
7078
-7451
25378
-20726
-5066
-20373
1566
-8222
7733
-8392
31665
-8423
8602
-21060
6934
-5415
10800
-8487
31572
8765
14161
-16216
8166
89
6313
4690
6695
32075
18779
8017
-5220
531
-6031
-10702
-10152
-31154
-22369
-8857
-4903
-7692
1540
-8601
19393
-26411
-5791
-14862
5703
-7564
8949
-5653
32647
-2797
8059
-17942
8996
-2066
5185
5756
6684
32078
15521
5707
-161
6956
-3795
4064
-31939
7316
-4923
17358
-3681
5652
-10961
3458
-32323
-5372
-12499
10957
-7903
-362
-9115
-8558
-16537
-28287
-17187
-1561
-7771
-2691
-428
-8147
7472
-31903
-17574
-14012
5438
-7837
12122
-4428
32629
2998
15400
-16896
7776
-3287
5978
4669
17485
27711
22671
2075
9506
2396
5310
4013
1975
32707
16896
8690
5190
7942
318
6832
-19310
26472
8771
17863
1300
8171
-5314
7898
-28760
15700
1064
18662
-6386
4440
-5710
-2007
-22862
-23473
-19408
2691
9097
3414
7503
6965
1756
32719
15089
8427
2334
7118
-5124
7628
-28073
16898
-553
20191
-1666
8782
-6815
2088
-32458
4485
-8534
18179
-6490
-5466
-769
-11040
10545
-31023
-11853
-15748
-641
-8320
7551
-12080
28143
-16781
-1166
-22316
436
-9944
6871
-1976
32277
-5640
8983
-17623
12005
-2296
12405
-3239
22232
24070
21944
-5974
6270
3564
2830
8614
-1302
32741
14947
13177
-4919
-6798
-2472
-9681
9129
-31469
-15790
-15410
-3981
-10139
2444
-10845
22243
-24060
-5222
-20664
6211
-2460
10453
2259
24732
21493
20291
-5870
8704
-182
6949
6096
3296
32600
17575
8409
-2127
6580
-6237
1865
-32759
-686
-13038
20231
-6756
-6935
448
-8632
7703
-31848
-12183
-9743
1649
-9728
8122
-12350
26337
-19494
-3601
-18148
7973
-1402
11954
-426
29499
14263
16060
-11224
9421
2949
7931
9085
-1966
32707
17566
14858
3983
4743
-4720
5327
-26786
18872
1481
20211
-5824
4000
-7569
3231
-31631
-8551
-14201
14989
-6735
-3764
-5289
-10626
-8868
-31544
-17957
-7231
3147
-8495
9391
-4983
32759
-696
12737
-16403
5130
5599
-93
9171
-14936
29164
14739
21412
-5601
2621
-10624
-4016
-25289
-20835
-18514
6756
-6988
-639
-9744
-9572
-15202
-29027
-21772
-2641
4368
4177
-758
7097
-14859
29204
11912
14312
-1641
7466
-5607
5344
-32102
6565
-4819
19539
-2289
5947
-5171
2880
-31885
-7549
-16911
16992
-5310
-3545
-1798
-9814
6747
-32064
-13732
-14432
-5204
-6767
1290
-7038
21435
-24782
-5709
-16821
3436
-8498
4676
-8251
31910
-7442
5933
-23464
9391
-5161
9464
-337
19176
26569
21389
-636
5089
4227
2645
10199
-3885
32535
12411
15593
2952
7192
-222
8048
-19243
26520
7739
18497
3232
7387
-5524
6332
-29600
14053
-3868
19945
-7059
-1497
-5751
-8352
-10499
-31039
-18819
-6971
-6148
-8115
1161
-10288
12189
-30415
-10803
-15124
7004
2934
2298
5745
3081
32621
16709
9445
-1890
9444
-6400
5421
-31236
9898
-4903
14143
-3411
3368
-12586
-38
-30655
-11571
-19202
13052
-10861
2503
-10858
-4173
-23620
-22710
-18706
2257
1588
-6966
9098
-6332
30857
-11022
5143
-17379
7121
-9872
8531
-1367
30419
12178
15585
-8713
6460
5133
1256
9135
-11727
30596
12202
17306
-2002
7234
-7509
6543
-32452
4530
-11805
16712
-4205
3369
-8962
-1317
-26605
-19127
-19211
9303
7737
5628
3423
8957
-4070
32513
15980
11027
-846
9620
-8012
4966
-32574
3546
-11031
21155
-5414
3469
-10054
-2468
-29103
-15055
-18313
8247
-6483
-952
-5010
-7801
-11197
-30794
-19235
-1326
10315
297
7383
7939
1317
32740
19014
8831
3116
6951
-3340
8914
-21747
24509
3504
18264
196
8780
-5979
4988
-30678
11511
-5212
19100
-9127
2010
-8581
-2624
-23053
-23285
-17798
6667
-5889
-6116
-3183
-9048
2383
-32680
-15930
-8768
7998
-517
10313
5042
18109
27307
18832
581
9687
2369
6263
10241
-2604
32663
14303
14638
6195
4928
261
9822
-16329
28407
8067
21446
-7075
2538
-10893
-4004
-24269
-22015
-21020
5616
-7718
-2997
-4878
-8645
-7048
-31999
-18961
-7124
-6552
-6677
4422
-12781
13921
-29662
-6354
-17028
6095
-3903
12146
-3979
32042
6850
18355
-13159
7537
3040
6084
7154
5278
32338
15792
6522
6741
5199
922
8505
-8038
31765
11928
15333
280
8482
-8166
6178
-29664
13917
-3718
17037
-3790
5266
-6977
4185
-32754
-899
-11906
17470
1896
-10128
7088
-8147
31866
-7629
9812
-18033
-4442
7471
-11218
2250
-31808
-7865
-15929
13427
-7772
-5216
-1572
-9263
5588
-32286
-11303
-14644
714
-7971
9338
-10324
30675
-11520
-1052
-18313
8356
-7553
11938
-3681
29101
15060
18158
-8485
6712
-1446
6977
6853
15373
28936
20967
3218
5368
6720
-1958
8402
-19425
26388
4565
20851
408
7959
-9268
3435
-31691
8326
-7035
17845
-7298
3926
-10848
-3353
-25808
-20189
-20698
6951
-5803
-1457
-5962
-10553
-10007
-31201
-22417
-7664
6701
-5066
12225
-2050
29752
13728
18094
-10777
8089
2098
9515
8391
-1483
32733
17396
12766
-2538
8134
-11392
4136
-32666
2563
-11597
17103
-7456
-1291
-5927
-9410
-11040
-30850
-20834
-6337
-5734
-10729
993
-12805
10350
-31089
-11287
-14495
8203
-8397
13267
-4470
32463
4451
13003
-12748
6605
-3174
8474
5792
22236
24067
20279
-2415
9327
-1050
5678
6101
9486
31363
17003
7086
-4283
6458
-13138
4585
-32380
-5020
-15836
15408
-9152
-46
-10306
-6794
-17541
-27676
-19789
-941
-9785
-4022
-6675
-10341
-3401
-32589
-16037
-9994
11216
-2504
11061
4551
16531
28291
18595
4190
-2433
8142
-8121
2069
-32254
5771
-9412
16755
-5015
-7257
667
-10896
18642
-26947
-9830
-18334
4873
-7851
11452
-1094
31822
7810
18466
-9756
7067
5269
2879
6797
-10838
30922
13133
16515
-815
7220
-11947
4056
-32339
5277
-9910
14471
-1273
-8348
4554
-13727
28205
-16677
1211
-22693
6906
-5258
12061
-3421
31262
9813
13215
-10861
7689
3097
5181
5783
5807
32248
18273
7655
3659
3989
-1954
9870
-16538
28286
9917
18885
-4362
6755
-10332
2697
-32765
303
-13089
16960
-7495
-6178
-6403
-8824
1347
-32739
-14497
-11866
8004
-3521
13156
-4965
31637
8528
15328
-14087
5449
4456
1201
11783
-7720
31844
10936
15200
-4343
6784
-8695
3865
-32729
1577
-11962
15710
-8825
3707
-11532
-1665
-24711
-21517
-19655
3925
-9980
-881
-8057
-6584
-13566
-29826
-21155
-3844
454
-9300
7556
-5305
31883
-7558
9260
-18358
1188
7492
-6436
10290
-26256
19603
1619
18536
8340
-4034
9597
4152
20247
25762
18226
347
1843
10130
-4206
9279
-25237
20898
1114
17905
-9971
-2081
-4997
-11539
424
-32764
-15553
-12962
6208
-5280
11363
2412
24604
21640
20303
-5952
9935
-3473
8495
5237
13954
29647
16206
4436
4541
5389
-5124
8193
-19895
26035
6226
14833
-3296
8110
-11211
3557
-32473
4373
-11305
12664
-5003
6920
-12995
-1018
-30280
-12520
-20947
9937
-7779
-3549
-4639
-8634
-2317
-32684
-13061
-10113
1152
-9042
7208
-8212
31801
-7897
5944
-16503
6164
-7273
11214
-1393
30613
11682
19529
-10060
-2070
8661
-6421
11747
-27426
17929
-1554
19605
-9922
-2034
-6171
-12414
-3118
-32618
-14760
-11791
-2968
-11683
7437
-13382
28243
-16612
4627
-19875
9467
-3669
10277
-191
26751
18921
15739
-7510
-1323
9296
-8119
9620
-31158
10140
-7566
16959
-3400
4565
-13060
1754
-32589
-3405
-12968
17392
-9646
-735
-10914
-9579
-10546
-31023
-17824
-7076
-10094
-5169
-6914
-11122
5432
-32313
-14833
-15708
-3132
-8615
4482
-12856
22439
-23877
-2893
-19592
876
-10710
6025
-9613
31496
-9036
5724
-21331
9876
1138
6181
8053
4386
32472
14807
12124
6587
3988
1517
9616
-11785
30574
11389
16624
-2421
9933
-8587
4937
-32254
5773
-9317
15525
-7216
6512
-10867
710
-31449
-9199
-14616
10470
-5711
2447
-9435
-4309
-23940
-22372
-18232
3427
-9465
-2658
-9641
-6317
-11250
-30775
-17016
-3972
-7114
-6809
-3563
-11822
10125
-31163
-10319
-17124
-4172
-7755
1624
-12111
22826
-23507
-2315
-19061
7475
5312
2138
11544
-8289
31701
10445
16229
1770
6739
-3158
12374
-22467
23851
2360
17185
1002
7043
-8246
7870
-31151
10160
-4252
18883
-6434
6004
-14709
676
-27441
-17907
-20347
6052
-9190
-4042
-4890
-11340
1430
-32735
-14923
-13817
-267
6476
-9028
6057
-32183
6154
-8280
19056
-8624
2368
-9917
-4706
-19745
-26149
-18181
-1479
4605
6481
868
9964
-14309
29477
6669
16230
1192
7547
-3764
10453
-25772
20234
391
21019
-6764
6253
-12255
5605
-31650
-8478
-18204
14555
-7769
3522
-10438
-2077
-24575
-21672
-18054
4954
-4892
-7247
-1812
-15350
13971
-29639
-8152
-17142
6301
-5152
13354
-426
28607
15977
18277
-10656
5759
8080
-154
8126
-13361
29919
9425
14637
3976
8743
-4091
9350
-25117
21042
-61
19017
-9098
-621
-7551
-8767
-16764
-28153
-17137
-3510
-4743
-9606
3381
-12381
18796
-26839
-2495
-14572
5570
-7099
14218
-3006
32441
4608
14036
-10292
-6844
5398
-13065
-1354
-30468
-12056
-15571
9544
-10399
-1447
-8003
-10376
-8419
-31666
-17695
-6717
-3636
-11538
5114
-12048
24140
-22156
-1123
-18948
-9610
1413
-11230
-7083
-16383
-28376
-21306
-3802
-8941
-6522
-3960
-13142
14502
-29383
-9728
-19865
-2311
-9060
4914
-13075
22671
-23657
-688
-20241
5768
-7736
10632
-5365
32493
4226
15820
-14629
9876
-285
7740
6880
9619
31323
17975
7923
6651
6803
1562
10196
-11438
30705
9490
16692
502
9889
-5194
9550
-27138
18362
-3490
18993
-9026
786
-11703
-3788
-14645
-29311
-20416
-1718
-5598
-8915
1342
-15161
15807
-28702
-5866
-21554
7691
-6497
9575
-405
26581
19160
18103
-4999
9575
-996
8326
7650
11270
30767
18975
8723
5747
6550
-900
11798
-17771
27529
5869
19668
181
11147
-7674
10209
-30775
11250
-8250
22576
-11411
-278
-10338
-4446
-18215
-27236
-17899
-2381
9486
1064
9268
9360
12560
30263
21102
6844
-794
8731
-9240
5735
-32109
6530
-13311
16993
-5203
-10671
928
-11989
16183
-28491
-7531
-16303
9025
-5930
12787
-1819
27246
18201
19343
-9600
6547
-111
7081
8386
12009
30486
18999
4896
-1488
7651
-10170
7545
-29622
14006
-5481
19337
-5927
8076
-10918
3791
-32724
-1661
-11531
12515
9646
-7242
13810
45
29351
14565
18566
-6555
6174
7331
466
12548
-16952
28040
8402
19513
-10004
1861
-12458
-6454
-20854
-25274
-20766
-2026
4036
-8950
10887
-4418
32759
-694
12008
-13567
10197
-6671
15136
2551
25211
20929
18799
-819
-10303
212
-13544
-8003
-15134
-29062
-18842
-8559
-9781
-5863
-8096
-11264
-1397
-32737
-15685
-15219
9098
-1933
9712
7926
12934
30106
16541
5435
-2066
7769
-10527
6976
-32141
6373
-7725
16298
-9873
3084
-11267
-5712
-20529
-25538
-18762
377
-8786
-7624
36
-14774
12950
-30099
-6875
-19051
-77
-10040
7108
-10177
29759
-13713
5076
-17954
9284
-650
10398
7674
14799
29234
18699
4712
-1813
8829
-10212
8919
-31636
8531
-9346
20157
6142
-7414
15262
-4183
32178
6184
15935
-12744
5203
7431
-1857
14344
-19977
25972
4724
21110
-1334
8797
-9487
10330
-28452
16252
-2218
20487
-4807
10020
-11100
6377
-32709
1948
-10890
14113
-8068
7351
-11762
318
-30086
-12980
-17173
10079
-8836
-2850
-5084
-13831
-2146
-32696
-15378
-12066
-5314
-9576
393
-12582
18255
-27210
-5074
-17904
43
-10927
4777
-11990
28543
-16091
3334
-16560
4683
-7481
14086
-4855
32154
6305
15008
-14485
-3819
8650
-12623
5338
-32607
3224
-10345
13859
-9814
4760
-9416
1148
-27466
-17868
-16577
5681
-10912
-2333
-10129
-11340
-9229
-31440
-21181
-6087
4355
-11110
9673
-7561
32581
-3482
11210
-16408
9212
-7239
13533
-953
30706
11437
14754
-10668
10077
676
11985
8108
18104
27311
19964
3599
-8721
6384
-13433
989
-31554
-8832
-14048
8988
-11207
-4591
-9810
-11917
-3090
-32620
-15900
-11582
-257
-12214
7880
-12497
26134
-19764
2332
-17968
9512
-7126
12152
-1959
31338
9568
16061
-11418
5953
8865
-750
11480
-16367
28386
6514
16608
614
11444
-5542
11121
-26557
19193
-2895
17283
-10928
875
-12849
-6277
-17788
-27518
-17994
-1390
-2335
-10803
3318
-14656
21502
-24725
-3701
-20280
1511
-12032
9757
-10864
30227
-12648
5902
-15504
10655
-4223
12149
5332
18722
26891
21442
3937
3768
8736
251
12174
-15296
28977
9549
17378
-2017
10099
-12061
10908
-29928
13339
-4431
18681
-10571
3670
-12987
-3297
-25666
-20369
-18202
1926
-10057
-2929
-8003
-12574
-8082
-31754
-15181
-10641
8056
-6734
15574
765
29183
14900
19354
-6435
5214
6738
240
10067
-14372
29446
6219
15462
-1365
11011
-6711
12452
-29997
13185
-3956
19000
-8821
2460
-10545
-6344
-20893
-25241
-18432
65
-11355
-5896
-7632
-10472
-1216
-32744
-13723
-12293
-2199
-11432
4612
-11483
24122
-22175
1247
-16579
6216
-9418
9530
-2403
32474
4365
15307
-8137
-4080
-9623
1438
-13286
18708
-26901
-6580
-20526
1882
-11736
7813
-10152
31967
-7194
9175
-18183
7768
-6448
13297
-1388
30125
12889
18139
-7720
2538
9149
-3336
15991
-19200
26552
4234
18289
-7737
7167
-15296
3590
-32449
-4549
-15505
12415
-10757
1808
-12928
-3744
-20973
-25175
-19829
373
-11722
-3876
-7026
-13549
-3053
-32624
-13791
-12265
-2029
-10270
4460
-12119
24367
-21906
-1671
-18334
4016
-9578
10873
-9700
31147
-10175
7064
-16507
6317
-6536
13552
-513
30338
12380
19331
-9577
-4002
8890
-9716
10285
-30819
11128
-7162
15876
-3527
7984
-13403
2839
-32327
-5351
-14749
11970
-10810
-2700
-9496
-8333
-9306
-31417
-17275
-6030
-7687
-7108
-4489
-14338
2193
-32693
-13868
-15124
9061
-7444
13299
-1646
30797
11188
16224
-8124
8592
1518
9676
8611
9651
31313
15698
7162
4324
9076
-1605
15874
-17337
27804
5576
18495
-7433
8258
-15668
6209
-32561
-3666
-14339
11428
-12284
-1130
-12061
-8513
-9980
-31209
-21869
-8040
-8153
-6790
-2381
-14592
9315
-31414
-9279
-18928
6
-10077
5154
-12378
27037
-18511
2370
-19265
7153
-7980
13365
-3908
32633
2950
12380
-13861
8371
-3629
12446
277
28096
16860
17850
-7473
12139
-193
9961
6649
18552
27008
17895
1757
7164
7067
1492
12559
-8950
31520
7769
17049
-2483
-11049
7009
-10946
26976
-18600
1807
-19356
3210
9008
-5109
11106
-21454
24766
2131
17282
-9180
8774
-14052
1822
-31753
-8085
-14299
7832
-10419
-2462
-11486
-10307
-14059
-29597
-19254
-5440
-4396
-9926
3562
-12902
21363
-24845
-1921
-16938
9329
1119
11649
9214
12854
30140
20884
6287
4149
11206
-2242
14779
-20338
25690
1478
22515
-4938
9611
-12815
6366
-32706
-1993
-12989
15321
-7714
4047
-14235
-1164
-29550
-14156
-16704
7268
-8704
-9460
-4461
-13977
9562
-31340
-11706
-16049
-1155
-12330
4209
-11327
25777
-20229
2218
-18447
8723
4556
5115
11979
-580
32761
14834
13622
2304
10086
-6541
10793
-24758
21464
-2448
19914
-3803
8763
-11512
10281
-31958
7234
-10672
17424
-11061
2378
-9829
-5347
-20190
-25807
-17432
-1486
-1679
-11317
6589
-10886
24394
-21876
2961
-18844
8464
-6511
13013
-671
30132
12871
17694
-5513
6470
8369
1974
11753
-6621
32091
11313
13671
-6507
9083
-12305
3154
-31872
-7603
-17546
11681
-7253
-10054
-1839
-14849
14349
-29457
-8435
-17312
9565
-4873
15293
-1792
30074
13007
18373
-7731
10028
1999
13394
6911
13526
29844
18277
5850
3718
9047
-3684
13351
-20107
25872
2859
17668
-11980
2030
-12389
-4494
-21738
-24517
-18959
-3002
-10203
-2955
-9577
-11606
-8640
-31607
-18737
-8428
9983
-2122
12733
4046
21254
24938
22454
468
10483
1957
8072
10884
8934
31525
17987
8451
-3945
9363
-12187
6282
-32735
1440
-11838
11857
9251
-5164
13327
3882
26354
19471
16280
-2164
7296
8691
-396
12582
-11981
30498
6703
17177
-9589
-5980
-3241
-12917
5882
-32234
-10480
-14948
8892
-6399
13991
2794
26513
19253
18290
-2571
11542
-326
11594
8902
15297
28977
18082
3798
8389
8039
4334
14405
-4813
32411
13386
15502
5387
8495
-4318
14794
-19907
26026
5073
19752
-11019
9265
-14908
2837
-32626
-3026
-13706
12332
8194
6071
1874
11510
-4984
32385
11345
14037
-8644
10094
-14792
4694
-32372
-5067
-15822
12333
-12794
-3635
-7403
-9594
-11597
-30645
-15615
-6228
-5630
-9914
-1035
-14967
10460
-31052
-7965
-16221
-2511
-14141
2653
-14383
23121
-23217
1301
-19858
9187
-6789
11664
619
25814
20180
17312
-3238
9436
5617
7578
12391
2750
32651
16099
11345
1248
9892
-5503
12888
-23081
23258
341
17338
-2607
10685
-8663
7695
-30651
11583
-7834
15890
-6798
10083
-11079
2856
-32627
-3022
-16075
11048
-10031
-4121
-8352
-13376
-1804
-32717
-13408
-11607
-6872
-11010
2638
-15104
19233
-26528
-4560
-17584
-1839
11140
-11565
11220
-31276
9769
-8387
20036
-7881
10909
-14033
6405
-32430
-4684
-15522
12769
-6757
-9151
1994
-13056
18451
-27077
-4012
-19144
5599
-10928
11958
-8917
32658
-2667
9911
-14733
10668
-4312
11831
4440
23358
22979
19528
358
11885
965
10550
12991
11926
30519
18094
10042
11288
5647
5652
14695
-3911
32532
11354
16799
2799
12687
-4352
11207
-22967
23370
789
19815
-11315
3751
-14365
-3637
-23244
-23095
-20058
-658
-11816
-5918
-8099
-12382
-5102
-32367
-14580
-10969
8823
-6500
11712
1171
27998
17023
17375
-4394
10064
4691
8233
12773
4573
32446
17312
11204
2618
11523
-3769
14675
-23066
23272
389
20225
-3758
13360
-9643
10729
-30477
12034
-7912
18654
-8900
10629
-13476
5651
-32708
-1961
-14860
13288
-12305
-1242
-10472
-10257
-12467
-30302
-17739
-9516
-6845
-13346
95
-13175
15188
-29033
-3808
-16229
3535
-10322
11087
-5873
32253
-5776
10453
-15703
10128
-2545
15536
5268
22460
23858
17541
-1308
6935
9140
797
13094
-7985
31778
9062
15678
1300
12110
-8716
14824
-27407
17958
-4036
17537
-10270
-8472
-3762
-15545
9646
-31314
-7055
-18125
4792
-9074
14082
-1515
32738
1372
12623
-11170
11719
1964
9373
9554
13361
29919
16853
6685
1379
11979
-8764
14344
-26849
18782
-4545
19834
-7544
12365
-13778
9733
-32046
6833
-9197
17735
-10494
11357
-16389
3635
-31942
-7302
-19326
9200
2678
-14309
9464
-11484
29874
-13461
7184
-18578
13178
-87
10122
8876
13923
29661
19967
8647
8757
9346
2266
12574
-6524
32110
10202
17194
1777
12331
-6713
13232
-27759
17410
-2826
18711
-12283
-2628
-6838
-12491
-6167
-32181
-16626
-10470
6024
10595
-55
14177
-14759
29254
5874
20072
-3992
12233
-12419
7864
-31963
7213
-10897
15393
-14324
31
-13990
-8276
-20588
-25491
-17995
-1370
-8287
-11727
-315
-13506
14452
-29407
-5405
-19479
2750
-12215
12047
-4739
32031
-6905
8302
-13743
11176
-5641
13028
5664
26077
19840
18301
1450
8849
9798
3448
14440
-8395
31673
8536
15708
-7242
11968
-13759
5775
-32752
-979
-12949
11347
5874
-11144
10932
-9520
31894
-7510
9286
-17149
5077
12226
-3261
14278
-21482
24742
113
15818
-13085
4273
-14157
-3833
-25346
-20766
-19216
2700
-5511
-12997
2788
-12228
20364
-25669
-2924
-19388
8789
-8974
14737
-2319
31982
7125
14329
-10191
12342
1325
12710
8535
13407
29898
16559
5523
8396
6419
921
13862
-6616
32092
8348
16120
-6484
9629
-14253
7265
-32755
882
-13288
12481
-10481
7713
-15636
803
-29300
-14667
-18317
4403
-10223
-7857
-2870
-16466
7701
-31848
-8277
-15500
11171
-4953
14446
4103
26252
19608
19114
-3187
10178
9074
3929
13308
-7363
31928
11018
17077
-1417
10711
-8657
13106
-29737
13761
-5672
17965
-5298
9764
-13522
7102
-32742
-1276
-11411
12343
-13206
5734
-16018
-2984
-26877
-18742
-19165
1277
5912
-10967
13127
-5153
32732
-1502
13045
-15499
8523
8260
3376
14162
-6129
32188
9711
14124
-7913
11790
-15453
3141
-32389
-4959
-15826
9402
-11920
5187
-14270
-2952
-25970
-19979
-18861
3146
7396
-9289
16722
-2186
32304
5485
14989
-10015
13533
391
11281
10166
16367
28386
16193
5029
6937
10206
1379
16123
-12202
30409
5040
17517
-319
12065
-10650
13155
-28681
15845
-6078
17951
-11558
4502
-14394
-8247
-22118
-24175
-19624
-1922
-13204
-1949
-8885
-10477
-9384
-31394
-14994
-8816
5788
9249
-4012
15692
-20101
25876
4344
18699
-2989
10596
-14472
11939
-31433
9251
-8983
14228
-6040
8881
-15389
3615
-32309
-5456
-15081
8914
-8182
-10186
-632
-13388
10791
-30939
-9029
-18066
-641
-12104
8988
-10658
28007
-17008
4736
-17039
13370
1969
9861
11169
9972
31212
16849
9754
-5438
12535
-11871
8001
-32522
3994
-13005
13434
-11605
6544
-15578
1251
-31460
-9159
-15282
6395
-13081
-4865
-8242
-14117
-3371
-32593
-13294
-14187
9954
-6544
15247
-2220
30803
11173
14745
-7408
10413
7740
6585
14256
-5916
32228
10631
14413
5990
10811
-2739
14536
-17778
27524
3649
17129
1344
12017
-7728
9801
-27755
17414
-4279
17679
-8123
10673
-14629
4689
-32596
-3342
-12774
9520
6731
-11703
13351
-5221
32071
6717
13915
-11228
13286
-644
11472
7075
17519
27690
16539
4905
9545
8930
34
17847
-10245
31123
7017
17174
-8678
6926
-14257
-273
-31582
-8730
-15925
8626
-11635
-8327
-3446
-13901
1703
-32722
-11364
-15122
10626
4672
8956
11695
5217
32348
15005
11868
-13695
6587
-15706
-1104
-29274
-14720
-16340
3398
-10363
-8689
-1337
-14676
9596
-31330
-7502
-18716
-2010
14406
-12731
12517
-30147
12836
-7844
15963
10554
-6260
15789
606
29007
15239
19022
-2900
1969
17263
-8982
15430
-25619
20428
-3470
18783
-13196
3623
-15204
-4146
-26639
-19078
-20002
511
-7710
-12614
233
-16456
13516
-29849
-4656
-19517
4198
-12101
12275
-8830
31850
-7697
11136
-14929
11375
-8081
15741
-5003
31737
8148
14860
-7844
11563
-4062
13990
5990
26728
18953
18573
318
13392
3033
12644
11512
13888
29677
16941
5942
6981
12343
3372
17715
-7265
31951
10902
15476
1316
14422
-7217
14058
-25393
20708
-3104
19431
-12900
4718
-15711
-4750
-25888
-20086
-18785
-278
-11271
-3082
-9807
-13180
-6808
-32051
-15301
-10168
-4450
-13270
4156
-17796
21495
-24731
-818
-17569
3196
11847
-3922
16487
-20218
25785
516
18748
-14580
-2728
-12725
-8363
-14779
-29244
-16559
-7557
11551
-7193
16400
1367
29833
13551
18121
-3480
453
14333
-10227
14031
-24448
21815
-1484
17876
-13473
-3421
-9409
-12345
-7548
-31885
-14298
-11397
2014
-11682
12193
-6522
31557
-8818
9261
-12873
11421
-919
13203
6195
20964
25183
16899
1976
8950
6265
5569
13154
1283
32741
12417
12936
6193
10140
-1088
16190
-14037
29607
5952
17015
-11906
5356
-16758
-4490
-26101
-19808
-18265
849
-12558
-126
-13736
-11021
-15027
-29117
-18952
-7214
-5401
-12076
3353
-14521
19794
-26112
-207
-17697
503
-10245
12349
-11432
28773
-15677
6617
-16876
-442
11394
-9140
12452
-28974
15301
-6453
17502
-7120
9058
-16427
4183
-32077
-6688
-16575
9262
-10369
-6006
-8265
-13713
-1362
-32738
-13516
-12334
6160
-12289
14880
-6127
32765
292
12352
-12291
13949
43
15943
7819
20027
25933
18454
282
-5059
10905
-12574
9906
-31734
8159
-8051
15796
-11028
8039
-14607
-637
-30159
-12810
-18853
7309
-12867
2643
-14180
-7251
-21580
-24656
-20499
-2209
-10680
-6633
-3287
-15714
5912
-32229
-8236
-14843
1997
-13428
12847
-14316
28616
-15961
5398
-16376
5774
-10608
13496
-7987
32755
-851
12248
-12912
12750
-2424
15003
7270
20697
25402
15195
3043
4771
14490
-4639
18516
-18353
27144
1085
16714
-11795
6161
-17578
-2286
-27008
-18553
-20872
1223
-9233
-7706
-1931
-14234
5020
-32380
-9920
-13282
8909
-8107
16700
-4331
32506
4124
14898
-7235
13420
7344
5127
12767
2251
32689
11111
11309
7019
12236
-1178
16109
-11062
30843
5632
13873
1021
14600
-7772
14431
-22618
23708
-1085
15292
-11634
-6202
-7729
-16163
-2365
-32681
-9433
-12261
-3377
-12829
9569
-12631
24013
-22293
1528
-17370
9429
-10096
13168
-4734
32422
4739
14818
-7941
12599
1072
12846
10747
15470
28884
16183
5374
3158
-13052
13306
-10879
31308
-9666
9660
-13976
9355
-10568
17908
-3815
32553
3736
15502
-7120
2657
16248
-7818
15534
-23363
22974
-1130
18056
-14208
11475
-19363
1519
-31127
-10234
-17816
3658
-14103
4018
-16153
-7612
-23101
-23238
-17516
-3017
2374
-12903
13171
-8587
30720
-11399
11508
-14106
10687
8632
5475
16791
-5671
32272
7631
15131
-4048
13875
-13606
11641
-30907
10880
-8398
12522
-5268
618
-4939
-444
-18923
-26750
-20560
1659
-6523
-10615
2856
-15761
17966
-27402
-2383
-19172
5707
-11797
16168
-8393
32761
-587
13632
-12407
-2149
11389
-9128
14655
-27623
17624
-4714
14742
-9884
-4058
-7744
-13382
-2535
-32668
-11011
-11037
-6586
-11585
2704
-15712
16891
-28077
-2140
-17282
924
-12987
16755
-10589
30375
-12288
11299
-15535
12750
-5662
16725
2708
28060
16920
18830
-3954
12372
5924
9392
14633
2710
32654
13122
12130
-10875
10788
-16014
5896
-32510
-4091
-13254
11729
-13609
-5300
-8204
-12556
-4097
-32509
-11279
-11818
-7578
-12717
2599
-16722
18959
-26724
-2074
-16533
869
-11698
10943
-11124
27012
-18547
3109
-16672
5694
-7673
14579
-5769
32573
-3552
8811
-13164
13695
-4261
19318
3621
29009
15236
17077
-2469
-7322
11263
-12594
4571
-32749
-1065
-17368
11335
-12944
1528
-16337
-5646
-23666
-22662
-16749
-693
-12729
-4659
-13327
-13196
-11022
-30857
-15970
-9083
12062
-9236
17296
-3457
31070
10405
15978
-4898
14162
3827
13356
12132
11668
30618
14322
10582
9769
8192
6658
16768
-4110
32508
10895
15017
6471
13404
-1611
19333
-17015
28002
941
16263
10151
-9108
16103
-1737
30983
10662
15468
-4779
8972
8233
5569
17589
-3257
32604
9895
14731
-6447
11660
-15224
8315
-32443
4593
-11138
12932
5490
-11874
13667
-11890
29910
-13381
6983
-17347
13673
-1957
15359
5472
25614
20434
17286
1229
9759
9739
2482
19072
-12467
30302
4554
16163
-4670
14586
-12338
13189
-30729
11373
-7656
16312
-6565
8327
-6003
7067
-28686
-15836
-21341
4774
3780
-12650
16378
-6850
32417
-4770
13035
-11930
8429
12640
-1605
13663
-17240
27864
-417
13766
-12952
4836
-13542
-7426
-24345
-21930
-16550
-946
-5404
-14853
2230
-17603
14467
-29400
-3167
-16456
1352
-10403
12682
-9662
31427
-9274
6187
-14582
9238
-8904
18357
-733
30761
11287
16697
-6700
-8441
11583
-15654
5058
-32675
-2448
-13934
9361
4352
-8455
1646
-3439
31580
8739
13861
-10991
13512
-7748
21461
3954
28053
16931
18050
-2155
13853
471
15034
14327
10941
30886
15422
13062
952
13397
-11252
14798
-27672
17547
-4043
14961
-4708
14575
-15125
10773
-32537
3871
-12190
11913
-11319
7822
-18115
-3327
-28412
-16321
-17872
3649
4531
-12181
14399
-11903
29693
-13854
6956
-15464
12712
-5739
15073
6288
24837
21372
17094
2325
11825
4923
9619
16745
5447
32311
13326
12852
-8749
11308
-18082
7264
-32685
-2306
-13211
9164
-219
-12255
8627
-12743
27524
-17779
3833
-16783
4341
-13040
15159
-8675
32059
-6773
13079
-11215
15233
-195
15988
8222
19242
26521
15584
4132
11040
7890
5361
16909
-2239
32690
9510
11781
5270
11531
-6749
13505
-21248
24943
-1711
16612
-4065
1640
-1829
-4717
-27705
-17495
-17132
9760
-13851
-496
-8489
-10540
-13022
-30067
-14865
-7723
-4155
-13969
4752
-16205
22792
-23540
472
-14897
9424
11265
2927
17137
-8622
31612
7752
16396
520
14725
-9907
17700
-25960
19992
-3835
18773
-13440
5848
-14762
-5964
-24742
-21482
-17167
-532
6195
-13175
14717
-7742
31631
-8550
8980
-12246
-917
-793
5774
5841
22711
23618
24978
-4015
16287
5773
9634
14480
7959
31785
11710
10835
11207
12148
1638
16295
-6967
32017
7898
16246
-4019
13225
-12486
12801
-29764
13702
-6226
14625
-12990
-5913
-6254
-17321
-85
-32766
-13695
-16784
-966
-15018
10231
-15781
25026
-21151
4441
-14832
14863
-6687
22005
755
28716
15780
16759
-5118
5370
15210
-3705
17708
-19288
26488
-1556
17728
-9336
13009
-14825
9049
-32764
-442
-15322
12144
-11898
10853
-17402
-949
-29967
-13252
-19599
1514
-12337
-3508
-13458
-11888
-14345
-29459
-14159
-6258
15675
-6006
18197
6611
25808
20189
18195
529
14249
6140
9661
15529
9657
31311
9749
11079
-6583
-11743
2240
-18516
15133
-29063
-5688
-14598
14126
-5112
16519
4176
25776
20229
15558
1206
-10102
-4041
-6990
3358
-14734
-29267
-21327
2236
8792
-10235
15639
-5505
32765
287
11034
-9797
4651
-1466
2551
2071
26394
19416
17499
-14028
2997
3119
108
4608
10574
31013
21188
-1003
11944
12150
3575
19640
-5263
32341
5917
16870
4204
14245
-4305
17507
-19993
25960
961
16761
-8433
1881
-7638
2422
-32467
-4421
-6325
17387
-12765
9089
-15582
-2185
-30429
-12155
-16146
5304
-6160
-149
-6175
-4374
-18023
-27365
-19711
-1904
-10
690
97
-11032
13180
-29999
-16305
-18422
6396
-13011
14780
-10323
31658
-8448
11863
-14628
13223
-8853
18622
-4046
32356
5169
14768
-8664
4325
14378
-5006
16064
-20013
25945
316
14400
-10063
13134
-15185
7030
-32766
-234
-12687
9971
-13155
-5573
-10214
-13156
-6613
-32092
-13467
-9460
-2129
-13016
4583
-17871
21234
-24955
-2700
-18824
5361
-12238
12641
-8398
31843
-7722
9606
-14778
10742
-8524
18785
-3255
31557
8818
13717
-8124
14906
5725
11594
13005
5427
32314
14229
10708
-12680
4187
-15832
-5249
-25673
-20360
-15045
-706
-4777
-1796
5789
-4849
23741
-22583
-3901
-25151
-4832
-3620
2406
1248
31407
-9341
6425
-23441
2129
-3467
2786
2951
21727
24527
20410
-3701
11330
9431
7291
16304
1526
32731
9496
12754
-5484
14172
-15325
10324
-31578
8743
-10478
13092
-11501
-7441
-6304
-13132
634
-32760
-12658
-10853
-282
-13958
14217
-12351
29404
-14459
7431
-13438
814
-1981
2957
8887
14243
29509
21491
-4243
14514
10691
9995
16122
983
32752
10832
15430
10458
12482
-616
16146
-14076
29589
1374
19026
-13957
6175
-15801
-5418
-26111
-19795
-16957
-752
-6293
-14662
4653
-15774
19686
-26193
2020
-15682
2399
-1837
8779
2066
26722
18962
22817
-12689
-2235
7851
-4328
9216
-31515
8968
-5340
20470
-6429
-12250
1747
-18195
11794
-30570
-3208
-15628
-12315
9451
-14652
1499
-30070
-13016
-17287
3243
-11528
-9728
-7712
-16565
-2026
-32704
-11133
-11836
13424
2282
10950
14305
8528
31637
12251
13302
-116
9924
1347
11230
-14705
29282
7854
15920
-7449
-1729
-820
-2914
13298
-29947
-13239
-16011
-2235
-16898
9640
-17497
23494
-22840
3128
-16914
7909
-16306
12549
-13314
30669
-11535
11521
-12114
9076
-2297
8279
-220
22939
23397
18851
-4531
1582
7692
9886
9777
4425
32466
19185
6024
-10098
-8790
-1954
-18526
3279
-32602
-9562
-14570
-4426
-2793
4237
-1836
23176
-23163
-8071
-20712
16319
-4080
19005
9995
23700
22626
16938
6519
-6227
3893
-9903
6978
-32714
-1848
-12551
16606
-6441
-14520
3436
-19828
17664
-27597
-42
-15380
16604
-7938
19851
2122
28396
16348
19127
1400
16564
4907
12871
14264
11950
30510
12061
9998
5546
1839
3581
8119
-12332
30357
19116
19225
-4144
5434
-6836
10692
-30888
10933
456
22037
-9520
-5263
-8411
-3455
4024
-32518
-20361
-13464
46
-8572
1006
-2210
32481
-4317
6323
-19900
5090
-4400
12375
-3132
31434
9247
16019
-16811
6181
3658
-2359
8673
-4992
32384
12350
14052
1120
10071
-3310
12991
-26008
19930
-754
22466
-5092
4810
-7516
848
-32745
1191
-8046
16449
-7165
5576
-1615
-161
-12922
-30111
-27408
-4007
-8207
-14705
-862
-17049
7826
-31818
-6045
-14756
3693
-16692
13361
-11114
30550
-11846
9208
-14276
12
-58
-2461
15209
-3218
32608
15630
15480
-2707
7947
-3672
2904
-30209
-12691
-26353
10559
-6783
-1945
-3285
-5066
0
-32766
-20525
-12012
-1403
-2895
6173
-3255
32611
3189
13080
-22618
3653
-461
6499
1922
23722
22603
22796
-13344
6150
-676
1920
9880
17092
27955
18506
-906
1856
1610
-2105
8744
-6497
32116
15194
10817
-7314
4459
-7961
3029
-29205
-14855
-18544
11690
-232
-17210
11384
-15465
24792
-21423
3164
-16967
9381
-12537
18229
-6038
32765
361
13531
-9300
6760
-2075
3545
4523
26872
18749
16638
-14164
13779
3436
15174
12100
12964
30093
16308
8151
3087
3736
-6507
6639
-28987
15277
-1604
25381
-3870
4896
-8487
5127
-31652
-8474
-12325
16590
-6011
4194
-7569
-1826
-22348
-23963
-23916
1822
-17266
-1408
-14602
-14472
-14859
-29203
-16911
-8795
12901
-12721
19571
-9715
32753
-947
12463
-11342
14385
9082
9225
14886
687
32759
11407
14434
308
7699
775
9098
-19988
25964
11760
15951
-168
6107
-3396
3529
-32751
997
-9472
20125
-4734
8105
-6616
-4515
-31307
-9670
-13641
10511
-1750
-3674
-5782
-10608
7212
-31963
-21421
-12952
-3118
-3635
3295
-5253
29209
-14848
-622
-26755
16277
-8444
20914
-1304
29636
13976
15575
-3709
15345
8736
8242
15467
2958
32633
10742
14745
304
4013
-2547
9950
-16577
28264
7786
16152
-3351
11002
-6398
2507
-32341
5262
-6223
17865
2684
-2469
4360
-4510
27862
-17244
-7418
-22999
18659
-4870
19916
5212
27697
17507
13823
614
5233
3496
20
5674
-18463
27070
11739
25170
-3316
-764
-119
-7690
9718
-31292
-14052
-16851
3809
1032
894
10160
-10386
31077
13985
17298
-8009
2271
-4613
258
-25483
-20597
-21519
6069
-7758
-1321
-1607
-5370
-6897
-32032
-19930
-7215
-4113
-7230
4127
-2237
26699
-18994
-2266
-20378
1792
-3643
5962
-2272
32765
-260
14834
-23408
10096
-2874
11141
2051
25156
20995
18003
-4466
5752
698
4425
6153
14250
29505
17835
1067
-6600
-2667
-1505
-2030
9566
-31339
-15015
-14367
-3468
-7639
6303
-1718
23979
-22330
-2642
-19757
914
-3471
7330
1958
32757
-786
9463
-17962
5151
2989
8595
6950
14925
29170
23235
1920
-10630
-10073
-5368
-16893
2057
-32702
-8483
-12314
-837
-7321
4864
-393
32023
-6940
5207
-19501
16022
-9412
20172
-1884
32017
6969
12818
-4086
4485
-3295
4045
5873
21711
24541
20505
-1915
16816
5554
10661
13525
5385
32321
9347
12998
3027
7034
-3560
6935
-18952
26729
6849
14262
-1811
4315
-8080
6348
-31783
7968
-5859
19835
-6228
-3751
665
-2856
13748
-29743
-12094
-17905
-5880
-7557
3169
-2916
24787
-21430
-3897
-21562
1208
-1463
5001
-4114
31851
-7691
4062
-23592
4413
-45
7555
2660
22230
24071
18896
-1082
-8780
3066
-5984
1450
-30980
-10671
-13834
10509
-2952
-9206
1691
-5491
24631
-21609
-3661
-17772
6457
-3157
7095
1290
30301
12470
14240
-13201
6977
1230
5582
7710
16652
28219
19492
-1742
869
9432
-1756
10526
-24928
21265
4962
19929
-4254
4891
-7305
802
-32468
-4416
-12786
17109
-6082
-1889
-3492
-5230
-2357
-32682
-21098
-9008
-9655
-13363
-3923
-20270
5194
-32352
-6200
-14249
-2585
-15131
8891
-16202
24046
-22258
6715
-16263
7547
-2674
3293
5109
15938
28629
20013
-229
1874
3944
-5223
6885
-21601
24638
4977
20317
-8823
1878
-9932
1665
-22188
-24111
-24498
3619
-8180
1503
-2338
-4884
-10273
-31114
-19628
-2443
-8493
-4918
-1924
-5268
5760
-32256
-15977
-9958
-1514
-3287
1921
-9881
24743
-21480
-5642
-25701
17576
-1005
15659
8730
23260
23078
11989
4592
548
5016
-6425
8988
-14537
29365
11199
16618
-6159
8672
-9892
8520
-32030
6906
-9337
18548
-8684
-501
-2820
-2987
-7056
-31998
-21766
-12703
3958
-4640
6098
-1292
32601
3284
9216
-16479
5198
12
1631
7124
12622
30238
19160
2606
-3360
9045
-7176
5034
-32705
-2010
-15556
17425
-3778
189
-6438
-3253
-18643
-26945
-24239
712
-5722
-1357
-6605
-7868
-2030
-32704
-22865
-7840
-5075
-12666
3488
-19283
21024
-25132
-1629
-15320
-175
-5839
7165
-7488
31123
-10246
3893
-23748
1181
-4236
10637
-2212
32750
1037
14324
-19018
4511
-938
4554
10646
5141
32361
22949
9952
-829
8370
-4213
7465
-30147
12836
-4615
21495
-3814
3627
-3141
-1041
-22086
-24204
-21659
9444
-1713
-8320
7401
-3972
29203
-14861
4981
-17362
3200
145
7374
4160
28727
15761
16919
-14080
12869
7477
10389
20313
1599
32727
11084
12096
-5535
1358
-7325
-8435
-15697
-28762
-24223
-4301
-5057
-856
-2502
-5141
2706
-32655
-18708
-11368
-361
-5659
2291
-1134
29169
-14927
2561
-21484
15269
9119
9332
17694
5837
32242
7546
10041
4101
2921
-1746
7490
-12394
30332
9558
19703
1086
-3759
9909
1345
31109
-10290
3621
-18768
5598
4443
2188
11476
1928
32710
14158
8816
2387
3701
-4538
11339
-13557
29830
12142
15912
-2279
5453
-1861
6452
-25520
20551
5080
19356
-4217
76
-5541
-7149
-15325
-28961
-21225
-2133
5556
406
9950
5005
27573
17702
19580
-10014
6913
3084
2981
10014
3925
32530
15107
11310
-3030
11161
-2543
7143
-31577
8748
-7856
18178
-7127
-1707
-5842
-5462
-9367
-31399
-20088
-9116
-1633
-5136
6954
-2928
28036
-16959
2505
-19926
3183
-6074
7176
-3334
32742
-1263
10260
-21325
9071
2962
5263
7993
10251
31122
16802
5249
-4142
7848
-9066
-553
-30710
-11426
-19603
9947
-8519
1193
-4782
-5547
-9881
-31241
-22949
-8200
4405
-2028
10688
3169
27168
18318
18812
-8433
7163
1119
7996
1681
14470
29398
24094
-1325
-5199
3254
-8403
-1431
-20201
-25798
-21343
3569
-6321
-2150
-727
-7633
4073
-32512
-18551
-15368
597
-6368
3490
-2655
27099
-18420
-758
-20510
-7034
1148
-7340
-2981
-10336
-31093
-20508
-6801
-5884
-2493
-2658
-6707
3811
-32544
-15913
-13094
-987
-4448
7006
-6446
27114
-18397
-1065
-20344
6043
4022
5414
9161
3630
32565
16585
6573
5645
8297
-1607
12584
-15296
28977
6319
17076
682
7581
-4839
5181
-31144
10184
-3794
23209
-2468
4022
-8884
4358
-32402
-4875
-12278
16660
-5636
7689
-4319
351
-27462
-17873
-19373
9353
-4277
755
-5562
-8347
-5117
-32364
-18901
-10626
-555
-4957
7688
-3480
32279
-5632
10706
-20354
6092
-1777
10379
6680
26287
19561
21201
-7302
3966
8102
4495
8739
-1781
32718
16968
6640
-5930
3959
-8693
4259
-31700
-8291
-17836
16802
-6831
3306
-8748
-4845
-17186
-27897
-22501
703
-5455
-3645
-955
-9268
6726
-32069
-10760
-15372
1371
-4923
2465
-4866
27192
-18282
-4270
-17448
1250
-5617
7245
-1524
31666
-8419
6269
-19245
2544
-5279
8727
-1436
30499
11976
14720
-15614
6014
-171
8120
4883
18939
26739
18231
-3776
1840
8808
-1263
8550
-26848
18783
-2144
19130
-8742
6920
-7486
2075
-24584
-21663
-22604
4099
-6365
-1383
-3874
-3307
-5436
-32312
-17610
-5444
-1242
6748
-6291
8016
-32112
6514
-7662
19855
-3076
-3970
1723
-7739
5799
-32249
-12216
-9994
-4781
-4403
3307
-8877
20883
-25250
-5307
-20158
-489
-3796
6769
-3668
31496
-9035
8799
-21158
7100
308
6203
3090
12744
30187
20115
828
206
5453
-829
13747
-12466
30302
13575
17642
2176
7817
-5662
8619
-29742
13750
-3938
19028
-2721
-2056
1114
-10334
14776
-29246
-11308
-18267
1144
-5445
4773
-3665
31655
-8463
5591
-16495
4003
-2991
6650
3177
25340
20773
19668
-8122
8927
1314
3253
7730
9182
31454
13890
5861
-2058
9484
-4732
6112
-31802
7889
-6972
17326
-6882
4748
-8018
-65
-26286
-19562
-18941
5363
-4558
-4900
874
-6862
19492
-26338
-7971
-20727
3704
-5122
7444
-8875
32122
-6467
2827
-19762
5681
-959
6196
3518
21987
24294
16419
-5047
-4333
7255
-9923
251
-32726
-1619
-12643
12033
-8837
2749
-7441
-3143
-22567
-23756
-16201
2791
6863
4821
3581
6648
-5452
32310
14961
12216
2868
7791
-6003
4929
-27997
17024
-1722
17213
-6611
-3412
1006
-8642
9891
-31238
-11702
-17255
6189
152
8881
3232
16163
28502
19231
-165
3866
6993
-1347
9816
-15604
28812
9580
18598
304
9926
-4652
12539
-27509
17801
-1958
20733
-5864
-3641
-1134
-8683
8628
-31610
-12426
-18076
-4819
5568
-6396
3782
-31209
-9981
-16908
14992
-5323
-1038
-2231
-6684
1928
-32710
-18912
-13021
3452
-3256
11207
1466
32042
6850
13250
-12012
7921
-992
7366
5325
19357
26438
18474
-1806
-6045
-285
-10305
-2832
-26772
-18891
-22437
6801
-7341
-442
-8701
-3456
-11624
-30635
-24523
-2387
1724
-6731
8339
-5456
32151
-6323
6889
-17228
2525
-4617
7303
3922
32535
3891
14002
-12277
5488
4056
2942
10815
3114
32618
13734
10023
5959
6366
-502
9020
-13526
29844
10649
16281
-104
7733
-6049
2466
-31754
8081
-6637
21360
2311
-4925
9220
-1623
32753
-956
9781
-17354
9591
-2237
8341
4069
21325
24878
18925
-2499
6864
5867
-592
9837
-3159
32614
14682
13997
9947
-4225
8096
2668
26950
18637
14941
-6609
6537
3205
100
6352
-6645
32086
12371
12289
4235
9204
-1987
5364
-25074
21093
3051
17826
-9351
-4064
-1956
-7627
4897
-32398
-14744
-14015
-5469
-3718
3507
-11358
18348
-27148
-7993
-25082
7799
-6547
14042
-3658
32665
2572
14266
-13549
7169
-1406
7196
667
26235
19631
18998
-10633
6755
-1434
7019
6588
16249
28454
21696
2269
8005
5326
3019
8717
-2823
32645
13825
14723
1224
7857
-4674
5121
-31604
8649
-6687
19626
-7890
3044
-11672
-293
-27044
-18500
-17984
6827
1682
-6088
8897
-5066
31642
-8510
557
-18901
7132
-1540
10780
204
27143
18354
21170
-12183
7183
1703
7666
10068
13912
29666
16655
7003
-7490
-3477
-1217
-6704
4706
-32427
-16489
-11623
-2903
-6238
4377
-11300
14879
-29193
-5089
-15442
-1394
-5102
5322
-7306
28358
-16414
-94
-22743
9926
2467
13192
4165
18341
27152
19403
230
587
10063
-2371
13207
-21266
24927
1772
17413
-6747
6316
-9358
4697
-32714
-1855
-9236
13808
-6767
3762
-3822
-6625
-14541
-29363
-19856
-8783
-4590
-6253
1976
-6994
22527
-23794
-3824
-18638
5603
-6264
6431
-1437
32743
1235
9636
-15564
-4255
10422
-6642
3093
-32693
-2189
-12110
13925
-9001
2739
-5192
-2962
-19336
-26453
-19685
1118
-10205
-2712
-7463
-5191
-4683
-32430
-20828
-9608
4272
4777
-1464
11046
-12865
30135
10299
19716
3622
8310
-3513
7187
-25909
20059
-334
19184
-10094
-1184
-7166
-7912
-16286
-28432
-21588
-3116
-2850
-4450
6350
-4146
17967
-27401
-7096
-18440
1201
-6908
8494
-4799
31603
-8654
8361
-20167
11765
3836
9962
7026
7468
31904
19579
8920
5731
7304
5030
7960
-6061
32201
15969
14122
-2242
9004
-5814
6531
-31857
7668
-7468
18548
-6155
2328
-11263
-2119
-27472
-17858
-20637
5278
-7634
-106
-2647
-11149
-1557
-32729
-16477
-14096
8747
-259
10732
3053
23697
22629
22153
-2146
6021
6363
116
7208
-13282
29954
10824
15830
-1406
7457
-5852
5371
-32761
-603
-11328
18277
-8716
109
-9259
-2273
-23049
-23289
-20178
1807
-7943
-2937
-3057
-9442
-1089
-32748
-16333
-9726
7273
-3204
12641
6694
23048
23290
21680
-1797
9516
3193
10705
8025
8841
31551
18709
7592
8652
5881
3325
12308
-2924
32636
11211
13928
4196
8173
-155
12276
-18760
26864
6132
18172
2236
9151
-5261
7520
-28463
16233
-2197
18796
-7257
-753
-5693
-8608
-10313
-31101
-19645
-5317
-7643
-3019
526
-9278
2858
-32642
-13815
-13386
872
-8039
10114
-6780
30275
-12532
6848
-16368
6077
-5197
9493
-2448
32660
2643
11699
-13402
8148
595
9553
5208
17532
27681
21714
-965
5293
5785
510
8563
-10696
30971
11495
15036
2693
6642
-4423
10292
-23336
23001
4435
20106
1520
8248
-8660
3563
-30666
11543
-4616
17833
-4946
10009
-6751
1254
-30913
-10863
-16932
9986
-1181
-10981
6638
-9493
27054
-18486
1377
-19038
6039
-5178
11644
-2331
31755
8080
19067
-10853
6020
8397
1902
9653
-6370
32141
10900
17211
-2485
5879
-8344
6669
-32088
6632
-12726
18458
-7962
5824
-8578
-464
-31951
-7263
-13420
12305
-8642
879
-3930
-6152
-13577
-29821
-19244
-6150
-5038
-4890
1867
-8188
16270
-28441
-10750
-20755
7222
-3732
14345
1043
29035
15186
18628
-6723
7016
-672
4943
9433
12594
30249
17002
3637
6765
7077
2634
9296
-8094
31751
11862
15902
-6204
10240
-10007
4581
-32752
-985
-11694
15022
-4691
6368
-9454
-2567
-22873
-23462
-22685
3925
-6463
-2572
-1443
-9501
140
-32766
-16993
-12307
-3677
-5629
-603
-13979
16991
-28017
-10565
-19682
5645
-6308
9536
-4
31872
7604
15738
-14714
5093
7780
766
13399
-5736
32260
12230
12099
-8943
636
-7454
-4157
-20876
-25255
-17633
2385
-8707
-2766
-8704
-7969
-8542
-31633
-18053
-9405
-4074
-7539
2721
-7570
20204
-25796
-3844
-16307
7252
4378
-24
9007
-6426
32130
11491
13530
1552
8293
-4712
5463
-28958
15331
-3449
21784
-2846
6634
-8484
5834
-32759
678
-13093
17386
-5345
4750
-8997
-3643
-26057
-19866
-18217
4697
3291
-7595
8747
-3988
32766
-235
9884
-14873
6914
5038
2835
8362
-4979
32386
13511
14607
-390
9062
-5638
12343
-28677
15852
-3934
19966
-9280
-772
-7986
-9265
-10026
-31195
-18197
-8866
-4362
-8265
5465
-8906
17524
-27686
-8688
-18745
3790
-6859
12528
-1983
32463
4449
14868
-13444
8008
3228
2195
8863
-3360
32594
13105
16309
-3998
10512
-6919
4133
-32702
2056
-8115
17947
-7063
6586
-10388
635
-30841
-11068
-17514
11267
-6616
-3941
1717
-9861
863
-32755
-12803
-13085
7843
-1610
10129
5610
23136
23203
18515
-3539
6907
5370
3420
11110
-1091
32748
14119
16143
-9904
119
-6929
-6246
-17833
-27489
-17953
-837
-6083
-4674
-4302
-6329
2987
-32630
-14783
-15803
5204
-4395
8604
-4350
32610
3201
13362
-16607
12454
-627
5054
5441
12187
30416
18394
9405
5632
5064
3675
8209
-3807
32544
14643
12347
-2868
5176
-9235
1014
-32628
-3007
-11603
12635
-8893
-616
-6998
-9018
-10607
-31002
-18245
-4618
-6337
-6142
-1984
-7684
2820
-32645
-15604
-11361
2223
-11518
5829
-8865
30393
-12242
6491
-16900
5369
-10554
10328
-1795
32766
-169
12062
-10938
-8234
2066
-8622
-3395
-24686
-21546
-21044
5813
-7729
-5468
-2256
-12949
297
-32765
-16112
-14183
-3371
-6021
1308
-8187
16583
-28260
-13191
-21409
-2119
-8216
5535
-7563
26181
-19703
865
-22399
2362
-8118
12111
-7221
32124
-6458
11781
-17966
8779
-4264
15093
1771
29767
13694
19504
-7297
-8893
263
-2437
-6762
-6168
-32181
-17955
-9610
-6189
-5358
-2465
-12273
9320
-31413
-15940
-18740
-1062
-5722
7005
-9312
26036
-19893
-108
-23584
5245
8339
10
8998
-14865
29201
7439
15748
-6361
-5364
-4435
-8735
213
-32766
-16063
-11540
9149
-7607
10121
-3297
32132
6418
14046
-11573
7027
4279
8130
9402
7741
31839
20181
7594
738
8978
-5377
8469
-29529
14202
-6234
20036
-8097
319
-7190
-4841
-13767
-29734
-18472
-3410
-8535
-3693
-1652
-7573
94
-32766
-16608
-10103
-4724
-6529
1850
-12272
12823
-30153
-8037
-16306
5574
-6379
9596
-6958
31579
-8743
4407
-18465
9307
-6918
9627
1690
30982
10664
14062
-6548
-1389
5830
-6278
7146
-32140
6376
-6924
20209
-6894
1602
-8542
-3266
-19946
-25996
-16092
651
-7285
-4063
36
-8163
7192
-31967
-11539
-12877
4601
-6515
10032
-8069
31157
-10144
5774
-16735
7051
-5333
11546
-2644
32452
4528
14464
-14175
890
11490
-7789
4128
-31244
9870
-8192
19001
-6740
-347
-1238
-11714
-3809
-32544
-16362
-11416
-161
-10356
6131
-6078
31399
-9366
7798
-18108
-6984
9681
-10366
5764
-32278
-5636
-13085
13954
-8413
3417
-8172
-2342
-22920
-23416
-20644
2385
-971
-10256
3077
-13235
23038
-23300
-2795
-19160
8316
3627
8355
9837
6016
32209
18337
12222
-1172
9862
-5469
7782
-31100
10316
-4503
21906
-6341
3622
