1651 9 80595b40 0 2710 7
32121
-6472
-19146
-17474
-17857
-1775
-8338
-23289
-25862
20120
9713
7693
10661
3059
12188
-261
27015
11205
-19422
-23552
-6018
9561
-9028
-31498
29273
14721
-8019
-24599
-5186
-1534
-3271
-21785
24365
14595
-2829
-3406
4435
-32465
6805
-5525
11956
5030
-1625
-32726
-17437
25321
-4297
-20133
8015
502
-32206
6032
-704
-4618
-4318
-28978
4944
-8113
-28629
-5383
17184
27899
-27241
-5579
24145
-22151
-25964
-5029
-14515
969
-15000
-14391
-12515
-25173
-19216
-6708
15874
28665
-17483
20413
17767
9406
10860
-23695
-27633
-17608
21172
-16705
26268
-19586
-12670
-20475
-18890
-1758
-6715
-6223
10755
-30951
-21446
-6435
3500
-14740
3435
20058
5264
-32341
-8836
-12241
-30813
2856
5617
-1841
4135
-1345
24046
-14562
-32283
5610
-1095
-8625
-30663
-11550
10416
13487
-10161
15462
2040
5409
14641
-29313
-10283
5727
1518
-5138
-18986
18465
13099
-30034
-16394
-2861
-14296
11849
-18238
-1047
-14490
-29388
-6486
6392
-182
32703
-24099
14545
-22372
-5360
31484
9077
-13507
-16499
22106
21800
752
18951
25352
-20758
53
-6057
15271
7901
2004
-2473
15393
-28925
7475
30537
-16341
17205
-2826
-32644
-6535
1219
-17264
15202
-10196
5938
10441
-11100
-7542
-22566
-15156
29051
-14403
-12758
-5682
-10708
17254
-2591
-28556
-16068
23667
2852
-8673
-12584
11758
-2339
-32161
6268
8593
-8713
-27199
4048
17057
7455
27052
4185
5426
32314
9450
25067
21981
-24299
-16304
10156
2065
-22006
4795
-18630
4492
12310
4333
-32479
10446
28443
13942
-29652
-3742
11566
-6959
-14620
-10349
16611
15121
-19417
7851
-3236
-30888
-10935
1451
-2508
-15185
-14296
16826
18081
388
-21744
14126
29565
1652
3240
31403
-9353
-19665
-6323
8136
6898
-22037
-24249
4448
22959
-3386
14234
-12766
16015
-23073
1569
27983
16508
4446
-17922
18023
27364
21039
25119
3333
-29671
7453
4502
-65
-11556
8519
18722
20668
-25425
-5805
22645
-7943
-8836
4826
20559
27310
-7277
-5769
-32255
29544
5304
30537
11880
14175
-23240
-22051
-872
-4723
-19301
-2741
-15809
5996
14996
9819
-23192
7424
31914
11227
-1162
18778
14527
6022
-32208
1924
24097
-711
-936
12536
12161
-5522
-32298
19468
10874
28964
3367
1009
-1342
-3265
-32603
4044
-337
32487
-4273
-9196
-13770
-12615
-11627
-4162
-12121
-22158
-2883
14394
29436
13220
-16067
5879
25209
1708
21754
5184
4444
32472
-4380
-7354
12159
323
15677
29935
6403
5624
-32280
17692
21642
5371
24586
9886
7566
29996
-13187
-5987
11738
9175
31456
25612
-6566
4987
-29965
19806
3228
19776
26126
11808
-8492
10629
-26540
9686
1388
9740
31285
26312
-13880
-1986
-21925
21066
-942
27181
18298
3476
-22329
-19850
-17155
14196
-25592
32758
-742
-10812
-4116
-5187
-21356
-4850
-9269
10411
8664
7383
5813
-4785
-32415
15927
-793
-24877
21326
17406
26123
5696
-23827
23459
1763
-14936
29164
22824
778
4847
1162
10191
-3038
8771
31571
11078
-12616
4859
-17892
18194
-9259
-8677
31597
11109
-1695
22806
936
4339
1207
6956
32019
5273
-8867
12427
-6494
6154
-11229
28251
16599
-8698
-6558
8789
-22713
454
-10137
15862
28671
8366
-22536
-4373
-11439
15454
-17170
7399
13307
7618
68
-10076
-31179
23473
-6502
-1083
32749
1179
-24148
11611
4707
17576
-13228
24934
-8858
-13510
-11910
-25244
12775
-18086
-27322
30626
11648
-9758
-14507
-2094
-13635
-2405
-15399
24199
7807
-10788
605
2956
-32633
8283
-7199
25277
20849
-1004
-22353
-3222
-7522
2924
-18438
32039
6761
-20208
-25793
-2762
-8411
2719
-17786
8522
8394
-20188
-10702
16862
28094
-24372
-14066
30257
-12575
-17398
-15069
-21286
-10775
242
-16940
26445
7000
4807
-14463
-29187
-14891
4305
-24201
25794
-6639
-21927
-24348
-10038
22236
-20262
-21456
-11563
30658
18008
-7940
4279
-2744
16245
-6810
-3533
4585
1896
-25339
-17585
27648
405
-17366
-7422
-31915
-14005
16729
-4072
7735
-15502
11450
29792
6191
-20251
-25759
4933
11794
-16110
-17463
27525
-17173
-26569
-19176
-25481
10853
-10777
-29014
19316
-24282
-4676
-21632
-32708
1963
-811
-5306
27604
-17654
-23514
-10784
-10518
-451
-12579
-11667
6757
18917
2086
-11728
16939
-28048
22098
8010
-2653
-18531
-9151
-10946
-26602
19130
-2122
-15922
16769
-28150
-30039
-10879
-18107
14838
-14254
-17496
-22008
7081
21810
-2640
-26425
19374
5543
-16552
6656
-8519
12067
-21607
-30353
12341
-1683
-10072
4542
-22493
-8073
-18364
-23997
22311
-6184
-8537
15908
-17200
3679
-23104
-31269
9791
-4647
-8229
-6697
-29756
-3586
4382
-24251
22034
-14630
-2926
32345
-5236
-15903
-19698
-9030
-6698
-4473
-13747
-10122
-31164
-6115
14216
-12554
9693
-9777
8553
1901
-32711
-13915
2003
-20569
12961
-10500
-3245
2358
-438
26187
-4874
-15477
-28881
23503
14777
-19209
-13267
4365
3909
21207
24978
-17029
27017
20542
-24842
-7656
2595
-1922
-32710
6734
20876
30494
11990
10439
-30103
-14047
-24395
18427
-7412
92
-32766
-683
15200
-13661
-7389
-6266
15946
9628
-31320
7286
6627
-29724
-10845
-3052
7892
-9064
-31488
18304
9210
-24129
8572
-9616
18488
9492
-31361
-5964
6169
-9414
-2915
-11464
14187
-6046
-32204
14242
14469
-25926
-8800
1647
17578
10700
-22556
6900
-4294
-32208
6023
-8341
-5132
-14837
8301
32440
-4610
-5419
-4204
17210
15631
-7668
23974
31445
-9211
-2477
-5448
15756
3359
10496
-20566
5687
11446
-18706
-26902
6101
9840
-1405
10924
29278
14712
14988
-21797
-854
27196
-9230
-2969
12560
10528
17588
-16501
8180
31729
-15023
29120
27872
-4484
24105
-5018
13936
19611
29685
-13872
-440
-2759
-6067
-5002
-19811
5544
28694
15821
11673
-13076
-7325
-27127
8934
-5884
-24233
-22054
22396
15800
-20466
-3976
13689
21115
24271
15524
17851
-4323
-2314
-32685
8320
3462
27159
18330
16021
-15520
-2204
-13783
-2307
-2428
29397
-6056
-2093
-7533
-24001
-22307
4715
-13576
-6666
6707
19328
20549
23490
-22844
1169
32168
9506
13838
2722
1877
25942
-20016
2639
16382
21331
24872
20196
-25183
-14334
-21498
22438
-9906
21652
20156
1235
-4999
11001
-30865
11746
-1278
1220
10836
30156
2183
-18935
-26742
19954
3790
5828
17412
1032
-313
-11623
17488
-12324
-30360
32487
-4273
-8485
-18770
-26954
152
-6448
-24593
27599
17662
-7045
-19666
10366
-12601
2161
-7611
31958
7233
-17833
-22564
-10220
-16782
12318
-22615
25035
21139
-1174
-17684
12215
-17199
5630
-3075
14181
29539
12243
-10291
-1160
-11971
6356
-15288
29219
14829
-923
-17395
-4111
-17763
5088
-11493
24409
11266
-4389
-1982
-12650
-30226
11702
-19437
-21390
24821
27589
-5735
-2186
-2663
24980
3973
16240
28459
18890
-14735
-3279
-31505
23829
-1716
31127
10235
-9325
-25708
-9157
1852
-5978
-22036
21166
25013
10670
-18942
-13190
-23274
19721
-18817
32442
-4599
-11709
-22486
-21638
-3639
-2450
-20039
15575
28828
1216
-9683
14187
-17776
7335
-7407
23954
-12471
-17980
-1084
-31094
-10335
-2949
-27322
277
-496
-4178
-18256
-16633
28231
-7046
-17944
-3555
11984
-733
-23345
-11909
30526
-1065
-22968
3445
-32585
-21564
4921
-7814
23518
-27544
2781
27355
8396
-16779
-20621
-13751
3517
-5288
-32337
6312
-6355
-24813
-5861
-10543
24657
-18533
-27021
-12669
7637
-3978
-5779
9748
31283
-12912
-6175
11795
7218
-8620
-26264
-24822
9629
7737
-31840
9484
-9974
-13882
-19906
-9255
31432
-19113
-12958
22025
-393
-19275
-26497
-6749
25628
-18379
-23002
25043
1749
-2679
-23821
-32741
-1297
3581
-29591
6357
-1189
-990
-19919
-26682
19019
-1544
-24277
-1745
811
13553
-7169
-12875
-30131
31198
9675
22520
-20723
-32765
-309
24523
-4195
-21083
14730
-697
-12138
-21233
2747
27780
17375
-21830
15044
-17226
10478
31977
7151
-6624
-28606
27992
16575
397
-32764
-20698
4528
-2553
20532
-21694
6428
-25766
-13727
-3565
3705
9946
31220
-11001
13111
30895
-6678
-15280
-25315
-30288
2426
-2503
-32671
-13433
-25390
-1445
-2375
-19694
26187
-7577
627
15395
17654
8865
-31544
-12794
12104
446
-19484
12057
-16385
-70
-18044
-31116
10268
-1694
-12285
786
15332
4802
-32413
7535
25064
-411
-3670
-11734
-15361
395
-3357
-13124
30023
-12476
-2823
-13544
-19733
8292
-5810
-20704
25396
-5369
2912
-13765
-29735
-6199
16626
-7485
13235
-12336
10360
29085
-15090
-14220
-19156
-17715
18902
-24644
-17137
5282
-32338
-8940
2982
-19093
14178
-17649
973
-9879
3405
27797
-17348
-26096
2145
21243
-445
-4599
-32442
-10738
5457
-16577
23741
-18806
-486
23660
205
14991
-29136
-16668
-14096
13150
2334
3464
-4820
18505
-367
-21811
-24452
19628
4058
4804
-25845
-20669
12832
22491
5814
-23702
22624
24526
21728
1904
-27352
14786
1978
-5079
-3915
8745
-31578
-8781
6473
-14372
2682
-13453
6592
26868
-6080
516
-32762
-14218
14546
-9026
-6107
-15527
-28854
10622
26377
-10941
-1517
-7706
20890
-10263
-14347
5800
27736
19143
-11239
-9576
31336
-25453
-20635
18915
10161
-15639
4627
12052
18886
2778
-32648
-12090
15212
953
11310
-24400
14476
-6194
17905
32737
1401
-1510
-21628
19441
12683
28572
-12047
2221
-23327
-31294
9712
-10178
-14979
29090
-15081
-7432
-9262
-19709
-14348
-1633
-6483
-10449
-3247
31026
6884
-30245
-12604
17983
2849
16457
12034
11274
-4490
9074
-31485
13406
13414
-18520
-27031
-3479
17368
3760
24500
-19773
18602
9839
15480
19696
-15722
-26448
-19343
26168
-14919
-2396
15868
17768
5086
8040
-31765
23817
13747
13321
27423
10259
-16574
5404
-31014
32733
-1481
29723
13791
9328
-21230
-7494
-6695
-4135
-7957
20139
-16341
-1953
4867
-13724
-29754
7178
7675
5059
31931
27118
-6705
137
-32766
28500
2168
31093
-10336
-14486
-11772
-7614
-4926
-10599
-6056
16896
23618
6272
-1068
23033
-23304
1094
7802
13019
30069
17583
-18178
-2294
-16473
17043
-8908
5464
25699
-2167
-1464
23752
-22571
16463
2484
2088
32700
16596
-12843
8789
-11876
17274
-3410
8545
28591
15361
627
14029
-29611
14129
4799
31888
7535
-9918
-20100
-2975
-10903
-431
-12282
32472
-4386
-22497
-11440
-11436
-1963
-11965
-23296
18543
740
-24037
-22268
-2749
27824
-17279
-23788
25529
-9887
-14143
10644
5447
-32310
-3233
6699
22964
-8985
-14770
-15492
-32607
3225
-1325
-31016
-1264
28743
-9680
-14889
28575
16035
-2333
-8336
32021
6948
-19064
-20258
1362
1619
-11207
-18709
19770
26130
-873
-29019
-7700
4811
4234
-26280
5466
12662
1690
-21427
-25547
16366
4717
-32425
32730
-1537
-18851
-16457
-11783
-9421
-3403
-19082
-67
-2636
-1682
-14234
-22742
23589
-4730
-20289
-5471
28643
-13879
-6846
17131
27931
-13879
-26613
671
-15471
-22126
-3618
-4926
32394
-22914
-13860
-4737
7055
-4962
-20546
-17166
27910
1492
-26396
5682
-1647
-23126
-18768
-6319
32151
-13862
-25331
19580
11590
-8786
-31566
-17689
17044
-1814
-32488
1477
-4162
-21720
-20878
-6944
32022
-7865
-21717
-9811
26276
4333
-18633
18697
26908
-3865
-5315
24991
-21191
-23455
-22454
-19172
16242
-14501
-15608
14959
-29153
-22115
-11680
-21956
15006
-12388
-11078
-17053
14708
-2514
-171
21381
24829
-10208
-1573
-30683
-11498
-252
9975
10801
26626
-8022
15133
21674
13238
2841
-32643
-14597
-2975
10248
-16799
6673
-25622
-15378
-16650
-30929
10818
4373
-14561
20541
-13290
-16567
-28270
-25441
12851
-79
-21482
31508
-8307
-14593
-29337
-13763
1613
-4948
-12822
-818
-32756
-22058
7525
-5366
25927
-28055
-515
-1711
-32722
-22571
-5863
-988
32668
-22324
5917
-13756
-29739
8578
10807
-29732
-2250
7318
7685
9700
1071
-12339
-30354
-10878
24943
-2087
-21767
-25441
20649
21699
5530
15791
-7732
19481
13826
-7193
-26276
-12091
1836
1343
32739
-25608
7902
24886
-20388
-10668
-16224
-31822
-7808
4113
-15445
-8953
-19627
-12671
16831
30460
-246
-13255
29965
9354
-16770
4242
-13790
-32227
5921
1406
-8803
10780
-16138
19479
6208
-4180
-32499
4946
31047
-2937
-27358
7025
3833
-32728
1579
1569
459
-14529
-29369
-1666
1543
-8077
28809
-13924
12042
-7401
-16024
23884
7101
-32497
-4197
4846
4377
31599
-8668
-2840
-27621
-12911
12820
-17743
-6490
12890
-13343
-13572
15028
23477
-22857
-8073
22703
21131
9573
11144
-30813
-7628
18174
-12189
-8050
-2982
-32630
-12357
7066
-6674
25374
-24145
6594
-22672
-23656
13360
10232
1315
2977
7425
31519
-5951
1712
14947
-16226
7864
-7954
23352
22985
-22272
-21136
14067
1137
-17499
27702
-3795
10057
-1868
-5721
19091
10296
2695
-30916
15772
28721
-19988
3612
20854
25273
13746
-22991
12528
26361
16452
7901
22186
-21160
-29652
-13942
18197
-9870
21317
24884
18950
-22241
-1239
-25481
19561
-347
17043
22721
24960
5072
31307
-9671
-21193
23072
8666
5350
28339
-3369
-17532
-27682
18686
8679
27757
-17412
-2091
-9952
-25045
-2890
-10188
-6912
-1479
13657
30790
-11208
-19514
-5591
16053
-1461
9890
113
15665
7095
-6292
-32157
13346
12690
-20931
-3503
451
32763
28901
-1319
-11450
23944
23945
6568
6781
-9192
-9222
-31442
14966
-2014
20690
25408
9314
-22092
8939
-8591
5218
-2597
32762
-529
-14592
-14711
-14837
-10644
-695
-21330
19226
11642
15568
-16117
-23705
-22621
20300
-11082
5008
22409
25386
-4908
-10589
-31008
27095
-1506
22846
23488
9879
-18363
-4534
-8340
2056
-13723
2866
-23697
-3908
17336
-27068
-18464
7680
-2525
26540
19216
-3085
-23991
1497
-10504
6680
-12928
19234
-9834
-6010
4538
-27074
-18456
3443
-16637
32399
-4895
-11908
-11160
-9903
-19740
654
-8510
-28243
16613
28732
11876
-10433
-6512
22360
1215
-10407
2361
4037
-4680
-29832
13554
12351
-17731
-10647
-11249
-14492
29387
28982
-11065
-7227
26320
-28297
16519
19719
24227
-6542
-15492
22179
37
21607
24633
-4091
-21495
-1664
-12488
12626
-20967
974
6402
16023
841
-22283
-24023
22358
-6449
3732
32553
15540
-21701
10358
-894
10894
-1014
-3290
4187
-9994
-13335
-4313
32481
-11641
-18823
23695
-20359
-31826
-7793
-18325
12698
-18364
-24792
26506
-2726
-30590
-11743
-4152
8308
-16349
-26521
-4549
-3186
-2014
-10092
-31006
10595
10571
-23891
28814
15602
-15401
-27225
-6607
-3258
2989
-27255
29770
13688
-3257
-17798
-11725
-24789
12555
-18015
10271
-23836
-32763
486
-23545
11309
-9232
-28278
26846
-1124
-7641
-21622
-28749
-15720
13386
-22967
21373
-24836
-27352
-4547
-14893
3864
-13629
-13255
-224
-4737
-14682
-8131
-17557
27666
-12675
-27688
24513
21743
-1071
-28458
-7098
-13502
13884
-19566
32751
-1021
-19037
-15933
4871
-14637
-3766
-5082
25232
-1531
-20124
-19746
-13388
15113
-16066
-28557
15709
-28755
-25702
4077
-14722
-3411
-10435
-7830
16242
-22563
-32093
-6611
1540
22989
-27582
-8792
16108
4991
-20179
-25816
20710
20956
-16973
-3079
23260
-23078
-27917
-12551
-15752
5113
-10670
-15323
-3838
-32541
-20888
12572
3335
17639
-23698
10147
28865
-15506
-24388
-17434
-18348
2882
-8679
-21461
5699
-26768
-29478
-14306
-1840
25271
-13539
-3392
-24151
4662
18738
26879
7380
-20748
11800
16448
26103
-19806
-17059
-15225
-5994
4615
-16163
-1080
18283
-21609
-29369
-14529
3373
15348
-16820
-2678
-12612
2841
29702
-10878
-13103
-15118
28192
16698
19860
-21224
-19330
-26457
-17730
27155
-16854
-15383
-11678
-30615
2751
21610
-5730
-17551
6161
26666
17718
-27031
6899
-12661
-23567
-22765
12182
14565
-4118
3683
10072
-22636
-19865
26058
1091
-15075
14490
-22093
-12583
-17932
-16814
28123
-20681
-9078
32101
-6572
-503
-10864
18839
-11253
-20139
21441
-26321
-11905
27948
17104
-11914
2134
3299
19463
31144
-10182
17927
-25601
-15543
-11947
-2328
12921
-28869
-15500
13999
21409
3306
2124
2908
25545
3572
29211
13523
-7969
29010
-15233
9301
12001
6416
13920
23633
-22696
-17702
-15924
27932
-3454
-22488
-23831
8959
20475
-604
-1375
2473
26673
-28759
-15702
5965
14265
8793
20682
-7850
21898
10416
11957
7454
-2660
24330
-21947
5212
21007
-25936
1019
25399
11810
448
-13941
23420
22916
-32708
-1964
13228
21867
10221
99
9785
18590
-22044
-9689
14089
22292
14962
-6058
1032
32750
14682
-7732
8072
8055
-19452
-26368
5736
-1314
2432
-32676
-10071
9644
-4839
16837
-23092
11286
-11453
-30699
-2850
15659
-13662
3480
-2426
11632
17534
-6095
6127
9500
-5304
-32334
5047
9570
32074
-6703
-3454
-7955
-2175
-17358
-8399
5090
2813
6561
14252
16084
-3126
-32617
12548
5662
29960
13268
-5610
-18428
2675
-2313
-7473
-13806
22303
-24004
-17541
4663
2518
-6882
-16346
10220
-2738
-32652
-18714
20389
12844
13531
-24261
21112
4808
-32412
-15416
14651
-5404
1703
-14520
10699
13121
6311
17574
-9787
-20855
-25273
22317
-1220
1569
-4673
19141
12023
-12175
-30420
15290
15147
6961
-5338
-16064
9966
32725
1649
-20128
19037
-15099
29080
17345
16223
29682
-11771
5537
14233
30465
-12062
-20142
-1977
-9005
-9688
-11407
-11324
-4552
32449
15138
-4474
11123
-11282
16737
-3798
-9413
20371
12120
13110
22980
-23357
14463
16236
25345
20767
3162
-24405
-6075
-3071
1552
-18354
-6886
28096
14525
-14454
-1071
-12794
32468
-4415
30199
12715
-7019
-16657
5209
-30057
14061
-2359
-22309
14711
4474
2061
15800
28705
-8975
-805
11858
-30546
-17529
-3017
-21931
15176
-16057
-5294
24917
-20052
-32755
-880
2782
-6583
-11758
-1526
27668
-15795
-24079
-22222
-4359
17988
-20343
-6396
16404
3625
-15678
-24067
-7571
31880
-19586
-25540
8760
879
-25599
-15319
1529
32731
-19518
-24515
7531
25671
5151
-11816
11567
-30657
28629
2004
9397
30970
6110
-32192
1086
15923
3964
-19728
1283
32741
-2227
-21809
5814
6507
12479
-22375
32410
-4819
-28413
-10094
741
-11149
-7509
-14669
15808
-28701
-28552
-4010
-15107
23560
-27818
-13257
18594
3810
-24012
-22295
7614
22164
-16702
-17198
-10558
-31019
-29948
5918
-3421
31686
-18469
-4352
6242
15350
-14542
-11085
30894
-10918
972
12411
8347
-18119
-32763
450
17618
11990
-18829
3896
-3566
-12825
-15889
2482
3833
32541
-27782
-5631
-32554
-3725
-510
2077
-4854
25719
6387
-4255
-24993
-21189
-7141
11648
2850
26184
-11383
11104
2324
29226
8417
-31667
417
31316
-7445
-21409
-27432
-17920
-14068
4863
5936
20428
2674
8628
-31163
-10124
23465
7008
-24632
7238
14317
6679
32745
1186
-16082
-17094
8510
-26808
6404
1406
9434
1210
-13310
-18565
924
32753
-21765
-16375
754
-18299
-9451
-10674
-27922
17146
-1480
-17541
17249
3698
-5434
-32313
-1319
6487
2924
-4662
2960
-6658
-18449
-12442
4005
32521
-20668
-11511
26325
-19509
-3702
-29564
-19574
-17013
12818
5700
-2026
-32704
-18424
14701
8458
12656
-23757
17171
-14269
-29496
-10643
-1881
-19472
23107
-1717
-2055
-2200
-32693
-7926
1066
-20007
16740
-11338
2260
13302
29945
17152
-24901
17350
-26044
23410
10558
-1673
-12498
-3260
10323
23611
5072
-19934
26005
-3556
-32573
-4014
9386
-30606
9875
-8124
-4844
-23317
-23021
6755
14075
-9772
3630
6234
16215
22670
-23658
-2239
-9612
-25658
-11777
-186
-1061
12637
20757
20151
-22558
-11332
-29190
32489
-4256
25173
-12704
-23008
-23330
8741
11256
-13704
806
26104
-19804
-12035
-1792
-11406
-24647
2520
1684
-7019
-24069
19233
-533
-12702
-13016
13321
29937
-18260
-4356
-1389
4315
25403
20696
-10699
21509
9530
-31350
3262
6764
-10162
-9798
-7307
21253
-17204
2246
20059
13627
13655
-19418
15711
28754
-11968
-30502
-2090
12679
-5901
3863
-2514
19446
-8662
-6712
19762
21884
10396
-24903
5490
32303
18917
-26754
-12130
-2808
-22078
6673
-15867
-7711
7238
13923
30194
-12726
-22122
-14748
17308
-4312
-32543
3820
11502
19585
28084
13081
-4715
25696
22423
-23892
2501
6125
586
-20331
-10207
26484
29354
-14560
-2549
-7436
-18100
-12039
-7022
-2549
21722
-18985
7417
12978
-10141
-31158
-1601
16319
30267
-7084
-11628
28
16318
-28414
-4081
16475
12534
-30274
-16845
2115
-14175
-2817
-4466
2231
25334
7852
2440
-9273
-12126
-30440
15094
-9333
7064
12541
11295
2156
7532
-31889
17957
10842
15355
-3954
15414
-5447
-19560
-26288
16288
6376
6799
23063
32071
-6716
-7781
-17219
13240
2963
4560
-11781
11581
6418
-26982
-18591
11034
-305
-3123
17432
-4908
-3329
19111
26616
-16574
-8365
-3965
6235
11788
15663
10349
-31089
15856
18161
23389
15445
-9407
-26353
-16681
2832
8666
-31600
29081
-15097
-21067
-9368
-18476
-5655
-5505
-17405
17161
1658
6161
3236
-10798
-30936
12385
1649
-27366
18021
28671
-1093
-6586
9002
17438
3207
22303
24004
-728
-16125
5143
-9856
2523
-14415
20945
25198
-9249
-29854
12184
-2861
9908
-12772
27610
17644
720
-19564
-2545
-7907
-850
-12705
1446
32735
11344
-7341
27297
-6050
4617
8994
25790
16693
-6684
-13174
-7675
-31855
21324
-18363
32525
3970
-18211
-23609
-1580
-8733
1345
-13307
31426
9275
-18548
-19096
1821
154
-9856
-19339
13161
-2496
-17384
-20285
-16095
28541
-12871
-29128
-9963
25845
13769
-11558
-11696
-7422
28687
-15833
15083
29088
1598
-32079
-10174
3156
14078
-29407
-31728
8185
-521
2977
-7640
22367
10178
-13423
9619
-12863
-30319
-12427
-2348
20541
-11097
-15791
-6292
-9645
367
5191
-30069
-13018
20119
-13288
6659
32083
-3353
-24821
6057
-6701
21361
-18347
18543
-6978
-30653
-11578
-2003
20140
-20332
-23190
-29888
-13430
-1966
28079
-9720
2767
4871
-1557
21114
16264
-13286
-29952
17669
12443
-10755
-5567
11468
20550
3123
-32617
-18426
23017
227
-32472
-9275
-21364
739
17928
-21719
-24534
17285
6258
2912
-13673
-16962
-7061
753
32758
-25470
-6214
16461
-10624
-28494
-16177
-2381
21184
-16510
-17747
5939
17844
-4492
-19708
28904
15433
-9882
6286
5664
-32016
-26054
1363
-9826
31258
-30825
-8179
-17573
-6425
-5958
-3423
15351
28948
-10721
10978
4379
-31884
-16332
-7030
-26219
19651
-10319
-9508
13476
-29867
-22704
-13076
-19369
-1360
3818
-4526
-3313
-18627
-7706
-8999
-20458
25595
-8894
-10861
-27880
-17214
-5412
11411
-575
23849
-5130
5298
-7781
-31829
-22442
6008
-1214
12528
-8971
6339
7373
-31926
-19790
-7860
-24176
8973
-2237
-8316
3775
-32548
-13403
7081
-21615
615
-5724
-2202
-17723
-21769
-6380
-527
-17403
27763
-4407
-5981
6283
-25876
-19464
-8924
-13721
29755
-21548
-10552
-21828
-6263
14546
-14730
-6523
32111
-86
8717
21104
-24149
-18310
-27173
-17565
6924
68
-6456
15555
-9116
10966
-3877
-20526
-25541
10555
1942
-23611
-22718
1051
14969
-754
20564
-10999
14983
1509
-32732
12387
-3860
-11162
-3130
-1334
31606
7992
-2311
14480
5156
-13370
-29914
13910
5138
7886
-31803
-7991
-753
-20837
5153
-8278
1536
-23739
-22585
1931
471
3366
27427
-5382
18758
13812
-29713
-13844
5081
1236
-1580
-16525
15284
16749
-28162
-11045
-1219
4637
1358
-17855
18002
-6756
-22447
-6584
1509
7167
31973
-26140
13574
-11407
-30717
-2695
17907
295
8546
-13852
21359
-23673
5296
25688
4698
15746
-1053
10771
30946
-13216
-16724
24485
21775
-10850
-20146
9506
24857
6819
-27603
12819
19915
-4020
-13274
-15546
28844
-20740
-3283
21746
14338
17131
4289
-4439
32464
-11274
-30766
-6534
3004
-21449
18464
-1905
213
3203
4990
12033
5288
8955
-31519
17287
19299
-6758
-32062
-26969
13518
1415
18102
-14078
2009
21725
545
-10174
3336
22952
-23384
-3747
13998
-19355
-3501
26393
19418
-10823
-8645
8404
13776
-31565
-8790
20128
13849
-9974
11308
8234
13203
3513
-6679
-3570
-11763
-4707
32427
-20304
-6130
-31109
-10289
20497
19773
-17194
-4349
17969
11245
5724
-7226
3289
2207
16352
-22223
10047
31188
30861
-11010
-12429
881
-12521
-16011
-10175
-9998
19903
1707
8815
-4173
-12328
-30359
14078
1351
17579
27651
13732
-10935
-17028
-19123
15046
-25559
-26415
-19387
12874
22876
-19348
-12599
21942
14500
2340
-32683
-12739
20576
-10818
3377
-18679
6333
28718
10515
-1345
-6062
-1115
-32748
9692
-4471
6829
32047
18769
-19426
-2782
-14293
23159
-9289
-15433
-24644
-14960
24614
23036
6627
-13719
29756
32023
-6939
-17703
-13583
-14641
1543
-13556
-20316
25929
-20032
-28322
-12219
-8730
5568
-12043
-10228
16259
28448
8268
-18641
230
-24101
23057
-10134
18516
19628
-6431
-14663
-12842
-16231
17436
-27742
31922
7392
-10020
-23302
-18541
-9665
5787
-25943
28235
9700
-21850
-15480
-8228
647
-6081
-32197
-23098
11152
16682
-8367
-16940
28048
5404
-12542
26490
19285
-4207
-18817
75
-26986
17506
-11351
-14474
23821
11588
-21030
-7481
31901
3772
-19541
-13446
-5956
-27853
-749
20583
25495
-8023
1259
21605
4619
-13419
-23481
-15582
20311
-13293
-29949
5568
-17664
-13705
-1356
-32419
4756
738
-22854
10408
-13722
-31114
-10274
5770
28172
-22784
-11193
17573
21532
-16632
-28231
11600
1862
6356
-16502
-1878
32713
11770
-15649
9172
-9641
20859
-6196
22290
-22400
-29258
-1490
-10652
14892
-28076
-16893
12706
18261
-13353
-29922
-953
24111
-5257
-28674
1173
-836
-6586
-17704
-11024
30856
-11223
-17545
5546
-27458
-32292
5558
-149
16791
-21517
-4996
-16988
20682
17657
-6697
-24411
4431
20608
-25475
-4426
17917
-7400
-29204
6637
32087
-1454
-17119
-4737
-4936
7178
10749
-13661
-29783
21258
3754
-9966
-18366
-27774
1015
23197
23142
-14953
12042
5464
-18031
-15048
-6703
-16919
28061
-20491
-16293
7658
-9374
-7307
-10131
-31085
10362
-400
-26280
-2244
-32391
-30450
11176
-6369
31462
-30758
-11296
-29923
-13350
-242
9063
13102
14960
2662
22228
-16052
1531
118
-15295
-7193
31967
419
-10858
10630
-30972
-32766
-190
1605
6336
-12588
1805
10617
19099
-7852
-31812
26003
7121
5010
3294
-16033
6949
-2462
-14465
2693
32656
-2426
-10333
-9668
-12692
-7304
-4468
15734
28742
-18599
14823
-17797
-27512
-10375
14916
2368
9451
-4894
15492
-15645
-28790
-13368
9844
-5488
26760
-15394
4009
-5553
-32293
-20156
3227
-6557
31558
-22573
154
-10624
-14903
-3753
11837
22655
14901
-20782
25333
-11619
-30637
-2876
4729
-3931
31411
-24193
14813
6088
-26379
-21330
-2861
16024
25125
-29188
14890
-10521
-31031
-8439
10448
-10817
12703
-8355
8415
-11764
-30582
-122
5599
-13249
15163
-7003
13252
-20103
16169
30974
10687
6310
-20026
21155
18567
23121
-23217
-11515
-22699
-21581
12095
-9389
-6258
10644
-30989
-12540
-4587
-21680
7171
-7196
-2302
-14157
-20835
10920
10776
6218
-292
-942
32753
-32482
-4309
16595
22813
20217
13046
-8495
29385
-13912
-29666
5485
8189
-9071
11409
-5078
21244
12460
-4560
8062
-90
3357
-32594
14842
20374
-18807
2171
20461
-1675
17481
3350
8355
31683
-110
-1997
22838
10528
-6147
-32185
17071
19486
-2431
-21110
18239
13799
-5896
-22604
8251
31710
-4922
8894
26340
-1348
-1643
-27130
26823
18820
10712
-30966
-5348
10650
-20230
-13336
-2447
6985
-13744
-29745
5475
20267
-3601
-2990
-2850
27696
-14277
10540
19344
19621
30267
-12551
-601
32234
25687
-20342
-18501
-6545
-1964
8687
-22123
-287
-17185
-7170
7524
-308
70
32766
-14060
7095
22466
-23852
-13864
4538
-6984
-28831
4664
9245
11227
30783
8703
-20154
17207
-22003
24949
3013
-11222
28618
13724
9813
29747
-13739
9185
11997
-1154
-32746
-3864
26318
285
-20132
-3114
28947
-7706
-4721
-10741
10185
29778
13670
-17413
18466
23062
23276
-277
-23291
-677
-3721
4595
-18347
16409
28361
10616
-13895
18932
-11088
2089
3936
7831
31817
13832
-7534
-8109
1783
1875
-25190
-2742
-5329
8907
2545
-32692
-2206
10221
-15234
18125
-19611
-31841
-2687
1033
24493
-30570
-11795
-2105
13799
13666
-9158
-26041
-11891
26694
-19001
-16247
23272
-6047
228
29250
14767
1419
-998
30253
12586
-14574
-9356
7369
-22014
1851
-12052
26746
-7700
-13142
-29180
-29607
14039
-3812
-25208
8172
-17379
-11609
-7357
-25009
21171
-13379
-18534
9565
31339
2761
-24696
4437
-11349
23804
-11841
10309
22318
12844
-21252
-24153
-7542
20032
-25930
24523
-13807
-22746
-8826
-16960
15106
-22013
-24271
-32727
-1601
174
20074
16183
14180
-1275
12382
-1780
-10376
-31886
-7544
3256
26427
-8977
-15604
3778
-13031
-13514
89
-31555
8827
-2430
-27054
32753
-923
-19064
-9942
-5004
-16578
-3189
-15633
-4680
-13878
-14975
-10479
-12391
30333
-9093
-12705
21424
6589
-29813
-13594
17670
14199
-19603
-16040
-20794
-7385
-4014
-249
-15740
28738
-1993
-14084
2324
-10965
-32238
5859
10617
15290
-19132
-9578
6186
-15833
-32567
3610
21531
21342
-28582
2228
24777
669
-19586
-26268
3784
4979
-4519
-8696
18502
697
-18135
-25120
-21025
12590
341
-32765
9562
-29997
-32340
5267
5508
-20551
4997
13473
5693
14049
2111
-18845
-20774
-8722
22501
-23818
3399
-29698
-27389
-8660
-8293
31700
-20788
-6181
16987
-26284
-32216
-5983
-10341
18700
-21405
-15404
-2980
-32631
-25687
787
-9679
30867
-21401
-5099
7698
-15522
-13471
-14166
-27518
17787
-5658
-22796
515
-12257
-17769
-15775
-3987
32523
-14550
-10403
-7204
-31965
-12931
2999
-17691
-3283
10990
5902
-17961
-18473
3249
-14390
-22866
23469
9066
-620
-17274
-14699
-10557
5166
2494
32671
-18856
-1342
24429
-21837
-30997
-8963
11465
6186
-21490
3658
9352
-31404
-18517
-9533
-27826
15267
-8581
-13315
11612
-30640
-14834
6348
-13130
-8187
-6324
4690
21058
-23332
-31253
-9845
16367
9621
-22342
8006
-2394
-32679
-9673
12004
-8100
-15741
6804
16998
-16707
-28187
-11039
14974
3695
14168
-10079
15855
-3844
-32540
-12622
-4061
-22784
12953
489
-2229
-19368
-26429
12613
14431
-18031
-8580
12780
18984
1546
-27674
-10600
-10740
-22102
24190
-10111
-7367
-14613
-29327
-1085
8227
-11678
23344
-13731
9437
1903
-32711
-9678
2380
-14076
2813
-4162
8988
-4717
-32425
-159
4423
-1347
13511
-15424
25577
-4011
-12408
4283
-5467
19442
15177
-13310
29941
12527
-30277
-10121
-4546
-21394
15579
-18147
-3477
25641
-20401
5982
-30731
-30921
-9463
13996
1565
-19305
-26475
7957
18558
-14058
-9812
12545
18485
4589
783
10518
-3875
-15803
-28704
27505
283
-62
-27773
10750
-4067
-5007
-4489
4334
32479
14091
454
25631
-6251
12015
-13788
-4276
32486
11797
3011
11617
-2687
-2550
-32667
20735
10414
-8695
-31592
-9955
12723
6834
24668
-25194
19576
-11609
-17749
19082
18056
-1156
-15439
5884
32234
15759
-9373
-5551
9363
13020
-30068
3071
20015
6929
-24591
9239
15678
251
-21449
-3083
32621
-6937
7208
31656
8459
8242
-5001
-3360
25133
-266
-2529
16938
-7713
-32511
-4082
19248
-10558
19425
21974
2637
-5434
17610
-27632
9616
2532
-14344
15361
7793
10823
32262
5729
-6359
17925
3529
-32576
-11837
19781
-24031
-18484
6169
-3
11441
-8892
1845
-9653
-32670
2517
4012
-18056
32415
4787
5148
-21494
-29835
-1801
-2093
-23858
-10264
15811
7340
12876
25910
-20057
13700
18099
-13473
731
2307
27817
25118
-21041
4508
24616
32658
2668
-2345
-15250
-18711
-11737
-2003
-16979
19466
23106
-21851
-4472
31656
8459
-20183
-13693
-2829
32007
22388
-13851
-1173
-19114
32669
-2523
-30287
12503
12087
11301
5423
-7856
27744
7953
24567
2552
-7599
-4365
-21706
-24545
11945
-21364
-17213
27881
27983
-3636
-10721
-12298
30958
-5751
-25215
2057
-9660
-12596
-20280
25229
24946
-21245
-32406
4844
6042
14356
7659
7956
11041
6376
-2773
-134
5699
6777
-15833
-28687
26657
-1545
12184
4133
-27466
-5226
9502
24552
-24139
-22157
-808
-16552
-4523
8845
-32416
4782
-3107
-18009
27178
18303
-8034
-26506
-9503
-5924
7124
-26045
-3645
-8913
-14672
-5805
-3252
32605
-17951
-10589
4964
-18614
-27638
17601
-2827
-14111
-839
-5302
-1678
-32723
-27464
13083
-12322
17108
-18087
-8086
-1607
15546
-29024
-281
32721
1723
995
-7028
21515
8943
-22327
-23982
1380
5800
-971
-21109
-16009
8836
-7444
-10829
9679
31304
-3875
-8098
-28666
12096
10289
-3766
-6980
32014
1682
-13285
-10979
7165
-14902
-16057
5950
32222
-2830
-16159
29247
14774
-11147
-24248
-10530
-1639
-1716
-29038
-14512
-29378
-8974
19190
-10004
3416
-3584
9252
-16012
-6756
1154
-3104
-6044
-15465
30474
12041
-18035
23193
-76
-32766
8796
21778
15442
-5861
-20536
568
-13946
-5710
20168
25824
-1172
4150
417
-9718
-1267
-9361
-32028
6915
6923
-19638
-301
-4151
-15074
-11092
-1048
32750
-17831
-14962
-15913
-17689
-11539
-11332
-14502
29382
2027
-7220
-19542
3155
-5056
-12875
-10457
31053
3794
-20106
-3968
-32525
-9763
1674
-20771
6873
-1443
3542
-8466
-11197
-6092
-11145
-22712
23618
71
-17554
13157
-27476
-27642
-10239
-17077
27964
-22493
-17627
-15408
-28918
-28826
10067
17130
26943
-19282
11135
9728
-30054
-19564
5218
13712
7338
-25532
20536
-16156
-28507
-2842
-1122
-16248
16255
2098
7483
3341
-26180
-16213
-6031
-17706
27570
-18186
-10198
-11906
-30527
-8664
-11511
-11010
26775
-2655
9483
-8957
-19143
-7907
-569
-7540
31887
-18267
-2082
-21758
-24500
-11214
21800
21080
7089
-8724
27755
-13589
816
2689
16856
29446
-14373
3579
26443
-20969
-25178
3407
939
-16777
10328
10423
10129
-31391
-9392
22924
17740
-13199
-10975
22520
15056
-25324
-20793
-8176
16237
18580
8479
-566
26601
8526
-31638
-13753
1718
-8371
779
-9356
8708
5950
-32222
-13600
-8899
-10029
25062
-19320
6258
-30638
11616
13389
7453
19669
13201
5473
13616
-14166
-29546
-5288
13120
-389
13789
-11176
18613
30695
-11465
-16163
-21263
-15016
4443
-9603
-15865
-18596
-26978
-11948
18158
14970
17383
-15725
22667
-26244
-961
7614
11461
27900
17182
-7028
26135
-24473
-9265
19793
22635
2180
-18356
17006
28007
3681
-30570
10973
14372
-5575
2123
-19480
26347
-2382
-32680
-8299
15012
-9559
-1090
-6857
13312
4564
-32447
-10366
10276
-3380
8135
-18958
14157
32493
-4224
-4010
-19493
-12904
-3930
-6417
-9489
-27631
-17612
18894
21843
-8380
6965
-645
20456
13490
7294
11676
-3972
-4238
-32491
20008
6249
-10226
-11349
16357
19460
-4844
-32406
21173
24494
19402
-6793
9495
10448
-15693
-28764
1230
2148
21795
24467
5835
-21739
9507
-12682
9661
-4070
20270
-24416
-6966
-2869
1689
13187
-28627
15941
-23159
-23179
-4733
26412
19270
8436
-11323
30728
-17185
-68
8350
18238
27658
-9676
2508
32670
20649
-16236
-27255
18188
22729
-20244
-14037
13872
8438
-9588
-10325
16005
3591
-32569
10965
7983
-26317
-4662
12071
30462
9990
-10900
6505
22289
-27207
-2597
8730
31582
21195
-6298
-142
26142
5466
-14102
2386
-3498
-30741
11341
-5921
-13656
31774
-8003
-13569
-7862
-12827
-15096
-3873
-10813
-2653
25389
-863
8517
31030
-10526
1890
4572
1866
-32713
-25702
-109
-11295
6502
1465
4249
-5818
15656
-15357
-7420
-5390
14281
9518
-31354
22467
8734
-1828
-16351
-26121
-19782
18900
-25583
8608
20087
-11319
-21671
-7578
12517
6728
-32068
3511
-11585
-24077
19495
32766
137
-22607
18219
21133
2307
-21586
23307
19010
-26688
-13877
-1456
11720
30598
9230
-15265
478
-24198
24353
-12555
19418
4926
-28638
-15922
-3137
-8480
11235
-24750
-9334
3253
5130
-2140
-31583
8725
10352
-26388
26355
19469
-5216
-30035
-7876
5079
-933
-25227
-16988
28019
13557
-6405
6494
13211
6975
-8832
-13117
-5906
-16314
1715
1271
32742
-15479
-12232
23914
14280
-3594
-32569
-22785
2479
8326
-30857
-482
-22891
-25502
-2426
-13920
29662
-17856
-16059
14517
20447
-15257
-14789
-1794
7471
-4035
-32517
11922
-28250
-32458
-4484
-28433
6683
-2083
-25060
-28608
-15976
-22500
4147
5264
18347
9529
2371
-2185
-27067
-31158
10141
19554
12972
-19729
14736
3728
-17962
-32592
-3378
12229
27745
-23872
-3659
3375
-27256
-32617
-3127
-346
29728
-23934
-6460
3319
-5760
-29562
-8527
-16
32766
-19919
-24933
5147
-32360
-25322
3988
-16951
24554
-24455
-12395
-12883
-30127
-8873
3079
-17586
20588
-7067
2314
-23589
-4334
4082
-3728
-29162
14940
16919
-19581
-23242
-23096
-18161
17092
24299
10784
-6028
25577
3802
-21494
-8231
-10075
-26979
18594
-7235
-12635
10692
-26858
-32179
-6178
-10081
19240
-14968
-14201
-23475
-22860
-2052
16395
-14389
3943
5496
3986
-9067
-31487
-19009
1841
-7471
28003
-16381
1303
-693
266
-11301
-578
28708
15796
-20270
11289
-4476
-32459
-16395
-3477
-17464
25028
-10890
-2690
-163
-24261
-19354
-8921
-20540
25529
-8767
-16103
20338
-22214
-31309
-9663
3124
12273
-19698
-5140
1186
-28055
-16874
-28087
-25105
19060
9186
-11951
-13558
-29830
-1606
11991
-15509
5267
-429
10483
-23181
-19650
-9342
8096
-8685
31594
-10248
-5811
-14471
-1886
-3917
-3772
18142
27286
-11884
9278
1152
-10463
15118
-16150
-31433
9252
5063
-6916
-15794
10514
15034
3061
27496
-13615
14916
29174
-20748
-25360
9727
19391
-12166
-2852
5125
18294
-15996
-28597
472
7533
-16184
21924
-9218
5957
-13388
-29906
-12124
14810
-2652
7433
-3637
9299
-14313
8174
13572
13582
24956
-21233
13773
27619
3890
-23812
6172
22371
-1158
-32746
3796
28358
-14118
-10258
6977
8142
22315
1284
-1086
32748
-1938
-32709
-2875
5912
-26008
7566
-5344
2461
-12560
-30263
2430
25589
3937
-10284
-3201
32286
-21710
-13493
13168
14763
4561
-11241
13765
29735
-7905
-2055
19151
8387
6995
-23180
15524
28855
-31146
10178
19199
12311
25540
2871
8484
28216
-9374
6193
32208
6021
-12228
-23258
22544
13359
-32506
4122
21944
19803
2767
-7822
19752
15789
-30899
-5284
21009
25145
8858
-10438
12883
29676
8300
7841
18247
10901
8684
-31595
12213
17963
-20820
21397
32493
-4227
19184
-2199
16587
27618
-18514
27035
-3440
-4663
12027
10357
21576
-18855
-27483
809
9398
18862
26648
19067
-13982
24621
-24215
-13534
-6905
19842
15590
28820
-20321
12117
-19613
6705
20007
25949
208
-13359
7524
8253
-7504
19821
12121
8190
29021
-15212
7200
19998
-21198
5861
14213
18080
28197
-7935
4426
32466
-17961
27405
14143
7944
24406
-11252
17592
11108
22400
23914
2312
-10175
1464
-5314
-5147
-17931
-11826
-4150
345
26206
14899
-29183
14669
21582
13876
8714
-10078
-8079
-13188
14901
-11144
-30813
14668
-18884
-29797
13629
5842
5523
-25334
-6366
-13877
21825
4209
6414
32653
-2726
5222
13933
-16252
4464
-9073
6092
29503
14254
-5458
13284
-22758
23573
-8237
-1137
25646
13221
13720
-570
2415
2185
-8769
13089
25197
-20947
2766
16741
3563
32572
-954
-11979
6762
-12490
21851
-17939
-23982
22327
-5980
3062
17171
24811
-324
-13386
31671
-8400
-27307
-11394
-20463
-10849
130
-28586
-30728
-6831
-1329
24405
28223
-634
3135
32616
12024
27617
-849
-14733
-2823
-23583
26073
-19845
-11188
12507
-7781
-17244
-12361
30345
4422
-29663
21409
12452
-14361
-15303
-15228
-12758
12004
-30488
13529
-19909
-15434
-5818
-32722
1711
-88
-21551
-31747
-8108
1182
13211
40
19197
840
6177
-4550
25471
-4239
-17098
-3620
4069
19387
-26415
-2379
8754
-14213
-8047
10413
31068
-18505
-16225
28996
-4491
-21111
-23093
-18528
14342
-14544
-29362
-5624
11907
-11647
-3496
29718
13800
-8267
4642
10525
-31030
-23110
-1317
-24633
16453
-16665
-14978
2715
-20038
-16203
-5564
-22615
23711
-12438
-18861
10739
11884
-14711
-27991
-12165
16740
4647
-32435
-19281
-8210
9118
-5869
-32759
-704
28252
-9278
-7831
-7478
-24973
-5343
16058
28562
-14015
-3296
259
-23860
-22730
-9479
-12530
30276
-15260
-11672
-11307
4308
-10837
-16854
-2898
32638
-1279
-18748
-27097
18422
1347
-10669
12288
23198
11692
-6151
-9943
-17259
-15086
129
-8422
31666
-15878
-10666
-22955
-18353
2241
-3706
-22879
23456
5367
-3864
-31722
-8206
-166
12071
104
22220
-601
1778
2886
-25960
-16484
-3455
-24841
21367
-12717
-16262
15717
-17446
-11899
-21025
-27216
18246
-8598
-19191
30262
-12564
-22364
-18119
-26545
-17367
10763
-25845
-3246
-684
-9348
-9003
20075
25896
-17312
5994
663
-25276
-18258
-6822
-10635
30992
-19071
-6501
-15191
-28340
-13095
3143
-4829
32409
-16583
4103
-32706
1992
15093
23398
18932
-6338
9506
24558
-22067
-12977
-2488
-5724
-8275
31704
-1341
-2990
-12083
-30457
-15428
19000
13795
-14578
6557
28406
-7344
-31933
-3882
4622
-21711
13167
-5776
3728
-10650
-20279
12343
4777
-32385
-4987
13835
-11
-84
-24990
-5659
-2057
-31156
10146
-398
-11597
-19274
-26498
-12415
17172
16981
13203
-10588
23660
-16833
4414
2569
-6733
6835
32046
-8351
-2509
-19167
-13507
10244
4953
11225
1127
7404
31919
-18637
9607
11541
13411
31963
-7210
4368
29145
-27615
-17637
16346
11624
-21847
2968
15833
8844
-21846
-24421
13224
9656
1441
15786
-5326
29195
-31550
-8845
26197
6074
-3963
16175
5831
23287
-14751
29258
26267
-5844
24616
-11490
21516
20002
-31081
10373
15554
3772
23592
20984
686
20452
17181
-27901
-10543
9956
-4902
-28510
5135
15532
18695
1751
-7541
3180
19973
-25975
967
13583
41
6552
16952
11491
313
-32765
18103
12572
13629
-426
11875
13984
14870
-29198
-3808
25604
2870
32641
30854
-4823
5541
-29656
24922
6075
6360
10007
21288
-6834
-24251
-22035
23292
-7100
3012
2366
-12517
-1984
30840
11068
-14109
13103
12406
29121
16849
-6711
18070
-27333
13356
9182
6403
-11480
-6193
-5958
-25336
20778
-11579
-21362
-12109
15407
8697
15287
20981
-25168
18242
15378
-16357
28392
30098
-2519
-5112
-4482
24862
-1704
23748
-22576
-14732
12126
741
-19820
-12719
11218
-172
-2477
6260
-3665
-30482
12019
-249
-21741
-639
8879
13251
15697
2115
-32698
16048
9778
-22778
22853
23407
10951
-2169
-21294
32702
2053
-10125
31163
14202
7572
14197
-11024
11600
-3425
32745
1179
-16250
-3437
-23137
-22325
4515
-30881
9339
8892
5310
-1997
-19408
-26400
22339
-14207
-15815
-4683
-13792
23406
31899
7490
-14518
17709
8268
14432
-25339
12929
21546
-24686
9105
-10112
3562
19611
6677
-15099
-21601
145
15647
-28789
-1542
32730
7225
-744
25529
-6589
3296
334
-30093
-12964
-3185
25258
6529
7742
84
12911
-30903
10833
-5515
16832
29969
13247
73
10234
12518
9493
-22867
-269
32594
3357
-16882
1236
22148
24147
-7059
-10397
-3868
-26428
16069
-23835
-2126
-16511
-32069
6723
9604
17225
-15065
-5362
16396
28369
-12995
-23610
8501
1867
5346
-25204
-15470
28884
3115
-15015
5902
17742
11890
-17586
-2809
32646
-65
-14705
17569
11022
2808
-13244
-13789
14968
-4550
-2982
23357
22980
-8665
-224
-3066
32623
2477
-13640
17877
-1305
13186
-9011
12878
30129
-10251
-11165
19712
-7945
3083
-15795
11088
25781
-2982
-29353
-7548
19352
-277
-32765
-12957
-19508
-24604
4792
-4475
32459
-16049
-12950
-4599
-32442
-31637
2350
-17661
12644
-2143
-11786
3504
-7452
-20118
-11492
-2235
32690
-20111
-16683
-3913
4124
-13837
-12670
-10053
31186
-8165
-28472
2234
-22244
-28915
-15412
-13524
25977
-6215
-16411
10655
-9470
-30553
-11839
-6248
24544
-15468
-26069
-20991
-1850
-24253
10531
28137
16791
-5636
2477
-27029
-18522
-11857
11575
4937
30691
-13393
4342
-7191
10389
-12926
-30109
-4649
23919
14550
-22793
-17826
-27493
-3537
9788
-9023
28571
-19132
7134
-17009
-28006
-12842
15474
-8913
24124
-16851
-715
16754
-28159
-16559
-4313
-5339
3554
-15740
7172
-14069
-29592
-14515
10617
8337
13860
-9924
19814
-15508
-28864
-15775
13891
6864
27049
-22984
11655
-17147
-26415
4155
-5247
-32556
3705
20524
1591
-21262
-24931
-6091
15346
983
16242
-8209
14000
-14397
-22138
2710
25033
9378
-22379
7357
31930
-12891
-30124
-10069
13807
-16420
18704
-12399
-1598
-15855
-28675
-10204
12416
-1728
28763
-21335
8237
-23342
-22995
11661
21087
5022
7564
-10191
27465
20734
-25372
2622
-15234
-22287
-7017
-1085
7418
-17708
-27569
-4940
15061
2291
1588
1236
21644
-8716
-31586
-13410
14956
-9695
2222
-2718
6982
-7809
-28066
-14142
-1815
-5243
32344
-18152
3323
-32764
-434
18549
23343
-4596
-10177
20116
9209
-32353
-5187
14010
18968
6977
-5254
16420
21134
-15206
-9303
3290
15654
26144
4114
-9818
31261
-16649
-14582
12641
19798
11527
-6333
-1756
32719
-8426
16535
22836
-374
7063
-27073
28367
16400
-20101
-19068
-4689
30662
24245
-2739
-8940
31523
-13889
-29677
-9599
22390
6576
946
-6554
22127
-15596
21917
32240
-5848
-7391
-15210
32413
4202
-3810
4049
24374
14240
9175
-31456
13408
28653
29615
6075
17128
-25291
-25438
-20653
15830
-7217
-7187
-12187
-10673
19029
20459
22422
-30966
10711
5492
32303
12704
-7792
16689
-24200
21860
1280
13114
-30028
-21160
16625
-15169
-17390
-1888
-3367
-17455
-26701
-9869
19016
-12244
30393
-21285
-4195
-10730
-6245
-976
32752
28670
-13910
-8877
27495
-28958
10433
25785
20218
4559
-7047
17764
15667
-20498
25563
11801
11583
26138
-2431
7760
8238
683
6469
8785
7648
-718
-32759
23211
7267
-20928
22226
4896
21190
29914
13370
-12828
3184
10045
15176
1866
-1014
5692
-32268
23199
1012
4607
29477
1995
-1954
24600
-21645
15137
1496
-9582
-23516
-14044
11889
-12412
30324
-20536
-6723
-13722
20323
19894
1312
-3729
-22207
32733
1470
-17345
-5817
17606
17044
-20843
25283
-14712
187
-7402
-2136
-30216
12674
22443
20333
-17138
-8145
30658
11563
-10336
-19508
-9262
-6392
-1242
-22571
8574
19867
-730
7791
14960
-29152
10928
-1122
20641
21157
1208
-4691
-3708
-32556
16884
-13924
25745
-8696
-11592
-5952
-26053
-19872
6819
-18855
-14583
29342
-971
-7448
16137
20074
2488
-14241
-14205
7392
-10901
26118
28832
-15568
3417
12058
-1061
22732
-1374
-14467
-9032
-2588
21226
-24962
7076
31993
882
-17877
11911
-4053
11995
-13431
-13426
13597
2358
-3501
-10116
31166
-10403
-22804
32700
-2087
-30068
-9947
776
-25287
6392
-14373
-21774
22837
-22499
11704
29207
14853
-845
-17274
-6521
-16099
-29761
7593
2102
32699
-24282
-15647
-31782
-7970
-7900
28161
11676
17853
-11263
4742
-19035
10553
-12749
-6808
4518
32453
-2723
-20027
-9080
-188
-24705
-18511
-12564
16584
17803
-27508
21610
14038
-26638
-11707
29958
13273
-24809
-10392
14219
-16103
-16128
-10705
-32766
101
4627
-25331
6675
-15459
-32692
-2205
-7390
22271
-16587
-24421
-25182
-11611
-14504
8585
15737
28740
-10884
7376
-3862
-9835
-10683
-6483
-10557
31019
-15747
-14534
12055
-13100
-32154
6304
18217
-13555
-4576
3890
4003
7927
-6046
-32204
-9007
23880
2009
-19111
-6302
-19808
-20293
-3712
-5568
32290
-16638
-9129
-16877
-20282
-6170
-2157
-22094
24196
226
-9104
-15628
-26796
-17454
7604
-12246
30392
-14226
-7666
-10723
-30962
-22142
-6045
-14271
14543
4281
-3333
-11965
-30503
-10455
3938
-1718
16442
-8772
15692
-15739
-17345
-3309
15
-5690
32269
-14580
2126
1926
1787
-12685
-20559
-19788
8867
15560
-28836
-419
-11593
6267
-5658
-32743
-1237
10880
-12148
-21997
-24285
-2578
10565
-5400
25292
-11311
9168
-28317
-1105
15277
-6924
-16290
28430
5927
-6669
-32495
4212
15278
3518
-2275
9671
17377
5403
-1205
-9622
16448
-27679
-23154
23184
782
601
13365
-29917
-16450
-8310
13692
11138
-21571
19908
-14031
-29610
-3900
14792
-11867
17857
-14184
7009
-10081
16999
13537
2970
29591
-14072
10750
24296
-22110
-24182
5094
18508
-11001
7817
-1445
12216
-31776
-7994
22518
11624
-5634
2687
14312
20471
-1519
4741
15867
-28668
2217
23541
-727
10565
-21249
-24942
-100
22995
-6713
5269
-2916
11865
-26077
-19840
15237
21967
-20094
9364
-1047
6376
-8234
-9312
22501
2977
-32346
-5234
12343
-1971
4055
-7569
1576
15751
12393
-30332
7155
21927
-13099
-7911
-1688
5835
14328
29468
-22419
10762
-5831
15706
17994
-5646
11768
-23542
27596
17666
3922
-27396
1320
14593
-22123
24171
-27778
-9449
21249
12231
7346
-5928
13846
-29697
7743
12904
-19651
-8017
11877
25220
12001
-22765
14291
29486
2058
-32702
-15160
21181
3482
9047
-27013
13525
-3027
-19156
-11227
26901
24794
-3322
-20081
25892
-11455
-2920
201
14495
32700
2092
-10134
29812
17066
27971
13529
-5545
5472
-22506
7779
-7044
-31784
-7961
16013
27731
4500
223
4248
21537
3464
18352
-2053
679
32708
-1962
-5744
9965
-30925
905
1122
25405
32346
5234
-1147
25316
-886
-6219
610
24313
25882
-4963
-19465
26358
31399
9368
-12803
-13959
-6397
-18127
4923
-19973
-19180
26566
17928
8369
6875
-18600
29160
1056
13002
14246
-4621
6243
10894
-30902
12166
-2428
29113
15036
-6125
-5147
-1302
-22065
1459
-16548
31511
-8981
-15207
486
-18187
-20196
-3435
-17254
2911
3263
747
23048
21819
-24445
-4033
18730
14461
29403
8606
-10255
7475
-29809
21304
-5241
-4226
-18370
-28177
16724
12631
24001
-27874
-2018
12431
30317
8889
-22555
-9534
-699
11064
-25085
-16543
-28284
-20038
21576
-8439
13927
-8525
-1877
-32618
-3118
5823
23246
-7367
-661
14960
391
11614
24042
-27943
-15423
22666
23661
-15454
-26692
19930
26008
-5524
-22281
-5613
-11679
15878
-26619
10322
21585
-14374
-10466
24254
22032
-22749
-12909
4373
31105
19829
-13655
-14634
-20790
27439
-17909
-14802
18770
-1629
-410
29837
13542
-3074
7776
-732
13138
-23306
2762
32094
6602
-8354
-3706
20681
17839
-19061
-15093
-3767
-7964
7511
-31894
-19155
4531
-10549
8088
21498
24728
-13228
779
9170
4525
-21762
-18295
8555
31630
-19626
-17854
10040
7503
-26742
-8418
-4726
4618
933
-32753
-7835
2708
-25892
4301
28825
15580
-10778
-1040
3618
28388
-5918
-21472
925
23626
-4921
-32395
-3503
32579
4265
-19786
18516
8807
8023
-7775
-7628
23636
534
-11704
22551
23772
-9197
-4639
3540
-20858
-31295
9708
9158
18227
-26276
-4278
-15849
-6618
-20527
3775
24697
21534
-9875
7996
611
-588
-18830
-2071
21349
24857
-23566
-1643
1468
-28337
-32035
6884
1199
21495
-22829
-4984
-13899
-9735
-14801
360
19903
26029
-14116
10317
-17699
-6783
-20931
4478
16672
28208
-13591
-2853
-12557
-12380
-6238
-1546
-25145
21009
-514
-20499
11758
-28908
-24417
-20818
-23547
22785
-7419
-14421
-23123
-23216
-5282
18791
-2805
8762
-2447
10489
-31483
9081
12605
-10438
9548
16251
17074
10631
-20114
-25866
-6841
14154
-14279
12456
-2133
553
-20645
6249
4307
-3771
2422
-12618
32531
3924
-8330
-29922
-3409
2624
-29269
14730
-2976
-4156
-26472
-19310
4609
25599
-9065
1464
1347
7422
-10537
18310
-836
-20771
-2728
3099
27547
-17742
-23781
-22541
-2932
16474
5284
31942
-23004
13755
-31938
7320
15350
4802
5355
14673
9535
7602
15168
-29044
-26368
-10138
-24540
19290
-14439
-23918
-32226
-5927
18417
7529
-6760
108
22052
14754
-18071
-27333
-12439
12551
8286
18753
-11414
17412
-4419
-32467
2323
15029
-9326
1786
-12920
19944
-26870
-16050
22808
15400
-3050
-4499
11094
30831
-17158
15792
30758
7216
-552
-26458
29678
13886
-9638
-31317
-1339
14167
-5733
9208
-11957
18511
-24567
-20495
13135
30018
-6081
-10817
6335
21231
26385
19428
3927
-11743
26625
-18987
-4436
11221
-7916
-31796
-6173
12683
-10076
11123
-11875
10925
-32203
-6053
17481
16866
10366
12737
-814
24859
-19944
-11827
4074
32512
19197
-19982
5871
30125
-23129
-23210
6511
15344
-11431
13040
-1304
12023
-21104
25065
22864
5248
25637
-4810
12932
18782
26719
-12819
325
-164
-1393
-32737
3875
16145
-18608
-16098
-1076
29433
22780
-11049
-1865
32713
-22652
-8067
9264
18842
14475
-12742
13576
29822
-1013
32751
18918
-13979
19261
4318
3760
3306
-14334
28466
26971
9896
22806
-23527
18595
19714
-6200
6468
18734
20303
1714
-32722
17254
14529
-430
32723
31593
1483
-6595
-32096
28767
-4234
-15551
16594
31161
10131
-15690
-14544
19909
-2205
-21031
25126
4596
7520
30033
8809
1970
4472
-24860
21345
25110
7736
3471
-4673
18472
5192
13472
12865
5487
6968
13999
-29625
5603
9768
7937
31790
10689
-1820
5541
-21342
14266
-11949
19903
-10088
-27146
18350
-4617
-13906
-8964
-16346
3790
32547
1781
-11805
6180
-4313
13235
-20694
-13747
29743
1009
911
30440
6154
4036
310
-12406
13611
-12088
2912
18028
27361
-13409
-12501
-16567
28270
22086
2480
3126
-9280
19939
-3137
17648
6614
-15903
-9736
-17862
-8852
10225
-31130
18270
11716
-4073
447
-1819
-32716
15486
-8221
8468
31653
558
-12821
-3300
7693
80
-32565
9058
31490
-1827
-5880
22713
-12186
5182
-7209
-32685
-2305
-2531
18311
868
27420
-7317
-5772
-2845
-12667
-31700
8290
-2676
25490
-18691
-22438
-28500
4646
-9871
19232
27565
17715
-7549
7782
28174
-1434
-32742
-1258
10329
-9997
-11908
-15139
1246
32743
-5889
-3805
12877
-14396
16426
-19259
-15890
-28655
-18605
11022
-17891
12620
1337
-5263
4476
6203
-7155
-18473
-24197
11660
8793
-31565
4412
-17757
-31520
8950
1964
2743
-9236
-8406
6367
32142
-18701
-24714
21580
18920
-1347
-25671
9927
9886
-20545
-25525
-3839
25142
-5060
-29691
2153
-29114
-29582
7716
7230
27172
-32629
2999
-5906
12863
-4327
-18734
-15651
28787
880
-31177
21873
1277
-17137
-21674
-22815
-704
6430
-32129
-14825
22035
-6345
-10542
30427
12159
7079
3242
-18759
-16128
-9067
4101
-14257
29502
-9030
-10831
-24244
-9227
-12987
4596
-3782
32547
-7496
-12229
-13043
-17803
-29739
-6620
4322
32480
-8536
-7977
-13023
-4173
-3857
-11104
-16309
28419
-224
-16959
-30569
-11798
-5171
10359
9050
7581
11037
14457
6824
-11808
-21676
-16354
-21500
24726
-7067
-29516
-29701
-13838
-364
7253
3593
18718
3264
13398
-21376
-24833
-17144
16257
7828
27587
-18839
7694
12621
16651
1625
-32726
-7530
-2586
17926
-15046
-26796
-18857
-693
20822
8008
11208
-5681
19429
-10652
-30986
-13950
10851
-2805
23113
-19214
8836
-15136
-29061
-22664
-68
5836
31992
-13296
8180
1296
-32741
-22628
-1972
-8120
26883
-20612
-1323
-31975
-7160
11984
17823
6051
6935
4330
18049
-25586
-20469
-804
16610
1763
13093
-3070
15089
6332
-16953
12976
-8422
-32722
-1716
4001
-3066
-23570
-11833
-5315
7085
25855
20128
-7749
25926
-1139
-32747
-9157
8515
-5253
7955
-13186
14214
-32764
406
10893
22072
18164
-1048
8325
21146
-30987
-10651
19806
11743
8942
26802
-12911
25107
-22819
-12303
-1444
29746
29091
-6430
-3984
32523
20600
10781
10890
-12737
-9351
-31404
19978
-2921
-22638
3833
6955
11203
29457
14350
-8671
23021
-26817
-18828
7426
23545
12223
6045
-4936
29398
-17429
-10044
19553
26292
-2715
-27486
15999
24272
-13032
521
19524
11500
2975
-26959
23763
22560
31652
8473
-15590
-18638
10250
-15716
2833
-7839
6777
1856
14340
14790
8109
-31747
5177
19514
-10887
-7957
30973
10367
-30508
-11953
14981
5031
-30639
11613
23360
9095
7654
-784
18261
16042
12808
6811
10650
3171
6518
-32112
12354
13317
-26809
-2037
23607
16895
6795
-10432
15134
29062
25837
11318
-1181
268
31215
-9962
-21558
15367
7586
10426
10110
2523
-2668
-32658
20923
2388
-12040
17993
15706
13014
24160
-22134
15825
20888
1193
-19880
-11661
16248
9608
19997
-31393
9389
-7399
10105
-771
6897
31425
-9280
4906
20210
-28461
-2381
1678
26391
32753
-930
-305
30591
-15381
28932
13290
9732
26051
-5143
6795
6800
-23710
-7090
7459
25396
23378
-4430
-481
32763
-8691
16321
7673
13507
28414
-16319
5831
18861
12164
-1450
-1631
8555
-16446
-28340
12998
-10538
-24630
11498
27
15546
32693
2193
3448
17105
-12728
534
-10817
48
13373
29913
-13779
-2049
-16
25032
14557
-1896
-7045
-29903
31431
-9259
20531
23425
3243
-7047
-8352
-31684
19339
-19276
8857
15299
-9897
-3918
-7149
9228
-6701
-32074
5795
18875
-2137
6249
21403
-24810
9723
4660
-786
32757
8
-6626
22128
3300
1500
-9934
-10861
30914
564
2789
31101
-1381
5618
839
-3291
32601
4996
-5617
5682
-20602
28313
-13602
-11686
17559
-6787
1167
20404
25638
-14248
-8011
-31779
7982
2284
15256
3329
6022
13139
-2754
-3204
1239
-14644
-9315
181
32766
-15028
-17566
-12034
30476
9878
-11966
-5798
7221
17689
-22903
6871
15632
-7947
874
15543
-28845
18783
-298
23612
13872
-11042
-18556
-15775
-7767
7282
-31947
9888
-10003
-19132
-8296
-22768
20682
-12522
-30279
-6615
11434
-17416
-22467
11181
30800
-460
-14704
-30663
11550
6529
12869
17473
8109
7017
8245
-2478
-3758
-20200
17143
32766
-161
-16439
13539
7722
31843
751
-18183
9604
-8667
16479
-14938
5090
-27461
-31838
7745
-958
9632
-15123
-4304
11932
30517
1637
-25561
-39
6932
4570
-24829
4223
2140
-22276
-24029
1010
29384
-7479
-20029
20450
-25602
-29454
-13274
-6610
-2539
-2202
-1562
-4752
-5739
-26471
782
20085
25888
-19275
-4252
3921
-8607
-32495
-4210
17701
17682
-16767
-6182
-30621
-11661
-11177
11388
8497
24038
-2747
4250
-10422
4034
-15936
151
32343
5248
915
12231
-6987
-11391
-7658
-13274
-19413
26396
-1512
-15602
-10903
-10799
-17534
-9652
-1039
32750
-8530
-9968
-9693
-18570
-32310
5449
11833
23718
-15081
-5988
-10272
14855
-1064
-20784
-9531
4976
25100
-21062
18230
19526
-18505
-9326
32754
898
-13979
-6950
-28669
-15865
-11738
16759
16079
25447
-12299
11428
-13213
-29984
-16745
23246
14708
7334
-16049
22173
-30818
-11131
8779
5457
-4032
20080
4346
10409
-16917
-28062
-2958
14668
9429
5116
-6507
28584
-13544
-29836
-9307
19339
7295
9263
-14534
21661
-23481
-20770
-12790
23633
19844
26074
-24374
16647
-28632
-10720
3228
27125
27191
10551
-12904
30118
1110
-16701
-3803
14086
23244
-5724
-15665
28779
-12024
-28537
-17347
9768
1886
32712
-25019
4643
-696
-32759
3082
26190
-16351
-18883
-3924
12777
53
-32766
-10232
11100
-2009
8123
-17513
16535
-32400
4887
8647
23014
22125
-3873
10387
19454
-12987
19270
21200
9194
21783
-24478
19356
22073
-24567
-21682
3057
26352
11077
-1104
-2064
29643
20835
-25289
-11046
7592
4354
1222
-28787
13248
-7204
-9921
10317
28816
19635
-17629
-8501
31644
-19925
-25005
5576
25840
3428
27493
-28468
16224
-3884
-30894
567
31957
-14847
-29209
8223
13865
-7907
31291
29059
2857
10221
-31131
29187
9431
1512
28371
19035
-3678
13919
-29663
25000
7942
-2059
-2135
1278
16630
31994
-7073
-12749
29227
-2994
6989
15663
7011
7276
-31948
22618
19394
-15226
-19033
11665
30619
-10240
-26396
14083
19251
7268
16469
9684
10329
18956
-26727
4330
11726
22060
-24228
-24089
18110
-6953
-3694
-24885
-9142
7058
13688
3194
10968
18536
-27019
6133
9042
-17889
27452
29718
4468
10145
-13782
20643
10895
-7183
-28603
-13646
29790
10249
-3933
-13762
20771
24089
22212
1809
-7770
7036
-26145
9398
-8005
6636
-345
4387
20077
22421
-23894
-7067
25619
-16208
20458
16167
17168
28593
-16003
8786
21483
-20572
23634
12776
22049
27713
-17482
11877
13737
-13973
29638
27543
-2490
12206
-6956
16166
9817
7496
-3993
-17755
-2283
-3178
28304
-25197
-20946
-7512
2763
521
32762
18032
-11888
-11035
11564
13505
29854
9384
-6713
10603
-25516
14014
-4430
15154
7755
-16321
2751
-14512
-10556
3713
-32555
4743
32421
11832
-12199
3947
-17071
21578
-9060
17110
27945
-12829
-10016
2078
-6199
4851
-31360
-12762
30179
9738
8081
21477
-16016
16602
2079
29047
8888
-31635
8535
18649
-10858
-20764
-19805
7519
31892
-3287
5692
31376
-9429
-7325
-4945
31955
-7247
-22916
-1566
-7092
-13014
-11475
-17563
11876
30538
3041
-4108
29516
-7108
-7541
2575
10315
10710
3797
-3227
-12984
-30084
23257
-9881
420
17514
-12565
-12641
19582
26271
-13979
-11432
11202
21705
-27473
-8358
28834
-15563
11775
-9257
17542
-19066
-23068
5249
-14045
12731
-26696
-18999
-5754
-9338
-15807
7813
11468
30694
-30135
-1493
3084
-18386
-25739
6691
-12831
24417
-23683
-22643
-20125
2556
-5364
8856
16893
28076
-16261
1218
-16601
4652
-1282
20409
6487
-32118
28177
5586
-16055
28564
-249
-8113
32662
-864
17303
7189
835
2691
-14969
-744
13689
29770
-29772
-9558
-30022
13128
-4348
2511
-7101
25723
4459
-26125
-12647
-14593
-28166
16742
18013
19593
-19401
-391
-29221
14824
-9942
-3569
17199
20743
11391
-7736
-10182
-10690
-15346
-7370
-15422
28910
-6645
-20800
-20808
-1546
-30989
-10645
10808
27963
5207
-15964
7385
14239
1593
-14841
-21197
-6973
16877
-28086
196
-27680
-28333
8324
-11633
28535
-27484
-17840
-893
-24883
-16152
-5077
-30794
11196
2681
-18887
-15111
29074
15762
-15737
12548
9680
13534
-1490
-5351
10267
-13230
-4591
30384
12266
-6633
4431
-28367
-16399
-13727
20884
25232
13532
-7324
20844
571
3605
-18932
-9642
27649
17583
-11371
2910
-2010
-27643
-4184
1044
-32458
4489
2754
-7231
-17103
-27948
-12794
20589
6128
9716
-10857
15506
-21100
-12062
-6572
13787
14008
-23810
26477
19302
10135
11173
12954
-30079
-27806
-8606
26758
-18911
-21597
-20492
-9981
30585
29612
-1239
-10407
31070
5725
-32262
-21544
3281
-11762
13020
-15775
-3355
-3021
60
14853
-14616
-32020
-6953
25719
-12896
11123
-30821
-15574
5249
-12128
241
-12377
2509
-23126
-6323
7569
30640
17419
-27753
16204
27490
26967
4201
1646
-5843
226
-32766
8066
2450
-14625
-29322
-753
28320
2729
-12814
-937
27033
16047
-8664
7894
2621
-30475
-12037
-1943
-16138
4657
-8265
8691
8340
-12294
-30373
17738
5696
-2308
-2053
14249
-5576
-26487
-19289
29532
-6351
-23061
8516
22348
9282
2447
-19088
28476
16209
-15265
-24546
2423
24011
12080
742
-10877
30908
-4005
18996
16353
9344
15481
-28878
16828
13708
16868
-28091
-10092
24315
14445
-23141
-18006
27304
-2765
32650
23289
-7511
21961
-22417
22078
14765
-24545
9908
30820
11126
-859
6635
3616
11824
21150
-11314
3032
13629
3467
-32583
-4188
18359
8672
17946
19544
-6711
9817
-31261
21753
16402
-16403
21283
18313
11502
31764
-8042
4195
23566
-24140
16107
28696
15816
5761
-18142
22136
15907
11274
21527
11545
8415
11851
-30548
8092
2952
14709
14468
4109
7893
19112
-26615
410
9209
-243
32766
20174
-3187
14885
-25241
21730
5257
-13614
20902
15688
5269
27771
-17389
17218
23004
-10933
17561
30228
12644
-12802
-21761
19448
-412
24967
21220
4184
-15301
17172
-21913
7627
7530
-6522
29189
9354
4521
32212
6001
-9241
6389
8754
31575
-4635
11451
25144
-20336
1046
-10863
-14336
26600
8882
-11208
10701
30970
-5552
-11716
-5963
32219
22669
1885
22261
-18926
14325
13633
-15047
29107
12325
7076
28294
3147
-327
6882
-4170
32500
5257
1255
23145
2009
-1708
-6286
-15833
28687
12431
15364
28981
-11090
6409
9835
-5802
660
-29499
166
-1747
32720
-13007
-29816
-5083
-17776
-10891
30903
2979
-11267
-9268
7401
7706
25571
-6185
-2388
-4458
-2624
3173
-32612
5253
32343
3554
-11498
5355
-8576
13776
-18131
-15006
29128
5490
6544
17347
-3562
10389
-6315
19965
25981
1658
-18599
-5396
-15328
13377
-20944
5190
-9590
-31602
8656
25685
5491
-16811
5029
-15689
19937
-10088
6966
32674
2455
4031
3139
8062
12390
-25888
7494
31410
9330
-23513
-8890
-6622
-27383
-23497
22837
5447
18531
-28097
3741
4022
-2787
-13923
-8141
-15378
28934
-17344
-27530
-9435
31379
15813
-21690
-12224
10455
20353
-23173
1708
21841
6453
-14741
-16694
-5649
20126
-25857
24310
9250
-28736
-15745
5434
2662
-7320
-26110
-22092
24198
8863
5200
16286
-1861
14255
780
7665
-12391
-30422
-12170
-13854
22205
-8335
-28133
-10452
19651
-5449
647
24962
21225
-13963
-5604
-944
25708
2789
-32648
-8148
24278
7311
-27007
-990
2075
-23835
-15751
15322
28963
-12305
-10681
-30522
-1568
-8069
31588
25370
20736
-20609
6839
15161
29048
-2102
-26462
4827
-6512
13830
-19109
-14558
-29355
-19617
17472
-11067
14764
-9182
-4474
9772
-21541
-32613
3163
-19842
6369
-8877
-28305
-13205
-29988
-25604
11162
1874
31217
-23785
45
-23564
-22768
-10015
26996
14954
11293
-13738
19860
29847
7529
-3649
-32563
-12834
2388
-2040
-18500
-13534
-29840
-21983
16427
918
14749
-12687
4517
-15924
-28636
-7268
15422
-18007
12222
-5679
-377
13343
15747
-5183
-12494
29737
-13761
3312
11175
-14875
-6036
25712
20311
-3817
-5674
-6794
18573
-24360
-21914
4097
17547
157
17504
-11095
17722
9699
-31298
-14319
4674
-24952
-5068
-3531
-7392
-8770
31571
25980
-4156
13191
-8965
12221
3767
-9821
-17256
-5204
8521
4522
32453
-30467
4518
-32194
6097
6110
17043
25299
13201
-1750
16161
1248
-24531
-19907
-11592
96
32766
-19345
1153
-29683
-13876
8425
14609
-7730
29559
-12100
3684
-25723
-19819
2315
17313
-5860
32238
-19828
4823
-7366
16616
31955
-7246
8298
1500
3224
13360
-8920
-31529
2749
24041
279
80
-15648
26889
-27293
15503
28547
15753
20530
-14534
16898
28073
9926
-4610
3946
23501
6821
-32049
-1374
10600
-6324
9280
23804
13878
17584
-27649
11170
28511
10107
1557
10820
5183
4407
-32469
13092
14509
-19765
-10307
23732
21090
6546
-9707
2584
32664
-31542
8875
25763
16616
14299
9372
-218
21179
-18091
-27319
4192
21980
-12099
7360
-6845
12813
-9361
5888
19461
26361
13476
-18840
-1847
19640
-17114
-21568
3638
32564
7244
-3637
-9651
23991
-8856
31547
23955
-6482
19949
-10772
17081
11981
-19988
19935
19940
17937
30353
-12342
6005
24313
-16760
20757
32510
4094
-1451
-11034
18466
8288
11536
21512
14655
5307
5159
-32358
12526
481
916
32754
18786
-2152
12033
-20912
18333
-433
-22070
24219
23561
16005
22437
-7345
7003
15739
32206
4187
-12452
12180
-1731
-32721
-4638
-14508
15263
-22306
-30600
11715
-3339
4823
-19953
-12191
24793
8644
-9766
-15209
-17461
5098
-5891
-32233
-115
14934
26297
2714
-18108
-27308
23452
-2674
20006
25950
7773
-16704
-1051
-8020
4094
-15180
31995
-7068
-23108
338
-9209
-9997
-13523
-21713
-6248
1645
-17239
17142
24785
21432
-25787
-673
-24311
21968
20992
10854
14576
1403
7615
9197
21158
25020
2917
-18039
1801
-22962
17679
-11196
3573
32571
5533
-9576
11342
12207
-6675
-17653
2871
32640
10313
-3218
17494
-12851
8564
-2939
818
12703
-11477
8521
25453
20635
-27942
-5539
16741
11686
-27808
-17331
18831
9862
-5851
-14459
-29954
12616
505
26825
31572
8767
-6592
12835
21913
24361
-21980
-15525
10360
-6823
4028
-27538
23607
22724
5047
-18216
-12966
-21617
15986
-20916
-14310
2836
-12406
4212
16720
28179
-15708
-2576
405
14975
14675
10332
8512
-31641
14916
11570
25380
-5938
-29897
-10631
-7951
10844
-16965
-28033
4753
1372
-32615
3142
19371
16575
-17045
-15512
-5926
32226
12658
-26120
-8468
12741
17623
-23147
