1651 9 80689b40 0 13880 7
-8234
9961
-24193
22099
3057
-9732
8611
5394
-5265
32341
-19344
11715
7693
-4569
-13572
3764
-7161
-3296
-31379
-9435
-20722
17520
-28416
7195
-30788
11214
-27929
5625
-1376
-14280
1751
-8946
-31527
8925
-22671
-8336
10637
-13148
-4615
-7271
889
4919
-18783
-6417
9444
-10389
-26375
-19442
1696
-20138
1241
-32743
15518
-14230
6659
23259
-3018
-32627
-7262
-7834
3308
18446
-14662
8316
-10995
-14696
30531
-11894
3962
4625
8023
-7952
-11711
-8731
32332
-5321
9188
-1516
20206
10739
-4434
-12250
14214
-4242
1474
2859
30061
-13037
2983
-32630
-9497
17988
747
9815
12551
-1395
5173
11063
13281
-15487
-10764
26408
26132
-19768
8169
9445
23093
23245
-7353
10587
4549
3537
2324
32684
7598
14688
10117
887
6992
-3151
-784
23059
-10067
-3527
-1123
1017
31633
8544
1814
32716
-9793
22966
13561
-14113
1704
19629
18281
-223
-25096
-2145
-32632
-2970
-11407
12105
-13203
13656
-28844
5206
-15149
22362
-30133
-12871
-27286
18141
-17728
-15025
8263
13965
-11982
3297
-19267
-5369
-30700
-11453
-13223
7999
-17037
-18318
-11737
-8672
-30677
11513
20379
-21074
-15045
-1250
-10724
-9961
-25233
-20903
8208
6120
-7088
-23830
7687
-19082
16536
6877
662
-5098
-32743
-1234
-18410
-27105
7605
-1730
7000
-7
13927
12002
3048
-32624
13881
-3901
7204
8737
-2936
11023
-13122
-23784
-2341
17672
31270
9788
13438
-4671
1229
-7378
13703
29763
13909
-9971
7090
8168
21773
24486
18012
9614
18026
-5683
-933
-691
-2525
19527
15355
28946
19212
10588
22597
5337
25262
20868
-6800
16082
-3605
15018
8670
-5075
2579
4329
-16028
28579
9165
6049
1408
18750
18329
18949
-3276
27770
-32756
-825
-9992
8213
-12246
30392
-9788
13061
-4674
-3392
3941
22206
-13041
19866
-18536
10530
-8357
-18353
-5414
32316
-913
28427
-30264
-8177
-22717
-23613
-5804
-23297
-28050
16935
-11450
-6081
-12117
-15219
-8836
-12148
-30166
12792
-1707
-22060
-20271
-4959
-2803
-29794
-23986
-19287
-31169
-3806
-5548
-11342
24775
-21444
2178
-32694
-6747
-17239
9594
-8181
-14696
1220
-22064
-19037
32756
814
-5303
6264
-2794
-6940
-15609
-63
22123
-21325
32061
6761
12280
-14329
-18368
-27134
17902
-12960
20739
18136
24499
4597
4350
-11676
15530
9561
-2042
17406
11588
-30649
2793
-32647
-2701
11058
6405
24966
6033
10705
-8005
-5221
-5117
9855
7503
31896
21638
-3919
17389
7857
9640
31316
4951
14595
810
14812
32396
4912
-15896
25360
-30617
7909
17752
8973
-7999
31775
-7410
30252
-6975
4883
3986
-11555
-19004
26692
2988
14897
3176
7664
-420
16053
-4739
-4279
-12801
17276
-32507
4116
-18815
12076
-23559
6735
-9155
20203
-18786
-26846
6278
7597
-1415
26846
-19645
-447
-1118
-11656
-26811
-18836
-26303
5606
-23942
22369
1765
-28158
-5541
-19871
-23375
2100
-23839
288
24115
-22183
-19354
-12224
6502
-24039
15439
-28901
6590
-14906
-3352
27787
617
-23169
-12529
-3822
-10978
271
-10578
-31012
-13141
-30016
17598
3990
-2852
9261
-3057
8901
20889
-24589
30496
-731
2250
-32689
18129
21567
-1723
-32721
-357
8568
-2152
15174
19623
-25125
27510
-17800
15105
6488
17687
6986
-1547
18886
2855
499
8573
25347
8995
31508
-2877
-7773
-12337
-4782
1736
19746
8392
10467
28151
16768
-5662
6169
-1778
3123
-5379
5934
31530
8917
2534
32668
8064
-2980
-10009
6756
23301
13949
-8958
22984
-18372
27131
-14457
17683
-11418
-4136
-12465
30303
-17944
16350
1489
6750
-14587
4908
-20886
17570
-30574
11783
2081
1991
-10380
-4359
-29015
15224
-11094
9346
4321
-7793
-5062
1637
-28750
15719
2288
11459
-9533
-5981
-18365
-17712
-32694
-2181
-13602
224
8198
-15014
-12223
-10765
-26023
-10090
-3073
-10402
26978
-18430
-31509
-8990
-22408
-23906
-4545
6639
6971
-8380
75
-8184
5490
1328
32761
623
17961
-20627
-3658
8562
-24141
-22155
16565
-376
7185
13557
17259
3731
29304
-14659
11524
265
-1959
-22145
9028
3570
-11467
-5009
30615
11677
-687
19553
17261
-10519
4612
-21840
6633
10197
1558
438
29520
14221
-2959
-1394
9246
9791
10702
30969
13277
15365
30677
5365
-17175
27904
14159
-6569
4612
17701
-9521
15670
-2466
32674
-11018
24018
5770
9684
6430
32129
-2023
1557
-15042
1216
7690
-3209
4383
6436
-25521
20550
-6070
5709
-24165
20751
-12830
25604
-27948
17104
-8190
-943
-19619
-4775
-1755
8841
-13519
10813
-9221
-31442
-12235
11447
-32701
2066
-26631
14104
9737
-6741
-11258
-1971
-18863
7396
-17958
8646
12801
-12930
-29937
-13320
-30310
12447
4689
3562
19853
-11808
-17567
-13496
-7151
-31977
28381
-14390
-27991
6890
-21528
-15120
-20505
-9328
15379
-22079
8229
25028
-1469
-32734
21957
-23626
19550
-26295
-4117
-9349
15637
-15679
-15378
-22411
12976
24229
26465
19319
7241
-8668
14813
-1377
30031
13106
13982
8206
5100
-492
25328
-20787
-6757
27421
19639
-3377
17498
16253
8727
4582
13943
-2978
-11071
17223
32711
1910
7757
9388
-9128
20765
-45
-2841
31185
10055
-280
10903
-22684
23644
5394
-3572
21800
12511
16315
28416
-25375
6441
7522
7618
-15380
1844
2877
32640
-25499
5925
-2275
10202
-18118
-17651
-10288
4654
-14074
22313
-2962
-15811
-16776
28146
-15328
28960
-11926
9029
-3124
-14711
-16811
-8159
-22553
23770
-7168
10780
2789
-6062
-9352
-21295
-17808
11561
-13964
-13285
8895
-27391
-30225
-12652
-28916
15411
-6370
-25086
13666
-12215
1247
-27193
-11336
-30743
18411
-18362
-7697
12834
-14518
570
-18761
-12504
11394
-18365
-6141
-7687
26320
-19516
4744
-32421
3705
1540
598
10685
-11589
-23179
-4750
-32420
22053
-14599
801
12074
25901
-1730
-12356
-7854
6420
7479
7825
31818
15550
-28037
7934
17794
31488
-6443
7446
10992
32085
-6650
27214
18249
7913
14376
24528
10837
-9137
8569
1971
-5698
-9637
31317
-1261
16957
17541
11686
-3755
18150
-5660
32274
7600
2869
6840
7860
16049
28567
-16375
10219
-21508
-1617
11738
574
3793
32546
-5946
11587
-223
-4617
-9224
-180
-10463
31051
-9679
8682
-1111
-17795
5988
4437
-11727
18661
-2202
29700
-4426
-32466
-16629
11020
-811
-4972
-31422
-9288
-12548
2059
-18086
-14923
-24015
-22292
-12643
5883
-1841
-17655
-10381
15635
-24924
-21270
-7140
-29562
-6488
10692
-1133
-3008
-11621
-30636
-796
1774
-21884
-11520
-435
-20772
-9409
-31386
-15169
-8611
15231
4582
-3817
-1970
-17082
1534
3771
-9108
20729
2077
14954
-29155
-18838
-15875
15820
-7956
16961
28035
4975
-4091
-3851
-32539
-5879
4364
8839
21722
3411
4706
-18727
-11733
12560
15607
3258
8154
32713
-1876
-4682
5112
20902
-8469
2259
32689
12067
5569
12092
4626
16034
28575
-23686
9630
5969
-8384
-7018
14923
-28535
15169
6596
32096
8672
-12210
12612
30242
-7202
20930
5222
-10391
-272
2108
-28331
16461
-8291
28175
2980
7117
5709
9343
2342
32683
-14885
2783
-3058
-18423
2050
3271
-4852
32405
-14783
9839
-9508
-11794
-20880
-9392
-30226
12649
-10373
13625
-9760
-18049
-17963
4968
-8778
11360
-8017
-14031
-6483
-32119
-1909
-4535
-9843
-4383
-28660
-9586
13112
-6759
-29079
-15102
-3295
3674
4661
1548
12823
-15114
-29349
-14569
-29526
-14207
18690
8804
-6258
-25753
20598
-13210
-6005
1678
18293
1234
30278
-12525
-4338
297
6754
-32063
14164
7744
10028
-1425
-5498
2329
-5514
-32299
-4362
7122
6201
8368
18636
-5501
2974
9551
23275
23064
12574
2718
11190
-18167
8883
-18609
-2437
-13299
-4926
15662
32576
3529
-2711
19871
19043
4095
6155
22013
32120
6475
12904
30119
-1844
7495
19645
8854
-462
2918
-3261
2631
-7620
10722
-4903
17440
15022
29120
-14161
10477
9398
10729
-32328
5342
21413
15361
-7868
27571
-32699
-2098
3042
37
7254
9906
-24281
22001
-16734
9300
-7002
3779
-14940
12946
-25675
2073
-28404
-16336
-21482
2756
-2899
-2895
-4890
-8252
-29744
-13744
-22545
-10097
-25970
-10554
-32766
4
1004
2920
18603
-14636
-16776
13953
-283
9446
1635
-11178
4928
-4261
-25963
-19989
-22374
5667
-53
-10442
25352
-8832
-10931
-30889
6835
-13980
-15881
4358
29565
-14126
-13723
-19009
-11295
-30758
-6675
-18205
7995
11890
20008
-12101
5876
-14387
32712
1895
11831
17675
795
-24743
17485
2997
20808
25311
8690
-7339
-1409
-16201
13468
-1056
20323
10187
7729
31842
6117
-7877
14449
16886
16337
28403
27052
-6455
16073
20691
21309
24738
15805
-1067
7429
21888
19707
26178
17987
27388
18803
3116
-9714
-3719
16381
19790
-4791
32414
3215
19918
10396
2184
-697
19210
-14512
20929
5362
32325
-16539
-9475
-1640
3549
7303
31942
-4708
-8781
-8979
-5314
-9835
-1920
-7331
31936
-16115
-9828
-4926
-9174
1584
-18519
-6577
22728
-26080
-8958
3166
-3418
-27782
-17371
-24494
21764
-9808
11417
8872
-18724
-21409
-19085
-4543
-23032
-2097
-3244
-17275
-27843
-19205
-8896
-21833
-24433
7577
6213
6215
-12162
-18573
-4287
-14804
-11542
3216
-32608
15835
15710
-7176
-25080
-7669
-31856
12260
20928
9608
-30168
14911
-15157
-19126
-15206
-81
2234
8651
5995
25565
-20495
4166
-10893
22958
-4143
29568
-2012
29572
14111
12541
6321
8690
3247
13665
23485
22284
-24021
14938
23663
24099
22201
28515
1760
6651
12189
18140
-7360
-7055
31998
2821
15330
20887
19708
-1913
-2376
-7026
32004
-7895
28389
-12
13232
8840
31551
-13931
15065
-4227
14617
-3700
-171
-5699
32267
-10047
9629
11790
15722
-13642
4513
11963
7065
-29312
14643
-9497
-9808
-16212
898
-13474
29868
-10951
-20437
-19752
-348
-7975
4869
-27130
18373
-29025
10682
14337
-8112
-25149
1907
-924
22188
-19737
-18599
-3315
-12744
-19127
-26604
-25898
20073
7232
-9101
9907
-19062
-776
-12506
-28229
-14824
-17287
15145
20878
-25254
-9720
-14554
-32756
-848
10855
-16877
12286
10537
10999
-30388
-26315
5628
14426
-4022
28171
16734
4817
-21740
-13727
-16748
-5147
7268
30013
13148
9121
-6275
-12137
-6109
22261
-4079
1571
6056
32602
-3282
17007
18476
12902
12662
32316
-5414
29288
-5280
10613
-10296
4358
-1812
16460
28332
19850
23221
669
17402
-14333
29465
17352
22159
-1552
-7784
12430
9228
1301
32741
2550
-1103
-11248
12156
-1921
5540
-26813
18833
-3390
2409
9298
4471
7830
31817
-23235
9026
8983
-8091
-3204
1131
2257
32689
-5063
-4478
-10135
2012
-14842
-4403
-23887
22428
6082
-11079
216
-143
-6373
23457
-29202
14861
6807
6432
-14709
-8076
-1733
-8323
-12641
13661
6908
-10840
-13299
-29946
-12297
-8264
-18445
-27082
-30373
-8341
10953
-4830
-11826
20
-15809
6054
5966
-19767
2199
4726
-15719
-28749
-15563
-28686
-3576
4358
-1775
-25697
8360
-31682
-15709
1094
11244
16552
26041
1550
-12350
-30350
-354
-12098
32566
-3622
20090
10704
-1526
-11422
-166
836
4801
-11709
12943
18077
19424
-26388
-3634
-9194
25146
21007
1113
16465
27080
-14468
28675
-15854
295
-5822
-5252
26423
19819
-1391
8579
-5347
1591
5988
-8449
8182
30269
12546
16105
28535
1378
16355
6697
-10350
9859
2301
2344
21927
19497
26335
-14332
-740
-4876
10061
3315
19465
-31989
7094
-4681
9000
-1300
-9006
7637
31864
11184
201
-9244
618
-22118
12889
-14018
27855
-30528
11903
-4721
-15839
-4489
-10478
-10479
31045
-1700
4979
4910
-14046
-7870
-11239
-29021
15212
-8946
1444
6337
-2364
-4469
-12522
-28346
16436
-2525
9328
6045
-24928
-1531
-19608
-6466
-17130
5010
-17037
19145
-11921
-31315
9645
-7160
-31974
-11913
-30294
6436
15428
-15297
-15815
-6996
2647
2721
-15052
30857
-11021
9954
-16155
-1680
-24506
-17513
5419
30575
-11781
17290
-5930
5047
-32375
5565
5848
10136
5884
11664
-341
16480
376
6722
9261
31061
-10433
29666
-273
562
16049
26767
-7315
14607
29330
21263
1651
16483
28319
11432
7699
16923
3429
9427
181
-7803
11025
20272
25743
4620
5886
7606
19041
15585
4997
-8539
-943
-21208
24977
-3633
-1046
30429
12153
-31776
-4010
-7470
10047
-12840
9225
-3806
32545
-7857
11436
-14492
14221
-22710
5211
-1532
32731
5416
5934
-7883
-14979
-16891
14215
-25146
21007
-2201
7294
-1595
-11745
-4626
5855
-4822
17868
750
-1510
-13364
-6699
-27884
-17208
-32044
6843
-6704
637
3814
-7005
527
-11851
-451
-3413
-8703
1998
7677
-11970
-29048
-15161
-32732
-1493
5873
-3732
1771
1431
-2048
-30199
-18827
-3081
19417
-5539
29407
-14453
4429
-7937
17819
-27497
10963
-17435
24643
976
-6068
-16740
8667
-26788
32625
3042
25693
9171
-1322
3555
-4374
-26133
23310
23028
4430
1171
15511
9026
8431
-15829
14044
3901
24086
19019
23576
22756
23019
15405
8224
1313
-7825
31818
7256
-20526
3931
15182
31448
9202
-16015
6471
28018
14216
7715
22043
-1743
32720
-4426
-3181
3665
-2521
8403
31670
4493
27362
3541
-1589
-17879
4713
6792
32055
-11963
12097
-9708
-13633
318
-3978
-10429
31062
-3678
15085
-5352
-3673
-9982
-11546
-2516
6506
-21532
24698
2019
-7681
-31245
886
-9664
19850
-6004
12911
-2310
-14735
-32187
-6136
-20059
-4411
-31345
9548
-9743
-26454
-10544
-23637
-29090
11015
590
-5504
-611
1082
-15043
-29109
-28392
6218
3209
-3827
2136
116
-4456
-32462
-31392
-9390
-7740
-22249
27094
15969
3201
-27593
-3511
-7585
-8145
-6001
31329
9598
-9635
-21674
1826
618
29576
14103
24526
-2788
-11252
545
5310
-5794
29759
13713
15600
-4524
10328
-1201
18130
-27294
2156
9821
2762
8660
24357
-2121
3205
4356
-6830
8994
-1955
14355
24869
-21334
2093
-785
5800
32249
-4490
5955
23681
7892
12055
2251
5061
23973
-8092
-29
18755
26868
20814
25306
-2227
12006
-2156
4460
-8067
13475
14014
29618
-13470
7679
-11727
2994
-13098
-12084
11322
30748
-7455
9575
-3255
-25156
-8978
18529
-4331
19553
-21791
-24470
-14876
-11570
8550
4094
-30411
12197
-13119
9729
-2828
-11367
-15793
6396
-19978
-15185
-32335
5300
10791
-29447
-14656
16248
-23077
23262
1470
-23915
9677
-18219
-6800
-16955
-19318
-20226
-1693
11489
15212
-29021
-25225
-4766
-11273
16353
3665
-238
9147
-14193
1600
-32727
-22220
-145
12189
10916
32344
-5245
-1085
-16721
-4107
-22360
13745
-18822
14126
29565
-1235
-30493
-3142
-18059
5351
21209
-3233
1026
13874
-29684
14693
-18718
22341
13204
-11571
-9176
31129
-10228
32263
5721
10408
17354
12040
2476
-7905
-1139
15711
4109
-4601
11711
20497
25564
992
12501
19618
21190
29518
14223
670
15098
-3238
31692
19766
-9003
-4450
26370
-23201
-3769
6927
32026
-7801
25518
-3506
-620
-9848
2479
22560
23763
-11658
30622
-13712
10183
-6102
-16373
17752
1145
-8363
24696
-24924
7272
-12282
3900
-31354
9516
4968
3179
-22622
7312
-15913
-11550
-32746
1155
-28660
-15881
6094
3499
-13208
-6375
-8185
20224
-30497
11983
-4552
3404
1538
-16753
-13743
-19249
-18625
-1223
-14623
-16627
3648
-20924
-7309
-31941
-22811
-15818
-388
-15473
-2447
17201
-13762
-29736
-14117
-22058
11536
19827
25174
-20974
-3924
11466
-5514
-32299
12418
-828
29293
-2872
4647
12906
5863
-32238
-1119
7835
28945
2723
13334
-8011
-8209
6897
14305
-2087
24169
22124
17017
-11351
12222
8719
-2165
-1112
27696
17509
6606
-2361
22348
23962
19362
18194
17073
1746
5198
6295
5631
32279
7944
31215
7607
-6268
26017
-1048
25045
21128
-4651
11933
-1594
-6390
-2900
-1099
23272
23067
-14421
24525
-6852
-5906
-3299
22579
-18412
14616
-23236
23102
-7315
-7933
16413
16372
-11407
30717
-5418
-1792
-3475
-5488
1688
2970
-3562
32572
53
19739
-3516
-22127
-21728
-4621
-31610
8629
-10461
-3074
-7663
-2460
-1425
-5075
-26790
16853
-15212
-15391
-633
-32760
-2515
-15629
-10266
138
-15487
-20404
3851
-13174
-23179
-23159
-10946
-27885
-32213
-5998
7641
-21727
2581
-21877
-21400
-24813
11929
1039
-4894
-11407
5811
-19240
-13628
-29798
8553
-808
4571
7793
1602
-9082
-6854
-17022
16925
11138
-10283
-4315
17240
-27864
16621
-11628
32634
-2948
5823
5086
22200
-17495
32324
-5368
21453
2201
13334
22227
6482
-8747
8083
4497
1193
3555
28094
16863
12799
15099
17692
22377
21556
24678
10746
-9217
7396
13738
7567
17601
13162
2383
-735
13557
19841
26076
239
29093
1399
32737
8125
-3648
3177
23044
-1959
4911
-28005
17010
-4147
1626
2595
8883
-12116
9567
-11923
30520
-26941
-14118
-6966
15512
-16177
28494
1874
5321
2909
-3060
-5390
-2082
-22407
23908
3356
8731
-6069
-12248
-23922
4754
-23389
22488
-11746
-22078
-456
-1110
-29078
-15102
-11018
-1578
-9733
-2553
3239
-32606
-12033
-7056
-25218
-9473
32233
-5889
-14810
-26170
-3516
-10106
-21028
1082
5158
2755
11677
-6375
-10086
-31175
-10321
-31098
1938
7742
25089
-3654
-10589
-9365
2084
-12977
32717
-1799
16503
-2033
2036
-13593
16668
-13576
16603
28249
1551
-21473
3170
-14322
-582
2297
10050
33
9671
12711
27860
-17246
16940
-5754
-4022
15122
-755
-8431
31014
-10571
12549
3983
23315
23022
-6055
6714
8651
11125
27372
18011
15892
13448
4782
-12137
3789
23657
16473
22692
775
32757
-18393
1753
24
5186
4207
32495
2258
343
-4644
-3242
6505
3855
8856
19329
4513
15269
-24948
-21242
-4344
2034
-6940
32023
-6995
2204
-16352
-15064
-2775
-5293
-21409
24805
-11868
-8113
-25353
-10246
-11811
-10957
-807
5129
-5354
-12275
-14321
-29471
-13599
2056
-17824
27494
17100
-12163
-10870
-15166
-15285
-25553
-32423
1234
30114
2655
-21145
-9207
-18732
-26884
-32766
119
-5834
6849
23920
-16981
5838
-24312
-27767
1143
32766
141
9129
2731
-1441
-22414
19739
-14582
7435
-31912
21702
-15500
18904
-12160
26006
-19933
10076
-4467
12246
-16175
19684
-16224
10172
-31148
-4396
3171
20051
134
31134
10178
26496
19276
10465
1893
12481
6628
1488
-13651
4232
-6308
9017
28360
4533
10183
30371
12298
12663
5101
-4246
16422
-17464
412
32525
-3968
-793
24553
-13695
26792
3632
1056
29806
13610
2623
32661
4464
16610
-5053
18994
-14693
14935
-13133
30019
11681
17888
-7734
-8096
3970
8612
-6467
15413
-22289
24017
-10702
-6963
-22125
8448
289
8318
-15102
6876
-12174
-7350
-31806
7874
-15561
28835
-7765
2092
3715
-5863
-15561
-17223
-26397
7999
-25653
-20385
-1128
-11649
-14521
-20922
-29803
-13616
-9771
-10792
-1612
7133
-8416
-11937
-18219
-10984
5576
-32289
9196
1742
-19502
-24329
-17807
-23140
-12169
10185
23601
-22729
-763
-31205
-4418
-11162
7448
-8261
29163
-14939
15439
-6396
1300
-4492
31601
-8661
9320
2439
7217
1256
17528
1581
30747
-11325
9947
-4123
23463
-8319
2598
547
24296
21985
9368
6030
10797
-2644
28809
15107
8804
1726
25036
7280
31083
10367
11917
18753
3713
-2510
11081
18634
30484
12015
6126
1857
5159
7392
-17071
20682
22707
23622
6085
32196
18752
16360
-6301
-6999
7978
23252
15126
18207
-16004
-5553
-12506
20010
-15370
28938
14329
16841
3456
16094
-28329
-16465
-24748
13966
-20673
24682
-24690
21542
3471
-27583
-2374
4173
-13031
19102
-28292
2593
-2416
-25416
-32519
4021
-30066
13025
-8275
14862
-19
-13484
-23602
-14678
-9977
1290
3747
-2934
366
-18924
-31291
-9721
592
531
14657
-2220
-4124
-29982
-23633
-22696
-25256
-20875
6865
-1532
7916
-20221
17253
-4009
1292
-8193
6855
3832
4540
-582
-14679
-29294
9170
-19447
1705
-25290
2932
6785
17407
-27760
-479
8213
29559
14138
26877
-5086
7834
-2767
11957
-30507
3842
20711
9830
6672
2252
12366
32738
1376
10257
25167
24634
-194
16399
8379
21389
24822
9073
20316
14872
-16188
12859
3875
23570
19178
7202
31965
-11874
13650
-8269
0
-11665
30620
-16531
24237
5226
25879
1040
-7758
3639
12687
6338
32148
-16789
-16697
-2748
14631
-4558
32448
-26068
13411
-27813
-4922
-2167
-355
-14125
29565
-20597
8088
-7381
-3506
-7126
-15931
-11755
17608
-8633
-10061
-30379
-12277
-11046
-11883
-31749
-8102
-12601
7925
-14000
-10364
8600
-6979
-13728
12307
-1674
6652
-3023
-19062
-24076
-22225
-12660
-4523
-13039
6518
6230
-9175
-22686
-23643
-31687
-8341
15158
5965
19382
-19875
1895
-5199
7843
-8554
6488
-3857
-3498
-28816
5501
-32301
-3021
9666
32371
-5077
18666
-11475
8260
-1366
4827
-27101
643
-3155
23332
21481
11299
-30757
1960
-13669
23267
23072
6224
-8071
5587
12424
6998
4256
31330
-9595
-4160
5434
29446
4393
24862
7342
20630
-3547
-18194
27251
16476
-5613
26832
18806
12711
8265
7330
-1965
-2254
14086
9342
31407
9419
21657
-1053
6540
-7473
-1513
-1277
32742
14770
11708
-2885
-148
-2513
353
18352
19137
229
-6610
-26153
-3900
-5380
32322
-19771
16700
-7858
3161
-20529
21926
-27900
17182
-30871
10981
-4118
8971
546
-2858
-1796
11730
-32602
-3277
-19221
2857
-3525
11387
-4108
-7423
-10603
25665
2967
-15167
-4356
-24782
-26176
-19709
-14176
-9793
-6814
12944
2988
-19105
-29438
-14389
-32172
-6215
-4565
7494
15078
-13494
6786
-13794
-25088
9764
25089
1547
20067
-15456
-1837
-32715
-9759
-31279
15796
-2273
1736
-6240
13642
-22507
6864
-15912
30400
-12226
-507
7048
4256
-2002
1213
-5095
27155
18337
-3438
-6223
20944
-19728
592
339
20935
25206
10221
5172
-1738
1416
19309
7844
22894
23441
5792
-5908
9364
9579
28383
16372
-1701
18578
6362
28530
2901
5109
9339
31407
1038
21863
14113
1495
-3586
3071
18530
27024
3889
8038
-3760
8671
-9903
16819
-8920
31529
-11422
11601
-1913
-280
7069
-1471
219
18594
-33
2464
-29968
-13249
3497
-3858
3036
3977
-31697
-8302
-22550
-14618
-5803
2434
-19897
26033
-2446
-5532
-12658
-11409
-941
-14205
3588
-4728
-17752
-12841
-728
-211
-32766
173
-19763
10825
-13104
2345
5019
-3180
-16518
-28298
-28248
-16604
-5309
-3193
13003
-2245
5270
5580
-6990
3831
-564
-3256
19501
-5601
-16179
-28494
-28069
-16905
27447
363
3840
13193
-2088
-26031
-6214
-13956
-2428
-14706
23237
-6753
32171
-6219
31921
-7395
11073
-6102
10869
5487
3616
-30896
4929
-24475
32461
4466
-7038
8460
23249
10255
17687
11898
32759
-700
-1004
16621
29777
-4334
-1091
-4971
20515
13230
-13274
-214
30115
12913
-4667
377
-4244
15634
1110
18086
25952
20003
21401
24812
489
15540
-3926
5531
-1327
22636
-4793
19586
-18228
15075
-14251
29505
-15202
-6055
-1159
32746
-7700
9550
1309
-3926
-8067
-4981
-29158
14949
-16349
12429
-21439
190
-2599
-1026
-29182
14902
247
29426
4112
-22268
-8316
8849
-6545
8111
-31062
-2499
8436
-13658
-32159
-6280
-26857
-2560
-6182
-27135
-23383
-14542
-17967
-27401
-9376
-1803
-14239
-2920
24616
2645
-31747
-8111
-3552
-6149
13214
-4834
14007
-29622
-756
209
-22482
-23837
25179
-5767
15655
-3229
2188
-8442
5217
-9075
5159
-1188
28972
-15306
6375
6638
-2524
-32669
-2690
5919
14899
6665
16317
-4974
13407
7500
32763
-462
7211
-1528
5945
1198
2588
-11013
19206
1345
9162
11139
27750
17423
-393
10293
28057
16924
10857
6563
19127
18590
8274
-2465
20138
25848
-21720
-1613
12521
11314
17904
16074
16656
21590
-32557
3697
22050
23828
1858
16223
12153
30429
-2193
-2529
-12701
24128
8380
15923
9609
25863
-31117
-10266
-17639
7536
-3616
25908
-22711
19983
-11235
-30780
-7459
16764
-19956
25988
-18923
6272
2787
-8134
-10723
-3458
-2698
13484
-8647
-21329
-25886
-773
-27993
-17030
-27788
11154
-9852
-3332
-16944
-14689
5124
-32363
-6450
1709
-1820
-3990
4925
-9706
-29112
-15036
-24580
-21666
4523
-6738
4310
2118
-9529
-5885
-21127
-24453
-7425
8853
21683
-24566
1857
-29395
-14120
-15707
30420
-12176
-5144
-6699
22564
-13290
21320
-21122
12613
10012
20315
12873
-32756
838
16205
-28479
9833
-2942
7010
-3792
21753
7633
21565
-8784
10224
-4739
8066
5725
32663
-2596
14496
15967
25498
20579
4521
-13248
5669
4162
5030
5477
21839
12010
-28679
13010
32604
-3258
21990
24291
-5989
7749
-3352
9514
18458
9826
4020
32519
4150
18038
408
4510
-4601
3818
226
30758
20176
18856
-5927
3942
-20564
25510
-499
14308
-29682
13878
-4532
5535
-18125
-10292
-16644
28225
-8971
7049
-1220
-9399
-5618
-1175
-7671
14852
-19844
14045
-14525
-12546
-24284
-21998
-8432
21172
-10766
-30947
-4943
-4005
-19862
-16805
-32765
-355
-21399
-5074
-2946
-31761
-697
-29777
-30136
-2583
10201
-28994
19216
-23411
-19931
-26008
-28690
-15828
-4221
7316
21713
-21101
8637
-19012
-27825
-15507
6171
32180
27172
-9878
-4427
-24007
772
-32757
9235
-12659
3035
8957
10211
-6814
28508
3783
26254
-17282
6845
13611
3134
-32616
144
-9364
24177
-367
1797
610
32494
4214
31792
-7931
13138
22807
19104
20556
-11675
12505
-6650
26731
486
32763
17822
13206
20172
-12620
10214
5074
-5619
32281
-2464
18001
-1818
5904
7442
31910
27084
18312
-9615
-7812
9376
19023
9211
31445
-11531
9572
5735
5395
-12813
3244
-12083
30457
-499
18888
-6206
-6708
-1428
1094
-7146
25382
-15061
29100
-4302
-16238
-30071
10442
-19176
26569
-10724
13982
-9892
-13667
-21679
-10268
-24337
21939
-1362
15218
-10257
-14135
-23610
-22160
-26162
19727
15209
-24124
14711
-15623
-31296
4163
-30245
-12604
-5936
3126
7325
-3869
-9711
-9569
-31525
-8935
-13925
-17784
20156
9168
-376
-26850
-32756
-837
10702
-12332
16698
2138
18802
-24985
14539
-29364
19027
-14636
22779
-13581
7726
3347
-10587
3922
15184
14104
31394
9382
-2131
-6641
8326
-20246
26322
-19514
-615
17216
23235
10116
-7927
1370
10282
31111
27392
6285
18936
6517
14613
-11707
14023
8595
-4306
-7703
24217
22072
15830
9090
11852
30548
-4820
3493
14178
16938
6545
26871
20566
25508
2796
4127
-9983
16368
27030
18521
7489
8661
-10669
-2400
-19345
16190
9557
31342
2008
6304
-8947
-7708
-9069
3177
-14328
29468
-3474
5194
-13966
-14418
5087
4712
13162
11133
-10641
2905
-10759
-9202
-32615
3147
-7844
20849
-2260
-2660
-18396
-14782
-30815
-11138
-19392
26412
17458
-7203
-13738
-21713
-16566
-20649
-23034
7695
16862
-25359
11373
-12516
-31626
-8568
21071
-12512
-25711
-20312
16125
-15526
-26176
-18563
-12597
-9376
1685
-20007
-3062
-237
10907
-30898
1180
-32745
8645
-14104
30187
9913
-8665
-11002
9730
-23742
7567
14711
26968
-18610
11165
-2834
-1380
-17082
5487
556
14135
29561
-1366
-5317
18599
-4938
30867
10995
2789
14865
4400
1385
20056
-15821
16332
28406
2798
18313
-4098
19276
16630
16617
25506
20568
-3153
-17028
16903
13702
28219
16652
6190
20245
-3968
1136
144
22192
12849
28257
10796
30937
-321
-9745
-8942
16444
9001
31506
7075
36
-2583
-3565
-5277
16398
-14815
29226
1049
17455
-30009
-6698
-7364
9066
-13696
29767
4498
15971
-3169
-6763
-29191
9736
-25860
20122
-6268
-9746
-12596
-1378
-8454
-10537
-26281
-19569
-21460
9207
-9911
-5892
-22724
-1582
-31955
7247
3657
14285
15762
-11595
-20332
-5374
-8978
-1487
-15834
2439
13877
7675
-25540
-20527
-20912
17147
5987
-6428
27180
-18300
8880
-29603
-15753
-2277
-687
-20050
8523
11853
11939
-30514
18312
-17202
26881
-18736
1114
-235
4154
-11898
-13038
-17903
1340
3941
9876
-822
32553
-3732
8552
-21987
31587
-8712
-6709
24714
19099
6843
9489
-12379
24836
21373
12699
16916
10347
25629
24667
-10635
14046
719
-1757
-3975
10913
30896
6408
2556
81
32766
-132
-2809
3620
11582
8994
31508
3687
1160
-10560
6307
5565
-9962
26484
19293
-8950
6707
-9660
-4870
-11184
19524
-7368
26524
-578
32761
-4749
-14497
-15129
19722
8501
30198
-21941
-1472
-1223
-3516
-32484
4294
-849
32755
-2520
5025
1314
-14587
-21019
-9193
-27325
17832
1527
-5527
10777
-30943
-2982
14344
-30681
11502
2933
-3368
9175
-17054
-21
-5071
-15259
-6096
-7450
-3318
-3707
-7459
-17378
-27778
-11982
-30497
-6807
5938
5962
-12325
-11660
-11357
7502
-13077
10528
-4158
8484
-6873
-17881
-27457
-5309
-32333
26342
-439
24512
-11437
12908
799
4951
-32390
13063
-5685
-4656
-1735
20042
8433
32050
-6814
6625
-10162
8045
1668
-1647
956
10409
-136
12553
18088
23333
23004
-7527
8730
13973
-13360
3044
-16460
-3095
16672
26369
19451
10322
31098
15268
28461
13611
-534
13593
11319
27361
18028
10763
23841
-2825
-11208
-6273
22215
6542
4038
-12799
16076
-32761
-579
12222
13326
-931
32753
-13734
11064
-13797
4412
-8518
4156
-19606
26253
-14487
6262
-3851
-21319
15341
11633
3209
6664
240
-1167
-20569
2999
-32701
2064
-32731
1522
-14630
9513
-6081
-4335
-6436
-6130
-14205
29527
7703
-14549
3545
-10420
-24454
-15875
-15361
5338
-11125
-2946
4277
4917
-19111
-26616
-15861
-10431
-1691
-32723
-3319
6615
6708
-18008
-12308
-30367
4867
-7375
3219
-765
1030
-3349
-898
4801
14772
-12512
13876
-6454
9480
-31365
20211
-16651
24560
-21690
17898
17710
-3752
-10074
8468
-2920
32226
-5927
14937
3309
14073
9256
13825
-27053
27710
17487
3159
4997
17245
23076
28201
10458
31439
-1014
-16537
28287
-3320
-6260
31467
9135
-2229
8960
4604
8017
-6837
6059
16477
28322
8616
10828
959
-2588
13614
13220
11235
9550
6018
24934
-11743
7665
-10301
31105
7881
31804
-6216
3524
5436
-17470
9235
17951
5341
15936
-18519
27031
-9509
-14131
-21601
-216
4764
32418
-19540
-4497
1131
-20671
-92
-16200
-33
14014
-18014
13255
4936
-14853
-32729
-1560
-13264
413
-14429
-2901
-11518
10520
-24978
-21207
-9928
4212
-809
-195
8351
-5846
-31552
-8838
-23487
-22847
-11706
8934
18385
-13969
-3722
2723
8183
-31728
-7618
-17582
9875
-9952
-13493
-9803
-19759
-13982
19641
-16746
18763
26862
-9302
-17014
-5797
-32250
6415
-8754
-7220
3031
21360
-4911
7020
-22097
17197
-19753
24169
22124
10628
16001
28702
-15805
22857
17139
-4379
593
-897
-936
-7348
1789
4356
32476
12517
7036
9162
-3616
29087
15085
6614
2392
3880
4577
-1532
1548
19472
26353
23582
11787
-13537
-839
11191
6892
8271
31705
5121
24137
5298
10827
-2297
27840
15161
29048
1439
-10351
-7119
5636
-5125
10571
-4559
24871
-23846
22472
-6585
-12225
-2996
-8061
-1253
32742
-17265
-7775
4034
-5121
-14036
2615
-1933
24155
-18291
17709
5559
-20524
-32284
-5600
-8136
9524
-28907
-5278
-7114
-13162
-24615
-21627
-11080
30836
-14258
-17810
18056
-9119
-11526
-25829
-14523
16735
-9836
-1953
14386
-13124
-10656
-30985
-20634
-4212
16143
9077
16712
-20
-28464
-16231
73
-32766
-2597
-14005
2450
6398
-8994
-16777
-15882
-26647
22604
18696
30882
10951
-11668
-108
15709
-2534
32597
3324
13913
-14812
13938
-12637
20220
-19297
12946
-22009
-11107
30826
12788
-17180
29660
13925
2146
3590
29692
7010
4119
320
13494
13366
26328
19505
-1608
24750
163
1964
26453
15615
22077
-2609
-312
18424
9042
31494
12954
25529
24457
21805
-15559
-19290
22256
23975
9575
27734
17062
8669
-1215
6236
-13828
29705
-16892
28076
-13853
10105
-5287
13457
-3218
-4961
-15131
29063
-11464
5601
-5277
5039
-7626
-10019
-7958
31785
6669
-6677
-9965
-10469
-1469
-9961
-31153
10155
-10206
-18174
-17178
-8397
-2697
-6722
445
705
-22523
-11138
-3506
-2196
-25531
-20538
-27031
-18519
-19221
1576
18448
-15725
-9331
-803
-29241
-14786
-2573
1472
28808
2962
-27571
-14036
-20046
-25919
9765
9212
15051
-6652
-10744
-17112
-6937
-2845
30101
-12945
6025
-12984
20553
-373
-8000
-31775
5813
19282
20675
-18154
29906
-3996
2524
-8283
23424
22912
24777
-15394
12233
18005
20762
12444
32580
-3488
1544
18971
-4179
-7774
1603
6872
32022
6943
-3911
25007
11599
6545
32194
6099
5104
3757
-14347
16846
-2429
-2284
2494
21621
8220
13751
-17120
15169
30203
12705
99
32766
-673
14244
4540
687
9725
14338
13252
29967
-230
18355
-12145
-2395
-21851
16734
-6040
32205
-16966
13849
-599
-19761
-2036
13809
-19674
26202
2143
16979
3434
-14980
-18207
16476
-14391
29437
10215
3032
-21047
-8671
-26879
-17720
-2640
5698
-25913
-20054
-10678
-29348
-16136
-16610
-14582
16954
10096
5599
5403
-32318
-15201
-16523
-31238
-9891
10659
-16412
-2409
-14122
57
-23770
-30106
-12934
13180
-11474
19250
26085
-21161
-13379
11464
-13438
29441
-12850
8271
-369
-21100
-25068
-18732
-21424
8503
10390
31235
9899
10405
-3794
10901
-16229
24636
21603
16316
-7606
-4327
14559
4190
-1715
32589
3404
409
20
14935
8928
25522
-20549
-5123
-12043
14631
25545
22276
19698
9820
28215
21955
24323
3095
1782
14328
-2333
17652
27605
-721
-1226
7500
15827
-7943
-4422
9884
22057
7858
31810
5794
-14444
825
26224
4119
26759
-26054
19870
3049
18701
-18790
16442
-9855
31249
-12822
8794
-17111
11
586
-6982
-15898
19308
-12047
30471
1119
-13842
-18382
5630
-429
32764
-16057
2992
-4516
-23053
-10305
-22337
-29313
-14642
-10058
18881
-15815
-7419
-31267
1382
-29431
-14403
-2158
-29068
-11182
13277
-13172
-6109
-22925
-16462
-15391
16371
12351
-30349
-21153
-21366
-11609
-28785
-19503
-18760
29599
14055
-23882
-5125
10693
-30972
19625
-18046
7589
-275
-19967
-13456
-20737
-8992
32487
-4272
-7820
13453
11351
-16588
482
-22858
-9246
774
12669
20689
12850
-30141
8698
-5294
23503
22831
9577
-6477
15465
5688
26057
19073
27414
17948
24942
354
5137
18994
18995
26699
11806
5926
2446
1465
30463
1537
26066
19855
-4497
-5694
10655
3807
10636
19127
7640
31863
18176
13888
-25856
-7896
23867
16786
4820
32410
-5185
-101
1492
1817
-2014
4294
9874
31243
-2995
16187
-17196
-18798
-15761
2589
10179
31145
-2982
-3471
-7373
-18498
-10223
-8353
-11703
1165
-32542
-3832
-21576
-7838
-10631
-18189
-30599
11718
-12235
-3256
2694
-507
-5160
-12668
-21729
-10761
-28483
1150
-804
-14741
-19260
-26508
-21644
-24600
-14155
7609
12473
-27331
-2798
-4045
-9808
-31264
15655
-2869
-4414
-4311
-13805
-2415
-17521
-25824
22651
23676
14031
-10925
-13758
-27707
-2099
-21057
11660
5289
27696
17509
-13018
-13927
11286
-13808
1788
-1527
28979
15293
8795
-21905
17877
-27460
12885
-812
270
7842
14570
9700
18022
-1004
15819
28695
8539
-8956
5458
7398
16974
290
21328
7797
5253
-8199
14504
29381
12367
17936
31175
10087
-9104
18306
-4010
17554
-12250
30390
-1867
28718
-2959
1081
22037
1483
15942
28626
15353
-3059
-18550
-2058
-2966
10110
3708
30877
-26169
19718
-11355
-2117
-16568
-6310
-20534
25534
-22083
9074
-17607
-11820
2001
-8689
-11164
30806
-5166
19280
-10301
-26570
-16217
-14560
3571
26296
-6919
-9841
-9434
-19634
-26367
-19452
-26377
9744
-28597
-5848
13424
-29890
-19983
-22024
-22759
-23572
-1322
5349
15
-2783
-13836
360
-15335
-28956
-7263
-14336
-4290
16267
-20086
-23250
-20049
-12038
6662
4279
7325
4160
-5979
-32216
-583
-17474
12448
10105
3882
-32536
25400
-13258
5786
-32252
12312
2971
6764
-919
10793
8010
26340
-19489
10605
-11467
-6326
4518
3268
3262
18912
-11441
32244
5826
4521
9330
11697
17466
25770
9601
32666
2565
-7310
4864
14032
10559
519
20288
19568
6128
18325
19593
14344
29460
11070
25121
11489
30686
-14903
10130
-5083
-25
-6973
26918
9443
31376
-10970
-14318
9199
1276
5247
21849
-19251
26515
-10341
-1417
-20100
15469
-6366
32142
493
31467
-10238
-14223
-23453
-1862
-721
14016
-29446
-3650
-9867
-529
-32738
-1355
-8813
24481
-9955
12211
-8588
-17458
-15700
-28760
-19743
-12158
-15652
-28786
-11588
-9646
-16173
-856
-9733
-10576
15241
1651
-15788
-28712
-13378
-8207
2292
7779
-3182
-14840
15499
-12025
-21533
-24697
-1429
-7777
15852
-28676
9720
-1401
-6926
-14673
-7317
-31939
12278
-13707
287
-15953
29697
-1950
18427
-9444
20592
-25487
-2074
6506
5024
-8905
8463
-17157
21487
20164
31117
10264
-2061
8510
20825
-5553
27747
-17428
-15844
16982
22149
-9740
20390
-3789
-11163
5253
25769
15655
31074
10394
10867
-13774
8949
31521
-17672
6451
24921
17228
18607
21554
13600
29811
-2219
-3881
-12391
5701
6952
32020
-1076
27603
-5883
-9011
3250
-689
14313
29475
-13182
12790
-9573
-25479
10615
2865
24686
15015
10880
-8681
-32610
3195
-30954
8611
-24874
21329
-12109
13771
-5470
-7541
2151
-12037
-26052
19873
10175
-5242
-4590
285
-8032
3892
-29892
4305
-4993
-32384
-14588
-3342
-6897
-5808
-20976
-7045
7488
3380
12631
-23753
-31118
10262
-27703
-17499
9317
8090
-16035
-1989
-6819
-18722
10841
-30921
-4322
-10167
8564
-5602
-15645
10004
1141
-14248
14122
-29567
3956
102
10207
-8700
15383
-10384
22943
-23393
16502
21279
-12722
-19514
10733
-30959
24173
3924
20922
-9357
19964
19405
19595
-6414
32765
305
3656
-10140
29302
6843
8848
8122
22863
23472
1510
-7722
2149
987
10272
2098
98
32766
12792
19117
310
8045
18182
14058
4989
5273
-7667
-8780
30433
12143
4028
24337
-926
32753
-4092
-3692
13686
21796
16738
28168
-10275
20383
-4848
-10735
-9066
10486
-4018
32519
-5926
-4665
-19205
3483
-900
-2744
-2379
32680
-3313
5452
-5622
-8085
-15167
-6037
12961
20548
2589
3775
-14471
-15061
-32259
-5743
5831
12655
2649
-7699
-18530
-7347
-29518
-14224
-32764
-438
17372
-15904
-4838
1816
-23571
3487
-6803
23965
-5513
-22679
19931
-26008
-3721
-26372
-14429
-17303
17892
-25883
9277
-12044
-18241
-27220
2203
-16641
21843
-20950
-14990
3881
-7205
-31965
6544
-15046
4475
-11120
32273
5667
-643
-27204
18524
-27028
1395
1111
11175
925
-487
1279
16588
-12812
22913
23423
12202
-2635
-3500
7265
31948
-7277
8467
-3093
19304
9770
4636
15976
17511
3024
18037
27355
390
17431
-4232
6799
32435
4645
-10937
23444
3740
16235
12338
19358
19263
26506
652
7901
1896
-6533
-487
-1954
11322
30748
-5323
18114
11311
-6823
-5673
22324
11032
23308
-20567
17517
-19373
-8463
-14400
29433
-22281
24025
3390
11059
-19169
-8854
6043
-1160
-18231
27226
-10837
-3100
-59
7976
-14583
-9391
-14073
19133
-10396
-7712
1765
-19503
-31837
7747
-6473
10658
-11546
-2982
-10791
-7800
-16552
-28278
-32678
2407
-8794
8176
-2466
-15133
1571
-30269
-8094
-31751
-20790
14620
4203
-5410
-21452
-13719
8769
-7417
5291
-14224
-766
-4711
-14648
-29310
1007
-32751
11758
12861
-6785
-10387
-2040
-14750
-5463
-27522
31918
7409
27527
9758
5391
-1023
-12264
-5787
19310
-16441
24397
21873
25954
8606
19586
-15672
27961
11389
7200
-4400
29280
14707
23744
22580
28649
-1473
-13661
3469
25359
-18265
32766
248
-10455
26723
-1143
10050
-8664
-171
26381
19433
-11864
14641
-2283
5237
-485
-259
-1611
32727
24436
13689
-11160
-6466
13057
15549
9965
31214
-8955
-8262
-23839
11080
-515
29027
-12123
30441
-14239
7517
-22122
3599
-7365
-12114
-12122
25059
-17036
-16067
2849
-24176
3032
32626
-22715
751
-30957
10739
7481
-11538
-5911
1995
-10552
8407
-30066
-8297
7703
-12374
-29541
-14176
-11532
-4749
-9413
-740
9501
-31359
-13272
-2407
-26748
16793
-8024
-14983
28527
-16120
-4580
-31488
-30197
-12718
13532
12528
2635
-4516
438
-13666
-6252
-32164
12670
4828
11731
-12776
3627
4934
15932
10272
15960
-14920
4439
1991
-667
-32760
16940
1565
17483
-2788
32096
-6594
3201
13794
14612
-3028
32698
-2112
-6369
13013
-837
520
18334
-12295
12945
22685
625
6444
32486
4281
19555
26291
31499
2917
14740
3349
12412
24332
19021
26680
8456
1551
8234
4466
5418
11209
22296
24011
-3364
-4792
6865
11618
-9649
13831
10767
10376
-4710
14629
5628
-10421
-3752
32551
6140
32186
-2711
5925
-9593
-21340
1353
2271
5861
5146
-11371
15867
-10233
-20419
-22363
23948
-14879
29193
-4121
-10987
-18586
4515
-18560
-19776
-28792
15642
-13819
8461
14015
-13225
-26617
541
-26982
18590
-1860
-9825
18008
-15008
-24510
-7593
-12317
4439
16732
-17277
-5570
-32289
-6490
-18742
-17555
-6987
-11303
-25629
9657
23027
-10685
-30975
-2722
-4435
29448
-14369
13784
-15785
3585
-10190
-3708
-20784
2220
-23641
17453
27732
-473
-18786
14123
-14280
32614
3152
4892
-12160
11105
4314
-12518
-24002
29446
14373
8588
17786
28196
2778
22544
8679
31164
-10121
-3199
11867
7461
863
-3262
-1811
30497
11983
1656
31648
-1468
21122
10924
22822
-3536
32575
11604
12709
448
1078
13156
7969
-2525
4620
-28345
16085
25555
20508
15943
28626
5065
25208
-17006
-7436
-6310
15046
-2874
32640
6778
19308
-12393
-1070
-15375
-2140
4502
32456
-16223
14283
-18826
-23600
-14730
-4434
-6081
27203
8392
13934
-7579
-31878
-14900
8595
-18050
11358
-14942
-699
-28790
-15646
-22024
-23676
-21949
-447
-805
249
-8129
239
-30950
-10757
-29746
-13740
-10873
-11536
-4565
6891
-8373
-22133
-15329
-13485
14986
-29139
-16979
1172
-4466
-28964
-5285
-8631
16063
-351
-4087
10972
-23532
-22800
5370
-30448
19437
-26378
-7730
-11252
25450
-8044
17450
-25823
12377
-9138
22952
23385
-2914
-31760
10440
-12663
28803
-15621
-8726
5027
30592
-10010
-6431
-14615
26195
19684
7955
8899
13227
19809
25817
20177
26893
5998
12962
713
7610
11825
30765
11275
24518
7384
-14346
7098
5169
10838
5931
14735
25807
20190
-4557
-7218
5433
21230
22645
23682
1640
-7758
-7234
-6063
926
1646
2407
32678
-252
7429
5040
-16008
5924
10799
-4094
32510
4016
5321
-8507
11697
-24637
-7972
-16774
28147
-15140
-8510
4572
12217
-9410
-8871
-22653
11351
-32322
-5378
-9189
-4282
-17849
-12336
-23035
15164
-16447
-22014
-17839
-15527
4470
-32460
-11537
-2889
4248
-27133
-23970
10887
-18706
-26902
-3587
-32570
-11985
-2985
-2049
2488
-30658
-9151
-18928
-1252
13252
1006
31200
-9686
-20645
-25444
-13791
-16526
13021
7445
15089
-13830
5458
-32309
10205
-31137
10770
-17532
-3664
21873
-4536
-11127
10889
-10292
28663
15877
9835
-13218
677
15205
12267
7717
18657
6412
32759
-704
15484
10619
1775
20120
29415
14435
12493
2485
5173
5511
6697
1523
18511
27036
-3770
-714
16483
13828
24256
17699
7400
31920
-9430
13332
6182
18608
17659
27601
3520
14504
2865
-1541
-13171
2844
20066
25903
10946
9177
-13104
-11096
-12451
5866
-1283
32741
-2550
6778
-5039
1136
-12794
146
-9839
18542
1244
18212
-13748
-29743
5159
4113
-11382
13678
-22434
23020
-3298
-11430
-31165
-10117
-12229
20699
-9890
7785
-3147
-8709
-22884
-23451
-23385
860
-8080
11814
-3071
-14620
-24156
-22139
-17774
-24398
-22687
-23641
15255
467
-20717
-8563
-30752
-11311
4792
12768
6817
2128
-6864
-16469
-6584
-32098
21144
-11560
-20762
-1685
11888
4577
7892
-31802
13379
-23898
4999
4464
10232
-856
20404
-14353
32253
-5777
12386
3419
3850
-6983
25546
1096
18320
8241
23088
-23250
20709
5148
7319
5245
32251
-5790
-7467
9429
11639
2875
31996
-7062
14540
-11048
-6861
14131
22075
18143
18735
26882
20411
6086
7842
4004
-6364
10260
20372
14020
16939
-623
-7242
3620
5738
32260
-598
32761
5679
-3673
-7932
8166
3520
-12552
12763
30178
-8106
14200
3473
-3644
-23476
21040
2378
32680
-11980
3674
3929
-2474
-24060
5926
-6067
20263
-32214
5991
9268
-27569
-17831
11970
12017
16247
-26066
-19855
6501
-16886
-16761
-4982
-2464
7004
-2158
-8445
-1258
-1961
-31683
-8358
-29691
-13859
16559
-20737
-2165
-23875
1628
7119
-12088
-3960
19584
-26269
-11858
5558
-8304
-19770
1422
-18809
10608
-31002
1562
6966
-9265
-19587
-6311
-14226
29075
-15109
-2799
17097
-3760
-29818
21192
-6941
28054
-16930
9611
-24773
24880
-152
-5587
-11955
31573
8761
-9553
15705
9097
-11578
16535
-16358
12165
4515
17460
-6926
19659
26213
25695
20332
14384
4440
-341
6218
6493
-13693
23555
22777
8026
1270
7095
-6298
11571
5688
19800
26107
8426
31608
3611
-9341
-8431
4549
-7019
32006
19288
4300
-2664
3015
13311
14887
965
4303
-6530
32109
-18786
-5630
-12565
-4073
-4925
32394
1858
6339
-4051
-4768
-8172
-3087
-24430
16681
-26689
19009
8216
9983
-24712
-2155
2197
21677
-10429
-8764
1621
-6094
-32764
412
-11537
-20348
-21291
-24906
-25362
6046
-20687
-9156
-8304
4321
-332
6858
1598
-32727
-11662
-11339
-29395
455
-1582
13097
22948
-13718
-23802
-22519
-20708
-19961
-10490
-31042
13853
13287
2033
-24379
-12920
-30111
-6051
589
8256
11013
-634
-2805
14571
-29348
9157
1939
16389
-10398
2039
-8467
8820
-18719
25701
-13118
2604
-5068
32665
2575
24297
-21984
-1389
-9856
-3076
8434
11469
-101
15283
-1148
32674
-2465
6224
8285
19729
23073
27174
18309
25464
9566
7420
16902
-12096
13258
32715
-1832
4427
1374
-11732
16952
-6129
21468
20374
25661
3360
12095
-2420
-1476
-11884
-1078
19893
26037
-5529
3888
-5454
5816
-20885
-5081
12615
30241
-1027
-9638
-25262
6876
-16105
-2446
3091
32620
-22256
4860
-10828
-12598
-15351
-15623
-10894
29150
-29116
-3051
-16839
-28108
-24337
-10228
-23380
22957
-2759
9567
5180
-32309
-28770
2373
2028
14058
-17598
-6896
4927
-7094
-21468
-24753
-21886
-4050
-20428
-19051
16477
10859
-22083
-24207
-18247
-27215
-683
12693
-3653
-19602
-11220
-26565
10282
-31111
-1617
-19131
4489
-14529
4393
-7856
27149
-2789
32654
2708
2613
-27970
-9168
-5474
26933
-18662
22517
7419
6975
-4653
-15163
7717
26991
-18577
29311
1864
17094
-1324
-3393
30137
31955
3738
28393
16354
21598
-2557
-4202
20841
27576
17697
11536
17198
11171
-4541
3250
1280
32280
3082
21472
24751
-21353
-18504
24432
20198
10322
31098
-1105
12359
-2127
14319
10005
4357
20300
25720
-10234
4536
4642
-6317
-4456
4760
3290
32601
-8380
-5278
-13546
-1577
3680
13329
-2542
31025
-15745
28735
1994
-20197
-22881
12036
-4218
32494
1581
6059
1
-23566
-9198
-2171
-20833
25290
-24676
-16228
-3131
-22007
-7846
-12110
-32095
6599
9198
-25714
-24501
-5840
-15709
-15466
-27139
-13941
-9272
10297
-11095
-2562
-19453
-26367
-11505
-9724
-2524
-32669
2222
6110
-1381
-15993
272
-32765
17685
-10132
7530
-13852
-5322
13078
-4940
-32392
5240
-13812
2342
556
13476
-8672
11602
-26388
1177
-20715
25262
20868
2646
-5629
22426
-23889
19547
-24836
-8064
5791
15589
10834
29044
-15168
5058
-6332
15327
5486
12234
13868
28729
8576
25920
-9051
7249
5928
28176
16726
8944
19577
32538
3859
-5020
13027
3529
9786
10158
31152
8389
12318
-954
-7954
17996
-884
19136
26598
11127
-2408
-16793
-5753
4549
-838
9702
29935
-14217
29521
-4351
-16359
-7116
13550
-13994
29628
-4896
6799
-869
6169
-7052
-1381
-13977
29636
-6381
6532
-2967
-30031
16318
-3655
-3822
32543
9737
693
-840
-10879
-29345
-804
-26775
18887
-9015
-2095
3105
-11781
-2867
-15129
-30825
11112
2918
-5617
-5164
-91
-16074
-28496
-29154
-10314
-17722
784
-1845
-5322
7596
-31874
-11221
-30785
13766
-11293
7216
-11990
-7935
-5018
-23970
-16744
-5355
-9965
32085
-6649
22414
-12250
9829
-14601
21881
-210
32411
4814
-16302
15918
26967
-18611
21431
-5397
6362
4884
-2695
-3909
22215
-14611
29498
14266
298
-11594
15231
8390
21793
-24468
23550
1788
-13272
27306
8628
12266
17757
7862
19994
25959
2695
-13473
10229
14905
15520
13752
18290
20584
-29072
-15115
31453
2023
20871
25259
-4836
16420
-13159
1208
6084
4271
25598
8455
-15236
22907
-21536
-24695
-1342
3826
11623
30636
-5346
4363
-12108
-17031
-6134
20653
-13779
29728
-15800
-7208
-6611
8837
-6562
-13099
13793
18920
-24154
-1332
-7781
-13206
-29862
-13488
-13221
-4466
-31559
-8811
1884
-14978
-21872
7602
-16373
-7214
-8052
-5194
-18990
-26702
-14303
-19182
-778
-13556
4924
-19924
10028
-23016
-32766
-230
-14494
-29387
534
-5755
17445
-16984
-15097
-5256
255
-17728
9449
-16100
-1602
-17845
7208
-31964
13175
-30001
13589
-298
-4787
-15244
3402
3046
18719
-26893
5850
-5773
22650
-1296
2373
18865
-3771
-9235
32756
842
-1259
1616
25939
7191
31849
-7701
12930
3319
6121
2172
9159
6515
27547
17742
6420
19288
11065
16294
-24032
-9227
16503
5482
17892
8995
-11151
28284
20932
25209
32466
4425
5994
-3319
-9678
6300
-6224
23175
29045
15167
-6244
20346
-23895
9572
-26547
9087
5962
27102
-28640
15917
-9020
-12974
428
-13704
5974
32217
-14657
-4547
-2900
-10017
-4524
-8484
-21783
10654
-26540
-19216
-21391
-4236
2278
4915
-6402
9825
-1828
-32715
-25944
-18366
66
390
-17029
-7718
-4530
2059
-8532
13605
-31902
-7478
-10268
8330
14147
-2608
-8547
-15862
-25578
-20479
-31178
-10078
8145
-3327
6598
-13355
6356
-7360
-19019
-26681
24824
3984
11887
-1046
-14742
8144
3664
-28425
1782
-7912
-4081
13099
-10785
-30940
12642
-30229
7614
7577
23377
-1549
-1421
-3252
-5627
-12507
27767
7828
17367
27785
-3439
2578
21485
-18711
32154
-6307
10645
24236
16962
19224
32168
-2563
18360
27140
-10524
-17638
24462
-303
32705
1999
15120
17290
-8520
-25362
16789
17715
25465
20620
-3502
31545
7951
-2560
-4511
15677
4465
32461
-992
2739
-5623
-71
13258
-2886
7050
31999
25927
1761
-22228
4566
-7935
25493
2438
32676
-19221
15694
-5655
-16168
-5704
-12827
-6401
32135
-27347
10228
-5537
-13174
-22035
-5592
-30033
13101
-17023
16393
113
-6165
-16731
-6760
-24920
21275
21262
4268
-3013
-16753
-13892
-194
-7619
1824
-10860
6394
10992
-2990
-31207
-9989
-22101
-24190
27018
-16058
-26952
-3671
-21123
-17767
-3114
-28928
-8785
-31567
-2755
-4419
6905
-16366
-16490
-8998
28653
2055
32662
-2616
-12326
-26076
8422
-31665
12773
-8480
5924
-6390
12901
102
-3626
13773
32563
3645
24831
-5189
20861
-13086
15339
-452
32331
-5322
9186
19499
4100
2693
24275
-22008
9311
11463
-4584
-3571
4358
16856
2975
22681
28436
16280
14946
10505
17831
14559
53
20911
23190
21829
-10
-17749
27443
17903
16782
28142
-15105
22042
-11242
7101
-1002
-11940
20104
25874
2764
7117
-2748
-10778
-6672
15978
13182
29998
-31604
-2212
6071
-5427
-7043
-8826
-6453
32125
-7119
1775
1726
-509
-9270
-11898
-20106
17
-17634
-6714
-8363
-7545
-19559
26288
-24347
21928
6469
-14591
-5716
2460
-12475
-6527
-13333
-12278
-4436
-32465
-9124
20220
-8833
693
-23935
-11305
-15383
16526
6548
-32106
-11107
-21089
-31690
-8329
30765
-9096
22885
-20997
-9441
-3977
-23397
-22939
10866
-1012
13467
2299
909
-12372
9163
-31459
6035
-3181
10313
-466
-6109
6128
11581
-30652
29822
-6976
16643
787
7904
22070
1450
-13936
28510
16150
12166
12087
-863
9440
11726
12694
17282
27838
18333
-4103
3086
-3386
23232
17258
21266
24928
9331
-3311
9839
3877
22853
23482
18912
20408
2721
13775
-2723
10457
3108
23272
10280
5790
-8908
31532
3315
8121
20382
25655
16941
8296
-30539
-2703
-2068
10713
13103
30032
10377
-8468
-11229
3737
-10455
26976
-525
15162
-32201
-6063
-703
-4960
5369
-5904
-11157
11017
4999
-1272
-32690
2240
-8622
-14076
-5877
20446
307
571
-15062
-29100
-6786
-10131
-16307
-20174
-31096
-10329
-23257
-17427
-16209
-18348
-22284
13691
1584
-9881
-6408
-28291
-2080
-32700
9295
-31420
3225
-17070
-9407
-26558
-11551
-1244
-16291
-26093
15845
-4660
7412
-31917
20735
2856
-11323
-30748
5763
-1724
8067
3627
6996
12718
1392
-32737
5395
6808
16094
-962
5703
6386
21174
-17320
32430
-4681
9565
-373
3652
18346
32468
-4412
18614
-10237
7921
10667
4703
3571
15789
-9745
24716
21512
-7958
2824
6806
11018
26843
18791
20074
386
2950
5883
6015
13398
19559
2498
8370
-2125
-1079
-14942
16966
28032
15431
28905
8624
10307
-10910
-3698
-2842
-109
6847
32043
-910
17417
142
-7317
-9150
6875
1418
32736
3658
15687
-4373
-15583
-8799
-2408
-7798
31825
-10705
9175
-15838
-18441
-5807
-13761
-29099
15062
-16015
-22776
-21415
15966
-13402
-13507
-19897
10037
-5494
-6898
-12869
-4335
-29742
-13750
-8879
-17623
-26441
-19352
173
-727
-5004
-5014
8042
-2880
-2329
-12029
7380
-18369
-28652
-15896
657
-16611
12123
-19706
30692
-11474
-26533
971
-17231
-27870
12709
-8199
11006
3881
5981
3501
19020
-26681
10703
-13501
16372
-6981
-165
11453
17195
2035
32361
-5136
-4429
279
1871
-17118
16875
10853
32688
2268
19882
-7841
8974
9812
8214
16465
29034
15187
13684
-6108
9495
6694
11849
-12637
32740
-1311
-14512
22123
15478
27607
27072
9624
-21685
24564
-415
19018
11761
3544
21913
24361
4983
6478
-2181
-4992
-6628
-701
11033
25185
11619
-20707
-25449
509
23104
23234
-574
32761
2103
3026
-14906
11468
-15027
-8240
3316
32598
-6319
-16858
-11683
-11385
-685
3683
-19641
26227
-25209
10567
-339
-19290
-11091
-6306
-4717
32425
-7579
-15947
-6882
-8760
-18554
-24275
-14279
14438
4113
-17111
-9894
-9009
-27307
-18110
-8050
-2456
-10740
-24716
-2165
-13253
-17647
-27608
9671
-12220
14573
-29347
5360
-18810
-16196
-6887
5420
-27673
26234
-19631
-923
14517
-31366
-4143
4560
-22011
23143
-23196
5940
5550
4850
9819
24859
-16210
32619
-3107
2466
-16531
8036
-4345
23338
-473
30666
11543
28724
-4102
925
7513
20146
-5078
31886
-7547
8591
8138
6230
24049
31438
9234
9629
6298
14037
26754
14480
5675
-8833
31553
27250
4790
-9104
19892
26002
-8456
24014
22293
18
22130
-6029
-10493
5484
4394
17357
27791
-3799
16195
-6388
-695
-8981
1142
-5735
29027
-3213
32609
-17695
-524
-12398
-442
-1641
32725
5205
13460
-16740
-9960
-12842
-6285
-10888
17438
-19719
13746
-9557
-31342
7446
-6588
5847
26941
-19856
-17042
10883
-4053
-32543
-3821
-5669
23085
10688
-30974
-18745
-8807
-8062
-20166
-13119
3662
-26942
-18648
8443
-23507
-2253
-26420
-16119
-19111
14347
-29459
-15733
14561
-18532
-21828
-7179
-25130
32290
-5565
-23629
-4107
-10535
-16259
-7347
-350
14258
-27841
21327
24876
-7494
-18790
-8945
-5891
32620
3090
28299
12309
-7651
10305
15045
-29014
26935
-11052
18824
26819
9626
-1238
18721
-12498
28518
16135
7481
-15822
13168
20945
32308
-5461
7372
4414
5474
-81
3440
11136
24294
21987
17884
7065
8090
-5657
3961
8734
-60
20240
31913
7430
-10152
5280
11282
13421
-12620
26948
9769
19906
-26887
4535
32180
6173
17401
27764
-11596
-2011
-3854
-192
-5823
3198
-67
12521
-6235
3587
-29625
14000
-18744
-4871
-1063
17455
-14217
-9558
-32600
-3298
-11177
-9279
-21
7327
-27828
-17298
-2687
-1499
-4595
-8146
-29541
14176
2782
9405
-3622
-22793
-26937
-1015
-10141
-19601
2809
208
-7763
-12842
-32246
5816
-19767
-26132
1421
-14510
-1645
-1941
-4939
2770
-1601
-13802
31577
-8748
-4822
-22908
-5055
3045
-1432
-32735
20409
-4551
2900
-11857
1728
8943
-2321
-24183
-560
15906
32487
4269
-9129
-20995
11374
-27315
16964
-26055
18235
27223
5857
8400
18536
-8579
32679
-2394
2631
2140
12899
5356
2573
93
29661
13924
17711
12653
992
23479
28857
15521
23717
21091
13720
9387
820
18000
21283
24913
26724
5691
-9404
-9412
13507
9163
16726
28176
896
21387
4074
-22846
5449
2550
-224
32766
-158
13022
8830
-2990
1784
10529
-5688
32269
-983
8388
-20921
-13888
11601
-7846
22307
9992
-6540
3669
-8439
-13366
-27606
17651
-27526
17774
1793
6450
-5694
-6827
-1305
1941
-22496
23823
-1316
-16356
-18636
-22755
-4525
-15216
-23511
22822
2894
-10395
3419
-1848
-13568
-18438
-29485
-4556
-11199
-18179
29060
-13648
-31438
-9234
-4612
-2867
19943
-25998
-7514
390
-10362
-16336
-9910
-26115
30197
-12718
-4748
-3731
-3024
-4278
-6292
-32157
5365
-3779
8029
15217
-6352
-7504
23327
-23011
29007
-3816
3533
-1392
-7247
9519
8007
-15614
31311
9656
-8862
-3423
5779
6382
30855
-11028
27618
-12027
-14126
-2471
26073
3796
27705
17495
17235
11545
9392
1264
1377
3847
3984
8059
29764
13702
-17410
1188
18053
11099
16453
19177
5858
14103
7595
-4761
14300
29481
11996
30491
-2940
1472
7378
-7346
5512
5270
32568
-2713
-32475
-4358
-7204
-2736
-13639
21100
11689
20365
-32705
2005
8087
-22790
-4765
24930
7420
19587
-23397
-19289
8037
6226
-29318
14631
21060
17566
-15465
-18865
-15515
-8695
-26162
-19728
-10562
26298
4607
-8409
-10434
-19113
-22829
-23504
-6215
3480
-19721
-26167
9373
-17886
-9972
-18541
4791
-13846
7852
-31812
-6085
-10907
2922
4223
-1498
-32732
2547
-9378
4809
-1734
-9073
8548
4472
-2662
7108
-31986
17807
15487
-5722
-19049
-4110
-6568
32763
485
11608
-139
3037
2022
16171
-28498
15515
-25777
14082
24546
19142
884
23223
-17408
25282
20844
10699
-2910
2616
15178
14605
787
21663
5159
7848
31813
-14177
9390
32375
-5047
24736
-4073
-21348
-4100
8813
17484
10201
7492
22616
23189
-4223
16814
-2297
32686
14332
21147
15383
12537
1346
9258
-10125
31163
4977
32386
-9935
19626
-22470
1086
-3704
-6954
11919
30521
-29461
-8830
4565
8977
-17140
-7374
-15911
28644
-23469
21173
5142
-27191
-7009
13007
-27285
18143
7989
-2168
-4924
-5594
1080
5340
-16997
21257
-16007
-10657
-7559
443
-7954
-31786
-5497
-18637
-10378
-31079
-14836
855
-6536
-3849
-22246
-24057
-319
-25476
-991
-4610
-5759
-4364
2014
-12467
-16737
-17889
21074
-25090
4843
-12953
2520
-32669
16371
371
-3318
-12398
-12885
-26978
-6044
-32204
11935
6342
5224
-4201
7315
11123
32720
-1744
17801
-12458
4505
-5511
-7252
-4525
27299
-18121
12179
2650
13058
2105
225
10375
26751
-2660
32181
-6166
1831
12215
5880
16218
30249
12594
4253
12405
15895
-5385
-4395
9465
15403
-1239
30213
-8884
-17860
7287
15998
28595
23043
23295
5233
16437
9768
6546
-13305
24806
25225
20912
4834
3655
-17487
-1044
-14740
2152
14974
29144
-14758
-4094
-4235
-3938
-7151
-301
-12699
30205
-8164
-1019
9337
6049
-7614
330
-17363
27788
-12337
504
-12617
-3966
-28347
1131
-7196
7359
618
12692
-18290
-27187
-17544
-6362
-32766
-31
5340
-22423
-23244
-16228
-16481
-12440
9691
-10054
-4661
-16280
-4047
-32516
-5641
-3802
-7541
-31887
-223
4778
11841
-15880
-18958
6918
-10339
-24008
14082
-29586
-10671
14940
-4649
-28687
-6709
-32072
15341
-6045
-774
14103
-3018
-2719
1890
-32712
11369
-6113
1918
25412
-2522
-11375
25760
-5764
7961
-10024
-4578
4029
14525
-29371
30446
-7442
23491
-22842
-6309
-1243
21349
12303
32750
-1050
16984
587
-2859
3587
-4581
10718
32481
-4312
31987
-6145
-18066
8281
2661
30211
19415
26395
24595
262
822
-111
-6458
13171
23179
23159
1743
9917
178
-10950
-7238
9914
7095
31989
-5728
20179
7972
-7643
-14884
12117
6101
32193
-657
-4926
-21350
-9826
-2047
-11808
-8883
23358
-32292
5557
602
-10480
-16398
-5382
9338
2179
-13505
-29854
-20269
-7463
-10226
-210
195
6530
-32601
3284
10536
-10360
-20632
-17376
240
9063
11167
-30805
-10883
-12707
-7312
-10462
-10264
-18454
-15143
-15229
4499
-2206
-21590
-24648
-13450
-29879
-1283
-8762
2116
-6711
2563
-9073
13427
-17404
24183
-22109
12837
11320
-25134
-13600
13960
-7649
31483
-9080
9602
-86
-6824
865
20425
-13491
32231
-5897
18197
-2730
9744
13491
18242
-27219
-5634
-10978
-4918
10077
23223
-4547
31672
-8396
9273
-1619
4835
3897
-9839
17577
29693
2860
30508
11955
-10051
1748
-5043
19899
24956
21233
13883
11278
1891
9094
-11926
12149
19934
26005
-9517
13631
-2507
8584
-5391
9205
21430
24786
-10577
-9930
-10454
747
-3225
-4504
-568
32762
10397
-7094
-10746
-4763
1883
1573
13693
29768
-4590
-26852
-29359
-4802
-14213
-3850
-10360
31085
-14380
-7323
4239
-1935
-11814
-14434
-14456
-5616
-4470
-32460
-13041
4791
-17004
10544
-26919
-70
-17658
-12465
10264
-31117
-28079
-11463
-12376
-11514
-12508
-28653
1423
7703
-21699
-24552
-10817
-16483
-21479
-24744
19130
-543
19
-21732
1769
-32719
-214
-4742
-2125
1023
-12985
-25471
15711
-19845
24464
-21798
5951
-4336
6757
-28625
24690
-21542
21254
8151
4978
-18349
2617
6793
5285
-8914
29194
14878
-2960
1741
4158
-37
15904
-7768
31863
7643
-6895
-583
7130
13481
27431
17921
15388
10340
5046
3673
-2794
-1671
32759
-717
2144
9273
-4868
3576
-12063
12712
28306
16504
1041
14907
-27285
7670
-2544
2807
6265
4209
-13280
29954
-17580
-3173
-1924
13981
-14836
29215
-24134
-3320
-5149
3404
16217
14804
11032
18396
9658
81
-32510
-4093
-26239
7768
-16081
28549
-22323
-4421
-14586
892
-19539
-15815
-25036
21138
-8349
-24141
-380
6612
-20157
-881
-15211
15284
-20756
-3476
3986
-32523
-16624
-24039
-27042
-18503
-1433
14911
14966
-14696
-16059
10124
-19972
-25976
22688
-23136
3142
-17965
-5429
4380
-15988
-13779
26209
-19666
17057
20074
-21203
-6438
1275
-32742
-3303
-17720
24787
-166
9624
12968
11045
-15233
28354
-16423
-6317
1679
12747
-13153
20985
-8785
32508
-4111
-6633
-4963
3100
5625
4332
6526
30363
12316
1131
10040
3522
-4327
11922
-12566
11140
6792
18580
26989
-3034
30074
32746
1157
9217
7033
-366
-5220
-433
20400
15292
28979
7119
13642
14351
6780
-9212
13163
24592
21653
8610
4272
-6131
-3961
-14514
6054
27068
18464
-25304
12101
-20146
-16962
-5673
12790
12884
21979
-12718
12313
-6313
-4040
-31226
9927
-5695
27858
-6431
-10813
-17330
10752
-32760
652
-81
-128
-25435
8792
-1270
3527
-31409
-9332
-32186
-6140
-6497
-10183
-3736
-9861
2762
7933
-21910
19167
-5014
-1052
9544
-2840
-16854
-28100
-11503
30
23519
-22814
-8037
438
-15432
-14676
3601
-32568
-2052
-14318
14716
1390
-20676
4278
9439
-12564
28440
-16272
-10999
3561
-9939
-3663
6138
-20654
28683
-15840
20478
-9426
19815
11706
32757
-784
29804
8345
8918
-19639
-8557
3836
19315
-945
28699
15812
15935
-15855
20525
7990
1767
-6660
24894
21306
-3014
-977
6000
12768
15082
8887
12196
30412
2418
326
12693
7785
12491
30292
22541
10407
10945
1898
-144
15715
14804
17834
-8488
31648
-4851
7997
-7693
11914
-9793
31269
14060
12227
-12534
-11514
16124
-1415
13766
18980
-4802
14838
-5256
-6981
-26732
18948
12013
5616
-19844
-16269
-31987
-7103
-7017
-1949
-17906
27441
2055
13418
-2052
-13378
-12727
-8000
-8099
22688
2179
-26715
-10824
-3089
-31014
-10572
-28350
-16429
-2659
17787
839
-29890
-12955
7671
-10635
-3731
-5609
-12478
10340
15155
-30461
-12074
7649
-22136
7321
-31938
4173
10144
-23284
3685
-6049
-32203
19491
-10184
-4811
-2827
4774
11680
968
-32752
14984
4805
4416
-83
-2958
13790
18763
-26862
10712
-2497
15781
12216
-10304
6664
16454
-28335
-2279
3024
18688
18364
3736
5580
1639
-3723
32760
642
-1559
13573
16017
11864
27708
-1767
28154
14408
2109
5193
16922
28059
-2031
32703
16771
9162
8127
13032
10201
236
20288
25730
-5667
-399
-9162
-1378
9901
-8178
24060
22243
2973
3025
-19071
13519
-17316
19052
20954
25191
-26692
6365
-909
-16903
-4979
6619
-10852
15882
-32693
-2189
3827
-1071
5174
-2068
-16723
23503
5424
-2197
-29971
-13243
-6360
-6497
-18428
13680
-11815
10208
-23691
-11660
-12466
-30302
-21457
-4874
-10694
-30972
-9778
-8620
-14197
-5248
-24469
-21793
-18087
-27085
-6085
-7422
7618
-13341
-16247
-28455
3453
-6028
-7820
6153
-24652
-19100
7169
-12973
28988
-15274
-5897
-14913
-2751
3131
-6756
-32062
16954
-14889
13270
-13396
23471
-13900
12481
-30296
31318
-8923
13823
-743
10069
5299
12805
-30161
17065
9583
1417
20150
-4868
-2787
-4700
-21923
25393
20708
908
11154
12750
15649
32463
4446
9854
-14123
4263
19352
19480
2627
32117
6490
4735
9982
4939
8153
-1019
16976
25968
19983
17801
-20405
-10955
14019
985
10088
-8632
27250
-12613
7791
16241
20392
12080
30458
21947
21411
-14786
240
-31616
-8606
-198
-4158
9241
22846
-17323
-20808
-28832
-15568
17981
3501
-8074
19209
-29012
-15229
-18033
-276
-11137
1621
-10775
29524
-26257
-19600
-15678
-10636
-15418
-24464
-23658
4483
514
-11626
-30498
-11980
-11676
-20535
-15893
-27779
-31209
-9981
-15718
-10666
-15634
-24660
-7489
-15680
-19175
-26570
-3685
-17367
7863
-25511
-4704
-25096
9503
-31358
-5853
-995
-8222
-28002
-1728
-32128
10297
-11568
25522
-20549
11785
1406
-21471
-24752
17751
-4063
28506
14940
14881
2423
19101
-26623
14524
-1815
3644
9614
-9021
9986
10168
-6573
27702
17500
2731
1294
2700
1911
28334
-7061
17014
8661
20620
25465
-17466
22095
28488
16188
30463
-7360
-8257
-971
20044
10717
21188
24994
-2644
3066
7508
-6144
11081
767
25735
20282
4159
19573
-14595
-3778
-5036
8859
13482
29864
-7451
6547
-5586
2521
-6712
7281
5828
32244
7264
295
-12137
-10002
-5749
17885
10939
10033
-1454
-11862
-18218
-27235
8006
16800
-21010
25143
-17767
7077
-4373
-4079
-21715
-11766
-15732
60
-15809
3779
-16114
-13002
-31925
-7376
-27599
-17662
-16359
-1055
-484
-7608
-16143
184
-7143
-31978
-12645
-373
-11701
-4031
-19151
-8428
-32748
1090
10594
-6914
19386
-3810
-81
-15243
838
-10314
4507
7722
31769
2226
-32327
-5346
20377
-19475
21626
-24616
-8344
12648
-13788
-7450
9274
-9990
24892
-21308
3422
17051
1079
2530
11626
-22600
32642
2848
6331
1269
5078
27080
20326
-17020
9912
29143
20095
15286
-25287
20838
16538
-10844
32527
3957
-7651
5201
11009
30115
31818
7826
1526
8293
6044
2135
-6614
14818
29419
14427
-11407
24199
9302
-7
-370
29614
20976
25172
10769
-210
-14836
-12963
5340
10411
17504
20901
10180
24183
-21384
-24826
-12781
19189
-26212
6950
-14406
-10662
-28647
15906
1477
23241
-10970
22150
-23765
-9585
-31708
-8262
-18199
-6650
-32530
-3925
-13438
5447
-15963
13017
-28838
-5858
-29018
15218
675
-8973
11605
-22657
-13801
3689
-2950
-1409
-11448
-13461
4004
-2785
-27770
-17391
-21600
-24639
-13888
-3592
-2485
1465
325
-15987
-16074
-28553
11000
-5972
8598
711
4090
18705
-8547
-31632
17257
-9798
3925
391
11202
12896
-6519
-32111
14780
7367
17113
6297
5033
5652
26675
-14889
29815
13591
15362
-9086
-7624
14121
28452
-9345
32758
758
18538
17945
-9202
21434
19261
-5904
15899
2584
880
-6765
28664
15874
32556
3712
-13063
8324
5688
9919
9617
3338
19263
26506
10110
-5209
-3973
1596
4959
-751
22756
23576
8591
13630
-11431
-14045
838
10928
12533
30275
-3296
2689
551
-8254
-1840
8974
14091
29582
-18122
-13276
-3344
1654
-10280
-5513
16648
10399
-32262
-5728
-17761
-8144
-23699
-3424
-20373
13371
-5043
-19157
-26794
18860
-19048
-15203
-21817
8410
8033
-9247
-31127
-10235
-11488
-18722
-9661
-15064
-21243
-24947
-5045
-9113
-9773
-9486
10444
-25089
1677
-29151
-13597
-29812
6721
2256
1496
-32732
-1027
-7435
-1209
-468
-12447
5773
6011
-32210
12812
-8032
9584
3756
-18470
7693
-421
-32764
21975
-6042
29457
-8186
16467
-1744
26049
-16259
17341
-27802
14309
-6650
23328
10610
32607
-3228
18031
-14123
17184
18139
-17705
13736
13039
3879
32688
-2267
82
3959
10284
12178
30178
-1860
23313
23025
-10520
4373
1894
11298
25167
20982
18425
6437
-5451
-7236
-571
5212
11415
30714
8657
8121
-6600
-9566
17614
6330
5626
13313
-3816
1467
-32212
6002
11943
683
-716
25013
-25410
20687
154
-19515
3790
6402
11449
30701
-7664
-12442
-25122
4498
-19986
-21353
-32766
235
-15659
-5691
-4572
356
-5855
23558
-3214
-2722
-15893
4155
-11649
-30626
-24565
4142
-10204
-12868
-20122
-25860
-7061
-18270
-495
-1662
-28045
-16945
-6051
-18411
-18300
-3527
13971
-19817
-14051
-12370
1065
-24104
-10908
-10675
8784
-31567
17788
-20667
13747
-27997
-7223
4078
-21481
-24743
12898
-30121
8878
-5555
-7046
-2426
-4968
1737
20711
-9540
29266
-14736
943
-9500
5960
7274
17114
-27942
17668
-770
-2869
690
2121
18610
25555
9993
31305
-9677
-6389
10942
3558
-7834
27577
17696
28811
1359
8033
-11892
21175
16406
31141
10193
3709
4640
11293
4247
-4471
16369
14048
29602
19753
-10396
-1669
4945
15278
16298
2733
32234
20815
23023
-28484
-15469
24921
21274
15646
28789
-23156
3706
-6470
-14698
4124
-623
-19283
26491
-16346
20131
11185
-19903
6692
14484
1353
26189
-10107
-16223
-30493
-11992
-11247
-9976
-16373
22121
-6843
624
-3706
-32556
-3242
1410
-12991
-2863
-14861
-29203
-9014
3344
-6996
-7496
-9804
12189
-1948
-21322
1076
-32749
4748
-17597
-29069
-15120
-8450
-9684
13541
-25892
-1039
-22571
9922
-31228
19433
-15681
-21244
-4438
-13288
-6757
4791
-32414
21636
-24073
-12704
8757
648
-733
-6378
-31391
32766
76
9992
-211
16569
4038
19828
-26086
26608
-2484
152
-6712
11109
12838
21217
-24969
10750
-7656
-2819
-4252
27351
12853
32491
-4243
19907
-7885
-2226
8738
1447
13302
17394
3899
32316
5416
-2762
-1143
8966
28443
23611
-4597
-21236
-1084
9070
6781
17111
27944
15514
28861
-8330
10625
4138
-1599
-5144
-5115
26963
18618
2415
12369
-4843
-21225
-12513
14046
-19299
26480
-11765
20235
-16381
-503
-3050
7347
-18722
26891
-21809
-6477
-13573
-7702
5125
-3349
-26139
3519
1354
-18886
-15692
-9858
-10489
31042
-1039
1476
-29110
-15041
-3713
-24799
-24700
-3911
-8909
993
-24673
-11791
2997
-31144
-24074
-22228
-9598
-31329
-6653
-31300
-11199
-2323
-4669
-7619
-18641
-26947
11614
-7739
10512
2676
-17802
-60
-16124
-28524
-3148
-29959
2288
4398
27647
-7079
3317
-23898
24223
-22065
472
13516
839
7653
-14222
-15919
32300
-5511
3434
15284
17927
4584
20404
-25638
8436
-13910
13860
19731
8544
13904
5754
6426
29638
13971
-2205
-3858
7936
4876
19979
10511
25696
20330
-7129
-5135
6260
4724
32384
4989
2028
-6461
-3396
9564
2114
16693
32690
2233
-11086
804
-8804
-4152
3320
16802
16691
28196
-5536
6586
2336
19639
-29523
3771
-3090
32620
-12732
12538
-12661
-5605
476
-21186
7617
27141
-15353
4385
-7733
-31841
-1528
8578
-2555
28621
-15945
7541
6060
-5060
-31514
-8972
-14624
-7123
-1149
-8124
-23763
-22560
7651
5305
-19099
-18117
3798
-23714
-11732
6976
-30480
12025
-14048
-21864
12747
-17221
-23270
-23068
-5503
-7365
-1843
-25273
-9328
-31411
-14356
-10310
2934
-27217
-6168
-32181
2170
-8591
7010
7151
-5987
12138
-4067
-32513
14507
-22444
16287
5366
10928
15432
16100
-28538
24980
8019
-9706
-12122
1696
-1016
13828
-29706
30003
7236
-6007
1288
-2284
21900
15388
-7533
28904
-15434
-840
19323
9034
14427
16527
1224
11615
5573
-6089
32196
20593
-7901
12086
13205
16996
28014
-180
-17227
11342
8560
16339
4442
-1832
10630
-337
-11253
20997
25155
17748
27544
-5500
-10276
4057
9945
-5798
4832
7711
16403
-5999
-8731
-25222
20917
-11084
5984
13317
29938
-28495
-6708
-957
-9398
-11666
13257
-25281
20844
-16029
-9647
-11347
-12517
5505
11345
-5681
17878
-15791
-7063
-501
4163
-31590
-8703
-20357
4454
-20789
-25327
-345
-10503
4053
-7685
-20802
-25316
-4541
-1836
-2037
-13422
-10625
8060
-1347
-29945
-9122
-31471
-16091
226
6748
-5538
3611
-22524
16612
-18098
-32747
1121
-3516
-20017
-10526
-31029
16580
-9100
-9136
4547
7996
-975
4146
-15326
-3738
3776
32709
1943
-1868
-3944
29480
-14304
15596
-8582
-1827
1963
-2075
-5775
11096
-30830
30077
-1552
-8946
20061
22787
8792
14909
-941
32713
1865
-15405
161
8690
6061
23790
22532
689
-4304
7933
18389
20079
-2986
16691
5630
9471
31368
-12440
3464
-276
12738
19355
26439
15033
13028
-14085
-8247
1014
9605
910
32754
-10511
5774
-11193
12551
-2294
-7102
5721
22178
-19350
1607
-3648
-4280
-11930
30518
-16292
17328
-30749
11318
12541
-216
-11532
4337
3147
9782
-32689
2258
-11243
-18808
-7394
-20133
-732
110
-474
-13586
-30593
-11735
-698
-16173
-32492
4228
25997
-10611
-30246
-8349
-22304
-21553
-17919
-27433
-20650
-19420
-16360
12014
-10864
-28043
1611
-761
4364
-13935
3933
3686
-23406
-22930
24215
-19474
18004
-27377
-2646
-7069
-14363
-11150
-6421
-32131
15017
-20206
-530
17157
8387
3554
26482
-19296
12897
-14500
-1132
6188
-6206
975
28589
-16010
16114
-20238
22004
14742
2674
21071
31789
7945
25888
6243
18651
16555
-10679
9085
510
-3555
20660
24044
-3825
19840
30769
11266
29403
-11607
18404
4649
-24355
21920
7762
27587
25325
20791
-10893
4840
-2997
9575
14791
20179
21346
24859
2372
7381
1772
-16368
-2604
15201
12127
30440
7307
3547
-20121
-8621
-7954
-659
-24075
22227
-20760
18048
-7493
-7085
3084
-5085
-156
32762
-9868
-31245
-7492
16715
-28428
-7617
-18698
26908
-30264
-7076
4335
-20943
-11985
-16816
-21962
3349
-14402
-29431
-580
-5098
7132
-7904
-31403
9354
-4175
-6261
2628
1082
-9802
-30088
-6906
-18670
4180
-16905
-1515
9223
-27827
-17300
-18343
-27151
4170
-1069
-4532
334
8769
-2078
-7529
-28787
32289
5574
-2857
-6359
1086
-3471
19057
-26654
15840
-4831
4231
-8654
-182
18332
22573
-17271
27132
-18371
7360
7730
5149
20214
15073
-688
32760
633
2586
6874
-2045
13732
26944
-18645
13821
126
-8725
12457
4688
17765
6724
2732
24031
22274
-6275
-8554
19290
19699
30547
11853
995
-5130
-4167
21
3006
14028
-468
23736
-3991
32522
318
-12546
16288
24308
-3509
32578
-1624
640
1159
1332
2374
1355
21974
2934
-3973
19987
-27077
-18452
-28038
10498
16385
13471
-30651
-11583
-9547
-11033
-12928
-9690
-8229
8801
-13972
-12607
-18305
11831
-30071
-13015
-15143
-9893
-12887
-30126
-10844
6475
-10108
2998
-32721
-1731
-4102
-22896
-2889
1461
13202
-11321
6912
-32015
-11190
-29412
-20616
-25468
8634
-10752
-5378
-19601
-8574
-13082
23664
-22664
-6713
-23792
-19605
-23714
24218
-22071
-5665
8973
16124
-15879
2868
-32641
3682
639
14321
619
1123
12925
16610
-28244
23977
-8366
290
17823
2574
-5881
22459
-23858
2656
-12794
8124
-587
20401
16946
25322
1501
29887
-9314
-4649
-1217
30736
11354
28916
15412
10170
16084
-2970
13960
27607
611
20269
25745
2149
16675
19643
6216
-12061
11719
28047
16941
-5184
12039
7813
-7519
-11388
16287
22090
24201
-10387
4365
-14865
1477
-4369
24891
22661
23667
-24616
-14559
-26865
-11235
1384
-5946
-16996
28014
-21100
-2628
-14391
-2029
-4726
-3945
-14238
19319
-32688
-2271
-2712
1079
-11173
-22995
-31711
-6660
-16809
9020
-19360
3664
-29518
-14224
-14049
2017
-1910
-1533
22026
-24258
-11966
17372
-22779
-23553
-5583
-2096
-1980
-8345
3660
1471
-6574
-30999
2613
-32662
702
1279
-6229
-6450
-21318
-14764
20689
-25409
2514
-2939
25832
-4934
-182
-32766
29763
-13126
-1712
11490
-1787
5114
2663
-32658
3807
5997
18856
-6690
15489
16007
17718
-27563
25880
-3251
-2828
23697
-7146
10987
19257
-26510
13150
134
13889
29656
5563
22418
32692
-2208
5203
-5791
8657
0
7669
21375
14275
29493
20555
2699
5428
3677
11335
8934
27587
17681
2573
-615
-11524
114
-326
994
17458
27728
-9820
-11246
897
5028
6678
18345
-539
32762
-13124
12244
-6918
13300
-17069
-6644
-10384
19622
-32724
1665
-15082
11447
-15444
-6817
-15945
28625
-30100
-1077
11761
-13207
-6964
922
-572
28889
-12658
-9251
-13020
-19783
-25830
-20160
-28003
-12773
-27803
-17339
-15474
12497
-6196
-23194
-7991
-927
-1025
-32750
-12003
-17541
6760
-17786
-10292
-31108
-11776
-23529
7200
4257
-18821
-11475
252
-14894
8876
-31541
13097
-334
-7368
-15300
1969
-26692
17525
-27686
23722
9153
228
6363
11290
-1466
31982
-7125
3114
5415
-9092
-7387
32765
327
8485
-11819
23004
3510
-3203
-1742
32282
-5614
7084
-10273
-415
-4903
13145
-1099
24224
22064
12669
16353
24247
-2027
435
2214
28555
14844
3702
-504
19421
10335
17733
27553
28630
15936
12194
16099
-12863
-5705
-2206
8890
20671
19872
-2261
6382
-29904
13394
-4536
-2955
7063
31996
-30419
5921
5662
-9456
10782
12790
2678
32657
-18329
-23473
-11915
711
11192
-17523
5308
18984
-29323
-14622
-3585
-11094
1553
-10036
-19033
97
-29536
14187
-14353
-10527
-19037
-9789
-6180
-20676
-32265
-5711
-16795
-6610
-31224
-8084
-32561
3660
12095
-3969
-11552
-3803
-5349
-17369
-1933
-17558
3152
-32614
-23056
-7027
-6690
-23848
-13413
-29895
3019
-6816
3221
2861
-255
9512
-10729
-30960
8799
-4344
4320
8329
-1281
8895
-2206
-32692
3791
-10835
9038
20191
-1704
2428
23884
-22431
15848
-5592
16894
-1591
13822
-3253
17863
-8075
2911
-24535
31163
9776
28305
16506
30555
-11834
21845
-20458
-11699
16395
14117
12095
29887
13432
854
5436
5070
4925
1193
-2752
20126
8900
15728
28745
-16637
-10503
13779
13778
17496
27704
6336
1794
-3665
17333
-14616
2178
14198
29530
-1089
7112
-19763
-3221
-2882
-9308
-11570
30656
-1945
-3299
8720
15168
-9831
10669
14157
29202
-22932
-5444
-7072
-31994
-1491
4712
-22662
20171
-32514
4062
-6281
-3909
-9414
-20680
5068
11723
3514
-17604
-28258
-16587
-15246
-13578
-11531
-7505
-26972
-16648
-13938
6261
-11360
-30734
-25221
12914
-6370
-30512
13143
17450
-15554
-28839
-7557
-31883
-126
-16523
-1944
-5780
1439
4273
-9333
-30866
12277
-27517
22827
23507
-16542
6071
2106
-32699
5440
-8013
9535
7000
-1794
8828
21690
-24560
18673
-4161
2863
1307
-4808
4331
10174
-10918
27991
17034
-2284
-2041
2072
276
29423
-14420
22576
18393
13413
-9980
7898
24472
25960
-7299
13872
43
10268
31116
8846
26276
19932
24711
19008
21052
20909
-4965
9134
31468
23787
2542
-23479
7943
-4379
-256
23050
23288
2841
22001
-7594
3560
-31109
-6001
32765
315
-12627
9493
-32571
3572
-14662
3018
20063
-4365
12012
19576
-29816
-13588
-5330
-97
-10116
-2569
-24767
19440
-15930
-11111
-26905
18701
-7478
-28730
-29961
-13264
-4682
-15326
-28047
2981
7081
3658
5781
-5921
-11326
-30747
-12896
-8447
-14859
-2438
-32033
-6896
-5169
-2606
1130
7987
416
-10139
-12479
-30297
6920
-11519
-13307
10881
-10266
1287
-4348
-14850
10022
-31196
6255
4795
6290
5121
-10313
-31101
1592
5018
17703
8395
-7361
1201
10196
-31140
23815
-7278
-5424
665
2892
5005
6470
-14690
27660
-17566
-6377
11165
14228
7891
25985
-12485
29866
13477
3378
11094
-13664
13451
31693
8317
12785
12628
5008
2736
19422
-259
32763
-511
302
16173
10622
-2776
-7286
21114
9649
29030
17273
27843
7041
-10446
2478
10249
11180
30800
6349
1729
-5950
-9451
8567
-5089
9255
31432
-11993
-6064
-14782
6514
2634
674
5611
32282
-18962
19648
2090
-7154
-23110
-4643
-22059
24228
-14200
9863
5054
-5518
-197
-2928
-29661
13923
-22298
-4413
-3536
4978
1569
-17125
-32711
1904
-4219
-14965
-2883
201
-6953
2114
-9456
-13650
-13564
-29827
-15592
7020
-6321
-14946
-24778
-21440
-5861
-27182
5483
5788
551
-3759
-21826
-24439
2643
-14934
-13518
6499
2888
-30441
-1073
-32749
14652
-3921
-11696
9104
-12374
-4385
-2234
-32690
6095
-8440
806
10819
3692
12052
-3013
-32628
28201
-15582
-10282
14154
22662
9286
14965
-17878
16650
-25145
17958
17159
17931
27425
17553
-4708
32749
-1060
-9896
5180
8977
13202
246
19384
25352
20758
8740
3112
12345
8052
22760
23572
25276
4663
-24683
-200
1666
-8272
16675
28206
13169
17997
-14962
-10448
10680
9740
-1356
32738
-5298
20823
-2990
-12055
13147
13217
-9209
31446
-27726
-11756
2829
-8104
21858
12913
14847
29210
1024
-3835
-16656
-11561
-22822
1549
-6363
7314
-16180
-28493
-23176
8850
-11423
-5363
-6747
32064
335
-9882
-4138
-22880
-15338
-14191
-28850
-15535
4163
-17206
-21481
3398
-2907
-4200
-1099
-14519
2920
-32053
-17756
-27538
-19249
-25727
5576
-14281
822
-27056
15035
-29113
-11596
-19034
5387
-32321
7114
-14476
-10658
4605
-7134
1642
-14783
-29242
14090
-20384
5419
23826
8443
2449
16986
-28020
16090
-17026
-8405
880
6258
12872
2749
-16212
31701
8287
-13569
9046
10611
-5009
7063
5951
31585
-5431
25998
7193
15392
28926
28180
-12914
25949
8260
-1357
32738
15607
27062
28435
-83
-9983
20428
2431
-23246
27869
17233
10699
1802
-12400
14338
5239
13480
7258
31952
20170
25822
-8162
11870
-7491
-2699
-11860
-6543
-11012
30861
-26477
16767
-359
15002
-9044
-6087
12246
21001
-30882
-10951
2274
-12587
-3085
6137
-24842
21366
-8607
-4742
-8795
6444
830
-13250
-14094
12694
10400
4273
-20168
-25824
6091
-6850
-8815
-14295
-8577
-6419
-23949
-19784
-31690
-8329
-14794
-29236
-22492
-23654
-8657
-12474
2575
-6217
-26618
-16398
1101
-32748
-9599
15370
2360
-22732
-18499
-27045
-2704
-30001
2661
14418
10247
-11273
2415
-32677
13427
-3737
212
22532
-26289
152
21745
-24511
14662
-9570
-471
100
-6736
6550
26513
-19253
18611
-3957
1579
5443
-3294
1422
30198
-12717
14951
13220
24690
1772
-12444
25922
32142
6364
22519
-2919
211
-16700
5676
15373
24757
21464
23415
-2557
2777
-1788
1230
10597
22522
23799
5125
-3383
10183
-1233
2354
13756
-6030
6825
-16160
-998
-22721
23609
18073
-3682
15178
29039
-15804
-8499
-9654
18347
-14502
2799
12943
26255
-32177
-6187
-3122
-11623
-7097
14501
2160
28538
-32238
5861
-11477
-19843
-12512
-16273
-10613
18360
-30646
11596
7068
-13281
-21994
-12096
-32329
-5335
-18448
-6761
-1643
6228
-14021
-3425
-15786
10253
-491
-32763
-19349
-3656
2272
-32404
-12007
-4504
28404
-16335
-19140
-17046
-12453
-18815
-16904
-28069
-13136
-28554
17464
15177
1324
488
3468
-19362
-1131
-20265
32723
1683
-4709
7089
4263
-32488
1052
-10446
9433
401
10109
5766
24717
-21511
1083
-11280
20535
23770
-18999
4121
23316
-23022
12112
-15115
8833
7122
16732
17867
25338
14158
24953
12567
26475
19306
11333
5761
27879
-2090
25890
20084
186
-5665
-482
27087
25184
19227
19903
15770
-26303
-8989
32013
6985
6659
32083
3246
18989
-11547
-17042
20589
-8273
1489
32733
-3730
13871
1218
-19126
14632
3428
-180
32766
-16553
-1457
-16577
-11910
7609
13383
-28549
13454
-12489
4150
-15766
28724
-22336
-146
-8248
25469
-18683
-26918
-10783
16099
-22518
-15248
-3318
-8107
-20822
-25300
-18187
-11066
-1475
-2278
-14021
-6362
11635
-30631
-25647
-8451
-22
-3211
3788
8918
-8724
-31584
2294
-6432
-12550
-25969
-16623
-28237
1117
-16578
-11500
9950
-8000
-19420
5697
-32267
967
-28496
16678
-16233
15005
14814
18369
-27133
18333
-20676
15990
2580
-8056
14238
9727
-31289
17927
912
-8334
13111
-9433
4165
31857
-7667
11164
-14958
3602
-2771
7764
-99
27628
-78
27053
18487
272
-11084
10447
-567
-6481
7348
19441
12341
-6888
-8059
32762
-522
30024
13122
12311
-11094
-7965
1597
-4185
1937
26020
19915
-3805
26066
-16452
-9595
2382
-4265
8048
31763
-16293
8731
2743
13258
-2352
7045
16851
16571
-22853
7326
2987
10211
-29638
13972
5441
32312
-30974
4957
3286
-7290
-13752
-11974
8277
3678
-32589
-3406
-16186
-16575
-10541
-7310
-7586
6187
-18902
11922
-13485
-29863
-17668
-7435
-16571
-19143
-24719
-21509
-12984
7831
5094
-9412
-23310
-19933
-836
-32113
-31764
-8042
13224
-22476
-4697
-27430
-11266
-30769
-5978
-5588
9092
-6386
3748
-32551
4490
-24049
-10446
-4705
4733
-2272
14173
-29543
4287
-8584
7723
-12687
-438
3577
7089
-31990
7332
4123
8739
7872
-9609
12429
23323
-23015
10812
-9094
4734
3827
3367
9193
17152
-16586
31202
10005
3734
-2865
7535
26853
29311
-14645
-5463
512
3671
-6159
13396
12933
14732
15183
11006
30863
15901
24804
-23326
9922
32257
5757
-1090
-4913
-19192
3521
9056
5905
23044
23294
13896
-4839
-12467
253
-3294
12724
23339
22998
-18772
1532
-12249
10733
-22936
-11577
16539
28286
-25514
-3017
-19768
-18293
-1827
-2941
8879
781
-17181
-9610
-31046
-10476
-1407
-9397
-13310
-12063
-29237
-14793
-22676
4880
-10339
-3174
9966
-2689
-23299
-23039
-23033
-9058
-21880
-22159
-32674
-2464
-20206
-7858
-3670
-392
-942
-27592
4936
-7911
-7481
-28515
13708
1098
-30999
-10617
-8538
-17570
21899
-24374
-17685
9239
-8176
-19018
4494
-32457
-3673
-20439
-754
-6590
13183
-5910
3796
-32546
9066
-8252
8389
-6998
14685
12070
27869
-17232
-840
-8276
8274
-12190
8300
1413
30883
-10950
15336
-8696
-1989
3779
-3000
5211
25592
-4080
23123
1257
14236
-9430
13134
30019
32685
2316
21121
10456
3628
-8875
13785
29322
10544
1519
-19130
10186
1278
8596
30328
12404
27239
18212
-18043
-6265
12723
-5652
10110
20611
28389
16362
-2329
-4162
-17681
-22810
8674
10152
-3796
32546
-6976
2368
-23681
4140
-2958
-18132
6921
21001
-31223
-9937
-4483
-10555
-7948
2825
-18623
26959
-23615
-11785
686
4722
-6025
-17771
-22645
-11646
-32536
-3878
-27741
-343
-12799
-24604
-26616
-10452
-9970
-31213
-22962
18560
-13116
-21110
-17925
-9134
-15350
-28948
5025
18058
-13775
-16568
-11557
-30661
-2977
-12540
-7986
9377
539
2170
4535
-32451
20741
-10969
-653
-8061
-4926
20769
4851
-12674
32546
-3796
12215
2920
-14115
5635
-563
-32762
9476
9006
9174
-3951
11538
12054
25341
-20771
24148
-6857
26942
17884
-3260
23302
15734
1243
32578
-3512
-2168
-3867
16645
12525
32120
-6477
18716
-497
-7355
-13941
15968
21386
8692
8134
3441
-6415
5571
32289
-1005
9958
8992
31508
14478
16739
1459
1492
-2227
4247
-4672
32432
-8311
-491
-2278
3165
15879
-13990
4897
21621
-26359
16107
7350
-19828
4806
32412
-18548
11833
-27392
17981
-11927
16732
-24780
-2224
-1038
32750
-18743
-10018
-8802
-11775
-6789
-18678
-13124
11165
-20877
-25254
-177
4064
4463
-8325
-8019
-3407
-8971
-31514
-19078
22412
-14002
-18617
-20226
-7652
23562
-22770
-31602
4851
-13467
-17894
-4939
-32392
-7026
-15288
-16156
6819
-7923
-8417
7359
-31929
6368
-26504
-17891
3134
2436
1755
-4314
-32481
-107
-17446
-3556
5867
12401
1599
6994
-27366
31731
8170
-2556
-6644
3411
3784
1195
-997
30743
-11336
5361
12078
2710
11773
30601
-11715
2432
1757
8720
-3837
-3953
9422
30028
-13114
9431
11817
4254
5676
7391
15179
29296
-2215
4666
-2288
16636
15304
-3385
32591
18491
27050
-1410
9563
-11062
-1026
16302
-9696
18411
27105
3523
-5897
3810
-7707
2848
5344
28213
16663
-24028
-11191
-17162
6188
-9506
1189
14472
16684
-31924
7381
2746
4516
-28104
-1926
-12592
30250
-9806
-6307
-14881
3083
-6592
-16867
-9245
-3064
-19575
-26276
-11681
2894
3545
2419
-17509
5680
-21277
-24918
-14536
-10202
9497
-20711
-21412
-24802
-12718
-11509
-16086
16992
-21313
-13065
-1845
-20364
-11657
-30623
-1723
2935
-7601
-8213
11612
-30640
12972
-27186
936
-8182
-13589
9371
-16843
-28106
9986
1653
10915
4138
277
7786
19508
-26326
10723
-14265
4614
1067
-3687
4117
12909
-30116
9417
-12519
3274
1958
8141
22096
9989
-27569
24034
-6238
-9309
-1495
27615
17636
23407
-22929
-3058
-2726
5998
-4348
20852
21538
32527
3954
15778
3893
-9109
-4193
3579
6807
24588
6121
32734
-1455
-16914
13821
-2318
26900
16384
28376
20654
-7588
-6863
-6067
18244
24235
10810
24937
-9477
12962
10987
6130
-12685
30211
23812
16421
-6684
2804
-15046
-29107
312
14448
-10038
25249
-31842
-7727
-17162
16422
-12720
-25387
-18820
26822
-17586
-14700
1159
6350
-10959
-8308
-6495
10673
-32742
1254
11299
-17402
-16228
-8135
-13186
-3831
-25922
-20041
-5111
10102
-9655
-22183
10606
-17974
-12830
-30150
-16578
-3678
-10795
-15510
-16865
-28093
-9518
-15260
-7910
-10293
4042
-27280
4338
-19212
18210
-27240
-6938
6591
-5171
-4658
9947
-31220
-1189
-16195
-4443
19158
-10274
-9555
17112
-27943
9487
-13788
17319
18423
-11163
12484
25994
-19949
16808
-11554
-3450
4498
3439
6200
28272
-16563
1416
24499
18202
1320
-2009
13445
32186
6139
24914
4343
-8120
2771
5561
5038
30487
12006
340
2648
-721
700
-1907
1902
21465
24757
6783
-19473
-217
18079
-2903
6536
-4293
32484
-8394
15523
10885
-14738
19334
4398
2585
18810
-30864
11002
-12162
-837
-1289
11404
4872
4439
-23574
-21816
-25730
20288
-13917
3368
18380
27125
-17204
-16856
-23908
-19551
-16622
-13097
-17520
8666
-32262
5730
6638
7210
-11630
-20996
-28878
-3285
-20008
-25948
-5068
-6982
-11621
-5343
-30346
-12361
-21686
-18620
-10814
-2606
6630
-29183
-10839
-30922
-2198
-17664
-3626
-6292
-7156
-5877
-13950
-29648
-1525
-1577
-1224
12908
-11036
-7900
-8308
-31696
1619
-21957
-8104
24946
1891
-11207
-1719
-32721
15392
-10081
5584
4521
11102
21381
10621
-27996
22422
3023
12768
-13878
20608
25474
26906
-5140
32610
3198
11170
-7752
10734
18965
32022
6944
25961
-17900
17629
23164
11050
25655
30354
12340
14867
-8199
2881
9952
-4404
13854
30144
12844
-14520
1648
-7887
19452
1483
-149
22434
23882
-9627
11783
-19322
-22622
27548
8167
18947
19700
1993
13741
-13717
-12766
-8922
31528
-13562
29828
-1461
-686
-8674
-2706
7910
-2091
-5906
32230
-18638
-15112
-7210
9949
-17200
-12669
-10286
21576
-900
-17856
-30491
11091
-16139
-28516
-19983
328
-29320
-14627
-408
17226
-26002
-17448
-28063
-16915
-11535
-9924
-4425
14221
-5970
-6299
-9903
-30721
-24818
-21394
11287
-13492
-19712
-15030
-16351
-28395
16213
-5660
-6738
3643
-7300
1138
-1816
-32716
6802
-10803
-8805
2727
-561
-13855
12378
-30338
13220
-11185
23223
1450
-5480
21514
10376
-31080
7424
20224
-14379
-2890
5989
-25447
19275
-12186
32483
4299
10194
12606
2886
8760
13728
-20850
17552
-2149
7331
11187
3081
32621
26396
19413
18080
14738
-9835
-6973
15307
-10147
15458
5255
16849
-1596
-32351
5203
25166
2316
18596
26978
3326
28825
422
-6261
3239
23461
16883
28082
-9066
867
2121
-17330
11328
12466
-28934
15377
12605
28273
-16132
-3732
5485
13847
-2586
32664
-17119
-4049
-9984
7834
-17385
-20820
-25988
19956
-19270
-2036
-349
-8426
4770
-5692
-22881
-2987
-30392
-12246
-270
15403
225
-13940
-77
-11276
-26045
-19882
-20411
-25425
-14856
-23713
-14816
-27046
-1777
-32718
-17425
1428
3766
-2651
11496
-26503
-13786
-29725
-6197
-3187
577
-2826
-516
-25971
23666
-22661
1007
17165
-21662
-1987
1894
-32712
11021
-1180
-4548
-3428
2983
14369
6188
-32150
32512
4079
-2610
-5838
8788
15768
2052
-5118
17426
-19697
23145
4226
20655
25436
28530
-16114
15884
6575
14259
-4843
7376
26876
24529
4340
24157
21238
23715
5771
8370
31679
24264
22020
10278
18704
-2435
-3641
15519
1323
3165
32613
5680
22599
9746
-14351
10866
852
21620
24621
-14248
3157
1403
-14119
13541
18802
5450
15679
-32535
3884
-15808
-1752
7847
10335
-12387
-16806
-16322
6743
-12831
-7542
6416
32132
1373
32738
-15898
878
-3615
-4052
-28455
-15778
-2891
-933
-21678
-24571
-8665
4106
-8555
-3230
-6085
-2425
-7255
-15864
-9827
18618
-30957
-10737
-17828
-11201
13405
-29899
-10239
1056
-10723
2670
-5549
-32293
18629
-16106
-26808
-731
-9929
910
-12742
-30187
4118
-22387
7411
12426
-2389
5194
28896
-15448
11272
-8943
-7042
-5985
-22541
-17358
15076
-29092
526
-21932
4321
3697
9044
8027
-1351
-17487
31242
9878
10875
-12125
22118
20215
10762
-30948
8781
-3959
-10635
10653
11548
12893
26505
-19265
15263
-510
-13587
2126
11880
15204
32719
-1758
3753
3454
11723
-8506
5805
30187
12312
15544
-2981
-1174
-25676
20356
17983
-16780
-4349
28099
-9843
-165
14354
29455
113
16321
5192
22914
-8861
31546
-29523
-2368
-10783
708
3435
3573
-5829
8499
-32668
-2534
-8357
-882
-16442
20814
-32715
1836
6769
-21274
10898
6738
-12994
30080
-24939
8940
-697
-24360
-19479
-14204
-25795
-20205
-18228
8836
-16220
-18466
-556
670
-12124
-14933
-4614
-32440
-12020
-2735
6208
1660
-17668
-27595
-4914
-6637
-3466
-6079
4748
6193
-3028
-32626
-1704
-12933
-3374
4723
-8999
386
-20877
-25254
16970
-1833
14889
-705
6077
6727
-13261
-29963
15643
-15897
-6042
2755
28828
293
26124
-19779
14650
-15149
6452
3530
-3013
11101
23489
-22845
30799
-10277
-401
4023
5462
26459
24332
-9987
19541
-15069
7802
1772
14396
29434
31920
-7399
-3356
-10053
-2998
16176
20880
9640
16140
12171
7836
-285
22027
13928
786
32757
13799
-3275
-10119
15010
-26963
18617
-1086
4138
19541
26301
-12338
-15939
-19632
-2211
18099
10368
-2206
14503
-31904
-7467
-25300
16640
1242
-7523
-2655
21751
-19700
-26182
-13166
17263
-2367
-16192
-21376
24834
-24426
-5330
-1998
-12244
6801
-12091
-29291
14685
-9773
-17950
6939
-1759
-13390
7971
-21490
-2666
-30437
-12135
-4496
5100
-9140
-29616
-7829
-10539
-13539
-29839
-17694
-5168
8677
-25873
-10497
-16661
-6929
-32025
1228
15125
-2679
-10065
-18925
-26748
4892
-23545
13137
7466
8419
-7308
-236
-32766
5221
4260
7754
-1348
-2665
13740
766
-29880
-9961
1827
27058
18480
6328
-23134
22229
-24073
5184
7487
25752
15930
-21752
20573
24153
-22142
17188
16426
6405
5559
-4613
17690
32432
4667
23759
-5012
3650
272
11975
19760
30900
10900
-10143
8141
22454
16236
-13382
15019
16848
20491
18566
26999
-14770
-3613
12857
20072
-187
10816
-10788
4523
9482
16064
4099
32509
3951
20943
-30105
12934
-10430
-20272
18602
10887
4542
8957
-31806
7873
507
10135
-23596
-7090
-2220
24599
-18539
-24761
-2578
23524
-32602
-3282
-951
2339
-29170
-14925
-28407
-15527
-6837
-21376
-32335
-5302
-12155
-8229
-12510
1489
-9810
-12645
-32724
-1665
9218
-23053
-12833
-11750
5276
-14195
-8593
-31619
3238
-14058
5477
-4066
-3205
23363
-1309
-32740
-3791
-30991
15904
4693
-9569
-1131
-7705
-31848
14386
-8233
-2646
4189
2626
-6133
-4460
-32462
1119
1055
4876
2922
8247
12259
1588
-32728
-299
1464
3067
-1286
20629
8812
15391
-7657
19743
17897
2786
-17957
32552
-3742
19928
15558
32742
-1253
13027
-375
13619
16624
27427
17928
26121
6601
7450
19122
-19070
14787
-5863
32238
1953
18235
4509
21316
1024
-13697
22670
23658
-18258
-13672
2648
19649
-1521
3457
24213
22076
4184
-3113
-18152
-2897
-9561
10435
-11959
27932
-27205
18263
-2642
-2371
-2252
-13550
-24478
-5751
-32336
5292
-6750
3560
5704
5698
-398
11106
-32400
4884
-6021
-17523
-17122
-13500
-10383
7396
-19374
-26425
-881
10028
-12840
-10415
-24006
-2464
-23022
-23315
2714
4613
-13278
-18717
-30875
-10970
-721
-318
2947
-1193
-2796
-10735
-14391
-27855
6825
-32048
16160
-4347
9165
18127
4457
-32462
-11434
-15683
6533
-3907
5808
1701
4044
-32516
15884
-23301
9350
13796
3158
-1518
13649
-29788
16873
-2554
-657
10166
-7334
10859
21374
-24835
19217
3312
-4660
-1789
5146
11196
31200
10010
25519
9898
-7610
8075
10773
-18354
29344
-14579
-13457
2735
4658
-10025
10581
14448
22103
-6241
17935
17731
-3255
-77
-2729
32653
8451
22752
-16245
-2224
3456
-5764
32515
4051
13929
29658
-26143
2371
-3357
13889
-7139
-6622
-17879
7739
-23796
22525
-6033
-12705
16065
18468
-3517
31085
-32766
102
-14386
-15224
1726
-10762
-3157
-3655
-32207
-6029
-17973
-4948
-5153
-6400
-31782
-7972
-25303
8954
8918
3780
926
671
-17532
-25654
-27498
-17818
-1409
9998
-538
3471
1486
-11471
-7235
-31958
-10328
20812
-26638
-15192
-14369
-29448
-30400
-1662
10351
-1001
2747
-5784
-15189
-29033
12785
-17490
8009
10077
-4288
-2602
-3597
-32568
10161
-2459
-8968
-708
6057
6397
10327
-31096
13925
877
-4135
1636
-3849
12711
10126
-31162
7107
2811
-1563
715
10229
12516
23915
12823
23866
-12947
26991
18578
14063
5675
32542
-3833
23427
-8845
-5897
-5273
16448
21266
27105
-2212
-3961
-20399
8048
31763
9041
27099
-275
4028
10999
18637
-912
6589
13944
29651
21371
24838
-9204
-2560
20297
-4794
765
28987
-14146
29556
-3201
25000
-19323
-21020
22811
-3813
-14351
29456
-21986
5633
-23084
2961
2615
-24340
-12183
30417
-4420
-14492
-22015
136
7060
-25523
-20761
9945
-25533
-20535
-670
7240
9230
-13244
-15415
16672
-2168
-32695
-1491
2635
-4203
-7474
-2335
-23593
4381
-32472
-15907
-10186
87
11880
-22614
-23712
-2079
-30587
-4803
23798
-11152
-10605
10151
-3140
3881
-32536
11715
10779
-21123
-9639
2372
-32680
2442
-25823
12772
5822
3909
3382
-626
-20953
23326
-23011
-4040
9978
12848
8655
11422
-30711
5749
-455
-14996
515
11581
-5160
13877
-29683
20832
-6511
-4545
12296
14605
16662
15023
-7856
28556
-3046
-2939
4451
26925
18672
7282
-19935
7482
4101
-8266
21054
22724
23606
31910
3305
3160
-12920
-15726
28746
862
12287
1332
32739
-8067
8556
5844
-2494
19774
1021
-16124
4193
-30964
10719
8789
21485
1669
8065
3115
32618
5655
-5429
-10947
-4069
-2465
2996
-23598
22733
-10345
-230
-18264
14433
-15037
-19375
-16416
-5023
-32369
-5086
818
5212
-755
-7196
-24665
-8125
-11565
411
-15201
-29027
15543
-6847
-11350
1496
-5213
-32349
5261
-2316
-2250
-4914
-16047
-28568
-14610
-5068
810
-891
2883
84
-7207
-31964
-833
-10872
-5650
-344
4572
3528
16338
-28403
4990
-22993
-4853
-513
-633
4948
-6300
-11610
21755
-17777
20765
25347
-5066
10987
21968
-24311
12798
-12880
7343
10798
-447
10888
16330
-28407
11133
6962
1807
9914
-4521
18392
32613
-3171
3050
-5192
3555
3682
189
5850
17709
-6330
-2451
4295
5225
32347
-5936
13336
3828
-2816
1605
21973
8872
2388
9880
31241
23860
11713
-18182
7662
16973
12974
-16225
28467
-4193
32497
-10686
-6864
-7031
4694
17298
-145
-10533
31027
-1259
8768
-19611
32
-4135
3088
-27735
17447
-8176
3116
-20019
2499
2066
-5245
-26017
19918
-23357
-22245
-20997
-7662
10929
-18877
-29244
4352
-25581
-20476
15
2258
18202
-14236
-23553
-13538
-30700
-11452
-859
12805
-6612
-19234
-2358
-8822
-10049
-31187
-857
1691
360
-9583
-4333
-18297
17157
-18880
-9426
-31381
20873
-1047
7882
-31804
-3430
23
744
-9812
-2877
7189
17881
-27457
609
-2690
5230
-2107
-9878
4667
8097
-13851
27169
-18317
5152
-30
16352
14753
13864
-29689
-1783
-4496
-347
9548
8389
9592
32627
3021
21655
7381
9151
-722
-6819
10878
32657
-2679
990
25578
5910
1378
1342
9201
32509
4101
14425
15950
-16406
1664
-8397
9119
1460
4510
3800
2309
-30332
12393
26308
7979
4657
32434
-6486
10115
-6287
-17293
16747
-8104
2287
22319
-25766
20243
-9454
-15252
1545
-12552
-10964
19200
-16626
-3394
-31329
-9598
10709
-14156
-7504
-2739
-27911
17163
-4607
-3234
-16790
-7019
-24166
-3614
-32511
-4080
-19023
7913
-10273
-25121
-11038
3984
-13068
-22447
-6235
-4147
-28783
-15659
-26729
-18953
-5819
2597
-2238
-2112
-1699
-3868
-8465
-31654
-15652
-7023
-2006
-2956
-6695
-10804
-3919
-28401
9383
-29726
-31709
8255
9661
-25417
-9065
-31487
5687
-19140
3825
5773
18513
2413
6608
-7737
29294
-14679
-8327
11009
-1067
-1944
1546
-11074
14432
-12918
11530
30671
-3959
6848
22295
-7525
25352
-20759
-9862
5907
14318
9238
28916
15411
19179
-15166
5490
12169
21128
4791
8368
5784
-8605
14130
23817
22503
-40
18520
29275
14718
4219
1643
-4453
4187
9050
22612
8229
17200
-8189
3446
3651
-12764
22207
24093
-21365
24100
-25551
20513
12661
16296
-3125
8953
9071
31486
-16522
-11268
3110
-15442
3426
5023
1977
13151
-25724
-2993
-28753
-15714
-7316
-14733
-27068
821
-18917
26754
-474
-15208
-18524
853
-2040
-4885
-17983
-27391
-16579
4614
-16383
-11997
-28791
-15644
271
-20478
-12157
8992
-5072
-6287
-4506
-31341
-11076
-30838
-13705
2078
-2200
-9590
-26469
-19313
9710
-27084
-2058
6984
23831
403
-10368
-31083
-4453
-17561
-5326
14103
12129
574
2536
-32668
10010
-13658
7932
11771
9464
-12907
20228
-9286
19713
-26173
17559
13841
20918
-13997
15943
-10665
32211
6007
4002
11954
2566
8021
32747
1142
29674
-2097
10849
28862
16733
11618
32583
3465
2325
2633
5671
8956
-5902
11474
22919
23417
23126
-18116
7454
16619
-4314
23015
4859
32404
1904
29365
8735
-20196
10459
8769
20456
25597
-24481
-5962
-13988
5196
2272
12228
11362
20316
-23148
12263
-31668
8411
-27646
-8078
-1104
-4396
-32606
-3240
-783
1971
-4762
4544
-29977
8169
-29964
-13259
-28332
-11979
-3969
1105
-17086
27959
-6526
-15299
-8078
-26575
-7520
-16855
-26610
579
-28528
-16118
5161
5150
8651
-21414
-10382
-30214
9502
-31358
-15406
-15953
4550
9267
-1556
-31131
-21898
-24375
810
6182
-8004
-16406
10024
-18003
19095
-26627
-14794
1846
-4369
-10386
3481
-31294
32467
-4421
-6986
3790
-6342
15479
15292
-28979
6868
-9510
10442
5342
-4426
23014
-1704
-25594
969
-2936
3337
1243
32217
5975
31578
-8745
29827
6265
-4545
899
8730
9502
31664
-8428
-8146
14388
17090
5874
-21
19195
8125
-5786
-18746
26874
695
19904
943
1060
15645
28790
-2963
-4934
-12836
27620
12641
6271
8841
31551
-29075
11614
-2066
-15288
20644
-5572
4963
11879
-31209
-9982
-6090
8932
1353
3359
-10685
30975
-21705
-13576
2996
10758
-308
-10500
-15741
28738
-26905
-5540
10900
-6383
-3800
-7107
-3929
-459
-23524
-22809
-31904
-2283
-9628
-22423
-32745
1179
-23212
-5045
23852
3192
-8921
2473
-30693
11469
-3028
431
19289
2256
-4784
-11438
-2325
-9790
-2875
-32640
-4712
7876
1143
-12680
2478
-32673
1477
-25761
-15260
16799
-7691
-7393
-1034
-32750
3979
5908
17747
1426
-10062
20008
13167
-30005
27960
-7097
5508
-7372
8276
15051
10421
-27671
17583
-7773
15407
6085
7257
31953
6840
-21575
11528
2353
17716
7643
8183
31728
21353
-24853
6970
22986
2195
18151
5486
19030
32632
2967
13190
19856
3638
1760
-1465
23261
12960
7573
-60
32766
-3501
-24909
11735
7832
-20560
25513
1156
8102
2880
11390
21081
9689
-13263
29962
-4269
15237
-3910
6261
1114
-4585
-12462
25825
-20592
25487
-3921
-25529
6272
11890
-23359
16911
-17019
28000
-25457
-8296
-4074
-31347
-22252
19109
-31837
-7749
-1965
-2063
-6718
-19373
-32206
-6036
-24327
-16185
-14878
6580
15201
-21580
-23857
-22460
-15441
-8270
-5301
-2625
4234
-1912
-28613
-15967
-8542
708
-3600
-1208
-10495
-26470
-17356
-27792
8171
-18079
-13673
-2046
16599
-3508
5341
-21137
27816
-17317
5168
-18010
7305
13113
12037
-30475
-1822
-8788
7113
-3009
5100
-1535
-13491
-7490
31590
-8699
-4902
8920
29339
-9984
15883
-15522
26893
18718
7883
-2744
-5089
18883
14094
-22070
-5374
8867
23984
18876
27570
17706
-1029
15640
25047
5288
17678
4148
22010
24273
15079
17378
6176
20646
16968
-17815
17058
27976
11215
30787
-1489
-9096
6747
14243
1399
1201
-8966
29902
-2774
32649
-17480
11530
-10936
-3630
-19279
26495
-6254
5550
-12737
-6
13863
10963
-9886
23064
-32479
-4332
-5874
-4435
7834
-18775
-21377
-7109
-31608
8634
-13659
7122
-14021
-10382
-28033
-519
-19069
-19975
-23606
21746
-23703
-22623
-19995
-25958
-21159
-9764
-15481
3417
-6981
-7561
568
-30064
11198
-30794
-13391
-20945
-7697
12540
-10159
-31152
-10083
-18159
5399
-17212
11762
-2392
-6851
-32042
7505
-12617
-3348
5696
3112
11803
-4125
-32506
7351
-5325
-14303
4603
9208
-2775
15201
-29027
-2513
-242
11634
-490
-5218
17441
23561
-18510
32716
-1817
-403
-15356
17890
17057
28550
-16078
27330
-17439
3647
15244
11682
25171
27102
11751
26523
-19240
-14933
4563
21124
1408
32169
6230
-12830
-18822
19298
26303
15959
28036
16857
9996
-7343
23728
-1701
-10019
21658
24588
21390
24822
-10157
14244
-7298
-8808
-5486
-1058
349
18365
-26381
-19433
-10147
10492
14514
-11868
-11067
12370
-32659
-2650
-14825
126
7469
-11098
-15541
9438
-32760
641
5426
6012
-3971
-12555
-13343
5110
-23156
-23183
-7256
6511
5010
-13402
-30341
9232
-28285
-16541
12932
-11527
4723
-12376
-25749
-20264
-15688
-8078
-4326
11294
-4420
-9446
-5821
-31395
-14134
-29561
8996
2210
-16004
-3839
2830
-22038
7251
-31954
2327
14999
-16427
-8872
-5331
-32330
-2566
-1741
23
2283
5060
2239
-300
-32765
13424
-26837
1362
19386
11583
12851
-730
-32758
13909
10106
11394
2518
13020
19088
26774
-18889
19995
13230
11701
7931
-277
12604
32017
-6967
-5827
-5509
5588
15404
-15555
4541
6342
994
6733
24129
19505
-5420
13733
29750
3821
536
-1895
7368
3414
-10283
24741
21483
-2118
30081
-6127
20959
6346
2873
18333
27158
-3530
32576
-13642
3209
302
5519
1225
-8201
-1348
32739
-18443
11278
-23569
-8210
-5260
-7047
-10370
3229
-32581
3479
-23813
12699
-20745
-16335
-15894
7263
-28000
4232
-17134
5627
-9557
-31342
-24458
-15209
-15446
-376
-32040
-6860
-9851
-20229
1553
-2820
-7296
-15652
-7920
-11198
-28651
-15897
-13349
-29924
-4142
2209
-2442
1169
-7319
9217
-15252
-6261
611
-16178
5443
24294
-21463
-24758
6046
-32204
-11416
-3861
14406
8353
-14854
11732
7859
-31810
15088
-3877
8343
-1260
-3495
21158
-4023
-5712
29764
13701
6786
-10798
9668
10527
27618
-17632
7101
-6929
15663
14230
-6367
13126
2026
1381
16064
24193
27144
18352
-13941
16443
31407
9339
20056
-8651
-11312
5829
-1253
2383
17794
27514
11147
16932
3059
2619
-1645
1755
22186
24113
-3198
19723
-31
-9432
3033
14387
-12821
30154
-576
12693
-714
8728
2529
-7376
-4696
8482
-29790
13645
2803
3510
-6054
1224
-20570
12650
-31585
8720
-12429
-8307
10689
-10745
-3521
32577
-19478
-16366
3204
-8431
-2573
-13882
-12237
8416
-18095
6431
-18533
-8603
-19116
-26612
-17205
-8863
-14569
-29349
-16648
2785
3077
-15361
-16695
-28194
-22354
-14123
-7813
1712
-9663
-17581
-12445
-30311
-8658
-14196
959
13193
-5805
1911
-4508
-32455
7519
-6786
-12888
7866
-7567
-3817
3885
-25171
30306
12457
7720
-16006
-6022
15272
-8337
-31688
16011
6221
6692
651
15449
6983
22018
-18879
-1993
-5668
27326
18080
-3039
5003
-69
-21603
13773
14208
5927
32226
3190
7564
17770
-3435
-9734
8185
29797
-224
23481
22853
-883
9645
-14011
11247
-3231
3833
29538
-14183
7262
6230
-12753
25248
-1043
15419
17672
27592
15327
11447
-13408
29897
-19080
-7160
191
8775
6310
32153
-13505
-5788
-4026
3896
-311
16683
7105
31987
-24686
-14453
-16360
-4952
3068
-22462
-12158
15752
-31815
-7840
13320
-3087
309
1889
-4510
-918
-27260
-18181
-15877
-2859
6840
-17509
-1328
-2354
-22187
-24112
-12047
4717
-9444
-18009
-22533
-19812
-15329
-16396
-20586
17959
-18530
-27024
-8352
-31684
-16688
-18594
-2517
10918
-4960
-404
1651
-32725
-1871
-11822
-5310
-3316
1408
6979
-660
-32760
3941
-17801
-667
11568
1894
15246
-8776
-31569
4895
-2388
9435
17242
2031
6617
29098
-15065
29160
-14144
2605
5938
4894
-1239
15821
-8168
32737
1391
-23127
-15694
28849
-4533
32113
6509
26443
10011
-3485
-321
-1852
3455
32766
246
1297
1094
-14529
-2012
10648
-1635
24382
21889
-11719
17202
4060
-13012
6063
-6143
10031
8130
-27590
17676
2288
4286
-6851
-9453
13084
16549
-26800
18852
-1649
-13413
1341
7333
5910
23336
-31935
-7334
-25215
20884
-19386
-19156
-13845
24640
-30217
-12671
-3545
752
-7979
10628
-24009
22298
-24512
-5861
-7034
9417
-5020
-28658
-31286
-9738
-27532
-5032
10884
1855
11097
3859
-25659
-20377
-10957
-18125
-8996
3535
14521
1276
-17932
-27424
-16142
-15216
15509
3428
-14551
6299
-13718
-29757
-13340
-4416
23061
8220
-13787
9076
-15359
-28944
9516
-4104
-1144
8086
856
-930
3396
-32590
20083
7866
-2661
-7488
-2505
14264
-22385
-20271
11418
7569
22652
-519
29698
13844
20945
-25198
28374
-11730
3046
2164
15060
28052
7274
-13358
30239
6944
15427
28908
17914
23097
30234
12631
10599
8863
14240
-6971
-2459
12533
32430
4686
870
5624
11537
-6230
-2328
25843
22019
24265
-7618
2984
2634
-2099
-2381
-3712
8117
31745
-18605
21943
6339
-11426
1138
-951
179
29973
-31366
-9477
-17475
11671
2489
-3242
7698
10716
-21134
-25039
-14614
3494
2806
-6891
-31574
6386
3265
-27061
-32752
981
9563
12863
156
5939
-27772
-17389
2589
-4430
-3223
-9565
-21625
-6243
-1158
-22307
-31890
7529
1426
-23424
2377
-27083
-19808
-26101
-9760
7652
-13523
-7364
-7464
-31905
-10294
4360
-6891
-5658
-4609
-4311
-12162
-30426
-9760
-21320
4905
25839
-7405
-11624
13678
-20527
-2803
-32646
5367
2287
8895
-793
1876
-14100
32620
-3092
20264
1567
8731
2847
1513
-32732
12518
3834
-5567
8167
10851
11709
21676
-15755
25674
20359
10086
18387
17980
-663
28894
1720
17523
1983
6599
-13086
24462
21800
25622
1493
-9800
18330
25985
9652
6789
32055
26701
18991
7286
-11137
-4110
-1883
9692
14487
-1212
27281
-23532
22801
21646
-9524
9391
5486
-7592
2590
-32765
330
-68
-1800
19996
4444
-5192
-10715
-30899
10904
-2207
-7518
-230
24606
-27289
18136
-16960
3850
-13402
2183
1884
-14350
-32613
-3166
-17311
-5997
-5873
14428
1371
-3176
-30093
9690
-32551
-3755
-4169
-18044
6338
-31538
-24069
-18420
-19709
-24953
-23277
-16724
23776
-22546
-29723
-13791
-13345
-14579
10104
6138
639
-14766
-5266
-32341
7606
-23763
-1713
15122
-20200
-14470
3280
-32602
9482
-11548
4333
14333
-14676
14133
12549
-30268
17744
-6999
-13673
-1426
3307
-1323
-5553
-14055
13967
-895
22129
24165
-4798
12501
4943
-32391
1035
-12554
9443
23041
20512
20098
9290
7470
32602
-3274
-14164
12141
20499
-4166
4125
-12706
-12709
14437
11945
-6222
25718
20304
-2144
27601
22995
14970
-3894
32534
14632
19653
-4010
32520
-12383
13783
-6004
10355
23733
-606
-62
22490
-23088
17025
24969
18995
-23414
22922
-6189
13290
-32170
6224
-12252
-11067
14553
-9488
-17796
23058
-32696
2155
11085
4433
-3790
-8730
-15006
12918
-7758
-17623
-32169
-6227
-674
-12191
-28564
-16054
-25778
1272
-26433
-5778
-3143
-16685
-30181
-12757
-8469
-6548
-696
5549
10056
424
-19948
-25994
-4068
-19339
-3026
18269
-11778
-219
-12065
-30464
-16603
-17076
-1927
9281
3555
-9823
-11521
-30674
-3135
-30264
225
23207
6015
-8434
1084
-32749
2777
-3365
-1414
2965
3060
13502
-11848
-30549
8129
-8017
3702
22809
12945
4747
