1651 9 80595b40 0 2710 7
-23385
1405
10617
12131
-12585
30253
-3910
1070
3083
15760
28671
13469
16891
-16272
18886
26776
7734
22177
27818
17314
-387
651
-8255
-3846
26467
19316
23673
18498
26501
-13276
-19077
23630
31864
7637
14978
-16106
-6378
31709
-15847
5023
19791
6941
24544
-6927
-23598
-22733
19886
1282
24776
21443
21642
-12191
-26856
-12123
15928
-15696
22355
20831
31281
9753
-10527
-18502
-4363
6414
-9177
-10916
-2577
10582
16553
15093
2994
32629
1308
18090
22356
21798
-3823
-32543
15092
8887
12868
28140
347
3935
-20364
16103
18708
-26901
10048
2947
3335
16690
-9986
12727
-31589
-8703
21813
24450
7909
7432
-18290
-3935
-4011
-18358
24235
17893
16284
1528
-21280
6628
-27237
-18215
-7920
17348
721
16434
-9199
31448
-7054
-5233
-4851
25527
17271
27845
20292
-19304
-2857
21185
11584
3418
379
7456
-18786
24005
-29480
-14303
-21876
-2369
-4817
32410
15726
9842
-13619
24243
-8410
27359
2846
32643
-3850
-9026
-3115
-9816
8086
28802
-7540
13846
1560
30559
-31167
-10113
-19012
26687
-9133
31185
-5482
9050
-7041
-9565
10301
31105
12993
21926
-21494
-17788
-7129
-26018
-5202
26916
12427
30318
12246
-8555
-16263
3475
17348
896
19211
-2499
-21414
-24801
-1565
24386
4553
14617
29020
9753
-16750
5773
-27352
18041
1040
827
-5632
16587
7567
3204
-29233
14801
14622
29323
31819
435
-5046
-20200
-19941
18321
15221
15528
4806
16046
8140
-29691
-27346
18050
-5727
12409
17662
19256
11594
-9357
-24231
22056
10537
18459
32100
6577
-1935
-29726
-3038
16958
3105
-4579
5942
-6510
-21144
-25031
1478
17846
-15577
1905
-17883
17930
15167
21162
-32050
-6816
-12034
15965
-10354
14413
-650
2766
-15845
-28680
24057
-22246
-4554
-20022
-24594
12298
-32587
2209
-7050
651
12819
8315
15973
-9527
-12513
30283
-1949
-665
12303
9446
14661
-16729
-14306
29478
18998
-10372
11427
-1132
-21991
-21220
-31554
8832
-108
16080
17623
14955
13454
-29877
-9338
17728
18165
-14267
26599
-9311
-19587
-26045
-16910
28066
2686
6010
-2905
8005
-247
4999
-26048
-19878
4166
13053
18799
14666
12034
-16902
-30673
11525
-16979
-6167
6462
8654
22839
-19343
6118
32190
7781
817
19099
-6293
-962
-32752
2797
4212
-19886
-2815
8988
-11381
16448
-4687
21064
25099
-6901
9905
1257
-6017
4862
8819
-20849
-25278
569
-4165
-7487
5025
4299
11502
-30822
-11119
17606
11282
6817
7315
13114
-9156
-30454
-12090
24269
22015
19112
-4111
-179
-28845
-11518
-27058
17531
22801
29906
10103
-12466
-30302
-16444
-28110
-7730
-11759
27814
-8810
-12659
-30222
15632
14570
3039
17632
3310
6553
23692
-6041
-8500
-31645
15183
29036
25363
-9553
15855
-25033
3225
-13944
-3958
-7872
-3111
20156
32583
3465
-27401
15285
-991
32752
28520
11978
19065
-26299
7876
-8942
-2458
14079
4775
23476
28147
-16774
-8386
-3503
22605
11040
32339
5272
18119
-20083
-16389
10960
4660
27034
5853
3649
31762
8052
-10407
-22043
3967
-1333
-5409
-3096
474
29402
-20129
-25854
-9111
29569
18237
4487
27101
-2989
22378
-23934
-10554
-7724
28955
1875
-10020
-7306
32741
-1281
18880
22048
22248
-24055
11028
7857
7580
-15864
19880
26046
19592
9320
29352
-1504
-12322
-10045
-18769
17582
31107
10297
12143
13333
24742
-13544
19176
-4946
-9
-20173
-1990
32706
-11366
-10485
15284
8561
32651
2745
20011
-10088
-2624
22802
-3557
13956
21413
24801
12593
-3624
1966
-6248
18875
7073
24953
-21236
-11481
1066
11401
3732
21704
-4178
10167
-6973
14729
22111
-28400
16343
32294
5546
16879
-22120
-4069
9264
-8266
-4338
14644
-23404
17966
-27184
-6698
20283
12599
30247
21680
24568
18142
-16912
-8032
-6419
16378
-17530
12667
23306
7281
17123
6386
21521
-13800
-29719
7238
7806
7571
17835
11187
27567
-32750
-1027
5215
23298
29523
14213
-5697
-31078
13393
-727
232
25594
26782
18877
21258
-4545
2590
14628
13807
12865
32357
-5164
-376
-12740
12814
21970
1697
27043
6484
15423
-8253
1971
15884
-28659
296
4330
7389
-10693
-15192
495
32262
5729
26819
18405
29651
-13945
-12378
-14272
402
5569
27401
17967
19785
7631
-12562
12955
-26083
-8468
18133
1334
13266
-3707
-32337
5288
4148
4224
5763
31978
8631
1294
-18677
21806
-7199
-31966
-874
7607
10893
30768
22694
-14034
-12596
30249
1388
32737
17900
-222
-29289
12952
6006
-29603
-462
32763
6389
30427
-1638
-4507
-15278
-26615
-14409
29428
20199
21243
-19789
-13725
25414
-1696
25617
19719
15635
12793
6422
-7325
-31587
8711
15134
2915
21868
2847
-12163
10007
-29862
13487
-5007
26357
11067
10241
-19635
-17652
22763
-23569
25198
9383
1201
16703
-90
-8053
-32758
-737
7103
16317
22853
4812
-20473
-25583
12532
6299
32024
6933
18678
-17951
-30464
7710
-23785
-2556
-3341
13660
-4479
502
-30162
-12802
19917
-19078
17116
8698
8470
-12510
-32311
-5443
-1994
-9840
8944
12054
17998
670
-24827
-21384
8898
-3311
11969
30502
13546
2341
-16379
-4462
-12857
-23041
6740
32066
8710
25567
-1820
-24588
-15657
-16724
-5057
24239
14474
13820
-15681
-28770
6828
-5190
-1852
32714
20173
11488
-15708
-6980
-5558
-24126
-17628
13202
-4416
-4023
8604
31616
-28600
15891
-5493
7426
8417
-5524
-15730
-28743
22993
5927
-522
9822
27179
-9087
573
-23120
5849
32240
6191
32176
11
1646
7522
-12992
-11032
-21440
4414
29167
21346
7240
-1660
-32724
1408
-850
16289
-1303
14195
-21011
-28511
-16148
-1040
-2132
2424
29336
7099
-7269
-17750
-24243
14039
-29607
1499
-5101
17477
6018
530
-32762
-8568
26746
31725
-8194
550
-23852
-10909
8509
-30521
-2537
10302
-999
14553
-14392
853
-32755
2269
24750
-1198
4338
22008
17886
8264
-31707
-14301
20557
-2216
3816
-5097
2930
5405
-32318
4511
-6760
13567
-2962
3897
-7613
5904
-32230
1682
10382
16331
8884
2969
-1240
1868
-9054
-27414
-17947
-7101
29540
31196
-1173
12039
-30474
10948
-5462
5498
23788
13345
6819
4208
-32495
-7986
-25444
27397
17973
16221
-11335
-682
-14762
-21931
-14464
8480
-3523
9489
4722
9535
1239
-32265
5710
11900
6388
12343
-14128
-19985
-12239
2708
-32654
14565
26287
13540
-7673
2455
-13307
-9384
-31394
-2294
8676
24879
-6403
-7271
-31950
28491
-1338
16005
8716
32372
5070
8132
-27981
-16017
18516
15724
16221
14878
3644
-10108
-13249
-9740
-31285
13903
12843
22637
11117
11120
-30822
-9361
-3097
7477
6150
-2332
15261
32639
-2883
-24223
-7127
24931
-908
24870
-21334
-12550
-3399
-5817
1049
18297
16731
32171
6216
9810
-8292
-24481
-10785
18457
5536
23758
-22566
-4414
-11157
11324
4723
6835
12002
17565
-2217
20838
-25287
17395
16211
16835
-1174
32682
2353
12353
-15588
-9608
19122
19551
-15925
3492
1126
16484
23282
-32575
3537
21084
13805
32051
-6809
-11848
-17387
2233
-4127
19108
26618
19801
-7246
27193
-9372
-1462
-10502
14529
444
2829
-9454
18791
26843
-5574
-13912
5439
-14592
5462
-3564
22536
5483
-7205
31964
-5805
-17728
-10088
-3421
21741
24514
-1475
15179
14585
23938
12786
11550
1781
-5315
-2179
-32694
-747
12373
1801
-11081
-6346
7035
19145
-26592
11703
21966
32387
4969
2851
-10391
5006
833
9632
14106
19932
26007
-469
-25383
10349
-7665
32365
-5114
13465
-78
-6891
-10265
13062
1957
5216
-9746
13819
-13733
-11936
-6150
27738
17443
15056
12310
32706
1984
-8185
-15023
2304
9534
21533
2456
22460
-721
12122
-17510
69
32766
10171
24928
15970
21247
6502
13697
-20915
-25223
-20597
24303
18188
12240
-3712
32556
20921
-17495
31221
9943
13832
8157
7067
4084
-31101
2142
23748
22576
27049
8331
-11357
1366
-16721
-11972
-22506
23814
18240
24490
2097
5929
18598
-2897
3842
32540
22451
650
369
-5231
15816
-7784
26606
19124
11991
-5267
-5882
-19881
14761
-627
2573
15093
32433
4662
-7372
6962
4498
22060
1705
32722
24894
5104
-4940
-16052
22873
-1604
4110
32508
22632
17383
-9489
12494
-6622
-2828
5800
-7849
4325
-256
11958
7162
-11116
30823
-10745
6056
-4454
16151
16263
28446
-8472
23635
-13570
12542
840
2226
-25583
8124
32746
-1171
13756
13718
23502
2907
-24045
-22259
12291
11308
15799
19424
30950
10757
-19691
-22842
-4636
10616
-840
-14787
-2009
4683
2393
-80
-4563
32447
5577
5899
-10585
10545
-5165
29650
-30470
-12052
17430
13080
21769
2813
-22987
-23351
-1955
7202
10814
8848
3837
-4901
-32140
6375
-8518
-24141
22812
23521
27259
11532
-15969
-23032
-22134
6906
10366
16975
13610
-7792
-32620
3096
-17827
-8234
-15718
28750
-4670
12926
5358
-16460
21432
-6159
-1989
23340
14756
1800
-24662
-21573
18284
-20690
4850
-8872
-5502
2716
4157
16445
-31261
9817
-3319
19063
-2187
17385
7629
11151
-31418
-9302
20476
-21621
-5043
-21389
-6311
1365
-14742
29263
21576
531
12857
-21086
-6812
-3770
-25550
20514
-14703
9431
4014
9622
-21122
-25050
19446
-8457
-974
-5202
6042
-9565
-10312
-31094
23078
23260
20261
22073
8238
-2133
-17660
-12797
-17988
-27387
16757
-8881
9986
-14201
2548
-22060
-7060
31997
15366
28940
13240
-443
-15338
-24015
-10699
-25612
10078
-1052
11554
3290
10495
-4327
-27476
17853
25359
-359
12308
-7899
-31586
-8714
-26735
-17899
6122
30381
22284
6564
-7759
-31835
-3693
-18646
31546
8860
18485
-9615
-24777
-17784
-21312
-14770
30849
11043
29901
-6229
-14668
-24728
-28572
4081
-1123
11010
28547
-16083
-18192
-14326
-1936
-14198
9344
6287
22406
-23908
-9077
-25139
10990
6233
9750
-12377
3448
-32585
-24108
9052
-11816
-25084
6673
-1385
-14563
-3174
11880
9203
-27164
-18323
-876
6216
14870
10129
6202
-32174
5249
9239
16173
-19992
13371
-9445
-9908
-31233
-15601
5295
15898
5962
21041
7841
8022
-31769
-10761
11291
20238
2311
18512
645
-6139
-2963
-32578
-3511
-52
3836
13956
1982
32763
-475
-26715
8950
22021
10423
15766
-24096
-17030
-13251
9240
-31437
10218
18536
2064
10594
12450
-11641
-19986
-25965
13730
-2181
28088
-16873
-7681
-4854
-4412
14861
11870
-9122
15434
-12252
26426
-19373
9694
30561
19648
14798
14167
6730
809
-6357
-24929
-21264
11422
4200
32248
5804
-3808
-26623
-2330
-860
21199
-718
31102
-10309
-1279
3303
-22062
13437
32695
2161
18504
-8808
18387
-15429
-15690
8860
21426
11852
32760
-663
6726
2950
-25499
1277
7004
26413
9177
17359
29511
-14239
-10012
-17070
29563
14130
13665
13092
22861
-17866
-27427
-3800
24925
21269
17959
-10010
1583
-9579
-5814
-24944
32758
726
22595
-19345
3414
7798
-18821
5198
17178
7971
11464
-9123
-24698
7189
-4575
-32446
27953
-11
20768
-25344
25866
10683
4664
12292
26734
15782
19917
-26018
1796
10941
10569
-16152
-6064
20823
15757
28729
18299
-8651
1893
-8634
23561
15106
20317
10555
32766
-35
-29566
12471
28373
11431
11859
-20643
-25289
15237
-5232
-32346
11285
23703
29613
14026
24197
7979
-22230
11258
17545
9479
25937
-6341
22045
-15865
15710
28755
27681
12493
31674
-8390
-11033
-13190
1856
5363
1506
20060
19565
26284
27091
-6022
502
10811
32580
3488
24019
-4536
-6393
4447
-25330
9866
25765
18414
31905
7464
-3386
14281
-29708
-4778
20794
-25322
11490
-11057
-21930
20913
7022
31590
17623
4934
29199
-14867
-15722
-10551
19675
18439
-2640
-2823
988
21843
7178
31970
-22303
2264
10434
31061
28679
6273
-572
-23869
22736
6449
28758
-2194
9422
-30377
-31194
-10029
30274
1970
20400
25641
30045
9073
1304
-5891
-15553
3555
11467
7307
20390
17509
6221
5409
-26051
19874
18727
25754
26954
18631
790
-15374
-20072
3527
18825
26394
4650
24776
8844
4106
-31317
-9637
-1030
-2758
8764
-1768
-1618
-19115
21624
24618
20540
4839
7919
-5668
-27387
17989
-20037
-16418
19057
-3070
22273
-6599
-8483
-4399
-11454
30699
31723
8201
-172
-16381
-17380
7535
-17340
-8743
12299
29721
17872
27463
12837
-20546
-18729
9649
3143
32615
13380
9102
-5766
11087
-16143
-22321
15775
-8945
-449
3848
-2554
7192
-26653
19058
12846
5052
14531
15961
-10016
-13855
-18833
26813
20128
-10833
-4466
-4195
6803
1954
-25945
20012
17511
-1777
24760
-1625
-4267
-17258
-9519
31353
12243
18086
30492
8526
-19963
-25983
-2720
14532
19783
15567
20715
-1753
-12644
787
-31497
9031
585
-10683
9699
-13171
-32281
5619
1574
7923
14671
-5476
9713
-19599
-30995
10628
-14317
3819
21043
-1315
13881
-15191
-30873
-10978
-5501
1886
-17505
-2090
-4841
14520
17190
20529
-24658
21578
-1367
-783
4080
-18287
-10538
-27111
23296
23042
629
-5446
4247
-9549
12735
-4681
-6647
32085
-335
10586
8427
18333
26123
-4312
-26322
19513
11875
8484
20928
-7536
-20584
-25494
364
3744
7885
-6799
14920
7065
2904
-10415
-21796
24465
25391
-16093
-2145
-16520
-32741
1287
-25121
-8236
16358
-28391
-2961
-15197
-16018
-9727
-20199
24439
19846
9068
21670
-3708
-29638
-13972
-16969
-11395
8033
16901
19106
-9103
-9858
-31248
10916
-3254
5723
-21729
-6866
-26349
-24091
22210
-16486
-8758
-7913
8139
18628
9166
12154
-30429
6904
23717
10914
4809
-2859
6210
2919
-6482
-30396
-12236
13853
-8674
8336
3822
11172
-16990
-25193
20951
8341
-7755
5305
-9173
6850
8034
-32417
4770
31210
9980
16329
-10566
-13631
-12758
-22284
-13037
7379
-21879
8489
-6986
6208
-7908
-15011
29125
13111
-11609
-5917
-22156
-25661
11657
-6412
-32133
15330
-19810
6710
1239
8778
-9322
-30083
12986
9678
-6936
29551
-2116
5933
-24702
-8850
31549
882
23575
3872
7000
30231
-12637
-5723
-16432
3523
5800
20495
6273
8432
-31663
8209
10615
-32766
-120
1557
4501
25253
-301
21053
2438
17978
8235
32283
-5609
-8169
-20503
-5879
4527
2772
14636
5393
7305
3554
-10158
-2982
-32630
17959
8445
7800
-1022
30933
-10808
-17365
-5423
27379
18001
18221
-9187
21411
-21288
-6915
-7169
14356
29454
24874
124
3269
-20238
4399
-20734
24129
12458
32759
692
-3352
-10955
-17886
-8214
20235
-10131
12458
-20268
-32363
-5125
6455
-18874
28081
3077
9305
-24619
-14447
2346
3929
-32530
23556
-4866
22913
-16367
-31116
-10268
-137
-8278
32066
-6737
17632
-25825
-20013
-8874
-280
-1222
31421
-9294
17703
-26914
9504
20348
-15324
5347
32668
2536
11926
-18082
-1361
15717
-25337
-8359
10179
6178
-2224
-283
-7573
17566
-14456
-29405
17804
9734
30830
-11097
6697
-1859
4864
7168
2754
12312
32741
1292
22289
7999
5067
25430
29907
13388
10610
6728
-10125
-23061
-6215
-23713
14857
-29205
154
-12723
-9433
14287
239
16324
27556
-8664
32387
4972
-18924
-7491
-14672
8839
27284
-1493
24146
2772
2943
-4677
-23261
23077
28015
-11951
8547
-16708
-25576
20481
-5884
-7070
32099
-6580
10947
-8463
-17338
1128
-13683
-1942
8200
31724
27634
12693
25172
-10608
15147
8488
8772
10887
5105
-18320
-28375
7773
19898
-26033
3063
11681
15750
28733
26303
8413
-22172
17488
22510
8418
32738
-1364
-6083
-9168
-3570
21273
-21973
12075
700
13359
7850
31812
13681
-842
7131
8915
-6911
22228
-10932
24587
-16992
-28016
13151
-7037
19684
-25325
-9599
31329
-10372
25706
24236
-8226
12914
-17063
-26007
19932
-14682
4650
31715
8235
19922
-3392
-808
-513
-23362
14112
23297
10310
23385
-14667
-29529
14201
-7278
-6235
6943
-5449
17139
-1907
-7018
-3614
4007
32521
1873
7345
14104
-795
853
-18536
21969
24310
30799
11182
-517
4259
-13606
-17866
-6189
-11006
14658
156
-10507
-5711
-18374
27130
-22168
-23163
24355
9695
21948
-14152
-4508
19161
-30497
11983
9783
-7659
14181
-2783
-28362
-16408
9952
17781
2046
-2996
6723
7272
15816
429
-12303
30369
-3069
-14274
-13630
-13547
-24887
21314
3653
-927
22423
-3701
11368
-15615
-32560
-3671
-8401
-1817
-1879
-1346
18849
1139
-6775
-15433
10452
31055
2243
-13938
-15032
-2677
-23036
23301
-20646
-3733
26846
18787
15955
-12299
-16737
-2079
-17786
-8019
18274
6252
7564
5931
-7895
-1101
-31942
7303
12638
14294
29266
14736
-5955
-20111
-22460
14808
8838
-114
14190
5999
-4068
-16103
-13038
30061
25941
8939
3601
-1497
-30212
-4168
-24452
-21811
-248
13039
4722
8373
-31627
-8566
-6381
-26081
8427
-4654
10923
11075
397
-13849
-23943
22369
9039
11604
10092
-12296
-24448
-21816
12722
-6264
5634
7756
18576
-6057
-23396
-22940
11374
2317
-992
7911
12965
9520
17483
-27712
-11530
30464
5047
11401
6851
12007
10177
-1739
-32453
4518
-6292
8117
13616
1470
12092
-30454
6334
22392
16630
442
16860
-26893
-30256
-12578
-1572
-615
21992
1887
13079
-18062
-29841
-13533
-7572
-9553
10255
8116
9486
-25939
-30144
-12843
-13009
-14329
10166
8559
-4424
5716
-2949
-3929
-22548
-23775
18527
5754
29724
-10683
-14539
-29364
652
11747
31353
9519
27676
-11668
-21560
-17535
-28699
-8266
21474
-24748
1933
-31888
-5043
1135
-16731
16898
957
-12965
-15763
-46
17183
17192
-32224
5936
4226
-4776
7534
-24290
8366
-31173
22953
23384
13408
-10435
3359
3499
22176
-22958
-21554
24679
6636
-25777
7616
-2887
-5612
733
-30712
11421
18309
-12542
12038
-16475
2358
2580
-30112
12919
-16334
-4270
-3924
2461
14775
-4030
-21135
-25039
18457
-21011
-8605
-31616
-27204
13401
-2569
-17293
11065
15193
32418
-4767
17211
-15709
-15758
8979
6996
15128
-1063
-4860
-1357
-9822
5402
-32318
-3003
-14748
-14346
3316
29409
14447
-26210
8897
9040
-23522
6741
-7642
7485
5184
-20689
25409
31946
-7288
17881
-17563
-9972
-7267
-17677
5759
32316
5415
15189
-24073
-16537
-8639
-4989
-13320
11213
-27348
5540
-32295
-29535
7141
18855
-374
14915
49
6065
6402
15453
3662
-27022
-18532
7691
23850
24059
11302
25408
-20689
-3867
-1143
-844
-14206
278
-128
25043
21130
-19523
11755
27390
-9308
27756
-17413
-2752
-11736
-94
17543
-2859
5560
17423
-12892
-515
-13156
32718
1783
19640
-7180
27911
-17165
-22394
-14867
11290
7029
6795
-16761
9604
-4000
16463
-3006
-836
32756
32324
5367
27351
-11161
1656
-11224
-4120
7115
17206
-11553
-2471
5194
25658
20379
-29408
12010
22230
-24072
12394
-9374
-6483
2525
-12571
20845
22913
-23422
-580
-31429
-13862
-1088
26426
10820
25986
853
7821
-11866
-17578
24371
-23690
-22636
3856
8716
18565
8408
13978
-27860
31774
8005
13253
14259
32653
-1324
-23594
-22737
19579
-3831
-6175
13295
20036
11135
-6003
-6042
31462
-9153
27168
-5949
21215
-24971
-10913
1465
7003
15742
23230
6856
23342
-17634
-32741
-1303
15401
-14866
15352
28455
28715
-15782
-20543
3643
19397
-20769
27814
-448
26579
-12720
-994
-17708
6009
32211
5516
-1229
16598
9657
17256
238
-8539
31634
32502
-4034
19792
-25275
-29565
14127
-12384
4089
4901
-10342
-3172
-10592
-15932
28632
-4248
-2052
28268
-5614
20346
-8346
-1821
7698
-2195
32693
11486
1549
13367
-11646
-32376
5044
8799
-8656
21228
16343
29047
-15162
-10136
12805
-8812
12005
25883
-2793
27134
832
-9066
-21285
-12237
30396
31662
8434
15145
5142
2689
-9769
-25222
14240
18219
-23633
10318
-14716
-21024
10236
-10415
31067
23174
-20061
17921
-27431
-27688
6836
512
32191
8259
31709
10616
11600
15852
13741
-20127
8669
-3268
220
5059
-5084
-6626
-4714
24870
21333
3519
10642
15745
2283
1982
-32566
24588
21658
21280
11279
30870
10986
-15021
-17803
-12890
25381
20366
-5513
8306
-29444
-32754
894
13054
3717
2251
-798
23994
12624
-29869
-13472
-3300
19947
24454
-7383
11128
-7087
-32653
-2722
-18467
13067
12386
-5544
5028
-97
5350
6902
-26022
19913
1496
32732
3510
-8842
-13256
14072
-4354
-22442
10859
-30915
-198
-13773
-25253
-5925
904
28699
20378
8436
11800
-10620
-32717
1792
-12838
-19322
9194
9214
16450
-1299
-22533
-23789
11030
-3061
9836
-4041
20587
-18821
-30809
-11155
4484
15453
7690
6144
12837
10815
7089
-1533
-29933
13328
7002
16805
-7211
19255
1126
-7913
-29308
-14651
30458
-4232
18697
-15134
-13169
-27675
-18047
27348
-3226
-13745
-29016
-15221
-23721
10748
850
-24502
1535
-26309
-4727
-18875
2763
18576
-15380
28932
1151
-2539
6080
-2578
12953
-21302
-4623
32439
-15870
28666
7427
-12107
2980
-7083
15596
-11147
22041
-7300
19605
-16363
-20087
-25887
-7693
18201
23719
-13378
11677
-20077
-16509
-28303
6624
18255
-24892
-21165
-6130
-25308
-23044
-7072
31222
9940
2191
2128
10972
-1198
12112
-30446
7348
24392
-865
-6173
24951
87
-1417
-32736
-3025
29645
-736
-6619
19947
-22280
-5190
-26259
22703
23627
-2730
-5150
6597
20638
22680
-23649
-24508
17311
11185
-30798
-13871
-21521
603
3931
-21411
14445
3369
-18572
-12035
-4980
11637
3498
-32766
151
18206
-18731
-5900
-8193
10867
-6758
-32025
-6931
24705
4782
22116
-24177
-14681
-781
-12376
-7525
-2518
-21432
-4486
-4093
8727
20231
-32766
-215
-4762
-25441
-860
-6146
21983
-731
-9577
31336
6634
5435
28857
-15521
-7331
-22635
1490
-3638
30335
-989
15070
-29095
-9544
-858
-12188
-15647
9647
-2835
15205
-15542
26268
-19587
9580
25073
20361
-22110
12741
-7970
16504
-28307
-5904
30023
20689
-18071
9952
-18171
11218
-9241
-7569
31880
4615
-19359
12553
-7750
10344
-15340
3646
32563
17807
10600
8872
12010
20325
-3460
-30267
-12552
30573
-9562
15991
-28599
-23022
6543
-11675
-15995
-5638
-11542
14779
11449
25308
-17890
-147
32766
29583
-14088
2400
-14938
-4174
7517
-25627
-3135
-10675
12112
1676
-716
10781
1831
20297
-25723
26401
-662
13950
-29649
-26404
16534
-1180
-24166
-5820
-7139
14446
-7398
-73
-16811
29825
13568
27536
8475
29761
-13708
-12731
-11319
-500
-8216
13491
-2622
5285
4980
22251
19090
-32682
2355
31487
463
32675
2447
4897
-13551
-21494
13018
26615
-8984
16751
-28161
-24197
-14829
18550
1527
27007
-14581
21364
-24844
12798
13757
-8569
26993
17890
3656
-4014
-4024
6206
-11065
25662
-20374
24204
-2034
9357
-31402
-9403
11664
23169
-7145
20753
2119
13191
-29994
-20360
796
15912
-10035
13671
-29778
-11003
-18640
-8529
11692
8225
10252
23023
-23315
6644
-25661
-12748
2809
12842
20731
8264
-6174
16254
-27370
-17138
3826
29662
13922
32660
2642
19808
-19513
-12872
-14051
16091
4556
18442
15599
32697
-2134
-18678
-13601
18858
355
11827
-17229
6663
-21035
-11423
1542
24546
21706
6720
-9849
5250
-11962
-31389
9400
9984
-7515
24847
-13729
15864
-20575
-28124
16812
-8471
12078
32550
2510
14274
-6661
-30980
10670
-9097
-7106
31660
3865
31434
-9247
-19636
-5108
-11620
17381
11913
-7155
18252
-1393
-31778
7985
6736
10986
18033
12555
32351
-5200
413
2416
-11633
24163
11140
-245
4586
-2978
-32508
4105
4987
-15528
9516
-15722
14889
-21069
-31439
-2732
21610
24630
15289
2647
-13944
-18611
-32766
-254
29466
-13969
3110
22970
22616
3243
-32398
-4897
17739
-19201
29562
2965
6844
-1193
-12522
11857
-32693
2186
29543
5832
15441
-20239
-32236
5873
-3311
3522
15725
9069
5147
-21461
-30352
12344
3690
-6193
948
-10395
10199
4730
-2312
-16112
4016
32519
21711
116
13165
-4884
-29841
13533
-29802
9665
-2353
-6948
1779
10958
13663
-736
-12615
30241
32512
-4079
22222
-18920
-31387
-8782
-15034
20307
5573
-23497
-2254
-13981
-29032
15192
-13958
19332
5343
-15939
-2754
-10646
-1529
-10749
8407
31670
16781
2594
5584
326
4590
8468
-31723
8204
13028
-9909
15242
-10838
-10645
3355
-15168
29044
8386
-24531
-1689
-8503
-13388
6732
-18115
27304
31692
-8323
13857
-13804
-13908
-17885
-19848
21584
-17109
-27945
-10750
-5012
-12545
22141
-14845
27715
32721
1732
10750
-17143
-21552
-5801
-30782
-3198
32418
4766
21429
-19745
-23835
-15412
-19648
9559
29349
-7589
-16867
-28091
-31485
-589
-22134
-16893
21221
-24966
-2328
-16835
-29665
-1849
-21383
6802
-14660
-3425
-21674
-18931
-11949
-30510
21851
5052
-2287
-11995
-26659
-19051
-6474
10878
-6313
-9806
16305
-7641
14523
-8361
-1824
-7788
-20119
25862
27168
-3395
13217
-27115
-32432
4671
-24010
-13415
20700
-25400
1646
-27032
-13208
-7848
-9547
21992
4761
-1368
-4307
21104
16373
-18592
-32500
4172
7907
4156
-5498
4450
2906
6145
-29542
-14174
25399
-2140
18105
-27310
-29314
-13893
-593
-4102
31737
-8150
5210
-18727
-8106
-242
-31125
-595
32385
-4984
14672
-9463
-18252
-25238
-15679
119
10585
-24078
-7026
-5712
-405
11689
-29953
13282
4542
-32055
-9652
-14845
-7319
17067
-32728
1588
5923
-6036
14927
-29169
-16174
-24681
19225
-1896
26215
-154
7432
-10752
10372
-8908
-32711
-1913
-22443
-4232
17932
9207
17405
-27761
10412
15919
17990
-27386
-14587
-17687
13681
-10486
-11896
12383
19660
26213
17629
-8278
3391
-5038
-16621
-24857
17480
7656
8647
898
3499
-2330
-26649
-19065
19037
-9900
7878
-31805
-19143
-13873
18518
-3932
-1914
-9037
-1735
-23020
-22551
1203
27711
-17485
9352
-3205
15315
-5945
24475
-21785
2492
16951
-13743
-13817
-8787
-13140
-8631
19807
17046
-27983
-2440
1410
3974
15648
22419
-23896
4216
5145
11566
7832
31095
-10332
1898
-15611
4274
6657
14769
-4208
23145
-23193
5155
-6638
8253
20634
6989
-28196
14180
-21467
2368
4151
2435
32676
30992
10636
27820
-7840
-5534
-5628
-20082
-15179
27322
-16604
26467
-19317
-14697
-11397
2670
17440
876
13025
25371
-9736
2096
-22027
32714
-1855
10410
-4474
25237
10817
25132
-9366
-16121
28526
32300
-5507
14467
-21198
6571
19512
-27760
10046
16609
-20088
6429
-16970
9458
-6920
9447
31375
-12727
-16548
7966
4136
-1569
32729
8662
-4620
-2269
-10060
8086
-9530
13309
-1849
14955
29154
17039
-6422
23565
-19777
-30144
12844
624
-3662
19602
1097
8074
4609
9030
21155
-31790
-7939
17918
18855
29050
15157
6420
695
-18969
-4349
16179
-11841
31032
-4107
-1917
23048
-13323
29935
17067
-12624
-84
-19318
-3179
32612
-12872
5753
29296
-14304
7936
-13642
9263
19160
-19273
26499
20652
-7781
10605
-26737
-25268
20861
6817
-2948
21196
-14975
-1703
-20341
-16562
28272
-19419
-2397
17442
-27738
-1876
-13703
-366
8752
218
32489
8318
-1755
5060
11304
21870
8531
-13801
29718
28620
-15953
15295
-18612
-9305
2800
602
28286
22654
-23425
44
-5400
-28508
16154
-24054
2996
19113
-26614
-15150
-27726
-9974
24470
6423
15711
12141
-12288
19386
-23207
-26498
-4194
21528
24702
28718
12738
17406
-4215
-25588
20466
-23732
-16427
8393
-1057
13683
-9541
6883
-8091
9553
31343
23661
4299
20574
-11365
-32766
213
-3711
17954
10900
-10085
15671
-7962
-19737
-10439
9464
31370
32131
4327
12962
-13117
-4180
14658
-31772
8011
15872
-22174
-10429
-12029
-19026
26677
-23689
10342
-551
12362
5179
-2368
-29500
-14261
29544
-12419
32399
1386
15988
-11813
-4640
-9832
-21243
24947
13777
-14703
3895
-12406
-13472
14649
-13847
29697
9210
-4315
1063
10609
-7315
-31779
10678
30978
12584
-21011
-28956
-6199
-11622
28800
-31153
-10155
6174
-4592
-18748
-26872
-2975
17875
11459
16739
-224
-17173
6975
-24802
-32545
3801
17002
27576
6532
200
11372
-1143
-1603
-3533
-17754
27540
12482
-15344
10246
-16685
-15551
-17884
4229
32492
21864
3199
528
-19205
-31323
-9617
-2563
-4699
12597
-10387
10837
-4130
-5090
2477
-21841
24426
22574
9180
-120
-7793
-21892
3924
-23027
-23311
26012
18378
32184
-6149
-15893
-5869
-29826
2744
4353
-2015
-3393
-4553
-29718
13232
-29052
-15153
13204
-27949
-11063
-30842
-26625
-17376
15138
16463
24523
9006
6955
-13848
-18171
-27266
-5269
-9490
-14580
-15620
-9621
-9159
3304
-22285
25162
20989
12677
-29848
-6412
-30165
-30396
12235
-23383
9902
6152
-14562
-7500
-31896
-16520
4387
10862
-5276
5170
-15722
-789
2372
3039
1623
-27389
17985
-17993
-27384
-22581
-11974
-5593
-8189
20927
5516
12669
-4216
9986
-20734
-32464
-4445
3035
-8924
22702
-16188
9003
-18576
-29401
-14463
-8860
2393
11633
-26621
-11268
-27818
-30843
-11062
12006
-4675
22601
296
317
-32765
24215
-18552
-3521
18242
21542
-7665
7365
-9790
17368
-15918
-19931
26007
10354
-20159
642
-14994
11342
-6005
-10196
31139
-2021
6620
25710
250
3101
-32619
14368
19176
11043
-12392
-1730
2022
-6917
7089
-31881
-7564
11390
22126
17945
-27415
6449
-27064
18940
-10786
21528
-7945
12899
-30120
-15545
-27347
17110
857
11128
-7603
17681
9157
14051
-15325
-25824
20168
16230
-9351
8651
-31604
-12667
-12140
8027
-16594
25190
-20955
8005
-28414
5899
5322
-21761
15892
9367
-27845
-5453
-32310
5189
-6226
13081
14738
16261
12345
26607
-11426
2798
-32647
10539
1556
9957
-31217
-2815
-7543
934
376
-12191
17902
18521
-26065
2659
-32658
-21952
-10964
18751
2166
-12218
-12797
-14330
-7159
-1590
-1581
28645
-15909
5520
-17443
-5526
-16850
-18312
25945
-10458
-31053
-912
-23990
-7141
-31979
-6174
17934
23288
-4974
21335
-9942
19606
-11382
-27049
-18493
5796
-8687
28328
-16467
3128
-20144
-18584
15157
-8829
-26685
21027
-16108
3116
-20400
-27926
17139
-6750
-27753
32456
-4500
15266
-19902
-8614
8273
-21101
-4072
5662
6534
9642
2716
25172
-20976
16659
10806
28790
-15644
1299
-13587
-9648
7332
-18796
-693
-13026
-25114
-14163
2351
29112
15037
16488
13910
11884
-17886
5874
-2196
25069
15798
-19699
26184
26890
-10724
828
-23357
-6127
32188
-19804
-10556
9103
-15911
13746
-10661
18279
8914
3906
32533
-11628
-5757
3671
-7084
1179
11181
32024
6936
19781
-2711
16311
-28418
-25646
1362
12863
-4335
328
-13243
-4554
-11784
12199
-4566
24668
21566
14467
-21734
32606
3243
-21053
-24329
11021
29795
-9838
-10387
-3353
-10405
-10968
2840
32763
476
11869
-13320
19133
3887
-488
-8877
-4471
32460
-3214
-1187
19192
-965
14937
6242
10106
31169
4724
-19891
1147
-13278
-21067
25096
11319
4985
14178
346
-23136
-17333
10104
31169
-487
-9571
25340
-15860
3515
13997
-2522
15408
-17812
27502
9979
-19021
8872
-12557
-11481
-8756
13415
29894
8127
-7514
-3522
-32577
-18246
22224
26196
4280
6386
9035
-8811
-5618
6038
32205
-13435
-7383
24690
-8025
14500
-7048
-8519
15117
-22706
23624
28307
-16503
7588
-13029
-21370
16347
-25524
10885
32286
5588
28694
723
-30220
-5421
-19936
4365
5448
-19730
-11608
-13478
-7933
31792
-12171
12861
21680
-6048
-4877
-15204
-11036
-2666
11635
30631
23452
6928
-3088
-4726
-28925
15394
-21075
-19373
-2748
11073
10108
-1953
280
-6490
14337
29463
14427
-21337
-9135
-18833
-359
7316
-3585
32570
31611
-8328
-611
-17702
-31532
8909
-17789
4296
8994
13217
-2542
-16815
-30581
11766
3055
-25558
-10444
-9545
-5807
-12364
-15779
-6249
31077
10384
16427
-21138
-18025
-25989
-19443
26374
-16539
4088
12324
1080
4789
-6248
-27897
-17187
8349
-2040
15657
-10194
2826
-23338
-32184
-6149
8837
5297
-29013
15228
-19500
7344
-22163
-4037
12007
-1325
1399
-13131
6480
-2522
-14560
4616
-18378
27127
-986
-21769
-7583
-19669
-10389
-8521
14348
29458
-10501
-13317
-3780
-10422
-13291
-15884
21444
24774
14030
-2820
12258
-24136
-25825
-20167
18132
5822
-61
11080
-2900
-17534
-20792
25324
-18445
-25314
32270
-5680
11639
-11495
-19293
-19704
-25038
12844
25833
-13218
-15600
-19687
-26662
-19046
-5292
-13651
7873
-20266
-3639
-22160
-32417
-4771
8907
-137
200
-29032
-18901
-26765
-9058
25794
-9676
10309
5813
14728
10300
-3076
2138
-32697
6355
-1826
11817
-11737
10651
-7366
1941
-24387
-9838
31255
-5893
-22504
-10301
-31105
-26612
-5543
23004
974
-11165
29874
20829
18735
16522
-28296
-20342
4056
25111
-6895
-894
-26652
-31789
-3645
-24453
-21810
-16951
1422
-3929
-11806
-10532
-29675
18011
-27372
10675
-30979
-6922
-30001
-28349
8637
-1834
-433
10256
-21913
5459
-8933
-6928
10265
-29694
13852
-3385
-29218
-8578
-31624
-17567
11264
11513
4033
24118
-22180
5574
-30269
-9690
8749
-22033
15037
-4255
-5548
6881
-25287
-17446
-4035
20262
-25750
2236
4165
24188
-22104
-13722
-26396
29486
5964
9638
-17118
-15702
-28759
4594
15016
-7069
-13180
-13272
-14996
-28783
-10278
8362
2013
19596
-26261
27774
-17384
-1537
-28072
-4390
8685
-19850
2577
32240
-5849
13841
-23657
-18630
-17295
-8942
-10161
-7556
2640
12672
3622
25759
-20251
10685
21107
5268
-16300
5371
-17855
-32687
2276
7042
-19655
-7481
-18516
-19526
-11068
-4462
10806
13992
-29628
5552
-18530
-1306
-18459
-1825
-21375
32323
-5372
-3713
-15504
-1093
3146
31251
9849
-15282
9602
21078
-10592
26655
-19056
-5281
-4831
-9475
16070
5982
-29973
-13158
-30008
-6378
7304
19647
8577
13167
-30004
-12042
-28403
17574
-5823
20584
-22273
29727
-13782
12947
-22927
-16696
11404
-15020
-4421
20218
-1036
16362
-2218
-24935
-10275
5189
-32353
6152
-10654
-4134
-7920
30577
-11776
16775
15859
6578
-24084
-23195
-18048
-15278
19171
11973
-30500
17840
-27484
3889
-20992
1420
4620
6441
22101
26606
-19125
23315
-17115
-18834
14984
-22100
7876
7672
-18973
-7294
-11173
-2285
32687
-17618
-2340
22584
-10686
16384
-28376
-2634
16514
-1155
13180
5283
-14304
-9271
-9163
-14215
29522
-8114
-17558
26066
-5840
2745
-21240
2164
32695
-19514
-1632
17172
669
-1586
2685
16107
28534
-25141
-6358
7373
-1144
-3581
13186
26780
18881
-30422
9896
20880
-835
22198
-24102
-22750
-7592
17314
4249
5434
-9911
-5497
-22469
-14162
6751
32721
-1730
8140
-31739
-11595
-8498
-271
6040
7678
29583
-1128
-29650
-16863
-14863
13646
24124
-713
32759
18311
-8298
-21763
-24495
7849
22494
16496
2807
-6519
-15338
-10534
-2922
-18637
26950
5210
-3779
-66
-6231
18309
4304
-8273
-19527
18058
27341
13398
29902
16651
20650
-2206
-14151
-4140
-7003
6175
-7722
28903
-15435
-26811
12642
18625
25318
-18812
-8387
-13754
-4505
1569
32729
7538
8127
-4348
-23324
-7503
2784
-22516
23804
6488
13183
16432
-12032
-5835
-26905
-30474
12040
11018
804
7832
-9844
6572
1480
4106
-620
-10555
31020
16434
-23993
-25118
-16992
-11238
30779
-12814
2168
20886
6466
17764
-15897
-9081
31483
-28833
14289
5579
17138
16232
4294
-31451
-9191
10505
-16780
8827
-10350
538
2208
-2259
13596
-25458
20628
9718
-12319
12435
-17846
-13262
1582
3323
32598
4952
-19808
-8502
-1761
-24397
21873
-18583
4595
22064
-2558
16095
-16829
-25013
-21165
9497
21103
13807
4459
8516
-20642
-31612
8620
2571
-5849
28695
-6810
17323
-21249
-30129
-12878
82
20585
21998
-4787
8278
-26293
-32741
-1300
1264
2737
-16502
-22328
-32211
-6009
10377
21036
2351
14700
6243
348
6787
-11552
-30956
-10741
12375
-4867
-20000
-24915
-16524
-6212
-32071
-6715
25146
9025
32763
-482
-3808
-23866
-16927
11203
-30049
-8430
11181
7462
5268
-17147
-32143
6359
-6317
-21127
12204
-13839
-8223
-3959
2806
13164
-30601
11713
3923
20849
9549
-13957
-23926
-22387
21383
-20648
14674
-20982
-8833
-14620
-8277
9745
-27999
17021
4596
-13636
-60
1924
6138
-11197
-18222
27232
7211
-5909
14601
-16145
-30633
-11630
12095
5583
-30564
-11811
-6856
7849
15796
7238
-6679
27520
-12721
18847
6447
32126
11795
-18218
-30861
-1217
2840
-15908
-23892
-22424
-6709
-9113
11469
-7816
-3784
-10987
7865
-5613
5224
-20859
8241
31713
21312
-24888
69
-30457
-8901
-15903
-4022
19098
3377
-20376
-14747
-29260
-11192
-12193
24114
4367
20916
-25222
1529
-32415
-17566
887
-9093
14094
27968
-7380
-3572
-21202
10408
-5403
-31553
8834
12845
-10844
6354
-32144
-26356
1088
-13417
-14492
-1616
-30804
-16155
-1995
-2396
-32679
9997
11369
-4654
-26886
-19343
-26448
-8296
7903
10640
-5450
19842
-10559
-3855
-14871
-5180
11173
-29215
-14836
-12469
-10898
-5947
-2231
-17707
-15764
10801
-30935
-1515
3812
6225
-2609
18252
15022
-27715
-17478
4760
-17276
-10532
-31028
-3996
11258
8708
-3214
25980
-12315
-7381
-31924
-5295
-18598
12837
-24273
-2075
-30537
-25972
-19978
-2580
20640
-1174
-9056
16460
-28332
-11420
-12445
-7615
14713
-24114
-7036
10152
-14825
-3487
-32580
12828
-893
7162
-6866
-7059
-3795
21951
-16120
-6243
-24319
30916
10856
11636
-30631
-1891
-19048
-193
7437
-8231
12159
5874
-18983
-19775
-21489
-6172
10177
7880
-31805
1354
-4941
-5676
-25148
26266
-11784
32744
1212
-7877
-25288
-26590
-19147
13221
8508
28363
-16302
3530
-26227
-24168
-22126
3002
21918
3904
-7824
23412
-22924
-7692
-25073
16659
5881
-6170
18060
-7244
-31956
-19149
-10583
2647
18445
11727
3591
22168
-15110
-13787
-19495
-4435
32465
-24314
-18464
-3063
-297
1681
-15982
1949
4058
30604
-11705
29640
-13969
11924
-21151
-16188
4384
-10830
1939
-2758
-9527
5942
-20215
-3991
1270
31867
7623
-9637
-31317
-15394
-20734
-4936
29007
20582
-1144
8774
-17464
-7121
-19453
-21803
24460
3190
-14359
-11121
-15263
-32683
2334
10541
26809
9254
-16330
24897
4096
18990
-7244
16440
28344
-23637
1923
11058
-8173
22661
-4767
4710
-3075
6708
32072
11681
-21247
-8623
-13709
-3342
32596
-14558
3093
10615
-12209
-11403
-15822
6912
32029
-1840
-749
18725
-26889
10956
-21230
-23683
2568
10590
24051
4191
23108
-5651
8269
14641
16035
17538
-27678
13282
5346
7390
-9788
-30177
12766
10125
-30581
6148
-15357
830
-9980
-17442
27739
1639
7549
22560
-23763
-9854
-8736
-12707
23321
-20150
3597
-8062
3400
-5335
-6638
-20450
25601
23317
-14484
14705
-10533
-9396
-18533
-8360
31682
932
766
23115
-23223
3106
-23096
-23845
2739
7616
18208
13
-5624
8255
-7546
-5434
-6990
25072
21096
15675
-22126
4915
-25535
-15040
22463
-1506
32732
14381
-29442
3470
-25084
-24792
14984
3672
28286
-5496
-17265
-769
-1855
-12864
-3779
22494
23825
10196
-17013
-8633
-13625
-821
32756
-20783
15388
29654
2403
-13635
9884
-22502
8960
-28638
-15921
-20
-15095
-10409
-2326
-21037
25121
-9537
8951
-17127
-20243
-10687
-5641
-15510
12055
18876
26783
-6807
2139
9896
15944
14775
-10738
-966
32752
-7493
-31898
-24237
-8698
-9618
27196
-1499
19176
4664
-32433
-19153
-20319
-8904
22660
-7526
26856
-8773
-10566
3980
803
5287
-6227
9445
31376
8303
-3902
-4975
-15683
-27740
17439
-5834
-14547
4401
-13625
-10739
-30957
-9906
28803
-904
8593
6389
6608
-7435
-24070
-26033
19898
-5809
-25297
-7930
-16717
-28612
-15967
4985
26949
-5369
6299
-21257
-24935
-12600
-5540
-7910
13228
4957
26124
-6360
-20210
-13876
-29683
-31671
2071
19080
11748
4878
-17548
-16067
-5105
8447
-1481
-17447
27735
-23216
16942
-21269
22781
-1243
43
-17344
-27800
16332
-7915
-4643
-32436
-27565
-15079
9184
1550
-2453
5827
5843
-15949
-15313
-28968
32255
805
-9457
-10375
1606
-12724
3303
-13933
18380
27126
3998
-32522
-27266
-15966
-6745
2809
-10646
14680
-7411
-18049
3079
-16260
-18917
-16725
26859
18768
-9431
-24277
-23982
-22327
-1368
274
-15934
8792
11127
-30819
-18703
-17363
-11316
18016
-31317
8256
-6231
-32169
-14574
-8633
8041
11497
-13970
28628
-10924
-19794
-4190
-4257
13016
4694
-5699
32267
27716
-15307
2536
-32668
-18985
-2481
-19264
-1781
8642
-16466
-22867
-23467
-10041
-4244
-13207
-14784
-6110
-32192
-21931
-13968
13921
4899
-6900
19277
-27486
6171
-10979
13556
32586
3436
-11452
-3580
445
-28057
-21563
-24671
-2404
5600
11724
9980
-4490
-2541
247
-32766
-21684
6877
20622
-15876
2912
-32637
-8993
-13853
4399
5795
-17414
10417
13703
-29763
-7310
-24400
-4654
-4706
-3321
16136
-12379
-2646
-8412
-31668
26763
-13395
30072
5621
4640
-30154
-21166
-25012
1428
29375
-18288
-6402
9476
-8333
15759
-28728
-8773
-8963
13936
5511
-10838
3568
-2868
-15049
-5735
-3098
28251
-16598
2876
5311
2283
-12346
-18449
-11143
13738
-29747
-11898
-8832
-9595
-20645
-3781
2978
31928
-7365
24646
-9232
1158
-28976
-8716
20262
-24175
-22118
5901
-32231
-1068
-25834
-1306
-9835
22244
20391
28720
-15772
19363
-14015
-7630
-4630
-16732
-9272
-9596
-20656
-20189
-13797
11609
8957
19400
-26406
32765
-286
25105
-10431
21655
-19035
-16072
17909
4838
-13492
3808
-19400
10294
-13271
26783
18876
21906
-7512
-9051
-31491
6202
19427
-4839
-23494
5479
-15091
-557
-22083
-3979
-9913
32678
2402
-1283
-1609
4300
-14030
-10827
-6580
31494
-9041
18336
-24164
9397
-31390
-10773
6930
9938
8912
7685
-31852
-2802
-2281
28828
-6029
3203
27225
-3860
-18277
8570
-6230
11818
30561
-3465
7218
11852
-9556
11546
-10758
20380
-7880
5965
32219
-932
-9898
525
-7270
28687
-7092
19487
26341
420
-17294
1880
-9520
2812
-7851
19049
26660
25345
-7368
-3346
-25358
-17636
27616
-7447
-23100
11656
-13071
-13539
-19857
-4384
32472
-389
-10598
24289
-21993
-4995
-15526
-7458
-2434
6623
8906
-3026
32626
25939
8689
18776
25236
18932
-12254
-9027
-460
-8192
-11911
-20621
15750
25016
-21162
14999
-27629
-15943
-28626
-7408
18386
15441
11317
5409
-7636
2762
-3502
16013
28587
-14204
23134
16193
-5458
-15067
-6780
-7767
31833
-22020
-21397
-5384
-14617
-15298
-8655
-4098
32509
2342
281
-10594
-6736
-16716
-1583
-4123
32506
-2520
-12395
6868
-13899
-16336
-7247
2952
32633
-18248
2949
156
-14107
5514
-12565
-16215
-10866
26622
19102
-12900
-17433
-22557
-10468
-3423
32587
12771
5696
-3079
-15099
-24388
-16802
-17011
28005
11702
-12720
-2439
-17288
3312
-10344
-11479
320
17873
27462
7649
-19528
-26766
-18900
-16892
22553
9675
14075
2174
15534
-4909
-11275
-22320
23989
7029
-29374
-15382
-15884
438
660
-13237
-3880
23083
23255
2390
11280
8384
-2581
-17381
27776
-12033
25755
-334
-7963
-17897
-13615
1557
32729
-9838
3661
-22187
-10398
-6863
4490
9674
-1201
17550
27670
17483
5124
14964
-12581
-31456
-9175
859
-2292
20587
-7763
18740
-12590
-17579
-2823
-15212
29021
7014
-8519
-9541
-2540
-605
19570
-31213
9969
10386
-24251
-7096
-15040
-6550
15185
-16591
28256
-5552
-22784
-6837
-27119
-16018
21979
9144
31465
-200
-11193
-15149
-29054
-18374
388
13969
7635
-6164
-9956
-4550
-10407
-9481
-18154
24933
21260
-157
3260
-18790
-1784
-23334
4768
-3497
-32579
2449
-9096
-2767
8264
-12148
5749
-32167
6241
-22051
-12756
-32706
1985
1030
9984
7470
-3290
-9602
-24725
-13736
-10092
1815
-5659
5846
32241
1652
-16465
-6380
-22255
-32765
-301
10257
-4517
13296
-11695
-13105
-10866
-28394
11267
-22433
-23883
23793
-7497
-9595
-25450
-8118
19745
-32766
176
8037
-27147
-24344
-21932
-13374
7718
-8707
6769
3278
-23751
-23940
-22372
-3975
-1301
8047
7769
12707
-30202
-14635
-18394
-10633
12041
-23995
9832
-13097
-3724
-20190
-14785
10307
-31103
24991
7300
-19938
-26002
-23777
2578
-3721
-24325
16412
5274
3392
-8326
-8645
-495
15048
14999
-31749
8103
-18763
-26862
-23586
-12374
10733
8922
12829
17420
11250
-4892
-12182
-12209
943
7615
-27943
-17111
4939
-32392
-12162
-13058
-14529
-3371
-11867
5675
-5784
-32252
-18865
-16408
12086
15203
-6719
20825
9128
-31469
-11578
-18084
-6526
-2657
-4993
15074
-17734
-21221
-28615
-10306
32519
4021
3112
11093
-12548
-30269
-13462
-25598
6785
3209
21976
23810
-4395
-5035
-17940
-26330
-2724
-2958
20161
-25830
-15310
-7806
-2381
18851
31495
-9039
-17366
13611
-398
-25052
733
-17847
3348
-12530
14942
29161
-23706
-10755
-725
-10468
-3814
1313
32760
-628
4902
3812
17034
-25662
4135
-32504
31072
8102
-6191
-9140
-13773
-4484
-7446
15303
-4526
-32452
19807
-12170
-8311
-31695
11373
15864
-13037
-11511
12494
-8123
-9135
-31467
-1636
8051
3991
-11683
11364
-863
-12388
-21495
-916
22641
-10230
-31128
-18871
-5103
-17967
1845
32766
7
18744
6921
-24257
-21993
-19934
8907
22735
23596
409
-9368
18663
-26025
1432
-1436
8204
4241
-32331
5322
-5061
-32373
-8345
-17192
9037
464
23505
16535
13883
-4884
-27590
-1554
13477
2659
-4555
-32448
-12280
-28435
-13779
-15363
3273
7922
29593
14066
-3952
-32527
-20408
-3370
19741
22666
-6916
14330
-21127
-25046
-7567
-4495
13815
26361
8309
26188
6490
-21664
-12690
-30209
22879
15703
14527
17826
12892
-30124
-9088
-14122
-17344
10089
-573
1434
1516
-5383
17664
8556
25680
16080
-15548
28843
8913
-23842
-1142
-32747
-13422
21563
15399
10201
29583
-14089
13237
-23766
4918
13699
1542
16874
-5008
8038
-5965
-3217
9588
31332
8253
-16127
-5595
-32285
-26780
-2601
9202
13383
10738
11207
13856
-18205
957
-17462
-744
-13105
21401
24811
-2188
-14951
-20980
763
5681
32270
-4979
-3883
-14648
-610
-13705
-1904
-1778
11346
30103
-12941
3354
-24452
-11015
-30859
-18929
16722
23558
5360
1969
-28016
-18215
-9771
15456
3509
11511
30678
-2268
-19205
-7308
-3670
18637
26950
12172
28298
13059
-16565
-4857
-14484
12334
13264
-6576
32100
4463
-6465
-11574
11620
11286
30761
-31895
2966
-7849
-8534
-4989
-11098
-2386
3525
29479
14305
-3074
-11479
4428
-972
11650
8041
-477
32763
17125
-20491
-14714
-29277
-30520
8945
17593
-4955
7244
15707
16739
-2315
-15614
28807
-12439
-6482
-3796
-32324
-20254
-6943
-10572
26797
1353
32739
9541
-12768
5915
-21420
-7677
28311
-7476
31902
-17381
-8738
23
840
-3461
1699
24838
21370
15560
10006
-2038
6951
-24661
21575
-26982
-11033
-11696
-5663
-23556
3327
-29295
14678
13440
-24172
14495
6395
20451
-17179
-18831
-17461
12864
30136
-21724
-4494
-21155
25022
12500
15756
-8575
14845
12373
-15680
-11083
-9237
-3844
12331
-16559
28274
7955
-8423
-19322
-8408
-29637
13975
-8282
6060
-13848
-26693
-13340
-17715
-10977
8726
21983
24297
4241
8100
532
-11574
-32237
5867
5550
-24485
-10402
-31071
-14917
-1223
-7972
1834
-4454
28721
29924
11405
17781
-20049
-27390
-17984
-4583
1664
-21674
-5701
-5709
-4660
-6913
-5124
23678
22649
9412
-14023
-3635
-6563
-7935
14555
-29760
13710
557
-31675
-17625
-26519
-3047
27223
-14800
29234
6472
-24477
-9162
-10585
-6062
21069
-23601
22730
-10706
-30968
-23844
-2067
-24549
16837
-6791
-5745
4808
-8227
8484
-397
3856
-24484
-79
32766
-21810
24453
6186
5844
-9262
-23326
1656
-2952
-17539
6150
4789
-16342
-31910
6527
26382
-19433
-32484
4295
-20208
-10035
20313
7014
22440
4292
2405
-6052
-11298
-29063
-32658
-2662
12585
-26117
5704
-19622
-20529
-15000
-16074
19657
-29555
-14147
11051
-13246
21307
-24893
-19194
-16221
-1439
24408
15256
-28998
-19962
-21809
-3834
10975
-18157
8290
17286
-7347
-5005
-31079
-29227
14813
-18865
-22260
-4802
-25139
-2776
-8235
8826
-6428
-15079
29091
-22062
-1584
-8779
-16639
6698
-27415
32765
313
-21741
-18271
-32764
362
18580
10432
-10466
-10673
-14168
-29545
-28081
-7617
329
22150
-2208
-4567
15140
-21090
-9119
-11224
15447
-230
-30687
11485
-10088
-31175
-20223
-14887
770
3561
11452
9931
-16591
-7107
9749
-6467
13095
-30036
26757
6211
726
-18485
-6617
-32091
-10644
21651
-53
-6132
3326
-15451
-9553
-31343
-9276
15023
5228
-10701
-21460
-23989
-28035
-13929
-3328
11599
14081
-29586
-1116
-32747
-19513
-1175
7793
-10096
-8268
19
-1232
-2254
-17097
-11935
22560
23763
-13630
-13627
-12622
-14109
-6069
-9463
13572
-11666
26982
18591
-21460
-23779
-7869
-25808
4397
15667
29763
13704
6992
-7708
-8601
-17922
-17834
9319
6944
-32022
-8216
-6625
-11160
-15659
-5958
4709
28046
-16942
-9779
-22344
-10759
-25833
10858
30915
7710
4739
-18455
-19839
-1704
-13837
11524
7267
29747
13739
24309
-21971
9797
-27887
-14766
-8834
8753
11045
7869
-31807
-9256
-20313
15505
341
12170
5682
-17351
-26587
-18019
-18081
8517
11641
31897
-7498
12334
-19221
-5521
-10622
4799
32413
-25408
-6475
12379
-17439
19189
-26560
-7581
2269
12047
19944
316
-18196
4189
-7454
15375
-13
7460
31906
10766
-30947
-1174
-28309
-17389
5145
16786
17305
6189
-2111
10441
2230
29948
-13295
11562
23397
-16203
22178
-6850
11100
30944
-2514
31231
-9913
1784
21587
7641
10994
18730
24710
11410
-30716
-27599
-7612
-12585
5783
29956
12428
27767
17396
3029
-32626
-11662
-21121
-13008
17367
19866
13226
-12339
-9952
-6609
-1294
5865
-4107
30735
11356
15634
-1382
-5040
-13864
-1135
32747
-8382
-14641
-3102
-13257
-12315
-16782
3234
32606
3161
5839
16841
-239
-2920
-15392
-24741
1341
24558
-21692
-2121
-10452
5251
3373
5510
-17189
20243
25765
-24094
-22206
-24640
-7041
7490
24636
24850
8388
-1167
9465
-14995
16069
-12982
17582
795
-32757
674
-22046
-4648
-6856
-1343
26674
-1249
32743
9560
-31341
-15808
-14620
-1390
16220
5209
27923
2381
-12622
-15360
-15821
-7687
31852
-2855
-5415
8191
-26484
-22038
-24248
-20091
25322
20507
19041
7215
-9896
-7778
-25632
-29375
14518
18835
-8771
-3118
15614
-13968
12582
-9240
24542
-12492
-30292
-15347
-5055
-17621
12712
14843
29212
-14999
17006
-24644
13048
-4099
7644
-8858
-901
31186
-10055
-970
-26636
-30579
-11772
39
15625
8551
14610
-26172
-15614
-26133
19766
23527
5472
8808
23918
-4428
-15510
3283
-6682
-4509
5888
5476
32306
-27450
-17893
-26553
14692
17178
20157
-1912
18721
-10345
-20456
-17438
-11827
-5734
-904
24324
21954
-3280
13408
-6444
-12589
-31447
9205
16169
-24095
-8787
-23004
-16213
-10313
-26335
19496
2987
1882
-22331
-4489
-24791
-5740
-16481
12725
26391
-19421
-6518
-172
16531
-10881
-25837
-18247
28756
15707
7311
-14161
-29437
-14390
-16474
25760
-9024
-18229
-2292
-13262
-15098
-29080
-29260
-6300
30670
1265
-2171
9489
3773
5645
-29007
2787
-32635
-2932
5592
-32286
-17322
-17014
-8745
-1387
2876
30888
-9470
9375
-3090
1025
-21771
-24488
20393
-13634
-17233
-14746
-19153
5974
13648
23945
-26359
19464
-9491
-5787
-31962
-7214
-7759
24259
-5667
-26853
9288
-15877
-19286
-19567
19304
3187
-19189
26560
-22228
-13159
-25281
-20844
-22807
20816
17528
-17816
-27366
4509
-32581
-3484
26431
6490
-83
-2735
-20986
-25164
-17715
-2975
-8139
-9734
8334
11110
-10677
-15254
-27766
-17397
-2821
25064
-793
-10192
-14435
-21718
-9521
-28185
-23117
-1040
32766
167
2755
-32650
-5805
-21724
-11122
-9876
8654
28740
16689
-5672
7182
-12922
-3801
-2613
-32747
1125
3409
-13201
-14172
-20084
-11483
10597
-26740
-18937
-19267
-26503
-18320
-20793
-13523
-1481
20311
-570
-12667
-29219
-29171
-14923
-3037
11598
-3492
-1509
-9941
-9586
-21131
-11258
14319
-29472
28430
-1528
-13476
-20031
-32723
1696
17052
-2509
6021
-1258
-3182
-20389
-26593
-19142
-4008
18395
-6727
-15604
-10397
-31073
-7266
-23671
11191
-2828
-2944
23270
-20282
-25734
-13626
-4531
4522
-12936
24418
13885
-19322
-13611
-6819
-4697
-1084
-20562
32670
2507
12509
-649
-2528
-2511
7341
120
-26170
-19717
-31067
-10414
-12626
-14955
14281
11182
20277
-22226
-27064
-18470
-17175
2495
5733
4322
18449
-2032
-5993
-9532
8455
8715
29570
-14115
-7552
17559
4118
-6502
9421
-26146
-20506
-11434
31282
-9751
-18852
-26800
-13520
-11145
13725
11529
16041
13983
-11349
-26378
-32463
-4449
14252
-5431
23107
-3030
-14507
-11619
-25754
-20257
4350
28984
21463
-21327
3373
-32592
-17368
-6425
4276
30643
-18598
-3537
-7329
-11918
-14241
-7049
-8976
31513
-4204
-23530
-4132
-18937
-14918
6275
32353
-5187
-3112
24642
-6359
-20361
-2094
-22426
3105
879
30059
13043
20415
-25629
-2452
-18400
-16489
22776
-21360
-5002
-6819
-32049
-24970
-16097
8832
17583
14700
9832
-21434
5622
-5184
17449
32738
1372
21251
231
3852
-26813
-31686
-8344
3416
20620
3765
-11998
12143
-7570
-18046
-6597
-601
31657
-19776
-26125
25216
20923
17352
3116
6941
1362
-14846
-23914
-16351
-7506
-18978
-17071
1293
32741
25346
-17238
-2259
-18689
-8845
-27506
8946
18517
30769
11266
-12012
-22302
-18506
-7739
10503
8083
29631
13988
-18340
-20307
-13493
-8654
4054
14597
31063
10428
-11801
2588
-140
4816
32636
2926
14238
21688
-4970
-7308
-8900
-7602
-11985
8189
32137
-6391
-11693
-3908
-16902
-18654
3549
14088
32034
-6890
2927
-24094
-18782
-26849
-10381
25596
20620
6710
-19550
-12995
-11872
-2820
-9284
12547
32754
901
-5061
-32079
-5044
-16419
-3989
26168
8688
31593
-18013
-357
-8909
-1577
-17939
27419
18921
-16275
-4750
-5388
-6023
-7352
-20645
-4389
31638
-8524
8246
12684
-19384
9343
4571
29215
-22599
-23726
-15080
-7022
-32161
6271
8324
21225
14813
-371
-16080
-6218
-17320
4318
3350
32595
-1942
-536
-10922
-16201
-13757
13031
15601
28814
-12945
19075
-2699
-12608
-20512
-5497
3023
32627
-13999
4395
-6714
-14759
-17065
9483
-15510
28863
-17458
-5653
-12878
-715
-11511
-14283
-8785
7737
32678
-2402
-9984
16462
-16922
-3558
-15936
13342
19519
-26318
13816
-11004
-4294
-20566
-32552
3744
8564
352
16767
1382
6810
-17311
-32740
-1308
5448
-9052
-18974
-26714
-23324
-6331
-6031
20967
14521
25162
-13103
-6066
-27919
-9865
-27061
7159
20257
-25755
-6986
-7620
-6281
3792
18031
22522
-22250
24053
-26651
-4506
-32618
3112
12793
6815
13668
24664
-16832
-20685
-13830
-6295
-14618
-9248
19695
26187
-29047
5805
-13341
5688
5253
-16390
32569
3587
-25425
-6358
-20859
3399
-12888
-10648
32127
-6440
-27634
-3692
-20448
21310
28050
16936
-21813
14418
35
-13636
-14560
-29354
-20262
11548
-12905
27833
-18533
-13560
-29521
-12454
-1790
32718
-9815
-3831
-27118
-16578
-31980
-7137
8913
3480
20721
13522
-28279
-16550
-22875
-14197
267
4693
30625
9940
-8650
-790
-10665
-14945
-32730
-1551
2346
-12875
10077
-9634
-23844
-21050
-28342
16197
-13611
-29806
-8857
-12430
-9731
-14662
1366
-16920
26635
19084
-29987
-13207
-31307
2045
23609
2942
6848
16406
-3972
-1005
-23916
11207
2404
29
-25714
-20308
-32187
-6135
-24564
15478
-4902
-13397
28017
-14328
9790
-20135
1257
-114
-124
-20309
-21241
24949
-2463
-31711
-12946
-4654
4768
767
-15441
28900
-14021
-15861
-25739
-8079
23531
-22802
25815
18310
-15290
-19438
-28578
4555
14167
29545
-23951
-2913
-24005
-22303
-18185
-15382
4623
-5314
28801
12711
-23106
-2173
4339
-9923
-7944
-18072
32608
3222
2153
-10413
12553
5957
5544
-9955
-24560
21689
-18452
-27077
-29185
3
22574
17477
-8185
15265
-8328
-31690
-27778
-1195
6301
12941
-16537
3085
-20661
-17795
-31830
-5454
29286
14696
-1199
-3821
-16560
-14254
-20471
-17708
11288
30760
-649
-6788
-795
3458
-17904
-7945
-739
9895
-673
-32760
-8261
2599
827
-15466
3654
-17666
32744
-1218
1903
-541
-11476
-8626
2643
12497
-12450
-30309
-23745
-22579
-2006
2488
-10321
20565
-1288
-3973
-16635
-16671
-32764
-409
17836
4288
9685
-11034
8519
-10355
-2229
-30178
-25907
4394
11283
-30762
-11713
-24035
-25681
-4104
23550
22782
-7916
8823
-25066
-6906
-16347
-5599
20579
17526
21937
-24339
-21002
-15842
-17791
-5420
6643
2355
25973
-19975
-4562
-32447
-4185
-5146
7457
555
4052
22441
-22238
-10672
-9470
-12038
30595
10220
30741
11341
-3891
-10416
-22376
10216
32317
-5406
4548
-2741
-18834
-12441
-5277
-6327
2874
-17
31820
7820
-1370
-7355
-16152
1731
28406
16331
-12346
2625
16439
-3914
-6706
26062
19355
-5476
-30932
-10810
21498
-24728
-363
-21106
-2475
11088
-7441
11008
-4307
-15895
-14702
-17490
2737
32652
4840
-6922
7901
-1725
2881
-1776
16555
28276
-24961
-473
14487
-17126
-6372
-13350
-7637
31864
-18069
-13472
-7967
-5907
-5983
-10295
-13530
3948
31020
-10554
-12642
-18847
-20546
-49
9403
31388
-1435
-1135
-18969
-4016
-4740
-11954
17727
25573
32334
5305
-27320
-18090
-12419
4065
15296
25473
28042
9959
-20760
-14717
-13614
-4952
11276
30765
19569
14206
-13152
-8039
-21269
11645
26237
19627
-1163
6379
-14573
-10457
-19042
-7499
13978
29635
15435
5510
-16353
-21421
-32180
6174
10907
27995
33
-4946
-18048
-14008
-26024
19910
10462
19082
14921
-762
-15002
15462
3579
8332
8996
-12509
32761
585
-987
32752
4488
20002
15759
17620
-14610
-13752
-12174
-16188
-7578
8669
18560
11747
1543
32730
-8601
-2923
-531
27958
20984
6544
-14537
29365
-21854
-21464
-32376
5042
2780
30856
13952
7483
-8526
-10939
-5223
-711
1544
-9370
22408
23906
-8672
-15284
-30932
-10809
833
24432
12037
-3316
15696
-7744
-1351
4119
4610
-11277
-260
32765
11475
-15374
-20008
292
-16537
28287
-21962
-6764
-3401
-8012
-30466
12060
-1719
26347
-21152
-19337
-19686
4662
-30545
11860
-3039
20365
8001
-16274
-1720
11622
-429
32764
1165
-4918
-20099
2079
-19830
-10810
-14559
11584
2822
20917
-11640
30629
-7811
-15379
-5289
11726
-3008
-8895
1937
32709
-10792
-10649
-3934
-3095
-4894
17216
-3240
32606
7682
13450
-8727
-6939
-21230
13024
-10681
-30977
-12504
18396
-3758
3684
-24136
-9575
23984
-22325
-10380
6233
21
13298
13159
-29176
23460
22875
-23335
-4207
-32683
2337
427
24839
-103
-4914
-14413
-3083
-5537
353
-19288
-19036
32719
-1767
-31046
1617
819
12928
-24762
-21459
10057
7268
-22141
-7505
-10292
10791
17722
-12167
6555
32104
-17637
-11879
-32702
2060
6316
23354
-16483
-2988
9109
-4371
-26321
-14799
-32662
2610
-14950
-25646
-14198
-8452
1473
-1509
4916
-13071
8776
31569
-26178
-19707
-11197
12541
-18037
-15611
5514
6223
-27295
5346
-21095
25072
2214
-3693
-13966
-16291
-517
7214
-18094
-2471
-7526
17101
-21089
-25077
-17983
-15374
-31119
-6988
1962
-32708
29844
994
-32174
-6201
-16956
-1487
-5556
-1068
24354
-2859
-687
4433
-4908
-4948
-24595
6799
-3038
-32625
23192
-15603
4710
-10646
-7979
-12331
-27642
17594
-16705
-17739
-6234
5421
24091
935
-5110
32365
-32537
3870
-23039
4562
12248
-16158
11409
-11107
-8535
787
-18409
3445
-8961
925
-5523
-32298
-25264
-20865
-23753
1081
-1831
-12907
20147
-853
-28133
-6139
-8572
-7341
13446
-3237
29319
14631
-19809
3510
-5327
2862
32686
-2299
-14215
2038
6160
-22768
-17926
-16089
15417
18370
-30671
11528
2872
-1924
1504
-113
26422
10563
-29972
13242
-20147
-5174
-30003
-5775
18138
-8914
29577
-14100
-5212
-17873
-20771
-25342
30389
9161
-24347
-15647
-28802
-15622
2422
-3447
19093
1687
13765
18016
-20547
-1263
-24291
6985
18985
-20842
29109
-15044
-30982
6640
-12596
9177
20699
-8745
31355
-9514
7192
-9451
6111
476
19957
-25988
-591
21308
-4577
-32445
-3978
-4281
11730
-3923
-4753
15623
-2507
10210
-4982
-5884
10891
16516
-11405
-30718
-14455
-4387
-13391
-9895
-1509
5123
25295
-20827
-19880
-4936
-19239
-2746
7096
-3847
30231
-12637
-32336
1100
3413
8543
14286
-2329
32541
3841
4897
-23262
-20457
-13119
10940
30886
-19371
-4581
-1389
-23087
-26156
258
4188
32498
-13298
-25733
-9675
-3511
-5739
-6136
-9479
-5428
29249
-14770
-10484
6845
-14517
-1669
4323
23106
7265
-31951
-12643
874
-10537
20648
31816
7834
-11880
795
-31954
-7252
-17196
8024
24594
18082
20243
681
6638
3314
-3989
3283
-8522
16014
-13568
-29825
27291
18134
18163
-10350
12161
22080
-14014
-27618
-7413
-31917
-16386
3532
13771
2924
8704
26095
-4128
-13851
1348
4614
29264
3099
4168
32500
-24246
6476
-2677
14099
31809
7862
17020
9674
-18382
-5534
7057
938
-12801
9108
32742
1257
-23927
4590
-13144
9113
19240
26523
15215
-7409
-21669
-13058
-14545
21209
22488
23831
-3866
8247
-29577
-14101
-11638
11088
13824
19438
21537
13086
-31596
-167
-8702
16958
10865
-1075
32053
6801
2076
-5258
616
-344
-18767
26859
-10826
-15452
-16637
13801
-1736
15035
-16319
11197
18353
-27144
-1250
11159
22295
-11069
-19127
26604
30854
6333
-19356
18390
295
7661
5778
1428
32037
-6873
-6487
-21234
-9260
-20203
-14033
29609
20318
15640
-4244
-19666
480
4750
7044
9175
-4211
32495
-7093
-1055
-13933
1172
-9172
31457
-5967
-17804
-17960
3322
-6491
2488
-10142
-2061
31337
-9572
-5179
2420
-13772
3602
-9755
31281
-12630
-23314
9348
-9248
-9015
-15158
3938
32529
-3978
22445
-18059
323
8877
18953
5387
-5621
16413
28359
-6984
21621
7418
22481
4734
-32423
21508
12291
-19179
-10280
1261
-3331
-3208
11337
19686
26193
-5445
-18221
-15312
-6628
5978
-494
15592
28819
-9877
-3453
-9997
18788
20112
11032
-19877
26049
9513
31355
-4030
11039
-13958
1593
-21899
-11772
-10414
6544
-22685
23644
-12511
-3911
-4121
-25183
-29770
-12873
-31516
8967
-20605
4778
29624
298
-27631
-17611
-29809
-2794
-191
13011
19814
19669
-24446
-15682
-24366
-12505
-13429
8616
32548
3781
-22411
-2195
-23850
22468
158
21008
-31439
2716
953
-2100
-32718
-1773
-4534
17342
-12558
-27647
3257
5678
-16559
16457
-11490
-4829
-24384
-21887
-12056
-9324
2438
4821
8783
1751
-5499
32302
-22378
-7187
-32577
-3519
7801
-61
13346
5551
-32527
-3955
-25104
17569
12699
14095
-6329
4216
-28017
-16990
-18034
-2209
-2099
22402
573
11766
-29039
15179
-27964
14892
15686
-16408
12315
-14831
-18621
-26961
-11113
-21834
-25055
-2594
24483
17354
-9923
-7203
-9771
-44
20484
-15647
-2863
32641
-10657
-17512
-32766
199
-7402
15726
-11531
-15344
-10638
-15200
-16622
-15586
-16963
-23522
32719
1760
-13397
-7268
-394
21822
20347
-9779
-24086
22215
-25667
-2234
-29506
14249
8528
13157
-10456
-24747
-20837
-15909
-32529
3933
8566
26437
-11722
-10451
-26438
-6983
-29421
-2685
-2713
-3272
24339
-21938
-29448
-14368
-13359
-10079
-7023
-10422
30300
-1235
12303
-2027
-772
-32757
-5444
-9561
4160
-4310
-17279
10247
12078
-4926
1835
-29458
32549
3770
-24139
5604
906
27134
3363
-32593
-4293
-14974
-9124
-16413
-11000
1549
13052
-30055
13808
17739
-32722
1713
-22751
329
13767
14396
9973
-26091
-30303
-12463
-22475
17365
25896
2958
1843
4403
-30904
2129
-15455
17972
32017
-6966
11323
480
2379
-7278
-1573
-15935
4021
-32519
22913
6128
-14138
-6350
-18017
-7650
-3990
-9417
27986
-17041
-8714
-14846
-16356
10823
22186
24113
-29415
3354
-26189
-19691
-22308
-10440
15894
5298
27424
7828
-13132
-30020
-24074
-5488
-4647
2741
15728
-5163
-4749
6392
-10636
-1454
-2575
19256
-8897
-31535
-21671
-24576
-30855
-9216
8588
24425
11117
-2021
-12336
10819
-1841
1140
-2029
1382
15914
-28642
-25272
-20856
-135
8769
13925
-1491
19238
26164
-21140
-25034
-8138
-4918
-5225
2344
27072
4648
-5102
-18046
-25191
-8265
12432
30316
-4307
-14729
-23021
-12849
-26469
3940
-3260
25676
11169
-30804
-12165
-846
9735
18385
26522
-19240
9980
23863
-14800
-22457
-22614
5177
15328
28960
-8596
1979
18588
-26984
6173
-32040
-3067
864
13267
26767
3154
15137
16086
-11231
-6349
15921
13922
-29662
-13924
1325
-2032
266
-11180
-2391
28808
-15612
-25677
-16167
-22450
11306
17579
6972
32260
5740
-18766
12214
-5508
2604
17935
-1903
32287
-5586
20404
-11881
-12131
-3079
11643
30628
-27216
-7655
-13447
8670
-4205
11811
22869
-13037
32744
1213
2138
-14905
12915
-8368
12081
17126
2129
32697
-3637
2157
-16217
-1985
4093
32510
-5179
-22676
-15842
-11347
-9040
18516
22776
-9766
23380
22956
8700
5307
14001
5253
10761
30949
-26748
8294
31405
-5265
-32764
-372
27142
15679
17325
12970
-6107
-2597
-18285
18276
26495
19278
-19677
5443
-27257
18185
-12054
19578
14823
15813
16627
-8935
-9593
-12249
-20997
-1756
-5802
32249
7293
-8258
-695
2531
5708
14206
-2565
32666
-30292
-2402
-6913
-588
-7323
-14153
-14165
8085
32300
-5506
-29145
-5628
-4033
15319
15967
11737
16629
28233
-24217
-8104
-27335
18067
18868
10903
9987
8048
-16766
-359
-25000
21181
15511
28016
-10800
-5538
-9035
-4796
-28908
5745
564
32762
-10100
-14766
-24738
-6019
-10995
19377
12123
-300
20294
25725
-31563
8798
-22453
18759
30788
5274
16800
7418
-15832
-2273
-9853
31250
16030
16270
-24946
13040
-17460
-18410
-32292
-5555
-24780
7435
24765
6918
-24918
218
-10904
12647
-30206
12697
13796
-11134
-21157
-17548
-30089
-10235
-16458
28333
17732
-3741
-20467
5471
-11670
30618
20804
-3320
-9143
27413
-29490
-12314
-11777
-7478
-24163
10060
29662
13920
-32170
-6222
-17575
520
-3126
3999
31289
2804
-31834
7760
-29160
10716
-5474
23366
10186
-11932
-12435
-11158
-32398
-4897
-8778
26512
-9961
-1606
-20085
3400
-22437
23879
7416
11211
-11986
-8908
-32763
-467
10351
7344
-23350
-13025
24086
21221
-8411
-5614
-23391
-22945
-28915
13380
19649
-24592
-6707
31300
-24480
21780
893
-22159
-20982
-21363
-30215
-8103
-14308
-2326
-14769
-3335
32696
2146
-15334
-21260
-32765
311
4009
24982
-20507
10652
-29813
-13594
-15882
10273
-7321
14633
7233
1365
-29002
4275
-15492
6872
-21529
1957
15624
-28802
-4059
-28540
-19871
-6930
-27090
-18433
6724
7888
-8558
31629
12231
5901
-13803
-9480
-6171
-30881
-22313
-12083
-30562
-11816
7441
13029
7466
-287
-6221
-9604
-22453
-23864
-353
14303
-4207
-254
-3907
-13735
4381
-7366
666
-21693
13773
29731
-14844
-7457
-1079
-10493
-2942
-19344
28043
16947
-32323
-5372
-14842
5919
2162
-8658
15909
6403
-9555
15330
-10916
22225
13367
-29507
-20554
-25518
-32751
1004
-2936
23219
8281
-16693
6483
1909
-14836
-12599
-30365
10108
-7239
12642
-9862
-31247
974
9006
180
4360
-12614
-8106
-8732
-31581
-23092
3504
-24835
5087
18232
27226
-11133
-23120
-22937
1831
-14895
-859
-6630
311
21942
-24334
-31259
-9824
-13446
2215
10571
6876
5089
-7741
-32617
-3124
-16961
1390
14647
2150
18987
-11840
-30097
-12953
-12654
11736
15192
-14632
16304
1346
-27406
-13017
-21991
2506
25998
19943
-1706
1262
-1759
-9942
-1492
4141
19984
-25967
10923
6501
-29876
-8738
-19052
-4543
16523
-2013
31710
-8251
-24218
20569
-11526
12260
20056
11470
11144
-30813
-5464
4625
-621
-10084
-6094
-6463
22718
-23612
-7546
10435
-12003
1660
6076
-6115
15333
-28957
11331
6965
11983
-17901
4315
-32481
28048
-7769
-8081
3892
5339
315
-455
-24101
31589
-8704
12758
-16415
11260
-30771
-13695
-1741
18190
3031
2804
-22865
-4044
-10096
1725
32721
-24250
4961
-22168
-8141
-7318
12922
30910
10873
6708
-4345
-21915
278
-2924
-2209
5443
3241
32009
-7006
-5002
-9450
6632
21390
32010
-3654
-12879
30129
-27425
-17930
-24083
6626
19805
16944
18196
959
-56
-19529
-10417
2117
24029
22276
-11083
9720
