1651 9 80595b40 0 13880 7
26529
19231
21587
-7896
6596
4713
-32
-9239
-30883
-10950
-7667
30309
-431
-2077
-11294
1524
-32067
-6734
2918
29397
-23672
-4925
1737
-9629
15832
-25842
-11866
-20296
-28533
12247
7487
-31899
-24300
-12641
1680
20991
-32751
-1012
4981
-19722
29914
-10239
-1065
-32749
-18211
14374
7678
-23756
15173
6144
19064
-16553
-32763
-446
19722
-16350
-32302
-5496
4661
30861
-26238
-8060
5146
-9166
-19567
15554
24954
21235
-23129
-12860
11132
294
-12531
8331
21289
10987
-32260
-5737
12999
-10438
6449
-32126
-23817
-7976
-10161
-808
2780
-15463
-30530
9760
16015
28586
-20004
-5127
2912
-2287
12832
-30149
-21528
-16437
-13503
2060
5415
-17250
2369
24611
32703
-2032
-24120
-4341
15559
-3084
-4576
-32445
-24916
763
-10871
7
-485
-14272
-20298
16693
26651
18971
-30797
-11188
15230
-2480
3093
19600
30763
-5072
-32729
-1558
18036
-10044
-2219
-32691
-20044
-2051
-23904
-7062
10116
-16421
-2094
-28116
-9538
-1660
-31475
-9108
12300
-18393
-31387
-9408
-1310
28062
-22972
-7662
4257
-7621
-10810
-30932
-21687
9155
-13352
-9430
3600
-9890
24490
-21769
-14105
-27607
-12531
7052
6897
-18286
-23644
-22684
-16885
21895
-9669
-12423
1188
-1996
-10420
-31065
-25658
8008
-7150
-6402
266
-7701
-18943
-26736
-20383
16778
-8472
-10339
10
-4026
-18595
-26979
-23951
18096
165
-11121
-3092
108
-23920
13643
22494
23825
-24769
-20414
15601
6021
-21968
-17038
-6675
19869
-24932
-21260
15007
-2330
-22374
-23938
-12898
16956
-26119
-9026
7678
-11832
-21450
-24770
-17565
19377
-12082
-12410
2645
-4204
17254
12626
24420
-18252
-31656
-8456
25413
-7696
-7721
-27847
-15187
3774
-29461
-14341
16904
-12605
-9432
-12825
-1680
4625
-32306
-5472
14973
-15177
10710
-30967
-17526
-13653
-24406
-13580
18283
-12741
-22740
-23591
-16166
19170
-15016
-10387
2926
-5076
-8637
-15195
-5048
6960
-25720
-20301
19745
-3389
-8530
15616
26505
8871
-27566
-17713
19793
2157
-30705
-11438
-8783
30057
-4831
-14335
-884
5401
-3658
-3916
7518
2285
-27209
-18257
20598
-2489
9780
-31273
-25141
-12753
-6331
-3481
4254
-9604
-17858
-27473
-19510
15896
-12953
-15627
5669
-3328
-25320
-20797
-17610
22571
-6021
-8483
-2286
-1294
-29105
-2434
6086
26906
-25755
-20256
14373
1800
6798
-32053
-19255
-11880
-28103
-12833
19801
-13863
-20662
-25431
-14410
17253
-21949
-19521
11155
-3458
-28026
-16976
-12204
26551
-6716
-17128
1127
5117
-5841
-32242
-26675
3218
-5566
-8106
1473
-5859
-22561
-23762
-20240
24422
2202
-25267
2023
11258
-26163
-19726
-13694
21879
-15590
-11194
4007
-3279
-24016
-22291
-16981
20291
-9474
-11842
927
-593
-21332
-23931
-13017
18510
-26704
-18988
14376
-6707
-24334
6037
12075
25633
-16450
-28338
16081
13204
-14442
-29412
-24414
11351
-8709
-11262
3393
-3756
9297
-31420
-25846
-11513
-7048
-5897
6563
-8839
-28083
-16882
-10761
25383
-14646
-17950
6619
2003
3938
-19277
-8131
-5258
-21753
-24504
22563
-26
2260
-32688
-27993
-3562
-2484
-10985
4410
-3334
-28167
-16741
-10999
26467
-12138
-21794
7197
5780
6175
-32179
-24715
-8068
-8741
-16136
11207
-2586
-12317
-30363
-25256
10644
-3418
-20991
5773
5137
-24041
-22264
-16057
23098
-11532
-27448
10981
7748
8139
-31739
-27870
-8495
170
-11842
5446
-1681
-11766
-29863
-20206
7537
-23922
-22391
18666
-3675
-2600
-32663
-27190
2144
-4158
-17600
7154
131
-5453
-32310
-29531
4318
2404
-12857
730
1209
6702
-32074
-23811
-9561
-14426
-13325
13350
-7241
-22301
-9850
-4100
22999
-10980
-30872
13842
13496
-12667
-30219
-25978
11211
601
-21164
3420
7455
1563
-32729
-27450
-4741
-8633
-10170
7826
-5936
7361
2583
7245
-1502
391
-32764
17746
20712
-17562
-27662
-21635
14375
-12781
-19774
9510
1171
5004
-32382
-27567
-6884
-3506
-11961
6540
-2634
-13284
-29953
-27381
11115
-1874
-13404
1986
884
-5424
-26333
-19856
6022
-8456
-31656
17145
9622
-7046
-32000
-26004
5269
-4895
-23489
9349
5471
-30479
-8343
-3239
30627
-12682
-30212
12567
12972
-23164
-23175
-21880
21243
1561
-14271
-2388
5987
-31738
8146
9860
31203
-7306
-23584
7431
17555
3345
-32595
-26029
-6454
-10789
-25828
18140
4619
2269
-32688
-26459
-1698
-4049
-26029
13095
5546
-29892
-13419
-12604
28819
-367
-18855
118
11216
-12421
-30321
-25364
10649
-7143
-27717
12628
8170
-17844
-2680
299
20239
-5830
-32244
14808
18457
13686
-24081
-22500
-10634
9863
-31247
13847
18191
-8675
-31597
-30009
5945
3674
-16359
1705
6305
-31024
-10542
-9259
29887
-4729
-31262
10040
19244
-15959
-28617
-29046
12899
5564
-10015
-4123
4033
-16420
-28355
-25856
15280
383
-19547
2759
6710
20800
-13020
-5409
-21350
-17556
-27666
29956
6103
1062
-10163
-5396
1173
-5984
-32215
19447
15561
-3569
-32572
-28484
963
-6166
-15881
8536
-471
-27591
-17673
-16915
24293
-4682
-14997
1865
6063
-4076
-15362
-11555
4866
-7189
-31968
19352
14199
2865
-32641
-26264
-7143
-14007
-23586
19231
1954
-12461
-30304
-28216
9498
-4286
-14888
5316
1209
-13452
-29878
-26019
10346
-10033
-18757
10045
1023
-32747
-1117
-2807
32268
2820
-19045
-715
17087
4032
-10541
-7702
-1641
-4000
-32521
20975
16618
-12170
-29075
-30650
11584
12739
-21763
-492
14924
-31795
-7663
-7468
31904
-1230
-25558
4751
16743
8709
-6510
-3403
-7301
-7512
-31894
24699
16116
-24673
9774
8952
26096
776
-32757
11173
28051
-28750
-10977
-13082
30041
8634
-30674
3198
24288
-29762
-13707
-15543
26641
2484
-8939
-5609
6898
-31152
-10157
-9640
29272
-6186
-21587
6030
11721
-29359
-12217
-15227
29014
9440
-20414
-2970
17946
14147
29555
29989
-12094
-8566
-17690
22172
16328
-7766
-18869
-17686
8060
-1649
-32725
16408
17342
-200
-29996
-32749
-1069
13557
-22552
4426
16080
10319
-30562
-31409
-9335
13616
-12784
605
6145
-13512
-27266
-30451
12098
12326
-25499
2955
18933
21046
-25113
-23910
-19236
5130
-29576
19026
14842
-4625
-32438
-31764
3778
5737
-11857
-458
2128
1268
-3644
-3540
-439
-102
-32766
19534
22900
-23847
-20121
-22352
23959
6963
-23251
1597
15450
-2998
-30303
-32707
1977
11797
-21943
4193
14255
1413
-32736
-30817
-2703
-1218
-21799
11708
5770
-27416
11604
9417
29591
729
-32758
11473
28173
9808
5553
3556
-5691
7172
-31972
18546
26693
24716
-19825
-20908
-25229
9767
-9031
6753
5783
-30101
-12946
-15678
28749
4719
-18390
-1110
14357
-28472
-16217
-17729
25330
-6473
-21819
8897
10656
30056
-13049
-11623
-29133
1174
-13076
15558
4718
18798
16221
14537
-16012
3693
-26633
21049
25111
17125
-10277
-11142
-13297
6913
-32029
19868
21218
-23166
-21493
-23846
22472
8080
-14039
-4383
9275
15324
-22366
-21164
-12180
3481
-32581
20120
16129
14347
-28455
-30242
-12611
15141
-28323
10782
18970
-28207
16673
9923
29178
9291
-24543
3811
29842
-2558
-12353
-17960
4942
20398
-25643
3141
25452
6287
-26979
-31567
-7559
11055
-30845
15061
21850
7102
-1776
-7247
-4701
11987
-30495
15786
27500
15137
21024
16567
-13883
4888
-23281
19289
26487
-14095
29580
25494
15330
1555
-12783
5625
20145
-12900
-16181
-25985
12424
23518
-22815
-923
26462
-23574
-21535
-23393
22943
4672
-24101
3525
14918
15106
-16120
-27048
-18494
28108
-4432
-4859
17270
18466
-5277
-11876
-14983
22767
-23565
8174
26043
-13828
-26117
-30435
12138
12860
-16505
-1946
13096
-14807
-25677
-30063
13032
14173
-11037
-6345
9904
-4367
-24837
-32386
4980
25806
-18820
-4402
20697
898
-6038
-10880
3158
19131
-26602
5263
26022
-14467
19058
12201
17851
14201
-25966
5705
32266
-9291
-23283
-28181
11706
18541
-27016
2202
21782
-1823
-15039
-18752
5719
16703
-28189
6060
22970
-26425
16506
7973
28922
10084
-28445
7618
31869
3862
-23157
-27470
-476
18879
-26781
5810
20679
-18375
27129
13390
17600
21128
-8393
-5287
29441
-13628
-19921
-27602
14859
21553
-24680
-636
24095
-7591
-21248
-25123
10897
16398
-28368
4356
21438
-17750
-24145
-28257
16589
12587
-9199
-7357
7643
7583
14204
4552
-6243
9265
-23747
17888
27453
-31846
5866
-1376
32738
13161
-16182
-5129
22194
31609
72
-4643
-32436
11521
6658
2039
1889
-30183
-4451
-12734
30191
15207
-19160
-3813
22901
20803
-22725
-27088
-18436
19507
-17299
5523
14509
-29290
-8708
-15006
29128
14592
-12834
-8503
16388
9964
-22517
-31470
-9126
30223
-10314
-6622
17146
998
17313
5381
2150
24049
-19443
3913
32532
-9983
16805
3687
12251
29677
-13571
-6611
32093
-18367
27135
16617
21743
20812
-16321
-3072
31725
22512
23808
14380
-20435
15775
-4515
6835
18716
-29071
-2151
-10681
30977
19590
-20573
-5693
25682
25827
20164
10989
-22139
22520
-11401
6564
25284
-30010
3910
-2472
32673
14167
-21764
-2802
24793
2959
-25490
-32600
-3296
24533
-2298
-10997
7773
31929
7361
115
-28808
15535
-7807
9912
14375
16947
-23365
-29473
-12368
19351
-26442
11176
19464
14284
-19648
-30425
-12163
26952
-16260
2562
19762
21388
-16872
-25831
-20159
25542
-7017
-883
13341
-9670
-5102
-10994
15092
18814
-26827
3028
25463
-13017
-22878
-29970
13244
19894
-10756
-7832
12334
-16247
-21800
-27527
17774
18091
-16667
-5135
15075
-32557
3698
-7488
31171
21107
-7273
-13584
21383
-26942
-12447
-18358
27141
15694
-7520
-12022
11253
493
3583
-6182
4170
26766
-18900
-831
27615
10705
5588
-4677
-5888
29013
-15227
-787
26332
9451
8346
-4143
-7086
32757
786
-11402
19491
-15483
28877
16231
18039
17915
-14478
876
29887
-15244
25209
10044
18630
26125
-14219
-3463
32583
-6087
-24094
-32182
6160
27462
-808
-16294
8753
-8547
-1113
-12601
10496
32328
-5345
-14791
21411
9790
19675
4543
-7020
32755
856
-8876
23120
18088
-21698
-27827
-17300
24655
2418
-9379
4179
-22210
24090
9304
23576
25871
-8439
-9415
29648
-1264
-10437
-21831
3668
32126
-6448
-11767
18426
9179
-3300
-18112
-11707
29982
13217
-15232
8850
-29133
5682
-6918
32028
26444
-15711
-10124
27938
-2474
32673
24716
7546
11548
-11866
4854
22939
-8677
26356
10382
13262
31788
-7948
-8664
30495
9421
29398
15882
-4015
32312
-5438
-6056
28663
-23432
22904
8085
26898
26921
-11655
-8631
30483
-8002
-14103
-24999
9346
32750
1028
-19371
12916
-3185
12259
-1138
6702
32595
-3347
-12388
23367
4426
-18436
-28375
-1745
32594
-3359
-13258
13372
9917
-16137
-26624
-10478
30578
11773
-18360
4080
28473
15021
3119
-24933
32058
6776
-8325
15609
-32766
217
-8901
31031
17591
7226
-21228
7292
-31915
-823
-14198
29531
21632
7090
-20400
10153
23655
12761
-2023
-20773
32101
6568
-7562
15871
1958
6443
-8743
-3378
29014
15226
-17585
9198
-3162
-1325
-14381
4410
32122
6465
-18401
12880
-23388
22948
8342
26711
28909
-2828
-15478
25015
807
32757
23025
3679
18753
-2622
-3472
20639
9099
30485
16014
-8406
26264
19591
-15530
10434
31105
10300
2083
-28373
19473
6498
-906
7095
-24340
21936
12784
25660
17327
-372
-13044
17598
399
-5364
-17435
-1812
27606
17650
-21265
2443
26999
18566
5175
-23686
28118
9876
-6444
12296
19789
13596
1327
-15984
32049
6819
-11033
15044
4577
-2836
-15040
-1932
32257
5753
-16172
11512
7117
2951
-10093
-3052
32699
2097
-12658
15411
-458
32763
24718
2369
11126
7295
-5354
10743
5977
32217
22015
-4033
16656
10847
-7691
11016
-12744
30186
14437
15737
28286
7064
-16241
19819
17617
-10562
-20328
-16882
29983
13215
-16594
3174
8568
30761
15623
-7067
28053
16931
-14979
13059
-27220
-1427
-10859
30915
25418
-7513
-16369
17853
25920
-16183
-20084
-25889
16320
10890
-7094
-4739
8924
-15797
-26007
-7672
31251
9850
-18251
4502
20679
25274
10198
-15658
29915
13369
-10358
11703
20070
12604
1794
-17323
29844
13527
-14463
8993
-2792
32647
21244
5215
18185
10383
-10528
12270
757
16340
3910
1737
28668
15868
-20010
8543
-28343
16442
4032
29233
18642
12246
-20399
7435
-8454
-7044
-18560
11635
32678
2405
-19719
12775
10780
30942
23173
-7358
15325
8201
-5595
10472
30945
10773
3607
-29118
18778
16783
-7324
0
15224
-17755
-26020
-13727
30754
11306
-18346
1927
-1696
5892
-5964
1663
27054
18485
-22012
4215
-11283
30762
21150
13679
15939
9240
-12607
11287
-22527
6839
-6213
23462
29559
14140
-27366
8968
9595
21044
7781
-6432
26519
19245
-16545
5585
29473
-10656
-20648
-25442
30067
9143
-10046
3467
10226
28007
14836
-5813
30401
12222
-15042
14449
-100
32766
24320
652
9615
19409
-11180
2017
19853
-375
-10339
-18375
26074
19844
-16343
-1328
7228
27373
15477
-7030
17133
27930
-16356
-1782
-16694
28195
19926
16999
9130
12494
-12521
5884
26747
18927
12037
-22359
18277
11589
-5321
4444
-3909
32532
23620
6053
17494
11136
-13064
11513
-5382
10286
-2453
7112
27576
17697
-22270
5299
9839
31254
25488
-8243
7502
12481
-4136
4231
5634
-15262
-24200
-5529
26749
18924
-22339
-3743
19329
26458
19317
-17685
10395
20065
-6490
-1699
-3114
32618
27892
6063
1182
2506
1312
7671
-13489
7691
-3904
12957
24451
21812
-26106
1467
-21656
14773
1327
22100
25229
20908
-27273
4447
-9151
23853
11272
11314
26698
18995
-23576
8179
-136
-84
-9314
1501
25141
21013
-23816
-2158
-17188
27896
17599
19302
18409
16363
-20350
6806
14378
5607
-3542
-12620
24272
22012
-18652
-2177
2573
32665
27163
-1652
2647
15151
-4688
536
15606
-7996
-16627
-13572
26871
18750
-19085
-2979
-21501
24725
16503
21323
12826
15208
-18632
5290
-295
32765
27167
1872
5388
10503
-4920
5216
5313
32333
24694
-5097
4308
22618
-7692
-3447
11186
20970
12620
-10631
12935
30105
-16357
-8490
23191
9076
4198
-24510
7811
31822
-12448
-15794
16625
7995
-798
-12319
26512
19255
-18264
-50
-2173
31779
21092
3530
16285
28433
-20128
-1979
19050
-13632
-19842
-18317
22538
23784
-19760
-10323
-2838
21350
10872
4808
23944
22368
-23018
3018
-9927
23952
13891
9031
17197
27891
-23893
-1630
15604
28812
25855
-13822
721
11681
1125
-420
14570
21748
14480
-14575
14259
29501
-16581
-6764
-31509
8988
1893
30496
8556
16878
-21120
-2975
-11840
12003
1601
13277
20029
25932
-25557
-4303
4309
20105
11553
-4317
16138
28517
-19948
-5128
-12814
30157
24757
13607
2441
16378
-10791
-885
-25027
21148
14055
22665
3378
26662
-20586
-8258
21278
13127
7965
-21309
9638
31317
-13882
-13887
-14536
25652
20043
12402
-1961
32708
-17556
-14831
12805
30161
26469
-11991
2450
20842
-5992
-4908
9092
18510
12885
-10501
5367
32324
-14913
-13866
-26278
19573
13640
26448
6184
10798
-14636
2740
-1119
32747
27286
815
509
26484
-11058
-8144
6261
15150
10344
-9433
3291
32601
-15255
-14893
-9427
31381
23682
12020
9139
26160
-18322
-5590
950
32753
26729
2974
8987
16911
-10540
450
15162
21698
17135
-15524
7226
31960
-14856
-12511
-13263
29962
26037
12271
-4180
22052
-10289
-7688
-297
19312
13817
508
3384
32591
-16708
-16168
15518
28859
27577
-15578
-6271
19814
179
-9122
-3334
22027
16338
3823
8667
31599
-20994
-11568
15715
11267
6950
-15916
7655
31860
-15200
-16063
-22331
23978
18861
22006
2427
23980
-18699
-7546
12041
15791
12534
-14935
-395
32764
-11797
-17426
-22939
-19688
-24752
21470
16941
17213
-27061
-8011
2453
32674
30580
-1612
-6459
29667
-9453
-15647
5356
8253
4045
-7275
7859
31810
-19170
-15094
14598
25489
23474
-14767
-6241
32167
-6807
-19516
3254
32604
29900
-1717
-1481
25998
-10004
-10768
-25587
15735
8370
22927
11785
30574
-29118
-7882
-22491
8957
5835
19768
-5672
32272
-19488
-21893
-3111
32618
28847
1646
-1739
27416
-11902
-9309
-26488
19288
14088
26918
4129
29673
-24646
-13122
-20507
25555
23836
18864
-9747
25011
-12340
-14074
9098
-22903
-22983
-10038
7491
29787
-20565
-25509
-6878
32036
30183
6268
-8326
18544
-4590
-7266
-964
16554
14977
-2324
-6306
32154
-12705
-19609
31569
8777
8781
-29282
1254
27262
-5843
-19657
-30000
13176
9941
29091
2474
29022
-26037
-14477
-13329
29933
29152
10358
-10242
28063
-12016
-14148
6129
32188
32226
-4223
-6356
15088
-1129
-5965
-1125
32747
31750
2290
-4665
8596
-311
1034
25684
20346
20367
-24844
-1238
27698
-6034
-16219
-23655
21141
21219
24968
-5367
16668
-13369
-9143
-15816
28696
27674
13208
-10178
27965
-12529
-14750
-27107
18408
17058
25736
-6662
13043
-10169
-5600
1916
-29261
-28552
-6775
108
28647
-17539
-27677
-9441
31377
29865
10130
-3166
11801
-5764
-424
14170
28494
28916
-15411
-10080
28205
-3692
-16893
-19117
23656
25801
17521
-18198
27248
-9866
-21487
898
32356
32766
-178
-10379
10500
2480
-3612
20775
-23531
-20873
-22571
-44
29994
-13251
-29967
-11747
8380
8927
7871
-11616
30638
-13473
-23706
3347
31035
32660
-2637
-11658
13435
1520
-7172
7799
18076
22305
-8335
-16837
28110
-4120
-24863
-825
12331
13887
-1192
-10348
31089
-11634
-23748
-32666
-2568
-3299
30845
-1422
12300
-16738
-8819
25306
-12483
-6027
-26212
-11941
27955
-4361
-32475
-13108
-19642
-16375
10095
-3033
26019
-20728
-25377
-10462
31051
29509
11033
-2334
17517
-10098
-4292
8606
-10724
-6594
-11109
-9997
30537
-11027
-30855
-23016
-22750
-22563
18900
4166
24392
-26072
-19847
-28962
15325
13479
28252
3347
27647
-26711
-12612
-15667
27712
28628
15939
-8804
10872
-5147
-3834
-4857
5436
9086
2266
-10716
30964
-14638
-25814
-13918
27136
30244
12608
-17973
19516
-4532
-14767
-20103
23972
24840
21369
-5961
7385
-6780
-1515
10123
24413
27833
-11966
-14462
29402
-5046
-21216
-10540
1878
6819
7713
-17604
27635
-10490
-28197
-27547
17743
19461
25702
-11019
11476
-8503
-6872
2917
-24887
-20103
-6812
-6004
26759
-14795
-29236
-56
-17072
-14179
-1828
-2982
28656
-17226
-27873
17423
24096
30514
-11938
-6144
19695
-5568
-15621
-25917
20049
20761
24581
-13102
6629
-2845
-4059
-6546
25824
30791
5264
-20591
25488
-5001
-21503
-11344
21014
24459
8759
-16852
28101
-9921
-21688
-9084
12862
17222
7775
-15590
28820
-11385
-25491
-8723
5626
9406
4192
-19678
26200
-6508
-25702
-21593
-24645
-21314
21155
252
837
-11395
-8140
-14881
-18377
-14270
10490
-8622
26405
-17843
-27482
12325
24574
31559
-8812
-15856
7699
6647
-10224
-15738
152
7241
10805
-21574
24661
-9413
-26940
-32205
6039
10518
30212
-17804
4385
-3689
-9502
-32168
6232
7940
29895
-6154
9934
-13455
-6459
27178
-8829
-1626
-31100
-17361
27789
-58
-31822
6500
15874
26561
-5972
-30082
12989
8997
-22969
-17118
-27939
-20558
16353
-4218
11858
-16342
-20360
-16147
20190
28788
15648
-31014
8540
6420
-17176
4890
-5669
824
-8219
-12210
30406
-12302
-29608
-1960
26278
32758
-761
-25481
17292
3717
-16850
-31131
10221
17413
27232
-24882
17461
-7749
-20613
-32580
-3489
2108
29760
-17282
5175
-5864
-12456
-3589
25991
32625
3037
-25794
8632
8240
-12525
-27425
15350
18488
27053
-13753
2398
-2564
-3852
-15653
23867
29201
14864
-20290
9973
315
-10507
-32732
1503
5099
32204
-11550
-6763
-1406
34
10592
21947
31424
-9284
-20908
17012
2275
-19379
20182
18759
23236
-22672
-15757
28729
-1275
-23119
-8943
-17957
-7504
4070
-25837
19945
-4296
-32484
24722
-8296
536
-29398
-23811
22510
5728
-30728
-10915
-3428
4980
5463
-26147
19748
-2527
-26815
-18546
4330
12955
14795
-26902
18706
-3874
-25173
-11820
-25026
-9473
8481
-30086
12418
-2128
-32697
-17763
15561
25498
20579
-20773
-10031
7799
-1395
741
15653
24056
-2833
-30053
13055
8802
-20730
-32743
-1236
4440
30078
-15599
2632
-5666
-8651
-11238
-8231
780
5970
-28051
16934
-196
-27754
521
22621
32709
1945
-25924
-8638
17088
-3237
-22184
19958
24630
21611
-20498
530
4385
-4624
-32095
-6598
4151
29939
-28241
-3968
3662
-13477
-24512
15633
23180
23159
-22699
4336
428
-9764
-14468
-5984
4894
10516
-31930
7355
5799
-22895
8480
14051
23230
-11352
-26332
19500
4272
-23465
8330
25383
31008
-10589
-23190
16546
6787
-15928
-26450
-12091
-775
23062
-32766
61
6091
-20106
-32761
578
6521
29378
-21109
2737
-1733
-10793
9391
8298
22005
-10287
-32634
2946
14996
-18462
7698
3165
17054
-7761
-32584
-3457
17932
-15860
3305
-14907
-3223
-7202
-31571
8769
9913
-27350
-31883
-7556
3649
25159
-30586
10070
-3108
-22133
-19695
-23787
-9367
13424
-30843
11062
-2435
-29072
-9776
-31274
-17377
6419
-29042
-2950
8142
-22767
13484
4119
18448
-13393
-32748
1091
17137
-19499
-31958
7234
10279
30763
-13382
-3837
-837
-908
-28658
-4392
7943
28322
-30098
-12952
10386
-8554
-24509
16515
24788
21429
-27392
2992
4262
-9700
-32016
-6974
-219
30933
-16889
-11643
2932
-1859
18263
-16929
-4310
-24072
-26732
18948
4478
-31750
-7793
-2861
6999
2510
-31512
8980
7754
-21889
-22127
16853
25189
20956
-28095
-6375
10999
-4535
-21443
-24776
-15572
18885
-17222
-5839
920
-11784
-10395
-31074
-24273
7846
-9532
-3849
-515
-11058
5272
-32340
-25774
-7109
-5403
1052
-902
-13856
-2284
-26736
-11572
-987
-32622
-3072
12468
-23417
-5538
6543
17740
2071
-32588
3418
11658
-16753
-16846
-28104
-15322
14819
-22214
-13824
7831
-10239
19020
11825
27387
-16402
-30383
-12269
24265
-7528
-12753
22251
30561
11817
-29809
-4149
14456
-5739
28909
-15424
-9467
-30880
-6880
10716
3469
-16664
1925
18235
29139
-2689
-32538
-3864
19083
-9532
-29532
-14194
-5165
25009
-26115
-3720
4170
-13072
2137
-9790
3655
-6848
-32725
1658
13091
-20216
-9396
-1037
11901
10091
-27829
-17297
17302
-4228
-28155
13597
20876
25255
-26873
-5056
8136
-4215
10967
-25901
-10867
-17373
-31080
10375
8253
-30295
-19550
-4898
6296
17112
-30257
-12575
14255
-7686
-20484
-25574
-19317
16862
-12477
-5139
-271
-8848
-15601
-28814
-23117
14864
-1226
-11980
-2843
-650
16654
-553
11828
-18122
-31343
-9554
24880
-10774
-21207
-24978
-18431
17645
-14070
-6165
1032
-8799
27996
-9350
6337
-32148
-29655
4445
16382
-21626
-11441
-30704
-21848
8507
-16479
-10374
6556
-9715
-18855
-6693
4215
17176
-29066
-15126
15242
-6244
-32445
-4579
573
30336
-15900
-10958
3052
-3
-17158
-27914
-22496
12688
-9818
-2910
-1864
-9136
-20894
-301
10224
18101
-29927
-13343
14599
-4865
564
-32762
-24059
-3116
-11661
-6629
5052
-11241
30212
-12683
-4934
-32325
-11729
4690
9749
-13922
-13978
-21135
-6986
10899
-29191
-14884
13893
-10410
-31047
-10474
-6910
29885
-5478
-15991
-180
6867
-23969
-11442
-1941
22218
-26583
-19157
15033
-3121
-1625
-32726
-24296
-2623
-16304
-4692
6775
-13812
-24567
-12618
-1784
22099
-25919
-20046
13727
-1960
-24425
-21842
-14281
21968
-14332
-14169
4081
-2889
15047
-29107
-21839
-17724
-11232
-800
7506
-14261
3004
-8133
3996
-5714
-31188
-10048
20362
-11630
-29857
3118
11428
28295
-26744
-18930
14349
1688
-18124
-27297
-22051
17070
-5737
-14449
1645
-613
-30564
7493
10716
30964
-10896
-17026
5326
9314
-4344
-32477
-26560
2015
-8707
-9124
4867
-7375
-29991
-13197
-6418
27080
-16583
-14385
4822
-421
-20652
-25439
-20533
18787
-5944
-13938
893
421
-30316
-12433
-3205
27084
-22994
-18680
10077
-466
706
-31041
-16709
-2135
-22982
-23355
18641
-5549
-18859
-26795
-21127
17060
-7026
-14511
2100
-518
-13418
-29893
-22866
12491
-7503
-20441
6522
1833
-10172
-31148
-25891
9379
-3327
-14396
2436
-969
-7156
20105
28140
8355
-23158
-23181
22670
9866
-29604
-14044
-9376
28982
-8589
-23198
5831
8822
-32027
-6920
1003
29687
-21172
-22436
11518
4740
-16708
-28187
-19386
16883
229
-29812
3479
13206
-231
18891
27299
-1439
-30665
-11546
23571
-1554
-32196
3597
9459
31372
-17864
-24414
12187
10631
-20390
-25649
-21451
20172
-2888
-23525
4919
8112
10109
-31168
-20371
-11643
-13954
-20708
16355
-2297
-30737
-11353
-4936
29386
-18705
-24267
12449
5266
-31476
-9103
-4598
30546
-12698
-22825
8358
8296
10099
2871
14311
-11882
-27836
-17286
25393
-1397
-10898
-9145
-902
11908
-16513
-28301
18404
7806
9972
-2845
7287
-10992
-23367
-22970
26204
3111
-31156
-10145
-4001
30172
-16748
-26101
12108
7858
-10678
-30978
-25781
9897
-3876
-22756
7668
5151
-515
-815
6933
1538
-18008
-27374
23203
8895
-3278
-17704
-7548
-299
-24056
-22248
21390
-494
-3943
-15444
-5808
2563
-21800
-24462
21157
1472
-21777
14708
18993
23632
-14248
-29506
17625
17961
-31814
-7844
-2393
30841
-13701
-29154
11921
12768
-17392
-27769
-26125
17369
6570
-20706
-694
10409
26368
11864
20004
-25951
-22775
-20409
31998
4853
-7338
-31934
-27976
5818
-1100
-13312
2090
-140
-7624
-21688
-13896
7189
-13263
-29962
18006
7966
-27354
3240
7873
28405
-13657
-29784
14810
15367
-29119
13120
17232
27869
-19169
-20225
13601
9962
-22570
-18051
-11005
19686
-20879
-25253
16792
3340
-18685
4115
10439
17669
-19877
-26049
18818
10628
-16746
-28164
-23559
18723
-1821
-32617
10436
12631
-20294
-25725
-22234
18220
-6763
-16985
4698
2189
9385
-31394
-26112
-10912
-6105
-13949
10781
-2754
-27956
-17091
-14491
26243
-5575
-24449
6515
11392
-20977
-11670
-7562
22169
-7064
-31996
13345
15455
-8278
-31704
-26287
6387
-6487
-23102
10379
4520
-25885
-20089
-18935
24076
-250
-17918
403
8724
13220
-16880
-8775
-13619
-12716
-30198
24691
9485
-23933
1580
5121
24450
-14514
-29377
17289
14321
-31364
9485
12169
28203
-17723
-23047
14278
13700
-12206
-30408
-28772
11498
4678
-21812
3008
9793
-291
-18000
-11724
375
-13554
-29831
22152
8171
-26861
-9909
-8528
28460
1355
-32738
7664
21480
-17350
5632
6762
19196
-2875
-32640
14683
23769
11809
-30564
-26390
-10837
-1155
-21612
13569
4032
-26926
-18671
-15789
25273
-10287
-26592
11396
9751
-4302
-26774
-24425
5567
3504
-32579
12465
16604
-23884
-22431
-20911
21812
-1294
-19902
2653
9040
-7960
-31785
-30596
8461
8638
-27819
5366
15019
-20287
-25731
-23817
18956
-2182
-24788
7083
10294
-31868
7622
7570
31715
-6603
-26198
9784
19549
-5857
-15942
-13291
7905
-1274
-32742
15634
17015
-31026
-10433
-12389
30334
5033
-19538
-1512
15573
-2465
-32674
-30043
-62
-2580
-15692
7293
1381
-5107
1837
4504
5311
-10046
-31188
22005
18349
-10751
30952
30172
12452
-7669
-21332
16093
21111
-17292
-15620
-17681
18499
10934
-30888
5303
23981
23725
-10756
-7228
-22455
-5784
-32252
28282
15777
-30125
-7146
-9398
31390
5920
-25978
2295
20395
-19980
-21238
-23371
21348
9960
-31216
5332
21655
-19253
-22666
-26044
15901
8041
-31765
8239
24403
1201
-26761
-27687
999
14141
-29558
7054
19750
7695
-31517
-31219
-9949
3623
-15276
7802
4677
1426
-9065
-9656
2679
9993
-31205
11515
22922
11212
-28883
-30749
-11321
13062
-17521
5138
10976
7255
-26726
-27380
-6209
10150
-31155
12825
19448
-12421
8237
7986
13495
-8254
-31710
21127
21484
-26530
-17778
-20920
25218
6720
-23724
1957
17773
-20823
-7989
-10385
22153
3620
-32566
11145
23565
-17990
-27386
-27413
15630
1277
-15521
1303
5618
-18940
-25326
-26090
19822
7895
-26521
3070
15843
-12293
-29362
-31153
10154
5734
-13269
74
5524
-15605
28812
25660
17490
-290
-18883
9384
22879
2090
-5071
-5792
-4272
-4791
-32414
23735
21937
-1969
-31214
-32766
178
11053
-19724
3004
12390
12779
-29001
-30465
-12064
12710
-20761
7386
12445
373
-31475
-32746
-1162
11445
-9837
-2585
4112
-22308
-16793
-20313
22114
6531
-32109
8754
23316
18712
-16299
-16854
-14289
9219
-31443
17999
19556
31023
10545
7876
-29089
7286
-13088
15234
15511
-32645
2813
-277
29852
-7560
-23988
11219
17893
1896
-8446
-11109
964
11537
-30668
11885
24811
27881
-6074
-11265
-23758
22634
-23693
10499
25191
921
-18440
-21957
380
11444
-30703
12043
22638
-18510
-27037
-28824
15349
1885
-18205
3668
8880
-151
-10974
-12856
4097
9425
-31382
12515
22321
10976
-27411
-30895
-10915
16240
-14020
1956
10632
17494
-13615
-16263
-14868
10994
-30867
17547
22643
-8136
-21326
-24635
10358
10838
-30922
9371
20914
-20501
2752
-7197
20474
17937
-26802
3463
32583
15138
7432
1325
-12609
16153
-26357
13589
29816
-32635
2935
-8851
29011
15338
-16992
-3066
27043
24827
-12479
-18326
-26299
14605
-28630
18457
27073
17943
-15607
-24019
-22287
7471
-15309
15989
14163
-16484
-24072
-27956
17090
13862
-17732
-2981
13311
-31046
-192
-5379
32322
12032
-16210
-5912
19110
2147
12350
-1909
-2275
28583
-14853
-51
32766
32621
3087
-5904
-30353
23903
-8556
5645
19087
31381
9426
4477
-29858
9657
-7562
12116
12897
-24549
-2641
-17035
23304
26558
-19191
-5367
31217
-26303
19540
14061
28682
4687
-23073
5944
25630
24764
-20743
-24324
-21953
16147
-15084
7703
11112
32145
6349
3711
-29919
7209
-6971
11924
9311
-12193
-16036
-26281
13494
21718
-24535
2042
25490
20684
3195
-6104
-16827
22079
-24210
12315
28886
8666
31600
26496
-5557
5936
-13659
11390
21969
-15378
28933
15659
11448
6772
-1495
2105
19028
32550
-1859
-9349
-31404
17827
-3784
5987
11084
13788
-25048
-30876
-10969
23958
-20144
2569
18248
-7811
6190
-3692
12395
22751
-23580
2370
29904
22293
24014
15411
-19786
17840
63
1727
16276
12289
16250
9190
-5926
20252
-25309
9893
31237
-7887
-2896
-11992
11880
25439
-20652
-2333
26663
30793
6320
-1095
-24655
26869
-18753
7480
26638
-2388
23355
6828
3070
25149
-13343
2358
32682
-4510
-24916
-32060
6765
26704
-13219
-8687
15552
-1012
9197
-1447
5505
25566
-20494
1363
30272
-26601
2447
-10703
27569
27709
-17488
-8936
30545
13852
29694
25050
-11628
5128
-885
5959
11699
13663
-24952
-30893
-10920
25466
-11978
-3246
13083
23330
13127
940
-19724
32657
-2675
-4699
22341
16618
2149
-8318
-12168
29751
-13730
-25
24837
7221
31961
24060
-4494
7383
-8522
9188
19431
-9547
31345
17767
13770
25344
-5859
-6919
26961
-11294
30758
17994
12240
23347
-255
-10016
24164
29992
13194
9050
-28914
8437
7805
3041
1924
-9758
-18071
-27261
12036
31725
-8194
-15394
17161
6369
32142
20047
-4649
18439
2838
-2542
18250
30584
11759
2196
-28595
22113
4203
-611
11628
5137
32361
21753
-2753
19128
2158
-4463
18859
20078
25894
19263
-17723
9428
2089
4620
10652
9842
-1940
-14877
-8539
32711
1910
-11905
16057
25644
20397
13442
-22043
17692
-1787
2669
15212
30994
-3844
-11514
-30677
19161
6180
-1433
4266
-4276
18079
4638
9303
31405
-9346
-8140
27852
-20271
25743
15310
23652
16573
-9184
-4755
23342
-28334
16456
1230
29904
28416
-7517
-13724
27734
24265
22020
15119
-22342
14873
7037
-882
8851
7660
3287
-8125
-2717
31731
-8172
-7057
21720
-369
-7200
-19239
2757
32734
1468
-15917
13864
29443
13524
1946
-26455
31490
9056
-9206
13092
32009
7006
-38
-30819
15114
11454
-1212
992
32702
2048
-3968
-31489
19380
10511
-4669
2388
23791
22531
13468
-23867
16411
16624
-5956
4375
-2436
32676
18544
5080
25574
5076
-10509
20372
11069
30840
22046
-10559
12167
16497
-7049
4609
-3249
5184
-7709
4448
32183
6157
-18239
15235
1434
12761
-3604
2152
32596
3336
-12232
18127
4032
-886
-13238
-29
32415
-4785
-10048
19153
-10340
31092
21962
10912
11648
9466
-9449
10192
25622
5378
-4134
-23053
31144
10183
-12874
9821
32497
4194
-3204
-30421
19509
11749
-4373
1589
-9962
31215
22837
12882
12202
-2900
-3236
18009
5121
11969
-146
-1698
32048
6826
-16131
14995
-21448
8517
-6148
25293
32661
-2624
-18092
21652
11801
17270
4803
-10641
28548
16083
-16249
9392
3362
26035
12564
-3155
25173
20975
-18401
7758
8114
13135
307
-5344
30915
10857
-16007
12069
1227
3234
-9826
-582
30227
12648
-19012
8969
6694
32075
25875
-3044
9538
-825
1713
14077
-26097
19814
10875
28007
13167
454
-11112
13400
-11610
30640
21203
12288
10568
7031
-7502
11339
-3111
32618
20452
7595
23615
4007
-10296
18542
14171
29543
18879
-12162
21557
18044
-12497
7207
-6251
24787
9217
9140
30636
11622
-18618
15816
27788
17362
8698
-25526
19038
17102
-7472
1951
8693
26203
12995
-4234
31165
10117
-14883
15991
3997
32522
23593
-1187
17725
9589
-9450
11954
24675
16895
6248
-21988
28215
16660
-13602
7205
-21601
1741
-10762
25553
32714
1860
-22744
15929
24554
21696
12362
-19742
24547
8847
-7219
10479
-6986
32013
25736
9214
5676
3885
-2870
9678
-3064
1093
-10721
7056
32460
4471
-18373
13044
14215
29522
18823
-12999
19585
24510
-14782
1754
25091
21073
13260
-22793
17422
16507
-7338
2562
-14233
29514
23247
14418
4526
9985
-8074
5437
6443
32127
23746
-4334
13282
10960
-6532
8639
-13334
29931
20580
14577
13594
14325
-14700
6742
-4187
13256
1457
5942
29051
15155
-22139
8941
3912
7845
-3159
-1243
30465
12064
-19516
9433
17532
-6877
-15836
-17781
23774
22548
-18070
-5442
163
4532
-6919
585
25102
21060
-21794
-125
10890
30904
22066
-7159
18392
14482
-10568
6982
12361
30345
21837
-10202
16506
18332
-11397
4252
29408
14449
7088
-27334
16822
20693
-8547
-3318
722
32759
26422
1755
5440
6726
-1693
7303
-11880
30537
24191
13695
6435
5948
-6204
8528
24884
21317
15812
-23544
8878
18508
-4020
-3259
26070
19849
12658
-23882
14177
20627
-7552
-3009
3763
32550
24869
54
12118
12806
-8281
5299
-20923
25216
16102
23387
18595
11377
-19771
9457
2191
32693
24426
-1122
11823
19059
-11709
2779
23338
22999
14905
-21796
13100
24542
-9065
-4932
6380
32139
28242
-5883
547
13884
-2419
231
6395
32136
26885
-4000
5907
10354
-3096
4395
4213
32495
27146
-1731
7324
9692
-4628
5945
-20057
25910
15878
21882
19156
13810
-20460
8724
25531
20537
13528
-24612
14306
25957
-11110
-5649
1577
4236
-5766
676
29305
14658
-21813
5736
1623
32726
23031
395
16487
23438
-16846
1468
-21851
24417
19317
21561
-1880
12196
-8238
-1088
-2784
32648
27562
4526
5379
7744
-4503
7070
-18833
26813
17415
21964
17734
9690
-16963
10213
3902
32533
26974
-1978
7257
11378
-5312
5023
13604
29809
22914
-9952
14383
13070
-7377
5278
-6582
32098
26425
7344
3528
15152
-8180
1015
-4219
29910
17871
7301
26769
18896
-21974
9252
-7225
31960
28726
9076
51
3758
-1223
6716
1608
32727
27574
-912
5536
17200
-8712
783
19372
26426
21403
-18846
5479
22107
-5702
-5430
6223
23569
15738
-5607
12621
30238
-18191
-8012
-2404
22782
17161
-162
2950
32633
-17097
-12955
-6992
32012
27292
5374
-5158
22607
-6971
-7647
-1541
32730
27960
4438
5011
8774
-4592
5045
-30719
4636
-229
32766
11377
-261
-14630
7823
9633
19269
12095
-9824
12520
30280
-17604
-8969
-3628
32565
28337
3980
165
19998
-8761
-4188
7598
31873
27382
-4487
636
27928
-9716
-12816
3992
25440
19000
-5018
8494
31646
-17841
-9415
16976
10066
4250
-17331
14412
29426
-17451
-10372
-2904
32638
30486
4562
-3098
4768
1111
4354
-7114
31985
28488
7122
-5134
16121
-4291
-4139
30272
12539
11258
-29476
1523
20425
-1553
-11714
-14965
29149
25403
15064
-2828
17174
-9114
-4441
11105
24013
17152
-9589
13527
29844
-17703
-7960
32766
-30
-1847
-32281
5661
24167
-5944
-16072
32496
4204
3541
-31171
3746
24418
-5559
-16771
-4624
32438
29801
4189
-6216
22949
-7333
-9544
-5280
32338
28262
9700
9440
17059
-14796
48
-11342
30741
26426
9409
-1212
19625
-10044
-3171
3996
32522
30806
-2361
-1686
10696
-1461
433
-23501
22833
19392
20136
-6677
28443
-16110
-14230
-29913
11819
9233
31439
-1406
26619
-22199
-17465
-1828
32715
29784
1572
-2595
19756
-6999
-5069
12058
18785
16640
-13670
-6836
32045
-7144
-20871
15347
28950
26901
-13487
268
19082
-3627
-6499
99
32766
27566
2965
9637
19344
-13344
-193
8923
18338
12752
-7815
12887
30126
-19233
-10126
-15398
28923
25973
15647
-1517
15097
-9660
-2272
7628
16792
16294
-10203
-7162
31974
-9964
-20779
20764
19661
16738
-20699
3963
32526
-12043
-16254
-25069
21099
19318
21861
-10121
29256
-16053
-17655
2737
32652
28510
-1025
6568
27926
-16091
-7751
-556
-28636
-29130
-1682
6899
27203
-21782
-24478
-11094
30831
27926
10492
-3371
24912
-12549
-9615
-16628
14396
15251
13812
-15073
29093
-11678
-23194
20068
13801
11847
-19275
7603
31872
-15622
-16441
-24793
21422
19628
23217
-5044
14038
-10728
-4231
5319
32130
32716
-1816
-5507
1919
5165
3161
26494
7414
8529
-27477
-3408
32589
-8316
-23969
16375
28381
29155
-13517
-2270
26501
-8153
-14679
26836
-1371
1881
-27343
-8397
31672
-5828
-29727
-313
32765
31433
1121
-1486
27884
-13427
-11571
-10854
30917
29582
11661
-6071
9770
-2833
-814
-15462
28795
27612
12614
-9089
31481
-15211
-16688
14834
-27127
-24975
-17966
1367
29575
-15916
-28641
-27242
17312
16248
28454
-2762
5904
-9201
-509
-847
32756
32030
58
-8184
14675
-1280
-4098
-14497
27948
28315
16490
-8930
3508
205
270
-10790
30939
29633
10224
-5505
19007
-8620
-6365
6696
31488
32184
-6148
-9017
11509
2454
-3928
2412
31565
32643
-2844
-12465
19309
-1079
-10964
-1116
32262
32763
511
-8954
29342
-10242
-16092
-19719
24444
27306
18112
-22042
16639
-1247
-15234
2884
18604
21032
-5003
-14139
29559
-7147
-22783
-32350
3645
2196
32693
2425
11402
-18136
-5353
-20605
25477
26207
19182
-8178
25327
-15599
-13679
-6946
-19357
-14734
3860
-14086
24904
-10607
-31002
-5557
32292
32095
5935
-7012
10179
-1329
-955
-4098
32111
32212
6001
-7089
5388
1490
1114
24121
-3738
2201
-24998
-10477
31046
-7095
-30980
2186
12670
18629
-3431
-16428
28350
-8002
-25868
-22429
21983
23194
23145
-8435
8742
-6713
-4110
6771
30395
32003
-7033
-12667
12521
4034
-6588
-19563
16943
19798
15293
-17213
27881
-12020
-21551
-1927
3732
7679
-681
-13816
29711
-10765
-27289
9526
28709
31245
-9868
-13714
16202
2794
-10572
-32766
-101
564
29736
-7354
12046
-13221
-10215
-20566
24276
26061
19861
-6950
20118
-14422
-10030
-7216
28578
31417
9305
-12546
3423
3540
-1820
-13503
24869
28859
15518
-11742
5620
-1634
-4106
12744
-6397
2091
-13014
-14503
27393
-7922
-31794
-17997
25923
27528
17772
-10312
10699
-5177
-4718
-24202
22088
23709
22266
-11718
18444
-10801
-11001
-10588
27542
31610
8627
-18782
19033
-3273
-14289
-16378
26713
28850
15535
-14745
8944
-742
-5312
-15637
-28794
-24858
12929
-2187
14614
-16251
-19515
-30474
-12039
-6520
30017
-12171
-2916
-4311
-7948
-10883
16117
23804
8776
-23859
22459
-4777
-23700
-31596
-8680
-4846
31397
-3325
8102
-16344
-10320
-29983
-13216
-10605
28622
420
5354
-16209
-6436
-20789
-15509
-13260
15755
-952
27222
-24574
-21674
-12825
21615
29837
13542
-15361
27050
-14755
-22761
541
-26261
-13443
-1517
-24721
13018
-7
-32766
738
2553
9988
-5447
-21750
24507
-3747
-26596
-31933
-7342
-216
29083
-17231
13202
-11607
-19410
1625
-32726
-22822
-4249
-13296
13288
-6321
-27037
-19181
22261
25918
20047
-12241
3636
-1837
-2761
1321
24605
32745
1198
-15581
16557
-3329
-15672
-27061
5603
15158
23850
-27009
18552
-7400
-24972
-14141
23807
30092
12966
-23109
8716
2943
-10915
31066
2970
18198
-27248
-23419
11293
9310
-25591
21575
20331
24965
-21222
-13163
9808
8146
-9080
-31968
-7189
-1971
28952
-14959
6374
-7809
-13002
-4796
24538
32425
4716
-22623
15081
726
-16518
-21455
7620
18040
19568
-32246
5819
5272
-18940
-16373
17890
26110
12809
-29991
13197
2918
-18459
10764
108
13818
-11317
-30252
12588
7848
-27483
-10437
24506
31526
8929
-24100
8220
4608
-10732
-16538
6496
16402
13744
-30803
11172
3039
-22078
-32241
-5843
2317
29144
-21843
6303
-5020
-16375
9423
-4561
6162
-13091
-28643
15912
6537
-27807
-31903
-7474
2546
32186
-17343
-2272
-4844
-10945
-17074
22295
27559
17723
-15244
-1286
2713
-633
5639
24827
32282
-5613
-25019
5392
12196
-10640
-1885
18799
28146
-1045
-29496
14270
6023
-19503
1486
17737
28667
-3286
-31008
10588
9176
-19013
1292
26317
32647
-2797
-21940
10770
6165
-10990
-30720
7200
12616
30240
-15117
-2630
-1732
-3489
13592
24287
30248
-12598
-18843
1718
13591
-5394
-29453
12826
19211
26544
-18543
5533
-4232
-7703
16628
10636
23938
-18156
-31659
8447
13846
-20841
-18481
-5654
9494
12903
-25703
20322
-11405
-27789
-25551
14185
21727
24527
-22808
-4990
5556
-3496
13784
16729
29564
-13795
-26415
19388
3339
-25335
4375
27877
32692
-2213
-12541
636
7316
-452
19680
18812
26806
-18843
-20801
3292
14466
-9698
6521
2186
16943
-7233
-32762
518
14526
-18930
-15799
19625
28578
16029
-27353
-9329
13851
-2405
29742
-5631
7716
-31845
-27314
10372
13566
-25102
20006
-25950
-16170
-23400
-19299
10097
6915
-25697
21415
12366
24389
-21882
-26421
6917
13635
-16997
-28665
11082
15825
28692
-14932
-4897
833
-825
18742
8809
22420
-18669
-32486
-4278
22372
-13670
14292
7932
20101
-15327
-32574
3546
17724
-18837
-32585
-3448
972
31747
-10964
-7306
-2236
-697
-26464
-13193
-235
21583
-32766
140
4693
-19468
17366
-27786
-15368
-20509
-19614
4139
7377
-22213
4278
-32486
-20906
-7438
-5306
8040
-9648
-18104
18706
-26902
-16835
-21540
-13440
5631
4225
-19658
21440
-4831
10356
-23978
-32492
4230
16768
-22680
-31388
9404
19522
26221
-32605
9
5853
-11140
-25524
15478
20056
25911
-12822
-10246
3545
5498
-17607
4734
15610
14283
-32615
-3144
11655
-12237
-11679
3578
19248
13087
-28224
-16645
14388
-4200
-18689
-26914
-8668
15184
-6244
-6927
-13124
-4872
-13271
24274
30150
12830
-22427
-4701
10938
-823
1130
6579
18422
-2132
-32120
-6474
18933
-11272
-20611
-25471
-12747
17015
-26780
-10387
8179
-13611
10662
19259
31253
-9842
-28569
-12828
23273
-1713
11380
414
16695
-11538
-31272
-9781
19986
-11409
-26689
-19009
-10564
24353
-13551
-11958
837
-2892
-22235
14851
23921
22393
-24677
-14759
12707
1971
-6205
-32174
-20180
3777
-22541
-12369
11520
-12862
-30415
5409
13484
29863
-21785
-17475
9882
3202
4772
-32417
-22916
-5717
-9291
-10762
6453
-8047
-32763
-463
8385
29275
-28732
-11217
9831
-5105
8395
-31673
-17512
-13596
-25736
1176
9163
-22980
-7243
10690
21870
6187
-30150
-12829
18874
-3521
-13623
900
11605
13279
-28208
-16672
17703
-3362
30220
-4259
7842
-31814
-23427
1170
17290
-15843
32550
-3760
6977
-30795
-15573
-7599
18531
-7278
-11417
-30285
-17820
11613
-18792
-26842
15064
-1262
-2279
8050
19363
3756
-26562
-19185
21529
189
22471
-23847
-14799
-24436
-13898
-289
10351
-15259
-14917
-29174
-16804
15533
-15770
-26761
11545
611
2889
-8936
4745
-4689
-29925
-13347
19948
-9281
-28344
1108
9625
29777
-16708
-28186
12496
11119
-29603
10120
18097
27316
-22797
-14380
9129
3126
-22484
-23835
-17160
18536
-16707
-8578
3946
-7855
-24275
9909
18589
23784
-24436
-21829
16081
6258
-9390
-31392
-22452
6606
-15499
-13623
8385
-7209
17177
-27903
-14791
-20180
-26120
-9716
19862
-15759
-17581
-27650
-21257
13908
-11221
-6166
146
-8116
25804
-11303
3080
-28623
-29075
-15109
27611
-8090
-7704
-21351
-9048
5516
-22984
-23353
17938
-1480
16292
-4386
6059
-13102
-14176
-29541
25107
9181
-19002
-26694
-17317
13792
-18268
-10527
5113
-7449
-21438
-24780
-16790
20747
-7850
-29369
8981
9787
-14101
-29577
-20990
10154
-20560
-11103
9450
-10424
5119
-20069
-8299
-4689
-18753
-26869
21541
1715
-2485
9903
18512
-317
-31239
-9888
21744
-5197
13617
-29803
-21028
-15728
-17082
-9723
15373
-11576
-30839
-11072
-7285
29221
-9283
-16423
2774
5183
-13433
-22470
-13461
13695
-9181
-31454
13058
10487
-32690
-2241
-1069
32090
-2604
-15199
-1196
10552
19975
3979
15214
-19351
-25458
-20628
29055
751
-5590
-981
9076
2936
-26474
-19307
21148
788
-23413
-2104
5221
23657
-14260
-29500
14121
13276
-4882
1364
10149
3881
-25576
-20482
22474
1775
-31182
-10065
-8168
27656
-6219
-8881
-2543
3368
26041
-19887
-7543
-26602
-21206
-19552
25699
-4852
-23583
-13008
-6060
22125
-14099
-29578
14003
11262
-23218
17482
21682
24566
-14656
-26055
15426
16355
15317
7381
16863
-14432
-19083
-26636
27739
10169
26182
19171
23464
-22871
-10097
-11213
20162
5611
25154
-10122
1005
-27591
-28130
-16802
30443
-6102
-32062
-6759
-1041
29162
-17100
-24361
11386
9191
3493
-32580
-27018
-6917
-6803
-9735
6670
-5073
-30075
13006
15948
27781
-14885
-17946
9459
11817
-6976
-32015
-27526
4469
-4883
-9241
2014
-4544
-16183
-28491
-23691
15054
-1432
-21551
3450
7002
15249
-15443
-7176
-12559
-10010
-31200
24071
9644
-19787
-26117
-21617
15748
-9169
-15401
4874
1050
-4862
7522
12546
6707
-9333
-31409
19989
19330
17948
-22274
-13510
-16230
-7987
-31778
23039
9707
-24000
-22308
-18439
20913
-6670
-18996
4207
5976
22689
-23639
-18941
-20829
595
-19383
14391
4656
-25695
1487
4668
25391
-8926
-31527
13935
19945
-4830
-32409
-25123
2247
-5412
-28745
12407
9572
4461
-32461
-28777
-4818
1762
-14714
4788
1191
-18832
-12268
-4796
14021
-29018
-15219
17976
-5236
-10493
-9533
-6748
13539
3161
-32614
10680
20924
-18747
-26873
-21057
17013
-11050
-27779
12740
7300
12873
-1325
5808
-12029
-15996
-28596
27382
10673
-26348
-19478
-16811
24448
-7008
-15662
2854
3183
-3968
-8742
-3598
5124
-5309
-32333
17138
17389
23773
-21239
-14567
-27469
-13657
-29785
29964
9670
-11913
-30524
-26954
10802
-2037
-24049
7895
7724
-11692
325
5492
10759
-17293
-27831
21193
12084
-10576
28074
29350
14568
-7773
-29153
19151
23982
-19632
-26234
-26986
17445
4761
-15807
-952
8088
-26822
-18212
-18169
27267
7731
-27517
648
19336
-25510
-20564
-17198
21966
-11602
-29827
14305
12332
19074
-26643
-21778
-20076
-4559
-10990
11695
-3170
30553
-11837
-6139
-30709
-9134
-12400
19558
-782
11733
-12605
-10597
-7633
5552
-32293
16789
19594
-4078
8880
9915
9545
3708
-32556
14362
25231
-19380
-16995
-14527
19851
-267
-32765
10279
18952
-19659
-26214
-23567
15778
-7335
-22414
9154
7362
7040
-32001
-29348
-8555
3023
-16872
6927
4630
1275
-32742
-30234
-137
5742
-23791
7226
9183
-25561
17467
18881
26779
-11839
-28048
15970
19698
-25602
-3140
-481
24528
-12317
-30363
16119
16327
7466
-10347
-8612
-4524
4808
-32412
16314
21225
-3014
-32628
-31776
3900
11773
-20575
561
10605
-19397
-353
1334
21821
-3246
-32605
13556
21077
11469
6456
9330
-10174
1417
-32603
19564
26284
10976
-24651
-20408
-10074
-3624
-32565
21424
13142
-10881
-25573
-23153
11781
1717
-32721
11547
16563
-32761
-622
-3162
32098
1610
-28272
6331
23598
-18002
-26641
-28096
16860
9436
-26682
2904
18119
4776
-32417
-30576
-5494
3412
-22628
10014
8576
20087
-3927
-3171
-17934
2009
-32705
23842
22431
-6353
-29918
-27497
7154
346
-32765
14150
14200
32485
4285
3597
-29934
6434
-19697
18475
17244
-7229
-4707
-3729
9197
-2058
-32702
17409
20468
22780
14300
9153
-21666
16649
-22230
12771
30175
-6722
-19921
-22032
8370
13801
-29718
5986
22612
8678
2599
-632
-7416
13293
-29766
13072
30046
22278
-14322
-17320
-19045
18241
-27220
12025
23274
-6532
7039
5384
11510
4978
-32386
14670
25904
29161
14942
14978
-26890
55
-10985
16660
10863
-17245
8797
1168
20160
19960
-25985
892
32433
-4791
32414
25781
5274
8024
-12013
5607
24738
-12724
10713
5453
12497
5601
-29515
13874
29684
-13444
-28757
-30258
12573
9020
-16788
-1029
9267
11191
-5795
-6141
-9722
5567
-32290
18596
24344
-4015
-31535
-32354
5179
9289
-28089
8043
15086
-14606
-15569
-23573
11986
20078
-25894
1176
28793
-27434
16855
10180
28746
11685
-26894
3401
32589
-24722
-17552
-20212
25790
9357
-28030
2677
20556
9318
31414
29273
-7951
-4854
-15390
18458
18285
11734
-27390
-29969
-13247
12531
-9779
1727
6531
-8516
18055
15015
11866
4674
-30486
14336
29464
7312
-30598
-32109
-6530
12454
-14073
1930
6697
7118
-4307
-8243
-4069
11288
-30760
15108
25855
-5604
-673
-3148
8912
8633
-31609
12095
26252
-5546
-12146
-23273
5310
29996
-13185
-7874
24024
16508
-25524
-29684
-13875
24628
-19227
1175
17857
32472
4380
2243
-28274
10567
-16882
14889
16333
-15962
13043
12710
18575
-5764
-32255
18404
23813
31408
9335
7486
-28698
5922
-16670
17733
16311
28866
-2056
-9957
-25723
30241
-12614
878
23528
20641
-25448
-26648
-18967
13033
-17047
7556
10097
27883
-8846
-18012
-27371
29833
-5586
-2403
18042
20636
25451
19492
-20140
3239
-10695
16445
17931
28127
-14437
-18650
-26941
15818
-7903
5473
8875
-6799
14590
7678
11354
17808
-26796
6002
32212
11251
-29693
-31467
-9135
12402
-29803
12583
17853
6091
1073
-12545
-5342
26012
-19925
5439
30431
-2151
27644
19160
7544
23502
-18349
-36
32766
31907
-7453
-10797
-29207
16217
-8422
6113
10424
13991
29629
23749
-13904
5810
-2361
7267
15008
2019
32704
26886
1438
9486
-9543
4670
21175
3585
26581
15766
474
19013
-19365
7885
31804
22612
-21545
-26199
-19679
22930
-8542
-1225
9695
-3198
-27778
-32316
5416
19009
-24222
1937
18457
32683
2332
-4744
-30596
22798
-1404
575
12800
12801
-16067
-27556
-10866
20408
-25635
13131
24350
32430
-4680
-7111
-30601
5403
-11601
15654
8357
31273
9779
1448
-27334
21912
-10048
7081
19946
22652
-20287
-25903
-20067
24300
-12848
1049
14649
29118
15025
4862
-22805
27165
-14175
6543
26222
30738
-8996
-14296
-29483
12846
-16157
14262
15326
11456
1419
-11916
-9802
31830
-7777
-4519
23850
29404
-6846
-14851
-29208
28562
6637
-9063
8775
32379
-5023
-9172
-28205
16855
-8679
6735
10669
20047
-24430
-28116
-16826
20461
-14781
2541
11895
32403
-4869
-13067
-27182
28249
-10717
2741
18121
-2775
31156
19973
8331
21677
-18010
3307
32599
-231
11445
-573
2459
31082
-10370
-7398
28528
27729
4581
-6512
-24276
31635
-8536
-210
23656
28230
-7409
-18399
-25611
32743
-1241
-5402
15238
29500
14261
7155
-26688
18306
1010
1806
12174
6138
16966
4668
-1588
31301
-9691
-5344
27862
-4799
-8624
-20517
5155
32702
2058
-18014
14702
30921
10841
4810
-28338
10824
-4021
9925
10518
18186
-20290
-27569
-17709
23666
-340
-5989
6680
-17982
27391
18263
20953
14070
-12202
-1517
25001
14341
-10464
-22743
-15494
31407
9340
-14666
8805
3259
-19819
-32315
-5419
22714
628
-6671
8302
-3387
-20140
-32209
4374
32100
-6574
-12064
16628
-5080
-19931
-32461
4461
28644
-3379
-11637
13640
15025
29118
23411
-12717
10157
2041
1574
12252
-30503
11966
3308
32250
8783
-16079
-186
20943
-26339
19491
4346
27334
30786
-731
-18843
25462
5299
-26430
-32464
-4438
23062
-4009
-8920
6940
28321
16479
11124
-25845
12056
5046
2363
6240
31872
-3275
-13386
-29907
29822
5576
-6690
10127
29467
14328
10535
-27659
9610
6474
2406
3509
26967
-14082
-22837
-23496
28356
-3378
-3405
11107
29617
14017
6581
-25336
21102
1383
-202
11864
17311
27820
19441
-13327
15664
10
1645
15037
25664
20371
15766
-22784
11350
5487
1284
6447
31382
-9425
-14047
-28633
16640
-2330
3056
5601
16491
28314
17262
-12504
22031
2116
-2523
17502
16323
28411
18258
-15216
15608
12769
-4633
8101
29361
14545
10301
-27297
8185
4352
5083
4226
32374
-5054
-7100
-30789
7314
1929
5836
-935
-1944
15381
63
3841
31706
8266
-16466
16343
26484
-635
-12732
-21994
32763
478
-6148
14379
-14638
12759
-648
18652
32631
-2972
-16544
22996
2986
32630
25456
-182
11739
3025
-2883
13430
30102
12942
2047
-29844
21577
22315
-9895
-500
7825
14303
1187
-5058
31317
9637
-15523
13852
6330
7574
-5657
-2418
32761
608
-11923
18259
21274
24921
18705
-17489
10256
3082
3442
8684
-11819
30561
19361
16318
18664
-7506
-3732
23850
6055
32202
24735
-4835
6398
9377
-1245
6529
20410
16172
3952
-17495
30315
12436
-12921
11349
3772
-5899
-18094
-821
32488
4263
-15915
11546
8510
31642
24000
-4953
13256
3666
-2195
12754
29456
14351
4864
-26889
25224
15019
-9662
5414
-4671
32432
24232
4922
4975
12433
-5105
4645
6992
2969
-8438
-4827
31326
9607
-17547
10360
29940
8651
-1252
-22885
32710
1929
-7348
14069
5433
-26506
-32258
-5749
21251
7506
-14637
-2015
8997
31507
18432
-4937
27210
10105
-12015
15762
3833
2430
-8640
-462
32249
5801
-17296
12629
-17263
4328
-11364
19355
32164
6256
-20729
14732
32542
-3826
-9995
-31199
17953
14837
-6271
-3700
30125
12889
1117
-26109
26973
18034
-10635
2774
14168
-20124
-29697
-13846
28299
15886
-18514
-2538
16427
28351
16900
-9982
28837
2528
-7679
19279
2652
32659
21063
-898
22827
17790
-16344
9739
16041
28571
22333
-13469
12194
9379
-3386
7290
6683
32078
22340
-2570
21062
8983
-10099
13007
12835
30148
26253
-11094
1986
8927
1562
2966
12751
3029
-8767
-11725
24226
22061
-17037
-2436
-12453
30308
21741
11906
9442
15550
-12651
4998
18945
26341
13486
-15112
28379
16379
-13400
9937
7746
31838
24137
-5298
13941
12291
-8009
7602
8949
20050
8809
-7225
23527
22806
-18408
1848
4438
32464
27167
-4297
2424
13527
-3090
2119
25287
20838
12045
-23941
19911
24075
-12898
-931
-7663
31858
24832
10820
10894
-577
-4058
15381
30176
12769
8958
-28863
7458
16020
-1392
-5115
28139
12108
3879
-28983
16456
28334
-12520
-7526
11151
30811
21313
-9906
19007
21232
-14541
4530
31556
8823
3147
-29843
15591
18779
-7180
-4316
26478
19302
13063
-25556
13052
21453
-7874
-3411
32564
3640
-3206
-31827
18793
23447
-11209
-6744
8078
31755
24993
-8106
5117
18750
-5788
-383
9221
31442
25808
-7025
8737
12422
-5346
4410
26138
12555
3511
-21807
27505
17808
-14641
2824
15231
29011
21886
-13376
13495
17599
-8823
2652
26468
19315
15221
-24031
8623
13364
-1523
-1163
12738
30189
24682
-11401
5202
17790
-4797
-1496
7585
31876
27358
-6040
3910
13332
-3780
1628
5700
32267
28048
-3380
3430
7231
-580
5489
11623
21174
12054
-12358
13989
29630
-15948
-6508
20331
25696
20856
-19390
5859
18702
-3847
-3285
-479
32763
26987
179
3071
19637
-8467
-1574
27608
17647
11957
-26410
12891
21922
-8170
-4636
-5161
32357
27316
7636
4178
8614
-4889
4956
2416
32677
25752
-1183
3520
21343
-7667
-4076
19572
26279
22709
-18370
4470
15794
-2451
-1888
24067
-17079
-22369
-23942
21512
20596
-16502
-9327
18107
27309
22249
-16143
7484
18383
-5492
-2275
14727
29270
24963
-13825
2625
19601
-4248
-4431
10431
31062
23492
-9679
8841
29022
-13181
-7006
15049
29106
21020
-11426
20600
20832
-15373
2919
-11233
11371
1606
11461
19854
26066
-25748
-3956
23858
22459
18386
-21122
9749
15260
-4327
-1056
17437
19188
12067
-16218
9932
31225
-13553
-12604
6371
-8290
-14724
-8407
17250
27858
-22172
-12194
-4734
26175
18386
5037
11619
30637
-21465
-7458
28893
15454
12132
-26479
7477
20883
-5027
-8877
1089
32748
26253
-2040
6353
28296
-15080
-5613
15408
28918
25399
-11762
6483
8752
-1156
3601
2349
-3606
-9343
-2831
10615
30999
-20775
-18062
11297
30757
28875
-10048
-3299
13467
605
-2917
-9903
26055
18598
10302
6279
32159
-20161
-11800
11790
30572
26703
-9465
4337
15376
-4201
-1019
4305
32482
24757
-791
14894
26678
-18267
-3358
21198
24986
22721
-20375
-398
18594
-934
-7001
27677
17539
13644
-24328
11539
21064
-8041
-6734
20704
25396
22557
-20018
556
26947
-6258
-12520
8686
31594
27976
-5750
6284
11798
-5006
2857
18862
26793
27318
-14805
-5794
3241
9117
-537
4032
32517
29108
-2950
-138
17085
-4946
-2920
14636
29316
27432
-13085
-560
21642
-5117
-8313
14309
16606
12769
-15376
6591
32097
-15466
-14241
18052
27345
24354
-16647
2828
16612
-2561
-3193
22256
24048
23065
-20793
-199
15942
-325
-5736
4233
-8945
-15096
374
26537
19221
-24925
-5681
15746
28735
27806
-14716
-5536
14021
2845
-5379
-29894
12200
4134
30141
15979
28426
-31928
-7364
10779
30943
28264
-6457
7332
13134
-6666
1062
-22307
24001
18850
23797
6820
14835
-16593
208
8556
17571
17349
-11193
-10759
30950
-6604
-21749
12443
26543
21927
-12259
4234
32492
-13539
-13521
20585
25493
24967
-18411
-753
11038
2106
-2433
-4244
32490
28791
8140
6046
23185
-15651
-6153
20489
25570
22960
-16015
5863
17462
-4826
-5303
12102
30450
25900
-12079
5337
30773
-13428
-10111
-21640
24604
21868
20716
-3745
25038
-16346
-11503
5493
32303
31943
-3539
-5317
15234
-1998
-5475
20023
25937
22463
-18194
10387
31062
-15768
-10583
19260
11973
10086
-19939
4735
32423
-14232
-17624
17117
27940
26060
-16542
2268
27574
-9921
-10873
867
25575
26558
-1886
-13251
29967
-7493
-20966
5352
30939
32596
-3342
-9253
21288
-4484
-12923
8173
31731
30500
-7731
-4444
24081
-6160
-10627
30095
12959
14306
-28212
-327
19708
-1896
-13011
12043
30394
30960
-10728
-8740
13920
2903
-6784
13391
-11189
-10541
-17258
-659
32760
-15051
-26092
17223
27874
28276
-14244
-1373
17223
-2838
-7349
4395
32470
31085
-4721
-5693
26574
-7833
-12263
-8614
22049
23113
5602
-11653
30624
-12617
-19853
18339
27154
26354
-16365
-1474
20059
-3050
-8935
-7364
31333
29499
14264
7255
13082
-13235
-763
-8925
31380
31107
10296
-5740
7454
-2033
736
30260
10885
13505
-29854
-6629
19542
1935
-16104
10640
-6265
-4647
-11954
-246
32766
-16927
-26323
7339
31934
32053
-3427
971
21505
-10109
-8383
13990
24847
26906
-13280
-4984
32385
-11661
-20089
19237
26343
27623
-17624
-8601
20409
721
-13369
27931
10987
14742
-29263
-10276
28336
-2267
-23397
261
32765
32762
-231
-9117
17997
-2874
-7870
30709
1067
6662
-32082
-16673
24954
3844
-27916
-19287
-20856
-20517
19344
11313
21286
-28410
-16324
22609
6431
9327
-23394
-2203
32692
-12115
-23836
-14020
29616
29169
13527
-4284
28043
-16913
-12958
31940
7312
10219
-30512
-2881
13400
2968
-11396
-12134
29646
31240
9885
-14160
25232
-8792
-15129
21435
21072
24945
-21245
-13838
22885
1645
-19026
-15820
27121
29093
15074
-15897
12184
-1486
-8375
4675
14466
23095
-4685
-26838
18797
4128
-25302
18261
21033
23779
-18841
-9746
31283
-6437
-22359
-21844
24423
23593
19307
-8234
25753
-14995
-13358
22210
-577
5395
-25782
-14052
29600
-4241
-28491
23140
12922
20301
-23328
-22099
24193
4674
-27465
-4191
5227
8487
488
-13433
29886
-11374
-25666
-10303
27148
31131
10223
-18862
11461
1414
-10272
-1543
29503
32759
-718
-17629
26231
-4636
-18306
-9204
29438
31166
10116
-8938
16008
-6376
-7982
16323
25825
28740
-15737
-9640
23861
-2935
-15919
15597
26184
28982
-15287
-11453
20271
412
-13874
-14584
27508
30064
13030
-15103
18273
-5741
-11799
6370
14642
21772
-8507
-21601
24638
-1522
-24895
26236
-10892
-1193
-26627
-16919
24523
-902
-32754
10754
8748
18184
-10514
-24983
21200
2603
-28521
3807
10546
17052
-5119
-15341
28953
-9186
-26565
-18715
14243
19149
19239
-3353
30547
-25460
-20625
-3948
26751
32443
4593
-20652
6209
6617
-8218
-6323
24938
31887
7538
-17719
11703
-730
-11883
6755
22336
31930
-6930
-32414
4794
16621
-15196
-10550
3824
12744
8097
-25645
20395
-3422
-27165
21415
19080
24453
-21810
-15107
20372
2806
-18107
18269
5882
14173
-21871
-24153
22142
4683
-26526
6716
26010
32126
-6446
-22986
10390
9184
-13061
10822
18611
28626
-10754
-26172
19714
4157
-24565
-4131
25181
31000
1826
-23712
22613
-937
-20694
5163
-5243
6979
-8259
-26031
19900
-545
-29954
-14774
-29247
-21031
13603
-3430
12208
-17141
-19988
-20714
-25389
-16771
17044
-16917
18592
-12724
-29668
25504
-1751
7088
-28819
-22658
23670
4555
-29923
-7482
28517
32232
5893
-17221
11050
1497
-7360
-7516
24849
32131
6423
-25976
8524
6589
-12388
-3414
-14064
31
2758
-32098
6586
7436
-28431
3453
27485
32514
-4057
-19928
12280
5532
-11363
31378
4936
11778
-30576
-8190
15657
2186
-16533
-32239
-5857
278
29090
-18412
3790
-4476
-12566
-30944
-4489
6415
25714
-29121
15019
-6502
-25422
-12850
21418
30603
11708
-25006
6094
3707
-11119
-8627
24116
31569
8778
-10939
20452
-11905
-14097
-6097
9503
18757
2853
-30203
12704
5856
-21551
-8505
17196
29390
9519
-32766
82
12251
-14356
-30651
-11583
-2266
26972
-26438
3676
-564
-18605
26595
16273
20276
-25739
-10833
8035
9634
-8264
20087
19900
26555
-19195
-18454
3751
13551
-8267
-13486
20726
29092
15075
-19054
4495
855
-8960
4557
27472
32435
-4651
-18131
5962
8148
-5989
30623
-4756
5825
-32244
-25170
10564
14385
-23970
29593
6873
13112
-30028
-13814
12174
8413
-15391
-1340
24842
32759
681
-22380
13020
2940
-14280
30208
-5707
2973
-32631
-21971
15487
10558
-25436
-5806
7111
21518
7856
-30416
-12187
16471
-8247
-13796
17943
28359
13246
-32622
-3071
13595
-10196
-17896
-27447
-21944
14283
-11317
3682
-4829
-15582
24850
-18400
-3401
-25660
-27649
10778
10347
-31090
-7936
-31791
-15723
3368
-28294
10565
-1348
-32102
-14964
-9677
3915
13258
-32683
-2341
9596
-19484
-24246
14759
23504
22829
-28309
-5694
9571
-5869
-7330
1839
11801
2054
-30465
12064
5242
-22053
-10992
24037
30177
12766
-18659
-9145
11230
2735
-3980
9202
21388
3923
-31464
-9146
17883
-8576
25230
10509
21663
-24584
-25477
844
18356
-13411
20557
-17591
-115
-20789
-32452
-4530
19464
-22392
-3088
7985
19356
-709
-32672
2490
12993
-15245
4045
10474
22350
-6484
-32729
1559
15633
-15136
-5842
19582
30191
4851
-32651
-2747
16118
-9626
26375
10643
19703
-26180
-20065
4462
14331
-12535
16024
11140
21864
-19003
-30036
13094
11944
-21964
15725
15577
27925
-17141
-32362
4600
17376
-16642
4264
20355
30177
-5709
-32766
-251
18644
-11244
16891
19878
29491
-14279
-20720
-9616
19619
-912
21961
-24318
-13096
-23139
-17917
-2954
12995
-16346
-16370
-148
10792
12752
-32508
-4108
12517
-12630
-21759
19061
25204
20937
-20218
-3634
5491
-1564
-26861
-18765
-8646
18484
-26121
14954
-7038
-25812
-15784
813
11767
11377
-32766
161
10229
-15397
24584
5935
18213
-27238
-31177
7352
17620
-20514
-31228
-9921
931
29598
-25373
-12139
6504
-7245
28715
4291
13908
-29668
-20204
4071
14860
-13574
6742
-32065
-18205
-9493
-25159
-8443
14055
-17470
-16744
-18275
-3477
11656
-31908
-7451
10127
-15233
13868
-12804
1116
-18541
-32209
6016
13817
-24609
-15404
-28920
-21864
8863
-18493
5259
-861
-19092
-13050
-30055
-18892
10612
-21275
-11886
8834
-11743
30318
241
7549
-31885
-17747
6009
14233
-14427
-8770
5482
17025
7594
-30119
-12903
18038
-5119
22892
-23443
-10260
-26400
-26724
1056
16008
-22405
647
-32760
-17954
-2018
-23854
-20485
17431
-8927
10880
-30907
-15605
-16047
-28543
-2851
13590
-21487
-14886
-15667
-3785
13687
-25349
-20762
16183
-3575
-13562
-29828
-21551
10529
-12143
-8461
2004
-8290
-181
25191
32584
-3450
-26343
3018
12786
-6266
5840
-32242
-18915
-9216
-24223
-8850
13707
-16125
22419
-23896
-13600
-23551
-13617
-7350
13178
-10385
19185
16768
28333
-16458
-25740
-20003
28704
2798
-17433
9951
19358
16927
-26482
-19296
17913
3098
-31816
-7833
-3534
28359
-15196
-6641
808
-2991
-21513
-18967
-3353
19508
-25502
-20573
10798
-4261
1970
-32707
-21582
-4530
-18055
-11491
11016
-11198
6227
-32169
-21794
-6610
-15277
-19495
15739
-5109
9431
-31380
-19066
-9124
-15521
-22353
17175
-3628
31270
3207
15416
-28913
-17669
-20857
26357
3539
24258
15288
25536
-20532
-21988
-18633
27873
2471
12663
-30221
-16414
-14041
-24007
-17365
20462
-10659
-28479
-11661
-801
23534
-29792
-13641
11562
-6413
-3820
-22133
-9221
-407
-30346
-12358
17609
-12473
18984
781
12779
-17306
-24196
-22095
27993
670
-19851
-26068
-16981
16723
-13376
-18232
5975
-130
13248
-29968
-19301
-14143
-13908
-19145
16822
-3668
-8600
-31618
-25722
4718
-7196
-3521
-910
-9260
14755
-22796
-9947
-15924
-24145
-22150
25110
-4678
2638
7007
17683
-4803
-30949
-10760
21960
-6147
-7553
-30050
-16688
-1324
-32271
-5677
13315
-17506
-2375
-2629
6873
3015
-20465
-25589
21953
5741
2409
-13818
-1430
-4653
-22677
-23651
21252
1542
-1108
-32748
-25334
412
-7696
-15593
7580
-3414
-28031
4474
12157
26695
-27279
-18152
15626
1031
525
11341
21710
-4236
-32006
-7016
20226
-7052
-20690
-9671
-924
19604
-18324
-27164
15245
7927
4794
-25778
-14534
-4521
-16083
-28548
20582
2886
-6255
-29543
-18059
1262
-29466
-14332
18228
-12129
8725
16883
25974
-9339
-25425
-20668
27347
6649
1282
-32741
-21205
-3651
-23548
-22680
21200
-5976
-15686
-28768
-20768
13699
-14595
-22640
11665
741
-25811
-10188
-1805
24184
-15375
-28935
12744
11242
19004
-26692
-15712
-21978
-18209
-12398
17683
-8607
27519
-17786
-9409
-29758
-15444
-9131
19021
-7113
-17987
-27388
-19723
17041
-9930
-28320
11005
7302
24026
-12513
-36
-27311
-29295
-14678
28356
-8452
-22012
-24272
-20040
22622
-959
-26894
4909
11459
21513
-24714
-13335
-24553
-28369
-15489
27973
-11520
17817
-22919
-12532
-18093
-15251
-29001
25440
4886
-8274
-31705
-21266
3940
-21193
-22205
16679
-2651
4185
-32498
-26301
-3985
-3063
-22899
11226
4079
-28668
-15867
-10589
25595
-13292
-25824
10707
9730
20714
-25388
-20792
-20702
-1296
-9296
9036
-2984
5745
-21893
-10588
-9023
-21083
-25082
22599
1627
6192
-10541
-1135
-7990
-20269
-25745
24456
5259
32695
-2156
2329
-32269
-7335
-6303
16706
-1573
-1763
-32719
-30482
-3490
4268
3684
-8714
-7212
-13855
3761
9206
15435
-14808
-29229
19240
13759
-13223
-29980
-25340
11621
-2235
-26499
8107
10155
13273
-29124
-19688
-12548
-14978
-29143
24474
2229
-14708
-10987
-4540
13462
-14477
-29395
17563
11390
10400
-31072
-24072
-12041
-9691
-19286
15608
-681
18156
-27276
-21265
-18656
-5017
-16588
14028
145
20130
-15527
-7464
-20358
-14855
-29205
28260
7653
32716
-1817
4229
-30222
-4830
-26732
25513
13772
-16049
-12632
-7840
13661
-8595
-31619
15299
16920
19391
-26412
-20933
-20164
-5475
-16078
15005
31
8977
-25940
-16320
-8694
-14873
-29196
22682
3886
11457
-16853
-11923
-8840
418
-32764
18247
16745
7791
-31827
-27486
-8266
-1304
-17559
9514
1770
-30678
6489
8468
31653
-7500
-25877
8904
17223
-17003
15331
18935
14971
-15893
-28654
20435
19809
-9108
-31475
-29398
9380
5752
-28303
6625
13980
-7200
1827
5579
7733
-9250
-31434
19932
18702
-4106
-9008
-3867
5416
-8972
-31514
19383
14431
-27950
-17101
-14903
28133
-1319
-27351
5254
14515
6930
-18366
-15438
-7243
1888
-32712
17184
19618
10698
-30971
-27668
-9748
5574
-23731
9748
9540
2160
2728
8924
-2137
-17731
-27554
25236
11229
24208
-19333
-13662
-24473
-7794
-31826
27689
12476
-693
-22328
-18499
-3353
-13022
-30068
23586
10917
26957
-17893
-13985
-29632
-4781
-26259
24532
12465
-14006
-29622
-27865
14122
4459
-31151
7907
16336
2989
-32630
-28697
-3088
-2112
-28862
15537
9341
3791
-32546
-31347
-4501
9852
-17375
2122
8287
-10659
-17936
-16789
12632
7864
-31809
7708
21109
-25283
9096
10141
25675
-11294
-30758
17349
20034
13342
-23169
-18444
-11469
-2915
-32637
21423
13155
8840
-2043
-1206
-7571
729
-32758
20955
23284
10333
-31095
-29100
-9401
6887
-20109
7646
7507
29167
-14930
-13241
-28094
3840
-15255
14283
7034
720
3898
1933
1552
9359
-31401
13328
28767
2071
-16888
-15602
65
7158
-31975
12613
20789
6523
-29174
-30755
-6311
16813
-28124
6628
20894
12923
-19764
-22021
-10679
18068
-27335
8187
22408
-2321
-32684
-32071
-2989
3849
-24627
9275
14311
-1599
4140
5132
3787
-4020
-32519
20882
21969
30962
10724
12287
-27453
1395
-13118
16157
10593
27508
-17802
-16499
-26808
4895
-15670
13320
7352
11927
-30222
-30605
-11703
13156
-21727
6382
13445
-2933
-32444
-32759
694
4829
-24558
9181
12299
-21257
-17262
-20125
21315
8900
-31535
6532
23764
-23345
4180
136
23105
8128
-31742
7881
31150
17790
13278
11589
-13043
7636
-28895
19041
26666
32554
3723
792
-30825
8787
-16070
16497
16572
16476
-15760
-14264
-13477
2018
-32704
21765
17675
31809
-7863
-7430
-28749
8050
-21767
16965
15185
7500
-21141
-21250
-5115
8601
-31618
14191
19659
-18688
6722
964
22561
17624
-27623
1434
30799
26767
-18728
-18386
-27122
3945
-12710
12896
5254
10205
4868
1662
-5435
12747
-30185
14346
27920
-1365
-27592
-32739
-1344
17214
-6818
-5856
8246
13711
-11058
-15989
-16421
6961
-30226
20889
25244
13569
-29653
-29319
-14630
6092
-6992
3133
-705
-13546
13187
6835
15775
13165
-27838
7292
31945
20489
-20683
-24388
-21883
14154
-10920
5199
10254
14351
-28853
-29629
-13991
10756
-7537
1245
1567
-20502
-4373
-11347
21075
16206
-28478
3061
29828
32765
317
-870
-31212
4033
-13996
17327
11202
28708
-15509
-18429
-27092
10882
-30343
21528
22323
-3918
1707
-2674
7901
13875
-29684
9259
28053
10174
-27778
-30574
-11784
13306
-10783
1421
7754
-5069
-28848
-32655
2700
9786
-13527
1122
8288
28552
16075
11621
-27523
8945
-16875
16832
22125
27446
17898
10109
-24998
16687
-12499
10991
22900
30986
-1270
-7058
-27953
18041
-27083
17556
27666
6346
-29426
-32311
-5446
17812
-18423
1132
13502
26456
-15695
-17001
-28010
7058
-1545
5258
783
32519
-4023
-11138
-30127
22867
-4406
2303
12802
26452
19337
13686
-23068
15296
-20247
14406
27771
8480
-30075
-31575
-8756
11601
-10738
1059
4821
-2618
-25697
-32582
3471
26226
-12237
-8515
15326
12040
-27085
-31250
-9854
23834
-13737
-2951
13195
21110
-20358
-23749
-22574
6589
-6496
8406
2610
22867
-22869
-25112
-21048
14784
-10284
4073
6735
8783
-30079
-31786
-7956
14042
-14932
1736
8433
31692
-4789
-9871
-31244
13851
-7738
8928
11408
-16508
22
-7991
17949
13027
-30066
8742
29873
9588
-17414
-25652
-8025
23128
-23210
5763
24002
8196
-16825
-21794
-4266
23238
-23100
2495
22091
19508
-14313
-21316
-18071
18812
-26828
13472
25086
8870
-27217
-32133
-6414
21967
-18454
582
15368
18284
-200
-8486
-13506
25644
-20396
5723
26175
32660
-2639
-8172
-29967
19261
-5519
4341
11731
4010
-20001
-27551
-2473
17965
-27403
9515
23430
31277
9767
3074
-29112
20660
411
552
12917
14915
-22572
-29692
-12989
31784
-7964
-8919
15211
28766
15690
12488
-27441
5109
143
8894
6505
32688
-2265
-5453
-32059
10286
3283
4017
1515
32621
3086
-3389
-29791
15374
-6343
8678
11692
17977
-18973
-28591
-16006
25610
-18347
4852
20380
126
-26199
-32724
-1663
20006
-1362
-9593
5262
30390
-9468
-15226
-29014
21063
18
-994
7494
17686
-21178
-28023
-16980
23130
-7585
-1859
11375
31689
8332
-286
-28110
18520
-8049
8915
16390
17130
-5844
-17336
-14322
17003
-27816
18493
27049
28357
-12899
-17550
-27670
18376
1499
-1493
4364
7178
10766
-730
-2368
29560
-14136
-1793
28019
17362
-22197
-27711
-17486
21488
2244
-7537
3210
32481
4317
-1697
-31055
17230
4842
294
6081
32706
1994
-7242
-28896
26204
-5720
2444
16851
31271
9786
630
-29335
21806
-1177
2613
14913
32614
3157
-1474
-30177
15903
-95
3106
7842
14885
-21834
-29945
-13302
26637
-10126
-2977
14485
25439
20652
10750
-23675
20170
5352
-1111
13097
24480
21780
16588
-21560
9804
-1234
6475
11319
30892
1239
-9582
-31334
20710
9605
-1783
4941
21269
-18010
-25746
-20268
28585
4014
-10738
6403
-28262
16580
3219
28441
21696
-5943
-11236
23767
12058
30467
20958
-12591
8218
7856
1845
9754
17612
27631
22388
-15498
6972
2961
4006
9287
31886
7543
-3700
-31332
29884
12399
-9659
9778
20239
-23113
-27352
-18042
20922
-2909
-4148
4459
32761
-580
-4174
-30621
11140
3191
3879
1538
32349
-5126
-11197
-30794
16442
1304
2627
4811
3097
-2669
-13451
660
30743
-11337
-6713
22799
31112
-6166
-14049
-29602
25238
3272
-4078
8475
-9865
-15044
-27765
7364
32554
3723
-19943
14152
-7864
-24240
-31891
7522
25028
-1426
-15153
8084
29304
-7605
-17488
-27709
31027
8662
-10637
6989
18532
-17971
-27253
-18190
29866
6439
-12888
5934
31727
8187
-2096
-28095
28635
2281
-3497
14502
29140
12091
-1297
-25084
32072
6712
-6894
14219
28224
16645
9058
-25683
17405
4094
615
10423
-7229
-26752
-32091
6618
19861
-493
-13429
3698
28661
-9025
-15017
-29122
20923
13140
-9122
-833
16514
-9522
-21100
-15817
31809
7863
-13792
8763
-19217
-18809
-28318
16483
23015
7320
-20882
4534
17266
24315
11998
-19181
19792
26113
-13792
1941
18003
-470
-14568
-14702
31659
8446
-11099
9156
15025
29119
19540
-10858
19528
1732
-1950
16368
-9248
21528
5307
12633
32758
-725
-13632
24990
17844
27481
19613
-15324
14860
9516
-3558
8629
24036
22269
16222
-20918
12215
5965
933
7486
25984
-12100
-18820
-26822
21195
13927
-10147
-2003
16940
11248
-2921
-15581
28560
16061
-13207
7306
-3075
-19516
-32318
5402
30416
-4017
-11818
12781
16775
28147
18857
-15527
13054
13848
-4038
5762
17496
-2272
-13064
-14792
32031
6904
-13565
10524
6947
14161
1658
-5852
28881
15477
-17896
9315
-28587
16013
2714
31694
27008
-1235
-18121
20640
11412
-11790
-21360
-12753
26825
18817
-19867
-1485
-12865
9088
-5149
14272
30732
11366
-22338
12064
16536
12236
877
-14497
28021
16983
-15890
5895
-15694
-8550
-20286
16751
32194
6099
-23892
11059
11613
1061
-9950
-10799
28798
15630
-17901
4682
27146
8847
-1197
-26733
22416
23898
-13221
-2607
21949
24329
17621
-20436
11104
13477
-2680
3013
30523
11914
3784
-29129
15690
15013
-3255
329
29722
13793
5728
-30097
20120
25378
-13030
-2911
5903
14733
2714
-4993
26947
18642
-19120
6249
20145
25842
18581
-19482
9948
20303
-5944
-1549
22091
11016
307
-19298
28049
16938
-14633
4793
2319
23808
10893
2743
32322
5381
-15592
19172
25603
20448
8175
-22102
23471
21939
-11516
1015
32640
2878
60
-30544
11070
9701
-547
-2314
15980
28605
20746
-15143
11694
17794
-6634
2277
5503
32301
27315
-4970
2042
11758
-1810
2994
14606
29331
23805
-11943
7937
9678
-1415
4940
24842
-19485
-22120
-24173
14766
9995
-6921
-6631
4825
32409
28778
-3776
-2827
8164
2754
2372
26512
19255
11127
-24064
15102
18240
-5975
-757
22058
24229
19358
-19465
9923
11385
-2067
3017
5755
32257
28941
-4077
-1510
5489
3325
4636
12992
30081
24495
-10648
5812
11141
-1221
3278
32173
6208
3966
-30487
6853
13195
-18
-5898
22832
-7937
-15278
-23046
23300
23038
-17571
-6720
6999
16635
7051
-8559
14520
29374
-17642
-6580
8156
31735
23915
-8391
4362
24078
-7492
-4566
9305
31417
21919
-7808
9817
23070
-9214
-2074
22453
23864
19407
-20986
6418
18160
-3611
-3487
26052
17092
8394
-22185
27422
17935
-14877
4775
2432
-24876
-32600
-3301
25261
18532
-23405
-6848
18345
27019
17222
-16243
17944
27416
-14826
-2766
31446
4681
-2290
-30455
18061
27339
-13129
-9896
17901
27444
20470
-17272
8053
27570
-9864
-7462
31664
8430
6523
-31000
4921
16794
-998
-8128
32626
3028
-75
-30766
5790
22446
-3872
-14768
23379
22957
19959
-21951
3997
15299
-1019
-3021
26016
19920
15780
-24265
8608
19522
-5109
-5086
-31783
7966
-2568
31474
21558
16115
-27769
4371
4689
32429
29522
-4190
-3801
13062
-35
-1484
18777
26852
24161
-17310
-1144
16769
137
-5708
19235
26526
23247
-17567
1889
16031
-919
-3704
14199
5940
-1641
-14239
16653
28219
-17996
-9540
4823
32410
27241
-6303
-952
29578
-10138
-10548
-18902
26765
19177
18600
7686
18404
-16262
632
30170
12784
9368
-28808
7193
19676
-3532
-7980
16359
-16155
-21926
-17336
19033
26672
-20055
-13881
27260
16579
10333
-25422
16113
28531
-14157
-8356
-4345
32477
29131
4204
-4462
22076
-7762
-7898
30112
12920
10040
-29890
4523
24309
-4728
-12126
6826
32048
25820
-4218
11771
21039
-13069
-264
13712
-26160
-29561
-14134
18780
20666
-19406
-13293
10079
30492
24976
-10135
7575
31879
-15893
-9302
10728
30960
24002
-8725
9845
25341
-12192
-4477
29010
15234
12787
-29367
1334
27453
-4810
-15113
7457
31907
26106
-5165
7099
20003
-8920
-2040
31775
8001
6915
-30376
4745
17157
-1707
-9416
-4172
32500
25096
8463
10927
21317
-15295
-1871
29184
12159
6783
-28178
14818
29224
-13621
-10663
-17133
4259
-3253
17292
19154
26585
-29710
-7021
10448
24104
18578
-9311
5791
32251
-14485
-13921
23562
12709
9530
-22764
7682
31853
-13583
-16397
24250
12622
11151
-26106
-1311
32740
-8514
-20239
21652
6321
1601
-22120
12259
30387
-15666
-13646
22514
23807
20489
-23079
1604
31776
-8833
-14987
-15684
28769
25012
16107
-206
10307
-7533
1999
32205
-6038
-6309
-31688
4937
20200
-4485
-15609
1230
32743
30637
-1374
-4415
22773
-7018
-8531
8687
450
-1378
-10662
-937
32753
-14054
-23705
6241
15687
8840
-5017
16378
28380
-20815
-7582
-13911
4003
4826
11995
-13160
30007
-13105
-27177
21926
11646
6115
-20507
16253
28451
-16601
-9532
31161
10129
8746
-31353
2725
27154
-6017
-16113
27872
16405
17330
-27808
-5008
25091
-1766
-17139
8830
6600
3133
-10168
8885
31539
-19225
-15440
20243
25765
25053
-18807
-1943
18007
-925
-7681
11274
-25183
-24743
-14076
5874
30481
-19588
-26267
25660
4923
2204
-26284
7843
31814
-13466
-17863
26438
799
-1610
-25222
16112
28531
-17962
-13521
32326
-5353
-3663
-32108
1048
28319
-7915
-23658
16575
13649
10726
-16335
6625
32090
-15391
-16332
9390
18518
18632
-11352
-10495
31040
-6678
-21938
-3944
-19772
-19594
2359
4402
28438
-22099
-24193
-13969
-1779
-2926
10115
-3592
32569
-20315
-23832
7592
4362
2667
-9266
698
32759
-15610
-21677
13793
29722
27400
-13076
440
28285
-9548
-11866
8982
-31511
-30788
-9068
11587
12630
-14491
-13679
24219
9901
10346
-25639
-2515
32670
-9154
-22175
-28391
2817
4798
23136
-16977
28025
-14974
-25098
21013
23381
25906
-20063
-11148
12917
6524
-9671
-27246
14270
10408
25000
5387
32321
-28894
-13968
28985
8469
10370
-31082
-6833
27044
-2220
-20452
26940
-3219
347
-25760
793
32757
-13727
-27244
-12987
-5789
-6609
8420
-2766
32650
-20999
-24195
9690
-1479
-714
-11808
3428
32587
-19316
-21554
-6626
7379
8327
3879
-6982
32014
-16447
-23443
16746
-14752
-12791
-18096
2804
32646
-17551
-27486
-4703
-21208
-22744
1961
11745
28338
-26380
-19435
30625
3247
7681
-31853
-10822
22595
1745
-22122
3850
19991
23845
-5670
-18266
27203
-3514
-23029
4969
31023
32377
-5034
-11935
17388
97
-9607
3728
-13730
-10827
-6972
-3234
31275
-17434
-27743
25947
18396
20862
-25267
-5769
28489
-5050
-19930
25993
16605
17935
-25767
-1838
32715
-9504
-21056
16128
22998
27869
-17232
-18727
25434
1244
-21924
7477
28716
32312
-5441
-9165
19820
-4708
-12441
591
25953
28828
-2069
-12580
30255
-9765
-20332
32314
5407
8728
-31583
-4551
18609
971
-16404
-24104
-11138
-161
23145
-30033
13101
-2553
-30205
16021
23428
28529
-16117
-18317
23372
1982
-20888
-20199
-6052
-2866
16160
-9451
29403
-19794
-26112
11649
28144
30878
-10963
-13298
16568
2871
-11680
15974
-23369
-16897
-19653
-12129
25866
-6441
-32127
30721
-3256
1250
-32743
-9751
21283
1567
-22112
8021
-26327
-19822
-11265
-10597
24381
-9601
-31328
5188
19320
24374
-8860
-21118
25053
-657
-21839
6688
21283
28525
-7694
-18370
27133
-5155
-23440
-4649
-17090
-7388
3021
-20020
20586
-6958
-32019
-32523
3986
8095
31566
-11702
14720
-14163
-15095
-23182
19975
24325
21953
-15684
16866
-9083
-13630
-25
18481
22245
-1136
-9643
31315
-13719
-22289
15491
-6327
639
-18788
-12775
30173
-8747
-30347
-14189
-29535
-26647
11141
251
13993
-16414
-17695
-32766
57
7266
30805
-19748
15153
-11106
-20779
-21220
23553
25415
20681
-12580
7158
-2891
-3904
-5859
19562
27498
4431
-22076
24213
-5592
-23484
16913
24289
28914
-15414
-9013
18005
-1166
-12457
-19424
-11925
-1562
16819
-12270
22881
-19728
-26161
-28016
15700
18504
27041
-12842
3544
-3766
-3268
26135
12974
20380
-25657
-19131
12624
10205
-17502
-5902
132
8447
1736
-27173
18311
892
-26348
-24175
10704
20822
25300
-19891
14350
-9633
-19647
-32551
3755
7829
30380
-15151
5735
-6309
-9489
424
-21626
-11789
-2877
-19148
20252
-5733
-32261
-13923
1043
10411
10335
-29959
13271
2363
-24206
12737
4436
15869
-14149
-29963
13261
9907
-25495
1675
-32724
-29198
-4674
-569
11809
-9603
-18074
-9654
-4985
6577
6504
-29385
14496
718
-27306
-30659
-11561
-4493
28313
-16276
3270
-6138
-13425
-30767
-2760
4945
25490
-23102
23237
-13097
-27241
-19421
-26391
-23017
17344
-2292
4301
-10855
-11428
24572
-17690
-11038
-30069
-12022
30284
-6212
-32172
-86
-16055
-3300
-5049
-29504
14253
2863
-29525
30916
-9724
604
-32761
-20697
16138
8027
-27075
30247
-9931
-2979
-32631
-9805
21494
-817
-24298
29315
1602
7528
-31890
-15516
19157
5661
-21701
-32731
-1522
8825
27373
-28317
15565
-7549
-24063
-24263
-22021
-7077
23093
-19988
4568
-8599
-21803
-8280
-2404
7386
4426
-31383
9422
7299
-23109
-31286
-9737
-3212
29773
-17560
-4977
-155
-8002
-351
7939
17356
-3164
-30445
12114
8229
-21561
26531
-18123
-12436
-30315
-9402
22493
-2098
-26339
4275
-4800
5466
-8308
-30121
12898
8086
-26088
13458
-29875
-18951
-18071
-17530
17876
-2192
-30782
-15792
-28710
-16798
8950
-28983
13346
-1948
-30938
18337
5622
15143
-22245
-29044
15168
11585
-23946
-24575
-12492
1705
20889
-32514
4060
1835
-23033
9708
162
11376
-12094
-32372
5067
15603
-21238
7615
-10288
2206
-11482
-31741
8134
11268
-25549
-10892
11695
23090
9872
-32515
-4049
14105
-11158
-24798
-21417
-14573
21896
-14764
-1346
-2596
-12131
-11390
-18378
-4536
7781
-32755
-856
9493
-21850
20609
-6982
12285
-19885
-32708
-1949
16802
-21722
19111
18574
25321
-20797
-21324
8908
12294
-12061
12881
-30128
-14108
-11109
-18560
-13738
12431
-12846
-32535
3885
10271
28989
-14144
4682
-8407
-7064
-29721
-5747
7538
25587
-32765
322
3296
-17688
-16436
-28346
-21635
14645
-7474
-4392
-3574
-9086
-31641
-8513
3167
31545
-22387
-12328
3580
-6481
20132
-25613
-10765
-25020
-28783
12064
8690
-31593
-8423
-18466
-3383
3520
-31984
7118
4422
-26681
-506
-32763
-22326
-1376
-14005
-1037
1590
-17374
-20952
-24990
-9762
15517
-32704
-2024
5590
-21631
-21043
-25116
-14560
19609
-17124
-8070
1270
-11076
24978
13975
21540
-24691
-20245
1445
17094
-9183
29128
7395
15492
-28873
-18145
1536
16294
-10354
-15885
-28658
-16546
12592
-24599
-7627
6987
-15627
21133
-7482
7848
-20790
-30980
-10672
24203
-13826
-14959
-5630
4733
9518
-32399
4896
7900
-20010
14293
19466
28232
-16630
-29942
5503
17543
-13656
-3670
-1928
11400
4083
-28613
-15966
18776
-5936
28131
1439
12732
-30191
-24100
4246
16231
-16047
23136
2155
17396
-23974
-32604
-3257
22092
-16238
-4615
1157
13190
2763
-31360
-9497
17783
-9439
-20381
-25656
-14418
16674
-24798
-10855
8332
-11948
14035
-24094
-7925
-20077
-31785
7959
10251
-28676
3900
-32534
-27700
-4263
-427
-6927
1089
-6051
28916
8607
16068
-28556
-16060
-87
16159
-7546
-21324
-24878
-17420
16608
-20486
-3996
3769
-13044
-9168
5515
18020
6138
-31599
-8668
15646
-7619
-4788
-2980
9124
2630
-31947
-7282
16810
-12650
26601
-2220
12728
-25484
-29021
-15212
27621
-8091
-30142
-12848
-5758
29069
-15763
-16883
5401
533
-29120
-15021
-6846
26904
-23766
-16296
10563
-4048
-23836
-22483
-12997
22743
-18773
-20769
9930
-1692
-619
-32761
-22226
-2203
-18661
-8824
9645
-13345
-9141
-31465
-24400
8018
-10080
-12086
4999
-6517
5549
-32293
-22940
-6994
-11853
-10308
8364
-9282
-5936
-20903
-7081
1959
-31997
-7060
14384
-17387
1621
573
11671
-3955
-31508
-8994
20636
-9702
299
-21102
-8286
-3656
-30688
-11483
18958
-13857
21333
-10399
2270
-24549
-32687
-2275
22746
-19070
235
-32766
-26673
-2052
-7309
-9016
4987
-7172
6696
-2820
9703
-8964
-30818
-11132
21772
-9132
-7475
-31902
-23392
4476
-8410
-14658
4432
-2130
19298
9509
20490
-21051
-32327
-5349
25378
-10829
-17757
-21627
-10256
15667
-24398
-21871
15331
-3305
-11867
-11874
-247
9738
-26538
-19218
17471
-3236
-9555
-17478
-4954
8264
-22842
-23492
16892
-472
30557
-7895
4121
-32506
-27348
-6298
24737
-13297
-6686
1360
11253
5588
-27699
-17504
20886
-1662
-1967
-30274
-18092
949
-21732
-24522
19337
-3781
26584
8845
18958
-26725
-28338
-9326
27941
-7201
17844
-27481
-17889
-18695
-12942
-12564
14692
-7421
24701
-21529
-14437
-27665
-12550
2345
10189
-14790
-32766
-217
6695
31237
-18339
-20776
9191
6683
-17517
-27691
-23805
14702
-3559
-8197
-2420
-2604
-24657
-21579
-15304
23566
-10802
-20199
5870
2932
-17470
-27720
-23035
17018
-3119
-17122
1861
2347
-26346
-19482
-14407
26342
-4612
-23940
3877
9319
27643
-17592
-6465
-28127
-22525
-13100
24559
-9799
-1150
-32746
-20710
-2954
-27401
-17326
19709
-10845
-23691
-13300
-5238
23384
-14329
-29467
13074
10087
-18834
11432
17967
19509
-20891
-25243
19125
10637
19107
-26618
-19907
-19750
-5806
-10841
11063
-4379
-21491
-24734
-16997
17126
-19654
-14814
9180
-4690
-5582
-32287
-24700
2405
-14715
-12782
9701
-7403
-28939
-15367
-9973
29517
-5763
-31458
8095
15275
6143
-32185
-24456
-9975
-15376
-8761
11764
-10475
-42
-32766
-30021
-610
7190
-12478
-1283
2901
16578
-28263
-23647
-17776
-1866
-7080
6722
-4872
-21633
820
7647
21039
-19656
-26216
17340
9498
18344
-27150
-17491
-23187
-12313
-17092
17009
-201
7206
-31964
-25853
-9901
-4075
-10271
5727
-3635
225
-3238
4146
-10
-15200
-29027
22533
11588
-3793
-29485
-20293
830
-13329
-29933
18099
7099
-3440
-12339
-6096
4748
-8637
-31607
18457
13587
-30
-32766
-25586
-3935
-12871
-10047
8913
-8003
-10273
-31114
-26627
6264
-9443
-14338
7692
-1803
-17959
4607
11495
16292
-25062
-21107
19626
4525
1188
-32745
-30415
-1944
5133
-9920
-383
-126
-32105
6550
8090
31411
-6261
-26310
8163
19962
-10503
-31037
-28455
8854
884
-14266
1306
2216
-12038
-30475
-27783
11099
5753
-23843
2726
11900
7338
-18015
-12181
-4696
-6777
-32058
21359
11635
4419
-32467
-23267
-6229
-18083
-25228
21745
-1482
22677
-3543
3051
-20388
-10538
-31026
28565
13529
-16045
-28569
-26076
17171
3318
-29545
6778
13847
20677
-25418
-21943
-21102
1760
-7881
7025
-1868
-726
-32758
-30454
148
3827
-15439
3405
3149
-4474
-31561
-31384
7992
15047
-29107
3454
17092
-30547
196
4272
26909
-17245
-27861
15555
14749
24749
-21473
-15390
-24298
-7397
-16308
18083
-399
17874
-27462
-22951
-19136
-3834
-6282
8309
-6355
-25481
-18572
-18418
27100
7261
-29645
2632
19617
-4992
-30244
-28769
7174
13128
-30022
4004
18351
-7841
-24716
-19492
7165
-6705
-32073
16299
12534
-27948
-17104
-15769
27691
666
-20326
349
10665
23404
18558
23030
-23308
-17697
-10944
24603
3523
-507
-32763
-32094
1580
12252
-17717
-513
8504
-5464
-32308
-29576
4761
1808
-26606
9324
10899
-32708
-1958
-1647
30390
-7292
-27424
10156
18628
-18844
-25769
-26377
19440
11353
-21951
-2354
14505
15829
-28689
-26225
-17080
5000
-13859
7107
4254
-25547
-14689
-14077
25980
-1095
-32748
10539
19406
30736
11356
15399
-28430
-9254
-19523
25908
10500
-27360
-18029
-18886
25727
4902
-26167
2557
18576
-23537
-22280
-21599
22812
7279
-31948
4030
21918
-14869
-29198
-29084
12391
4352
-13157
-1517
4977
-6545
-32106
-29609
4345
-1587
-26633
11722
10215
9516
-29695
-29966
-13254
4708
-136
-655
-4380
-21320
-18452
-17951
22840
4166
-32500
7898
19879
-12382
-915
-1538
14114
6187
-32177
10473
26504
17463
-27725
-25394
-18144
3058
-18185
11791
6243
29816
-13588
-12231
-26406
7461
-30645
21205
19472
8669
-10575
-11959
-6475
12455
-30307
12237
24536
12995
-29838
-30161
-12804
12584
-18741
5436
10852
21448
-10494
-5686
-18645
-6498
-32116
26860
14021
-16634
-25777
-27099
18420
12756
-25600
128
16995
-13123
13942
14678
15446
-6605
-32094
19032
23455
-3539
-32575
-30294
1422
-1066
-16061
6282
2230
32487
4269
2983
-29459
10823
-19343
15548
19209
-9294
-31421
-31494
8719
5213
-19858
3826
8127
7427
-31887
-31704
-8274
6763
-13020
4171
3444
18983
-26707
-25280
-17383
5908
-23423
13874
10196
-26759
-18909
-19613
25520
-2228
-32136
11539
18279
20281
-25735
-23885
-21211
2767
-11451
9377
1812
-6751
-15911
-18312
8873
11373
-30729
8775
22991
-7800
-27369
-28804
5298
3966
-32526
13851
20048
14265
-29396
-29308
-14652
3975
-18040
11667
5965
20492
-24670
-23811
-19837
5602
-32284
20268
18303
17628
-6557
-7026
-15274
4053
-32515
22355
22423
4047
-32516
-32464
-3833
8542
-15151
2976
5091
-1689
-10445
-11492
5130
7684
-31853
13009
22327
-4795
-7772
-9420
6977
4729
-32423
14972
23065
-19160
-24631
-26414
19389
10649
-24542
552
16770
3650
6659
6733
-1256
-2419
-32677
22261
23555
-1619
10386
8104
4008
-643
-31737
20722
25382
-19293
-25568
-27262
18177
7808
-13929
-3618
7820
9883
-16586
-21278
-8734
13917
-29664
13649
23847
4343
-27201
-32038
-2996
19675
-26202
5301
21002
-6650
-24401
-29220
8105
19134
-26600
2261
22098
4914
-30450
-32492
-4235
15056
-17974
1717
11442
31201
-10008
-10636
-29570
7514
-8897
10508
5687
32500
4170
564
-32611
9457
-2992
8759
8741
18218
-26518
-27210
-18254
9995
-7541
2945
2045
23272
11428
2082
-21685
28413
-16320
3992
31221
-5718
931
-3001
9955
15770
-28722
6196
28045
16576
-24746
-28532
-16110
15538
-21263
8900
16161
20297
-10793
-19500
-18595
27987
-17040
2655
23745
-2176
-29912
-32735
1443
12777
-10117
-2835
5651
-11716
18665
12556
13852
5363
-28279
14018
29617
-5321
-24412
-32322
5379
24188
-18422
-3406
20040
32691
2223
-2979
-28650
15385
-20121
15542
21098
-18726
-9300
-16396
21697
19555
-26292
-99
26285
13344
219
-8675
-10571
21384
-24827
10297
28976
17046
7943
1408
-13440
15040
-26820
15765
28725
1837
-29513
-32761
-594
17408
-20046
1070
14326
6576
-29414
-32465
-4436
19987
-16825
-1203
12565
29071
15117
9407
-26111
17076
-4423
4695
15559
23276
23062
16465
-24585
4727
1034
9766
10592
22426
-16074
-24489
-20337
30107
-12931
-1005
19847
30480
-7465
-15771
-28721
27298
-7968
1026
17252
7854
-19451
-29866
-13479
17587
-11486
3990
17261
23454
22881
11024
-21303
28070
-1044
-1756
22917
25174
-15802
-21717
-24536
23119
-11206
1973
15606
-12349
-24861
-29726
13784
20343
-18430
-5497
16610
31495
-9041
-11317
-29207
13104
-5089
5482
5816
-23818
-14923
-21243
24947
17276
-21807
-3621
21353
18969
-3161
-13950
-16500
29694
-13853
963
24537
25364
-10524
-20104
-22295
30374
-12289
544
20513
21064
-18946
-26167
-19722
28256
-2289
-7422
10221
32418
-4769
-11504
-30207
19188
-6638
5859
11999
-11771
-24778
-30472
12044
20152
-9417
-9618
10622
-3034
-25605
-32636
2916
21130
-5846
-8478
8339
3863
-29758
-32021
-6948
6203
3665
-4465
-6771
-14135
-487
-11841
15897
25151
-21002
-2348
29633
7156
-14960
-22456
-3666
28425
-16298
-3717
20945
4380
24414
11675
0
30714
-11414
-3916
31572
16459
-20545
-28443
-13967
30094
-12961
-3454
18360
2210
-22140
-29977
880
26516
-19249
-2138
20136
28956
-15336
-21298
-24622
24588
-14607
4497
16279
-9814
-23180
-31100
10317
28693
-3997
-16750
11922
28292
16528
7529
-25671
23296
4653
-2860
13199
31782
-7971
-13992
-29617
18985
-601
1729
6677
29101
-12324
-16995
-28014
20974
6332
-6048
1803
3740
32552
17965
1081
28887
-8277
-2884
30445
20850
-24073
-26828
-18812
13980
-5469
1458
1978
32747
1127
-4818
-28464
18308
-10894
8660
15350
-23425
-11543
-23137
23201
27239
-7461
-14983
18727
29627
13994
4800
-26287
25108
2739
-2502
14043
14098
-3540
-14714
-14391
30697
11459
-16083
8191
15301
-24597
-28843
-15547
16519
-76
-4298
1406
31532
8907
440
-27182
25825
-492
-1210
14622
-1058
32749
19814
4259
22753
-1061
-5601
23209
30121
-8770
-14646
-29311
18878
9107
-4721
-170
-5977
-2792
-17763
7809
30406
-12210
-5764
25193
24769
-15872
-22269
-24036
20052
5639
-5125
1075
-4559
-28044
-32539
3851
16683
-1445
-10336
2099
40
-7367
-17908
2673
32682
-2346
-14765
16451
27778
-9409
-19854
-25062
32585
3447
-8807
10531
2680
32657
18398
18
25836
566
-6483
24063
-4177
26484
8879
4361
30815
11140
-16069
18971
-6387
18724
3462
9134
32539
3851
-16042
20698
-2281
23555
8720
6952
32187
-6133
-8749
28206
-12711
-14227
-30048
13066
29246
-2252
-12664
14408
32236
5874
-2323
-31828
16107
11114
-909
2554
-21081
16797
542
22354
31915
7421
-21931
18594
27684
17528
10993
-24326
14578
5068
1283
7518
19054
26657
15467
-15172
24592
5696
-5512
15831
-10164
-12876
-23941
10548
32341
5264
-22201
10710
-15987
10720
-2135
20859
28889
-15461
-7484
29040
16151
627
-10958
-13280
31977
7150
-13276
11208
31265
4147
-6338
-27761
30825
11111
-10320
7677
-27295
18127
3494
31344
28695
-6691
-14576
25709
860
22975
8790
1592
31203
9999
-16959
16861
-13280
7919
-5763
14583
32497
4190
-20145
18162
-13768
-15042
-29663
13384
31789
7944
-21809
8598
32362
5131
-1398
-30843
14182
12211
-1330
-1057
20292
7694
-5548
-14167
32758
725
-7086
16051
-20121
9339
-3993
22385
32732
1492
-21335
20147
29980
-8315
-17129
-26883
31327
9604
-12048
5207
-5444
32311
24027
7043
7666
5382
-3203
10516
29007
15239
6306
-28339
18119
20436
-8102
-677
13146
-144
-11130
-14127
25502
20574
-17766
81
19450
26369
17270
-14244
17414
5446
-1546
10542
296
20665
7075
4118
31933
7343
-16620
16886
-13426
29890
20289
14132
11582
10800
-11196
8839
30847
6596
-3045
-27257
29514
14232
-11941
5281
13284
29953
18249
-10253
21945
12497
-9099
11267
7956
7709
-4049
-7802
26069
19850
-18867
2935
25439
20651
11754
-21330
18523
11883
-4499
5255
6770
16822
3628
-5469
23491
22843
-17671
1395
3701
-7079
-19229
-3522
27668
17553
-20082
719
4433
2168
-9336
-2418
30002
13173
-19393
6949
-8085
31753
21187
9572
9642
14496
-9285
4885
-24590
-466
-13400
27522
32700
2091
-23726
15901
4379
20159
8433
-3742
24026
22280
-19678
3809
18611
14766
1346
-15682
26272
19581
-13453
3169
19800
7256
-3172
-17911
26252
19608
-15841
1279
2227
-803
-10520
-1245
27185
18292
-22638
1065
6886
16053
5106
-5591
24949
21241
-19795
3183
-28872
15494
7895
27830
10607
9498
-17069
6059
10775
30944
19030
-8361
24049
20184
-15768
7397
31407
9339
4219
-30811
11117
22489
-6432
-8407
9248
31434
25612
-8556
6050
15702
-5135
1801
22942
23394
16786
-20860
13820
17897
-7147
534
-31801
7897
-1743
30884
14894
12809
-21555
3473
-1407
21845
10524
1546
20425
25621
-21128
237
17003
-20579
-28344
-16439
23577
21720
-18849
-10354
-19488
26341
19459
20882
7570
4392
-8650
9613
-4302
12156
1143
3364
21559
24674
-22952
-660
26270
19583
13323
-24602
13638
21520
-8419
-3575
10769
-14211
-22716
-10725
23097
23242
-20802
-8998
32369
-5085
-9704
-31067
18505
18233
-9947
-6417
10195
15361
5825
-10580
15561
28835
-17032
-6937
10321
31099
25281
-9916
4578
19791
-6008
-2106
11020
30858
23772
-11412
3242
28199
-8747
-8542
-28375
16386
7513
26891
8269
18433
-19097
-1343
32607
3225
-2759
-31925
16268
25655
-11253
-9956
13571
24067
16928
-16133
6545
32106
-12715
-10196
17100
27950
20730
-18220
7565
29963
-11058
-7729
3003
32629
28788
-3144
-3239
13960
-838
-1076
-21408
24806
18400
23168
5110
6745
-9197
5541
2994
15452
8491
-4941
8463
31655
-17938
-11978
17103
7094
94
-17163
17676
27590
-17787
-8351
28374
2166
-4239
-26628
17415
27755
-14490
-11981
8971
-10569
-16874
-11249
15731
28743
-20844
-14270
3673
32560
28325
-1459
3528
9742
-2911
4058
1776
32718
26462
-1005
7289
20959
-11245
-972
-29614
-4866
-13966
29641
22664
16061
-29388
433
16429
16504
9299
-14679
14890
29188
-16473
-9276
23832
-20717
-24926
-21268
20404
15579
-13363
-9327
-26076
19841
11521
22650
8143
29922
-25258
-7438
-15089
29085
26857
17059
-3698
493
-84
6222
21760
2461
-2025
-22026
12260
30386
-15974
-15137
29851
12223
11342
-30741
-2391
24972
-1623
-16043
-22313
23995
19884
20824
-1685
12241
-9728
-50
21880
15953
9141
-20214
19193
26557
-16621
-5110
-18352
6098
-3551
20739
19463
26360
-28350
-7690
7976
18822
11964
-5325
13612
29805
-18937
-10397
-31578
8745
5127
30333
881
6822
-12303
351
-19390
26414
20233
20256
7675
21053
-19176
-2475
26542
-6389
-6590
-29190
1375
32738
-11306
-24584
16416
-19722
-23032
-19868
11567
30657
-18877
-20611
10262
31118
26832
-5286
9809
8512
-4514
5713
24819
-12068
-15443
-26179
12624
30237
-16326
-18987
11897
30530
26326
-11168
2621
25014
-8299
-7788
6661
18993
12453
-4678
12810
30159
-19180
-10482
32251
-646
0
-32766
-2080
28522
-4732
-23411
-20831
20190
14279
19226
1746
32720
-22290
-14853
-10037
13082
9509
7347
-3973
32525
-16208
-19937
17637
16790
12023
-16796
14240
29510
-17669
-9424
-10142
8133
4073
10563
4138
32504
-22042
-19466
-23762
7137
7
23289
19039
26668
-32222
-5541
-30054
434
-5262
27224
12949
27015
-31369
-9465
-5985
32215
30061
7379
-1950
20579
-10207
-6563
-7746
31838
26639
6852
3252
28467
-16614
-7719
29346
-8523
-8266
-31707
761
32593
-10113
-25929
-1132
32747
30316
666
-5267
20275
-5457
-6683
-8234
28855
28331
5401
-11736
30592
-10856
-17548
25898
7920
11195
-27581
-11857
30546
-2708
-26616
31272
2480
3671
-32560
-3299
23968
-1823
-18941
-32338
5283
2229
32480
4058
10328
-17515
-2874
-32543
-3819
-6656
31213
6620
12060
-21028
-4527
2701
-6393
-2316
-3988
-9489
30443
-13419
-29893
20312
8332
10064
-22669
-6072
32199
-8667
-23590
-2169
-21465
-25994
3553
26432
19364
-28907
-7454
-23974
22335
20250
24803
-1522
9052
-10060
-127
21140
12591
12903
-23551
-5225
32347
-7847
-21667
-20385
17698
16886
18927
-2943
32634
-22907
-18609
-21947
16390
12839
19831
3386
32591
-25861
-14667
4336
10358
10554
-5150
-4240
32491
-14244
-23012
12637
15975
15715
-14864
-6568
32101
-8853
-21170
-11135
-22261
-25809
8800
14452
26707
-27941
-17116
3765
-10754
-11101
-8517
-7
32766
-17887
-24625
4984
32385
31626
-4060
-5264
13623
-778
-3180
-14056
29069
30013
13146
-12862
14850
-3727
-7658
1753
4904
4439
-6130
-4290
32484
-14630
-21791
7033
-17146
-13916
-7374
-614
28766
-17125
-27935
-7498
16908
16993
7573
1670
32724
-22708
-17959
4975
-22136
-20151
-9464
-4822
29841
-14381
-29442
-20461
9133
6593
18443
3853
32539
-26675
-17036
27295
-5276
-1768
-28041
-3012
32628
-10561
-28563
6113
-32191
-28359
-7857
-322
16203
-11236
-22219
-8663
-28525
-27109
5751
3519
25034
-22229
-24073
-13133
5978
10095
8434
-17766
27532
-10578
-24975
1651
11951
15981
-4687
-17977
27395
-4836
-24670
-4128
10845
11801
5925
3392
32590
-23537
-20581
-11466
-16432
-14683
8096
-2001
28430
-20963
-25183
9171
-31457
-29042
-8971
11141
20793
-20393
-20483
-28993
-15266
-13981
27271
236
9528
-17174
-10171
-5861
21985
22541
2910
-11505
30680
-11198
-19893
21428
-24788
-19051
-24224
-9372
25922
-6073
-31926
-15697
-28762
-28016
11450
3059
20634
-21121
-19724
-20905
23153
23593
22737
-2297
8962
-10405
-1282
-16322
-22112
-16403
12538
-13848
22925
-13779
-29728
-11920
-8574
-2337
6115
-24979
21205
-2994
-28559
-25725
-7106
-6835
21140
153
28741
-26187
-19694
-32764
425
5544
28817
-17045
15740
-11861
-17789
17396
5038
9963
-21058
-15510
28863
-3191
-26728
-25341
17146
22209
24092
-23222
12266
-2306
-15590
-29284
-14699
-10196
26129
-13824
15745
-12833
-21836
-127
-24073
-18326
-5278
-10454
26448
-13020
-30068
5115
-7488
-3593
-9283
-6009
32211
-16009
-27290
-2511
-32670
-26616
-1285
-9547
14977
-8258
-25015
25976
-10470
910
-27451
-23242
20635
4753
-32420
-18674
-26924
-20363
15803
-6424
18107
-18234
-23980
-30423
11660
14959
29152
-11250
13164
-11958
-10856
15159
-29049
-22950
-17467
-4779
20135
-8772
-26562
-22445
23871
24976
19532
-12360
20537
-10656
-11714
24386
4737
13650
-25996
-21872
24397
3462
-29137
-32258
-5752
-3845
32536
-1703
-1133
-10768
-1498
-32072
-6711
562
29868
-20737
11153
-7934
-20440
-1034
4769
17069
1887
-29632
13985
4004
-27164
-26106
14067
22599
23726
-25045
12166
-3745
-16480
-29768
-13693
-9220
28019
-9989
2038
-7861
-9811
-2459
9778
17852
-1691
-27717
17475
3457
-22699
-31693
-8319
-4933
27704
-11470
7968
-9865
-11467
-28511
-16148
-7322
25229
-21871
9500
-6419
-22285
-9313
-17291
-9617
3501
-20172
24527
-9037
-31496
25695
8576
17882
-27457
-20398
23302
3112
-25993
11190
-1312
8782
-15051
-25977
19971
3383
-28045
10127
18991
23301
-13586
-11447
30702
-9413
-20781
-32762
536
7730
27807
-20820
14280
-9702
-17851
-29591
-14072
-4977
23773
-26421
14114
-6277
-25569
-31529
8921
11178
29008
-8705
11514
-12479
-7950
4560
15279
25078
-6987
-26978
18596
3424
-22981
-29197
-14873
-4391
26065
-24918
2653
-1603
-18546
113
6636
19647
-1262
-31830
7777
9045
-21598
-10039
-31191
-19267
5136
-23743
7902
-669
-26619
2806
-21155
-6404
-5383
-32301
5503
9461
-28449
-17624
-267
10907
15057
-31807
7872
4333
-22254
-32283
4042
13074
30045
-26130
4655
-1480
-15053
-1516
-4406
3406
-4802
-24114
22184
-1754
-27272
9359
18071
26346
-12858
-28953
15342
9729
-19825
15258
-17243
-1869
-17748
-31428
9268
10424
-30045
-31773
-8005
-437
30120
-19542
-6612
1388
-7243
-12966
-21533
-8567
8898
-32664
2588
7540
-25174
-19744
-26150
-20521
17961
-7974
-5663
-2793
-7347
-15322
-6096
6160
12668
-32766
-103
9351
-18950
-5427
-4765
6786
2186
-32322
5378
9875
-22015
-7469
-31904
-23512
4460
-13931
267
32
-16621
-10677
-30978
-23199
7812
-7402
1717
-6241
-13794
-31095
-10331
-2953
24787
-28198
4709
1564
-17633
-5224
7032
16994
1510
-30887
10937
7205
-21042
-26667
-19039
-6763
21035
-29437
4356
-18
-22090
-17638
20614
28227
16640
-29302
-5177
13448
-5072
3645
-640
16006
-4698
-32756
831
11943
-19635
-26850
-14371
-2549
22062
-32766
-97
5577
-19680
3173
-32612
-22503
-9645
-23066
13434
1567
-29812
-17373
19106
28441
16271
-29124
-6038
12423
-4821
-3573
-32571
-23385
-1259
-15624
3953
-147
-19336
17657
15152
26819
-15045
-30245
-12603
27176
-5811
-22462
-23856
-14347
16673
-23109
5036
-1574
-20233
-22846
-23488
-16713
23098
-7326
-15372
570
-397
-27865
-17239
-9833
28207
-13236
-17359
4160
-30
-19007
-1939
8455
16681
-31477
-9103
14066
-10004
16034
-28575
-10876
-17411
-28226
-11039
18081
-17507
19152
-9275
2353
-24252
-29266
14735
10271
-27982
-5755
-32257
-21070
5217
-15728
-13949
7993
-9217
24459
8975
19622
-26241
-27371
6302
16830
-17102
-32366
-5108
1360
32358
-10578
-14209
-138
3404
-25424
-20670
-15619
22859
-11224
-5923
-1413
-6502
-3013
-32628
-25559
-884
-10069
-313
65
-13614
6485
9881
22201
-7991
-32442
-4602
19546
-11348
-31370
-9464
2061
27919
-24642
-7206
2491
-8905
-17083
-27961
-19944
15900
-14891
-14416
6605
-6160
-2404
-3449
8333
-2375
-32754
909
13656
-17295
1351
-32739
-21213
-3617
-21021
-13535
14018
-11545
3835
5252
16554
-6506
-32723
-1679
17929
-14274
-4759
-32419
-26266
1837
-9958
-4042
2339
-11367
-3368
-32593
-17486
896
-23180
-15439
11967
-10993
11696
-23896
-8839
-18358
-32458
4487
12988
-25607
-19165
-26577
-21978
16698
-8015
-8239
-100
-5102
-28927
-15390
-10513
25451
-11069
-8526
-848
-1749
-21614
-24627
-19853
17044
-10031
-2173
-2907
-8487
-27587
-17681
-8457
23505
-23495
-10827
6599
-7719
8420
24470
31889
-7531
-25833
-8403
21904
-1514
-19282
-26492
-20217
16365
-11378
-14224
4534
-2109
-7857
-31810
-20673
5305
-20746
-16514
12756
-8458
15249
-29002
-19502
-14930
-8839
-13165
11228
-6080
-21544
-24687
-18866
19149
-12104
-11994
3508
-4206
-5464
-32308
-24978
2103
-15386
-7576
7297
-11422
-22777
-23555
-18867
19464
-8364
-9190
-530
-2878
-30156
-12816
-2735
25872
-24706
-15040
8579
-3447
-25387
-20716
-12350
22859
-17190
-18710
7943
-598
12351
-30349
-20991
-14273
-15997
-13196
15572
-8586
-10169
-31149
-23557
9752
-10283
-22784
10679
1069
-25388
-20715
-14777
23264
-12740
-16889
5474
484
-22721
-23609
-16576
18358
-15882
-11862
4831
-4507
-12673
-30216
-25700
12781
371
-18840
2118
4123
-19333
-26455
-23395
17122
-2485
-8287
-2983
-2139
-1153
-32746
-26210
-1066
-7683
-9816
4939
-6508
-627
-32760
-27667
-1804
-6117
-9054
4815
-6036
10410
-31069
-23575
-12400
-10838
-9540
10381
-8484
-25521
-20551
-15862
21650
-12460
-11369
2989
-1943
-32054
-6795
60
28233
-24380
-15662
10933
-1057
10754
-2542
9469
-14952
-31360
-9496
23000
-9140
23599
-22080
-12415
-30323
-22839
3579
14574
-18949
80
-4680
4532
-239
-21118
-25053
22951
5054
-12509
-7379
909
12913
-19187
-26561
18810
6169
-31815
-7839
-637
26658
-25397
-14072
10594
-2201
-27396
-17974
-13835
25195
-9137
-22837
7209
8115
-18540
-27016
-22861
17919
-4372
-17217
3026
2025
-14247
-29507
-27444
13008
3115
-11261
-3089
1614
-7571
471
7938
6672
-22500
-23820
22360
5832
-18569
-26997
-20375
16096
-10798
-20731
7857
2489
-24595
-21650
-18923
22222
-1669
-15985
-530
6256
-11203
-30792
-24600
11232
-8381
-29634
14107
7263
-11187
-30797
-24912
9072
-14624
-16902
11583
-4269
-24456
-21807
-18455
21943
-6899
-13699
1606
1436
-21875
-24395
-22338
18993
9
-14040
-1442
5060
-19938
-25008
-18522
20573
-9771
-31276
13068
9100
-27133
-18370
-16068
26312
-3500
-19778
2664
7925
-13714
-18417
-12880
14379
-8278
-31703
15300
12432
-30906
-10884
-8869
30163
-2296
-23714
3124
14275
6153
-32183
-25424
-10267
-4469
-23448
12792
7295
-18510
-27037
-24402
16242
-1672
-16116
1565
4254
-28564
-16054
-15465
26922
-1458
-15788
-202
7648
2205
-32692
-28111
-4020
-5132
-16388
9662
-322
18261
-27206
-22149
-20356
-8299
-4938
10641
-9214
-23403
-13632
-9298
23460
-7450
-31908
12438
15593
-1844
6000
12433
3528
-17555
-27667
23756
11211
5798
-22259
-16903
-4180
-3972
-32525
19043
13073
-11126
-30820
-28935
9864
3024
-10029
-2491
67
-14990
-14082
-12311
17759
4930
-32393
8421
20590
-3203
-13853
-9755
5730
-5664
-32273
18495
14315
-17364
-23185
-23460
17900
10888
-30904
3684
21875
-17319
-26425
-22529
17060
-1402
-32736
10429
15549
-31900
-6242
-6271
32161
-77
-20140
839
13770
-27261
-14556
-11845
25903
-7478
-31902
12512
16706
3748
-32551
-31146
-4561
6726
-13466
2176
3548
-15168
-29044
-29017
15012
9626
-20245
-1457
11636
-30819
-11126
-9265
30082
-4519
-27705
7257
16044
-26896
-12353
-8243
25604
-13111
-30029
14608
12611
-14509
-6098
-5418
16919
5850
-32240
8771
24151
2587
-32664
-29844
-2219
4402
-29186
11495
13121
-27832
-17288
-17500
27701
4119
-25213
1917
16441
-32440
-3770
-4419
32467
3422
-28620
3508
23214
-17276
-7092
-6543
19017
2606
-32663
10684
22824
-19247
-26517
-23464
19171
-1889
-29251
8692
12536
-26255
4788
5635
28594
-6138
-32186
13934
21131
-2657
-32659
-31529
3112
7168
-21639
4542
9100
-4831
-15446
-13531
5754
2237
-32690
13788
20142
-17881
-12267
-15338
19647
15131
-29064
1723
25735
-18422
-20169
-19246
18073
-493
-32763
11979
18589
-20113
-25867
-26142
18970
4334
-16042
-1283
7447
-21459
-24762
-22665
19897
-3039
-26808
8287
11945
31892
-7519
-7137
-28758
5796
-30517
23928
20403
-13715
5796
3809
17213
8017
-31770
9687
28243
1552
-31165
-32716
-1825
14751
-13144
-2470
8138
-4610
-32441
-31733
1919
4240
-19951
5384
8910
-6601
-12697
-13651
6539
5679
-32271
12827
23659
12561
-29054
-29835
-13546
9987
-19978
8382
11634
-14426
-1544
-1594
16271
-374
-32764
14581
22891
22725
-23605
-21489
-22729
777
-16312
14273
4135
26850
-18780
-18405
-25547
5275
-31117
22657
18495
-15826
4666
6302
17836
-9313
-31415
18857
18666
-18150
-23506
-25845
20141
14558
-27434
201
20131
-10816
-30191
-31077
10387
6646
-15327
307
5813
-4577
-12750
-12800
7219
1645
-32725
16138
19322
-6403
-20811
-22851
6967
6700
-32074
12813
20866
-3395
-10461
-12350
5692
5035
-32377
15358
22120
-14019
-18903
-17354
15144
-4484
-32458
15866
15002
-21983
19731
17262
24658
