1651 9 80689b40 0 13880 7
-26918
2002
14123
-14611
30819
195
26155
-19737
-27506
-2405
16793
-12340
30563
5046
28933
-15378
-26859
-4710
17815
-10568
30029
7953
30157
-12813
-24228
-12167
19920
-5078
26641
16201
32571
-3569
-18321
-19558
20287
1815
19254
24233
31811
7855
-12141
-24132
19160
7799
11295
28996
28066
16909
-4565
-26771
15942
13110
2835
30938
22247
24056
5223
-26403
10190
17772
-8447
29791
12227
30399
12775
-24065
4923
20412
-17137
26182
2697
32655
19082
-18572
-1650
20467
-24133
19839
-7357
31930
24465
-12019
-7873
19370
-29076
11372
-16727
28175
27017
-3732
-13603
15892
-31150
1592
-24980
21205
26429
5288
-17951
10236
-29974
-8454
-30446
12112
23649
13221
-20312
4558
-25795
-17606
-32722
1714
18296
19739
-20560
-2003
-19162
-24353
-31717
-8227
10870
24435
-18581
-8587
-10471
-29071
-27489
-17832
2652
27268
-15324
-14077
-711
-31100
-20363
-25670
-5501
26544
-10142
-17970
8737
-29920
-11754
-30585
-13695
23414
-3922
-20169
17872
-25317
-1415
-32736
-20432
17505
2797
-20349
24990
-18438
9056
-31490
-25510
10330
9226
-18730
29656
-9342
18893
-26771
-27674
1732
14751
-15140
31085
497
26306
-19535
-26374
-6195
18147
-9658
29602
9856
30885
-10943
-23071
-14495
20581
-3247
24689
18903
32766
-34
-17334
-21793
21110
3672
17451
25840
31107
10294
-9695
-25221
18404
9373
8521
29836
26263
19593
-968
-27220
14426
15088
-1284
30882
18751
26871
7228
-25925
8937
18569
-11084
28971
9193
31450
15546
-21883
2138
20400
-19771
24211
-1094
32748
21924
-16117
-4415
20390
-26551
16378
-11594
30647
25781
-8556
-10363
18015
-30359
7636
-20503
25559
26707
-73
-15211
13707
-30934
-2237
-27374
18007
25862
8899
-19291
8223
-28651
-12412
-31856
7669
21579
17075
-21041
1405
-22886
-20935
-32643
-2846
15091
22573
-20285
-5131
-15446
-26779
-30151
-12827
7349
26158
-17460
-11085
-6149
-30557
-24632
-21607
-1953
26993
-12738
-16291
4158
-30884
-16107
-28534
-10587
25455
-7087
-19830
14027
-27599
-5910
-32229
-18127
20795
-352
-21139
22122
-21828
4358
-32475
-23069
14161
5994
-19821
27519
-14265
14103
-29576
-27002
6026
12161
-17425
30762
-4678
22808
-23525
-27625
-2747
17177
-12483
30691
5620
29174
-14918
-24738
-11482
19826
-5954
27190
15538
32503
-4144
-19553
-18460
20493
728
20993
23122
32210
6012
-12839
-24062
19561
7214
12722
28345
28754
15712
-4586
-26990
16421
13023
2688
31128
22103
24189
4553
-27033
11342
17652
-7407
30146
13138
30017
12803
-24079
5097
20359
-16559
26315
2960
32632
19825
-19062
-1436
21085
-24109
19857
-7564
31881
24904
-11822
-8172
19579
-29031
11197
-17297
27829
27367
-3419
-13799
16114
-30985
1593
-25169
20980
26762
5600
-18169
10572
-29829
-8849
-30681
11504
23472
14249
-20635
3970
-25356
-17953
-32750
1033
18094
20358
-20827
-2209
-19065
-24497
-31622
-8583
10448
25020
-18895
-8832
-9671
-29483
-26899
-18710
2023
27679
-15376
-14467
-44
-30995
-19695
-26187
-6840
26235
-9714
-18271
10015
-29284
-10302
-31105
-15219
22953
-3131
-20886
19084
-24559
324
-32765
-21168
17016
3106
-20730
25550
-17742
10211
-31135
-25577
9404
9740
-18385
29735
-8574
19638
-26230
-27848
909
15185
-14871
31093
1338
26973
-18603
-26479
-8400
19187
-8849
28803
11408
31568
-8779
-21963
-16558
21043
-1796
23361
20564
32687
2276
-15642
-22081
20488
4417
15964
26623
30340
12373
-8041
-26129
18001
10706
7177
30150
25180
20966
650
-27699
13876
16053
-3086
30894
17082
27961
9666
-25747
7666
19561
-13125
28267
7028
32004
17394
-20839
835
20731
-21320
22553
-3727
32554
23151
-14913
-5234
20547
-27522
14888
-13710
29760
26630
-7078
-11395
17879
-30604
5392
-22377
23935
27648
2429
-16868
13018
-30918
-4945
-28922
15399
24885
11173
-19847
6449
-27434
-14781
-32393
4930
19956
18714
-21161
-348
-21332
-22766
-32262
-5727
13406
23857
-20069
-6474
-13765
-27767
-29162
-14941
4950
27597
-17053
-12699
-3658
-30907
-22640
-23687
-4142
27204
-11872
-17338
6723
-30254
-13710
-29760
-12459
24392
-5652
-20111
15935
-26460
-3506
-32578
-19960
19538
1120
-21297
23647
-20410
6950
-32021
-24647
12572
7385
-19837
28769
-12032
16440
-28344
-27675
3671
13628
-16395
31059
-2184
24679
-21554
-27046
-5462
18079
-10796
29908
8425
30548
-11850
-24194
-13608
20870
-4742
25732
17388
32720
-1748
-18458
-20870
21239
2020
19223
24510
31649
8483
-10854
-25486
19308
8708
10216
29129
27135
18367
-2192
-27768
15605
14615
617
31001
20271
25743
6720
-27044
10194
18789
-9479
29702
10995
30867
15058
-23379
3746
21125
-18492
24778
296
32765
21440
-17181
-3264
21069
-25600
17843
-10314
31101
25840
-9755
-9485
19142
-29917
9300
-19266
26504
27598
-457
-15224
14670
-31004
-1332
-27048
18495
27124
8273
-19645
9462
-28935
-10932
-31458
9168
22450
16593
-21365
2546
-23828
-20023
-32715
-1841
16089
22875
-21058
-4270
-16560
-26307
-30507
-11956
8287
26340
-18428
-10378
-7534
-30242
-25358
-20751
-936
28305
-14405
-16232
2924
-30818
-17188
-27896
-9680
26065
-8167
-19588
12576
-28377
-7463
-31905
-17633
21562
-1317
-21204
21079
-22866
3295
-32600
-23411
15102
5476
-20872
27217
-15259
13373
-29913
-27072
6851
11570
-17941
30541
-5737
22164
-24133
-27872
-1855
16571
-13286
31009
4168
28771
-15680
-25402
-11012
19953
-7037
27603
14361
32349
-5216
-20421
-18423
21200
-347
21746
22374
32365
5112
-13600
-24411
20557
6646
13103
28047
28937
15371
-5388
-27406
17463
12607
3761
30662
22650
23677
4238
-27800
12176
17803
-6383
30419
13809
29715
12940
-24986
5760
20919
-16176
26684
3176
32612
20266
-19312
-1251
21642
-23574
20286
-7227
31959
25256
-11912
-7864
20029
-28690
11963
-16838
28109
27468
-4016
-13350
16606
-30953
2705
-24535
21717
27560
5650
-18354
11179
-29994
-7776
-30356
12334
23830
14251
-21020
4708
-25679
-17366
-32737
1391
18246
21402
-21558
-2441
-18883
-24694
-31457
-9171
10391
26138
-19463
-8933
-9835
-29493
-26860
-18766
1848
27804
-15639
-14441
-152
-31001
-19658
-26214
-7345
27212
-10136
-19015
9680
-29560
-10415
-31067
-16099
23366
-3197
-21452
19084
-24541
665
-32760
-22749
17360
3506
-21618
25806
-17427
10708
-30967
-26768
9214
10141
-19140
30132
-8019
20449
-25602
-27919
200
15511
-14676
31055
1924
27424
-17932
-26470
-8886
19513
-8911
28935
11527
31663
-8430
-22588
-16900
21550
-2298
23780
19750
32718
1774
-15499
-23209
21113
4878
15997
26622
30284
12510
-7402
-26930
18349
11134
6841
30266
24817
21396
1521
-28016
13950
16554
-3058
30855
16747
28163
10727
-26291
7917
20316
-12953
28259
6876
32037
18107
-21228
1070
21462
-21464
22708
-4057
32514
24060
-14268
-5812
20904
-27661
14464
-14394
29436
27600
-5942
-12228
17995
-30734
5204
-22748
23583
28178
3225
-17416
13237
-30817
-4811
-29014
15226
25526
12042
-20585
6747
-27503
-14925
-32450
4546
20232
19532
-21723
-115
-21398
-22675
-32246
-5817
12750
25219
-20698
-7238
-12611
-28432
-28499
-16169
4390
27965
-17236
-12954
-3880
-30788
-22510
-23811
-4619
27785
-12336
-18035
6898
-30180
-13021
-30068
-13391
24984
-5846
-21015
16169
-26430
-2761
-32650
-20813
19069
1598
-21709
23968
-19748
8162
-31734
-26183
11235
8543
-20193
29278
-10661
18118
-27301
-28178
2738
14171
-16493
31219
-1162
25632
-20412
-27864
-6222
18849
-11127
29947
8752
30701
-11450
-24320
-15345
21783
-4257
25284
18237
32764
-368
-17836
-21704
21656
2630
18378
25204
31211
9974
-9502
-26225
19246
9606
9202
29660
26337
19494
-1071
-28188
15574
15134
-329
31087
19142
26594
8301
-27062
9514
19584
-10802
29317
9332
31409
16548
-23143
2995
21792
-19822
24175
-1640
32725
23154
-16618
-4091
21767
-26373
16889
-11877
30538
27050
-8259
-10615
18985
-30416
7567
-21035
25123
28190
829
-16262
14679
-31130
-2148
-27724
17465
26505
9504
-19975
9112
-28675
-12100
-31912
7435
22372
18444
-22239
1746
-22732
-21116
-32562
-3659
14710
24013
-21133
-5327
-14910
-27434
-29564
-14128
6700
27946
-18721
-11904
-5924
-30245
-24091
-22209
-2521
27968
-13444
-16812
4180
-30929
-15783
-28715
-11411
26058
-7483
-20548
13872
-27868
-5534
-32296
-19793
20810
-228
-21976
22548
-21568
5724
-32263
-24760
13846
6367
-21017
27830
-13577
15424
-28909
-28196
4930
13022
-17760
30927
-3730
23911
-22403
-28338
-4147
17864
-12876
30571
6037
29749
-13734
-25675
-13252
21186
-6410
26931
15714
32596
-3338
-19929
-20549
22154
623
20842
23343
32056
6786
-12268
-25602
20587
7643
11840
28881
27937
17122
-3058
-28841
17239
14357
1882
31068
20898
25237
6205
-27936
11485
18789
-8410
30064
11627
30634
14673
-24570
5066
21599
-17095
26107
1743
32720
22352
-18229
-2447
22256
-25026
18569
-9717
31293
26198
-10453
-8880
19885
-29440
10120
-18792
26842
28477
-1724
-14719
16326
-31158
429
-26220
19651
27699
8149
-19691
10448
-29384
-10093
-31306
9675
23307
15778
-21316
3860
-24840
-18630
-32761
-602
17424
22862
-22069
-3119
-17879
-25519
-30946
-10769
8731
27061
-19497
-10120
-8241
-29885
-25512
-20561
-561
28894
-15376
-16208
1649
-30881
-17782
-27522
-9365
27142
-9508
-19945
11272
-28798
-8299
-31698
-17403
22652
-2551
-21854
20023
-23778
2122
-32698
-24087
16076
4625
-21932
26671
-15820
12845
-30144
-27573
7281
11302
-18874
30449
-6380
22050
-24237
-29006
-2143
17212
-14487
30817
3895
28738
-15741
-26515
-10889
20600
-8139
28106
13267
32197
-6081
-21644
-18570
22059
-1356
22669
21458
32498
4183
-14233
-24950
21402
6036
14242
27567
29239
14789
-5896
-28300
18479
12505
4733
30593
23055
23283
3655
-28734
13509
17702
-5232
30596
14616
29326
12701
-26026
7194
21127
-14947
27298
4280
32486
19769
-20355
89
21963
-22757
21106
-6362
32143
25481
-12494
-7229
20663
-28522
12398
-16781
28143
28553
-4200
-13391
17796
-30794
3241
-24507
21750
28165
5265
-18357
12321
-30379
-7198
-30288
12500
25125
14095
-21583
5790
-26459
-16452
-32683
2344
19193
20794
-21945
-876
-20121
-23718
-31774
-8003
11304
26443
-20618
-8368
-11180
-29131
-27390
-17984
2092
29239
-16943
-14746
-819
-30952
-19828
-26086
-6711
27948
-11385
-19056
8305
-29929
-11379
-30727
-15373
24326
-4797
-21640
17858
-25302
-615
-32761
-22215
17804
2522
-21853
25124
-18409
10144
-31157
-27090
10360
9270
-20450
29509
-9988
19312
-26470
-28773
864
15279
-16085
31227
525
26972
-18605
-27344
-8484
19712
-10083
29144
10560
31534
-8901
-23539
-16858
22129
-3532
24283
19473
32725
1653
-16746
-23059
21904
3652
17204
25997
30622
11659
-8544
-27257
19687
10364
8182
29943
25386
20716
575
-28498
15051
15944
-2151
30885
17059
27975
10034
-27026
9339
20370
-11952
28493
7370
31927
18454
-22394
2178
22519
-20714
23240
-3434
32586
24424
-15589
-4808
22089
-26811
15728
-13475
29867
28379
-7179
-11482
19428
-30350
6215
-22357
23954
28757
2761
-17296
14337
-30787
-4229
-29044
15168
26406
11625
-20808
7961
-27993
-13393
-32287
5583
20866
19303
-22185
702
-22055
-21718
-32342
-5260
14313
24872
-21457
-5832
-14353
-27281
-29181
-14903
4965
28509
-18369
-12886
-4469
-30657
-22640
-23687
-3636
29024
-13822
-17741
5288
-30579
-14281
-29491
-12996
25841
-6932
-21206
15154
-27126
-3614
-32567
-20879
20535
210
-22763
22879
-20877
6754
-32063
-26125
13129
7182
-21453
28376
-12946
16509
-28303
-28735
4142
13417
-17897
30906
-3006
24750
-21472
-28407
-5554
18630
-12417
30270
7504
30490
-12000
-25190
-14349
21827
-5891
26175
16716
32726
-1627
-19318
-22022
22742
1451
19712
24045
31618
8598
-11009
-26723
20658
8556
11278
28999
27297
18124
-2066
-28635
16967
14633
1770
31057
20360
25673
7359
-28442
11710
19742
-8700
29819
10996
30866
16096
-24163
4538
21989
-18117
25191
-210
32766
22514
-17919
-2471
22352
-24968
18558
-10293
31108
27515
-9853
-9562
20461
-29538
9576
-19622
26242
29073
-608
-15482
16112
-31274
-371
-27106
18409
27846
8373
-19920
10833
-29432
-10415
-31517
8961
23740
17138
-22374
3926
-24856
-18841
-32749
-1056
16701
23921
-22390
-3799
-16922
-25932
-30458
-12080
8840
27785
-20117
-10162
-8446
-29849
-25539
-20528
-677
29527
-15879
-16252
1763
-30978
-17435
-27742
-10041
27529
-9580
-20581
11669
-28824
-7493
-31898
-18122
22813
-2777
-22397
19805
-23872
2532
-32669
-24774
15941
4656
-22282
26744
-16097
13204
-29988
-28283
7208
11324
-19496
30145
-6689
22106
-24185
-29164
-1965
16789
-15025
30860
3604
28768
-15685
-26691
-11652
21008
-8343
28059
13468
32313
-5433
-21458
-18892
22214
-1445
22511
21335
32442
4598
-14546
-25665
22209
5933
14507
27527
29278
14711
-5687
-28715
19007
12431
5019
30746
22930
23406
3711
-28680
13876
17676
-5110
30631
14282
29490
12878
-26114
7343
21422
-14743
27384
3992
32522
21121
-20637
98
23014
-22777
21253
-6615
32092
25747
-12697
-6972
21109
-28256
13025
-16397
28368
28957
-4161
-13411
18437
-30760
3494
-24516
21739
28565
5295
-18469
13104
-30287
-6380
-30096
12957
25386
14553
-21856
6265
-26406
-16295
-32715
1834
19431
21677
-22563
-944
-20053
-23717
-31685
-8349
11358
26670
-20957
-8235
-11369
-28875
-27295
-18128
2402
29194
-17377
-14456
-1784
-30881
-20164
-25827
-7275
28640
-11864
-19660
8555
-29804
-10716
-30965
-16300
24808
-4930
-22364
17774
-25394
-32
-32766
-23295
18109
2496
-22669
24960
-18212
10581
-31011
-27636
10221
9394
-20839
29432
-9793
19605
-26254
-29463
576
15574
-16424
31006
333
26998
-18567
-27862
-8802
20146
-10697
29146
10107
31505
-9004
-23994
-17481
22712
-3886
24332
19160
32723
1680
-16702
-24350
22648
3951
17146
26110
30445
12115
-8248
-28369
20462
10890
8040
29976
25092
21072
463
-29236
15894
16283
-1367
30994
17591
27644
10351
-27969
9897
20943
-11669
28848
7497
31897
18556
-23013
2749
22914
-20140
23510
-3220
32608
24899
-15993
-4472
22632
-26499
16101
-13244
29971
28375
-7119
-11423
19704
-30318
7162
-22023
24262
29219
2191
-17061
15239
-31037
-2873
-28550
16078
27077
11596
-21186
8958
-28245
-12822
-32243
5835
21881
19419
-22694
1906
-22657
-21350
-32399
-4891
14290
25493
-22115
-5672
-14547
-27384
-29135
-14993
5878
29291
-19698
-12477
-5752
-30507
-23420
-22916
-3435
29129
-14443
-17594
4830
-30660
-14314
-29475
-12843
26793
-7979
-21594
14028
-27691
-4458
-32462
-20763
21332
-541
-23152
22387
-21578
6242
-32166
-26306
13374
6660
-21945
28104
-13356
16370
-28384
-29549
4358
13473
-18801
30904
-3288
24733
-21492
-29407
-5301
18771
-13589
30330
6379
30097
-12953
-25997
-14142
21992
-6853
26821
15635
32654
-2708
-20077
-21885
23195
467
20672
23336
31833
7766
-11805
-27239
21692
8208
11523
28837
27371
18013
-2235
-29564
17775
14704
1533
30929
20141
25845
6713
-28565
12297
19235
-7962
30022
11230
30782
15562
-25114
5844
22342
-16908
25950
924
32753
23463
-18874
-1924
23503
-24754
18820
-10082
31177
27984
-10286
-9112
21463
-29320
10267
-19378
26422
29724
-832
-15434
17210
-31048
339
-26681
19019
28338
8431
-20012
11373
-29562
-9584
-31344
9549
24017
17209
-22662
4186
-24738
-18733
-32739
-1333
17278
24080
-23085
-3167
-17642
-25379
-30676
-11516
8748
28527
-20801
-10377
-8570
-29689
-25375
-20730
-709
29739
-16462
-16430
1555
-30979
-17310
-27821
-9878
28167
-10590
-20634
10955
-28928
-7990
-31777
-18498
23416
-3280
-22985
19809
-23826
2882
-32639
-25180
16083
4296
-22842
26349
-16234
13189
-29995
-28914
7089
11485
-20176
30163
-6967
22118
-24175
-29953
-2585
17461
-15337
30671
3341
28764
-15693
-27475
-11523
21302
-9157
28297
12405
32184
-6151
-22140
-20100
23403
-1631
22474
21188
32397
4906
-14567
-26059
22638
5701
14561
27356
29105
15051
-5894
-29232
19731
12428
5434
30490
22985
23352
4049
-29233
14312
18077
-4730
30571
14444
29411
13036
-26602
8044
21647
-14413
27297
3897
32534
20734
-20949
696
22888
-22283
21618
-6358
32144
26942
-13285
-6951
22440
-28290
13085
-16736
28170
29752
-3749
-13846
18869
-30853
3219
-25086
21079
29464
5851
-19039
13548
-30455
-6768
-30365
12313
26196
14685
-22362
7062
-26844
-15571
-32668
2539
19379
22458
-23252
-903
-20304
-23415
-31680
-8366
11349
27628
-21707
-8372
-11458
-28753
-27219
-18242
2128
30239
-18093
-14872
-1926
-30760
-20122
-25860
-7739
28802
-12148
-19913
8324
-29779
-10618
-30998
-16063
25418
-5758
-22645
17119
-25750
-669
-32760
-23512
18664
2007
-23289
24454
-18891
9884
-31240
-28222
10090
9284
-21364
29324
-10272
19446
-26372
-29795
191
15845
-16965
30853
193
27194
-18279
-28539
-8928
20369
-11358
29307
9981
31540
-8880
-24354
-17595
22997
-4408
24820
18445
32748
1105
-17068
-24768
23233
3653
17248
25538
30508
11954
-8170
-28305
20580
10509
8477
29733
25201
20941
1350
-30130
16560
16885
-1850
30825
16973
28028
10603
-27665
10082
20917
-11543
28738
7206
31964
18828
-23141
3048
23149
-19844
23807
-3291
32601
25633
-15713
-4788
23120
-26701
15868
-13819
29710
29132
-6658
-11598
20250
-30215
6481
-22666
23661
29738
2913
-17573
15459
-30861
-3149
-28888
15463
27565
12327
-21799
9101
-28131
-12820
-32302
5496
22156
20063
-23339
2065
-22611
-21158
-32367
-5101
13986
26482
-22508
-6101
-14154
-27464
-28701
-15808
5170
29502
-19564
-12831
-5021
-30590
-22502
-23818
-5167
29650
-14119
-18655
5340
-30550
-13511
-29851
-14027
26357
-7432
-22183
14647
-27250
-3410
-32589
-21740
21086
-487
-23647
22308
-21374
6886
-32035
-27315
12705
7215
-22375
28114
-12992
16926
-28056
-30131
2935
14335
-18708
30823
-3185
25123
-21035
-29246
-6420
19344
-13187
30138
6933
30589
-11746
-25953
-15549
22790
-6380
26346
16173
32729
-1570
-19845
-22920
23744
957
20285
23361
31661
8439
-11023
-28129
22134
8537
11427
28778
27079
18449
-1345
-29869
17736
15283
1042
30977
19367
26430
8028
-29033
12316
20120
-8505
29729
10359
31086
17168
-24957
5080
23180
-17760
25432
-258
32765
23943
-18011
-2372
23359
-24873
18499
-10932
30889
28322
-9603
-9508
21482
-29486
9624
-20204
25796
30240
46
-16113
17412
-30896
-25
-27219
18242
28340
9829
-20819
11133
-29188
-10510
-31770
8019
24054
18322
-23217
4074
-24653
-18921
-32705
-2014
16834
24967
-23485
-3541
-17266
-25517
-30394
-12241
7988
29080
-20845
-10660
-8068
-29915
-24743
-21481
-2152
30265
-16229
-17174
2087
-30789
-16387
-28374
-11563
28173
-10071
-21703
11977
-28547
-6394
-32136
-19837
23000
-2717
-23548
20289
-23537
3864
-32538
-25638
15619
4440
-23129
26528
-15818
13936
-29655
-29478
6420
12173
-20321
30309
-6437
22852
-23482
-29987
-3183
17765
-15482
30748
3464
29095
-15070
-27638
-12998
22049
-8993
27868
13446
32421
-4743
-21771
-21056
23657
-1289
22095
21802
32205
6041
-13906
-26660
22862
6116
14384
27294
28861
15514
-4441
-30141
19699
13426
4504
30693
22148
24148
5197
-30152
14623
19045
-5259
30570
13478
29866
14478
-26588
7773
22495
-14632
27352
3342
32596
22325
-20704
70
23895
-22801
21090
-7444
31910
27337
-12693
-7120
22532
-28244
13214
-16985
28020
30656
-2766
-14531
19262
-30810
3284
-25153
20999
29676
6674
-19534
13679
-30230
-6665
-30508
11953
25972
15940
-22861
6587
-26635
-15780
-32725
1642
19699
23447
-23979
-1035
-19952
-23665
-31466
-9138
11223
28457
-22478
-8436
-11378
-28862
-26886
-18729
1155
30413
-18188
-15292
-1480
-30764
-19429
-26385
-8658
29596
-12512
-20592
8608
-29634
-9859
-31248
-17548
25003
-5154
-23356
17793
-25166
843
-32756
-24397
18285
2271
-23836
24887
-18360
11007
-30862
-28982
9709
9713
-22149
29319
-10106
19885
-26042
-30696
-549
16400
-17485
30933
828
27698
-17506
-28708
-10255
21062
-11154
29124
10434
31782
-7971
-23747
-18924
23573
-3674
24259
19244
32655
2701
-16798
-25706
23922
3932
16924
26114
30137
12862
-7531
-29379
21022
11273
7940
29841
24620
21621
2000
-30460
16610
17166
-1859
30952
16565
28271
11823
-28473
10291
21786
-11896
28709
6508
32114
20281
-22721
2517
23769
-20450
23216
-4290
32484
26261
-15121
-5105
23337
-26695
15818
-14108
29574
30169
-6087
-12278
20888
-30323
6536
-22805
23528
30222
4006
-18271
15496
-30649
-3884
-29345
14577
27142
13705
-22353
8624
-27754
-13728
-32508
4105
21557
21678
-23930
1161
-22165
-21609
-32187
-6136
13620
27350
-23102
-6293
-14113
-27640
-28545
-16088
4160
30363
-19826
-13457
-4519
-30535
-21897
-24375
-5499
30202
-14674
-19046
5283
-30509
-13337
-29929
-15199
27010
-7663
-22983
14839
-27036
-2841
-32643
-22839
20670
-39
-24134
22877
-20788
7980
-31780
-28230
12307
7567
-22948
28318
-12503
17728
-27556
-30489
2514
14453
-19071
30636
-2794
25574
-20484
-29827
-7504
20052
-13336
30009
7574
30963
-10721
-26030
-16790
23442
-6341
26126
16660
32761
-620
-18667
-23847
23800
1680
19322
24107
31188
10047
-10236
-28838
22244
9218
10674
29033
26408
19397
-557
-30811
18315
15876
704
30872
18779
26851
9218
-29453
12489
20902
-9054
29580
9370
31398
18382
-24875
4882
23756
-18042
25096
-1299
32741
25645
-17648
-2992
24216
-25320
17631
-12028
30479
29430
-8836
-10278
21905
-29677
9185
-20792
25324
30819
1385
-16921
17279
-30873
-1131
-28016
16992
28804
10881
-21477
11166
-28874
-10896
-31951
7265
23804
19958
-24129
3553
-23717
-19863
-32552
-3739
16117
26336
-23916
-4169
-16369
-26176
-29788
-13651
6324
30098
-21024
-12063
-6684
-30138
-23553
-22779
-3182
30883
-16565
-17862
2377
-30630
-15775
-28719
-12761
27854
-9692
-22068
12651
-28173
-5321
-32332
-21050
22677
-2195
-24107
20729
-22927
5040
-32377
-27238
14693
5591
-23634
27015
-15022
15109
-29075
-30403
4999
12974
-20453
30424
-5431
23833
-22486
-30708
-4460
18700
-15671
30600
4292
29589
-14076
-27522
-14184
22759
-8632
27637
13867
32542
-3825
-21687
-22362
24446
-974
21736
21977
32043
6849
-13114
-28012
23420
6916
13521
27846
28113
16832
-3383
-30871
19915
14108
3681
30753
21163
25015
6580
-30310
14399
19682
-5979
30317
12412
30324
15981
-26722
7391
23434
-15790
26787
1686
32723
23741
-20097
-461
24576
-23379
20536
-8734
31581
28963
-11445
-8290
23076
-28839
11537
-18727
26887
30917
-1593
-15029
18982
-30940
2339
-25981
19965
30022
7578
-20178
13715
-30033
-7667
-31020
10555
25637
17326
-23699
6178
-25764
-17127
-32764
-367
18985
24523
-24438
-1581
-19095
-24312
-31038
-10502
9801
29598
-22600
-9529
-9928
-29325
-25765
-20243
125
30815
-18208
-15922
-531
-30919
-18372
-27131
-9526
29583
-12411
-20981
9457
-29513
-8825
-31556
-18829
25265
-5087
-24268
18229
-25087
1319
-32740
-25985
17219
3319
-24233
25437
-17479
12444
-30311
-30002
8191
10666
-21921
29632
-8582
21351
-24855
-31091
-1729
17168
-17449
30830
1257
28126
-16809
-28842
-11422
21869
-11056
28985
10798
31952
-7261
-23881
-20320
24391
-3494
23969
19608
32580
3491
-15584
-26259
23795
4399
16395
26259
29694
13853
-6133
-30738
21508
12309
6784
30285
23475
22860
3662
-31003
16343
18309
-3163
30864
15017
29122
13076
-28469
9996
22517
-12316
28319
5580
32288
21553
-22436
2169
24426
-20995
22907
-5355
32326
27393
-14232
-5802
23702
-27151
14885
-15557
28838
30973
-4784
-13314
20821
-30487
5006
-24299
21981
30616
5301
-19168
15364
-30601
-4664
-29901
13401
27289
14943
-22915
8495
-27346
-14343
-32634
2944
21194
22908
-24662
712
-21547
-22296
-31929
-7360
12584
28466
-23538
-7221
-13359
-27900
-27919
-17151
2631
31244
-19980
-14577
-3339
-30915
-20646
-25443
-7194
30357
-14273
-19948
6278
-30320
-11940
-30513
-16122
26713
-7443
-23349
15619
-26816
-1638
-32726
-24242
19950
617
-24813
23540
-20174
9269
-31428
-29648
11451
8511
-23665
28669
-11738
18738
-26880
-31430
1194
15588
-19309
30923
-1661
26503
-19267
-30138
-8993
20937
-13230
29743
8322
31300
-9693
-25931
-17846
23976
-6097
25824
17170
32764
380
-18739
-25220
24860
1830
18571
24827
30773
11253
-9356
-29810
22608
9769
9956
29306
25690
20338
260
-31560
18749
16416
294
30950
18024
27363
10496
-29643
12120
21640
-9732
29397
8296
31699
18936
-24989
5167
24216
-18074
25219
-1523
32731
26109
-17057
-3442
24428
-25544
17589
-12763
30178
30295
-8165
-10821
22207
-29821
8725
-21578
24658
31488
2015
-17361
17779
-30962
-1242
-28295
16524
28902
11932
-21990
11067
-28863
-11163
-32089
6630
24031
20531
-24643
3762
-23785
-19758
-32524
-3981
15623
27506
-24449
-4845
-15976
-26414
-29390
-14487
6223
30902
-21650
-12183
-6909
-30197
-23417
-22918
-3780
31522
-16865
-18484
3172
-30765
-14829
-29219
-13657
28539
-9988
-22930
12919
-28059
-4677
-32431
-21966
22407
-2011
-24612
21417
-22388
6222
-32170
-28361
14095
6234
-24329
27394
-14416
16021
-28582
-31151
4565
13361
-20867
30531
-5096
24369
-21904
-30884
-5661
19212
-15503
30550
5049
30118
-12906
-27281
-15201
23248
-8562
27470
14294
32639
-2890
-21197
-23011
24639
-848
21416
22393
31859
7657
-12366
-29109
23855
7675
12682
28111
27519
17786
-2769
-31807
20496
14752
3275
30779
20574
25502
7541
-30490
14362
20128
-6799
30198
11346
30739
16800
-26560
7147
23771
-15916
26464
1006
32751
24500
-19874
-608
24876
-23310
20229
-9338
31408
29210
-11181
-8202
23327
-28709
11681
-18916
26755
31519
-744
-15680
19266
-30834
1780
-26572
19171
30280
9035
-20991
13566
-29798
-8221
-31320
9629
25972
18548
-24399
6036
-25750
-17093
-32762
-519
18387
25659
-24842
-2133
-19192
-24195
-30964
-10718
9503
29980
-22860
-9570
-10293
-29063
-25800
-20199
-701
31607
-18516
-16638
-282
-30844
-17895
-27448
-10849
29813
-12273
-21689
9763
-29156
-7837
-31815
-19338
24801
-4960
-24326
18548
-24745
2482
-32672
-26980
17353
3389
-25087
25537
-17536
12917
-30113
-30781
7910
11007
-22602
29679
-8215
21960
-24318
-31626
-2313
17590
-17787
30854
1462
28439
-16275
-28971
-12150
22185
-11150
28622
11482
32212
-6003
-23523
-20973
24792
-3425
23608
20069
32456
4501
-15508
-27718
24735
4956
16051
26370
29404
14458
-6418
-31176
22034
12047
7252
30098
23518
22815
4218
-31667
16934
18795
-3520
30738
14416
29425
14590
-28493
9654
23329
-13370
28000
4013
32520
22288
-22526
2174
24987
-21006
22800
-5795
32250
28962
-14546
-5986
24972
-27406
14577
-16202
28480
31687
-4267
-13515
21329
-30540
5280
-24349
21926
31362
6593
-19991
15615
-30554
-5295
-30300
12473
27832
15720
-23775
8832
-27462
-14318
-32659
2648
20893
23928
-25113
368
-21163
-22611
-31720
-8216
12391
29247
-24045
-7393
-13135
-28008
-27597
-17665
2626
31713
-20364
-14582
-3451
-30704
-20391
-25649
-7948
30875
-14483
-20552
6931
-30075
-10853
-30917
-17694
27143
-7534
-24632
16118
-26422
-478
-32763
-25007
19838
795
-25307
23693
-19933
9865
-31246
-29983
10955
8567
-23662
28685
-11391
19316
-26467
-32053
598
15888
-19682
30823
-1786
26677
-19025
-30533
-9757
21517
-13512
29727
8120
31328
-9601
-25661
-18929
24538
-5962
25545
17471
32739
1334
-18573
-26063
25226
2103
18922
24440
30778
11240
-8931
-30564
23143
10155
9665
29349
25204
20938
1508
-32085
18623
17396
-315
30961
17153
27918
11535
-29799
12127
22287
-10278
29258
7238
31957
20478
-24602
4507
24905
-18895
24456
-3207
32609
27360
-16881
-3687
25212
-25721
17177
-13418
29893
31353
-7221
-11529
22737
-29969
7750
-22567
23757
31501
3247
-18102
17574
-30898
-2105
-28917
15410
28972
13142
-22755
10936
-28611
-12032
-32348
5222
23179
22234
-25268
2830
-23126
-20532
-32302
-5500
15456
28253
-25100
-5152
-15765
-26659
-29147
-14969
5764
31802
-22165
-12668
-6594
-30168
-22826
-23508
-5051
31999
-16887
-19400
3671
-30766
-14150
-29554
-14810
28777
-9877
-23706
13242
-27954
-3857
-32539
-23116
22510
-1867
-25486
21504
-22259
6708
-32072
-29192
13694
6518
-24745
27433
-14392
16494
-28312
-32098
3552
14259
-21357
30580
-4395
25041
-21132
-31692
-6798
20205
-15866
30449
5257
30309
-12450
-27742
-16474
24164
-8478
27049
15047
32718
-1778
-21217
-24733
25917
-341
20960
22686
31612
8622
-11964
-29755
24325
7763
12300
28408
26989
18581
-1767
-32061
20407
15147
2737
30729
19837
26079
8438
-31433
14784
21129
-6955
30203
10725
30962
18314
-26728
6841
24677
-16622
26267
-100
32766
25647
-19599
-1046
25607
-23737
19824
-10148
31155
30384
-10199
-9068
23738
-28969
10909
-19965
25982
32245
-103
-16227
19721
-30947
1502
-27016
18541
30895
10262
-21821
13633
-29850
-8416
-31490
9056
25910
19496
-25035
6031
-25395
-17622
-32720
-1749
18011
27011
-25673
-2604
-18120
-25163
-30269
-12547
8718
30959
-23330
-10294
-9696
-29402
-25052
-21119
-1788
32237
-18725
-17423
599
-30925
-16769
-28150
-11899
29963
-12246
-22468
10118
-29230
-7152
-31976
-21111
24777
-4534
-25331
18914
-24340
3403
-32589
-27877
16330
4077
-25266
25944
-16737
14020
-29616
-31659
6938
11827
-22908
29971
-7738
22655
-23672
-32439
-3523
18653
-18045
30855
2111
28998
-15256
-29375
-13832
23366
-10974
28349
12199
32390
-4952
-23388
-22392
25545
-3065
23188
20359
32349
5213
-14827
-28775
25122
5462
15492
26720
28893
15454
-4667
-32432
22278
13461
5904
30379
22361
23918
5695
-31817
16628
19490
-3918
30679
13622
29801
15643
-28302
9404
23844
-13638
27801
3257
32604
24013
-21834
1337
25702
-21924
21841
-7663
31858
29801
-12886
-7100
24911
-27723
13697
-17404
27762
32636
-2921
-14751
21449
-30360
4661
-24903
21068
31631
7399
-20554
15720
-30431
-5666
-30593
11734
27524
17220
-24463
8329
-26899
-15093
-32737
1379
20466
25417
-25953
-125
-20542
-23088
-31387
-9406
11486
30214
-24401
-8130
-12502
-28203
-26958
-18626
785
32757
-20621
-15987
-2358
-30741
-19213
-26543
-9653
30989
-14162
-21548
7838
-29809
-9582
-31334
-18988
26516
-6747
-25059
16813
-26010
703
-32759
-26642
19075
1648
-26061
24054
-19171
11047
-30644
-31115
9541
9752
-23862
28955
-10565
20313
-25711
-32542
-319
16473
-19842
30860
-878
27418
-17940
-30680
-10780
22222
-13550
29540
8777
31681
-8363
-25616
-20153
25352
-5612
25202
17755
32699
2098
-17454
-27610
25828
3111
17876
25171
30115
12911
-7768
-31832
23538
11253
9092
29333
24483
21528
2995
-32629
18622
18237
-1133
30471
15961
28158
12979
-29962
11993
23031
-10419
29071
6654
32084
21849
-24215
3897
25659
-19259
24120
-4055
32515
28683
-15841
-4644
25684
-25993
16565
-14371
29312
32164
-5942
-12444
22857
-30025
7433
-23019
23319
32344
4788
-19265
17542
-30781
-2990
-29512
14236
29296
14675
-23758
10691
-28432
-11997
-32372
4789
22808
23499
-25910
2323
-22913
-20796
-32163
-6261
14588
29211
-25386
-5618
-15405
-26881
-28694
-15821
4001
32521
-22075
-13817
-5591
-30001
-21639
-24145
-6176
32179
-16723
-19949
3821
-30459
-13329
-29714
-16210
28449
-9285
-24377
13878
-27511
-2607
-32663
-24628
21495
-911
-26031
21919
-21675
7999
-31775
-30388
12255
7655
-24963
27872
-13085
18040
-27238
-32675
2449
14728
-21446
30596
-3711
25713
-20181
-31647
-8490
21122
-15383
30094
6032
30700
-11204
-27287
-18139
24928
-7834
26856
15071
32698
-1116
-19971
-25880
26112
567
20342
23114
31284
9743
-10759
-30940
24580
8838
11545
28631
26276
19576
161
-32766
20262
16514
1947
30693
18620
26734
10587
-31009
13930
22067
-8243
29707
8884
31442
19853
-26067
6240
25328
-17001
25641
-1231
32571
27090
-18432
-1968
26051
-24128
18938
-11521
30345
31585
-8718
-10395
23896
-29164
10080
-21003
25072
32653
1715
-17307
19454
-30920
121
-27993
17031
30570
11796
-22520
13118
-29286
-9457
-31735
7388
24803
21411
-25624
4695
-24353
-18500
-32314
-3440
16435
28346
-25829
-3797
-17042
-25713
-29525
-14003
6635
32088
-23275
-11852
-8381
-29542
-23762
-22306
-4048
32515
-18192
-18696
1853
-30527
-15087
-28699
-14182
29538
-11256
-23562
11772
-28383
-4977
-32270
-22550
23772
-3525
-25912
19848
-23469
5239
-32183
-29079
15101
5157
-25664
26405
-15560
15488
-28628
-32412
4803
13123
-22579
29881
-6192
23710
-22027
-32223
-5941
19733
-17087
30447
3616
29670
-13423
-28832
-15567
24078
-10248
27778
12860
32315
-3543
-22305
-24002
26094
-1932
22189
21167
31831
7110
-13294
-29948
25328
6688
14121
27128
27653
16913
-2614
-32662
21731
14647
4431
30239
20557
25041
8073
-31756
15799
20798
-5525
29678
11179
30103
17704
-27572
8516
24746
-14913
26340
918
32040
25385
-20718
306
26123
-22609
20452
-9393
30888
30791
-11204
-8295
24843
-28013
12136
-18838
26301
32760
-656
-15828
20827
-30560
2501
-26516
18925
31196
10022
-21682
14421
-29495
-7602
-30939
9248
26515
19250
-25208
6992
-26000
-16387
-32644
-834
19205
26548
-26189
-1211
-19734
-23499
-30784
-10638
8999
31507
-24204
-10015
-10688
-28477
-25319
-20142
-1023
32751
-19954
-16836
-1087
-30420
-17570
-27175
-11584
30650
-13439
-22467
8939
-28848
-7553
-31180
-20463
25591
-5797
-25450
17571
-24628
2504
-32025
-27583
17686
2719
-26132
24450
-17786
12625
-29540
-31945
7292
11272
-23625
29107
-8868
21743
-23905
-32628
-3005
18050
-18893
30140
932
27974
-15537
-30000
-13177
23154
-12281
28629
10243
31725
-6260
-24321
-21958
25825
-4356
23777
18970
32002
4410
-15799
-28706
25818
4370
16394
25592
28872
14391
-5658
-32274
23080
12468
7368
29617
22856
23015
4499
-32456
18033
18941
-2203
30210
14369
28736
15026
-29118
10845
23780
-11854
27681
4201
31729
23497
-22837
2685
26005
-20093
22873
-5957
31663
29401
-14463
-5415
25599
-26405
15223
-15908
28027
32508
-4105
-13441
22388
-29615
5973
-23789
21459
32041
6855
-20194
16716
-30049
-4387
-29861
12204
28221
16650
-24432
9484
-26965
-13739
-32050
2015
21358
24849
-26170
1106
-21469
-21792
-31334
-8360
12487
30294
-25232
-7130
-13544
-27310
-27149
-17698
1908
32711
-21461
-14906
-3810
-29931
-19668
-25301
-8567
31627
-15586
-21026
5754
-29446
-10653
-30031
-18424
27096
-8011
-24955
15170
-26074
-226
-32049
-25560
20502
-208
-26235
22580
-20118
9727
-30602
-30905
10887
8401
-24859
27862
-11719
19121
-25756
-32765
261
15992
-20716
30133
-2144
26377
-18284
-31211
-9977
21730
-14694
29508
7265
30975
-9350
-25980
-19966
25333
-6467
25013
16714
31856
1706
-18163
-27272
26153
2070
18477
23825
29777
11774
-8661
-31601
24189
10131
10372
28410
24856
20449
1852
-32714
19762
17208
596
30383
16947
27422
12270
-30382
13108
22765
-9801
28760
6622
31471
21271
-24923
5316
25688
-18008
24077
-3485
31632
28199
-16687
-3315
25971
-24889
17227
-13483
29167
32006
-7020
-11290
23678
-28824
8642
-21756
23408
32568
3597
-18301
18717
-29912
-1278
-28083
14971
29553
14151
-23440
11699
-28052
-10979
-31632
5021
23242
23096
-25947
3363
-22886
-19566
-31500
-5614
14858
29204
-25754
-5096
-15419
-25780
-28004
-15310
4941
32392
-22910
-12841
-6690
-29225
-21905
-23243
-5697
32267
-17591
-19387
3186
-29794
-13119
-28985
-15769
28722
-10416
-24090
12566
-27086
-3038
-31591
-24388
21883
-1848
-26145
21107
-21304
7883
-30871
-29930
13335
6234
-25460
26549
-14048
16819
-27138
-32622
3074
14042
-22074
29803
-4729
24793
-20306
-31892
-7520
20438
-16511
29479
5020
29825
-11308
-27569
-17709
24714
-8808
26170
13982
31608
-1250
-20684
-25413
26245
-662
20324
22064
30475
9311
-11319
-30749
25009
7915
12299
27461
26035
18472
-807
-32757
21079
15516
2971
29620
18625
25507
9454
-31373
15184
21340
-6538
29082
9466
30149
19566
-26283
7183
25206
-15718
25475
-792
31684
26572
-19172
-814
26288
-22995
19106
-10914
29710
31306
-9672
-9147
24575
-28132
10998
-19897
25045
32738
1361
-16880
20090
-29912
1151
-26851
16909
30603
11707
-22442
13668
-28746
-8489
-30829
7575
25176
20971
-25643
5718
-24528
-17280
-31754
-2840
17190
27895
-26099
-2771
-17894
-24039
-29229
-12344
7637
31864
-23961
-10750
-9021
-28632
-23504
-21441
-2436
32676
-19594
-17561
195
-29674
-15633
-27357
-13771
29732
-12113
-23339
9940
-27852
-5804
-30896
-22378
23935
-4312
-25901
18456
-23121
4649
-31094
-28665
15874
3886
-26023
24720
-16497
13931
-28360
-32279
5632
12203
-23242
28877
-7506
22542
-22315
-32379
-5024
18981
-18178
29571
1859
28177
-14049
-29160
-14943
23786
-11209
27528
11497
31401
-4227
-22767
-23564
26102
-2929
22350
19740
31036
6135
-13875
-29684
25690
5631
14484
25835
27053
16027
-4011
-32520
22630
13268
6016
29155
21076
23535
6651
-32084
17183
19900
-3815
29554
12249
29122
16533
-28289
9978
24318
-12761
26742
2475
31438
24718
-21509
1682
26196
-20821
21191
-7879
30580
30237
-12623
-6691
25416
-26509
13471
-17234
26402
32701
-2077
-14554
21802
-29434
4063
-24950
19369
31708
8261
-20792
16174
-29279
-5359
-29763
10615
27430
17922
-24777
8850
-26035
-14149
-31472
812
20193
25805
-26314
262
-19860
-21855
-29868
-9603
10731
30959
-25028
-8204
-11820
-27162
-25309
-18822
710
32759
-21207
-15544
-2850
-29645
-18418
-25801
-10024
31195
-15016
-21598
6552
-28669
-9185
-29872
-19419
26392
-7344
-25220
15691
-24855
1268
-31377
-26679
19022
753
-26298
22900
-18731
11200
-29345
-31484
9078
9534
-24472
27667
-10337
20075
-24214
-32743
-1242
16686
-20327
29767
-1082
26835
-16670
-30654
-11575
22276
-13954
28528
8392
30685
-7434
-25008
-21171
25686
-5726
24112
17006
31192
2791
-17264
-27849
26239
2531
17607
23826
28748
12587
-7381
-31924
23992
10859
8792
28277
23064
21366
3169
-32613
19298
17877
-299
29487
15263
27224
13410
-29897
12622
23041
-9665
27781
5795
30724
22081
-24209
4787
25857
-18077
23221
-4308
30872
28768
-15685
-3857
26040
-24552
16330
-14041
27972
32382
-5003
-12506
23158
-28642
6919
-22757
21448
32356
5171
-19025
18230
-29516
-2267
-28384
13455
29230
14807
-23646
11574
-27559
-11278
-31392
4147
22416
23899
-26198
2723
-21943
-19799
-30687
-6632
13577
29821
-25710
-5750
-14594
-25853
-27060
-16181
3555
32573
-22606
-13485
-5622
-28805
-20350
-23647
-6823
32048
-17220
-19904
3976
-29023
-11713
-28870
-16654
28218
-10030
-24236
13043
-26352
-1858
-31201
-24929
21264
-1599
-26313
20906
-20746
8425
-30236
-30428
12157
6914
-25470
26296
-12818
17607
-25698
-32680
2379
14292
-22072
29166
-4089
24807
-19096
-31496
-9036
21005
-15836
28685
5801
29499
-9828
-27131
-18372
24976
-8574
25497
14526
31144
-2
-19757
-26140
26329
-82
19642
21725
29614
9766
-9836
-31255
24904
8817
11371
27174
24735
19082
524
-32762
20839
16218
2319
29245
17452
25805
10828
-30925
14670
21929
-7331
28406
8124
30071
19943
-25998
7093
25359
-15687
24669
-1491
31010
27218
-18243
-1328
26354
-22947
18041
-11726
28629
31661
-8439
-9797
24506
-27849
9944
-20586
23699
32681
2362
-17247
19908
-29214
346
-26918
15555
30274
12536
-22717
13352
-27828
-8860
-30335
6354
24873
21330
-25774
5719
-24084
-16760
-31077
-2927
16306
28421
-26161
-3197
-16796
-23848
-28049
-13318
6314
32152
-23772
-11475
-8305
-28040
-22255
-21573
-4577
32445
-18692
-18577
1191
-28991
-14036
-27469
-14247
29507
-12152
-23396
10225
-27356
-4798
-30687
-22901
23435
-4044
-26153
18352
-22916
5120
-30759
-29438
14389
4849
-25956
24894
-14943
15299
-26868
-32466
4426
12681
-23071
28374
-6595
22877
-20836
-32138
-6386
19536
-17689
29003
3102
28532
-12256
-28672
-15861
24087
-10860
26713
11944
30989
-2944
-21892
-24380
26256
-2444
21336
19971
30184
7324
-13196
-29992
25653
5877
13967
25570
26173
16352
-2959
-32633
22492
13730
4946
28686
19538
23955
8254
-31710
16537
20553
-4670
28937
10685
29147
17802
-27509
9233
24744
-13553
25648
803
30824
25612
-20437
917
26402
-20937
20090
-8928
29438
30894
-10918
-7741
25185
-26229
12175
-18056
24907
32754
-895
-15080
21630
-28867
3386
-25056
18123
31078
10384
-21538
15175
-28143
-6597
-29537
8524
26488
19287
-25177
7901
-24949
-15053
-30982
-1004
18500
27044
-26402
-1042
-18797
-22451
-29052
-11080
9295
31420
-24835
-9082
-11159
-26858
-24306
-19146
-1632
32726
-20450
-16709
-1451
-28972
-16334
-26127
-11851
30548
-14098
-22318
7742
-27785
-7201
-29838
-21098
25070
-6150
-25692
16342
-23829
2866
-30616
-27875
17222
2215
-26305
23147
-17583
12408
-28351
-31884
7553
10290
-24317
27380
-9367
20669
-22937
-32569
-3589
17918
-19379
29012
576
27317
-14511
-29652
-13941
23185
-12544
27195
9885
30435
-4863
-23740
-22584
26013
-4530
22862
17613
30322
4505
-15034
-29114
26122
4148
15840
24102
27185
14196
-5506
-32300
23624
11912
7695
27798
21482
21807
5401
-32318
18399
18863
-1804
28800
13147
27606
15483
-28877
11395
23891
-10843
26773
3647
30409
24053
-22251
2999
26262
-19071
21731
-6478
29938
29757
-13718
-5239
25950
-24747
14606
-15467
26324
32586
-3436
-13301
22810
-28304
5914
-23242
20061
31844
7722
-20196
17060
-28649
-3795
-28592
11205
28019
16988
-24391
10130
-26058
-12432
-30549
1881
21295
24903
-26358
1959
-20957
-19961
-29742
-7746
11746
30589
-25492
-6993
-13114
-25720
-25413
-17203
1266
32742
-21934
-14744
-4287
-28511
-18567
-24305
-9154
31462
-16100
-20986
4853
-28311
-10008
-28868
-18571
26995
-8792
-24954
13752
-24954
-72
-30321
-26338
19491
-100
-26443
21233
-19470
9750
-29004
-31033
10517
7876
-25260
26533
-11810
18623
-24578
-32757
-788
16098
-20966
28615
-2196
25545
-16714
-31098
-10323
21522
-15337
28121
6307
29417
-8606
-25750
-20263
25484
-7132
24504
15070
30525
1421
-17868
-27466
26423
1414
18323
22365
28523
11447
-8517
-31640
24682
9564
10229
26945
23329
19815
1600
-32727
20551
16595
1450
28684
16061
25828
12688
-30210
13613
22607
-8399
27450
6248
29776
21544
-24688
5903
25824
-16623
23459
-3527
30220
28622
-15951
-3198
26272
-23451
16722
-13309
27448
32075
-6697
-10890
24154
-27488
8669
-21175
22059
32533
3901
-18034
19389
-28771
-540
-27097
14163
29503
14255
-23307
12507
-27115
-9633
-30178
4847
23053
23285
-26164
4054
-22348
-18068
-30056
-5404
14453
29406
-26122
-4516
-15464
-24243
-26717
-14713
4940
32392
-23501
-12148
-7619
-27622
-21195
-21865
-5789
32251
-18345
-19086
1862
-28579
-12817
-27568
-15667
28778
-11398
-23895
10872
-26581
-3369
-30350
-24272
22011
-2807
-26364
19093
-21286
6984
-29568
-30035
13097
5661
-25891
24639
-14241
15776
-25834
-32615
3144
13363
-22888
28130
-5354
23537
-19366
-31902
-7478
20019
-17339
28247
3458
28235
-11152
-27721
-17469
24623
-9901
25716
12683
30453
-1299
-20906
-25231
26486
-1735
20510
19858
29245
8063
-11610
-30640
25566
6935
12972
25508
25040
17178
-1247
-32743
22008
14628
4566
28154
18558
23918
9577
-31335
15964
21142
-5008
28069
9605
28671
19256
-26511
8315
25185
-13798
24890
-270
30180
26626
-19097
-3
26548
-21161
19222
-10070
28592
31297
-9701
-8360
25200
-26142
11511
-18647
23884
32764
426
-15773
21204
-28477
2611
-25258
16821
30731
11368
-21949
14801
-27740
-6755
-29306
7769
25581
20475
-25563
7166
-24043
-15407
-30262
-2247
17799
27511
-26492
-1302
-18160
-22057
-28066
-11398
7831
31817
-24646
-9872
-9940
-26664
-22729
-19913
-2469
32673
-20310
-17075
-1073
-28512
-15412
-26005
-12889
30125
-13707
-22695
8064
-27262
-6217
-29564
-21932
24344
-5691
-25884
16145
-23254
3336
-29861
-28615
15964
2910
-26411
22829
-16802
12871
-27204
-32176
6192
11043
-24137
27012
-8437
21033
-21527
-32501
-4164
18065
-19438
28395
307
26711
-14051
-29460
-14344
23302
-12671
26751
9314
29750
-4801
-23283
-23054
26102
-4465
22316
17607
29764
5156
-14718
-29275
26214
4097
15406
23839
26444
14446
-4760
-32419
23619
12156
7184
27498
20579
22055
5957
-32220
18460
19149
-1858
28311
12484
27430
15666
-28779
11552
23839
-10688
26422
3305
30120
24182
-22110
3182
26328
-18494
21442
-6560
29350
29955
-13279
-5358
26020
-24229
14684
-15262
25895
32676
-2434
-13763
22727
-27748
5210
-23420
18779
31777
7992
-20209
17194
-28043
-3806
-28209
10491
27708
17490
-24561
10052
-25625
-12130
-30142
1510
20749
25360
-26540
1738
-20297
-19874
-29000
-8430
11271
30767
-25624
-6980
-12678
-25322
-24561
-17387
677
32759
-21972
-14895
-4206
-27926
-17968
-24041
-9669
31307
-16115
-21102
5019
-27838
-9255
-28573
-19128
26603
-8630
-25131
13593
-24633
354
-29917
-26671
19033
-63
-26561
20967
-18830
10198
-28205
-31253
9842
8144
-25283
25816
-11251
18667
-23499
-32735
-1434
16267
-20977
28177
-2042
25475
-16034
-30718
-11403
21926
-14990
27338
6760
29027
-7424
-25493
-20585
25548
-7216
23927
14986
29932
2077
-17344
-27799
26465
1570
17559
22019
27480
11804
-7547
-31885
24695
9930
9679
26539
22287
20019
2809
-32646
20256
17164
749
28234
14819
26027
12925
-30109
13814
22654
-8175
27093
5922
29436
22018
-24266
5738
25971
-16315
22846
-3877
29538
28767
-15687
-3131
26397
-22733
16372
-13152
26623
32246
-5818
-11223
24079
-26981
8166
-21236
20968
32353
5191
-18589
19016
-28198
-1256
-27113
12847
29151
14963
-23522
12325
-26529
-9608
-29651
4232
22578
23746
-26263
3892
-21983
-17756
-29479
-5772
13723
29754
-26124
-4804
-14941
-23845
-25826
-14937
3919
32531
-23418
-12587
-6885
-27100
-19969
-22013
-6640
32087
-18236
-19394
2194
-27922
-11818
-27327
-16472
28325
-11101
-24127
10814
-25846
-2711
-29645
-24717
21511
-2764
-26437
18999
-20746
7553
-28942
-30393
12243
6089
-25911
24532
-13632
16275
-25023
-32723
1688
14137
-22490
27611
-5047
23460
-18456
-31538
-8886
20622
-16793
27707
4234
28197
-9787
-27235
-18218
24809
-9612
25048
12447
29758
-754
-19967
-25980
26559
-1155
19782
19751
28378
8777
-10209
-31135
25456
7716
12047
25300
23910
17777
189
-32766
21709
15417
3553
27826
17151
24393
10727
-30961
15586
21615
-5611
27400
8336
28481
19821
-26091
8113
25350
-14206
24225
-1323
29778
27015
-18542
-250
26617
-20928
18592
-10483
27792
31666
-8422
-9151
24960
-25793
10770
-18971
22821
32681
2364
-16777
20638
-27897
1602
-25468
15281
30332
12394
-22369
14389
-27100
-6704
-28836
7078
24818
21394
-25792
6553
-23380
-15429
-29572
-2956
16931
28053
-26597
-1781
-17350
-21982
-27205
-12178
6635
32088
-24475
-10475
-9314
-26186
-21617
-20107
-3781
32548
-19976
-17617
-358
-27768
-13990
-25977
-14040
29606
-13203
-23135
8673
-26526
-4957
-29210
-22536
23786
-5370
-26084
16321
-22667
4207
-29390
-29132
14998
3515
-26392
22826
-15902
13620
-26246
-32332
5315
11417
-24071
26710
-7912
21312
-20585
-32279
-5629
18673
-18946
27684
1169
26735
-12584
-28878
-15483
23662
-12077
25921
9907
29415
-3468
-22342
-23968
26348
-3849
21488
17585
28888
5992
-13375
-29912
26160
4930
14751
23574
25498
14891
-3210
-32609
23226
12993
6323
27094
19277
22367
7247
-31955
17981
19651
-2684
27589
11035
27302
17102
-27949
10704
24336
-11214
25542
2019
29538
25303
-20818
2181
26564
-18777
20649
-7573
28598
30542
-11867
-6246
25882
-24356
13387
-16424
24518
32754
-919
-14510
22373
-27386
4487
-23646
17577
31419
9299
-20746
16697
-27450
-4247
-27988
9373
26916
18686
-24926
9345
-24535
-12803
-29356
-51
19503
26330
-26606
821
-19283
-19929
-27924
-9380
9725
31290
-25434
-7944
-11870
-25138
-23446
-17914
-1070
32749
-21427
-15817
-3203
-27474
-16415
-24422
-11122
30821
-15527
-21669
5714
-27071
-7769
-28383
-20378
25659
-7754
-25533
14147
-23780
1752
-29357
-27258
18184
433
-26719
20901
-18217
10867
-27423
-31770
8019
9250
-24995
25752
-10158
19407
-22174
-32666
-2566
16797
-20679
27664
-1522
25386
-14891
-30140
-12853
22504
-14255
26676
7492
28822
-5954
-24440
-21825
25853
-6338
22891
15372
29120
3351
-16452
-28337
26540
2085
16992
21694
26666
12169
-6550
-32105
24545
10394
9534
25906
21593
19830
4299
-32483
19788
17837
128
27538
13486
25936
14590
-29339
12938
23282
-8667
26094
4494
28846
23228
-23110
4823
26212
-16883
21805
-5367
28824
29306
-14655
-3636
26422
-22687
15724
-13855
25808
32447
-4565
-11812
23901
-26512
7518
-21460
19923
32043
6847
-19351
18412
-27452
-1827
-26882
11562
28281
16547
-24132
11412
-25364
-10618
-29151
2256
21666
24581
-26476
3271
-21169
-17685
-28571
-6447
12570
30259
-26074
-5494
-13992
-23717
-24718
-15615
1999
32705
-22901
-13717
-5745
-27029
-18524
-22764
-8585
31622
-17329
-20354
3363
-27293
-10003
-27449
-18340
27153
-9878
-24837
12004
-24641
-517
-29165
-25898
20074
-1624
-26675
18864
-19876
8247
-27927
-30936
10797
6933
-25776
24366
-12621
16997
-23780
-32764
431
14701
-22224
27126
-4223
23668
-17150
-31103
-10309
21147
-16237
27042
4856
28028
-8458
-26163
-19727
25278
-8593
23890
13290
29083
1019
-18644
-26945
26696
-175
18510
20287
27335
10165
-8776
-31569
25305
8586
10901
25134
22477
18479
1197
-32745
21531
15812
2740
27233
15718
24477
12082
-30457
15010
22109
-6451
26625
6665
28327
21064
-25098
7301
25700
-14612
23098
-2721
28892
28088
-16872
-1507
26667
-21332
17208
-11953
26581
31969
-7184
-9805
24868
-25734
9678
-19749
21510
32565
3631
-17358
20252
-27416
1151
-25431
14276
29724
13789
-22889
13714
-26277
-7777
-28662
5248
23671
22656
-26060
5604
-22279
-15929
-28805
-4412
14901
29182
-26502
-3303
-15967
-22270
-25832
-13448
5520
32298
-24309
-11051
-8664
-25891
-20647
-20400
-5738
32260
-19163
-18637
694
-27338
-12424
-26223
-15394
28925
-12519
-23600
9392
-25760
-3440
-28917
-23869
22448
-4248
-26397
17166
-21228
6153
-28344
-29868
13473
4557
-26337
22998
-14657
14778
-24985
-32559
3681
12372
-23680
26304
-7012
21621
-19242
-31964
-7209
19462
-18319
27214
2141
26898
-11053
-27987
-17039
24229
-11145
25033
10988
29045
-1611
-20732
-25373
26566
-2439
20155
18334
27889
7690
-11824
-30559
26008
5934
13425
23552
24036
15898
-1359
-32738
22738
14035
5181
26764
17698
22888
9032
-31497
17157
20494
-3707
27073
9412
27441
18527
-27026
9857
24868
-12233
24348
-22
28952
26369
-19451
1119
26711
-19450
19013
-9416
27341
31142
-10190
-7282
25739
-24422
11990
-17464
23033
32761
576
-15315
21908
-27055
3338
-24141
16117
30909
10875
-21424
15970
-26672
-5109
-27826
7850
25704
20321
-25427
8139
-23599
-13598
-28901
-1690
18131
27293
-26744
-138
-18156
-20225
-26869
-10615
8072
31757
-25217
-9016
-10684
-24960
-22024
-18689
-2564
32666
-20938
-16633
-2061
-27195
-14888
-24858
-12873
30132
-14564
-22420
6815
-26211
-5993
-28148
-22063
24225
-6456
-25941
14970
-22414
3636
-28429
-28334
16456
1692
-26715
21185
-16949
12150
-26152
-32266
5706
10766
-24486
25674
-8984
20197
-20764
-32465
-4433
17694
-20051
27045
-658
25479
-13484
-29382
-14504
23161
-13354
25877
8041
28449
-4661
-23233
-23105
26202
-5277
21871
15900
28362
4717
-14213
-29523
26495
3732
15606
22108
25302
13649
-4488
-32458
24091
11714
7995
25923
19846
20817
6204
-32174
19053
18803
-955
27007
11842
26122
15943
-28626
12188
23841
-9459
25329
2967
28519
24462
-21800
3729
26516
-17165
20859
-6537
27921
30226
-12651
-5067
26324
-22899
14350
-15116
24394
32695
-2169
-13292
23175
-26351
6079
-22218
18195
31733
8164
-19931
17905
-26954
-2488
-26888
10315
27516
17791
-24557
10681
-24712
-10925
-28672
1255
20076
25896
-26703
1892
-19760
-18362
-27505
-8184
11036
30852
-25993
-6455
-13122
-23429
-23547
-16164
189
32766
-22427
-14685
-4322
-26589
-16599
-23291
-9787
31271
-16870
-20813
3542
-26621
-9108
-27073
-19422
26390
-9194
-25189
12118
-24135
213
-28678
-26815
18831
-704
-26817
19470
-18612
9816
-26886
-31463
9151
7979
-25631
24304
-11535
17829
-22425
-32744
-1221
15613
-21773
26773
-3162
24065
-15651
-30643
-11603
21728
-15635
26359
5301
27681
-7354
-25068
-21100
25698
-7564
23131
13748
28554
2176
-17103
-27949
26742
951
17531
20446
26294
11234
-7151
-31977
25025
9549
10079
24798
21210
18906
3488
-32580
20653
17106
1472
26826
13967
24859
13615
-29804
14180
22731
-7090
25958
5434
28060
22156
-24140
6477
26004
-14808
22425
-3613
28288
28832
-15567
-2379
26731
-21287
16444
-12626
25620
32262
-5726
-10615
24627
-25410
8600
-20279
20074
32368
5094
-18084
19806
-26916
207
-25625
12794
29091
15078
-23412
13070
-25512
-8349
-28283
3962
22876
23459
-26350
5049
-21412
-16219
-28007
-5481
14146
29556
-26584
-3685
-15257
-22033
-24850
-13966
3977
32524
-24055
-11904
-7505
-25735
-19168
-21089
-6932
32025
-18794
-19192
1578
-26780
-10996
-26346
-16953
28039
-11549
-24208
10187
-24638
-1754
-28328
-24784
21433
-3521
-26600
17121
-20506
6855
-27600
-30479
12028
5433
-26275
22970
-13724
15614
-23810
-32701
2074
13279
-23288
26163
-5967
22273
-17852
-31621
-8588
20078
-17793
26689
2515
26765
-10034
-27054
-18485
24800
-10224
24165
11367
28443
-443
-19697
-26185
26769
-1676
19323
18543
27106
8721
-10330
-31095
25967
6913
12620
23608
23015
16756
121
-32766
22418
14758
4257
26222
16184
23118
10553
-31020
16505
21199
-4252
26292
8072
27100
20028
-25933
8779
25356
-12565
23591
-1152
28368
27192
-18282
280
26838
-19351
18236
-10111
26387
31570
-8775
-8181
25585
-24195
11380
-17915
22041
32682
2345
-16225
21409
-26488
2750
-24160
14816
30273
12536
-22161
15146
-25984
-5982
-27656
6220
24629
21611
-25860
7218
-22774
-13661
-28126
-2627
16754
28159
-26817
-1095
-17224
-20302
-25821
-11541
6683
32078
-25020
-9785
-9825
-24691
-20733
-19138
-3841
32541
-20654
-17220
-1337
-26563
-13452
-24824
-13754
29740
-14302
-22761
7095
-25572
-4957
-27737
-22865
23469
-5926
-26229
15018
-21932
4359
-27907
-29083
15094
2600
-26752
21002
-16184
12737
-25176
-32369
5091
10945
-24573
25142
-8535
20221
-19718
-32183
-6155
18555
-19387
26515
351
25624
-11825
-28748
-15722
23631
-12741
25131
8690
28068
-3201
-22628
-23698
26356
-4962
21248
15950
27712
5485
-13463
-29873
26554
4079
14784
21995
24202
14303
-3262
-32604
23838
12329
6887
25623
18310
21317
7598
-31873
18581
19473
-1915
26423
10232
26147
17432
-27744
11319
24383
-10204
24404
1390
28028
25034
-21141
3361
26647
-17077
20268
-7096
27231
30643
-11603
-5714
26261
-22797
13517
-15686
23362
32744
-1217
-13757
23123
-25901
5591
-22335
17167
31388
9404
-20468
17432
-26377
-2757
-26553
9379
26739
18939
-24951
10002
-24097
-11119
-28199
338
19201
26551
-26858
1383
-19107
-18338
-26717
-8873
9921
31228
-25953
-7066
-12269
-23389
-22438
-16880
-730
32758
-22264
-15085
-4038
-26102
-15789
-23175
-11540
30667
-16005
-21590
4536
-25937
-7466
-26969
-20187
25809
-8833
-25409
12289
-23358
1150
-28045
-27411
17951
-193
-26881
19270
-18009
10278
-26108
-31675
8386
8271
-25614
24055
-10971
18151
-21515
-32651
-2744
16376
-21332
26323
-2444
24192
-14353
-30043
-13078
22319
-14990
25611
6084
27437
-5791
-24269
-22014
25920
-7026
22392
13905
27886
3145
-16300
-28424
26837
1376
16746
20312
25372
11845
-6225
-32170
24950
9998
9363
24606
20169
19363
4623
-32439
20382
17613
1014
26297
12876
24787
14926
-29169
13545
23253
-7592
25243
4114
27672
23269
-23069
5612
26270
-14980
21636
-4573
27565
29452
-14360
-3157
26722
-21148
15694
-13240
24624
32503
-4147
-11526
24319
-25093
8029
-20520
19019
32152
6314
-18589
19470
-26314
-35
-25345
11828
28601
15988
-23723
12702
-24931
-8373
-27764
3228
21530
24700
-26604
3859
-20553
-16342
-27155
-6403
12912
30115
-26569
-4434
-14498
-21920
-23802
-14539
2119
32698
-23583
-13056
-6578
-25446
-17792
-21480
-8416
31667
-18266
-19837
1725
-26180
-10080
-25958
-18032
27358
-11037
-24565
10018
-24188
-1213
-27793
-25614
20434
-2862
-26798
17095
-19852
7559
-26801
-30886
10939
6067
-26216
22690
-13110
15961
-22827
-32765
342
14189
-22859
25662
-5039
22468
-16412
-31186
-10054
20695
-17176
25918
3315
26485
-8518
-26544
-19211
24990
-9921
23752
11091
27883
8
-18566
-26999
26881
-956
18638
18419
26173
9340
-9110
-31475
25819
7602
11738
23430
21819
17210
1028
-32750
22224
15167
3785
25851
15238
23134
11732
-30594
16063
21631
-4820
25667
6862
26799
21384
-24826
7813
25797
-13046
22617
-2486
27580
27762
-17404
-170
26973
-19299
17673
-10736
25660
31859
-7656
-8720
25522
-24011
10527
-18445
20882
32554
3727
-16926
20948
-26141
2140
-24283
13740
29948
13294
-22406
14908
-25395
-6099
-27231
5529
23861
22456
-26081
6692
-22008
-13927
-27464
-3607
15607
28810
-26875
-1855
-16325
-20343
-24845
-12320
5329
32330
-24775
-10550
-9185
-24514
-19791
-19526
-5136
32361
-20256
-17796
-1120
-25985
-12626
-24583
-15118
29070
-13600
-23280
7418
-24933
-3915
-27401
-23684
22642
-5350
-26408
15163
-21091
5283
-27122
-29746
13741
3461
-26736
21018
-15439
13447
-24266
-32561
3668
11736
-24237
24924
-7849
20591
-18718
-32132
-6415
18580
-19495
26094
44
25225
-11603
-28209
-16671
23970
-12308
24500
8852
27627
-2350
-21291
-24906
26654
-3852
20217
16298
26751
6707
-12467
-30302
26533
4683
14276
21782
23484
14581
-2015
-32704
23607
12959
6509
25172
17514
21349
8419
-31666
18309
19748
-1884
25909
9685
25821
18264
-27204
10939
24642
-9931
23950
1019
27476
26227
-19641
2167
26856
-17398
19241
-8326
26260
30862
-11008
-5890
26309
-22362
13216
-15781
22617
32763
-465
-14029
22984
-25442
5349
-22225
16445
31155
10149
-20720
17248
-25736
-3239
-26326
8261
26251
19609
-25140
9712
-23401
-11342
-27621
-597
18916
26755
-26978
1448
-18714
-17941
-26020
-9083
9167
31458
-25978
-7403
-11833
-23035
-21623
-17019
-1170
32746
-22352
-15191
-3912
-25631
-15049
-23027
-11699
30607
-16256
-21557
4157
-25571
-7239
-26557
-21291
24906
-8141
-25753
12695
-22420
2452
-27307
-28131
16801
514
-26980
19196
-17210
11052
-25108
-31947
7284
8884
-25477
23665
-10441
18305
-20572
-32595
-3350
16551
-21298
25720
-2232
23974
-13513
-29927
-13343
22323
-15072
25092
5895
26951
-5397
-24182
-22110
25964
-7249
22046
13434
27296
3266
-15511
-28863
26921
1785
16398
19904
24658
11992
-5592
-32286
24978
10176
9300
24028
19612
19130
4688
-32429
20566
17427
886
25737
12137
24423
15222
-29016
13659
23270
-7442
24669
3550
27111
23846
-22473
5337
26461
-14951
21031
-5256
26815
29513
-14233
-2892
26860
-20711
15416
-13346
23937
32537
-3871
-11483
24461
-24663
7755
-20469
18292
32091
6619
-18588
19569
-25789
-267
-25047
10981
28071
16902
-24026
12298
-24080
-8858
-27234
1957
21358
24849
-26683
4135
-20305
-15783
-26597
-6404
12457
30306
-26637
-4488
-14137
-21571
-23104
-14670
2366
32681
-23935
-12541
-6724
-24809
-17336
-21063
-8209
31722
-18623
-19563
1640
-25693
-9665
-25548
-18363
27137
-11069
-24665
9923
-23676
-735
-27278
-26093
19819
-2596
-26907
16864
-19376
7880
-26111
-31009
10588
6013
-26331
22187
-12877
15906
-22137
-32766
113
14119
-23045
25133
-5286
22111
-16075
-31122
-10250
20686
-17354
25544
3051
26129
-8268
-26227
-19642
25123
-9835
23267
10892
27372
337
-18859
-26795
26978
-1595
18571
17668
25785
9019
-9032
-31497
25971
7334
11726
22806
21358
16990
1040
-32750
22460
15043
4086
25321
14986
22707
11969
-30502
16186
21634
-4414
25266
6743
26407
21024
-25132
8442
25634
-12090
22574
-1959
27175
27901
-17181
-40
27026
-18602
17476
-10500
25008
31966
-7199
-8772
25576
-23293
10409
-18180
20218
32581
3483
-16611
21391
-25544
2565
-23720
13595
29956
13278
-22319
15302
-25098
-5293
-26724
5694
23950
22361
-26048
7149
-21848
-13197
-26935
-3354
15305
28972
-26970
-1813
-16198
-19670
-24228
-12138
5575
32289
-25103
-10077
-9362
-23729
-19321
-19045
-5165
32357
-20526
-17664
-1241
-25512
-12185
-24231
-14984
29140
-14030
-23177
6844
-24554
-3894
-26849
-23508
22825
-5883
-26430
14089
-21237
4547
-26729
-29745
13742
3130
-26871
20197
-15353
13067
-23629
-32552
3739
11397
-24470
24222
-8015
20133
-18228
-32039
-6867
18669
-19551
25374
-81
24681
-10997
-27976
-17058
24059
-12345
24190
8168
27035
-2557
-21721
-24532
26627
-4713
20349
15211
26380
5968
-12090
-30454
26582
4697
14148
21180
22881
14432
-2006
-32705
23867
12707
6610
24408
16906
20860
8511
-31642
18583
19659
-1303
25357
9646
25226
17789
-27517
11683
24431
-9155
23827
1361
27108
25925
-20038
2948
26912
-16124
19593
-7328
25993
31092
-10342
-6121
26371
-21774
13089
-15646
22035
32766
-146
-13952
23185
-24851
5346
-21999
15853
31052
10459
-20748
17377
-25349
-2874
-25927
8093
26031
19900
-25209
9788
-23027
-10828
-27103
-686
18437
27087
-27036
1274
-18330
-17551
-25413
-9267
8788
31566
-26019
-7399
-11912
-22494
-21194
-16813
-1642
32725
-22408
-15248
-4141
-25020
-14650
-22662
-12238
30395
-16220
-21724
4290
-25013
-6434
-26257
-21217
24970
-8551
-25695
11933
-22304
2203
-26808
-28059
16920
126
-27093
18373
-17346
10609
-24708
-31988
7101
8700
-25654
22944
-10631
17918
-20059
-32572
-3564
16433
-21469
25132
-2879
23296
-13433
-29657
-13932
22537
-14911
24701
5572
26431
-5127
-23823
-22497
26064
-7134
21600
13207
26642
3616
-15240
-29007
27014
1739
16189
19441
24018
11973
-4807
-32412
24969
10545
8772
23746
18596
19299
5367
-32324
20534
17621
1177
25209
11921
24009
15157
-29050
14026
23181
-7102
24320
3449
26634
23956
-22355
5470
26522
-14326
20824
-5047
26379
29888
-13429
-3309
26913
-20322
15068
-13401
23298
32570
-3579
-11413
24610
-23891
8237
-19840
18161
31949
7274
-18838
19500
-25301
-148
-24780
10658
27822
17309
-24151
12322
-23752
-8324
-26787
1914
21024
25132
-26781
4100
-20003
-15458
-26083
-6615
11439
30705
-26657
-5033
-13887
-21110
-22489
-14758
1446
32735
-23774
-12963
-6608
-24375
-16722
-21058
-9743
31284
-18075
-20286
1863
-25027
-8672
-25238
-18877
26782
-10948
-24834
9529
-23339
-464
-26813
-26471
19311
-2366
-27017
16823
-18906
8474
-25530
-31268
9796
6411
-26328
21740
-12731
15879
-21560
-32764
-380
14227
-23055
24546
-5240
21830
-15450
-30779
-11236
21063
-17037
24874
3355
25730
-7236
-25762
-20248
25342
-9651
22587
11030
26727
1158
-17691
-27580
27070
-686
17905
17654
24906
9627
-8066
-31758
25950
7838
11319
22316
20405
17014
2104
-32699
22252
15473
3858
24780
14172
22444
12766
-30177
15926
21985
-4497
24609
5942
25847
21833
-24433
8043
25912
-12275
21884
-2807
26469
28285
-16541
-358
27113
-18365
17091
-10744
24374
32115
-6499
-9105
25526
-22914
10128
-18122
19520
32510
4091
-16761
21333
-24953
2417
-23448
12789
29331
14606
-22829
14644
-24334
-5851
-26265
4458
23277
23061
-26263
6742
-21303
-13244
-26426
-4035
14626
29321
-27064
-2099
-15751
-19479
-23588
-12436
4641
32436
-25094
-10556
-8864
-23356
-18403
-19151
-6003
32212
-20359
-17954
-1132
-25049
-11500
-24027
-15863
28671
-13680
-23437
7071
-23857
-3018
-26304
-24414
21854
-5176
-26676
14532
-20270
5782
-25887
-30034
13099
3385
-26957
20133
-14842
13510
-22920
-32665
2572
11972
-24307
23831
-7635
20219
-17395
-31760
-8059
19199
-19216
24985
565
24715
-9868
-27837
-17284
24034
-12486
23592
7843
26411
-2136
-20423
-25623
26865
-3644
19264
15678
25355
7333
-11574
-30654
26662
4798
13814
20755
22192
14518
-867
-32755
23674
13331
6168
24210
16100
21049
9310
-31416
18401
19986
-1781
24831
8601
24990
19024
-26678
10871
24870
-9642
22929
112
26411
26406
-19400
2603
27037
-16220
18890
-8083
25154
31305
-9675
-6379
26383
-21575
12494
-16008
21182
32753
934
-14549
22990
-24369
4970
-21925
14920
30793
11199
-20990
17223
-24650
-3145
-25528
7083
25499
20577
-25453
9567
-22455
-10752
-26479
-1274
17279
27840
-27151
549
-17820
-17458
-24694
-9770
7947
31788
-26020
-7796
-11546
-21987
-20403
-16718
-2663
32658
-22184
-15742
-3531
-24650
-13558
-22738
-12826
30152
-16181
-21896
4438
-24376
-5603
-25747
-22088
24202
-8007
-25959
12084
-21443
3129
-26029
-28686
15835
759
-27152
18331
-16693
11154
-23957
-32270
5680
9502
-25423
22751
-9683
18397
-18850
-32412
-4810
17082
-21155
24585
-2091
23354
-12159
-29048
-15160
23065
-14383
24028
6016
26035
-3965
-22909
-23427
26344
-6498
20982
13208
25991
4385
-13895
-29674
27056
2634
15178
19474
22870
12864
-3939
-32529
24920
10912
8470
23263
17799
19295
6627
-32089
20134
18188
858
24709
10930
23858
16816
-28122
13014
23864
-7418
23637
2343
26164
24985
-21198
4604
26829
-14666
19989
-6267
25537
30200
-12712
-3680
26967
-20084
14699
-13677
22597
32712
-1894
-12418
24232
-23646
6994
-20348
16541
31762
8052
-19122
19343
-24750
-330
-24490
9751
27073
18458
-24649
11629
-22979
-8835
-26158
664
20057
25911
-27042
3432
-19214
-15556
-25235
-7481
10647
30988
-26647
-5438
-12913
-20891
-21190
-15294
325
32765
-23604
-13573
-5828
-24060
-15507
-21240
-10680
30977
-17761
-20686
2330
-24404
-7522
-25032
-19703
26181
-10517
-25042
9910
-22543
730
-26150
-27044
18500
-1941
-27095
16596
-18159
9110
-24532
-31596
8680
7027
-26322
21577
-11796
16503
-20308
-32731
-1521
14833
-22850
24222
-4459
22062
-14223
-30425
-12162
21456
-16703
24320
3570
25360
-6272
-24989
-21194
25629
-9066
21873
11324
26062
2256
-16821
-28119
27226
-234
17177
17404
23914
10134
-6930
-32025
25857
8479
10688
22093
19446
17375
3404
-32589
21917
16146
3365
24420
13181
22639
13912
-29666
15472
22465
-5006
24137
4850
25784
22696
-23633
7433
26164
-12372
21151
-3629
25819
29104
-15053
-1382
27228
-18656
16031
-11959
23293
32369
-5090
-9942
25338
-22765
9276
-18774
18215
32413
4803
-17026
21238
-24416
1937
-23316
11740
28737
15742
-23312
14040
-23689
-6390
-25946
3206
22510
23811
-26487
6168
-20616
-13279
-25607
-4858
13836
29702
-27173
-2501
-15248
-19214
-22677
-12868
3044
32625
-24747
-11452
-7732
-23331
-16935
-19880
-7190
31968
-19974
-18534
-280
-24374
-10013
-23898
-16907
28067
-13187
-23897
7453
-23462
-2050
-26047
-25014
21164
-4752
-26815
14527
-19821
6380
-25338
-30682
11499
4560
-26898
20322
-13557
14661
-21438
-32719
1767
12352
-24278
23478
-6912
20393
-16200
-31554
-8830
19475
-18984
24390
872
24497
-8924
-26813
-18834
24656
-11458
22569
8891
25823
-244
-19510
-26325
27037
-2973
18722
15623
24765
7906
-9988
-31207
26633
5846
12598
20965
20802
15624
476
-32763
23319
14045
5295
23890
14764
21396
10706
-30968
17826
20631
-2338
24304
7329
24886
20308
-25714
10114
25256
-9973
22307
-929
25949
27545
-17745
1344
27248
-16838
17675
-9541
24130
31703
-8279
-7215
26300
-21342
11692
-16415
20026
32707
1976
-14981
22733
-24146
4159
-22216
13726
30355
12337
-21457
16669
-24106
-3590
-25247
6027
24720
21507
-25811
8902
-21505
-11484
-25844
-2767
16353
28394
-27285
-56
-16692
-17843
-23564
-11051
6355
32144
-25869
-8800
-10217
-22236
-18850
-17876
-4127
32506
-21722
-16509
-2778
-24149
-12311
-22756
-14517
29375
-15206
-22682
5405
-23819
-3955
-25725
-22911
23425
-7413
-26261
12530
-20860
4194
-25565
-29333
14601
1623
-27262
18598
-15622
12358
-22710
-32469
4404
10259
-25196
22560
-8904
18801
-17660
-32242
-5838
17541
-20814
24282
-1470
23432
-11048
-28586
-16015
23362
-13997
23213
6635
25570
-2692
-22010
-24274
26628
-5802
20103
13482
25186
5320
-12683
-30212
26998
3402
14597
19300
22125
13300
-2039
-32703
24458
12131
7256
23163
16382
19932
8030
-31767
19545
19019
-4
24235
9527
23964
17925
-27428
12394
24417
-7927
22956
1217
25872
25807
-20190
3881
27012
-14688
19267
-7131
24796
30965
-10715
-5035
26894
-20245
13446
-14905
21249
32748
-1113
-12773
24142
-23283
6471
-20677
15447
31182
10067
-20223
18336
-24335
-1871
-24817
7581
26291
19555
-24993
10966
-22332
-9278
-25670
-523
18692
26912
-27137
2380
-18253
-16030
-24232
-8778
8852
31548
-26451
-6650
-11899
-20865
-19841
-15955
-1507
32732
-23116
-14551
-4958
-23697
-14095
-21518
-11676
30615
-17356
-21132
3062
-23912
-6331
-24851
-20954
25190
-9592
-25539
10679
-21726
2044
-25640
-28075
16895
-693
-27268
17011
-17028
10217
-23583
-32000
7044
8037
-26050
21350
-10794
16947
-19005
-32590
-3392
15865
-22194
23735
-3708
22141
-12991
-29807
-13607
22137
-16000
23641
4353
25208
-5013
-23603
-22727
26112
-7666
21049
11947
25676
3615
-15181
-29037
27282
1072
16189
17594
22984
11228
-5474
-32306
25619
9395
9779
21962
18237
18100
5585
-32287
21103
17403
1926
23966
11165
23108
15479
-28879
14454
23142
-5677
23460
3302
25551
23708
-22618
6661
26542
-12721
20414
-4924
25158
29801
-13620
-2422
27174
-18794
15224
-12846
22267
32531
-3925
-10530
25261
-22450
8895
-18891
17313
31859
7657
-18667
19956
-24038
460
-23624
9563
28061
16918
-23775
13458
-23171
-6586
-25375
2424
21165
25013
-26799
5035
-19506
-14095
-24653
-6394
11681
30614
-27006
-4083
-13993
-19823
-21448
-14135
1494
32732
-24372
-12358
-7078
-23033
-15926
-20054
-9017
31501
-19233
-19476
718
-23998
-8586
-24002
-18783
26848
-11856
-24617
8397
-22355
-372
-25475
-26247
19614
-3559
-27103
14917
-18829
7548
-24479
-31098
10323
5221
-26834
20208
-13065
15078
-20866
-32766
-209
13599
-23677
23156
-5868
20806
-14811
-30906
-10883
20601
-17971
23979
1922
24676
-7293
-25730
-20287
25253
-10265
21868
9503
25575
1094
-18214
-27237
27238
-1957
17856
15847
23902
8961
-7874
-31806
26356
7322
11557
20863
19404
16490
2266
-32688
22862
15083
4444
23448
13211
21694
12767
-30177
16701
21699
-3306
23874
5667
25022
21628
-24614
9035
25818
-10866
21375
-2808
25339
28571
-16041
-71
27430
-17283
16720
-10880
23095
32089
-6629
-8330
26035
-21528
10447
-17452
18484
32478
4341
-16411
21898
-23646
3017
-22351
11809
29238
14791
-22659
15253
-23328
-4970
-24999
3856
23074
23264
-26355
7275
-20733
-12191
-25157
-4275
14463
29402
-27315
-1487
-15922
-17829
-22572
-11572
4480
32459
-25460
-10003
-8974
-22033
-17193
-18392
-6211
32172
-20885
-17712
-1416
-23795
-10366
-23038
-16371
28384
-14142
-23519
5982
-23044
-2741
-25102
-24152
22142
-6317
-26660
12916
-19897
5260
-24680
-30127
12884
2920
-27183
18655
-14479
13016
-21561
-32691
2220
11700
-24686
22351
-7980
19222
-16447
-31801
-7895
18658
-19974
23830
-162
23705
-9228
-27547
-17742
24145
-12870
22491
7264
25236
-1325
-20668
-25425
26970
-4697
18946
14219
24358
6864
-11400
-30719
27000
4282
13756
19292
21107
14003
-555
-32762
24138
12944
6338
22745
14898
20266
9533
-31349
19030
19715
-1000
23546
7769
23864
19188
-26560
11616
24783
-8321
22080
-27
25145
26664
-19044
3011
27230
-15244
18243
-8430
23957
31164
-10123
-5303
26889
-20069
12944
-15144
20465
32758
740
-13816
23603
-22981
5368
-20987
13961
30628
11643
-20977
17662
-23759
-2260
-24638
6552
25516
20556
-25374
10333
-21632
-9452
-25156
-1407
17652
27605
-27333
1664
-17518
-16092
-23443
-9521
7934
31791
-26526
-7151
-11469
-20848
-19197
-16584
-2285
32687
-23022
-14913
-4721
-23306
-13261
-21459
-13017
30070
-16735
-21760
3443
-23473
-5171
-24621
-21665
24582
-9251
-25858
10259
-21180
2487
-24888
-28606
15978
-145
-27480
16914
-16515
10794
-22693
-32147
6342
8348
-26070
21048
-10613
16986
-18357
-32480
-4325
16260
-22072
23406
-3250
22085
-11908
-29361
-14545
22528
-15626
23328
4445
24897
-4242
-23529
-22804
26165
-7994
20536
11422
24730
3702
-14473
-29396
27341
1397
15427
17725
21990
11881
-4403
-32469
25510
9966
9151
21626
17253
18017
6040
-32205
21147
17524
1594
23403
10370
22670
16280
-28436
14261
23460
-5756
22850
2793
24867
24372
-21900
6266
26706
-12641
19856
-5303
24480
30017
-13139
-2578
27329
-18338
14721
-12816
21462
32618
-3115
-10901
25079
-22087
8232
-18937
16537
31772
8010
-18668
20072
-23435
604
-23214
9339
27745
17431
-23990
13297
-22623
-6728
-25101
1701
20440
25609
-27040
4635
-18983
-13751
-24066
-6713
11243
30777
-27091
-4176
-13516
-19194
-20651
-14149
1213
32744
-24530
-12301
-6923
-22481
-15238
-19961
-9301
31419
-19310
-19470
346
-23342
-8185
-23545
-19262
26507
-11793
-24716
8204
-22004
75
-25083
-26487
19289
-3509
-27200
14701
-18269
7983
-23789
-31323
9618
5554
-26817
19732
-12646
15135
-19972
-32760
-654
13618
-23778
22792
-6189
20553
-14625
-30784
-11225
20546
-18042
23305
1729
24079
-6852
-25556
-20507
25293
-10539
21593
9335
25014
1385
-18262
-27205
27257
-2419
17648
15340
23338
8854
-8355
-31683
26604
6698
11534
20297
19018
16121
2293
-32686
23020
14927
4786
22879
13150
21132
12595
-30249
17166
21361
-2997
23148
5424
24224
21582
-24655
9547
25726
-10111
21047
-2562
24652
28067
-16909
1103
27444
-16333
16676
-10261
22653
32183
-6154
-8384
26140
-20845
10621
-17031
18205
32515
4054
-16075
22243
-22993
3295
-21775
11608
29374
14519
-22457
15721
-23153
-4609
-24754
3893
23255
23083
-26253
7797
-20313
-11196
-24379
-3778
14970
29147
-27355
-696
-15705
-17123
-21983
-11440
4586
32444
-25673
-9635
-9303
-21320
-16955
-17923
-5527
32297
-21556
-16980
-2461
-23235
-10853
-22344
-15707
28756
-14929
-23029
5084
-22629
-3076
-24492
-24306
21974
-6531
-26654
12397
-19621
5405
-24213
-29932
13330
2153
-27348
17887
-14859
12632
-21340
-32615
3148
10671
-25182
21849
-8204
18930
-16241
-31900
-7485
18286
-20417
23204
-1055
22938
-9459
-27675
-17542
23937
-13414
22313
6704
24889
-1375
-20598
-25482
26946
-4827
18937
13729
23918
6792
-12023
-30481
27238
3433
14151
18555
20777
13396
-1317
-32740
24574
12182
7189
22081
15007
19426
9298
-31420
19454
19489
-311
23365
8034
23449
18640
-26947
12396
24438
-7532
21974
359
24624
26220
-19650
3993
27220
-14285
18398
-7757
23437
31276
-9771
-5324
27090
-19709
12710
-15100
19710
32765
347
-13377
24105
-22602
5916
-20417
13998
30952
10753
-20261
18553
-23072
-1519
-23703
6739
25823
20170
-25153
11036
-21362
-8854
-24567
-1264
17713
27566
-27430
2074
-17370
-15461
-22913
-9247
8593
31620
-26830
-6225
-11840
-19843
-18959
-15633
-2291
32686
-23174
-14683
-4956
-22625
-13032
-20970
-12492
30292
-17474
-21332
2665
-23026
-5555
-24040
-21765
24493
-9505
-25779
9924
-20966
2583
-24544
-28410
16326
-819
-27448
15808
-16686
10034
-22433
-32070
6721
7813
-26411
20432
-10933
16679
-18259
-32495
-4209
16027
-22348
22697
-3581
21600
-11622
-29581
-14093
22188
-16196
22682
3858
24154
-4156
-23808
-22512
25958
-8513
20494
10567
24317
3335
-15303
-28973
27483
324
15816
16521
21693
11005
-4899
-32398
25893
9354
9698
20938
17070
17544
5431
-32313
21672
16960
2345
23012
10409
22241
15635
-28795
15176
23069
-4915
22684
2981
24363
24042
-22262
6900
26627
-11968
19609
-5133
23850
29923
-13351
-2044
27491
-17719
14772
-12572
20983
32609
-3213
-10544
25362
-21534
8500
-18562
16050
31898
7493
-18235
20684
-23033
1375
-22612
9493
28011
17000
-23668
14010
-22238
-6080
-24465
1724
20924
25215
-27027
5465
-19007
-12763
-23570
-6011
11614
30639
-27238
-3589
-13894
-18581
-20410
-13556
1273
32742
-24802
-12022
-7365
-21928
-15135
-19304
-9233
31439
-19675
-19256
-36
-23095
-8112
-23133
-18701
26905
-12591
-24555
7437
-21644
-156
-24309
-26345
19483
-4026
-27279
14008
-18406
7613
-23347
-31273
9780
5212
-26965
19094
-12387
14834
-19104
-32765
-318
13221
-24093
22361
-6330
20165
-14174
-30778
-11240
20450
-18382
22846
1418
23438
-6590
-25620
-20426
25276
-10865
21500
8585
24548
939
-18081
-27326
27362
-2532
17711
14711
22885
8370
-8619
-31612
26848
6173
11871
19599
18814
15336
2177
-32694
23311
14578
4978
22440
12877
20760
12794
-30165
17303
21501
-2388
22870
5666
23782
21520
-24709
9816
25729
-9875
20951
-2535
24425
28301
-16514
1112
27526
-15583
16811
-9872
22292
32100
-6576
-7898
26415
-20282
10597
-16604
17787
32493
4227
-15968
22465
-22464
3556
-21377
11373
29517
14227
-22219
16347
-22795
-3824
-24210
4205
23301
23037
-26202
8275
-20293
-11005
-24274
-3915
14597
29335
-27521
-734
-15867
-16888
-21938
-11326
4875
32402
-26008
-9239
-9646
-20669
-16969
-17450
-6020
32209
-21482
-17226
-2513
-22768
-10449
-22057
-16162
28503
-14919
-23221
5109
-22331
-2517
-24173
-24263
22022
-6890
-26631
11734
-19598
5064
-23968
-29890
13424
1803
-27556
17489
-14999
12484
-21251
-32599
3309
10363
-25496
21016
-8561
18252
-16037
-31845
-7715
18198
-20672
22735
-1119
22646
-8962
-27725
-17463
23858
-13722
21905
6301
24317
-1258
-20939
-25203
26946
-5528
18930
12822
23673
6330
-11908
-30526
27422
3141
14048
18274
20566
13410
-1106
-32748
24722
12123
7228
21796
14907
19451
9559
-31341
19599
19484
-268
22768
7534
23127
18745
-26875
12707
24610
-7122
21791
340
24498
26765
-18901
3598
27394
-14208
18319
-8053
23434
31252
-9847
-4986
27224
-18838
12736
-14782
19303
32757
776
-13436
24131
-22036
5828
-20418
13416
30912
10867
-20220
18820
-22750
-1114
-23449
6597
25476
20606
-25239
10983
-21048
-8761
-24307
-1659
17936
27421
-27420
2588
-17473
-14714
-22673
-8885
8343
31686
-26872
-6216
-11832
-19357
-18452
-15543
-2358
32682
-23470
-14553
-5010
-22181
-12519
-20757
-13025
30066
-17410
-21483
2561
-22690
-5094
-23736
-21907
24367
-9641
-25791
9608
-20382
2884
-23941
-28502
16164
-990
-27555
15608
-16631
10195
-22065
-32161
6269
7930
-26352
19946
-10429
16726
-17300
-32484
-4291
15826
-22560
22315
-3644
21530
-11210
-29286
-14696
22327
-16129
22231
3858
23814
-3604
-22977
-23360
26267
-8010
19706
10837
23566
4269
-14818
-29224
27448
400
15571
16297
21241
11226
-4239
-32491
25909
9537
9247
20540
16317
17595
5919
-32227
21793
17006
2505
22426
10062
21866
16057
-28562
15136
23117
-5079
22037
2179
23969
24322
-21956
6893
26717
-11375
19418
-5118
23437
30026
-13119
-1966
27475
-17204
14767
-12503
20689
32632
-2967
-10579
25542
-20968
8462
-18378
15542
31847
7706
-18128
20818
-22687
1211
-22543
8767
27519
17786
-24063
13755
-21700
-5816
-23973
1222
20274
25741
-27171
5183
-18862
-12712
-23385
-6627
11390
30723
-27426
-3488
-13723
-18014
-19839
-13656
703
32759
-24808
-12180
-7282
-21307
-14298
-19100
-9959
31216
-19546
-19529
238
-22465
-7181
-22715
-19309
26472
-12412
-24725
7150
-21341
362
-23937
-26813
18833
-3629
-27318
13654
-17671
8051
-22309
-31337
9571
5048
-27127
18569
-12655
14605
-18881
-32760
-639
13195
-24215
21493
-6280
19611
-13384
-30727
-11380
20379
-18590
22627
927
23102
-6560
-25537
-20531
25212
-11087
20891
8449
23867
1666
-17418
-27753
27488
-2380
17110
14759
22121
9231
-8234
-31715
26903
6276
11576
19406
18163
15594
2629
-32661
23430
14749
4763
22173
12142
20731
12850
-30142
17560
21420
-2605
22347
4781
23269
21908
-24366
9785
25905
-9510
20430
-2819
23662
28683
-15841
611
27727
-15820
16075
-10496
21429
32260
-5737
-8221
26429
-19900
10350
-16653
16927
32494
4214
-15769
22724
-22137
3873
-20961
11184
29224
14818
-22423
16189
-22109
-3695
-23464
3573
23187
23152
-26296
8412
-19958
-10081
-23496
-3602
14144
29556
-27628
-788
-15322
-16279
-20860
-11296
4336
32478
-25999
-9432
-9477
-20311
-16340
-17285
-6350
32145
-21721
-17181
-2377
-22376
-9757
-21707
-16228
28465
-15200
-23090
4737
-21921
-2321
-23638
-24437
21828
-6808
-26656
11379
-18931
5312
-22898
-30058
13043
1932
-27510
16917
-14275
12402
-19936
-32652
2733
10548
-25531
20799
-8308
18233
-15302
-31820
-7819
18182
-20806
22418
-1525
22100
-9023
-27657
-17570
23771
-14013
21599
6061
23901
-1053
-20024
-25935
27183
-5055
18547
12381
22814
6470
-11060
-30843
27345
3682
13578
17797
19632
13426
-498
-32763
24746
12228
7212
21171
14336
18946
9719
-31292
19724
19561
230
22280
7608
22390
19215
-26540
12574
24689
-6787
21319
114
23783
26645
-19070
3934
27405
-13243
17920
-7658
22511
31456
-9172
-5165
27228
-18402
12588
-14519
18804
32752
985
-13331
24268
-21364
6376
-19620
13503
30670
11531
-20364
18730
-22001
-895
-22567
6268
25220
20919
-25416
10937
-20606
-8034
-23496
-1499
17284
27837
-27533
2272
-16902
-14332
-21855
-9113
7681
31853
-26866
-6450
-11658
-18878
-17971
-15383
-2977
32631
-23406
-14809
-4900
-21791
-12105
-20485
-12834
30149
-17729
-21226
1971
-22143
-5114
-23111
-22263
24041
-9546
-25931
9174
-20354
2881
-23656
-28731
15753
-860
-27564
15242
-16141
10322
-21455
-32270
5680
8070
-26476
19497
-10388
16478
-16900
-32491
-4237
15725
-22755
21815
-4197
20856
-11303
-29063
-15132
22509
-16046
21791
3502
23253
-3470
-22985
-23352
26327
-8322
19529
10180
23247
4085
-14228
-29516
27750
673
15246
16022
20667
11384
-3967
-32525
25844
9599
9290
19921
15837
17222
7217
-31962
21325
17674
2161
22017
9146
21635
16740
-28167
14899
23482
-4822
21803
1994
23654
24821
-21391
6656
26879
-11552
18991
-5769
22977
30458
-12081
-2554
27662
-17099
13953
-12928
19709
32716
-1821
-11150
25429
-20588
8183
-18338
14827
31563
8800
-18704
20538
-22169
929
-22252
7947
27143
18355
-24174
13563
-21179
-5730
-23276
892
19689
26191
-27259
4831
-18224
-12555
-22431
-7018
10142
31157
-27359
-4291
-12968
-17694
-18799
-13860
-253
32766
-24617
-12757
-6947
-20980
-13745
-19072
-10617
30998
-19370
-19882
353
-22162
-6728
-22699
-19905
26027
-12134
-24955
6969
-20753
639
-23388
-27359
18031
-3176
-27474
13872
-17388
8594
-22045
-31588
8710
5441
-27086
18192
-12299
14592
-18202
-32712
-1897
13861
-23859
21334
-5811
19877
-12615
-30169
-12784
21059
-17787
22101
1701
22966
-5178
-24820
-21392
25601
-10577
20458
8301
23402
1991
-16562
-28272
27666
-1645
16555
14644
21432
9649
-6897
-32032
26801
7088
11104
18966
17148
15633
4099
-32509
22892
15577
4124
21798
10956
20691
14517
-29375
16709
22239
-2656
21989
4143
23002
22921
-23415
8997
26222
-9677
19778
-3514
23059
29230
-14806
-33
27812
-15461
15634
-10788
20673
32499
-4176
-9109
26215
-19715
9812
-16869
16080
32215
5987
-16857
22175
-21732
2939
-21103
9853
28505
16158
-23027
15512
-21656
-4065
-23191
2619
22017
24267
-26732
7530
-19174
-10477
-22679
-4667
13225
29979
-27637
-1425
-15041
-16474
-20323
-11874
2562
32666
-25642
-10413
-8364
-20087
-14812
-17695
-8236
31714
-20912
-18309
-1574
-21892
-8368
-21562
-18146
27283
-13826
-23957
5379
-21146
-1089
-22981
-25639
20403
-5697
-27100
11901
-18175
6328
-22071
-30823
11117
3165
-27537
17399
-13764
13268
-19315
-32757
801
11730
-25084
20322
-7306
18142
-13665
-31197
-10018
19424
-19842
22198
-349
22209
-7299
-26339
-19491
24747
-12560
20872
6772
23163
288
-18988
-26704
27359
-4165
17834
13091
21995
7590
-9219
-31443
27267
5015
12462
17787
18067
14010
1131
-32747
24314
13312
6305
21048
12838
19162
11801
-30567
18775
20563
-751
21601
5854
21967
20997
-25154
11079
25457
-7891
20604
-1524
23081
27834
-17289
2591
27636
-13884
16797
-8814
21204
32008
-7009
-6811
26925
-18739
11283
-15387
17198
32597
3328
-14842
23549
-21311
5007
-19978
11625
29673
13897
-21841
17370
-21976
-2327
-22818
4452
24012
22295
-25944
9885
-19932
-9136
-22864
-3023
15210
29022
-27795
483
-16031
-15074
-20723
-10391
5272
32340
-26504
-8196
-10184
-19072
-16063
-16296
-5968
32218
-22181
-16625
-3387
-21422
-9957
-20592
-15690
28765
-15983
-22703
3662
-21483
-2800
-22870
-23944
22367
-7926
-26521
10056
-19067
4367
-22371
-29721
13794
782
-27771
15876
-15178
11521
-20281
-32619
3109
9994
-25869
19584
-8993
17148
-15073
-31881
-7566
17788
-21379
21682
-2218
21295
-8726
-27698
-17506
23672
-14516
21632
4768
23300
-1684
-20870
-25260
27014
-6236
18818
11315
22360
5793
-12002
-30489
27572
2451
14476
16427
19555
12259
-654
-32760
25186
11998
7827
20451
13978
18375
9285
-31423
20485
18760
1259
21926
7645
21792
19014
-26685
13154
24497
-5934
20657
108
22577
26550
-19202
4547
27466
-12326
17981
-7160
21843
31304
-9680
-4505
27588
-17313
12810
-13696
18076
32755
881
-12978
24605
-20863
6789
-19148
13137
30692
11472
-20152
19157
-21612
-215
-21983
6092
25373
20733
-25105
11545
-20252
-7105
-22550
-1318
17719
27562
-27614
3100
-17154
-13203
-21276
-8365
8037
31765
-27119
-5786
-12144
-17926
-17495
-14687
-2741
32652
-23805
-14257
-5638
-21033
-11860
-19691
-13409
29897
-17753
-21520
1538
-21607
-4709
-22360
-22238
24064
-10117
-25817
8505
-20338
2644
-23124
-28612
15968
-1422
-27734
14189
-16323
9695
-20668
-32215
5989
7533
-26599
18969
-10840
16056
-16589
-32427
-4704
15740
-22900
21313
-4367
20374
-10729
-29036
-15184
22381
-16482
21321
2938
22531
-3242
-22846
-23488
26351
-8572
19221
9654
22292
4116
-13949
-29649
27866
549
15427
15180
20145
10831
-3444
-32585
26185
9625
9414
19496
15224
16950
6906
-32030
21796
17243
2859
21332
9035
20862
17371
-27783
14885
23587
-4295
21235
1625
22728
24945
-21245
6867
26979
-10539
18585
-5484
22021
30292
-12490
-1820
27840
-16014
14339
-12102
19191
32723
-1691
-10938
25608
-19834
8266
-17740
14171
31666
8419
-18146
21002
-21509
2014
-21332
8130
26724
18959
-24345
13446
-20699
-5551
-22574
144
19682
26196
-27333
5249
-18129
-11698
-21646
-6776
10554
31020
-27585
-3679
-13201
-16793
-18146
-13292
-51
32766
-24955
-12186
-7321
-20037
-13173
-18344
-11402
30719
-19270
-20067
-190
-21510
-6247
-21821
-20308
25714
-12244
-24977
6555
-20556
946
-22726
-27440
17908
-3491
-27616
12852
-17127
8302
-21044
-31694
8315
5464
-27221
17550
-12259
14442
-17379
-32701
-2075
13810
-24169
20314
-5918
19066
-11764
-30267
-12551
20858
-18347
21399
929
22054
-5079
-24487
-21772
25717
-10747
20035
7769
22513
2373
-16490
-28314
27747
-1959
16218
13749
20391
9552
-6610
-32093
27010
6845
11258
18650
16773
15787
3937
-32529
23488
15165
4842
20839
10749
19873
14723
-29272
17062
22161
-2590
21558
3287
22508
23318
-23020
8970
26362
-9162
19617
-3977
22493
29330
-14607
377
27953
-14882
15440
-10793
19927
32434
-4654
-8468
26518
-18954
9972
-16613
15468
32168
6231
-16719
22363
-21370
3341
-20785
9224
28168
16738
-23267
15314
-20829
-3895
-22254
1844
21636
24607
-26759
7426
-18819
-10224
-22099
-5317
12488
30293
-27870
-1643
-14735
-15784
-19368
-12153
2318
32684
-25863
-10363
-8788
-19448
-14214
-17375
-8408
31669
-21125
-18118
-2092
-21224
-7963
-21105
-18086
27323
-14376
-23935
4900
-20800
-559
-22570
-26063
19858
-5631
-27307
11552
-18126
6925
-21717
-31043
10487
3404
-27584
16680
-13335
13376
-18316
-32765
263
11936
-25081
20239
-7461
18631
-13125
-31081
-10374
19347
-19994
21330
-742
21585
-6606
-25976
-19972
24818
-12501
20423
6506
22696
1074
-18147
-27282
27520
-3767
17299
12494
20984
8069
-8524
-31638
27380
5162
12259
17143
17141
14164
1895
-32712
24449
13635
6257
20578
11925
19305
12331
-30357
18835
20839
-575
21345
5005
21920
21600
-24638
10968
25618
-7426
20083
-2311
22519
28373
-16388
2101
27864
-13663
16625
-9526
20672
32116
-6494
-6940
27059
-17981
11103
-15629
16107
32531
3924
-15123
23489
-20551
4942
-19748
10505
29461
14341
-21834
17426
-21318
-2105
-22419
3629
23033
23304
-26258
9181
-19267
-8965
-22242
-4092
14798
29234
-27787
683
-15549
-14377
-19832
-10692
4444
32464
-26441
-8536
-10000
-18679
-15329
-16489
-6421
32131
-22294
-16763
-3432
-20768
-9221
-20598
-16236
28461
-15959
-22807
3288
-21019
-2141
-22551
-24500
21757
-7647
-26762
9862
-18560
5173
-21807
-30066
13026
1089
-27904
15134
-14839
11657
-19503
-32668
2544
10044
-25965
19133
-8967
17333
-14511
-31704
-8276
17996
-21271
20937
-2232
20956
-8107
-27439
-17909
23897
-14491
20617
4399
22384
-1168
-20093
-25882
27313
-5848
18051
10849
21542
6288
-11103
-30828
27590
2922
13850
15936
18635
12657
-552
-32762
25404
11705
7775
19701
13335
18071
9781
-31273
20412
18934
1258
21126
6995
21335
19584
-26270
13126
24818
-5744
20578
-266
22785
26775
-18888
4658
27604
-12095
17582
-7594
21363
31603
-8654
-4801
27539
-17094
12768
-13971
17782
32708
1957
-13515
24510
-19931
6392
-18603
12021
30558
11825
-20282
19251
-21192
-232
-21762
5602
25177
20970
-25255
11813
-19898
-6784
-22149
-1582
17097
27952
-27771
2969
-16529
-12977
-20365
-8800
7212
31963
-27415
-6156
-11418
-17253
-16302
-14552
-3604
32568
-23714
-14621
-5342
-20182
-10929
-19104
-13543
29837
-18158
-21356
1429
-21153
-4299
-21945
-22497
23823
-10068
-25963
8121
-19349
3039
-21978
-28693
15822
-1712
-27889
13724
-16215
9603
-20181
-32385
4987
7941
-26865
18526
-10324
16011
-15558
-32323
-5372
16010
-22926
20828
-4040
19953
-9908
-28896
-15449
22584
-16648
21065
2768
22067
-3027
-22703
-23627
26459
-8730
18649
8878
21284
4025
-13808
-29715
27830
255
15230
14558
19427
10553
-2668
-32658
26133
9876
9109
19069
14405
16655
6880
-32036
22153
17046
3175
20605
8768
20019
17241
-27863
15263
23469
-3898
20708
1660
22147
25162
-20988
6990
27018
-10265
18383
-5470
21627
30664
-11549
-2220
27800
-15676
13987
-12119
18575
32739
-1341
-11015
25715
-19332
8613
-17274
13915
31255
9836
-18879
20640
-21265
1356
-21255
7014
26616
19111
-24377
13659
-20302
-5134
-22192
262
19768
26131
-27232
5706
-17544
-11232
-20915
-6731
9822
31260
-27608
-3831
-13022
-16477
-17686
-13233
-1201
32744
-24790
-12776
-6689
-19622
-12016
-18283
-11103
30828
-19860
-19771
-657
-20841
-6052
-21028
-20401
25641
-12406
-24994
6423
-20090
1192
-22171
-27376
18004
-3925
-27612
11736
-16952
7543
-20405
-31821
7815
5430
-27361
17136
-11873
14348
-16740
-32657
-2681
14046
-24089
20050
-5647
18890
-11081
-30326
-12409
20632
-18850
21142
569
21589
-5140
-24369
-21904
25705
-10872
19576
7717
21937
2614
-16697
-28193
27717
-2473
16466
13084
20124
8886
-5784
-32252
27027
7198
10947
17327
15542
14706
4298
-32483
23622
15266
4811
20414
10103
19375
14796
-29236
17220
22027
-2060
20576
3214
21342
23317
-23021
9403
26294
-8534
19256
-3801
21822
29376
-14515
654
28010
-14316
15653
-10570
19579
32520
-4010
-8711
26693
-18369
10052
-16204
14782
32091
6619
-16662
22439
-20719
3385
-20222
8692
28300
16515
-23038
16047
-20304
-2920
-21258
2036
21604
24635
-26803
7731
-18330
-9695
-21170
-5309
12646
30228
-27830
-1205
-14280
-14929
-18283
-11732
1908
32711
-26042
-10250
-8934
-19291
-13942
-17399
-8489
31648
-21363
-17922
-2374
-20426
-7242
-20227
-18277
27195
-14440
-23938
4371
-20026
-353
-21583
-26104
19805
-5855
-27295
10655
-17839
6699
-20858
-30994
10631
3003
-27828
15951
-13684
13012
-17862
-32766
-172
12025
-25309
19210
-7607
17763
-12512
-31007
-10593
19445
-20193
20816
-1044
21116
-6039
-26048
-19878
24798
-13028
19772
5692
21687
1087
-18349
-27147
27577
-4406
17112
11635
20403
7803
-8935
-31525
27768
4491
12661
16551
16967
13947
2202
-32692
24557
13431
6459
19851
11327
18960
12322
-30361
19140
20580
-94
20803
4881
21427
21459
-24762
11627
25663
-6924
19679
-2490
22057
28120
-16820
2869
27821
-12665
16603
-9038
20171
32067
-6733
-6410
27384
-17185
11535
-15092
16094
32524
3977
-14765
23893
-20050
5449
-19356
10544
29470
14322
-21674
17852
-20591
-1475
-21713
3471
23354
22983
-26228
9992
-19283
-8101
-21937
-3607
14977
29143
-27948
1076
-15730
-13742
-19686
-10230
4779
32416
-26830
-7900
-10384
-17852
-15263
-15839
-5910
32229
-22836
-16069
-4222
-20037
-9160
-19676
-15882
28660
-16614
-22512
2544
-20817
-2589
-22177
-24368
21905
-8206
-26716
9008
-18569
4736
-21504
-30051
13061
657
-27986
14325
-14755
11025
-19089
-32630
2991
9346
-26337
18142
-9415
16425
-14346
-31848
-7704
17277
-21954
20305
-3062
20177
-8326
-27454
-17885
23755
-14919
20244
3785
21827
-1169
-20789
-25327
27115
-6955
17953
10055
21167
5648
-11234
-30781
27936
2349
13760
15439
18114
12235
-990
-32752
25773
11115
8328
19047
13349
17401
9406
-31387
21122
18516
1861
20889
7141
20983
19609
-26251
13596
24723
-5071
20046
-190
21813
26907
-18699
4870
27588
-11130
17364
-7083
20856
31398
-9371
-4018
27799
-15866
12834
-13275
17119
32751
1002
-12422
25110
-19299
6959
-18073
11949
30662
11554
-19965
19813
-20659
531
-20957
5667
25019
21158
-25457
12020
-19384
-6213
-21452
-1533
17452
27732
-27777
3700
-16557
-11858
-19872
-8115
8097
31750
-27499
-4990
-12201
-16624
-16632
-13951
-3002
32629
-24364
-13945
-5952
-19767
-10966
-18695
-13299
29946
-18513
-20860
534
-20701
-4523
-21196
-22332
23977
-10905
-25874
7093
-19165
2672
-21333
-28774
15675
-1914
-27963
12921
-15700
9450
-19223
-32320
5392
7311
-26936
17439
-10743
15186
-15208
-32401
-4878
15384
-23437
19936
-4964
19148
-9960
-29120
-15022
21966
-17221
20540
1773
21236
-3049
-22720
-23610
26528
-9255
18923
8220
21184
3802
-14056
-29598
28056
-412
15143
13827
18711
10510
-4217
-32494
26748
8407
9895
17692
14249
15644
6681
-32078
22665
16592
3579
20360
8372
19777
16815
-28123
16025
23185
-2948
20538
1728
21486
24669
-21565
8049
26849
-9418
18539
-5289
20799
30455
-12089
-1419
28093
-14591
14367
-11622
17772
32710
-1926
-10036
26128
-18706
8993
-16893
13163
31624
8577
-17831
21664
-20396
2700
-19999
7014
27053
18487
-24009
14535
-20112
-4092
-21213
178
19895
26035
-27377
6275
-17844
-10265
-20408
-6544
10321
31098
-27662
-2946
-13407
-15574
-16886
-12923
143
32766
-25595
-11581
-7988
-18982
-11990
-17551
-10970
30875
-20352
-19422
-1230
-20501
-5517
-20542
-20430
25617
-12887
-24914
5204
-20152
1080
-21631
-27316
18095
-4371
-27794
11102
-16897
7910
-19640
-31792
7930
5062
-27483
16047
-11932
13955
-15758
-32684
-2320
13263
-24659
19224
-6421
18302
-10801
-30281
-12518
20434
-19213
20427
-79
20893
-4520
-24578
-21669
25518
-11531
19066
6438
21042
2582
-16246
-28455
28079
-2561
16073
12634
19332
9493
-6256
-32164
27391
6562
11172
16917
15110
14970
4127
-32505
23941
14785
5341
19568
9737
18958
14379
-29443
18146
21864
-1095
20214
3214
21115
23351
-22986
9770
26306
-7815
18803
-3893
20994
29387
-14492
1108
28107
-13208
15634
-10240
19139
32482
-4304
-8059
26947
-17623
10219
-15858
14603
32114
6508
-16360
22805
-19886
4124
-19689
8771
28350
16430
-22747
16444
-20097
-2476
-21319
1982
21492
24733
-26865
8194
-18175
-8963
-20806
-5078
12146
30432
-28062
-1164
-14032
-14328
-17847
-11498
2201
32692
-26215
-9737
-9263
-18040
-13730
-16514
-8229
31716
-21951
-17632
-2850
-19761
-7394
-19669
-18278
27194
-15000
-23847
3843
-19658
-446
-21118
-25875
20102
-6703
-27210
9820
-17726
6140
-20500
-30981
10667
2655
-27957
15167
-13537
12316
-17431
-32764
436
10978
-25701
18549
-8050
17160
-12611
-31175
-10087
18935
-20991
20069
-1555
20229
-6315
-26199
-19678
24474
-13693
19358
4826
20857
600
-18600
-26975
27662
-4915
16954
11089
19920
7483
-9116
-31473
27835
3927
12537
15863
16394
13209
1758
-32719
24910
12984
6973
18855
11301
17519
11838
-30553
19852
20036
602
20308
5226
20477
21303
-24896
12161
25556
-6054
19304
-1830
20844
28072
-16900
3378
28008
-12033
16169
-8564
19190
31998
-7053
-5661
27509
-16476
11552
-14217
15360
32589
3407
-14175
24342
-19178
5892
-18151
10083
29572
14111
-21261
18250
-20204
-922
-20664
3411
23672
22655
-25931
10538
-18802
-7106
-20656
-3156
15330
28959
-28067
1782
-15744
-12621
-18668
-9466
4859
32404
-27153
-7528
-10784
-17169
-14440
-15188
-5679
32270
-23285
-15539
-4755
-20059
-9150
-19333
-15713
28753
-17227
-22282
1747
-20191
-2517
-20938
-23912
22402
-9230
-26443
8118
-18857
4250
-20856
-29983
13215
91
-28053
13615
-14509
10900
-17571
-32589
3409
8758
-26678
17497
-9857
15748
-13808
-31872
-7603
17158
-22432
19445
-3531
19131
-7774
-27815
-17319
23258
-15832
19910
2724
20953
-1415
-20894
-25240
27150
-7472
17751
9100
20061
5597
-12092
-30454
28130
1406
13981
14615
17428
11754
-974
-32752
26219
10597
8488
18470
12632
16839
9475
-31367
21570
18396
2282
20034
6425
19838
18881
-26780
14533
24115
-3944
19760
72
20994
26204
-19672
6333
27572
-10049
17235
-6662
19622
31206
-9991
-3006
28076
-14991
13308
-12612
16802
32748
1101
-12267
25275
-18662
7391
-17380
11388
30789
11209
-19516
20369
-19906
1250
-20014
5427
25627
20418
-25066
13007
-19270
-5372
-20820
-1385
17433
27744
-27972
3933
-16467
-11108
-19171
-8139
8197
31724
-27761
-4598
-12122
-15736
-15618
-13624
-2507
32670
-24750
-13347
-6662
-19097
-10672
-18147
-13210
29986
-19073
-20739
59
-20211
-4089
-20593
-21892
24380
-11562
-25633
6255
-19136
2586
-20753
-28323
16475
-3092
-28049
12057
-16229
8944
-18949
-32158
6284
6121
-27388
16549
-11264
14672
-14808
-32492
-4233
14514
-24101
19403
-5499
18688
-9419
-29294
-14679
21789
-17909
19958
1076
20609
-2850
-23084
-23255
26212
-10070
18748
7476
20763
3931
-14464
-29401
28023
-1300
15058
12692
17890
10183
-4406
-32469
27161
7935
10132
17139
13724
15633
6283
-32158
23131
16120
4390
19426
8161
19034
16441
-28343
16652
22753
-2085
19729
1475
20610
24150
-22145
9051
26669
-8062
17944
-4926
20064
30214
-12677
-435
28261
-13393
14333
-11222
17205
32688
-2266
-9449
26549
-17377
9304
-16071
12861
31765
8037
-17303
22162
-19647
3370
-19582
7288
27403
17964
-23552
15503
-19493
-3138
-20819
395
20699
25401
-27071
7439
-17334
-9004
-19791
-6026
10877
30908
-28021
-1813
-13476
-14309
-16736
-12345
414
32764
-25826
-10899
-8443
-18267
-12274
-17285
-10021
31196
-21024
-18509
-2114
-19686
-6048
-19944
-19402
26404
-14157
-24395
4353
-19357
685
-20940
-26664
19044
-5742
-27495
10147
-17044
7121
-19750
-31390
9397
3365
-27947
15231
-12722
13329
-16303
-32723
-1694
12483
-25360
18628
-7303
17896
-11426
-30619
-11666
19629
-20231
20017
-1184
20621
-5228
-25137
-21018
25282
-12602
18817
5261
20636
1682
-17445
-27736
27835
-4077
16236
11166
19086
8216
-7503
-31896
27645
5208
11779
15637
15371
13834
3084
-32621
24583
13561
6251
18686
10282
17937
13425
-29890
19075
21053
-85
19414
3826
20258
21978
-24302
11683
25801
-6141
18936
-2450
20967
28616
-15961
2766
28098
-12002
15944
-9151
18964
32221
-5955
-6297
27579
-16242
11208
-14455
14947
32398
4897
-14987
24059
-19328
5438
-18848
9644
29172
14922
-21682
17970
-19729
-1052
-20627
3023
22875
23460
-26203
10083
-18256
-7323
-20355
-3620
14310
29476
-28056
1392
-15040
-12864
-18199
-10089
4366
32474
-27059
-7735
-10124
-16753
-13878
-15009
-6652
32084
-23068
-16187
-4061
-19360
-8302
-19065
-16649
28221
-16789
-22865
2267
-19694
-1802
-20454
-24683
21549
-8640
-26815
8178
-17754
4604
-19808
-30347
12357
657
-28120
13666
-14518
10953
-17525
-32707
1973
9711
-26428
17510
-9137
15779
-13101
-31670
-8405
17273
-22194
19543
-3085
19172
-7255
-27278
-18153
23694
-15364
19704
3307
20504
-792
-20000
-25954
27253
-6776
17165
9547
19350
5995
-10816
-30930
28245
2245
13387
14335
16338
11711
-42
-32766
25951
11375
8050
18066
11742
16486
10371
-31082
21040
18905
1845
19181
5412
18884
19822
-26091
13979
24743
-4575
19344
-752
20315
27198
-18274
5229
27809
-10567
16793
-7157
18945
31500
-9020
-3572
28116
-15345
12971
-12907
16012
32728
1581
-12266
25352
-18388
7265
-16954
10684
30408
12205
-20022
19851
-19364
973
-19377
4608
24749
21473
-25293
12417
-18974
-5643
-20010
-2069
16596
28252
-27981
3482
-16193
-11307
-18349
-8393
6785
32056
-27802
-5402
-11801
-15975
-14940
-13927
-3699
32557
-24499
-13933
-6156
-18283
-9531
-17341
-14379
29443
-18515
-21293
291
-19540
-3087
-19722
-22804
23528
-10901
-25994
6325
-18278
3224
-19687
-28961
15327
-2303
-28117
11981
-15563
9305
-17941
-32385
4984
7050
-27191
16122
-10672
14385
-13756
-32246
-5815
15493
-23600
19155
-4927
18404
-8556
-28987
-15277
21960
-17833
19675
1244
20100
-2198
-22232
-24070
26699
-9497
18054
7720
19708
4601
-13497
-29857
28452
-444
14712
13176
17397
10744
-3049
-32624
26944
8758
9563
16899
12786
15311
7070
-31995
22972
16531
3946
18937
7149
18575
17248
-27859
16383
23184
-2495
19898
986
20539
25202
-20940
8155
26906
-8667
17789
-5607
19558
30668
-11536
-1256
28312
-13870
14092
-11604
16732
32733
-1484
-9810
26399
-17260
8906
-15879
11957
31529
8921
-17743
22072
-19499
2874
-19361
6326
26746
18928
-23943
14831
-19338
-3902
-20497
-608
19547
26297
-27554
6416
-16805
-9364
-18759
-6549
10023
31196
-28100
-2597
-13356
-14767
-16337
-12757
-704
32759
-25689
-11624
-8124
-17678
-11201
-16815
-11253
30773
-20618
-19206
-1605
-19599
-5052
-19918
-20836
25288
-13153
-24968
4887
-19252
1629
-20428
-27461
17876
-4743
-27754
10486
-16406
7927
-18653
-31825
7798
4543
-27813
15410
-12257
13605
-15413
-32662
-2618
13035
-25127
18587
-6797
17908
-10132
-30158
-12811
20234
-19507
19329
-732
19565
-4005
-24089
-22211
25812
-11590
18679
5717
20201
2615
-16097
-28540
28113
-3048
15494
11183
17830
8916
-5785
-32252
27622
6348
10873
15769
13731
14261
4343
-32477
24344
14608
5542
18778
8979
18155
15066
-29097
18191
22042
-676
19472
2571
20063
23322
-23015
10489
26387
-7025
18216
-3980
19962
29435
-14394
1456
28058
-12045
14636
-10086
17111
32531
-3922
-7747
27227
-16445
10250
-15087
13433
32010
7001
-16326
23095
-18682
4504
-18517
7788
28099
16855
-22776
16707
-19375
-2077
-20338
1362
21541
24690
-26692
8803
-17381
-7790
-19048
-5026
12426
30319
-28362
-308
-14259
-13126
-16808
-11001
1676
32724
-26523
-9731
-9170
-17346
-12379
-16021
-8799
31563
-22164
-17688
-3138
-18836
-6407
-18794
-18259
27207
-15735
-23543
3059
-19396
-137
-20347
-25851
20133
-7195
-27260
8852
-17103
6296
-19113
-31070
10407
2137
-28179
14139
-13270
12192
-16092
-32766
40
11001
-26140
17386
-8351
16471
-11487
-31060
-10436
18650
-21237
19340
-2330
19282
-5823
-26082
-19834
24489
-14273
19099
4094
20174
926
-18227
-27229
27721
-5253
16481
9961
18653
7518
-8222
-31718
27929
4006
12557
14994
15300
13166
2007
-32705
25363
12657
7128
17757
10185
17196
12229
-30399
20004
19947
1264
19228
4372
19422
21539
-24692
12390
25172
-4869
18332
-2180
19530
28160
-16753
3980
28027
-10870
15900
-8536
18050
31969
-7184
-4835
27914
-15468
11816
-13749
14578
32482
4309
-14179
24418
-18198
5917
-17777
8981
29531
14197
-21027
18889
-19262
185
-19805
3240
23640
22689
-25809
11477
-18185
-5808
-19565
-3128
15014
29124
-28343
2304
-15311
-11624
-17589
-9491
5106
32366
-27415
-6677
-10934
-16069
-13811
-14664
-6117
32190
-23776
-15642
-5238
-18850
-8291
-18576
-15869
28667
-17652
-22095
1198
-19582
-1945
-20118
-24261
22024
-9644
-26556
7110
-17908
4405
-19517
-30011
13153
-338
-28359
12526
-14700
10674
-17110
-32623
3065
8449
-26963
16286
-9713
15075
-12618
-31820
-7817
16968
-22701
18958
-3974
18599
-7102
-27645
-17589
23335
-16268
19022
2211
19902
-760
-20773
-25340
27146
-8056
17350
8199
19096
5655
-10933
-30889
28347
1507
13959
13410
16300
11508
-969
-32752
26441
10325
8999
16540
11561
15730
9625
-31321
21926
18148
2884
18773
5651
18802
19346
-26445
14682
24416
-3270
18912
-631
19798
26507
-19261
6674
27643
-9076
17175
-6768
18863
31494
-9044
-3167
28404
-14219
12917
-12708
15254
32744
1205
-11868
26060
-17813
7830
-17075
10520
30664
11548
-19386
20703
-19147
1957
-19413
4785
25342
20771
-24809
13433
-18528
-4312
-19658
-1755
17317
27816
-27953
4534
-16174
-10299
-18029
-8257
7517
31893
-28075
-4644
-11912
-14597
-14320
-13476
-3221
32608
-24986
-13317
-6686
-18142
-9296
-17417
-13346
29925
-19736
-20485
-662
-19122
-3277
-19622
-21922
24353
-12222
-25567
4970
-18222
2759
-19386
-28432
16286
-3493
-27868
10736
-15814
8875
-17695
-32290
5565
6404
-27635
15243
-10874
14205
-13221
-32383
-5001
14712
-24386
18126
-5797
17907
-8567
-29037
-15181
21704
-18336
19222
420
19592
-2198
-22781
-23551
26425
-10506
17911
6488
19232
4207
-14233
-29514
28405
-1658
14751
11897
16951
10097
-3854
-32539
27350
7735
10610
16190
12970
15138
6948
-32021
23334
16350
4654
18048
7049
17791
17057
-27977
16912
22978
-1669
18803
753
19507
24797
-21418
9061
26963
-7129
17466
-4997
18938
30354
-12340
-72
28518
-12483
13989
-11132
16132
32721
-1732
-9546
26836
-16666
9378
-15747
11928
31649
8482
-17214
22449
-18516
3769
-18505
6280
26808
18840
-23837
15344
-18808
-2978
-19692
-527
19635
26231
-27308
7131
-16985
-8351
-18727
-6349
10464
31050
-28366
-1834
-13391
-13519
-15749
-12120
-195
32766
-26296
-10922
-8583
-17464
-11161
-16922
-10410
31069
-21412
-18589
-2632
-18686
-5123
-18943
-20040
25923
-14403
-24579
3583
-18847
1389
-20002
-27191
18283
-5582
-27672
9278
-16495
7506
-18362
-31600
8663
3437
-28088
14331
-12516
13093
-15027
-32675
-2452
12751
-25439
17694
-7447
17397
-10213
-30393
-12244
19716
-20354
18912
-1433
19209
-3871
-24528
-21726
25392
-12586
18377
5017
19515
2654
-16455
-28335
28077
-3953
15883
10235
17727
8567
-7055
-31998
28129
5021
11693
14723
14070
13647
3698
-32557
24963
13782
6521
17633
8884
17489
14157
-29550
19246
21165
303
19026
2741
19599
23034
-23304
11143
26278
-5652
18154
-3434
19289
29097
-15066
2664
28381
-11352
15501
-9633
17736
32489
-4254
-7162
27787
-15324
10888
-14589
13251
32142
6365
-15581
23839
-18081
5068
-18092
7561
28462
16235
-22302
17663
-18935
-801
-19640
1634
21930
24345
-26547
9699
-17501
-6627
-18849
-4831
13150
30012
-28330
844
-14389
-12013
-16446
-10438
2425
32677
-26963
-8725
-10229
-16495
-12684
-15869
-8093
31751
-22893
-16709
-4447
-18193
-6947
-18167
-17891
27451
-16484
-23216
1974
-19322
-512
-20188
-25841
20146
-7513
-27315
7935
-16920
6014
-18755
-30869
10988
1111
-28346
13055
-14029
11566
-16088
-32764
404
10394
-26374
16569
-8934
15990
-11342
-31069
-10410
18404
-21691
18489
-2923
18694
-5262
-26213
-19660
24320
-14868
18571
3401
19598
1104
-18374
-27130
27883
-6058
16380
8915
18035
7114
-8649
-31604
28371
3358
12720
13853
14970
12631
1887
-32712
25725
12113
7729
17419
10247
17038
12157
-30428
20696
19602
2025
18540
4187
18889
21267
-24926
13183
25321
-4346
18209
-2191
19318
28242
-16615
4319
28190
-10059
15970
-8231
17876
32082
-6663
-4930
27886
-14195
11850
-13110
13924
32550
3758
-13557
24979
-17834
6657
-17457
9083
29576
14102
-21067
19410
-18967
675
-19407
3067
23454
22881
-25909
11724
-17922
-5425
-19049
-3301
15257
28998
-28298
2856
-15471
-10987
-17383
-9204
4628
32438
-27511
-6823
-11115
-15562
-13536
