1651 9 809a6840 0 320 7
14305
-29280
-10597
-31005
1557
-29199
29009
7298
-23304
22598
-692
32759
-10902
26984
-24991
-16127
29472
13245
30620
-11663
29122
198
-5903
29354
-20942
-25201
-31886
-3225
-26381
-12360
16701
-23791
-11780
-30576
-29081
-13419
-20858
-20544
23573
-17026
-29143
14978
-10069
30734
-18412
22648
-19083
-22315
-32351
5198
-19331
26044
-24875
15853
-11220
-27302
13304
29884
30542
11868
21790
19649
-23727
18047
3255
32515
25219
20919
14488
25707
-28333
9626
31544
-8867
15844
-27217
22178
-18485
14449
24701
32185
-6147
18228
-25803
24033
-16473
12261
26132
6306
-32154
-17535
-26411
-7313
-27891
28757
-1972
-27353
18041
-6884
31184
-15350
24544
-21695
-19291
27722
-17468
7505
-31084
16187
-24084
21075
20020
-30273
-12537
-30048
12256
-29239
780
4611
-29128
-28731
-15754
-31399
8756
-29329
-2678
7858
-28584
-29968
13008
-12243
30393
-19735
21572
-17765
-23975
-32463
2432
-21547
24685
-25999
13747
-8864
-28565
-6423
32131
17344
26508
6890
28139
-28668
2035
-16978
28025
6984
30993
-3243
29206
-27880
-7792
1908
32711
23622
21403
13921
25326
-27544
8878
-439
32764
22137
23403
11731
26987
-28580
6909
26271
19582
32215
-4577
28638
5886
-11115
27353
12443
-30312
-12337
-30166
-1367
-29163
29328
3943
-24524
-21730
-32515
1700
-27824
-8679
13663
-26173
32058
5298
26687
-19011
27908
-7677
2310
29727
28273
15892
31567
-8784
29317
2928
-8711
28947
19720
-26168
-4213
-31518
6613
-28211
26435
11382
27648
-17585
7394
-31000
16462
-24251
21005
20109
-3718
-32555
-24957
-20042
-15303
-24582
27181
-10321
-1523
-32731
-23659
-22031
-13549
-26089
28113
-8831
-31461
-9155
-28725
15664
-29004
4106
1345
-29653
-26222
-19509
-32452
4531
-28791
-6265
11568
-27530
-29210
14847
-10042
29593
-17751
22583
-18875
-21101
31944
-7294
17263
-26338
23274
-17047
13131
25483
-30279
-12522
-29275
11448
-28698
341
4117
-28125
-30252
12588
-12698
28985
-20177
21144
-17437
-22958
-3969
32525
19514
25300
8697
27858
-28889
3884
-14799
29234
9558
30522
-1470
29258
-28465
-6329
23114
23225
32329
248
27343
10128
-15036
25285
14221
29519
30590
11005
22662
18889
-22689
19058
31278
-9764
15191
-28773
21254
-19715
15347
25293
31598
-8148
16856
-28098
23177
-18099
13706
26570
5712
-32265
-17723
-25879
-7310
-27940
28483
-2194
7948
-31788
-15824
-27417
-4601
-28891
28896
119
-26036
-19894
-31692
3955
-28234
-6249
11484
-26566
3910
32532
24975
20169
14731
25019
-27287
10366
31721
8211
27822
-15978
28663
-4649
-283
29068
-26643
19074
-5502
31837
-13935
25418
-22442
-18900
-27684
17527
-7441
31720
-16231
24628
-21505
-20550
3860
32538
25538
20243
15556
24472
-27687
10415
1688
32314
24286
21996
13546
26111
-28726
8474
32766
194
22726
-22094
26557
-11759
6993
27926
-780
32757
21574
23379
11467
26978
-28185
6773
9892
-31237
-14586
-28643
-3554
-28964
29154
1576
31154
10151
28913
-14254
29239
-2996
-2086
29327
-24917
-21278
-32539
2390
-28186
-8084
13359
-26458
21043
25116
32493
3136
26169
12948
-17738
23713
-32573
2687
-21245
24946
-25358
14120
-8779
-28571
-31075
10392
-14617
27896
-21713
19497
-15486
-24189
-5513
32299
18178
26173
7325
28193
-28900
2409
-32695
2165
-21450
23722
-25905
13677
-9091
-27711
22676
23652
32365
902
27190
10652
-15458
25005
-17832
27489
6430
31781
-4688
29093
-27893
-9768
32580
-3487
20565
-25412
25380
-14666
9709
28077
11244
30707
29658
13930
20537
21282
-25080
16538
12580
-30255
-11736
-29210
-680
-28990
28385
3969
-32392
4939
-19192
24962
-24389
15118
-11083
-26243
32708
1964
24071
-20583
27185
-9708
5305
28291
-20060
-25908
-31474
-4302
-25685
-13236
17839
-22775
-25280
-20846
-32001
2602
-28278
-7872
12510
-26442
-26860
18766
-5885
31859
-14987
25021
-22073
-19480
-24714
-21514
-32496
1949
-28221
-8596
13544
-26436
9408
31342
28780
15664
19104
22264
-25853
14830
-28187
16230
-8775
31570
-17526
23730
-20429
-22005
32754
910
23261
-21647
26968
-11168
6429
28149
7130
31981
26490
17565
17143
23682
-25859
12924
19579
-26273
-4423
-31763
6075
-28499
27040
11003
-30665
-11544
-29472
12938
-29030
1419
3508
-29049
-11974
30500
12482
29593
1409
29072
-28932
-3502
-12561
-30263
-30070
-12518
-21701
-19638
23576
-17885
-10114
-31166
-28994
-15096
-19599
-22071
25486
-15409
-32221
4515
-19743
26150
-24488
15818
-11131
-27598
-12089
-30063
-30100
-12946
-21159
-20236
24297
-17369
-15326
28961
9133
30547
-1287
29050
-28207
-6221
-32765
-346
-23182
21937
-26878
11597
-6997
-28150
14708
29280
30286
10275
22779
17862
-22061
18937
-10147
31156
14306
29039
2936
29299
-29436
-2279
23313
-23024
406
-32672
10578
-27264
25178
15649
-24193
22098
-1652
32585
-11574
26828
-24599
-16471
-23776
-22546
-31558
616
-27637
-9215
13486
-25341
-22141
-24154
-31591
-1972
-26789
-11546
15515
-24257
-29141
14982
-10053
30284
-18209
22619
-19037
-21832
-21439
-24779
-31951
-2791
-26420
-12672
16928
-23750
13417
29893
30117
11636
21725
19469
-23247
18015
-25418
20678
-3625
32291
-13259
26356
-23693
-17876
32383
-4997
19352
-26212
24280
-16039
10964
27568
19917
25750
32480
4323
26137
13572
-18519
23579
-4807
-32412
-25054
-18968
-15966
-24157
26272
-11221
-10450
31055
13660
28581
2589
28851
-28553
-1995
