1651 9 809a68c0 0 320 7
32764
368
16840
-26257
6521
-28336
31567
1264
-28184
8132
-6400
26457
-127
29121
-31218
9952
-30778
-2417
-16580
23619
-10015
27872
-32624
-3054
-28210
-12688
-23753
16858
-19268
22515
-29776
-13676
-21589
24648
9231
29487
17436
24247
-22045
24127
30839
-10812
6479
-30525
-2336
-29847
31088
-10351
19186
-26324
-11950
-28681
-18767
-23120
19708
-26177
15239
29007
31389
2554
27514
-7460
13136
27752
20143
25844
31682
-2924
26260
-11662
17690
25019
26207
-13295
1532
-26875
-6383
-28484
29195
-14876
23421
-18103
-3728
-27244
-10089
-27417
25958
-19995
-11195
-29465
-28960
-5133
-29558
3392
-10992
-30867
-9932
-29840
-29047
-6398
-29727
1372
-10096
-31172
-31561
-8805
-22824
21066
-14153
25765
-30594
-9713
-31004
-10600
-24300
19945
-16141
24784
-30132
-11181
-23256
23082
6740
31050
15114
23694
-22482
20273
32022
-6943
11074
-29865
323
-28385
29957
-5138
-27193
-18281
-29195
12692
-20567
19324
-24514
-17997
-6423
29463
20513
18674
26453
13004
-6967
32017
-8158
28917
19640
20165
24590
15988
-9160
31460
8482
30875
28917
8088
29749
-1303
8535
31635
5867
31414
28541
10598
29748
2559
5555
32292
18579
26990
31180
-1392
27003
-10687
17081
26550
15876
28663
31583
1668
28428
-7248
14103
28280
20948
25195
31801
-3875
24876
-12642
17914
23835
9468
27130
26298
4621
28991
-1003
11501
30681
2838
30516
25665
11978
29134
4508
2922
32636
-1417
-30309
-25250
-13185
-28313
-7396
-1217
-32744
-23967
18820
3976
28348
10852
27155
-25612
20437
-123
30584
24859
14660
28231
8611
-317
32765
-6854
31761
22192
21028
26662
13424
-8188
31727
-10734
30661
19700
23978
24695
17117
-11644
30628
-11289
30760
19113
24794
24088
15620
-11850
28738
-14435
29415
16550
27010
22307
18509
-14728
27341
-10624
27274
16860
20833
23903
16969
-11527
30672
-13112
26165
15208
22618
21132
20089
-14293
29484
-4567
30760
22676
18331
27687
10963
-4272
32487
-15633
26949
14427
25663
20882
21112
-16238
28460
-1860
32714
25408
17678
28367
8644
-2963
32237
3996
-32522
-24591
-19436
-27547
-11659
5214
-32220
-11134
-30817
-30704
-6237
-29734
2277
-10130
-31049
19371
26427
31398
-2079
25880
-11042
16550
25398
17531
27682
31990
63
27061
-9415
15226
26517
29419
-4858
9691
-25593
2590
-29236
32319
-5396
29612
-2714
11645
-25228
5302
-28806
32537
-3872
4313
-31484
-23058
-18602
-27608
-11016
5001
-32382
31283
-4690
11444
-27756
3596
-29613
32441
-4603
-32479
-4329
-19830
24240
-10917
27371
-31525
-5437
4618
-32439
-24102
-20262
-27351
-11279
5480
-31387
-16576
28264
14444
28322
20767
18927
-16102
25300
31853
-7683
10494
-30248
-655
-28269
29547
-5959
15857
-28674
-15195
-28064
-21250
-18652
15637
-25907
4080
30080
25871
10817
29317
3104
4514
32454
8799
28968
27664
6447
29387
-676
10032
31193
30352
10542
23371
-19412
16071
-25137
30900
10902
-3498
32024
24398
18606
27835
11088
-4351
32476
32119
-6479
11106
-29190
413
-28938
30915
-5338
21370
24838
31293
-4678
26051
-13297
19708
24329
-4097
-28621
-24767
-9662
-28983
-3431
-5198
-32351
26949
-10625
3791
-26657
-2302
-28991
30260
-12568
-30405
-6089
-19267
21432
-12537
26832
-32110
-6527
20700
22874
28449
-6010
26418
-12850
22104
24188
28104
12123
23222
-17215
18848
-22320
29976
13231
-1426
32735
25684
17282
28823
7880
-1932
32599
4946
32391
28872
12149
29852
3036
4442
32399
32159
6280
21681
-22820
11581
-25925
29835
7356
10455
31054
30945
7553
28686
-2544
8519
29623
1759
-29553
-22553
-14861
-28006
-8744
1613
-32727
26141
-13615
1184
-27498
-5407
-28687
28888
-15462
-30808
6781
-9258
27943
-697
29673
-32083
6658
-21454
-23017
-29122
6289
-26483
13468
-21983
-24297
12834
30148
30766
4664
28987
-5275
11880
29779
-2740
-32652
-27978
-14204
-29138
-5117
-1854
-32104
-22083
24207
8728
30205
16122
24721
-22207
23364
29641
-13966
4170
-31206
-6057
-27391
27993
-11237
21170
-25009
-9343
-30577
-16834
-22956
20903
-21902
-17054
-25017
-27772
1950
-27673
10256
-18534
-27020
12948
-27216
-15948
-23253
-21780
-19756
14130
-29563
-28905
13963
-2739
29934
6236
29132
-29792
13641
-26623
-17910
-27667
12856
-22438
19861
-27202
-18267
19042
26665
31133
-1857
26849
-11083
17329
26267
-13055
30053
17918
26077
23025
18166
-13857
28328
23985
-22324
-5598
-31226
-13928
-23935
23029
-18606
-30696
11464
-6719
31148
3440
27744
-28482
8482
-12142
30434
18620
26237
22939
16047
-12697
27081
-21063
-22557
-27964
6129
-26088
14083
-21999
-24283
8300
-29547
-20029
-20837
-25085
-15756
8937
-31524
-18743
26624
12397
28337
19557
22678
-19481
26346
-30346
-12008
-24888
18786
-17716
24303
-30326
-12409
12787
30168
30924
4984
28102
-5386
11233
28816
-19726
26163
11187
29791
18380
22391
-19520
24001
29303
-1082
12529
-23787
5681
-28708
32707
-1968
15522
24888
27437
-1031
28058
-7689
17911
27438
20711
-23416
-8809
-27726
-16924
-24448
21979
-24301
-28176
12842
-2990
29116
4566
28977
-29725
13787
30393
6381
19804
-21657
13633
-26158
32100
6577
-8506
-31643
-29699
-8866
-29599
878
-7446
-31350
23351
-22986
-6991
-30583
-15047
-25756
23531
-22161
-31505
9003
-9004
30164
1923
28142
-29504
7146
-23835
-22484
-30984
7650
-23994
15588
-21151
-22107
