3495
-6361
938
-8486
-23331
-3516
-30430
-12150
8708
4925
838
223
-16854
-28099
17855
25842
2660
-5643
-721
-734
-21279
-24917
19946
16347
-197
-8018
-4538
-3130
-17191
-27895
9972
14787
8114
1368
-2305
5680
-23751
-22573
22089
13146
2117
-5040
-2366
2041
-29677
-13890
21089
9183
-27070
8228
-14586
24286
-26571
10094
-13719
-29756
-20519
4936
-12386
17920
-21721
8355
-12947
-30100
31457
506
24079
-22223
31260
1314
1365
28930
-28212
-13853
-31320
9629
-27864
-14383
11007
-26971
16211
-25479
-12143
-30433
10550
-26668
19992
11786
-15424
13966
-2085
21562
-14905
17357
-26305
-19536
-12621
30238
11015
30087
-10351
28344
-27231
-8760
3689
28587
22006
18372
5883
28006
-31875
7591
27850
-16020
9564
-31340
26354
-14498
14842
23821
11891
18264
21554
5594
15017
17550
-25293
20831
30334
12388
29832
-11210
27841
10178
-9478
26674
28828
-5606
17354
-23567
27612
-7947
9533
31349
9570
-19296
-6099
-21317
7520
-21589
31018
10560
-25175
-20973
-31814
1618
-23321
-18308
17019
-22367
9292
31421
27942
16931
7168
28488
-26364
7142
-29359
8072
-16106
25637
-27910
9968
-11071
-30839
-6147
22065
10519
21043
-3055
24241
-32484
-4293
21281
24915
31571
3714
19659
22052
-20288
18826
28211
10323
27469
-11389
27845
7864
-8282
31702
23146
-696
16931
-16478
24152
-3747
5648
32276
-10224
-29901
-28922
-15399
-9027
-29229
26678
-10504
32064
-6748
18355
-26138
28742
-7419
7664
25469
29319
-2339
19827
-21586
27926
-4624
6909
32030
23494
-3470
15220
-18972
24173
-6647
9452
31373
28373
-16389
9371
-30418
25144
-15066
13779
22145
22962
-20229
3003
-30147
20902
-20466
24221
22068
-23870
-21875
-32766
117
-21222
-20938
18681
-20572
-10106
-30723
-28616
-15961
-8356
-28755
26443
-8886
12818
-19498
-3895
-23307
11580
-21588
29893
13418
7990
-31777
-15205
-27787
6948
-28656
26408
4953
182
-30898
-20663
-22532
-1175
-29254
32552
-3742
-2825
-23751
-18338
-15742
-5732
-24219
31000
-10612
-3273
-32603
-23855
-20980
-4152
-28621
24292
-3804
-21575
21974
-135
32766
-21933
22121
-22956
-18201
-28559
-12562
-30785
11220
-28830
-12944
9243
-28116
1764
-32719
-20900
-24877
-353
-30921
32663
-2051
6513
-26099
-13523
-24255
1543
-27218
32600
3298
12722
-30196
-10907
-30015
9992
-27210
22733
7839
14699
-29284
-8940
-31416
10797
-29365
29530
10532
13829
-22966
-5383
-26873
11600
-25163
30997
10621
-30100
10614
-14985
29139
-28977
9888
-11080
-26335
3979
-17310
-9116
-17021
-295
-21836
32642
-2850
2897
-32638
-19932
-25722
376
-31291
31483
-1412
-6554
-24254
-21739
-13752
-10164
-24063
29133
-14996
-13575
-13921
-20560
-1519
-18463
-11716
17287
-27835
-31724
-8200
-28370
15463
-29641
-5191
4558
-29586
15894
28459
31114
10274
13881
26403
-24146
13701
-20530
25181
2015
32704
-19394
22637
-21663
-17347
-25189
7426
-13575
22602
-24691
9979
-15295
-28977
-13446
11581
-2420
18699
-13307
16047
-25952
-20003
-21206
24979
1327
32248
-18254
24799
-25317
-17276
-10996
23574
8205
25004
-7885
23582
-31048
-10470
-2766
19658
11556
17373
876
23612
-32421
4742
31096
-4469
20119
-25863
30710
-4503
6864
28236
31803
7857
29690
-13862
24691
7194
-10224
28376
13041
30060
29479
12862
13439
27177
-25637
13971
19571
18752
27244
397
21812
16090
-18252
27212
16997
10474
20220
-3905
21093
8350
-9424
31382
31404
9350
28752
-14287
29436
6538
-5927
28975
28958
4123
24381
-16863
30077
237
763
32758
-23372
-22087
-32765
-271
-21543
-21258
18657
-21119
21109
-847
15362
-15579
21908
-4625
8696
31592
32667
-2550
21676
-23684
29503
-4354
4049
27780
28625
-9504
14586
-26833
27139
-13141
14365
29450
18039
-11543
5846
-21646
17261
-16537
22913
23422
24140
-22156
2439
-32361
20104
-21635
21236
19407
-26580
-19160
-32522
3805
-23253
-18214
16460
-22022
4262
-28994
-16782
-24452
1080
-29076
32731
-1522
-7553
-20554
-20233
-10421
-11640
-21046
28180
-16720
-11233
-30781
-28567
-14583
-12381
-27648
25538
-11537
-24694
-16800
-29691
4399
-26328
-13716
12934
-30105
-22255
1779
-15528
17106
-23113
5866
-9329
-31410
11041
29456
29367
14534
10752
28805
-26102
12150
-2945
31220
20120
25861
-3213
30588
-28858
-652
-11616
19246
4598
22685
-9980
21348
-30552
-11840
-9731
31288
13718
28691
-7597
28240
-26418
-6997
-2999
30545
18495
24300
-517
29020
-32766
245
2924
22720
18029
15175
6201
23013
-31782
7970
26110
-17676
6980
-32014
25704
-16891
17662
22619
24491
19968
32684
-2323
23450
19759
-16714
23219
-1255
32742
20750
24208
441
29099
-28396
-367
-10267
19569
5952
22226
-7206
21417
-31408
-9335
-18553
27008
4537
31621
-15364
25006
-23335
-14475
-15409
26339
6776
29876
-12192
26237
-30033
-13102
23240
22536
32758
767
20965
21437
-19106
20357
-16506
28305
6878
31132
-13905
25940
-25036
-12352
-10492
27298
10652
26968
-8120
27426
-31808
-7865
589
23185
16608
17130
3978
24031
-32057
6779
10790
30939
28016
14890
10322
27355
-24786
10026
31128
288
23755
-22568
31512
-289
3393
29301
-6702
27369
22828
23506
5960
28808
-20953
-1337
8888
30401
27029
16269
10974
28166
-29742
13750
8957
23839
23064
11620
12187
23659
-28838
15556
20980
25169
31421
4148
19236
21674
-20122
17489
28540
12338
29009
-10084
28063
9571
-11312
30752
23217
-3958
14640
-19018
22561
-7505
10795
30937
-12328
-30359
-24651
-12124
-8181
-21183
26894
-8794
30608
8857
29175
-14914
29283
8795
-6331
27730
13941
-9554
4105
-17576
12749
-14461
24450
21814
12116
-28747
-10527
-29074
9029
-27720
31538
8888
-1213
-23735
-17181
-16965
-4595
-24046
32093
-6608
-6368
-15583
-15928
-7776
-10392
-16275
28117
-16825
-11267
-30247
-28412
-14414
-12512
-27416
29831
-13556
-31780
7980
-13955
24106
-22108
6396
-6083
-28498
-8804
-21894
-21512
-10451
-11167
-21319
28998
-15255
-12205
-11947
-18026
-923
-16659
-11087
19073
-26643
-25573
-18780
-31048
3359
-25398
-16042
16884
-28081
-20353
-13647
-24616
3567
-22068
-11634
13875
-29684
-15865
-9685
-18945
3344
-19712
-8568
12659
-30222
7048
30373
27297
18125
7003
30047
-27516
9195
-31913
-7430
-27989
15745
-30119
-5987
5428
-32036
-21027
15109
-5228
25522
-18638
17427
-22763
-23568
-175
19242
13269
14945
2922
20359
-32468
4411
22382
14091
26033
-4701
23241
11770
-15139
29059
-8971
-30726
-28103
-16848
-7727
-29132
26739
-8742
19859
-861
14547
-14698
21523
-5123
7881
31804
25500
-20576
4743
-31717
22031
-20750
20222
22462
6840
-25766
-12539
-23900
3467
-26387
32502
4153
-8734
-18781
-19760
-8274
-12858
-18777
26026
-19907
