1651 9 80689b40 0 13880 7
16744
-11059
5880
-20067
14816
-8908
23062
23276
27855
-17255
8900
-30974
24857
-14328
11831
25179
-11721
30598
11400
28760
-9484
25111
-16228
-15496
-19366
26431
2754
30723
-16062
20021
-17694
-18555
546
-32762
-20679
-23984
2873
-29979
22296
15792
-28866
15505
-10803
29489
-24008
11553
-8877
-24613
20976
-25172
-1028
-31401
17513
-20126
17858
19127
11245
30628
28307
15077
6159
30798
-31950
7269
8217
31719
26704
17680
6794
27429
-26871
4464
-30092
-12966
-28348
10021
-23360
-12772
21800
-12633
-26696
-18999
-30455
3009
-19995
-15758
18307
-17494
31500
-9020
16585
-27926
21234
-6559
8699
16900
32704
-2018
22020
-22120
26667
-578
-2551
26010
-23610
10157
-10812
24074
-15788
9574
-21290
-24907
-30706
11436
-14749
28238
-26320
9252
-6721
-26109
10499
-16645
-3027
-20788
6974
-19434
32759
688
-20361
-25672
-32040
-5370
-17381
-22965
23186
-15272
25312
-20807
4689
-32196
22464
-17977
15818
22746
5526
32297
25426
19006
4136
26473
-26212
4836
-1453
32734
19489
24207
-2266
26153
-25297
-5575
-23976
-13377
-27178
6282
-21957
-10246
14359
-29453
-25925
-20038
-31571
2246
-21341
-17258
18951
-19002
17909
-14042
4169
-23042
16910
-10828
7401
31920
28938
-15370
10970
-30425
25562
-13293
11036
25352
10815
30930
27824
14424
5620
25931
-23276
2690
3453
32584
22682
20982
1867
25829
-25661
-1440
-32747
-1133
-24459
21046
-26380
97
490
-19858
24852
21354
31373
-481
19807
17996
-19850
17761
-14337
29463
8514
30316
-12458
23696
-22214
-14849
4630
-31534
-18372
-27131
3865
-26989
20231
-1972
8336
-31688
-14745
-28571
7683
-27375
26161
9513
29941
13310
29234
-10186
20935
12871
-22917
19945
25805
20193
30581
-1625
19669
16308
-18682
17265
-29338
14591
-11445
29734
-23306
11776
429
-23958
-31726
8191
-17460
25964
-26021
6302
-3434
-26243
16891
-27146
-6300
-32155
10066
-20660
11203
12461
21565
-24670
-446
-31958
18553
-21020
18975
19832
-1328
31057
21106
25063
2129
24170
-17875
3827
31287
-9736
16519
-28064
27837
-8172
6221
27853
30273
12537
30560
-10952
26546
11573
-12971
25233
-19672
-26204
-31278
-5213
-12682
-21080
29269
-3269
-16968
-28031
-29672
-9328
-12942
-23100
24152
-10128
31076
9826
29601
-14050
23396
8668
-15652
21609
29153
14958
30657
-7999
24336
13200
-15029
22591
-31341
-2617
-25726
20293
-22890
-2185
5219
-19287
-31719
-8220
-28631
14967
-27970
-7650
9246
-26640
32713
1868
23865
-20524
24052
3952
-16250
24645
31320
9628
28165
-12664
24661
8641
-11451
23214
-32704
2023
-21809
23738
-23397
2290
9909
-25934
26799
18853
31297
-3559
21487
16100
-17963
19676
-5543
32294
16670
26822
-5282
26365
-25548
-7815
28184
-12597
12423
-30320
16796
-9652
8170
14030
30183
-12751
13579
-29146
26466
-10685
8542
26438
-26959
16553
-7932
28486
-22707
10373
-383
-32764
-30143
12846
-13314
27748
-24082
8828
-5682
-24867
22340
-23970
-611
-31891
19499
-16440
10661
21247
26628
-19094
6922
-30612
22438
-14805
12269
23576
-20267
25225
3633
32564
-18894
15830
-20101
-12597
-23582
22749
-2263
31903
-20770
19074
-16938
-21798
8429
-29619
-16043
-28570
6836
-24376
17119
-16153
-22319
23989
-363
32635
-20034
20973
-19389
-20886
25707
-20317
5345
-32267
23002
-17881
16165
23575
13002
30076
29593
12510
8786
20365
-19771
-4723
7202
31965
25270
18287
4657
26204
-26118
1684
-14754
-28701
-30979
-10674
-13815
-16803
7279
5895
-11982
-30497
-28398
-14340
-9685
-26125
26222
-7105
-28264
-16577
-31747
6586
-25000
-15104
16181
-23329
-27190
-16410
-29324
6056
-19487
-14644
28582
-16021
-25878
-20099
-30902
1927
-19876
-16990
18956
-17470
30041
13083
30716
-11194
18854
11213
-18603
16455
3369
-32593
-18488
-25690
3516
-26812
26141
6000
18225
-27230
-4347
-31304
15750
-21948
20155
17598
-31404
1586
-21981
24299
-20758
894
4473
-18562
-32602
-3279
-25942
19083
-28530
-3268
5062
-27530
12164
-30425
-10897
-29124
12950
-21737
23681
22002
17427
-27748
-4913
-30457
14582
-21280
19035
17052
12365
30344
29337
13491
4930
20146
-30439
4156
10306
31103
27180
15776
7603
25954
-26163
4825
-31466
459
-23290
23048
-25046
2835
-6332
-9980
-32555
-3715
-26044
18591
-28069
-3373
5521
-27263
2311
-32685
-18912
-24177
4075
-24608
26463
17059
-32427
-4704
-27049
18254
-28803
-4775
6201
-27851
30146
12840
30098
-11308
23270
9199
-16196
17520
27659
17567
30816
-4925
21948
15189
-17244
19918
-28137
16422
-9253
31433
-20105
12025
-3793
-23784
-29161
14942
-11376
29777
-25117
12269
-9963
-25507
9358
-28852
-13778
-29729
1267
-23873
24053
-390
12432
-30316
-11108
-30619
11566
-26991
25531
12891
-16548
-28281
-29508
-9821
-12553
-23182
24188
-9750
-25088
-21076
-32329
1537
-18851
-15234
22631
-10528
-23169
23169
-1796
31628
-20052
18304
-16157
-21517
30781
-4916
19891
-26038
21393
-5588
2976
21706
-568
-3231
13557
29830
29848
12070
11338
27500
1163
-3171
-3385
32591
19624
25573
-3887
29491
2542
-2223
-18759
26865
4740
31924
-17566
24016
-18101
27313
4702
30843
-14549
18455
-18284
-26789
-21103
25066
680
30911
-17324
19154
-16716
-19432
-11392
-30561
-29335
-14597
-9384
-21867
26510
-1394
-8815
-31558
-26479
-17054
-6508
-26392
26460
-3925
-31067
-10414
-29449
12769
-26831
-9525
11153
-25525
