1651 9 80689b40 0 13880 7
-23365
-12918
20111
20197
-12021
5990
29787
-13651
4057
-32514
3296
-11825
-1835
8865
17621
-2278
-12710
-12804
-5807
23048
-11373
8390
30495
11988
2313
-32685
8758
-2627
-21429
16372
6242
22716
-14723
-29272
-8539
18877
-1912
9017
-21655
13607
6630
-20371
-24576
6074
-15289
-2727
7904
31799
20846
-1647
-5443
32311
-18335
14438
95
-10627
-1799
5508
-12468
4522
-30613
11683
-7026
9601
15166
9540
-16993
1887
19171
-4919
-23663
22665
-6373
21016
-9121
23774
8647
-20304
-26561
19187
14
14456
-25394
20707
-11126
-5893
5191
-17892
5447
17416
-30751
-11314
-6906
14322
1349
-21038
2815
32645
-21611
-3426
3150
-5628
20319
-844
-28508
16153
-26575
7762
349
-6877
8366
-2949
-1334
1968
-27180
-18300
7475
-4194
22816
-10885
-32681
2365
-16266
-9485
-2170
-21555
24046
4541
-15319
-2265
2081
-32700
18063
12572
807
-6158
-17526
-5782
-5701
6491
28927
-15391
16843
11122
-26791
-18864
13965
-4710
-5891
-1100
18002
-4162
-31833
-7766
-8300
6478
-4441
11399
24200
14962
9490
-18008
25751
-16539
-732
32758
995
-8062
-446
-12731
28327
16468
-5314
21201
-2249
-7962
3542
-24116
24227
22061
-2116
-5083
-9534
-2818
24840
-21368
1907
25280
6815
23865
-5314
-6520
-4656
10285
-2987
32630
-4102
19301
-10033
13842
31729
8181
4260
1089
-31222
7162
11376
11033
4834
-6543
-17845
27481
-1776
-955
-8425
-9025
-490
-1349
-6368
8388
-9768
-11281
-32218
5969
-2622
14897
-29757
13717
-22321
-4446
3321
-1493
22661
23667
-25437
-324
21647
-7625
-21361
-4510
1231
22322
-23223
-23116
-797
-17228
-22162
-5704
-4499
32456
-13702
-424
3193
-13125
12202
885
-21450
24769
20480
2066
-17543
-18048
-448
-30005
-15314
-1157
-10543
-19968
-1945
-4698
9411
-31386
-32763
489
-16386
8594
26973
-7239
-2917
-6604
-16826
2308
3597
16356
2080
-3392
23435
-22900
-23754
-17003
9935
4112
25584
-20471
6861
4067
-26270
130
24921
1041
26354
19471
-7053
7097
-14457
-29405
6295
7430
1068
-6455
7283
-3929
-7606
-21889
31453
9185
4232
-837
-3501
5213
-23915
-6833
30932
10809
-16812
-407
-12163
22624
7980
-31780
-1013
4128
-8245
8035
4028
17670
10218
-6570
6453
3353
-12522
30279
-13733
17050
7512
8162
-11633
21788
7483
9441
-6980
32014
-13957
-16746
4155
32502
-17370
-21749
-29436
8746
30232
12635
8414
21174
-13999
-4423
4120
-11638
-5796
32250
-19363
3055
-30799
10290
-18109
21399
32
32766
-3789
4234
-21203
-6977
3195
14116
2680
32657
-16383
-3515
123
6057
-2928
8237
589
12187
-31532
-8907
-2847
-948
10093
-1926
-13671
29778
-30018
-8538
-720
1246
13755
6981
-8296
31699
-15317
-7428
15233
8103
7798
-3956
-27592
17672
-8265
14872
10165
-422
4083
-8550
-25363
20745
24872
7013
13173
-10618
-4703
-4207
-19562
-22144
4970
-13534
6035
-465
10924
-30892
-32739
1347
-13627
16006
18023
19930
15693
-6499
-30685
-11492
10401
24413
9618
10524
-3615
-14505
-4450
-3592
-3152
19173
11386
24836
31709
-8259
-2136
-19912
-3832
6773
6220
9221
26505
19264
-15705
-9053
-2833
53
-23341
22997
16852
26641
3828
-25816
2198
3070
3633
-5934
-8262
31708
12209
-24125
11061
-3496
-1102
10460
-30598
11722
11538
-10386
-90
32766
-25183
-11565
-2733
27295
346
8741
-13216
17101
-30132
12871
4066
6161
-13176
26700
-24550
21700
-25070
7599
5887
23834
20944
25199
-4436
25013
-9113
-2574
-6358
-10842
939
32753
-30477
7023
-25420
10586
2618
-7272
-9677
30943
-32757
792
7479
-2538
-17081
10381
7302
10472
-30750
-11318
14121
-542
-8600
-14605
-1831
8219
-25065
-21104
3138
-28505
8025
-3261
5066
9823
-10101
4248
15657
-26155
22699
-23630
-23730
22595
-6462
3949
6153
669
7185
5239
-2961
10125
4277
23672
24905
-21292
21816
-9569
-29486
14290
5336
-7268
6241
15698
14320
-697
-7589
-10285
32238
5860
7818
328
3766
-26435
-9376
-31396
15516
4589
21084
-3128
-5439
-12359
-671
-4623
24498
784
31195
10026
9003
25801
-18143
-3565
786
10379
16576
17631
-1935
32709
-6362
-9146
12760
30180
-374
22874
1599
-982
8784
-29608
-8926
-813
21213
20377
-26189
19691
8858
-6266
-8751
13828
-4417
2665
4360
32475
3510
2353
26827
18813
-12877
-2287
-27244
9708
2240
11538
-2606
3364
-4397
13817
-26342
19487
13343
-8936
-31651
8476
15092
-8619
-12216
12146
19724
26165
-10199
-2710
-6231
20784
-19120
-3633
-5515
32299
-20806
-3402
-14187
-16608
-3140
29857
-11421
30711
-16896
18131
5664
-1367
1056
7768
-5630
32279
1753
1975
-385
128
-4858
-4671
-9714
23673
-31562
-8802
13265
3739
8134
3322
-29924
6775
-32461
-4465
4253
-13252
11788
-11538
-22840
23494
2476
5079
15665
7153
5370
-21263
-27442
-17905
4411
-28965
860
-18695
3475
-6180
-31947
-7281
-5069
-13703
11875
1579
21503
-364
-21838
-10036
-4653
-3072
7705
31847
11617
-19873
-29848
-8459
31906
-7459
8956
-162
-15180
21581
-19908
18
22667
-12076
-631
14197
-1565
32729
-5098
-30338
20786
25330
11674
30371
-934
-2837
-3319
-9583
23315
10652
13896
18587
-27410
17953
2355
-32682
-11951
10509
-355
2042
-5145
1176
14477
-29395
-4041
14235
-8393
-5736
-2622
-646
2962
-12268
15009
29127
-17047
-16498
-23262
6715
4176
6244
19112
4201
-6518
1319
-32109
6532
5098
13619
-11254
-1303
-4056
-10906
-11864
30543
4709
7861
-19765
3882
2534
27326
-28081
-16885
1721
32721
-5397
7430
3630
-3107
-4162
14373
6471
32121
-17351
2589
-7884
-4822
9877
-9163
-11912
26274
-29818
-13585
-17137
-958
14967
68
-2826
27327
-8667
-31599
8851
2864
-10947
-30313
6105
11637
-15269
7258
24112
-6335
20285
-25732
-9689
9854
-8584
12268
7704
9507
16406
-28363
-32290
-5567
-3553
2228
-4513
-4668
8564
-11889
-8103
-19256
4852
-1193
27556
-17728
10163
-8546
-15605
4027
6659
10638
12834
947
32514
4061
7290
-28979
28742
15733
22443
-9337
8324
-21872
-19639
-23445
30172
12779
-15764
7314
-2518
-14009
-9509
-7135
27734
17449
2570
-10365
-188
24316
-27176
-18306
-7964
22061
-11053
9532
-3142
19433
8298
-26875
-12948
3944
-8908
31532
-7384
30847
8386
10707
7840
17765
-19181
26565
-6803
18923
5262
-4922
4202
-851
-3645
-1578
-24419
21848
27910
17166
-14243
17619
18251
17562
-5351
2000
12322
26773
3712
-456
-4573
-8388
-12037
30475
-5018
23683
-17852
27476
5835
-11242
148
14565
4560
32448
-20014
-9542
-18222
-19968
-11903
12580
-2813
32645
6261
4406
-13059
2291
-7233
-14364
-6627
32089
-26047
7340
-5066
1341
26566
-927
-3646
-677
-10094
2600
2585
-32664
13098
-9579
-17413
23610
-28081
2581
28737
-15743
24845
-6585
-28393
16354
18574
10114
-11827
-20875
17537
-13388
-32737
-1397
-3947
9319
10163
-6424
3902
-4350
-12932
-9497
-9821
16831
12925
1433
25516
-20556
-16217
-24553
-187
16286
18505
-27041
22930
2941
-20208
-25793
-8193
9683
27712
827
-6094
9775
3123
6789
20365
25669
30426
8776
23127
20924
4548
-24215
31116
10268
727
-6620
-6389
-242
11052
3177
24455
-10697
-11146
25476
1232
32743
7689
-11410
23243
12652
3498
20427
-31080
10376
-3744
-4876
-9197
31449
-3641
11598
-6716
-778
18692
25142
10426
13439
8700
18123
-23533
22800
1012
12316
-169
-4880
-28731
15753
-10521
8439
1681
6049
-1787
11886
-18756
-16485
-31288
9730
8328
16028
-32608
3215
-3855
5011
9640
4905
-2694
15055
-25700
-11457
4170
-437
-32365
5110
-13652
29787
-14671
-1635
1354
10995
-8664
8580
-6359
3939
-23912
2235
10028
-31194
2727
-5797
-19954
25990
-14246
4467
-4771
3744
11160
-19628
-27399
17971
-7154
4093
12953
4359
-3486
-11597
-30396
12235
-3608
499
-12192
9786
18301
-21753
-27983
17047
-12861
4254
13806
8729
21124
6010
-31496
-9035
8963
-9639
-8500
10998
27979
-15111
-23840
-22479
-2628
95
-4266
-6829
15420
2784
-13144
-5572
28570
-498
14069
29592
10709
3685
4567
-32447
6446
-17354
10834
3686
-7887
8054
4918
2811
25829
20162
19018
20078
-5440
15736
-14709
-10684
15439
15765
-31666
8419
3982
20874
8927
-8506
-1623
32726
-4687
6927
9336
-6423
19530
8961
11412
19758
-19412
26397
-4546
-1518
28246
16606
1807
16986
6876
2149
-12830
24528
-427
32764
1385
20344
-15534
13496
-21548
17940
814
11598
-8265
23556
8049
2492
-32735
-1441
21552
11810
-11214
5292
11674
13153
-24193
-22098
16580
14217
-31010
-10583
7039
398
1873
-1815
-3704
15364
-31184
-10059
3001
-7312
7883
12378
-17514
27693
-15451
7176
-2633
-4631
-1265
-30674
-28063
16914
-20049
13751
607
-31010
21853
-3401
-26011
19926
-3990
5988
191
2664
10540
-20599
-21073
19234
-9609
18385
29182
-14902
26738
-1560
-22668
23660
9995
18597
24377
-8770
27163
3111
-10199
-23836
-6353
-32145
-1269
10367
19204
-6675
-15460
12568
28305
11190
13282
18333
32694
2179
956
-9496
2571
29056
16096
-8672
32675
-2443
-11864
-16218
-7235
9206
-1674
818
23905
22409
12089
-30455
7135
-31375
-1792
17702
-6972
22891
-9000
-31506
21727
18372
-14184
19654
-29889
5965
17481
849
22
32766
10485
3007
4861
22194
-3294
-14335
-19542
8341
1763
25350
-30805
11165
16880
23395
-10587
31009
13811
20280
-23201
18178
-6544
22171
19591
26265
-14679
-4125
-30667
9513
3039
16506
-7947
-5691
-4796
1364
-27542
17749
6802
32053
-11427
7414
-24498
13228
22061
-9053
-13348
19368
-27633
17608
1186
-2236
-7640
-6553
11123
22138
-24494
21764
17669
-15038
22172
-12585
-16908
28067
-17164
9738
-5018
5608
13135
-14575
-22428
23888
-3796
-4973
-6661
-3912
6134
8996
4417
22346
-23145
-8554
32515
4051
26357
675
-3042
15040
-6447
-3319
15679
5611
29447
-14369
-25381
-16250
563
11435
30004
-13169
22592
-20962
-25951
-20004
10049
-12075
-7395
-16526
14421
7775
-11556
-16971
27822
17308
26081
1195
-307
-11967
-18852
-18872
5278
-6641
4084
-1515
10442
31058
-19102
4487
22044
22876
19106
8100
-7354
31930
5549
-2775
9832
15434
10612
31000
1805
15655
-1483
-32733
-100
16976
-11587
5613
-6155
5540
6319
613
8431
31663
12
3226
-6182
13842
20796
-18818
-19923
5813
-30492
11995
-890
17975
11741
11718
25071
21052
-15425
-10746
-29623
14005
21956
24322
3981
22861
5402
12337
-5241
-10712
-5442
12202
-14943
29161
-8436
269
-16177
-12900
2988
32630
-11506
13820
-2747
15353
-450
-6751
1346
-3119
-28024
16979
-4763
-24312
9328
-20334
-252
32766
2590
3251
6783
1050
-4666
-4511
-16180
17703
-29893
-6300
-15188
-29034
29824
-5210
-26119
19785
-2550
-6089
-18206
-1234
9852
3777
-15999
-2531
117
-385
-8533
-8721
15275
-28988
-31641
-2435
-12484
-30295
14848
18736
6397
-16485
-9131
-11683
7252
2214
14963
11013
7731
-31841
-32163
-6259
28591
8666
12582
-1952
27751
-2505
-23249
-17826
32657
2673
-8120
11987
-1101
-11805
-12945
-30101
24656
-9275
-6031
-14830
902
16803
4341
-8651
31640
8517
12232
2102
-3622
15367
23589
-22741
18821
14820
-3928
19745
8616
-21315
-6502
-30128
-26203
19674
6535
812
-3196
31147
-1783
-14620
17804
27508
-9237
-2937
-25070
6382
20829
-2727
-19650
12261
-1129
27149
-23368
22968
-464
-866
-23434
22901
-4977
4975
-20037
12721
6818
18114
-22037
24248
-3580
-3841
-25291
16032
-16407
1476
-21615
24625
8537
-7033
-29655
3169
413
18837
-30155
12818
3727
-1514
11720
5052
-15101
29079
-14382
18134
2177
-302
-4772
702
3969
22647
-27764
-17402
4412
-22429
7265
-8402
-12949
21174
-24243
22043
18706
-4769
9327
-28971
-18058
27341
28719
6407
16907
-27217
-9806
-10020
-4565
17521
-244
7423
11033
-5885
27180
-18300
-32086
6640
6894
7668
20403
-509
-1472
-8728
-32428
4699
-15813
12978
14647
1317
14395
11807
-23037
12347
830
18446
13417
1767
29047
15163
-27352
-18041
24240
-6015
-6517
19872
-3800
-2344
-7202
-31965
-2466
839
-5210
21409
10392
-14064
-16283
-356
19173
11024
-5024
32379
-1314
17440
8981
-31512
-9116
9815
12785
10983
3851
31524
19891
981
7307
31941
5600
5650
10987
21775
-13251
-10315
-644
32760
-26230
-4060
-4450
9626
-1279
11812
26442
19350
-19900
-315
-26744
13934
25406
-9968
7929
21630
-29737
-1222
-21279
-24917
23151
10354
-32745
1181
3331
141
-18386
18218
10074
31179
3441
-4565
-16692
2352
4966
9750
-15135
29062
-11322
1417
-22613
3292
-24861
-6300
-1793
32717
-6920
3970
9928
-7696
-2554
10914
13634
18202
-1715
10261
11551
-15220
5372
-32323
-413
6389
-30405
12214
19242
-3160
17712
-16138
-12428
30318
7398
6792
537
5317
9323
-6926
-20940
25202
22138
-2395
5790
7136
149
-16419
-23092
3156
-11341
12260
-1261
1700
29612
-14028
-32766
17
16412
16296
10887
-7580
18845
-8532
-22211
-16296
-23601
18251
32760
-632
21941
9102
-32171
-6217
17960
57
-3741
25970
19167
17479
-11326
-18253
-7560
17933
31666
8421
-3194
14191
-6606
-1897
32582
-3473
-11444
21395
-18590
1814
15621
-28756
-6759
31302
-9118
4678
32639
2888
29690
-13861
22351
16402
4492
9041
-10196
-11701
4834
-1051
5797
4802
-11758
-1894
-13896
29674
1652
-6503
2155
-6638
-27403
17964
-26799
4278
31384
9418
24668
7117
-9892
-5764
-21778
-3450
8805
16531
-14847
29210
-726
-4642
-13216
-2253
11695
30608
-19861
13388
6455
16822
-15469
-10080
-3989
32523
-29396
7928
39
9086
737
2712
9229
15817
-29450
-14365
13529
681
-10811
-14979
-6524
32110
1094
16544
-8071
-22762
16810
-20311
-10296
31107
-6052
-5033
-9048
-18136
29044
3489
-2009
27194
-4755
-12981
21665
24582
3150
-17825
-27226
18230
5187
3312
2560
-5151
18456
-8241
-2901
-17274
3975
-32524
22668
-11129
23784
-10510
-21923
-24352
-2633
-542
4151
1757
11126
-18020
-42
-14939
12534
-3815
2671
13460
25834
-20156
-18174
-22491
32459
4480
4307
-8128
2448
14160
-14054
-29600
30157
-10029
-7854
-2549
-14325
19362
-3452
-24738
29314
14641
-12848
-5350
441
9942
-4232
-5153
14768
29250
-8139
4657
1182
2293
-2091
-10785
22273
24032
-7673
6744
-23842
-5066
16351
-5512
1386
7868
752
32758
-26195
-6619
30264
-12560
-27170
-7757
-8590
8900
-8026
18033
20306
25716
22318
18675
-7692
14460
-22891
-11301
3607
32567
-14806
27031
7932
-669
-17990
14793
-3416
32588
-27854
12744
-9587
23223
-9234
-10668
918
32754
-6824
5300
1574
-2987
2754
9697
2936
32635
-17560
7819
-672
-7231
21066
-738
-13339
29928
-17585
17166
21421
-13894
-778
-11219
-11539
6785
-32344
-5246
22312
-5098
7105
-4972
-32685
2310
-13785
9390
12750
-10797
-2497
-7295
-31034
10512
6096
-17241
-1356
606
11100
-8774
-6291
6788
-2259
-8020
32516
-4046
13607
10958
-7175
-8677
1085
-11195
3974
-2738
32754
913
5643
-9769
23550
-8094
14666
29301
12006
-22676
-26018
-19918
21688
9070
-26438
-4938
4237
-6552
-13126
-30022
17105
20490
-3758
-30362
17024
25999
-18550
-9787
7037
6262
-5449
32310
-14479
17887
3977
-5809
20317
25707
-22998
1406
13049
-826
-3586
15365
16556
11517
-7276
14999
-15853
28676
4593
3009
1876
4703
981
-4329
-14128
29564
28603
15086
-14985
3691
-12516
30282
-3521
7323
-177
20271
-13428
29888
-8371
-10638
-8922
20592
23793
17783
6599
7187
14734
-2860
-32766
-176
14981
29141
-6113
19086
-6188
-11166
14908
-5124
-7336
31935
-18601
1416
-10602
-1362
5424
6068
8632
31609
-15575
-4284
9692
12074
7535
-7835
-9277
31426
-4770
-9903
-11246
-5786
11567
-2414
-27951
17099
782
1337
-8757
-9008
1815
-10421
-6258
24829
8434
-13690
-10758
10661
24740
-21484
-24649
19713
2266
655
29091
-15078
15723
8614
-23682
1684
10284
2272
-10362
-16508
32702
-2056
-29513
-14234
11977
8079
6432
4553
-2386
-10557
-6401
-11279
-4354
10249
-2065
4733
31383
-9420
-2722
-17782
32296
-5535
1631
14990
2037
1316
-1241
-17006
26952
18634
-5022
18412
4009
-11304
-3060
-4858
24706
21524
-12076
12571
4693
10276
21989
-6249
9377
20217
11994
30492
-7664
27206
14176
-25888
9459
13034
-9775
24256
-32648
-2787
4301
6814
2704
-1874
-20075
25896
-19505
12721
-3491
10626
-7752
15599
-1125
12698
-28451
16254
8462
22719
-28435
16281
5693
11860
3347
14232
10089
31175
-16153
3073
-17191
19064
6466
-2287
-7166
31973
-17603
7180
-10762
1444
-12546
5055
-806
32757
-19417
6672
1168
10427
4531
-4156
-8496
31646
-13818
1737
2926
3198
1518
-700
-6256
32164
-10073
-2382
18250
10510
-3394
-4478
-19664
17708
2851
-4391
3640
-32564
16572
-20398
-32760
674
-29524
30
3882
501
18632
-11180
-20940
25202
-43
26078
8891
933
30876
-10362
-16622
13203
-9663
-16995
3769
10955
28731
15753
-17954
-9640
-2337
-5265
-4979
13349
31922
-7392
-13327
-29934
15262
-3382
3701
-13323
-2741
1402
-6668
-29446
29014
15225
3760
-12378
7914
3628
-20775
-13889
-7140
31979
7370
8263
-1523
-1326
9442
-25357
-8532
8079
11459
3798
7388
31923
9539
2840
7986
10390
4623
32439
-13602
4577
25575
-7308
10223
23122
-19822
26090
-7197
-5380
-7080
10378
7391
23372
-31372
9458
-13467
10753
9338
15602
-9839
31254
10591
-492
-14728
14825
25787
20215
-30294
-3806
-27206
11766
3718
8350
7042
32001
-13563
12357
-6285
-3869
-7586
11517
-3748
13629
-32739
1333
-27599
-17424
10723
-835
5380
5853
-18044
-5075
17053
10365
-25972
-19977
-4317
18344
-16078
20572
5680
-2919
4457
-32462
-1085
27426
-19670
-10227
-3005
15963
22882
-23453
-19560
26288
5768
-9392
-5769
-19076
18903
-7208
-26756
18914
2028
9753
4567
7110
13425
-22064
-7221
-6417
-6756
10899
22475
-3823
20564
-25510
-25329
4319
29961
13265
9223
-429
-1869
-12513
-7480
-17580
24501
-21756
-14170
16503
21285
-20498
-8947
-18990
27214
18249
-1595
-6510
19091
-13182
-1293
-32741
13096
-2043
-11266
-3372
15266
-913
4705
-17033
14532
29368
5022
-5420
12594
-2907
-16195
-21460
5957
2295
-27981
17049
-5229
22038
-12320
-6786
3255
32604
-13591
24167
-15438
17186
21863
13051
10626
2421
3702
32557
-18383
13825
31823
7806
-2354
10746
-257
11856
5784
-4337
12010
10676
2519
32669
-7743
-9671
-332
-3457
8768
18994
-32766
-176
-18198
12976
393
11833
7465
9625
-32420
-4755
7148
4040
-11761
8748
13635
29795
-20629
-24295
-7599
9959
-2764
8990
5475
32306
-20506
4179
12717
17115
-2245
-14796
-18255
27210
-24243
4534
-1664
4705
6158
-4152
-18643
26946
1081
-9066
-6879
-1304
851
-8771
-27006
-4617
4523
8953
11287
-30761
-11513
-8122
-7886
12053
32427
-4701
-9456
-9348
14014
-27470
-10373
2707
32738
1361
-99
-8727
772
-19432
-31779
-7984
11000
17026
12067
2102
23730
-22314
-17568
-21581
24504
13372
2861
-32641
23251
2717
-4533
-16232
30446
12111
12252
-2960
-3787
-7564
-40
-13519
11028
-1448
30757
11298
-20303
14898
-3186
-28311
25431
20661
6837
5291
-6639
17264
12315
8139
17582
10251
-8812
4307
19231
26529
-7187
-994
-6297
32156
2155
13447
-7220
27517
31765
15
21221
24966
2257
9111
-15602
-384
-6491
18832
-1830
32715
-8057
5706
-3618
11122
24329
9525
-27559
1274
23623
22706
-24760
12667
5069
22525
-29713
13811
-13630
-6385
-3390
19352
13833
29703
-5618
8468
-11913
5083
-15769
-13294
21937
24339
-15815
10849
15022
1922
-12336
-26168
-8824
31556
-19093
15217
-327
-8876
4470
-7938
-8556
31630
-17453
15169
618
-19704
26639
2227
-9462
31370
10087
-11348
-4709
7000
64
-11410
-6828
10212
-4740
17493
4816
-11390
23247
-23092
5928
1841
2068
-2759
28845
-15544
20937
-19363
-31688
8338
-12289
-12019
-2630
10244
20343
6678
-15827
10829
13708
-4772
17913
11662
32583
3462
-19717
-26170
7896
-4061
-8144
-6108
28177
-1782
-17293
-6442
17227
-8632
-14451
29407
19039
5623
-12587
-30252
28796
-2073
-2849
-5602
-7364
20189
-6350
-20519
499
11607
9976
31211
-5675
16537
17109
815
26812
18835
4945
3530
-1109
12685
5850
-18437
-5704
32266
2728
5210
-8818
13462
1732
28944
-1255
31987
-7428
13349
3929
32530
-9784
6505
-6223
20167
-13026
14395
-30429
12153
7099
29172
-7249
2896
-24515
928
-6738
32066
-350
23957
-12258
30387
5999
4942
-2171
72
221
-7707
-30101
1493
-6294
2135
-26382
-19433
-1558
23195
-10032
30555
11347
2454
-17601
-27638
9833
30123
-32755
-863
13548
-9224
13557
-10884
-5237
32345
-23409
10084
6828
-11341
26238
-1120
2384
8239
-14656
-5343
-599
-8351
26283
-19566
-28447
8405
-25012
-21167
2874
-2752
10531
14578
-21323
24879
6856
23211
5025
-3748
24815
-12064
-32618
-3113
5517
-888
197
-659
16811
-12727
-31814
-7844
1869
-21500
-932
9820
11492
13042
-7541
-31887
23040
-16595
20772
4905
-14540
-4938
3503
-7906
32667
-2547
4377
2997
-1870
-875
-15812
-28699
10394
-7136
-1413
-4722
-10068
21910
11329
-30746
17314
4743
-6161
16976
-1643
-7814
6626
-18393
26725
18957
-11107
6814
-11469
-2583
2171
1222
29243
1375
-18745
20990
-29504
14253
19862
-6507
-13774
29731
9587
4775
-3122
3539
-8201
20970
-10548
21747
-657
18633
-24273
22010
-2984
5364
-31304
9680
-4644
4297
-18510
20274
29501
13430
-12237
-14526
-25130
21026
-11277
-19579
-8771
31571
-22934
19043
86
-4093
-8770
10904
900
32754
-18377
20106
5530
-6539
10921
-252
5163
32357
-3287
13474
1035
-12677
12671
-14591
-8332
19472
-30038
-13090
4793
15586
4639
-15632
6327
10852
-14630
-19671
-2264
3178
24623
-21618
-25369
20737
-11861
21384
17328
-15315
20299
-2080
4473
18126
8847
-23657
-4580
13663
29291
-14685
-32010
7000
-11761
6936
17666
20524
579
-2341
-8594
-6549
32472
-4386
14195
5673
5931
-15150
-19735
12111
-3112
9746
28382
16373
18955
26721
-3467
-32583
29352
9470
7045
-13151
593
-3081
-17500
-27701
23739
-1579
-13554
28048
-17221
-1780
-1860
-17450
32760
-635
-7016
2071
-21260
13255
7488
-16030
-5136
32361
9635
2934
2737
18452
7261
-1568
11912
22416
17578
12362
-30564
11811
2292
9924
-4231
32492
952
9498
-5977
6662
11409
13235
19476
26350
-24386
-7940
-16894
5160
7767
-2186
-17465
3238
4176
-18750
-20383
25655
3452
16762
-8881
31540
-2253
-10863
3892
-5922
7441
31910
-6528
30565
2062
-23110
-11360
-7606
-793
32757
-25359
-11180
-6586
-503
-1152
4638
7889
23390
-25953
-20002
-1632
7694
8571
-14874
-17094
27954
-6250
14855
-9976
-7435
18284
-11270
-11082
1063
-2662
-9854
-1644
-10591
5501
-32301
-4155
-7598
10916
-5954
-4881
-18869
13423
-29891
-32202
6055
6538
7919
17510
-4703
-1972
-5134
-27407
-17957
11861
1956
5710
-11907
-5057
-9524
-20351
-25680
7934
-17654
11190
-15553
18651
14553
-25424
-16600
32684
2318
5857
-17945
-1094
21846
-27849
-17264
-2280
15583
14582
10915
-12188
11927
6182
-4415
11015
12576
3247
18863
27950
17100
19514
-8432
30339
-4397
19677
26200
-27989
15559
13249
-20862
1393
32737
7029
21929
-11013
15909
26089
-19824
-1176
31935
5
-1630
1573
-2855
17856
3140
28673
15858
-9291
-8033
-13373
-1915
31872
-7603
-8188
-2069
10231
298
-23356
4950
-5353
15751
-20898
25237
-20101
21177
-6846
-13046
-2672
31278
-32408
-4832
-9737
17643
-18232
18210
-12894
30123
-13539
25083
-1696
-18749
-22095
6101
-16850
28102
-2171
-3045
-25170
14018
-19564
-21831
-12885
3952
-8400
12926
-16659
-7684
1908
-32711
-27956
17090
-2335
18804
5773
-23196
-5187
-12274
-3176
18482
-14834
14333
18114
-21675
31482
-9083
-26666
19041
-1862
2705
9891
-88
7921
-990
-17120
21470
989
17357
32423
-4734
24938
-3452
-4310
-9160
-16801
-7625
14981
299
32705
-2002
-13554
-10079
31406
-9344
-3725
-6758
6593
-600
-16596
-10923
32502
4158
18022
27061
2638
-2690
99
-9813
18358
27141
21240
441
1655
-4880
6036
-3966
29116
-15030
-9850
23364
-277
14245
7317
-31461
20041
25923
13696
26613
-29299
1759
-2994
-6133
9121
13229
-32088
6633
9048
8433
19018
-3196
6196
32175
1242
28413
-23336
-289
12064
-665
-10380
31079
805
-13412
-6754
25148
6795
11611
22887
23448
-5470
-16256
-22206
7515
12563
25194
-765
1117
-16405
16597
-32597
3331
1597
24072
-26229
19638
-8077
-12546
10335
11282
-18905
8910
-27493
17826
-4131
-14431
-11390
2461
-8978
31513
-14559
1504
-6595
-4680
5463
9598
-7987
31778
12730
12610
-757
-15391
-7142
-18855
3310
32599
-16605
12233
16900
-851
27587
-3652
-21930
-6772
9439
-13412
-6366
-11751
-11988
-30495
-20880
17985
5443
-17977
-8330
-23172
24722
21505
-20474
6218
29022
15210
-357
-23224
22874
-16803
-2139
-1318
-1083
-13660
11595
2933
32714
-1846
-7707
-31847
-7991
4918
25075
-6869
28318
-4029
2355
-10256
30187
12744
17221
181
10853
-3836
-8655
-31193
32141
-6371
-26367
5993
8319
-4586
16561
-9043
11528
30672
6920
6437
27210
-7021
7574
-15866
29661
13922
-3832
12756
-16554
-6400
7952
-10351
23263
23075
-14013
7569
-11134
-7373
29091
15077
8607
12782
20936
17349
-13714
20362
2532
-11580
9315
10873
-5133
-3370
-32672
2492
22468
23849
4798
7868
-5109
-6206
3420
17738
10062
10078
-12649
30226
6384
-4988
-3780
-9199
21945
24332
-14190
11448
-4617
13857
7348
-20461
5400
21411
-32750
-1050
5087
15280
-6919
-8639
-1072
32749
818
-21336
1477
10744
-22650
4752
-4401
25870
-7004
-32009
-5634
-908
-9387
-20115
5702
30294
-19015
-1117
20473
1733
23949
-22362
-15178
29039
3363
-1567
-2497
-2533
18837
-5194
-13259
-8062
-26046
-756
31863
-7640
15466
-11320
-32757
800
12573
-1719
9793
-11897
4377
3468
-25505
7322
14925
10176
32738
-1377
-987
10469
12198
-1244
28333
386
30275
12533
24820
-8287
5269
-5579
32763
-461
25081
2505
2012
13072
-8974
-31291
25485
-11997
8124
4055
-11852
30548
-6930
-6100
27627
17618
-5575
-11586
-1426
18496
-1865
1441
18243
11272
-1618
8897
-7751
31836
8151
-18218
8568
-1854
-23159
23179
-14061
5102
1760
-417
-4118
748
-2182
-4233
-9020
31500
17794
21055
14398
29433
5069
-5822
-18312
22725
1902
32711
-4079
20580
-23338
21243
-8310
4567
3090
32620
4116
14712
-6325
9503
-5166
4004
12823
19773
-14753
29257
-1066
-15374
-10221
-18900
-4607
32441
-22827
19516
9501
-14361
-13056
-2122
4385
32472
4736
5209
862
4069
1709
-10093
-2395
32679
-2650
5991
3884
-2847
13180
170
4631
25541
-1918
-16688
-8045
13362
21206
-24979
-11701
30418
2289
-578
15974
10308
15908
-28646
-13330
25168
32620
3094
12313
-8791
3189
-3297
-13854
2327
26457
-17161
31689
-8331
-16536
12342
-10440
-3444
24463
21799
5660
-20718
22552
-10532
-7945
-31789
14609
3762
15164
6390
5059
-21523
-52
-22781
32707
1979
6953
-8064
14563
8820
1141
-32747
31238
8414
4187
-21918
-4603
10348
-10995
-13112
18348
27147
334
4332
-8518
6731
-1245
-12819
28049
9897
-13130
28425
-27869
17232
2001
18400
27297
7510
-13191
18094
-17177
27903
-6430
4159
-15275
8059
-10615
15543
-14593
29337
19803
17134
-2920
2147
-7793
2987
-10848
30919
6882
21495
-5384
15893
5012
985
-26559
19189
32356
5170
-5787
-836
-28163
3805
2304
-31096
19706
25566
-30545
-11860
-1262
8981
7298
5010
11934
30516
-14481
8436
-3635
9976
8254
-22231
3925
23545
-27449
12654
2865
10149
19973
-25976
-14912
23928
-29763
-13703
12164
9791
-1198
1535
-15581
25331
-4530
3302
21614
-11145
5192
-32352
-26309
19531
-2657
15564
4113
9133
10134
-22683
-32042
6850
23551
4657
-8489
-23506
4826
856
-6340
170
19366
-26431
-6161
2941
307
3062
-10988
-4146
9666
10943
10420
-16955
32250
5796
-7945
2892
-1856
335
-2828
506
29481
14301
10424
-5203
31849
-7698
3180
-9253
9741
13850
6798
-13506
14201
26881
13738
-4632
26928
18668
-868
10755
16787
28140
5809
7076
4404
8941
-18548
-21378
11279
30764
-21060
20555
-22687
5326
30710
-11425
858
-3489
-4579
26546
-12302
13583
31541
8878
-1595
-3994
-7239
17250
-2223
15379
6663
30951
-12975
30088
6349
8336
-1252
24811
1126
25105
-3269
1399
-26141
-2567
-17063
27973
17288
22446
-27037
18510
326
12782
7070
-12190
-4182
22456
3185
18207
-10214
5948
-23546
-22786
7355
29972
7209
6608
-28822
-15586
4650
-32434
15126
29066
-27175
9038
22854
-15133
13115
-26811
-19088
26632
-3022
3008
-2179
-1033
1074
-8777
-11106
16626
-7655
17823
9884
-19532
25920
-20044
-315
32765
7516
-12074
16821
5720
18097
1500
3860
29982
31365
-9480
11182
5106
20440
-7844
-28946
15354
13229
-6376
13983
-4759
23452
22232
-30184
-11009
27649
17583
22665
1746
-4224
-8560
1194
-4419
27819
-17313
3500
8177
19747
15622
-12027
-6990
22774
14701
10419
-4961
14509
29379
6029
-19086
30619
11668
25139
14460
-25952
471
-15297
-2087
10117
11593
-12108
30447
-9069
20263
-3967
1992
26612
19117
-16967
5899
-10967
8888
25725
-10795
-401
12991
22041
24245
-29031
4945
24766
-452
-31280
9758
2863
14439
13958
6409
32483
4302
4870
31436
4086
-16268
-7638
-3882
-3138
32616
-9309
18281
-20385
6998
-8844
13904
6205
22704
-4244
8282
-1954
-24415
-27965
17076
13553
29832
11206
-19443
-14929
-18823
-17632
10949
1193
9641
-6713
16537
-4706
-14188
-4395
-32470
-9796
31268
-17541
-11591
4172
-876
2702
13286
8547
8222
-16046
-9366
5606
-10290
20672
-25422
-876
1845
-4252
-5924
241
-8324
18125
-27297
-22262
19029
-9780
7149
-9228
10182
28966
-15316
-32580
-3492
14703
-10795
-3137
1146
-9509
-6181
-8356
-20161
28897
-15447
-5496
-11247
13306
-17769
-5235
-12885
12554
-10575
-3782
9800
31381
-9427
-15056
-29103
19455
11574
2945
-9339
3800
-6563
21009
-5502
32448
4556
8133
14371
20290
649
-560
-2443
29394
-9376
-2301
24057
-8972
31514
32141
-6372
30200
-2396
18421
9698
-10290
21692
20853
-3221
24108
22191
12324
1814
-14056
2271
8311
17598
6199
32175
15569
-614
-4493
18407
22529
-8608
3768
-1390
5306
10791
-32615
3151
-4814
24421
-23698
22628
2287
19771
-19858
20524
10442
26446
-21726
24528
2032
4887
19027
2943
13352
29923
806
21595
2831
-9427
-21408
-7583
-4272
32487
-7001
12063
-6099
-11100
5036
10827
3851
32539
-13175
-5726
5358
-4148
5401
8730
-4227
32493
-4553
-27160
153
-3077
-5095
4913
4954
32071
14278
13586
25652
-20386
5633
-17716
8258
22672
20751
1052
2648
-21154
26825
-18816
-32051
-6810
14877
-10791
3659
-24224
-9402
-2437
-5977
6954
474
3616
10231
-8926
32446
-4573
-11101
7125
32408
4835
10483
-5839
-7537
293
-308
-12320
30766
4545
30614
-11681
-1731
4464
-14528
-2394
25083
21082
12413
1126
-4102
2393
12458
-15096
31597
8674
1479
-8457
4649
-6844
11561
-10370
25374
20731
10919
-12258
6406
14963
-4654
-24942
16274
28439
-8881
5523
-11433
-617
18407
-2642
32034
6891
829
10667
-28494
15698
32279
5631
25751
10094
-5906
-14806
6433
6186
31841
7731
6575
26793
-10251
-7186
-113
5916
5758
28726
-10664
-1210
-5796
9150
-5749
32258
5126
27724
-24359
21915
3044
4510
7133
9251
-10065
19606
-21718
24534
-22484
-4746
7897
-8568
12965
30092
-1280
-3217
-19241
-23794
11833
755
-4719
32425
-7953
7135
-6009
-4819
4027
-10231
12285
30376
9325
-12511
-3275
5989
9494
-15497
-19990
25962
-7376
3997
5143
6312
2601
-8497
-27864
17240
-3610
-3158
-14390
-9268
21528
-21
-32676
-2431
6229
-14127
12217
-11946
-4524
-799
-5100
11820
32238
-5860
2872
2871
6423
-12723
-32690
-2241
2345
2101
11722
2035
1079
13561
-20106
-25872
28378
12761
16368
-20190
10376
6029
5520
-31851
28271
-16565
-16409
905
4878
-15152
1841
-9219
32704
2016
-4478
-8762
1274
10419
2801
-32196
1720
32721
-1548
928
13070
-12335
318
-1653
32754
-909
-13768
5978
-19583
4461
7349
-2181
14811
29228
-2878
11218
-9803
-8332
3752
6731
26724
18959
-12280
-2039
-23286
11600
29508
6054
-4873
32402
-3487
7046
-13530
-2390
26882
18734
-6030
4102
-6374
3604
-5431
8129
3540
27333
-14270
29496
-14112
-12889
-11939
3421
5738
32260
8138
8452
-3611
-6532
-7796
5460
8425
31665
-851
-1788
-263
-6630
2340
6974
-3820
32543
-15807
5149
-5467
-5582
9732
-15101
-365
8094
-32541
3839
5891
-19167
29203
-2261
-14297
29483
-63
-15116
-12830
4580
18156
-17103
-28368
16398
-769
-21438
-3591
-7898
14963
-5111
15348
28949
15405
-6917
19693
10515
29098
-13962
-4710
-1507
23980
-12385
571
5462
20404
-25638
384
-1309
32085
6647
12139
14084
-5202
-28110
-7025
-4044
7762
-4222
11548
-6138
23825
22494
-14528
-17791
22943
23393
17870
2111
-6467
-288
18845
-17365
31577
8747
15331
-2722
-117
759
17925
-27428
25334
-15892
-4011
1284
-12625
6225
146
-19101
12140
5160
-13290
6187
-13778
29729
7933
4383
30298
12476
-7531
-7504
-18573
24255
-1730
20029
3044
32625
-20440
1643
8900
13349
1665
1032
-3980
11799
4423
5313
-30467
12058
15966
3890
-2677
20480
-6666
-13104
-32687
2274
-4737
3977
-12794
16774
-29011
-15230
-15847
-7983
-12290
30374
-6747
22550
-12649
8145
-8785
-10527
6963
32018
-2530
-10065
-14025
9676
1766
-9539
-6961
32018
-7210
-1123
3120
1705
2738
10960
-22153
20240
-30853
11033
2051
-4597
16106
-7271
-26816
18829
-16938
-2368
3270
-13851
13975
534
-671
16764
-5411
3572
7647
-358
29524
-14211
-11018
6399
32766
-115
20833
-18912
7292
-19891
-9285
18633
24552
3272
15822
28693
7185
-24826
2142
-7290
18378
-9326
-10140
-5578
31770
-8018
-16696
-28193
19231
-689
19088
-9681
-12249
10955
-227
-14354
31336
-9574
8367
9798
-8277
10268
-1395
-22075
18073
27331
27112
-7432
-12554
10068
14739
-28991
32301
5505
-18483
5792
-4121
-9216
1076
11633
22572
23751
293
9380
-9296
14644
26987
9021
20303
23832
22627
23699
-29037
5146
29054
13055
-5209
-2969
-15368
28939
-11480
23408
24976
21209
-383
4024
5646
9279
-13558
18740
26359
19464
-2880
6251
4420
14943
-4333
-7254
7803
1305
-29739
13756
-954
-971
-4181
-11364
15582
28824
-18672
7264
-1127
14345
13316
-13141
-11831
15474
-14728
29270
61
-27300
719
-9336
7187
31969
-262
1612
-727
-27009
20429
1767
7134
3571
-6787
4723
5697
-21847
16378
-28379
14139
-1043
-9222
-17581
8342
-12293
24380
-21891
-18896
26769
-2219
7446
15539
9233
13218
-10793
-27059
-18351
-606
325
20578
-25498
-2181
926
-6440
994
18456
13553
7828
4312
18119
-27300
-17415
3302
16742
-1608
2864
-14364
21671
24577
-10733
-25073
30934
-10803
6330
-14571
-11711
13283
-28604
-511
17749
27543
-3316
17646
13306
13655
1057
-11712
29812
10943
-15864
28670
2644
-6209
8572
-12811
29671
13903
-6172
14018
-12408
-5279
13236
-552
16377
9214
-22800
23533
5130
-10648
30562
-8046
16087
28546
11843
18820
-31445
-224
32558
3694
15847
21013
9552
-580
-19114
1459
24288
21994
11009
5160
-24902
-3170
843
13310
2739
16352
-21793
24468
-5061
5452
-11306
-478
18991
18269
-12164
4714
19086
13043
-31229
-9919
1563
32729
7275
14361
-6147
10481
-3793
-12483
23565
22767
-27379
-10687
19198
7858
577
-16889
-6790
24263
-10300
15829
-5412
9566
9039
-31495
-12209
30407
-12607
4287
6973
8884
10098
-11192
-15603
28813
2540
6306
6956
-2322
14305
-8511
-15741
4621
23321
10571
-1064
-27461
19452
-26368
-15317
15196
-3082
10022
6671
-4107
32764
-422
-3584
-15996
6722
5913
31442
-9220
13468
-12615
-31605
8646
16197
2332
15530
23902
12852
11709
10973
-30874
14403
7028
4024
-5105
22680
-21482
8335
5982
31890
7529
14378
10263
194
6368
37
-19951
32581
3477
6608
22485
-31127
-4759
983
-20540
25282
20843
-5914
18338
-18799
-4749
14250
-305
20913
25224
2175
-5596
-3408
4179
31631
8551
10672
13326
-6801
31762
-13219
10310
32732
1513
18045
-4780
-11231
-8387
-14793
18235
25360
5463
-6152
-7843
-18431
-9418
-19784
26119
-5516
14268
-6897
2312
-1959
7060
-30223
12657
7096
5013
-13643
4618
-7928
-1086
-28422
-16305
-265
32765
-24672
4202
-8082
-24662
4707
13557
-2662
32658
-15807
5234
2520
-25599
13569
15726
-13464
19779
-3797
-12263
19918
-8511
-31891
-7524
-17517
17566
-9127
2175
-23203
-13970
29885
-13437
-23783
22538
-12018
-15788
-15908
-2322
25892
8130
4040
-2754
19733
-26158
-4963
-8678
16132
-24482
-6686
9436
19226
-10242
-11513
16093
21753
-24503
3990
-21470
-7011
745
32705
-1999
9315
-12184
-7540
2271
20375
25661
17882
-1359
21081
-7747
-17003
-27567
21870
22989
32658
-2658
-230
9730
-758
-32758
28950
11150
-17328
-7485
16631
-5296
4105
-10222
29684
-13875
-6988
264
-11644
20251
22443
258
25816
-20179
-385
25233
-14109
15860
18310
-14603
21587
-9381
1819
10271
-31034
10513
31482
-9083
23603
8614
-20094
-14856
-2101
5761
5523
-5920
11217
16328
-11574
5716
-32575
-3535
-6904
25721
12329
30358
-13500
4688
-18056
1613
15848
28679
-8095
19222
1049
19141
-13626
-12055
1927
32710
-7178
18961
-4565
-1849
-4008
883
16921
28059
-17108
15556
10658
-7138
15438
-7107
15782
28715
-8796
-12787
-5309
13175
11950
-18478
-778
32757
3408
4531
-5830
-20348
18507
-12558
-9646
31314
1507
6396
-7816
2717
20241
-4637
-8477
29784
26194
-19685
7534
8367
-9989
-4114
3694
11156
9994
-1454
13476
824
23141
-23197
-4423
-5746
-6285
-18245
2078
-2846
32580
-3488
-13496
-27711
31545
-8864
-1815
-29036
21381
-6467
-17607
-6862
32223
-5942
-13240
-6898
16474
9732
1275
-17893
10017
27025
12267
5326
30716
-11409
12426
5468
25611
11728
24031
22275
6670
11915
-2245
-6715
28565
16053
6037
15022
-18926
5694
-869
-7925
31846
7711
-14476
2294
-17730
15653
12438
1792
17254
27856
-15529
-5595
8153
9597
4558
6322
14716
-5634
-4528
12738
-28200
16685
28366
16402
4370
-1372
-922
6399
-16994
23064
20922
25217
7649
8520
-2544
4744
-1603
4503
12539
30272
-5633
14434
-14436
-8703
8810
7958
7451
16130
-31996
7064
15844
3281
-16816
-686
-15548
26283
-5543
-4501
-3398
2219
-32591
3383
5328
32330
-11335
9283
-265
-9995
22881
-7465
-17458
27728
-5322
5418
-5142
16393
-2694
-22027
5853
23052
-9537
14500
9687
-2076
30774
-11251
-31339
-5326
-418
-12285
-11486
-28466
21013
-25141
4463
19264
16000
-19997
-484
2913
30985
-10657
3735
15495
16462
1087
6235
-4369
32494
-4217
-14771
-27065
-1128
12180
28601
11988
12712
-30200
9304
-31418
18179
-14113
24847
9232
496
-9825
1191
-20155
32681
-2368
6895
14609
-9370
-8515
-1810
-12406
32232
5894
3724
15233
-16581
1037
11255
-10267
32663
2596
-4546
4963
-10004
385
-933
-23157
18817
26825
5291
-444
-27758
17239
22687
-14179
25702
20324
-7365
218
-13664
-10973
16763
17354
8361
17714
2286
18865
-24146
22150
24367
14450
4101
32509
4268
-2183
-17934
4803
303
-895
-13293
12155
-5330
-10309
-30103
12940
-1722
32721
-8442
12899
-27204
-9475
14076
15092
3989
32523
-10667
4568
9650
6890
-9674
8173
13612
29805
-1229
2868
-1825
9489
4938
-18184
10247
31123
-6857
-28689
-13244
-1884
10957
-10635
-30285
12509
-26584
6025
-336
-15659
6382
-6262
-8109
31747
17432
-7787
16153
-16748
-2083
11337
-5069
10888
9456
5632
13878
-28632
28681
-15844
-30028
8087
32449
-4549
-5262
-2754
-16513
-5351
-123
-14378
32501
3104
-1064
-21041
19131
-26602
-18042
811
4331
-6202
9052
18867
32638
2902
-24254
-21164
30535
11885
-4393
-10219
-839
-1793
-625
-1628
32574
3547
-966
514
-773
4882
4717
-26793
30270
12543
-15189
-14861
13873
4019
23809
-22512
30561
3993
-5722
-1228
-664
-2599
18459
-4069
22155
-1958
-80
-1161
-9939
31223
26516
-9095
24877
21325
-10504
9017
-10042
-19351
6223
18219
-10301
29069
4976
-3055
-684
32759
13964
16820
-28973
15303
-2732
13860
2407
16928
16344
28399
-12874
5148
12501
17101
-6002
12695
15334
23734
-31554
8831
14550
9113
-3002
6385
10745
13100
-16391
-2083
6494
-15284
-31533
-8905
6090
23256
2402
12731
1392
-10224
-12961
-30094
-9215
25955
7847
21644
-12907
-30117
16257
-12745
14287
20617
4512
-4424
12620
-30239
19920
-16903
-1746
17532
-1761
-15895
-11990
-9075
31136
-10208
3585
8341
11084
-30835
-4552
-3910
23023
-11277
-28449
15000
16960
26826
25102
-20756
28890
-15459
1769
-16293
19449
-9787
14766
-29251
10762
2529
16033
-26423
32073
2440
22298
-21486
28268
-16570
-13699
-29765
16733
-4135
2999
5868
-9463
-6869
-10391
-31075
19613
8962
-2969
-17107
-1887
2429
8139
-22101
15983
14023
-21599
15516
32702
2053
25951
-10995
26163
19726
4971
5687
7162
7841
14484
21161
18589
14033
-15831
28688
8875
11784
32333
-5312
27277
10663
-117
-7904
-8956
-1292
22358
-6939
-10307
1576
-10532
31028
-14875
-12829
5265
12668
3643
12133
1382
-24149
-9125
31470
29888
13430
889
9124
3872
2186
-10594
-10708
24174
22119
-10699
-378
-4777
-3142
3856
-2679
-10928
22136
5524
32297
-22667
-21601
-4827
-22403
-6809
1951
-32732
-1494
-7961
-2875
6762
-12427
4509
32455
-4468
-4024
-10774
23
25275
-6605
7418
10285
-11694
71
25486
2151
2986
-32630
-23182
23157
9705
3739
-8045
-1094
14144
-26220
-15023
8852
-91
5172
12509
6657
14656
-29306
4220
240
16786
5645
5514
-7994
21161
-25017
-32608
-3216
29563
1498
17451
-14011
8760
4850
-1178
613
32632
-2964
3522
-7149
8487
4023
-9877
-17899
32744
1204
-2600
-6679
-7264
-686
-9080
-20356
32372
5072
9496
-885
-16812
11898
5195
-5435
32764
-424
-3564
2411
-13052
1733
6481
-6449
23799
22522
6324
-2916
-11124
-5015
17716
-11334
30418
12181
-4108
-7534
-15553
3557
-5081
7180
14257
7114
-11201
16247
-27939
17119
30087
12977
-12050
-4877
1833
21318
-6401
17786
19847
26072
19365
18418
-3880
7590
-13153
-5579
27170
18315
19653
12782
-326
-10860
-15849
-8937
-6819
30928
390
-13032
-21305
8650
-30502
11970
304
32765
-13504
1740
11641
-13048
497
25973
-10071
31180
-9912
-6203
-12158
8772
2299
-161
-6681
32078
12195
-7851
3275
3998
-13140
439
2013
13990
3767
7532
-2094
-13326
19797
-26109
6206
13236
17174
10011
13221
-29981
20436
-12984
-4060
-2107
-3419
-9882
-4449
6777
20409
-25634
-10325
31097
26668
-8446
32485
-985
16069
15269
-7884
-6339
27820
-17312
7348
-7812
-1439
6042
-1873
-15225
32766
-162
-5027
-16502
2655
-7704
-21415
-3645
31735
-8155
-2189
8412
-3948
25907
9216
-17712
26215
19658
12127
-10268
-7397
-15373
17481
-7973
22113
7985
16459
28333
-12224
-2657
-835
-6717
22886
-7546
-3128
-3507
-21134
25040
17610
-7265
4241
32491
-12918
13739
11590
-17091
24252
14142
12178
-5701
-9102
31477
-12497
4427
9558
10859
18020
27366
4350
-6058
-25202
7767
4056
32514
-9051
22540
-1421
20740
-356
3356
10619
30998
-20965
5005
2824
16896
6176
10711
19415
26395
-10411
21836
-9893
-16437
11501
-14685
-10770
30946
-25067
12808
3496
24615
-8472
-12610
-20348
18787
-24988
21195
-6989
-14627
9872
-9163
5321
5466
-22356
-19703
32722
-1705
-15371
-8498
-3199
32610
-19650
-17800
1277
13155
26944
2093
248
-2444
4130
-32505
-5559
5186
8057
-25196
-15629
14447
3676
-5909
-1564
-15234
32432
4670
-9419
4843
29603
-14046
9608
3023
21824
-17843
-1781
-16434
29805
-8315
5132
-32362
17294
6225
3916
415
32641
-2870
5494
6370
-3480
-7347
4805
-17099
31086
-10357
2721
16366
-8010
-8364
-9568
-2920
15325
13211
-7800
731
20134
25850
25972
-13843
32339
5275
8215
-8546
50
11160
9048
-951
18401
27111
8472
-3146
-3872
1699
9002
-17987
-12247
30392
3043
457
-938
663
8104
-31749
-11567
25446
-12110
-7375
-29807
12444
16462
14541
12615
-7115
-20935
25206
-23726
1078
31719
8217
-13361
-13468
-15379
-6851
15131
12636
10131
22143
-10437
31060
-3369
7769
-15121
-23073
12578
30256
-8318
-1127
4005
-9626
-8949
10437
-14026
15960
-7487
31900
-12726
-17342
2557
-20784
-8432
31663
-15506
8029
7283
3873
-530
-10180
-15519
18901
-16924
-3902
-8695
-1576
10289
-31109
-1407
11842
-3791
-23295
-7299
-22032
28785
-15654
-4183
-17330
-15782
-11095
12542
-30271
21200
-9568
-7819
23854
31379
9435
-3356
-13191
26161
-11942
-27541
-17751
4757
-12048
3130
8507
-510
-12359
-17693
-27579
25372
-14262
-6520
-8381
-6871
-7788
13827
-8518
28171
-12724
29752
13727
17909
8684
1248
-32743
7191
-3049
9112
-7056
-697
1031
5946
-9982
32760
662
12699
1956
-15129
14561
12687
-23063
28533
16109
2980
1659
-10854
-5550
17417
-21324
21141
25034
158
-24348
-2822
18716
15434
4280
31787
-7950
-15727
1654
-17868
20748
-826
-13463
5763
20668
-26103
-19806
-14023
15015
28802
15623
-5158
-3204
7225
24813
-9162
742
18862
26793
-6401
23342
11068
871
4590
5057
14419
11902
-23313
23025
8370
2481
-8829
-16629
4041
32011
-31176
10085
6164
4441
-2303
1983
12434
20700
-28140
-16785
790
5393
17839
6349
7840
17388
-14451
8299
9586
11786
5679
-32270
2207
9714
-8296
6895
-2530
-10991
21357
-24849
-4147
17722
-8622
10584
31996
-7062
6224
-7788
13370
8091
13502
-1594
6625
-15184
26534
-19224
-21111
25059
19232
-2374
24724
6258
17743
-7440
-22281
-19694
32610
-3199
17143
-3994
-15064
-21703
3758
1731
32751
1011
17198
4299
7501
-8015
-13241
-29972
13689
3130
29078
2118
-21648
2579
3573
-25888
29662
13922
1821
12334
-2921
-24563
15835
-10061
21784
12842
3648
32563
6508
-11825
-4937
-28621
27369
18016
-11769
11186
-23287
-7161
25469
-20615
5474
28811
-2464
10142
1230
7332
14688
-9469
-11197
-15690
-17260
24691
-14643
29312
27392
-17981
10375
17442
-13265
-25436
-16527
8661
21344
21568
-218
32766
-9018
6943
-8296
-4892
31848
7704
-2187
5097
9767
98
-1266
-9729
7258
31952
-2287
27113
-6804
-6247
-6806
-8086
-1829
29040
399
28666
-5661
-32274
-10314
-9029
8201
31723
4906
8474
2127
-12627
6137
-4819
23016
5445
-12382
1607
14425
-3443
14452
-29407
-28403
16337
-9990
14567
16337
-19450
-6668
-5517
-29049
15158
-12577
-13800
-9037
-2038
15547
-3317
2690
14564
2552
-21162
6627
6639
28074
-16897
-660
-12038
13447
-27908
22762
-23569
6574
10417
-5891
-7626
32730
-1556
-3181
-22956
30685
-10398
-9716
-467
30730
11371
-7003
444
26806
-13171
1997
-10771
32537
3875
3425
-8696
66
-3597
4187
-32498
21801
-21698
-11484
2825
1259
7351
946
-21273
25418
20677
-9476
6466
-657
-15240
28146
-16776
19806
4555
-2024
-6694
10160
12602
17548
-24264
4551
8777
-10606
-2670
-9808
31264
13663
14487
8328
16791
-15936
21755
-15356
28945
27003
4390
17751
19048
-1316
15087
-30164
-12797
17927
27427
13107
9965
-7762
2594
-15159
12887
15612
13368
-29991
13196
7124
30771
-23156
-17336
1901
32711
-11203
15624
-10292
-18317
-27356
4845
8311
31695
-8789
-7225
8616
8103
-9960
6212
-3758
32550
-31623
-2959
-16708
-23255
25284
-1396
-3796
14795
-26061
-19860
-12230
-10327
22361
-152
-6526
6348
-8634
-31608
12756
-3426
-11197
-161
-27142
8492
18443
-27083
-24112
-369
-7544
-7336
-5762
10533
31774
-8002
17541
2015
-17108
-16315
-25794
-8145
32530
3925
8928
-10621
-3044
-22895
-10804
-17105
19152
5961
7164
-31974
23869
888
13244
-14816
32165
6249
11092
-11142
-492
-21102
-5182
-14176
29067
15123
1390
-3836
-7756
-15310
11988
-21986
29810
13601
5654
-23530
15882
10083
8167
-5709
32751
-1014
-379
15633
-16305
-2708
213
-32766
-13213
-12896
-2496
31420
-21551
10297
29821
-13578
18381
11442
6517
7935
-11730
-13883
5584
6674
7127
31982
-11673
6006
-7750
7847
31092
10341
17575
4261
-5036
-7479
-3410
8251
18289
27187
9102
17169
-11421
16163
-30960
-1650
16759
5356
3705
-8809
933
-731
-32763
-492
15787
28102
-26060
-19863
5906
7194
-20019
14491
-677
32760
-11175
1749
-10837
-15896
-15151
-8686
8893
21146
-30529
11901
11333
-27173
15448
-22110
-25285
6820
-27256
-18187
-852
-17722
-4250
5749
-1480
32733
13756
-2380
21001
-10858
1234
-18916
-23020
23317
-23533
-1146
15721
12647
22270
-10502
-12147
9114
13544
-29836
-20261
10158
17209
-10160
-1293
14684
5109
-8508
18641
8960
32399
-4892
-11020
-10053
28082
-16883
-21866
-7954
30493
-7492
-20544
-25526
8658
4330
7817
-9202
-5108
2765
-1630
-10090
31906
7461
-4763
17091
17866
-6910
-16258
-21470
28432
1271
1507
3734
-16547
28281
15230
2758
29905
13391
25975
16213
-18570
8685
8453
-4282
28262
16581
11157
-418
-22014
4988
13677
-3305
-257
3534
-22150
24146
4697
1695
31652
-6700
-11687
30611
-378
-6679
-3862
23476
30684
11493
9097
-2057
-4255
5176
-13927
9979
31100
-1951
20266
784
-25145
-13208
-30838
-11075
18711
26898
11777
-7090
-12921
-13841
-9337
16295
31541
8877
-12437
-2672
-681
-1652
4881
-22977
17853
27475
-3816
-8168
10606
-7765
-4866
906
-4223
23770
-31964
7207
15391
-8270
8993
-3165
10930
5048
-29441
-14383
17387
10041
10124
-13370
-25930
20031
2854
-17960
11559
3059
-20381
4356
-4335
32478
16169
-10309
21736
-21314
14097
21091
-18255
-2544
3799
3461
8216
-10904
24017
-22289
-9303
-27866
23694
-13574
3273
-5434
136
-32766
1800
-16224
28136
-13144
21566
-10867
32766
45
-8591
-21386
32369
-5087
-15923
-8404
7832
-8803
4932
-13185
29055
-15147
-2935
-16943
3733
20591
5528
-7249
18443
-25589
9489
31362
-15840
23443
2319
-8754
32762
-521
-13588
-7890
-9301
9678
18568
-13326
30974
-10687
-6653
-754
-17476
8548
22434
6028
21013
-73
-18263
16686
-12330
30358
17558
3100
9579
-9703
-7416
13181
-25937
20023
9185
14483
7033
24597
6070
16468
-32465
-4437
15584
19876
-32644
2833
-5095
8666
-11687
19622
9494
31361
-9006
17798
11163
3318
-30384
4854
3350
32595
2422
-4776
-11034
18942
-15138
-8553
18540
23182
-31738
-8147
-2351
6756
8078
-29425
-7150
15417
-3793
557
-23820
8068
7518
-31892
-10832
30924
-10782
-18057
8070
-6844
1857
-14521
5780
20098
-5991
-18829
-4048
-6162
32649
-2775
-31330
9595
4156
-7225
-17529
-2400
21234
-22546
-21898
-939
576
-4877
30223
-12658
685
8435
-18650
-26941
695
-21693
4125
-2261
-937
-5101
-4823
-26080
24021
19812
21607
-24632
15843
-14108
-8111
-31747
9106
-7039
-4721
-9043
-2942
-5619
8665
-4417
30859
-11017
8775
11374
-8278
7089
5068
4453
28092
16866
294
5862
2716
-1568
28947
-15352
16241
20484
5166
12155
13022
-8347
15294
-10099
32432
4673
-13739
-4984
-11955
29348
3566
-8482
24830
1696
-3343
640
-32707
1978
1493
9005
14306
22751
-32408
2103
-24269
22015
11182
18489
3016
3115
-24222
-2853
-17604
27636
15130
29064
-18353
13374
1747
9383
-1812
13121
6632
22974
-2647
-8772
-2798
3101
-31377
9440
23561
22771
-16531
-2316
1796
-681
12443
-7275
16386
28375
-21352
-4765
29835
-5218
-9720
-1381
-13063
30050
-21034
-20056
-6678
-17984
7353
16914
-1188
19437
-5733
16643
3206
-11070
22736
-23594
-5134
32362
11311
-17068
11257
13043
3627
-21387
-4815
-471
2048
-5256
32736
1412
-9556
-17780
1689
7734
2220
-32691
10824
4409
22987
7405
18882
-6021
24810
-8992
11343
6428
15993
-28598
14764
-19101
27862
-17244
2321
-6702
9418
-11035
-3624
-9534
32218
5967
9623
-10290
-3195
4296
-19116
-26612
19400
8748
-6918
-5771
-9637
4367
-2037
-25080
8823
31556
5489
-11311
5437
-5867
19599
-15718
28732
-15751
3832
25358
-28693
15460
32403
4866
20171
18
8113
4087
1269
10934
19848
1358
1388
32737
18918
5981
-15444
12789
26211
19662
-2741
8038
699
17239
-73
11627
32324
5366
-5889
10283
10409
10793
-15788
-8446
352
11142
-19826
-9643
-20370
25665
-15784
-583
3040
32625
-5990
13011
3140
11880
-11773
1032
4170
32500
-21483
4696
3642
2649
2872
3277
9010
18464
-32701
2076
19409
16492
6554
-11005
-36
5875
-16771
-28149
4043
-6849
-11174
-18740
-4946
26275
-25220
-3093
2656
267
32763
477
-12790
10623
-13322
2556
18526
-27027
25589
-5482
11317
-6728
13738
-29747
13147
-20919
24062
-20418
-22167
-7115
-24253
-9016
4929
-9466
30896
10913
7167
1552
32402
4871
8721
9238
5119
-30081
-4253
-17350
31626
-8570
2136
-5815
7624
-5716
5407
308
32729
1572
11147
8490
3940
2569
14297
-8612
27839
-17281
-612
-6072
-77
13415
10028
-20553
32545
3800
-1092
20178
-10220
-1061
1620
-2504
3863
-8276
-20369
17108
8761
31573
32197
-6080
2048
-14161
1597
16322
-145
13346
16098
-17923
870
18674
-6739
16408
-32297
5528
11825
12075
2510
26858
9375
-11084
-19507
26327
4547
4063
3838
32541
-9864
-20038
-28478
5638
28578
16029
7031
4330
13906
-22623
-18699
15762
18169
-1555
-28195
-16693
-12540
-3933
-11645
-9051
15290
28980
-8217
386
4073
3069
2799
-5928
25889
20085
-8470
-15321
10824
-1446
9955
-7661
14949
29158
-1602
-9093
9087
4000
12676
-3781
-1070
17033
16926
-21787
-13259
11547
-1956
-32708
808
5895
-2076
-29248
1687
10788
13348
-29924
-19505
9083
3531
-1155
-5664
9908
20087
-25887
-19486
-5606
14635
3496
1361
-7196
23598
-22733
-11725
-19343
32606
-3241
-10828
-9336
13183
-24067
-4543
-30428
30242
12612
5280
-20072
19126
-16583
-5357
-10538
32746
-1165
-10697
-4393
-7192
-4005
9749
-31128
27875
17223
27109
13186
-8623
-3730
17859
-27472
14497
-3073
19577
24262
-21883
-6136
20532
-13726
27605
-15548
-6156
13881
-18179
27261
19585
-26269
2113
887
5663
2137
-22437
10726
30759
11292
4744
11872
-7523
15282
8884
1536
11037
8349
2160
32695
-1694
8654
-24509
-1073
29187
14891
-377
6322
8342
8117
-8233
-2954
27916
17157
-7770
596
3085
-490
8949
-1128
5182
32354
1802
-1768
15
6104
-15089
7215
13928
16558
-29758
-13715
-7287
9422
14130
-10185
-12098
30451
-12138
7367
-29
-16807
2100
-530
4432
32465
-21075
-9149
8579
2755
20572
-21250
-18860
26794
-27636
5853
5101
1951
29740
-13250
8408
12392
16117
-28528
15176
10536
-7321
-12136
-12069
-14010
18971
-26716
-3421
-8604
-9497
-11164
14328
-7528
22719
-23611
-2316
4925
12472
-23832
-25845
-5762
21102
19548
2703
-1054
29040
-15177
10793
-30938
22392
4801
10888
-15380
18946
-17892
2582
-11451
31435
9246
-2742
-2354
8168
-6910
27723
-17466
17901
-6838
20798
10678
2613
3294
9972
-20200
32582
3474
-1380
6280
-21395
-10195
1420
-2754
25640
20402
-9678
4341
-10059
4304
-9876
-5245
8989
10026
-15406
988
-20741
25366
13745
453
10734
9165
-28799
15628
-15543
7233
30973
10691
17777
3286
-21340
-11277
-2539
9483
22569
23755
11015
13011
-13766
-3093
8148
-3589
-1007
22599
-31509
-8989
-4384
6604
6196
29702
9573
31337
-12031
-4413
2659
15642
-17249
-1504
18954
15542
-7349
-1894
-4467
48
612
-32761
3314
32598
-4694
-8279
-6050
13820
3302
-19004
4149
32503
-3267
-30706
8179
-17797
9844
12562
-16575
19939
-8972
-3030
15828
6802
2821
-32645
-13503
29855
8215
-305
13505
9887
5407
-1627
-1681
13892
6920
11456
15277
-584
26642
-19075
-29881
-13445
3468
-16672
-11791
-7576
16444
2860
-5047
-10222
26553
15946
7509
2450
14557
-29355
-7021
-6421
32669
-2528
2711
6623
-11104
-3511
-11455
-27146
31663
8431
-6354
-5989
-9134
-7111
1211
-32744
739
4254
12467
28727
-4178
1207
-18901
-25914
17902
27443
-1304
-2524
-20861
22132
28210
-16669
15310
3584
6384
-8487
-1382
7988
7050
6561
22362
-5475
667
15471
-29927
13342
17319
-12504
8182
25594
-15301
-3942
-31332
9589
20671
10448
11493
-14086
-9764
9391
-27616
17635
7583
21995
11581
-11200
-20320
-9353
-16500
28309
8464
10610
-5249
-23326
-22670
23658
-21486
-9510
23204
23135
7954
8250
3127
-10617
-3155
-13822
5641
30189
-5798
-9527
991
-32752
2008
20858
23148
13627
-21255
-2744
19264
-4173
10213
-31134
19153
15917
-18780
-26850
16277
-17631
23761
-1617
-21881
4237
-11449
-30701
-8901
-22906
19155
-11130
-16116
-18077
-20949
-605
11869
-6557
12573
-30258
-17264
-20927
23132
-23207
-14201
-27310
9755
-13730
4542
815
5464
-12122
-4291
10696
29030
-15195
-2309
-20813
24511
20959
12239
-6918
13155
-30010
-13622
-23339
32570
3581
21705
-13339
-13183
13233
-1087
-14953
17574
-17415
-3951
32527
-7596
-3222
11610
-30640
13600
-5460
4501
6918
3335
14101
10504
-10647
32758
-755
2755
-4640
-18050
14186
30799
-11184
21799
10829
13014
17088
-19400
2509
-4033
-1278
22157
2667
-22082
21013
-32407
4839
251
1489
19018
-3243
-28083
16882
-32147
3242
25296
20826
15472
18739
5500
-4629
-21643
10904
10570
27475
-15919
28640
-469
27441
-21288
-15023
-1905
8694
-32627
-3024
836
10961
-7622
6321
5266
15771
-1488
770
-24181
-22111
12843
-703
19131
22697
-32433
4662
7896
-6788
22644
-21737
-5075
32371
-3831
-16718
-9853
-8165
10631
10361
-8489
-11641
-16030
-16593
-10460
-31052
15220
-14058
4595
32443
24151
6757
22199
-20943
18219
-20617
-1226
14662
11839
-30553
7206
9125
12238
-11696
1772
-4594
6142
-8990
20118
-23196
31999
-7049
7780
-26573
-2790
-32647
14615
15308
9377
-18069
-4802
-32413
21485
-14828
6446
-3773
5494
-9772
8143
-11690
25127
-21030
-3469
-2618
8018
8315
2431
-12621
24895
-21304
-9609
-4464
-1652
17697
-5880
-10065
30792
11202
-9531
-3380
-9627
3555
23953
-18291
32718
-1784
4236
8335
-18198
1955
23700
-22626
11731
10297
13407
-7746
-15474
7165
27598
-7830
19976
13866
-17508
-27696
708
28494
29187
14891
-22787
-3272
-8234
19138
13094
22983
2401
2089
9264
3738
1050
-4782
-30941
10784
3355
27579
-16270
6586
12720
30196
-28954
5315
10979
30872
-10727
17205
-6790
1877
7658
-5275
-1040
32750
-9799
-4810
-10860
13065
8196
6212
23970
22340
-24018
-16011
15175
4332
13300
-5048
5175
6672
-19684
-26195
4534
-8790
4197
2113
5810
20361
-22579
-23745
12956
-1461
21829
-307
8653
26302
9519
-18600
22192
-24107
20948
14003
9881
-10717
3422
-16541
19705
-26179
20303
-13303
-10705
-3649
15527
-28854
24842
8482
12282
-16757
5704
-32266
647
-31038
9521
-12873
25604
-2356
4181
-19063
9078
-9353
31917
7411
-5051
-2564
4162
-32501
16816
5118
20246
21057
-5025
-28590
2619
-32662
26248
-8727
2743
7761
-19233
-8105
4290
-9650
25669
20365
13487
12147
-18004
-9625
7510
-11898
14096
-8429
5123
11256
-19884
26044
10530
-31028
-1499
7236
690
17767
-25150
-6916
13353
6366
22834
23499
8148
-8963
-20216
14402
3520
-6276
-1265
-9837
-7117
3908
-27820
17311
28686
15835
123
25141
9559
14531
-17859
-15434
17493
27706
10636
14399
-363
977
-4865
-2350
29709
7973
-13289
-1342
-2611
-3
-15592
-28819
4079
32512
-13778
5816
-11328
6658
5052
-13813
6501
1672
-19708
-26177
-15412
-343
7894
-9999
5362
-2022
-24200
-22091
10372
-23198
3520
-10672
-2531
19669
20574
-17018
-8900
-21595
6353
-32145
-2637
14044
28947
-15353
-7628
-26180
13955
-5446
10690
8662
12329
-21099
-4831
2807
26981
-18592
-5283
-6560
18911
-26758
-2064
-2966
1076
-2294
-31703
-8278
27475
361
-11491
-464
15889
-10668
-4716
-12043
23792
-22530
-8616
11294
3509
-1879
-13996
-8844
32563
-3649
12377
15187
9263
29909
-235
-31359
21937
24339
18794
-15617
9850
20547
24017
-22289
18624
6938
12504
-11377
1420
-1729
19086
-1792
26612
19117
4124
4278
-3329
-11438
28857
-15522
8454
18838
25722
1250
-20019
9755
7087
4066
22243
13071
-2296
9730
-31892
7520
31403
9353
28703
15645
-13969
-4068
-8297
-10114
-735
19259
-1622
-8775
-8962
5413
-16518
28298
-3372
3802
-27922
17147
7041
-10254
-2591
11409
8596
31619
-5987
2561
-6573
7311
-8293
-970
4895
12577
-31293
9714
-13844
-4764
17585
-24177
-18158
27275
-8274
-10510
-22319
-6840
-1396
-3384
-2015
3594
-25458
-20629
6268
-312
844
-14475
13171
30003
-17427
-2886
32232
-4216
29780
-11831
-29826
13567
-1070
7286
-8056
9112
11234
-30126
-12653
17778
2286
-1508
30158
-12810
25795
1144
-12090
-16619
7832
-17103
2542
-29074
32546
3798
-5781
-32252
-1802
-2003
-4843
-12886
21086
-18518
-5005
-32382
23735
4306
-723
1414
-7015
-30989
2713
-13623
32760
651
6301
-16273
1974
10305
12360
-30346
28404
-12867
9094
12004
-19606
-1932
9384
-13110
32766
-17
-15763
12366
-6084
-1198
11839
-27612
22916
-12021
-6324
-5050
-23626
22703
16580
-534
32536
-3876
-24388
-645
-11125
23860
12909
9427
18192
27252
-15582
226
-5020
3274
-2442
22162
20273
25742
-20311
8697
-23310
2344
23488
22846
-16463
-6178
878
7128
-1014
23947
5826
25764
-32722
-1706
-7294
14011
1511
14161
30725
11385
246
-25574
-20995
-10253
-14792
-15696
8295
31699
-4755
-16547
2882
16247
-8023
4418
-9308
31417
-6332
-7132
-27466
-6549
21685
1656
5411
1118
-29484
-14295
29451
-715
-5936
-9291
-17449
15765
10564
-26824
-28000
-17018
16718
1417
23745
22555
21316
-7622
15869
-1117
23227
-23111
-1953
-7780
3952
-26942
2345
11296
16675
-28206
-10320
-12754
19216
-8283
-3409
-11625
26381
-19434
-23749
-22575
12046
-3025
4346
-15639
16161
6784
5758
-1609
29890
-13424
16608
9923
8099
10419
-1789
-32718
-693
-8985
-1227
3185
5450
-1592
20021
-25501
5988
9105
31772
-8012
692
4733
10532
-22416
22416
23899
4574
-15122
-3940
-9883
11759
-25192
32615
3143
-32243
4084
-11444
-12445
25430
-20663
24452
4615
-28850
-4084
-6818
-3091
8252
-8720
1734
6722
397
-9545
-23366
22971
31079
10381
-568
12020
7673
30227
-29043
-13024
25217
20922
-12312
7249
8217
-2978
-4043
15570
6679
7289
343
-5843
1005
-1412
-32753
923
25924
20039
-1578
-25733
-23806
-4851
-1137
-11952
1920
9490
-32750
-1045
9110
-23027
11928
14906
13083
1109
-20017
-25941
20190
-13364
-7209
-116
-16715
23164
-26028
-19904
16074
-2260
-1376
10088
-8074
-4723
-25134
-21022
5109
5180
8988
-21828
-28374
16388
17975
433
-2048
-15386
4138
-1239
-21509
-10249
19559
-5388
-15868
-20107
23284
-23054
7016
-16409
16078
-28550
5621
7440
5448
-18648
1301
-32741
9231
-3335
1150
-27998
28531
-7275
418
-3578
25544
18012
32605
-3244
-657
3100
2169
-27586
32580
3491
11282
-9035
-15172
-1940
21817
-24447
8827
-12825
19390
4232
-777
13872
-13326
-27645
22000
792
-12642
13925
-31785
7957
19100
-26624
9029
-25736
-8379
10127
-17236
-674
24229
-15861
13298
-3338
-2712
18625
-31900
7486
31422
9289
681
-12206
-882
19419
-5577
13078
32435
4648
-440
-2491
10911
352
-23955
14098
-7583
10880
-27046
18498
-5762
-5152
-19999
19227
13082
6193
6247
-4610
15191
-4050
-32706
1993
20453
25599
-5699
-4618
1559
13384
-1631
-13389
13543
9559
-18871
5896
28589
-16009
-10657
-8170
-3434
32586
300
12172
12772
-17895
-720
-11605
-25153
6139
-9525
-10180
6106
14675
-25857
-20126
-13286
13705
-17295
-27830
-11856
3084
20688
6533
8824
-4952
-21122
-5510
30521
-11921
24939
-7644
-2078
-16847
23383
-6343
3631
-11174
6162
-32182
-12964
-20108
17589
13301
15649
-12497
18927
-26747
-3421
-15538
32214
5991
15868
-9616
-4772
-11116
-8013
-12610
30525
-11909
12222
25681
-16094
-1368
3869
-32537
9344
12740
4016
3735
6637
-17587
4869
-9112
32027
-6921
-3187
2358
-12519
12518
-4298
-32483
20829
23
-18737
-1412
-16026
11834
11963
-30504
15152
7474
-9447
2259
-20488
-1931
9519
-12417
243
0
-4935
18920
-30266
12555
29348
14571
-6537
-13115
-856
23756
-3337
17109
6106
5479
16879
20338
-29733
-13770
-20010
-1518
12502
5927
-31579
-8740
-3882
10898
-14842
9749
20434
25614
16220
-17877
-15736
2350
-6020
1274
-5039
23896
-31300
9693
-1926
2472
-6271
-7799
26452
19336
-20187
-886
21234
-1338
14187
-10394
4414
29236
-26973
-18603
6709
-22255
21280
2355
-18076
27329
12054
-11073
8560
-1002
-17528
-14883
-7836
31816
16354
2991
4502
-21555
23305
-767
-11552
24143
32672
-2490
-2101
-22216
23224
-7366
-8002
-6835
5171
-22060
32672
2481
13279
-13519
-3040
-32625
9573
-31255
13177
-23311
-2628
11985
6000
-3961
32738
1369
6238
-8260
151
-8545
2311
-32685
18893
-8708
12101
5550
-15997
-13874
-9596
-20524
31394
-728
13014
13615
-32464
4439
-12426
-1340
29294
14679
-5198
7236
-10789
19767
1516
-32731
13662
-7388
-13501
8659
-20948
-1204
29216
-9056
-6690
-8235
14996
29133
-10161
15309
15702
-7411
23438
-6627
-31384
-9416
295
1728
32766
127
10152
21241
-1898
2689
-19031
-4587
27528
-17772
-8066
-15132
-3129
-23361
-23496
17834
12667
30219
8941
-8941
-23993
-8051
-17492
22557
6337
32148
-4854
6646
-8872
17977
-7852
-10150
21697
18060
-11961
-30505
-18303
-19240
15646
11684
8367
25508
2860
-3157
-23400
-22936
10328
-28766
-20883
24363
-23668
-22660
-24326
16901
4562
-18676
4907
1306
-29458
-14348
4721
5861
21668
-17918
-8906
-8855
-15060
-7724
9347
-15144
17184
-27899
-7541
4065
19446
-26372
-10241
-5810
16612
-13964
2677
-12976
15195
-19942
6638
-1216
21192
-24990
-26088
-16447
12959
4018
14391
-29437
8804
15078
13761
-13131
25077
-21090
9966
2519
11054
-871
-10399
-9007
23580
22751
-5687
24446
25143
-20116
-5142
-32361
16815
-6886
-7552
-6062
-9436
2283
17879
-27459
29981
-2169
4777
5725
-18408
-8301
20507
4210
26910
381
-3205
5721
4343
32477
22164
-8099
20785
5790
1417
-12703
-10153
31154
31493
9046
19393
24084
11855
-229
-7882
4497
17861
2708
7766
13690
2207
18519
-32154
-6307
3429
-1644
-26399
-2268
3729
-1899
-21637
24607
13516
29849
-14316
18804
-12514
14476
-21926
-7389
9187
11437
-24850
-10762
6393
-2245
-31933
7343
-2094
18781
-17862
-19718
-32754
908
12
-8477
24476
13479
-1795
-7524
30549
-11850
-6813
-1867
-9270
22881
-16281
-23101
1317
-32740
8734
10204
-8952
31520
-2294
-18214
-3070
-9252
21701
1159
-17189
-13802
-31770
-8020
-401
1749
15875
-23426
7293
7878
27388
-17987
3723
-19738
22621
-12837
1980
1648
23544
-22788
15573
-5849
3053
3807
-13154
-25038
17924
-21948
3431
18382
19019
-26681
11664
-23564
13256
-29965
9715
13221
2245
-5904
8190
-12698
30222
-12659
-2411
6242
-1541
-3753
21330
-11232
29110
-15042
28857
6899
-8642
26268
23198
-23140
17108
-14314
-18537
8270
9791
-14704
4836
-14618
20752
-8448
-7204
31649
-32590
3398
29231
5651
29004
-15245
-8937
20809
-10363
-84
26342
19487
4897
10377
12544
13598
-5088
18395
17267
7342
1813
6625
-21052
25109
-25222
-755
28813
10133
518
-11833
-32447
-4561
-17677
11225
25019
21158
7400
14949
-5832
1734
-3057
-18576
9973
31212
-8783
-17137
-4041
-3796
324
26693
12163
30425
-2480
-1081
-9396
4026
18668
-2151
-7140
6470
-23029
-14225
-22330
-10437
-1473
-32733
1165
10513
3788
-8173
1108
-32748
7482
4447
11328
10668
-17600
-27639
16650
-17583
24963
-1219
9644
24989
2050
-14682
14032
2621
30268
-12549
-8895
-2432
15658
-11230
-12637
-5083
20854
-25273
-31825
-7798
9518
9640
6766
-7338
-4521
-5631
-13181
4334
32725
1656
-3141
-7325
25162
299
5047
-21974
26431
-19366
6179
-11362
-5647
4435
-10414
-31067
32111
-1512
-15851
-15564
9254
6136
10962
-29329
29554
-14150
1654
-4572
-16663
1074
-2109
-32699
13314
-10651
-2665
-14210
-19668
14787
-4552
-18711
-176
32766
-11476
5877
-107
5898
15632
-1225
9757
31280
-991
7838
-5911
5477
22175
-12687
23069
-15176
-26609
-53
-28996
15260
30634
1225
7754
-683
10049
13222
-32761
-594
18669
16519
-3088
-5595
2438
1472
-26121
19782
6913
32029
-22377
9840
-7822
21153
-1816
-1716
-144
32766
-8680
17710
-11200
7259
3230
-10599
6724
32069
5447
-6299
-9095
989
-2283
-4579
-5488
16090
-28151
-16768
166
6730
3941
2834
-6183
27598
10011
-16650
-5014
17122
-10567
-31016
-13177
12512
4634
-32437
-14321
-23443
20253
-11627
-13340
4498
9621
-31322
777
-17336
11756
-5552
9400
9439
7354
-10603
15609
-16392
32766
-39
-31402
-9356
876
11631
-15825
-9235
23780
-10124
-13362
-29493
30417
12184
-9953
-25868
19867
-22566
-199
-32766
5890
-6153
-4245
1621
16602
-15333
9968
-22610
32717
1806
-3927
-10340
10431
-5713
16695
-15839
21403
-4813
29231
14804
-20404
10685
6470
-32121
19118
-2868
-9984
7098
-17187
-3298
32741
-1296
17613
14092
17057
23928
-7836
-12993
14492
3782
22723
5799
1800
20838
-31541
8876
11425
-8023
14634
-6720
-2013
-10523
-26998
18567
32301
5506
-8986
-20095
-15720
15713
-10027
13484
3384
23437
-23781
22541
21631
16695
-14821
9297
-3560
11459
-10771
-2043
-17
-17652
-19092
26629
6145
21514
-31963
7210
9182
2531
8763
4009
18662
26932
-26861
7653
5428
9505
20035
-24684
4992
1670
-31793
7926
8516
-20487
20248
-19521
10872
25142
-24015
-22292
12221
11124
22125
-10191
-17377
14264
-28392
-16356
21814
-16334
20272
3344
2523
21196
3145
-32615
11490
5039
18300
3519
-4098
-22794
-7294
-25845
15399
17845
682
-32759
-5064
-32373
-3213
-15070
1626
-2567
6661
-20503
-20580
-25497
16187
-6203
8077
-10934
-16394
4655
5498
-25508
18263
-27205
-5591
1078
10834
1861
-17888
-24624
3861
-17046
-10283
25108
14203
29528
-3080
-27824
18303
-18929
-32501
4165
1731
4190
-128
686
32726
-1637
-6844
4422
-18677
20695
-1770
-10293
11000
21769
-24803
21411
-5102
-1296
32651
-2745
1876
-11596
4248
5122
1872
12712
22146
-16744
-22931
-23405
-18013
10648
-7548
19134
15376
19382
72
-6715
-29068
15123
-22936
18778
-1888
12547
-12888
1623
-5389
-14844
-14167
29545
9856
31249
-6742
-10197
-11055
-4781
3768
23896
25274
20853
-25918
-13628
-8310
16447
18310
-15680
31292
-2480
-26914
-15527
5528
-32297
7812
-23665
-19026
26677
6839
-13429
-24109
19612
-13894
-21025
-2913
665
-17883
-19962
-22559
-1705
25038
-21136
6463
9620
-9753
5218
18053
6346
17538
-27678
897
-19932
-12473
-12406
22239
-24064
13890
-8723
2456
-8097
27116
-18394
-976
-5477
10483
-25270
12427
-20066
31806
-7873
4961
-17673
3144
-21774
12317
-29801
24167
-22126
19064
-7511
19772
-5032
2967
-17745
31624
-8578
-1233
-4823
-6128
-5284
-8579
-31623
10138
-1546
5883
-5930
-13250
6615
18980
-20459
32626
3035
3913
-9225
-5122
-2718
28298
-16518
24150
-15594
3075
18414
-15192
3849
13305
-17244
12998
10160
-29301
14666
-3552
11233
19827
-6207
21351
2091
-13164
12908
-31166
10116
29691
3383
28644
14096
966
-11650
-30170
12783
25959
19994
-1890
21966
-5024
-15600
4456
16057
27042
-9002
-24735
9028
-18941
1449
-13682
-29773
3713
-6664
-11650
-398
-2575
-6801
-30687
-11486
12932
30106
-1616
-8789
12319
-886
-4927
15447
8074
23570
-21028
-25128
-8895
19699
8100
-6429
16875
28087
1168
-16045
5420
11877
7180
-20571
5129
13010
-4338
-19231
-6857
-31963
32465
-4435
-25295
-8948
3630
305
-15436
-28903
13067
-24901
13525
-1652
18942
-8924
28889
-15461
12563
-28414
17676
-13108
10743
-29469
28738
-15740
7124
3303
16960
-12439
6122
-32189
24046
7132
16702
-2373
-17494
-27705
18269
-18429
213
27875
27314
-10300
-681
-32759
16825
-6617
-2532
-13338
-2643
-4476
-4867
-11178
31181
-10067
-7068
9560
-16389
7433
8638
-31607
16002
-23617
2016
27335
-26306
2577
-8328
-17373
12357
15619
9803
-1941
-27877
17219
12399
493
26465
-7574
-25505
20570
-12968
11182
29624
-14002
12438
-10604
-4676
20159
-25800
-7123
32409
4829
12612
1465
-2141
-5837
-19714
18108
-3616
-1940
2048
10412
-3432
6777
-32362
-5135
-10882
17726
-12963
10403
-32631
2972
-5673
3776
29378
14511
-18698
-16892
2973
-13003
-8914
6957
22603
23722
-3999
-16949
-15692
457
16313
-7880
9077
19693
-23920
-22393
-12143
-2979
19547
2371
-4570
18087
12324
-30360
-3249
-30844
-14570
213
-9068
-8063
-25294
-20829
-742
1655
5428
-22554
8017
-2047
-7381
-10336
3357
-26366
32308
-5460
-7555
-2616
-9762
-10302
-2531
-8513
30850
-11042
250
-16001
-9279
-1753
32314
5428
18925
-26645
-26546
-19208
25692
-9779
2572
-5758
-17285
-2152
11015
-14376
19623
6188
17361
3289
27543
-17749
-8660
-31601
17095
-17505
-3882
-3534
-11874
4688
10503
-31037
6352
-8693
8694
-13963
4773
14661
17690
-22263
30658
-11563
-22626
4992
3819
-7794
23043
-23295
6566
-8814
7485
16075
-14765
-1787
4503
-5170
16387
3278
3397
-390
-26020
19915
9111
-9862
-11824
13132
22736
18147
-32365
5111
25348
5327
-27303
4851
-22650
23677
-10430
15303
24282
22000
13061
3726
-30010
-3274
-11249
8240
16909
28066
-23846
6870
597
6464
-5925
9892
18998
26697
-14320
-3527
-1751
1281
8287
4344
11372
30730
-10728
-15533
-27625
4169
18059
-7283
31715
8233
-5884
-28987
11973
-12156
179
-12271
12879
4060
-32763
-487
23796
-1115
16664
-17543
7655
-1158
-23927
-18635
2693
-19459
32095
-6600
8608
354
9598
-31329
-3986
-14128
16407
-6682
-7991
16754
31440
-9229
-7624
-30868
29854
3933
8445
-11634
20316
-12916
-4207
-10249
24609
-21634
1090
-10836
29037
-15181
9761
-16588
6639
4772
-12805
-30161
7393
-10215
-239
-14038
-7512
5384
9963
-31215
16428
-19026
-495
3564
-882
-7130
30643
-11603
29489
-10613
14396
6787
-969
-2717
12358
-30346
4660
-6744
18196
1502
-16599
15555
25081
-21085
19335
-3780
1210
5338
-11828
1635
20339
-5936
12575
-4757
-30076
13003
4979
7202
32123
-6463
-24128
13175
3366
25487
-8714
10495
18436
-27088
-29517
-11015
8320
2099
-27842
12155
23274
21552
-28957
-15334
11329
28336
-19162
21924
19780
17428
-15466
-28682
-1735
-5977
-1709
32722
15111
-1182
-26193
-17803
-29687
-13868
16980
-5841
-439
32764
-21601
-14247
-9812
-23478
9647
22807
-4924
18112
-32765
346
-7501
-2697
24147
-8291
-5054
32374
9856
-13525
7924
-10582
-5238
9611
-7135
19495
22309
-15224
10355
2791
-17586
-27647
-2912
17383
-7738
-31485
9576
2067
31457
-9169
-31472
-9118
20994
-3703
-14808
-14409
9961
-26455
-18220
-23522
17365
9227
23825
-22494
15616
-22024
-31266
-9801
10858
1798
2778
23813
568
-14457
-1773
-32718
15315
-10707
-2344
-3139
4084
-10567
10869
-3609
28792
-15642
2637
19596
20340
14846
5727
-13911
32592
3381
8693
-13341
-15543
7041
7345
-20212
10754
30951
-2507
7251
7399
-16641
17944
-27416
13164
-3890
-7462
-362
-10273
-11121
11051
1025
-7913
-18338
-2454
32674
-14934
22413
2060
-12078
10201
21106
-24528
-247
-32151
6323
29292
-14684
-19080
-7210
-14372
2017
-25566
10860
11359
18121
-31673
8394
2736
27230
-5211
-497
-2252
32689
-16419
17971
-513
365
-12443
13553
9715
31293
6934
-3871
-9900
2831
-25874
-11265
16628
19478
-29776
-13676
-11114
-5179
21807
-11448
-5749
32258
-25746
1006
7557
564
11036
-1480
-12057
16347
-15811
-28699
-12068
-6087
11383
15243
-5561
-513
5904
-2623
-8977
-7149
8042
-31764
-13537
-14743
8329
-22487
6062
-32201
389
-2088
-23599
-6440
19024
-16367
-13234
-2374
17821
-27497
-2070
-29918
9282
-2594
13406
-1487
-6056
-32202
-3452
-28896
32475
4362
9694
-23817
-3960
-15355
-5295
-18017
32766
-61
5845
-26857
788
13962
-5857
-32239
20221
-3876
8700
5410
-9761
5022
14396
-29434
16040
11984
21073
-1046
-7616
-2979
11333
-10048
29110
-15041
-8194
6496
-16282
2556
27504
-17809
-7490
-15364
8532
18563
-4193
5968
29829
-4496
28631
-15935
2046
8402
-26370
9165
29688
13866
-4385
24411
12629
3153
-8122
25121
31562
-8801
-15260
-4044
20267
8122
-21836
1562
29626
13998
-13431
-3554
7425
12417
3102
-2254
9039
12677
-32502
-4152
-13835
5608
-7208
-2877
12409
22707
-21833
-11317
-32387
-4975
4202
-22025
9112
31474
-16605
-13396
-2357
1244
10563
2483
-16977
14211
-32764
-372
-7652
-626
18036
5841
-32211
6006
-26108
6750
14105
-23104
-3099
-9207
4527
9633
15969
-28612
-11312
-9217
12070
-14684
-12299
13498
-3617
1121
18361
-8846
28659
-15884
-6822
3752
5843
-13919
-14134
-7566
32608
-3220
-16820
-25138
22907
-23429
-11853
-27173
525
6200
-10406
-15309
4452
13136
31830
-7777
-2887
1754
6625
-20149
31744
-8122
931
-9660
-8242
-8627
-6964
-32018
11729
2097
-1735
2169
-9955
-11072
-449
-29407
24366
-21908
-11148
19545
-13079
24522
11099
-30829
11840
-6548
-11047
-4710
-6343
-4068
29851
4705
30269
12546
-9666
16529
894
-3998
6778
-32058
13482
1789
-25073
701
-25244
-13326
5334
-832
4460
-890
-10204
16485
-31855
7675
7300
7534
-5862
100
11683
10844
-29637
13973
8693
3898
-29450
-14364
8141
1295
-14799
25484
27913
17161
-9071
-20103
1136
-12136
-10600
15602
-7974
31781
-11320
-7948
-28711
-7577
-4637
3108
8289
31701
-30394
-3896
-13599
-6637
25404
-17626
19367
26430
-5889
-15948
11079
2713
7187
-24550
-15906
11702
-4711
104
-15767
1861
11277
-30765
-9503
-7419
1606
-32727
-6858
-13626
-2546
1907
-31755
-8078
-14983
-23737
15469
-24244
21082
1712
-13333
-8833
-3996
-3768
31408
-9338
11311
-2659
17736
-21845
20539
-25530
15981
-6530
164
-12444
2969
-32632
17278
-1323
24943
-17041
-4211
-8105
2278
-31844
26832
-18806
236
-13242
-5084
5801
16172
-28497
9030
-11219
16825
10829
-6805
-5640
-7788
-9179
32761
574
-25517
2854
2461
22484
7362
-27269
32067
6735
-11412
11446
-21734
7795
32039
1251
30586
-11753
-1117
20197
-17495
8735
-10747
-30954
4058
5838
-22861
-15256
-27847
9433
20869
7583
6789
-7380
11404
209
-22255
24049
27075
5458
-24005
-7581
-13095
30036
-23072
-1465
11985
12301
-22639
-23688
-5503
5812
-7735
26358
17507
27697
-8482
479
5915
14249
-10762
-5597
18707
22120
-31356
-9509
-1157
-10923
16392
2562
-17086
5999
-32359
-5150
-16745
-4253
10765
56
19363
26433
8094
-22474
-12993
-17084
24154
-15067
1803
9085
-18292
-4430
9761
8592
13778
-29729
12955
2984
-7396
-27110
-761
-1569
28727
-15760
7968
-7168
-7224
-9925
13294
2882
19402
-26404
-7915
-13904
7209
-31963
10290
-1599
-7431
5383
272
-11125
16758
-28157
-1075
7321
-3640
-2112
-4660
-32433
23360
-21924
-1865
-12755
-8716
211
4483
-27820
27113
-18399
-11287
-5460
-7032
-7497
6999
-25943
9426
-29904
4865
566
-99
32766
180
-32766
13430
-18695
-5819
-977
-21151
9535
14851
-29208
21299
11519
4321
6150
-22435
-12428
25943
-5755
21239
24951
29457
-4730
-26754
12249
6667
18794
5813
-3658
-824
22815
-19197
26554
19212
-10627
-274
-19078
-13914
7387
-29670
13903
17295
18453
-7470
-13246
-9502
-5203
-5784
32252
31124
10245
-28171
-6469
-2202
1372
3533
-1414
14091
18736
-18830
-26815
10400
10787
-10117
21656
2795
-4499
-23523
6724
2360
-8365
-13863
-29689
7966
3683
-28759
-15702
752
-19163
16459
2176
7528
31890
-5442
16745
16725
-4800
18779
-16847
4440
12744
5364
-32324
-10137
-11993
19656
-18856
-4328
-19947
-8393
-31673
-12880
-27621
23470
-8421
2495
-5833
22014
-3133
1194
-5323
5444
-32311
6835
-20586
20704
-25396
16703
-22528
10015
-8107
-22220
-21484
32562
-3659
-6694
-15792
-11690
-6045
13394
-17378
7993
-25995
17337
-18551
17815
27500
2500
-19026
10679
-30977
-19283
16501
10677
1991
6287
-8041
18822
-9696
27699
11559
-28686
15834
7204
-20683
-13667
-25030
-8214
31720
928
5509
20561
-25512
12003
-417
2063
3396
-11666
-2963
27408
-2689
6195
-3012
-22834
23500
6268
4131
17450
-2863
-6471
4330
14119
29568
-28564
386
2593
-6287
-514
5470
-3428
5635
-32495
4209
16909
5002
-31036
-10506
-3240
12262
477
12232
25181
20965
-13399
2980
9182
-6133
-8788
8690
20801
25317
-22846
3068
771
-14800
29180
13312
24660
21576
640
-30662
-7986
16863
-9338
-18688
-22356
23955
-24909
-15568
-29832
-6525
8127
-9562
7844
-14865
-16998
-28012
-12715
-27175
16523
-18514
6017
9884
-11475
-24219
7790
-1234
19419
-26392
-13782
8300
-14037
-3915
-2350
1775
27042
-18503
-11262
15157
30047
-13070
-5192
3495
13164
-19272
14551
-8481
8814
-31559
14282
7448
8917
-5540
-3932
-32530
20221
-17251
16470
-16595
7582
311
226
-32766
30083
-4362
12458
2519
-7105
-18850
134
-15591
32766
-73
-1928
-10845
-10664
-2921
-6611
-17339
21093
1134
16817
853
-27231
18224
14489
-7808
20549
25522
21735
1126
-6869
-1131
24545
-21706
16734
768
17948
2119
-23925
8810
12000
1329
5331
5122
12737
29163
-30766
11273
32572
-3562
16019
-10456
-14286
-4385
-10474
12483
14765
727
4084
-9644
-9365
3164
-28804
15619
27943
17113
-18281
11401
-14074
-8242
-1209
7154
4610
32440
-19194
24477
-7122
17334
-7057
-14566
30799
11184
-18406
-23287
2915
8306
-4205
-10819
-4174
535
-28805
-15618
4194
17055
-23448
-16292
11948
-2650
-28054
-16930
3615
5586
12027
-11310
-3660
32561
-9600
-16470
11332
-11241
11044
9346
-18575
-7851
-11782
21235
14163
-24655
8162
-31734
-27129
-18376
-21834
-4967
4059
-31651
19483
-4948
-16753
-28160
-14446
-26662
4641
-7710
13849
-14072
-27557
-6490
10934
3588
31258
-9828
4905
3692
-3050
-32624
798
4904
10713
-17895
8206
-13000
19061
-26652
19663
-5792
11296
-17883
22751
-2596
11187
-24248
26807
-18842
18199
-11368
-7218
24137
12434
-13829
32089
-6629
1687
949
-9418
6319
3386
-32591
-11406
13539
15439
-1897
-6501
4456
9883
-31240
20305
2625
-12074
9660
-26424
-10394
320
-7762
758
-13782
-20686
17367
-22153
24143
11503
-928
13789
-1151
-5185
-2682
-27940
17118
28908
15427
8842
-1066
-7711
-1227
-18859
17846
910
21118
-19108
2420
9184
24246
-30098
12953
32353
5188
-24046
-13397
2426
-13202
5505
5826
5711
32265
-14768
-19962
-9703
20231
-9063
2238
13221
17272
-28785
15654
14596
-4749
7394
-29692
-8770
16885
-31804
-7884
-8792
-21354
22480
-4130
13554
15316
-19337
-9688
6942
-9966
32251
-5789
-7399
-7182
-21254
-24938
4629
-9323
8423
4244
-6272
9323
-8256
-20304
2940
-13973
30990
10642
5723
-6642
7033
-6786
-2715
-6956
25383
-20721
14113
-25736
11180
-8350
19600
-11823
21666
-24581
-23694
-22632
32128
-1715
-6238
-20160
-982
2071
7434
-31912
-1835
-10577
25585
-10809
5956
11892
18995
-16326
27161
-18328
9323
-6303
-3053
8358
-10313
-15029
22969
-12393
-4295
-4973
-25502
20574
19719
-19529
22398
-23916
2433
13010
-24243
6952
3635
-4549
3376
-8219
651
13961
-16964
28033
20349
-22393
21299
-20640
-28682
-15216
-18793
26841
32067
-6736
4459
-5848
-3956
8622
-13520
-2864
-208
1921
5001
-12798
-31989
7093
-9376
3505
19896
26034
-17764
8197
5776
9353
-12391
10292
26871
18751
-1247
-8376
1436
-4057
9463
4765
4377
32473
-1414
-13117
-12132
4350
-9104
3357
1368
13174
-7770
-31832
-6715
-4649
-6265
16683
-654
17919
-26566
-19181
-5871
25836
10046
-14397
-7948
571
-8394
-31673
-2258
3499
-10173
-4296
19040
-279
-9771
-31276
10420
-2842
19133
-5842
-4894
-19635
3692
-32558
2799
-5443
-5818
-15504
1207
-359
493
6601
2634
-1002
25643
-20398
411
-28547
-12814
-7794
21541
18212
11586
-30650
2504
-20113
27484
-17839
-7340
-15778
17296
1647
-3857
-32539
5888
-6033
-7496
5458
2526
-17013
8179
-31729
14352
-15775
-16219
4325
3457
-15015
16653
-23390
21197
22612
32223
5941
-12926
1226
12322
-15028
23040
-22166
4615
3824
-27810
17327
9853
-17258
17800
-5463
-7042
-2637
-23940
22372
32739
-1330
-2887
1513
15412
10054
-9593
16376
30361
12322
24983
-18118
-4052
21500
-25163
2450
10214
1426
7949
8143
-32356
-5173
-18460
-2935
-11106
1932
-24378
21893
-11156
-9977
-22673
2178
16063
15127
-20052
-25915
13348
944
-22353
23164
-15786
14623
-30515
-11936
-5230
-1819
-6403
21301
19733
-350
-29961
-13265
5816
-17214
19762
-8228
2533
26167
-29577
-14100
11641
-8178
21842
6625
-6362
13351
-8293
-3133
-7956
-30459
32363
-5124
-27281
1208
-7594
-22494
-26166
-19722
27105
-5501
-11387
-12548
8395
-31673
8153
-11609
-849
-4883
-3620
3774
-4899
-30530
30614
11680
17126
8783
17112
-13981
19714
-10553
8730
-8790
27611
-17643
-4120
-13665
32075
6695
804
-11620
-2881
-10309
17540
-27677
12364
-12399
21119
-11272
213
3663
9355
-31403
31193
2380
222
-16207
-8295
-10663
20846
-25280
3875
-21761
-5528
28011
2762
407
12516
-30282
-4254
-15901
-6027
10208
-6838
16449
8402
7158
24765
21455
-7197
19254
-11969
-10971
15795
-3569
22340
-14327
-4654
11476
-31863
7642
12170
-8059
-2276
-5115
-6588
10570
-32158
6284
-4652
10717
-32082
6664
-9554
14735
-17275
18781
8571
11792
-25465
19988
8298
11223
-32042
-6850
5991
16486
-1748
-6986
-32089
-6628
13160
-1998
-2952
22511
-25895
-20077
-858
-14764
-19626
15824
-3998
27310
-24578
-978
7545
-31886
15495
20880
-18331
2668
758
-1649
-13022
-30068
-1579
-13342
-8740
31579
83
13457
12448
-21469
21132
-2152
5427
-109
5407
-30783
30492
-11996
-71
-17827
7395
-15397
7064
-20084
13435
-26980
26129
-19771
3588
-14818
-6174
-15480
11076
-21867
32645
2818
5723
-22481
14075
-16680
16701
-28191
-44
12154
-3151
-32615
-6785
-21346
15610
12182
13998
2211
21610
-16340
27810
-17328
11958
8699
-3952
-6630
15333
-28957
14451
-10912
-2598
-5188
10171
2843
7288
-31822
32071
6716
-2975
-20533
-17876
-5759
7504
-31896
7758
-3002
-1182
3267
-21983
3179
-1321
-6752
8730
-6372
1145
11796
-29469
14325
30497
-11982
-13375
-7940
15380
9799
-14322
15373
-7964
-9049
2111
-8994
-29353
14561
-24946
-3830
11904
29723
-3794
32546
6079
9152
-11030
1480
9780
12313
-10288
6281
-908
14422
-30809
-11156
4745
-3951
-30584
-11757
-3986
-7659
4034
7432
17378
25292
-3664
-5981
-25941
-20018
18997
-16741
-7108
8651
-28653
-15895
-20386
-9555
15257
-6258
-22827
4802
-32395
-4918
566
-26213
12477
15490
-15703
28140
-15339
-8786
3648
-22787
32763
503
5551
-5720
-21073
-9213
11756
-13237
30547
-11853
-6276
-15994
8770
-31571
21804
-3790
-6829
-13269
7511
-29217
734
-28583
5266
-15082
29478
-14307
722
-32759
12570
-19446
9677
1220
-2325
-17074
-3510
-7891
32752
-982
2741
-11290
-9486
1103
6530
-16341
-1931
-12966
28234
16628
-1684
16755
-1109
-32748
10899
-24592
-2554
26752
-16372
9429
359
-32765
13448
-12105
-397
6621
-30366
-449
22400
-23914
4822
1973
16502
22522
-22035
-9733
11000
-12555
31188
10046
-11997
-2616
-23638
-1880
-3830
1064
-3544
6106
-11106
22137
-29886
13433
8547
3685
-9594
-1503
7059
4239
-22420
23895
17636
27615
14229
10368
-8596
11504
-28247
-3220
2055
32702
-4017
-8297
-3528
8126
-8292
25715
19902
4213
-28542
-16094
-5908
-9657
-2630
-2296
6191
10565
-30893
-10921
2212
-1303
8140
1875
-5529
12429
-16722
-28178
1428
9013
-11886
8815
-1009
3843
-17368
-27785
4695
-108
-1420
399
4100
-23495
-3750
-18246
-12459
-30305
15651
-23032
-21803
3165
24918
-13613
-3524
-854
-9792
-31269
-30879
-6192
498
-6204
32724
-1668
-19740
390
-1406
-32736
14609
-24996
-4339
-18637
15947
-16802
-5153
-32359
18668
-4785
-3161
-6034
4412
-25907
-8227
-31717
8157
-5067
1015
-3365
2953
-8307
11506
-6856
22274
24032
23929
1936
6583
-8386
4905
-32397
25359
-11828
1946
10282
-26348
-7027
5592
-7506
25163
-281
18423
-8925
-24876
21326
13820
-29709
-13287
-26394
-5078
1679
-3856
25186
8338
-2211
-16098
28539
13295
14318
-3342
6463
12073
-1185
11371
-1354
-2711
2487
-28063
16914
5243
6779
-21189
-1244
16807
8538
-17672
27592
3689
25669
2051
8082
-213
18100
-32060
6767
-13614
6285
-18113
-23602
-17420
1175
-16137
28517
11183
-6184
-32764
-409
6401
-20424
-770
-2936
12435
30315
-2713
-11962
-5936
-183
6372
-67
-5543
15597
-8975
7409
-13169
12550
7713
-31846
4197
14805
-7861
-31809
-8024
-3820
15890
13591
-5604
11988
-13286
-29952
-10472
14376
18672
-16632
-32436
-4644
-16331
-13965
5941
-6076
9364
-7195
-6870
-4665
11093
-30831
4159
-271
-4737
4503
1591
-14348
3314
-29669
-14294
-7971
32667
-2547
557
-32762
8930
-18633
10423
-25617
17725
7678
-4249
-32490
-3956
-13344
-3113
8087
5046
-10902
14170
-22006
32563
-3645
2744
25177
-1040
-21940
2058
-32702
19394
-6162
-7391
-5136
-13930
-5435
8838
-20257
32286
-5590
-18899
-3138
-10467
-4911
30675
-11518
22134
-7929
-250
11151
-10223
-5794
10819
-25633
11365
-14969
-13104
-19542
-19477
26349
433
7563
-3861
-10360
-12888
6769
-11614
30639
32052
6804
-10134
-3596
6787
671
-13512
18453
24487
1604
-3324
-2995
-1525
15700
-26677
-19026
15565
14095
-31392
-9391
3896
1646
-8464
12619
24471
14620
-30995
551
15343
-28952
16153
13022
4678
32431
4541
8376
7307
-14183
-3011
-2299
-8673
25303
-23226
-23112
11055
9699
-7393
16544
-12578
12732
-17181
-27901
-13344
-2752
11506
-11826
-6153
4820
-4341
-32478
-14408
4017
10990
-5903
8341
-14944
15530
-28852
8553
-18634
12115
-30148
-4525
-16968
-1217
-28264
2619
-4078
26371
-19448
9666
-31308
10282
-25384
7159
-14735
2660
-10633
-703
-32759
12678
-12210
18311
11372
6191
-22952
-10083
-31176
6353
-747
-6334
7503
-836
-20017
-3938
-31844
29901
4411
-16197
-28483
16893
9217
8615
-30305
6269
7939
-850
32755
-2160
-25036
10309
-31102
9282
1625
7338
-21098
-6779
25180
11969
-30502
18614
24137
-34
-12494
-20449
9486
11816
-13987
-293
-16454
3681
14106
-29568
14119
18736
-5963
4964
-3605
-1197
166
-28293
16527
32104
6555
-10164
17849
16206
-3716
7852
-3842
22439
18966
-8731
-9655
-20205
25795
-10091
-9172
8208
-4866
-28857
-15521
-1802
6739
-19177
-3172
26085
4969
-31286
9737
7996
-603
15544
-28460
-12940
17137
-21279
-24917
-8332
-5862
-10290
19138
-2926
19385
-32677
2426
7873
-3615
14626
-20617
-2150
-2000
-22202
-24098
-9890
10229
11410
-7355
-7199
4223
-9936
6718
316
-16357
27532
-17766
-28119
16821
-10660
-1193
-10060
9139
26346
-4682
-15635
-13227
26664
8365
-7774
-31831
14203
-19145
-4117
-32507
-8133
-5245
17417
-3068
5906
-18931
17172
-13042
30059
-13042
8395
2118
16882
-15292
-3970
-21471
31434
-9249
-3200
-5036
-6602
60
1569
-32729
14474
-18530
9464
2045
-15427
14063
13387
-22133
32691
-2221
-4944
-12577
-7350
-3134
3487
-12601
31043
10486
-8035
24122
-24199
-6646
6950
-32021
-6261
-11278
-3428
-8284
-11423
10573
32727
-1605
-303
11941
11613
23690
-6195
-9532
29284
-14700
-16650
-2662
-13002
9677
-13420
6770
10294
441
-28188
-6311
10883
-3667
-11743
30590
23024
23313
3336
-4723
11120
2568
-26949
14494
27676
16305
-32648
2783
-3090
-30012
12131
7497
10261
19415
-31529
-8921
7553
14933
9455
2109
-6310
32153
-18169
-12354
-21384
10577
21885
6937
-9140
5711
-32536
-3875
3950
-10453
14387
7849
-12794
30165
-6809
-20645
7286
13417
-2672
-14397
-32358
-5155
-29485
-5541
15862
7228
-6010
-18665
12504
-25130
-4195
-22562
7135
2007
5517
-32299
-1247
-14612
-5113
-533
16615
-1378
21484
-24740
1466
-15925
21881
-24390
-6526
-18537
14500
3359
-2668
-14439
22959
11680
21106
-7315
32322
-5376
5235
-21152
26773
-18889
9145
-8300
1290
17374
15677
-28773
509
-17635
12327
-4201
7937
17363
20160
-25830
-2795
-8839
10908
-8020
12355
21007
17259
-27853
6316
-7811
12493
-85
-16495
5427
13879
-29682
16656
6740
-469
-10356
-21663
-3376
32369
-5085
26499
17293
7762
4253
-21370
-13657
28964
-15320
12777
-13832
-8298
-2670
-30478
3598
13705
25339
-18579
-1827
-361
32765
-15002
11855
7959
9658
-28779
15665
13816
5851
-6388
1016
21685
16411
-30361
-12322
-2952
13287
18210
-1210
13294
1413
-28026
-16976
10623
-13347
-11083
1465
12792
-4582
7518
-1033
444
-32763
-7112
-22045
-19378
-26422
-5399
-22004
-21534
-20036
-22376
-23083
-11730
-4127
-25527
-20543
-14535
-734
15632
-2081
-28573
-7767
-21394
5052
-13850
-13402
25468
-20616
-9018
-9815
-1820
-32716
-6310
10476
5317
-17842
-16986
-8377
8356
2810
-17282
-10696
27348
-18047
3935
-32529
10877
-9792
22902
-20209
-9146
-6731
-3008
-32628
13923
-13320
3920
-4432
2560
-7154
6403
-20178
32662
-2617
-5646
-853
-5711
-19080
12717
-30198
13397
-26101
-12334
5431
-707
-4733
13301
-29945
2336
-3652
2222
-8813
-1009
-4457
26837
18800
23073
13590
8630
5676
15515
26973
29472
-14318
1613
-27130
-8089
12696
-916
7034
2958
-10628
14765
8700
1032
-7369
-31308
9665
22837
-21447
-1831
-1065
-23383
-22954
-7146
8561
27417
17943
5706
388
8690
-2812
-23919
17331
-9309
21843
-31616
8607
-10513
4878
8066
20686
-6090
27333
-25659
-20378
-17037
7256
-2170
27434
680
11089
-30082
-12989
6696
12796
-267
7982
-4819
32410
-10973
-692
-18749
9213
18854
-8185
9659
8616
-32766
131
17976
7598
17895
-22401
14383
-552
-26272
-7678
18901
-18622
30633
-11631
-7750
-7555
-18701
-26906
11037
-26840
20532
7508
-7189
-23858
-9793
-31269
1165
11788
2120
-29437
-18831
-23895
-19925
-26012
6505
-2499
25265
1649
-2312
-22053
15649
-13177
12796
-30164
20014
12067
3655
-32562
15828
-20138
1066
-9964
5038
-3712
-5061
-32373
25421
-6928
703
-11303
-18719
-4667
19202
-14017
30213
-12681
1828
4885
-2517
593
8099
-20339
19878
-2723
20745
10074
-31013
10574
26862
-18763
9515
-6659
16091
18282
-18507
4413
18587
-14254
19774
26127
17150
-2861
-24636
-9845
14668
-15594
14317
-23582
-11640
-4908
-26241
19623
18433
7279
15826
-12261
-11308
20743
-32670
2517
26028
19904
-9747
24
9078
-7112
337
25719
-15362
12782
-15453
-6129
-25071
21097
-21088
1486
-13816
23962
-29154
11339
-28428
16293
2927
-13417
7314
23712
-29289
-14689
-1472
-24158
-15562
-7326
-5396
-5459
-32349
-5214
-5329
-10235
13479
-1804
-24875
21328
-2697
5529
-23824
1125
8532
-19726
-15719
20226
-20385
-25653
10581
-11772
13419
17187
-15079
-17638
-11440
-15334
-1090
927
3681
-32559
-1044
-1687
16981
-28023
3022
-17922
11548
3554
-13588
-29816
-4310
-14010
12401
-18112
5265
-3862
-8024
-16362
28537
-16101
-5896
-9149
-5689
-4604
-8583
-31622
11280
-19503
-36
6585
-9202
-5757
-2909
-19251
32752
-983
-17010
-11460
1721
-6753
11459
-30698
24609
6230
-1848
-17229
1690
-9939
3820
-32543
13605
-14539
-3260
-8705
-18959
7597
3743
-17348
17174
-19124
-10775
26980
-32766
-100
25970
-1782
6263
19563
15983
28604
-17697
-11742
-5491
-4868
2696
4069
-19809
-800
-23363
22974
1108
-1461
-203
-21456
-27216
18246
-21499
7828
15837
8065
-7137
-9755
-3435
5192
-29553
14152
7959
31785
-9927
15466
-3416
14026
-14041
-6582
11527
16188
-22798
-23535
5635
14980
-21731
2909
10235
19280
-24257
-13091
-26168
9951
19556
-26291
-17778
4807
-22055
-8654
-28692
-15823
14733
-5863
-18510
10117
-16811
-28125
-8581
3910
-4965
10251
3745
2813
-25839
-20149
10217
-109
20430
-376
-17965
-11782
640
-5525
-6587
-32097
14279
-9525
-7955
-6766
702
-15095
13806
-27832
32537
-3873
-16795
-15189
5710
-32265
-3732
-15172
19563
12681
-8005
-31773
9107
-20899
-8058
-4058
-5420
-9990
-15881
-28661
12777
-26279
-4078
-2315
1886
16880
-8451
-654
28656
-2769
-1355
-7138
11621
30636
11048
-30848
12749
-9148
18447
13939
-15717
6944
7484
-16315
31400
9363
14959
1610
-30561
2062
9586
-31333
-4135
-153
-17893
10942
-24
-6158
915
-22013
10681
-11853
-26881
17833
-32544
3815
12908
2086
400
-3742
-2367
25084
-30226
12649
7959
-17963
-24241
-890
3864
9654
-32384
4991
-9016
-7763
-17486
7801
658
-4136
-31721
8210
14986
-15152
-31842
-7728
7306
-16192
-13134
4264
25426
15072
16843
-28106
-23989
-13935
-4169
-3691
-12909
30116
-11818
8953
-6824
1926
2419
2362
19061
26652
25185
-18756
14854
-23434
-25049
-14970
-12474
-58
-29027
-15201
-6526
-8569
14301
2816
-17866
25169
9342
-31406
-17476
4049
6615
-9078
-852
4282
15864
-28670
6214
-6861
-4282
1549
-18366
-7290
16163
-15364
-11571
-30655
24051
1847
411
-32764
7380
-29537
-4313
-13467
10763
-11237
-13638
-29793
11994
-24541
13104
-1157
-18708
4846
10786
-30940
28103
-14606
12759
-9856
-9610
-7871
-19522
-26316
8149
22103
10426
16465
-15789
-16774
3751
-20902
5463
5078
29161
14941
-20711
8038
-667
-27228
23522
-15250
-18739
-3348
-10128
31162
-2894
-8410
1856
-10145
7338
16480
-28313
16493
2089
-20430
3948
-6862
-2719
4415
-30160
12806
8970
-18866
1416
-8728
-2200
12586
-32444
-4586
8028
14092
-14537
-3264
-7784
19720
-23737
22588
-9414
26895
-22184
2157
-32746
-1148
9693
30903
11345
29514
-20958
11674
7141
31979
-18985
-14700
2827
25194
-32568
-3603
26314
16124
-21867
11445
-6182
-7257
-27716
-17478
-6340
986
-3015
2294
8605
18640
-20345
-7736
-11625
-5456
31626
-8570
-4420
19988
-12889
-30125
-9187
5616
12555
11151
-6459
-5615
-19278
-26495
-12230
-8436
25110
-16068
18738
-18261
-5634
-30311
18585
-26985
22079
-7921
-856
-6683
31368
-9470
31369
-9298
-17987
-15717
-25813
5771
20836
-25288
3901
-290
6998
20046
-8061
-11768
22844
-23490
-6076
58
15090
4817
1710
-32722
23251
-8348
12020
-7779
-10174
-4381
2439
-32676
3776
1409
8280
-6125
-7278
-10494
-5737
-32260
4539
10907
-3571
10406
-11258
-20058
18943
-15452
32619
3108
1295
11109
-12298
7868
13741
-29746
5654
-6261
-2036
-15435
-10066
19212
22246
14677
8805
1027
9258
31431
-12109
1529
24443
-14156
7381
-10621
1541
-7876
-27625
17621
13614
-28527
-5524
3449
-13400
-18557
-32764
-398
23046
15554
-24606
6615
30804
11170
-22647
11333
8674
31597
949
897
-18027
23596
-5418
-14103
-2011
32705
-13822
-18637
-26126
136
3121
15531
-11388
24716
-30905
-10887
-30526
-11365
13607
-5538
-5444
7355
-20955
8895
13372
-29913
7609
99
-29355
14558
-24822
643
-3948
-232
6816
11163
-2351
-11166
-23905
-10882
1459
-26491
31518
-8958
3224
5440
-25428
-18645
15560
4870
32661
-2631
-10886
-19925
-3625
-25795
-11596
-24520
32708
-1949
-15994
-28598
17111
-25140
30132
-1746
2162
-8430
-4621
-32423
19603
-9780
32605
3244
-21723
-9216
11339
-22890
21781
-24479
12335
26002
-11890
-12777
7766
-31833
19310
-12050
6535
16978
-6972
-4699
6014
-14294
31706
-8270
13393
12951
-29702
11128
-4605
-31725
24945
3537
-32747
-1123
-8340
10055
-4619
-32439
-1734
28877
-9923
24056
-25140
-10562
4153
2395
7259
-3281
-8902
31534
-23279
812
18899
8754
14014
-17388
-2252
13057
-25832
20158
13635
15814
-3886
14264
2689
24044
-32509
-4101
7873
5163
-21769
24490
-5348
-20422
965
4233
28373
16390
-4384
-21093
5407
-6367
-26092
7918
8385
31675
-26147
-5480
18909
25728
-4314
7055
-20855
10339
-25137
-17443
-26301
3187
-20143
-25844
-22219
13664
716
-23953
-20179
-25816
-17103
-12141
-15994
12212
-12753
-4215
-10205
-31137
26255
-12295
-9162
16130
-27618
-6040
18200
-15587
31649
8483
-12699
-10010
170
9033
11896
-21785
19164
-26577
-4777
-25364
-4749
-14218
28875
9849
-1392
-32737
16518
-28298
1558
-18409
22591
-15923
29631
-10260
-6514
-32112
2967
-27012
-5280
-62
3929
-1533
-1738
-32720
6155
-8975
1419
-7498
-3356
-4600
5268
-31937
25186
-20959
-1643
19143
-23488
-13220
28638
-15921
18544
-1185
6085
221
12296
-3816
6838
-28652
31789
7943
-2163
-5753
-27844
-13465
6389
-32137
-5542
13384
1871
4194
-18962
-1618
19724
-15271
5547
-32293
-17732
9237
-17942
16891
18000
24234
4979
-21715
-10504
31037
-16004
23601
9468
-22590
-32242
5836
-11176
-19461
401
7695
7450
27291
-32593
-3367
18373
23231
-12666
24131
-4216
5462
-32331
-5322
-1973
12171
-44
6120
161
24139
-27240
-18211
-6417
10643
3515
12792
-4550
-330
-20713
-25389
-12874
-3315
-7709
-6158
5925
8151
-26268
-19586
880
7115
15486
-2853
-31164
10123
-22847
18567
-6688
-18459
21952
-8335
4860
5087
-5905
-3746
-1783
-23777
32460
4471
-18787
-2589
-10345
-31090
-9525
-135
16580
4311
-15627
-16368
-14971
-29146
2201
-16988
16649
22795
2594
-32664
3401
-19622
-6003
-22480
22378
-5962
-21234
-24955
-2879
-16886
20428
7261
-11436
19364
19263
-26506
11043
-10472
2977
2445
5427
-20296
-4005
-32521
16747
-15719
7061
5612
-23555
11007
-7404
-31919
-60
-5522
-1627
11319
-17102
7377
-8612
-19496
-6248
-15855
-10074
26641
-22193
24106
7269
-19792
-448
-13295
1960
2963
-22653
23674
-1434
624
7292
-8300
-7165
-5900
-16066
28557
28482
9361
-32428
-4697
15232
26240
-1201
15564
-11616
14697
-24690
21541
4902
6888
-9623
17249
1945
16803
-31994
-7073
1067
20203
4541
14498
13461
9362
-10958
-30880
-4392
-2049
-12656
16929
-238
10307
-31541
-8876
3645
-8972
11496
20868
-15858
578
-32414
-4794
-13564
4622
6984
-8058
18854
6462
-3279
-32602
1838
-3485
8173
3417
-21903
-7118
-28904
-15433
-3479
-12000
8837
-7323
-20916
-25222
-14205
-24501
8574
-8486
-18730
-5597
-12857
-10719
7485
-31900
-1846
-16674
-2538
11031
-32159
-6279
11668
-22471
-26223
-2469
17692
2068
-31950
-7270
-16818
4946
21413
-4735
15814
23073
-30178
-12764
11793
-9625
6208
5510
-12409
21880
-6171
-32180
4120
-12891
3524
-7197
-13581
4570
14958
-29153
21438
21530
13965
-6587
-1098
-24684
19921
-26015
21886
-10911
5305
-10982
-12572
634
7604
-14128
20871
-19282
-23391
22946
-15805
15711
4989
-24849
2584
4557
10005
-2179
-31667
8416
10499
90
-3598
10048
-21487
24737
-10391
-892
18435
-7122
-29003
-15246
10237
21028
-18751
15102
13326
-4045
-29669
13905
10881
-2686
-15145
4022
-2354
1010
-28402
-16338
-22743
-1625
-1875
15125
-11200
30793
-28105
-768
-8006
7761
-5740
18016
2216
9777
-22407
-23907
-7175
-289
5166
13996
4637
20141
-14010
-29620
5165
-8103
789
22440
-14393
16603
-18079
-5757
5928
-32226
10902
14335
-30905
1748
-31235
-9900
16845
-4661
-2562
-11392
-22324
-6242
-9686
16096
12308
-30367
14224
-9594
-6839
-30529
-28643
-15913
23805
-13337
15042
-10764
-19160
-16720
24422
6554
2996
-7235
7359
-31929
10790
-14283
3641
-32564
28334
-7703
5475
21244
3868
-32537
16247
2144
18539
-15078
-390
-7811
14408
-29429
30776
-7820
-10014
6617
847
-28930
19983
-3467
31120
10257
5385
-1880
16310
5829
7765
-31833
7293
-22879
-16783
162
-6733
3983
19393
-19731
25084
-14573
-1535
12991
-26446
19346
10697
-30971
-1010
10212
6925
6483
-31843
5070
15649
5821
3965
10860
-31133
10217
-13339
26945
11445
20574
-22234
6489
-28492
16181
20080
13145
9107
-588
-32758
-739
4396
12465
-18109
6121
-2435
-6592
-29926
7497
-32689
-2245
-11593
-20555
1527
32731
-16356
-2800
409
5884
3749
17290
-9717
11678
-31930
7356
-4861
-9729
9574
-52
949
18271
-25596
-20457
1974
13573
8037
6936
6699
9885
-13993
-8392
-3130
-5530
20916
-25222
8456
11499
-16044
-19616
12268
-15724
31955
-7245
1910
1487
28106
-15495
4923
-32394
6501
-6633
-17435
245
10873
-6734
-16539
-28286
23327
9011
-20018
-25940
2795
-28316
-5443
-20497
-6506
16700
-7522
-31891
-3235
3596
-5762
-12582
13739
-19613
-17747
-27544
3973
-7404
-1404
-6368
-5893
5409
-1826
-32716
19456
-4560
13076
-14729
-20351
5328
-5199
-8448
28024
16980
8988
14998
-15793
2330
23934
-16527
4356
5484
27079
18448
-10103
-680
30258
-12573
17204
12561
7733
-5761
1797
7847
-15346
-16617
-3233
26259
-13587
-2404
-24729
21496
-95
-26228
-16454
18300
-10958
18290
-22770
-23562
17141
-5587
-22244
-2615
5376
5215
-27306
18111
22154
24141
624
19360
-9724
-13602
-14120
12102
-13901
-3307
-17758
22932
-11319
-30749
-12443
5284
10696
2399
-28585
-16016
-12131
-20648
3228
5344
-10564
6291
-28300
16516
12618
6596
-17746
-22082
-12714
15266
-32285
-5599
-8164
3258
18693
4465
7386
8669
-9573
-20403
-18090
378
25954
-20000
4635
5432
-20657
-25434
11728
-1210
18507
-2917
-18775
4141
-21570
17246
22628
-11759
27665
-17557
-29056
-15145
18093
346
-24768
-10309
1246
-24051
13323
-20064
11348
-30738
-827
6199
17249
-22276
-16745
-28164
7268
1849
-1561
-20597
-6941
-2863
-16229
-28465
11376
3372
-13981
-8060
1441
-10841
4015
-12946
31903
-7473
-2644
2265
6304
11176
7181
-16360
5984
-19487
7827
31818
-19397
3001
12994
-30080
12739
5417
18103
17039
-28777
-12880
2308
-14689
4719
-12858
355
12592
-27015
18542
21422
-24794
-18950
-5222
15614
10785
-17893
8160
5679
19836
16645
4556
-32368
5093
8196
8739
4285
9369
-28200
141
1729
23517
-26186
19696
8431
11150
-32690
-2231
-11818
2173
-3431
16570
-2075
7589
-25903
20067
4424
-7449
-11329
-1124
17435
11156
-13329
-5151
-20369
-25666
27487
-351
4003
2061
-32040
-6861
10868
-3691
9599
7158
10014
19218
-26061
-19860
6743
3167
20379
7231
-11346
-1457
-32656
2691
5845
-16952
20474
-14120
-3242
6036
-24578
-21670
148
3814
25646
-5926
-3159
-319
-11156
-3823
-4435
-7342
30625
-11650
-31330
-9596
-5370
-17221
-10872
-15523
17209
12482
-9900
-14124
5344
-32328
-15501
-6048
19314
7088
-346
-32765
20823
-4597
-5534
-18763
8969
-17168
-10827
-30926
-2109
-2396
-5741
-7826
14879
397
-2654
-21396
19914
-26021
-9369
8868
-13843
10167
5334
-32329
6435
-2800
-8861
-11809
-182
-7042
3737
-32553
2495
-8838
-6415
9019
-17009
-5376
-4564
-32447
-12364
-5532
-23091
7362
-9289
8454
19262
-23690
3616
-16669
-1573
23327
-29270
-14728
10659
-6042
17039
-11699
-15650
8398
-32558
3687
7718
16219
-5730
12159
-10631
6185
-28027
16973
13707
29761
2019
11348
-90
-5509
-10653
15018
-1287
9191
-23983
-22326
-23664
11397
-10662
6146
10524
4177
-32153
-6309
13235
-10357
-7844
-1018
-7881
31805
-24310
-4474
17985
-3000
-7573
17723
-5744
7622
-2194
-32693
-14069
3404
-8129
777
-20546
16284
-26839
-7177
-21732
-3001
32766
-46
2739
-4869
-22764
-23568
267
11639
19905
-25927
-26763
-18905
-1619
9334
387
-18563
1184
-24215
-19936
-26004
-21099
-23978
16253
5654
-10435
1504
-8806
-31561
16728
-14804
3454
-16714
10303
-13538
-15701
-27510
30638
-11617
-12941
7092
224
-20568
-18327
-27162
-11613
-9073
9758
7006
-8417
12721
-8704
5576
27624
17623
2712
23167
4770
6802
5486
-32304
10600
5062
11701
-10694
-15119
-2931
-22908
-23427
-3609
18004
-11454
5605
-15701
9048
13341
-29286
-14019
29616
8706
-3683
-7773
16649
21388
-5288
-237
-17731
-1761
10603
-16659
28215
22456
2405
8815
515
-19087
-13790
-12586
30253
7907
4709
-11215
-9646
-1046
7780
-25745
20269
21475
851
-29896
-13411
-11284
9075
15819
-3832
4365
10713
-4755
-14991
-31381
9427
6080
-7453
-9930
-1083
-29503
-14256
-14123
-15632
-1890
10793
-13592
11881
-32431
4673
516
-21215
15173
16889
-7361
21617
-32582
3467
13201
-307
17833
4832
-21489
16274
-25015
2560
-6164
-18837
31534
-8900
-24554
-19828
-19432
-15380
-12445
-30311
13759
1580
-32751
1006
-18392
-24569
-6833
7891
16006
979
-31749
-5823
17404
8333
11743
-30590
-3470
12581
-7928
-31793
-1931
-5144
11678
-14000
14228
-10203
3446
-24193
19879
16390
21186
-24996
26575
-4438
-1627
-15584
24600
2735
1729
21386
-17268
-27847
2044
-32703
6109
4919
11283
-536
-11278
-10001
9534
-23264
27468
-17865
-16937
10570
-15149
-11512
21954
-20758
29934
13327
-4280
15339
-11120
-8186
4553
-17082
-615
14667
22369
1056
-30070
13015
5588
-5212
6832
29705
12438
-14534
-25020
21157
24579
14253
-32676
2427
-5326
30178
-14726
27380
-10244
23353
-3951
17246
-32652
2735
-16602
19933
2523
7089
-32728
1594
9519
16246
-8826
4049
16974
17167
-32737
-1393
-15056
16665
5562
-24617
-13187
5098
-16757
-6803
-19426
-26387
11153
21682
1575
17462
-32637
-2915
3176
-15548
23126
7642
6265
-5662
-23980
-4809
-6747
-16917
25929
-20033
-10540
7500
-30979
-10674
18662
-22002
18908
-1449
-16383
-4047
-24391
3098
-4564
-15935
31433
-9252
-27049
-16548
-10237
-20243
28573
-16039
5612
-5397
-15801
-22679
5350
-6039
28404
-16336
-3797
-5267
-32591
3387
11730
-8573
-11957
13309
8566
5482
-27513
-17795
6707
1159
-8515
2706
-10375
-1003
-11052
-30846
-14170
-9803
-2070
-3904
1225
6795
-8591
-24675
-1089
-24935
2083
32700
-16866
15446
-277
-19561
27893
17193
15598
-9183
-26012
11560
22510
-23811
1726
3747
25343
1178
-15474
3992
3856
-16159
13025
16360
2134
10605
-32515
4053
6402
891
-3644
-12338
-28210
16669
-8436
24205
-15405
-7687
-16468
11763
-17739
-21940
-10387
31077
-3367
8932
-31678
8375
466
25741
-10797
106
26666
19041
-22937
-1475
-7568
-4753
12526
4652
6545
4114
-29286
-14696
-373
-974
-6487
7570
7772
31831
-10117
22113
7253
-14185
17154
-1528
-18189
12779
-29562
14133
6528
-8692
7103
7080
-22256
24048
-27173
-13255
-9871
8202
11946
10803
-25866
13088
-18060
27340
14391
-28284
18331
-3204
-22248
-16854
-25112
-6227
-1182
-8479
17580
-27651
-27155
-18337
-17988
-13600
-14604
-11511
23420
-6348
-27705
-17494
10985
-18045
-3833
-22622
-8640
15371
-5787
-32251
10606
-23129
-10371
-3959
499
-11746
-13690
-29770
23272
-16678
-168
11232
-17825
-10539
13228
-29977
21361
-8307
3944
-15878
-1117
-5747
14855
-23419
31386
-9410
-5331
4794
-12480
-16505
-20593
-11528
4930
18350
6378
9715
-18834
26813
11811
-15800
8371
-19249
9111
10165
-26667
19039
-17075
-22386
-16604
9810
-15104
7071
-22275
24030
7327
-31937
-14252
7533
-10830
1190
-12762
-16194
12921
11883
-32105
6549
-3254
28170
6338
3624
25278
20849
-7456
-6758
4615
1883
-10153
18764
13417
5309
-24380
-15975
-1025
12842
-32765
-326
4024
29148
-32603
-3268
12361
4822
5323
21818
-20291
16199
-30772
-11256
-6795
8838
-7465
13493
30258
3721
-18667
-21997
8437
-31662
23228
-11600
-26693
